
\data\
ngram 1=630
ngram 2=4267
ngram 3=3547

\1-grams:
-0.9457841	</s>
-99	<s>	-1.316436
-2.065874	a	-1.374306
-2.194377	about	-0.7125616
-3.375267	after	-0.3924412
-2.500206	afternoon	-1.702197
-3.516596	again	-1.093907
-4.63054	ahead	-0.3165471
-2.662057	air	-1.277575
-3.852388	air+s	-0.8280089
-4.02848	aircraft	-0.6894922
-4.63054	aircraft+s	-0.3208617
-3.099061	airline	-0.9289913
-2.429143	airlines	-0.8312006
-3.375267	airport	-0.4152006
-4.32951	airports	-0.4481593
-4.63054	airway	-0.3198941
-2.977327	airways	-1.286805
-3.215566	alaska	-1.414275
-3.852388	albany	-0.7310634
-3.551358	albuquerque	-0.7147253
-3.63054	all	-0.6683091
-3.93157	allentown	-0.2478706
-3.215566	aloha	-0.9245527
-4.153419	already	-0.5868467
-4.32951	alright	-0.2674959
-4.63054	altitude	-0.2688741
-2.949299	am	-0.9907352
-3.215566	america	-1.430987
-2.361027	american	-1.768833
-3.63054	an	-0.5880402
-4.153419	analog	-0.6390275
-3.852388	anchorage	-0.4422756
-2.779281	and	-0.5497372
-2.589147	angeles	-1.033052
-4.153419	another	-0.3854751
-4.32951	answer	-0.2688512
-3.93157	antonio	-0.291811
-1.730719	any	-1.683691
-4.02848	anything	-0.5301567
-4.63054	anytime	-0.2688741
-4.63054	anyway	-0.2688741
-4.63054	apparently	-0.3152401
-3.72745	approximate	-0.9518976
-3.516596	approximately	-0.3533966
-1.705744	are	-1.95724
-4.63054	arizona	-0.2688741
-1.698066	around	-2.148694
-4.63054	around:	-0.319333
-2.431883	arrival	-1.397049
-4.63054	arrivals	-0.3048835
-2.003174	arrive	-1.586915
-3.676297	arrived	-0.3837731
-3.039475	arrives	-0.5550648
-1.682616	arriving	-1.784009
-3.676297	as	-0.3593739
-4.153419	ask	-0.2590744
-4.63054	asked	-0.3199043
-4.63054	asking	-0.3184848
-3.852388	aspen	-0.2920372
-1.94212	at	-1.130587
-2.70626	atlanta	-1.137745
-3.852388	atlantic	-0.8441514
-3.852388	austin	-0.3934759
-4.153419	available	-0.2453962
-3.852388	away	-0.8356203
-4.63054	b	-0.2688741
-4.63054	back	-0.2688741
-4.32951	baggage	-0.3119711
-3.551358	baltimore	-0.8382694
-3.785442	bangor	-0.2943055
-3.785442	baton	-0.3733801
-2.239605	be	-1.420257
-3.72745	beach	-0.4002288
-3.72745	before	-0.4696291
-4.63054	beg	-0.3210753
-4.63054	beijing	-0.3210651
-3.02848	between	-0.6073429
-3.93157	birmingham	-0.2676339
-1.593113	boston	-1.53516
-3.785442	boulder	-0.3641222
-4.63054	breakfast	-0.3144665
-3.676297	buffalo	-0.3007466
-3.93157	burbank	-0.3100418
-3.785442	burlington	-0.4045679
-3.268812	business	-1.379926
-3.93157	but	-0.2932452
-4.02848	bwi	-0.2934944
-4.153419	by	-0.3117321
-2.365722	bye	-2.13552
-4.153419	c	-0.4019642
-3.785442	california	-0.9380717
-4.63054	call	-0.2688741
-4.02848	calling	-0.6827579
-2.370468	can	-1.973137
-4.63054	canada	-0.3040066
-4.32951	cannot	-0.3210245
-4.63054	cape	-0.3210855
-4.32951	caracas	-0.4492299
-4.63054	carolina	-0.3062746
-4.63054	carrier	-0.2688741
-4.63054	cause	-0.3165471
-4.32951	champaign	-0.4498405
-3.785442	charleston	-0.2858206
-3.785442	charlotte	-0.3552677
-4.32951	charlottesville	-0.306022
-1.943011	chicago	-1.301168
-4.153419	china	-0.5868467
-4.32951	christ	-0.3976495
-3.308321	cincinnati	-0.5887679
-3.785442	cities	-0.3717397
-2.662057	city	-0.8510977
-4.63054	claim	-0.3165779
-4.02848	clara	-0.6467485
-3.308321	clear	-1.342209
-3.852388	clearwater	-0.3837068
-3.375267	cleveland	-0.8551415
-4.63054	cod	-0.2688741
-3.93157	collins	-0.3149424
-3.589147	colorado	-1.185747
-3.785442	columbia	-0.4037569
-3.852388	columbus	-0.7448357
-3.785442	comes	-0.512334
-3.454448	coming	-0.7400602
-3.852388	concord	-0.5649791
-4.63054	confused	-0.3187506
-3.199176	connect	-1.444547
-3.852388	connecting	-0.8450269
-2.744049	continental	-0.9253566
-4.32951	correct	-0.3976495
-3.168142	could	-1.468889
-3.551358	county	-0.5815989
-4.32951	cover	-0.3976495
-3.268812	current	-1.07363
-4.32951	d	-0.2688512
-2.874665	dallas	-0.8488131
-4.63054	day	-0.2688741
-3.785442	dayton	-0.5088644
-3.112026	dc	-0.7586663
-3.785442	delay	-0.6276841
-3.00729	delayed	-1.032293
-4.153419	delays	-0.2674383
-2.643768	delta	-1.349888
-2.791691	denver	-0.8625959
-2.997071	depart	-1.039854
-4.02848	departed	-0.3095439
-2.696041	departing	-1.016375
-3.852388	departs	-0.4323674
-2.773207	departure	-0.8245013
-3.852388	des	-0.845037
-3.400091	detroit	-0.3740571
-4.02848	dfw	-0.3066231
-4.63054	dialed	-0.3173478
-2.744049	did	-1.358171
-3.268812	diego	-0.7923977
-4.63054	difference	-0.3206887
-4.63054	digital	-0.321055
-3.93157	dl	-0.4066546
-2.405231	do	-1.831448
-2.445848	does	-1.358833
-4.63054	doing	-0.3203731
-3.516596	don+t	-0.7251755
-2.744049	due	-1.869568
-2.967782	dulles	-1.033166
-4.63054	dummy	-0.2688741
-4.32951	e	-0.4487612
-3.199176	eagle	-0.7625036
-4.63054	early	-0.3210346
-4.63054	eastern	-0.3144665
-2.215566	eight	-0.9305121
-3.112026	eighteen	-0.5966477
-2.817626	eighty	-0.7458588
-3.785442	el	-0.3733801
-2.448696	eleven	-1.128564
-4.32951	elizabeth	-0.2684497
-4.32951	england	-0.3976495
-4.63054	enough	-0.3191389
-3.589147	estimated	-1.187889
-4.63054	even	-0.321055
-2.613506	evening	-1.970052
-4.63054	eventually	-0.3210753
-4.63054	expect	-0.3039643
-2.831199	expected	-1.802126
-3.183382	express	-1.68385
-4.32951	f	-0.2688168
-3.93157	fairbanks	-0.3099954
-3.785442	far	-1.156654
-3.676297	fe	-0.4631356
-4.63054	february	-0.3199859
-4.63054	feel	-0.3173478
-3.12539	fifteen	-0.5700417
-2.798031	fifty	-1.027106
-4.63054	figures	-0.3210041
-4.153419	find	-0.6389767
-4.63054	fine	-0.3191389
-4.63054	finished	-0.2688741
-2.605234	first	-1.726576
-2.24315	five	-0.8610165
-1.413583	flight	-1.34568
-1.606465	flights	-1.857369
-4.02848	florida	-0.3096157
-3.400091	fly	-1.123518
-3.852388	flying	-0.4652989
-2.562354	for	-0.6550363
-4.63054	forecast	-0.3199043
-4.32951	forget	-0.3010671
-3.139178	fort	-0.9023499
-2.838148	forty	-0.5147709
-2.276431	four	-0.9344912
-3.139178	fourteen	-0.6411625
-4.32951	fourth	-0.2661825
-2.385027	francisco	-1.298112
-4.63054	franciso	-0.2688741
-4.63054	free	-0.3210855
-4.63054	fresco	-0.3119815
-3.72745	fresno	-0.465744
-3.852388	friday	-0.3871647
-4.63054	friend	-0.316105
-4.63054	friend+s	-0.3210855
-1.436025	from	-1.235007
-3.215566	frontier	-1.414275
-4.63054	fuck	-0.3152401
-4.63054	g	-0.3204953
-2.174174	gate	-1.334396
-4.32951	georgia	-0.3976495
-3.589147	get	-1.176637
-4.63054	gets	-0.3136501
-4.63054	getting	-0.3136501
-2.967782	give	-1.669487
-3.676297	go	-0.6036063
-3.484412	going	-1.144484
-2.415696	good	-1.879508
-4.02848	grand	-0.6989293
-3.785442	greensboro	-0.4054962
-4.32951	greenville	-0.3210753
-3.516596	ground	-1.099043
-4.63054	h	-0.2688741
-4.32951	hanging	-0.4498303
-4.63054	hare	-0.3173478
-3.516596	harrisburg	-0.5448322
-3.785442	hartford	-0.299333
-4.153419	hartsfield	-0.3454172
-2.761308	has	-1.501137
-4.63054	hate	-0.3152401
-2.949299	have	-0.470392
-4.63054	helen	-0.3210855
-4.63054	hell	-0.2688741
-3.785442	hello	-0.5085647
-2.785442	help	-1.455833
-4.63054	hey	-0.319384
-3.589147	hi	-0.4385861
-3.308321	history	-1.290201
-4.32951	hole	-0.3976495
-4.63054	hong	-0.3210855
-3.168142	honolulu	-0.5869841
-4.32951	hour	-0.3976495
-2.958442	houston	-0.6303322
-2.497001	how	-1.441094
-4.02848	hummer	-0.5301979
-2.890177	hundred	-0.6907635
-2.268812	i	-1.200644
-3.168142	if	-0.7766252
-4.153419	illinois	-0.5868467
-1.769603	in	-0.8172824
-3.484412	indianapolis	-0.6709155
-4.63054	info	-0.2688741
-3.12539	information	-1.005339
-4.32951	intercontinental	-0.2521224
-3.589147	interested	-1.071736
-3.676297	into	-0.9887727
-1.665809	is	-1.247365
-2.224	it	-0.9435076
-4.02848	its	-0.3773079
-4.63054	j	-0.2688741
-3.852388	jackson	-0.580916
-3.454448	jacksonville	-0.5310605
-4.32951	jersey	-0.4350499
-4.63054	jesus	-0.3210753
-3.551358	jfk	-0.6590108
-4.63054	job	-0.3210041
-3.32951	jose	-0.6901563
-4.153419	july	-0.3994828
-3.039475	jupiter	-1.859514
-4.153419	just	-0.319435
-4.63054	k	-0.3204953
-4.63054	kalamazoo	-0.2688741
-3.589147	kansas	-1.078235
-4.32951	kennedy	-0.2686677
-3.785442	key	-0.3730749
-4.02848	kind	-0.6944214
-2.402653	know	-1.244251
-3.785442	knoxville	-0.5077692
-4.63054	kong	-0.2688741
-4.63054	korea	-0.2688741
-4.32951	korean	-0.3198024
-4.63054	l	-0.2688741
-3.2326	la	-0.7557411
-3.199176	laguardia	-0.9547002
-3.375267	lake	-1.388313
-3.250329	land	-1.635646
-3.42642	landed	-0.6147169
-3.785442	landing	-1.14225
-3.852388	las	-0.845037
-3.852388	last	-0.7767164
-4.02848	late	-0.3265408
-4.63054	later	-0.3136501
-3.785442	lauderdale	-0.5988121
-4.02848	lax	-0.248039
-3.050756	leave	-0.681839
-3.589147	leaves	-1.351709
-2.377687	leaving	-0.8563646
-3.074237	left	-0.4964459
-4.153419	let	-0.6364573
-4.63054	let+s	-0.320821
-3.785442	lexington	-0.3888949
-3.288117	like	-0.9605399
-3.351786	list	-0.9223247
-4.63054	listed	-0.2688741
-3.852388	little	-0.6338914
-4.32951	location	-0.4453224
-3.551358	logan	-0.471033
-3.852388	london	-0.3328261
-3.589147	long	-0.7490387
-3.268812	looking	-1.37902
-2.585217	los	-2.364166
-4.63054	loser	-0.2688741
-3.250329	louis	-0.764889
-3.852388	louisville	-0.3346728
-3.93157	lubbock	-0.4160243
-1.813636	m	-1.885944
-4.32951	major	-0.3191288
-4.63054	make	-0.3173478
-4.02848	many	-0.5231866
-4.32951	march	-0.318904
-4.02848	massachusetts	-0.4727875
-2.2223	me	-0.9584078
-4.32951	mean	-0.3147658
-4.63054	meant	-0.3040066
-4.32951	meet	-0.4461231
-4.63054	meeting	-0.3173478
-3.676297	memphis	-0.3493223
-4.63054	menu	-0.2688741
-4.63054	message	-0.2688741
-3.676297	mexico	-0.738474
-3.02848	miami	-0.8866046
-4.63054	michelle	-0.3192207
-4.63054	michigan	-0.3202101
-3.375267	midnight	-0.9805213
-4.153419	midway	-0.2531104
-4.02848	midwest	-0.6986852
-3.676297	milwaukee	-0.3625823
-3.32951	minneapolis	-0.6296534
-4.63054	minnesota	-0.2688741
-3.852388	mobile	-0.4256217
-3.852388	moines	-0.2738524
-4.63054	moment	-0.2688741
-3.93157	monday	-0.30525
-3.63054	more	-0.4478567
-2.347239	morning	-1.805821
-4.63054	much	-0.2688741
-4.63054	must	-0.3206073
-3.72745	my	-0.5151416
-3.852388	myers	-0.2725625
-4.32951	myrtle	-0.4497896
-4.32951	n	-0.4498201
-4.63054	name	-0.3116179
-3.676297	nashville	-0.4657076
-3.72745	national	-0.4609454
-3.589147	need	-0.5673733
-4.63054	needs	-0.3210855
-2.418352	new	-1.798045
-3.32951	newark	-0.4451071
-3.785442	newport	-0.3733801
-3.785442	news	-0.4932977
-2.798031	next	-1.305698
-4.63054	nice	-0.3210855
-4.63054	night	-0.2688741
-2.241374	nine	-0.9466994
-3.2326	nineteen	-0.4658883
-2.817626	ninety	-0.8941917
-2.463223	no	-1.394493
-3.785442	nonstop	-0.3726065
-2.454448	noon	-1.327507
-3.72745	norfolk	-0.3236519
-2.711462	northwest	-1.154483
-3.589147	not	-0.3155976
-3.02848	nothing	-1.91952
-3.308321	now	-1.191535
-2.987087	number	-0.4592999
-4.63054	numbers	-0.2688741
-4.63054	o	-0.3187813
-2.540635	o+clock	-1.205014
-3.93157	o+hare	-0.4090734
-3.785442	oakland	-0.625712
-1.98218	of	-1.209639
-2.804465	off	-1.350107
-4.63054	offer	-0.3102126
-2.370468	oh	-1.645308
-4.32951	ohio	-0.3976495
-3.516596	okay	-0.431647
-3.93157	oklahoma	-0.7359521
-3.93157	omaha	-0.2869474
-1.999096	on	-1.484784
-2.01459	one	-1.163123
-4.63054	one+s	-0.3209838
-3.852388	or	-0.3488252
-3.852388	orange	-0.844976
-3.12539	orlando	-0.8628308
-3.484412	orleans	-0.6846499
-3.42642	other	-0.6687369
-3.676297	out	-0.5884895
-4.63054	outgoing	-0.3102126
-4.02848	over	-0.6467485
-1.957519	p	-2.66722
-4.32951	palm	-0.4497591
-3.250329	pan	-1.698921
-4.63054	pardon	-0.2688741
-3.785442	paso	-0.4525595
-3.93157	paul	-0.2939493
-4.63054	pearl	-0.2688741
-3.676297	pegasus	-0.75567
-4.153419	pennsylvania	-0.5868467
-3.785442	petersburg	-0.2989946
-3.168142	philadelphia	-0.9102595
-4.02848	philly	-0.5172067
-3.062338	phoenix	-0.3993488
-4.02848	phone	-0.6467485
-4.63054	picking	-0.321055
-3.551358	pittsburgh	-0.2891733
-4.02848	plane	-0.4238165
-3.062338	please	-0.7726626
-3.93157	portland	-0.7206867
-3.93157	providence	-0.3537263
-4.32951	puerto	-0.4498506
-4.32951	query	-0.2687251
-4.63054	question	-0.2688741
-4.32951	questions	-0.3164443
-4.63054	quit	-0.2688741
-3.852388	raleigh	-0.2817636
-4.02848	rapids	-0.4810226
-4.153419	reason	-0.3968223
-4.63054	remaining	-0.3102126
-4.63054	remember	-0.3039643
-3.454448	repeat	-1.185686
-4.63054	requests	-0.3209634
-4.63054	return	-0.3040066
-4.02848	richmond	-0.4774477
-4.32951	rico	-0.2674959
-4.63054	ridiculous	-0.2688741
-3.63054	right	-1.318536
-4.153419	roanoke	-0.3876484
-3.852388	rochester	-0.3710649
-3.93157	rock	-0.3415827
-3.785442	rouge	-0.4037569
-4.153419	running	-0.6346943
-3.785442	sacramento	-0.3831378
-4.02848	said	-0.2566043
-3.074237	saint	-0.9672399
-3.375267	salt	-1.278571
-3.93157	same	-1.013416
-4.63054	samuels	-0.2688741
-2.278357	san	-2.205691
-3.516596	santa	-1.145996
-3.785442	savannah	-0.6908758
-3.199176	say	-0.9947914
-4.63054	saying	-0.2688741
-3.852388	schedule	-0.28569
-3.484412	scheduled	-0.4568814
-4.02848	scratch	-0.6977175
-4.153419	seatac	-0.253158
-4.32951	seats	-0.4498506
-2.82436	seattle	-0.8383268
-2.773207	second	-1.92965
-4.63054	send	-0.3210753
-4.63054	sent	-0.3210753
-4.63054	seoul	-0.2688741
-2.253963	seven	-0.78241
-3.153419	seventeen	-0.4455067
-2.804465	seventy	-0.9325365
-4.32951	sfo	-0.2639846
-4.63054	shanghai	-0.316105
-4.32951	she	-0.3210143
-4.63054	shit	-0.2688741
-3.589147	should	-0.9573372
-4.32951	show	-0.3177783
-3.785442	shreveport	-0.4468575
-2.151973	six	-1.033027
-3.2326	sixteen	-0.5815014
-2.859688	sixty	-0.8187572
-4.32951	slower	-0.3976495
-4.32951	so	-0.3133604
-4.63054	some	-0.3144665
-4.32951	someone	-0.4491892
-4.63054	something	-0.3183108
-3.63054	sometime	-1.312116
-4.63054	sometimes	-0.3209126
-3.454448	soon	-1.439867
-4.32951	sorry	-0.3029371
-4.63054	sounds	-0.3194248
-4.63054	south	-0.3210855
-3.215566	southwest	-1.717295
-4.63054	spartanburg	-0.3062746
-4.32951	speak	-0.3210448
-4.63054	speed	-0.3165471
-3.589147	springs	-0.3433518
-3.93157	stapleton	-0.2392155
-3.93157	start	-1.019944
-4.63054	states	-0.3048835
-2.121337	status	-2.048842
-4.32951	still	-0.4498405
-4.63054	stop	-0.2688741
-4.63054	suck	-0.2688741
-4.63054	superbowl	-0.2688741
-3.676297	supposed	-0.9851789
-4.63054	sure	-0.3109731
-3.551358	switch	-1.210499
-3.93157	syracuse	-0.4280801
-4.32951	system	-0.2581704
-4.32951	t	-0.4498201
-3.183382	take	-1.461716
-3.12539	taken	-1.517832
-4.32951	takeoff	-0.2688397
-4.32951	takes	-0.4491892
-4.153419	taking	-0.6383864
-3.168142	talk	-1.768641
-3.93157	tallahassee	-0.2869474
-3.72745	tampa	-0.314976
-2.437415	tell	-1.851952
-2.392494	ten	-1.03192
-4.153419	tennessee	-0.3336015
-3.551358	terminal	-1.109426
-3.72745	texas	-0.84348
-2.347239	thank	-2.279702
-3.516596	thanks	-0.7254334
-2.540635	that	-0.9877887
-3.250329	that+s	-0.8769696
-1.41253	the	-1.629225
-4.32951	then	-0.320933
-1.705228	there	-2.443799
-3.400091	there+s	-1.237007
-4.63054	these	-0.3187813
-4.63054	they	-0.3124589
-4.63054	they+re	-0.3210651
-3.93157	think	-0.475132
-3.484412	third	-1.3907
-3.351786	thirteen	-0.3149715
-2.593113	thirty	-0.9548402
-2.551358	this	-1.48305
-4.32951	those	-0.3976495
-4.63054	thousand	-0.3187097
-2.274514	three	-0.8335443
-3.785442	through	-0.302937
-1.819636	time	-1.377963
-4.32951	times	-0.3028629
-1.474294	to	-1.295348
-2.69102	today	-1.294198
-4.32951	tokyo	-0.4350499
-4.63054	told	-0.3152401
-4.63054	toll	-0.3210855
-2.831199	tomorrow	-1.163298
-3.074237	tonight	-1.40533
-3.589147	toronto	-0.8146382
-3.250329	tower	-1.396932
-4.02848	trans	-0.5336512
-4.63054	trap	-0.2688741
-4.63054	trapped	-0.3192411
-3.93157	trenton	-0.3537263
-3.785442	tucson	-0.7026377
-4.63054	tuesday	-0.2688741
-3.852388	tulsa	-0.3835047
-2.867112	twa	-1.340193
-2.652816	twelve	-0.8425475
-2.593113	twenty	-1.105455
-2.261324	two	-0.9011767
-4.02848	type	-0.6944214
-3.676297	ua	-1.253645
-2.349506	uh	-0.2507727
-4.63054	uk	-0.2688741
-2.82436	um	-0.4557359
-4.63054	understand	-0.321055
-2.068247	united	-1.633023
-4.02848	up	-0.3766617
-2.558658	us	-1.593988
-4.32951	use	-0.2674959
-4.153419	using	-0.3492395
-4.63054	vancouver	-0.3203731
-3.852388	vegas	-0.3719209
-4.63054	very	-0.3210855
-4.63054	virginia	-0.3062746
-3.215566	voyager	-1.28754
-3.93157	w	-0.276024
-2.701121	want	-1.142318
-4.02848	wanted	-0.2804832
-3.086472	was	-0.7052949
-2.744049	washington	-1.330484
-4.153419	weather	-0.6316227
-3.785442	wednesday	-0.5013942
-4.32951	week	-0.3976495
-3.785442	well	-0.6225711
-3.062338	west	-1.003374
-3.852388	westchester	-0.844976
-1.637545	what	-1.482546
-2.306257	when	-1.01584
-3.2326	where	-1.7069
-2.949299	which	-1.028823
-4.32951	who	-0.3124485
-4.02848	why	-0.3707508
-3.852388	wichita	-0.2851951
-1.985117	will	-1.312729
-3.785442	wilmington	-0.3129599
-4.63054	wisconsin	-0.3119815
-4.153419	with	-0.6389767
-4.63054	won	-0.3039643
-4.63054	wondering	-0.3183108
-4.63054	wood+s	-0.3210753
-4.63054	woods	-0.3210753
-4.63054	work	-0.2688741
-4.153419	world	-0.6374485
-3.516596	worth	-0.6166037
-3.2326	would	-1.301519
-4.32951	wrong	-0.3183006
-4.63054	ya	-0.3187506
-3.852388	yeah	-0.3355538
-3.074237	yes	-0.5733629
-2.906264	yet	-1.991772
-2.484412	york	-1.129705
-1.873144	you	-1.5087
-4.32951	your	-0.3203731
-4.63054	yup	-0.2688741
-3.268812	zero	-0.809921

\2-grams:
-2.906604	<s> a	-0.3363506
-3.082696	<s> about	-0.1299306
-3.966606	<s> after
-3.574111	<s> afternoon	0.7838039
-3.574111	<s> alright
-2.538628	<s> american	0.1208818
-3.966606	<s> any
-3.966606	<s> anytime
-3.966606	<s> apparently
-3.320906	<s> approximate	0.05702691
-0.8155239	<s> are	-1.592796
-2.480636	<s> around	-0.1044056
-2.286816	<s> arrival	-0.1535254
-3.082696	<s> arrives
-1.417584	<s> arriving	-0.4869872
-2.383726	<s> at	-0.5050045
-2.906604	<s> atlanta	-0.1420089
-3.966606	<s> austin
-3.966606	<s> beijing
-3.073709	<s> between	0.04705602
-1.770942	<s> boston	-0.971585
-2.570812	<s> bye	0.6737532
-1.520403	<s> can	-0.5063421
-3.574111	<s> champaign	0.1033411
-2.269782	<s> chicago	-0.09536171
-3.966606	<s> christ
-3.574111	<s> cincinnati	-0.1382539
-2.362536	<s> clear	0
-3.320906	<s> cleveland	-0.472201
-2.286816	<s> connect	0.03218465
-2.906604	<s> continental	0.280069
-2.253392	<s> could	0.0169764
-2.684756	<s> delta	0.08368176
-2.781666	<s> denver	-0.7281772
-2.031543	<s> departing	-0.01759921
-3.073709	<s> departs	0.1034277
-2.179606	<s> departure	-0.1513037
-3.966606	<s> detroit
-2.140687	<s> did	-0.04019737
-3.574111	<s> dl
-1.663566	<s> do	-0.4989666
-3.574111	<s> does
-3.966606	<s> dulles
-3.078635	<s> eight	-0.3097939
-3.966606	<s> eighteen
-3.320906	<s> eleven
-3.574111	<s> elizabeth
-2.781666	<s> five	-0.02949504
-2.362536	<s> flight	-0.06319667
-2.342333	<s> flights	-0.3237205
-3.966606	<s> forget
-3.078635	<s> four	-0.2469568
-3.574111	<s> friday
-2.253392	<s> from	0.01860125
-3.966606	<s> fuck
-3.574111	<s> get	-0.2440938
-2.570812	<s> give	0.5259698
-1.502912	<s> good	-0.2680297
-3.966606	<s> harrisburg
-1.821433	<s> has	0.3209816
-3.966606	<s> have
-3.078635	<s> hello	-0.07527858
-1.96048	<s> help	-0.6128716
-3.966606	<s> hey
-2.643363	<s> hi	0.02901156
-3.966606	<s> honolulu
-2.781666	<s> houston	-0.1956449
-1.584385	<s> how	0.03525774
-1.488856	<s> i	-0.3971311
-2.684756	<s> in	0.03150233
-1.344311	<s> is	-0.8666672
-2.730513	<s> it	-0.6644171
-3.320906	<s> july	0.04592077
-3.966606	<s> just
-3.574111	<s> knoxville
-3.574111	<s> la
-3.966606	<s> laguardia
-3.966606	<s> late
-2.304544	<s> leaving	-0.449952
-3.320906	<s> let	-0.1853153
-3.966606	<s> let+s
-3.078635	<s> list	-0.5694921
-2.730513	<s> los	1.045323
-3.966606	<s> miami
-3.966606	<s> minnesota
-3.966606	<s> monday
-3.574111	<s> morning
-3.574111	<s> my
-3.966606	<s> n
-2.730513	<s> new	0.6014178
-3.966606	<s> next
-2.781666	<s> nine	-0.3122818
-1.532467	<s> no	0.1272341
-3.966606	<s> noon
-3.320906	<s> northwest
-3.082696	<s> not	-0.0854013
-2.093691	<s> nothing	0.01099539
-3.966606	<s> now
-3.073709	<s> oh
-2.605574	<s> okay	0.04183409
-3.574111	<s> on	-0.342452
-3.320906	<s> one
-3.082696	<s> orlando	-0.2396344
-3.574111	<s> philadelphia	-0.08825185
-3.574111	<s> phoenix	-0.1933015
-3.574111	<s> pittsburgh
-2.730513	<s> please	-0.09027043
-3.574111	<s> saint	0.1305914
-2.570812	<s> san	-0.1509269
-3.320906	<s> santa	-0.6782555
-3.966606	<s> say
-3.966606	<s> scheduled
-3.082696	<s> scratch	0.06812896
-3.082696	<s> seattle	-0.2878718
-3.320906	<s> second	-0.1402537
-3.082696	<s> seven
-3.966606	<s> show
-3.574111	<s> six	-0.2676371
-3.574111	<s> so
-3.082696	<s> start	0.06812896
-3.082696	<s> status	0.4804215
-3.966606	<s> stop
-2.643363	<s> switch	-0.2632414
-3.966606	<s> t
-3.966606	<s> taking
-2.153277	<s> tell	-0.04991344
-3.073709	<s> ten	-0.281256
-2.286816	<s> thank	0.870584
-3.082696	<s> thanks	0.2753913
-3.082696	<s> that	-0.5094188
-2.643363	<s> that+s	-0.2254529
-1.671918	<s> the	-0.8469498
-3.966606	<s> there
-2.570812	<s> there+s	-0.2167091
-3.320906	<s> this
-3.078635	<s> three	-0.5070639
-3.966606	<s> time
-3.078635	<s> to	-0.1931339
-3.574111	<s> today	0.4468614
-3.966606	<s> tomorrow
-3.966606	<s> tonight
-3.574111	<s> toronto	-0.1502352
-3.574111	<s> trans	0.02796826
-3.073709	<s> twa	-0.456258
-3.082696	<s> twelve	-0.5396082
-3.073709	<s> two	-0.205493
-3.966606	<s> ua
-1.792661	<s> uh	-0.07942559
-1.985786	<s> um	0.01186812
-2.093691	<s> united	-0.04915307
-2.730513	<s> us	0.7138376
-3.574111	<s> want	0.1515253
-2.730513	<s> was	-0.1958088
-2.730513	<s> washington	0.08082186
-3.966606	<s> wednesday
-3.073709	<s> well	0.0580857
-0.720496	<s> what	-0.06900766
-1.410598	<s> when	-0.4694509
-2.304544	<s> where	0
-2.166242	<s> which	-0.1826624
-3.574111	<s> who
-3.082696	<s> why	0.0295347
-1.334508	<s> will	-0.4310098
-3.574111	<s> would	-0.3235184
-3.073709	<s> yeah	-0.002700615
-2.222358	<s> yes	0.149758
-3.073709	<s> you
-3.966606	<s> yup
-3.966606	<s> zero
-2.846517	a city
-2.454022	a continental
-2.846517	a delay
-2.200817	a delta	-0.3427618
-2.200817	a departure	-0.364991
-2.846517	a digital
-0.4818807	a flight	-0.8532366
-2.846517	a friend
-2.846517	a gate
-1.564666	a list	-0.665729
-2.846517	a little
-2.846517	a loser
-0.2974943	a m	-0.3758191
-2.846517	a major
-2.846517	a new
-2.846517	a nice
-2.846517	a northwest
-2.846517	a of
-2.846517	a question
-2.846517	a return
-2.846517	a second
-2.846517	a six
-1.786515	a southwest	0.5698753
-2.846517	a toll
-1.661576	a twa	-0.3669058
-2.846517	a twenty
-2.846517	a ua
-2.846517	a uh
-1.95362	a united	0.312429
-2.200817	a us	-0.4600717
-2.846517	a wrong
-1.533073	about </s>
-1.39477	about a	-0.3905405
-1.830042	about american	-0.1050991
-2.718013	about another
-1.658011	about any	0.1739089
-1.834103	about around	-0.09864572
-2.718013	about arriving
-2.325518	about at
-2.718013	about c
-2.325518	about continental
-1.533073	about delta	0.1166336
-2.718013	about departing
-1.834103	about eight	-0.3950818
-2.718013	about eleven
-1.830042	about five	-0.5792427
-1.232043	about flight	-0.07279457
-0.8679609	about flights	-0.174636
-1.834103	about four	0.002338809
-1.830042	about from
-2.718013	about in
-2.718013	about information
-2.325518	about it
-1.48192	about leaving	-0.1629925
-2.718013	about mexico
-2.718013	about miami
-2.718013	about my
-2.718013	about newark
-1.830042	about northwest	-0.06793474
-2.072313	about one	-0.1711273
-2.718013	about other
-2.072313	about seven	-0.1248647
-1.658011	about six	-0.5372181
-2.325518	about southwest
-2.718013	about ten
-0.845098	about the	-0.1323389
-2.072313	about three	-0.02974047
-2.072313	about tomorrow	-0.3037966
-1.825116	about twa	0.1752446
-1.825116	about twelve	-0.2910295
-2.718013	about two
-2.718013	about ua
-1.356981	about uh	-0.03254171
-2.325518	about um
-1.004799	about united	-0.01221033
-1.658011	about us	0.8197084
-2.718013	about what
-1.537123	after eight
-1.537123	after eleven
-1.144628	after five	-0.2215911
-1.537123	after noon
-1.144628	after one
-1.537123	after seven
-0.891423	after six
-1.144628	after ten	-0.2088543
-1.144628	after that	-0.2819306
-1.537123	after today
-1.537123	after twelve
-1.537123	after two
-0.03342376	afternoon </s>
-2.019689	afternoon at
-1.519287	afternoon expected	-0.6244654
-1.766484	afternoon on	0.5089189
-0.03218468	again </s>
-0.2818506	ahead of
-2.250334	air canada
-0.07638834	air flight	-0.2510833
-1.190332	air flights	0.3587993
-2.250334	air from
-2.250334	air sixty
-2.250334	air speed
-2.250334	air three
-2.250334	air twenty
-2.250334	air two
-2.250334	air united
-2.250334	air yet
-0.06694679	air+s flight
-0.09691001	aircraft is	-0.3206631
-0.2818506	aircraft+s current
-0.2527253	airline </s>
-0.6283889	airline flight	-0.1522638
-1.420835	airline flights
-1.81333	airline from
-1.81333	airline nine
-1.81333	airline or
-1.81333	airline scheduled
-1.81333	airline six
-0.9972771	airlines </s>
-2.090753	airlines are
-2.483248	airlines arrive
-2.090753	airlines arriving
-1.590351	airlines do	0.4827445
-1.837548	airlines eight	-0.1913703
-2.090753	airlines five	-0.3442274
-0.1970758	airlines flight	-0.2740188
-1.590351	airlines flights	-0.1041322
-2.090753	airlines fly	0.4067978
-2.483248	airlines flying
-2.483248	airlines four
-2.483248	airlines from
-2.483248	airlines have
-2.483248	airlines is
-2.483248	airlines nine
-2.483248	airlines on
-2.090753	airlines one
-2.090753	airlines please	0.07554383
-2.483248	airlines seven
-2.483248	airlines seventeen
-2.483248	airlines this
-2.483248	airlines three
-2.483248	airlines tomorrow
-2.483248	airlines twelve
-2.483248	airlines twenty
-2.483248	airlines two
-2.483248	airlines uh
-0.891423	airport </s>
-1.144628	airport and
-1.537123	airport arriving
-1.537123	airport at
-1.537123	airport but
-1.537123	airport in
-1.537123	airport please
-0.6532125	airport to
-1.144628	airport today
-1.537123	airport will
-1.537123	airport yet
-0.1903856	airports do	1.179809
-0.2818506	airway us
-1.935063	airways </s>
-0.04042866	airways flight	-0.4808037
-1.935063	airways flights
-1.935063	airways sixteen
-1.935063	airways sixty
-0.01639042	alaska flight	-0.2501327
-0.1760913	albany </s>
-1.060002	albany around
-1.060002	albany arrive
-1.361032	albuquerque </s>
-1.361032	albuquerque arrive
-1.361032	albuquerque at
-0.4771213	albuquerque new	-0.6198221
-1.361032	albuquerque that
-0.4771213	albuquerque to	-0.1359299
-0.6361505	all </s>
-1.281851	all bye
-0.8893556	all good	1.266254
-0.39794	all thank	1.654716
-0.9808207	allentown </s>
-0.9808207	allentown around
-0.9808207	allentown at
-0.9808207	allentown landed
-0.9808207	allentown on
-0.8088523	aloha airlines	0.0803275
-0.1362197	aloha flight	-0.144144
-0.1132718	already </s>
-0.5828806	alright </s>
-0.5828806	alright this
-0.2818506	altitude </s>
-1.079181	am calling	0.06812896
-1.963092	am confused
-1.963092	am finished
-1.963092	am flight
-1.963092	am from
-1.570597	am hanging	0.1033411
-0.6398485	am interested	0
-0.3195134	am looking	0
-1.963092	am meeting
-1.963092	am picking
-1.963092	am saying
-1.963092	am sorry
-0.01639042	america west	-0.507906
-2.551364	american </s>
-1.491362	american airline	0.2793053
-0.8381492	american airlines	-0.08487888
-2.551364	american departed
-0.8381492	american eagle	-0.02623891
-0.2566757	american flight	-0.3245111
-1.366423	american flights	-0.004706103
-1.491362	american from
-2.551364	american is
-2.551364	american please
-2.551364	american uh
-1.667453	american west	-0.06263931
-0.3889537	an america	0.387769
-0.6361505	an american	-0.814942
-1.281851	an analog
-1.281851	an noon
-0.1132718	analog phone	-0.1254135
-0.4143018	anchorage </s>
-0.6675069	anchorage around
-1.060002	anchorage delayed
-2.133109	and arrive
-1.245137	and arriving	-0.2765958
-1.487409	and atlanta	-0.6559791
-1.487409	and baltimore	-0.2223235
-0.5959858	and boston	-0.2457957
-1.249198	and chicago	-0.07218911
-2.133109	and dallas
-1.740614	and denver	-0.1204646
-2.133109	and dulles
-1.487409	and fifty	-0.1216116
-2.133109	and find
-2.133109	and from
-1.740614	and houston	-0.05464325
-2.133109	and how
-2.133109	and i
-1.740614	and london	-0.2413846
-2.133109	and los
-1.073107	and new	0.005361739
-2.133109	and orlando
-1.740614	and san
-2.133109	and santa
-1.740614	and then
-2.133109	and three
-1.740614	and time	0.01721639
-2.133109	and twenty
-2.133109	and two
-2.133109	and washington
-2.133109	and you
-0.3881802	angeles </s>
-1.677543	angeles and	-0.07126312
-2.323243	angeles around
-1.08715	angeles arriving	-0.6819606
-2.323243	angeles at
-2.323243	angeles connecting
-2.323243	angeles departed
-2.323243	angeles due
-2.323243	angeles eleven
-2.323243	angeles land
-2.323243	angeles leaving
-2.323243	angeles left
-2.323243	angeles on
-2.323243	angeles that
-1.930748	angeles this
-0.473191	angeles to	-1.042473
-1.930748	angeles today	0.4468614
-2.323243	angeles tomorrow
-0.7589719	another carrier
-0.3664769	another flight
-0.5828806	answer </s>
-0.5828806	answer questions
-0.5883256	antonio </s>
-0.9808207	antonio at
-0.9808207	antonio that
-0.9808207	antonio to
-3.181671	any about
-3.181671	any airline
-2.2937	any american	-0.436441
-3.181671	any any
-1.996731	any continental	-0.8739318
-3.181671	any delays
-2.288774	any delta	-1.001306
-3.181671	any expected
-2.121669	any flight	-0.1547346
-0.04369606	any flights	-0.8884953
-3.181671	any from
-2.789176	any information	-0.1635992
-2.535971	any more	-0.7102385
-2.2937	any nonstop	0.01580964
-3.181671	any northwest
-3.181671	any of
-1.89982	any other	-0.03891805
-3.181671	any seats
-2.535971	any uh	-0.1888596
-3.181671	any um
-1.858428	any united	-0.2846904
-2.29776	any us	-0.07652745
-0.2382105	anything about	-0.1885942
-0.8839107	anything i
-0.2818506	anytime </s>
-0.2818506	anyway </s>
-0.2818506	apparently you
-0.3521825	approximate arrival	-0.1645777
-0.3521825	approximate departure	-0.1714485
-1.395794	approximately eight
-1.395794	approximately eleven
-1.003299	approximately four	-0.204609
-1.003299	approximately nine	-0.3114722
-1.395794	approximately seven
-1.395794	approximately six
-1.395794	approximately ten
-1.003299	approximately three	-0.1780247
-1.395794	approximately twelve
-1.395794	approximately two
-3.206647	are a
-2.322736	are any	0.8794249
-1.526856	are arriving	-0.985943
-3.206647	are available
-2.322736	are coming	-0.2189905
-3.206647	are doing
-2.31375	are flights	0.139482
-3.206647	are flying
-2.322736	are from
-2.814152	are going	0.1305914
-3.206647	are is
-1.970554	are leaving	-0.1480127
-3.206647	are not
-3.206647	are other
-3.206647	are supposed
-3.206647	are taking
-1.563068	are the	-0.7463203
-0.04857815	are there	-1.392863
-2.814152	are those	0.1033411
-2.814152	are you
-0.2818506	arizona </s>
-3.214324	around </s>
-3.214324	around arriving
-1.35269	around eight	-0.6813059
-0.9196365	around eleven	-0.4574913
-1.169046	around five	-0.8893983
-1.045983	around four	-0.9835353
-3.214324	around i
-1.978231	around midnight	-0.4436975
-3.214324	around morning
-3.214324	around next
-1.20008	around nine	-0.6798683
-0.8425686	around noon	-0.1973823
-1.309224	around one	-0.8047302
-1.233504	around seven	-0.8275095
-1.034847	around six	-1.143925
-1.029384	around ten	-0.6023082
-2.821829	around the	-0.345455
-3.214324	around this
-1.147144	around three	-0.7512435
-1.853292	around twelve	-0.1345249
-1.176599	around two	-0.8961554
-2.321427	around uh
-0.2818506	around: ten
-2.480508	arrival </s>
-2.480508	arrival around
-2.480508	arrival at
-2.480508	arrival eight
-2.480508	arrival for
-0.5651886	arrival gate	-1.265042
-2.480508	arrival is
-2.480508	arrival northwest
-0.1816237	arrival time	-0.4694525
-2.480508	arrival times
-2.088013	arrival two	-0.3217063
-2.480508	arrival when
-0.2818506	arrivals from
-0.6103325	arrive </s>
-2.516721	arrive around
-2.021245	arrive as	-0.09909271
-0.4512746	arrive at	-0.5479211
-2.909216	arrive eleven
-2.516721	arrive from	-0.3283962
-0.4512746	arrive in	-0.1415144
-2.909216	arrive into
-2.516721	arrive on	0.3606346
-2.909216	arrive to
-2.516721	arrive today
-2.909216	arrive tomorrow
-2.909216	arrive uh
-0.3481215	arrived at	-0.8361061
-0.8435981	arrived yet	1.377746
-0.9800183	arrives </s>
-1.48042	arrives around
-1.48042	arrives at
-1.227215	arrives boston
-0.9800183	arrives from	-0.2179006
-0.5118834	arrives in	-0.03266646
-1.872915	arrives nine
-0.9849436	arrives sometime	0.6423584
-1.872915	arrives sometimes
-1.872915	arrives this
-1.868742	arriving </s>
-3.229774	arriving after
-0.2294219	arriving around	-0.528899
-0.9065309	arriving at	-0.1124775
-2.584074	arriving before	-0.6763093
-3.229774	arriving between
-2.584074	arriving boston	-0.1719665
-3.229774	arriving eleven
-3.229774	arriving five
-3.229774	arriving four
-1.257728	arriving from	0.05364436
-0.7689466	arriving in	-0.149795
-3.229774	arriving into
-2.169772	arriving on	-0.1379336
-3.229774	arriving six
-3.229774	arriving ten
-2.044834	arriving this	-0.8044802
-2.341803	arriving today	-0.05170684
-3.229774	arriving tonight
-3.229774	arriving twelve
-2.837279	arriving two
-2.584074	arriving uh	-0.1890538
-1.236093	as good
-0.3481215	as scheduled	-0.2098785
-1.236093	as well
-0.7589719	ask </s>
-0.7589719	ask about
-0.7589719	ask you
-0.2818506	asked for
-0.2818506	asking me
-0.6675069	aspen </s>
-1.060002	aspen around
-1.060002	aspen delayed
-1.060002	aspen landed
-1.060002	aspen on
-0.5123286	at </s>
-2.32457	at about	-0.1917746
-1.910269	at approximately	-0.04251536
-1.38739	at around	-0.2550347
-2.577775	at atlanta
-2.97027	at austin
-1.78533	at boston	-0.252066
-2.97027	at boulder
-2.97027	at breakfast
-2.97027	at bwi
-2.97027	at charlotte
-2.97027	at concord
-2.97027	at dfw
-2.577775	at dulles
-1.308209	at eight	-0.6422615
-2.97027	at eighty
-1.734177	at eleven	-0.3533805
-1.609239	at five	-0.3521825
-1.366201	at four	-0.4834746
-2.97027	at grand
-2.97027	at harrisburg
-2.97027	at hartsfield
-2.08636	at in
-2.97027	at jfk
-2.97027	at kansas
-2.97027	at laguardia
-2.97027	at lax
-2.577775	at logan
-2.082299	at midnight	0.2591549
-2.577775	at midway
-2.97027	at newport
-1.273446	at nine	-0.6646641
-1.542292	at noon	-0.1831445
-2.97027	at o+hare
-2.97027	at oakland
-2.077374	at one	-0.3035355
-2.97027	at philadelphia
-2.577775	at pittsburgh	-0.1683938
-2.577775	at seatac
-1.574476	at seven	-0.3615352
-1.409666	at six	-1.176764
-2.32457	at stapleton
-2.97027	at syracuse
-1.345997	at ten	-0.5147766
-2.97027	at that
-1.68842	at the	-0.5340688
-2.97027	at this
-1.226022	at three	-0.5168234
-1.734177	at twelve	-0.1578091
-1.512329	at two	-0.3546781
-1.910269	at uh	-0.1876056
-2.97027	at washington
-2.082299	at what	-0.7535613
-1.68842	at which	-0.7218793
-2.97027	at yet
-0.4929155	atlanta </s>
-1.813635	atlanta around
-1.813635	atlanta arrive
-1.322219	atlanta arriving	-0.1376006
-2.20613	atlanta at
-2.20613	atlanta from
-2.20613	atlanta georgia
-1.813635	atlanta leaving
-2.20613	atlanta on
-2.20613	atlanta right
-0.3444957	atlanta to	-0.3747546
-1.322219	atlanta tomorrow	0.2045961
-0.06694679	atlantic city	-0.05137647
-0.4143018	austin </s>
-1.060002	austin be
-1.060002	austin leaving
-1.060002	austin today
-0.7589719	available </s>
-0.7589719	available from
-0.7589719	available on
-0.06694679	away is	-0.4532387
-0.2818506	b </s>
-0.2818506	back </s>
-0.5828806	baggage arriving
-0.5828806	baggage claim
-0.1249387	baltimore </s>
-1.361032	baltimore arrive
-1.361032	baltimore arriving
-1.361032	baltimore to
-0.7344537	bangor </s>
-1.126949	bangor around
-1.126949	bangor arriving
-1.126949	bangor on
-0.7344537	bangor to	-0.3461387
-0.238977	baton rouge	-0.006246457
-2.280291	be </s>
-2.280291	be around
-1.390935	be arriving	-0.5610739
-2.280291	be at	-0.1870267
-1.214844	be delayed	0.3366539
-2.672786	be departing
-2.672786	be early
-2.672786	be getting
-2.672786	be in
-1.784814	be leaving	-0.3143036
-0.08343907	be on	-1.602466
-2.672786	be using
-0.7924456	beach </s>
-0.7924456	beach around
-1.184941	beach arriving
-0.5392405	beach to	-0.00861041
-0.5392405	before noon	0.1475877
-1.184941	before take
-0.7924456	before ten	-0.2156937
-0.7924456	before the	-0.2946538
-0.2818506	beg your
-0.2818506	beijing china
-0.5228788	between boston	-1.107925
-1.883911	between chicago
-1.491416	between cleveland	-0.3142296
-1.883911	between dallas
-1.883911	between dulles
-1.491416	between los	1.698793
-1.883911	between miami
-1.883911	between minneapolis
-1.238211	between new	0.02607625
-1.238211	between newark	-0.7710503
-1.883911	between orlando
-1.883911	between phoenix
-1.883911	between pittsburgh
-1.883911	between saint
-1	between san	0.0311454
-1.491416	between seattle	-0.3185011
-1.883911	between toronto
-1.883911	between two
-1.883911	between washington
-0.9808207	birmingham </s>
-0.9808207	birmingham connecting
-0.9808207	birmingham delayed
-0.9808207	birmingham land
-0.9808207	birmingham left
-0.6536111	boston </s>
-3.319277	boston after
-1.861335	boston and	-0.07837477
-3.319277	boston approximately
-1.231246	boston around	0.3887405
-3.319277	boston arrive
-0.5268815	boston arriving	-0.5473268
-1.505948	boston at	-0.3910013
-3.319277	boston boston
-3.319277	boston but
-3.319277	boston by
-2.926782	boston continental	-0.3228642
-2.673577	boston departing
-3.319277	boston due
-3.319277	boston eight
-3.319277	boston flying
-2.134336	boston for	-0.2987451
-1.606063	boston from	-0.2276833
-3.319277	boston houston
-3.319277	boston in
-3.319277	boston is
-2.673577	boston leaving
-3.319277	boston left
-2.435366	boston logan	-0.04666792
-2.926782	boston massachusetts
-3.319277	boston midnight
-2.431305	boston on	0.2387997
-3.319277	boston orlando
-2.926782	boston please	0.07554383
-3.319277	boston san
-3.319277	boston sometime
-3.319277	boston that
-1.958245	boston this	0.03380964
-0.5918223	boston to	-1.027178
-1.715207	boston today	0.01201032
-2.431305	boston tomorrow	0.6367773
-2.037426	boston tonight	0.2778478
-3.319277	boston us
-3.319277	boston using
-2.673577	boston which	-0.1768135
-3.319277	boston yet
-0.4812486	boulder </s>
-1.126949	boulder around
-1.126949	boulder be
-1.126949	boulder landed
-1.126949	boulder today
-0.2818506	breakfast time
-0.8435981	buffalo </s>
-1.236093	buffalo connecting
-1.236093	buffalo delayed
-1.236093	buffalo depart
-1.236093	buffalo due
-0.8435981	buffalo new	0.5039299
-1.236093	buffalo to
-0.5883256	burbank </s>
-0.9808207	burbank and
-0.9808207	burbank be
-0.9808207	burbank uh
-0.7344537	burlington </s>
-0.4812486	burlington around
-1.126949	burlington at
-1.126949	burlington due
-0.01848341	business express	0.06694707
-0.9808207	but dallas
-0.9808207	but i
-0.9808207	but one
-0.9808207	but six
-0.9808207	but the
-0.8839107	bwi around
-0.8839107	bwi arrive
-0.8839107	bwi is
-0.8839107	bwi on
-0.7589719	by nine
-0.7589719	by six
-0.7589719	by united
-0.007139248	bye </s>
-2.154173	bye bye	1.441167
-2.546669	bye yes
-0.7589719	c o
-0.3664769	c sixty
-0.4812486	california </s>
-0.243038	california to	-0.1391908
-0.2818506	call </s>
-0.09691001	calling from	-0.6291728
-2.541922	can </s>
-0.8798602	can i	-0.5002213
-2.149427	can tell	1.147625
-2.541922	can uh
-0.07255067	can you	-1.250596
-0.2818506	canada flight
-0.5828806	cannot sorry
-0.5828806	cannot think
-0.2818506	cape cod
-0.1903856	caracas tomorrow	0.1740571
-0.2818506	carolina to
-0.2818506	carrier </s>
-0.2818506	cause of
-0.1903856	champaign illinois	0.2925384
-1.126949	charleston </s>
-0.7344537	charleston around
-1.126949	charleston delayed
-1.126949	charleston landed
-1.126949	charleston leave
-1.126949	charleston on
-0.4812486	charlotte </s>
-1.126949	charlotte be
-1.126949	charlotte leaving
-1.126949	charlotte to
-1.126949	charlotte today
-0.5828806	charlottesville land
-0.5828806	charlottesville to
-0.8424309	chicago </s>
-2.576885	chicago and
-1.909378	chicago around	-0.06511238
-2.96938	chicago around:
-2.576885	chicago arrive
-1.131226	chicago arriving	-0.9486579
-2.323679	chicago at
-2.96938	chicago delayed
-2.576885	chicago departing
-2.081408	chicago from	-0.3617347
-2.96938	chicago i
-2.96938	chicago into
-2.96938	chicago is
-2.96938	chicago jesus
-2.576885	chicago landing	0.4985682
-2.576885	chicago leave	-0.3192774
-2.576885	chicago leaving
-2.96938	chicago left
-2.96938	chicago o+hare
-2.323679	chicago on
-2.96938	chicago please
-2.085469	chicago this	-0.5010498
-2.96938	chicago three
-0.1743114	chicago to	-1.396117
-2.076483	chicago today	0.3708966
-2.576885	chicago tomorrow
-2.96938	chicago tonight
-2.96938	chicago uh
-2.96938	chicago you
-0.1132718	china </s>
-0.1903856	christ </s>
-0.4191293	cincinnati </s>
-0.9583698	cincinnati are	-0.8112777
-1.211575	cincinnati around
-1.211575	cincinnati arriving	0.04029238
-1.60407	cincinnati land
-0.9583698	cincinnati on	-0.1172191
-1.60407	cincinnati taken
-1.60407	cincinnati to
-0.238977	cities do	1.168698
-0.5705429	city </s>
-1.362362	city around	-0.1869145
-1.857839	city arrive
-0.8223549	city arriving	-0.05884606
-1.857839	city at
-2.250334	city delayed
-2.250334	city due
-2.250334	city expected
-2.250334	city kennedy
-1.604633	city land	-0.02215435
-1.857839	city left	-0.1881674
-1.604633	city on	-0.1172191
-2.250334	city this
-0.5371192	city to	-0.537752
-2.250334	city tomorrow
-1.857839	city uh
-0.2818506	claim will
-0.09691001	clara </s>
-0.02020339	clear history	0
-0.4143018	clearwater </s>
-1.060002	clearwater around
-1.060002	clearwater arrive
-1.060002	clearwater expected
-0.2552725	cleveland </s>
-1.144628	cleveland and	-0.3213463
-0.891423	cleveland arriving	-0.1171998
-0.891423	cleveland to
-0.2818506	cod </s>
-0.5883256	collins </s>
-0.9808207	collins connecting
-0.9808207	collins delayed
-0.9808207	collins left
-0.9307483	colorado on
-0.08715018	colorado springs	-0.005568051
-0.7344537	columbia </s>
-1.126949	columbia land
-1.126949	columbia taken
-0.4812486	columbia to	-0.8236825
-0.1760913	columbus </s>
-1.060002	columbus due
-1.060002	columbus land
-1.126949	comes </s>
-1.126949	comes back
-0.2340517	comes in	-1.041145
-1.457942	coming as
-0.5650449	coming from
-0.39794	coming in	-0.8073023
-1.065447	coming into	0.6534702
-1.457942	coming out
-0.1671049	concord </s>
-1.060002	concord to
-0.2818506	confused i
-0.01579427	connect me	-1.365546
-0.06694679	connecting through
-1.28037	continental </s>
-1.775846	continental airline
-1.275444	continental airlines	-0.06178484
-2.168341	continental arriving
-2.168341	continental eleven
-0.243038	continental flight	-0.1596697
-0.7725474	continental flights	0.2113496
-2.168341	continental leave
-2.168341	continental offer
-1.775846	continental three	-0.3420853
-0.1903856	correct </s>
-0.8750613	could i	-0.4254644
-0.07918125	could you	-0.3420814
-0.30103	county </s>
-1.361032	county and
-1.361032	county arrive
-1.361032	county be
-1.361032	county this
-0.9685369	county to	-0.3461387
-0.1903856	cover </s>
-1.643579	current altitude
-1.251083	current location	0.1033411
-0.1064553	current status	1.007927
-1.251083	current time	-0.3449757
-0.5828806	d </s>
-0.5828806	d f
-0.7144822	dallas </s>
-2.037725	dallas and
-2.037725	dallas around
-0.9777236	dallas arriving	-0.2292887
-2.037725	dallas at
-2.037725	dallas delayed
-1.144829	dallas departing	0.01373916
-0.6419315	dallas fort	-0.9100388
-2.037725	dallas landed
-2.037725	dallas on
-1.645231	dallas sometime	0.6534702
-1.153815	dallas texas	0.462478
-1.144829	dallas to	-0.2224569
-1.144829	dallas tomorrow	-0.5230078
-0.2818506	day </s>
-0.4812486	dayton </s>
-0.4812486	dayton around
-1.126949	dayton at
-0.4771213	dc </s>
-1.40787	dc around
-1.154665	dc arriving	-0.4375613
-1.40787	dc departing	-0.3399653
-1.800365	dc dulles
-1.800365	dc landed
-1.800365	dc leaving
-1.800365	dc on
-0.916454	dc this	-0.009790788
-0.7403627	dc to	-0.4264757
-1.800365	dc will
-0.243038	delay </s>
-1.126949	delay be
-1.126949	delay for
-1.126949	delay on
-0.09177037	delayed </s>
-1.9051	delayed and
-1.017128	delayed this	0.3559279
-0.7589719	delays </s>
-0.7589719	delays before
-0.7589719	delays for
-1.622922	delta </s>
-1.622922	delta airline	-0.707878
-0.8728284	delta airlines	0.002804663
-2.268622	delta at
-0.1738584	delta flight	-0.2395705
-1.032529	delta flights	0.4383854
-2.268622	delta nine
-2.268622	delta one
-2.268622	delta to
-0.3916911	denver </s>
-1.227803	denver around	-1.001542
-1.475	denver arriving	-0.4375613
-1.728205	denver colorado	-0.2923492
-2.1207	denver connecting
-2.1207	denver delayed
-2.1207	denver flights
-2.1207	denver friday
-2.1207	denver land
-1.475	denver leaving	-0.7328985
-1.227803	denver on	-0.4079286
-2.1207	denver this
-0.6347291	denver to	-0.3508491
-2.1207	denver tomorrow
-0.4873404	depart </s>
-1.269619	depart around	-0.1308758
-1.522824	depart at
-1.031408	depart boston	-0.5218104
-0.4293485	depart from	-0.3474926
-1.522824	depart on	0.3606346
-1.915319	depart today
-1.915319	depart wednesday
-0.8839107	departed </s>
-0.4914156	departed from	-0.341225
-0.8839107	departed yet
-1.823854	departing </s>
-0.6792259	departing around	-0.07862027
-0.6122792	departing at	-0.1596743
-1.823854	departing before	-0.2701519
-1.332438	departing boston	-0.1258194
-1.031408	departing eight	-0.5582904
-0.7303784	departing from	-0.5034183
-2.216349	departing gate
-1.570649	departing in	-0.5762308
-2.216349	departing monday
-2.216349	departing nine
-1.570649	departing on	0.5089189
-2.216349	departing seattle
-1.570649	departing six	-0.1790716
-1.823854	departing tomorrow	-0.2795831
-1.060002	departs approximately
-1.060002	departs four
-1.060002	departs from
-0.4143018	departs houston
-1.746688	departure </s>
-2.139183	departure around
-1.246286	departure at
-2.139183	departure but
-1.746688	departure correct	0.1033411
-2.139183	departure delays
-2.139183	departure february
-1.251211	departure gate	-0.3245215
-2.139183	departure six
-1.493483	departure three	-0.6558784
-0.1852346	departure time	0.2339505
-2.139183	departure times
-0.06694679	des moines	0.01723748
-0.6243279	detroit </s>
-1.5123	detroit arriving
-1.5123	detroit at
-1.5123	detroit leaving
-1.5123	detroit michigan
-1.5123	detroit that
-1.5123	detroit this
-0.6283889	detroit to	-0.1391908
-0.4914156	dfw </s>
-0.8839107	dfw on
-0.8839107	dfw to
-0.2818506	dialed a
-2.168341	did </s>
-1.108339	did american	-0.4946632
-2.168341	did flight
-0.3301882	did it	-0.4405532
-2.168341	did that
-1.522641	did the	-0.7725075
-2.168341	did uh
-0.8073095	did united	-0.6047289
-0.6823707	did you	-1.214992
-0.2477845	diego </s>
-1.643579	diego around
-1.251083	diego arrive	-0.224314
-1.643579	diego arriving
-1.643579	diego expected
-0.7506815	diego on	0.2367463
-0.2818506	difference between
-0.2818506	digital phone
-0.9808207	dl </s>
-0.9808207	dl flight
-0.3351205	dl one	-0.820068
-2.50716	do </s>
-2.50716	do for
-2.50716	do i
-2.114665	do not	-0.2923492
-0.01312168	do you	-1.297435
-2.466542	does </s>
-1.582631	does american	-0.3727235
-1.230449	does continental	0.1189348
-2.466542	does delta
-0.7075702	does flight	-0.2971306
-1.582631	does it
-1.820842	does my	-0.5141773
-2.466542	does northwest
-1.10551	does pan	0.30103
-1.40654	does southwest	0.5698753
-0.3586166	does the	-0.8040524
-1.820842	does this	-0.7905253
-1.582631	does twa	-0.04350431
-2.466542	does uh
-2.466542	does um
-1.573645	does united	0.09712228
-2.466542	does us
-0.2818506	doing and
-1.395794	don+t i
-0.2108534	don+t know	-0.3412215
-1.395794	don+t remember
-1.395794	don+t understand
-1.395794	don+t want
-1.395794	don+t you
-0.613341	due in	-0.6567643
-0.1286666	due to	-1.738131
-0.30103	dulles </s>
-1.944608	dulles and
-1.944608	dulles around
-0.5166298	dulles arriving	-0.7593058
-1.944608	dulles is
-1.298908	dulles on	-0.1172191
-1.944608	dulles this
-1.552113	dulles to
-0.2818506	dummy </s>
-0.1903856	e twenty
-0.8203174	eagle airlines	-0.6056256
-1.713214	eagle eight
-0.2552725	eagle flight	-0.2858892
-1.713214	eagle four
-1.713214	eagle nine
-1.713214	eagle one
-1.713214	eagle seven
-1.713214	eagle six
-1.713214	eagle two
-0.2818506	early or
-0.2818506	eastern time
-0.7715207	eight </s>
-1	eight a	-1.126769
-1.808852	eight arrive	0.07686919
-2.696824	eight arrived
-1.636822	eight arriving	-0.08727871
-2.696824	eight at
-2.696824	eight comes
-2.696824	eight depart
-2.696824	eight departed
-2.696824	eight due
-1.803927	eight eight	-0.2239139
-2.051124	eight eighty
-2.696824	eight expected
-2.304329	eight fifteen	-0.2215911
-2.051124	eight fifty	-0.7842663
-1.812913	eight forty
-2.696824	eight four
-1.335792	eight from	0.02305367
-1.636822	eight hundred	0.09615235
-1.210853	eight in	-0.9822962
-2.051124	eight into	0.1756165
-2.696824	eight is
-1.636822	eight leaving	-0.1088185
-1.268845	eight nine	-0.7346584
-1.803927	eight ninety	-0.2373404
-1.13622	eight o+clock	0.1893882
-1.511883	eight oh	-0.5647051
-1.812913	eight on	0.2663252
-1.113943	eight p	1.351723
-2.696824	eight right
-1.812913	eight six	-0.6249087
-2.304329	eight sixty
-2.696824	eight take
-2.304329	eight taken	1.171984
-1.268845	eight thirty	-0.5369664
-2.304329	eight this
-2.304329	eight three
-2.696824	eight to
-2.696824	eight tomorrow
-2.304329	eight twenty	-0.2913746
-2.051124	eight two	-0.8131025
-2.304329	eight uh
-2.696824	eight zero
-0.5642715	eighteen </s>
-1.800365	eighteen arrives
-1.800365	eighteen be
-1.800365	eighteen fifteen
-1.800365	eighteen forty
-0.9123929	eighteen nineteen	-0.1164495
-1.154665	eighteen ninety	-0.7274735
-0.7403627	eighteen oh	-0.2056319
-1.800365	eighteen sixty
-1.800365	eighteen thirty
-1.40787	eighteen twenty
-2.094764	eighty </s>
-1.206792	eighty be	0.2402498
-1.702269	eighty depart	-0.1754594
-1.702269	eighty eight
-1.210853	eighty five	-0.05968824
-1.449064	eighty four	-0.1042086
-0.8586708	eighty nine	-0.2096498
-2.094764	eighty nineteen
-1.449064	eighty one	-0.08608624
-1.210853	eighty seven	-0.1322209
-2.094764	eighty seventeen
-1.702269	eighty seventy
-0.5824645	eighty six	-0.5837874
-2.094764	eighty take
-2.094764	eighty thirty
-1.210853	eighty three	-0.08022135
-1.449064	eighty two	-0.142897
-0.238977	el paso	-0.006246457
-1.181844	eleven </s>
-0.7194456	eleven a	-1.172527
-2.463694	eleven arrive
-2.463694	eleven arrived
-2.071199	eleven arriving	-0.2890273
-2.071199	eleven eighty	-0.330806
-1.579784	eleven forty	-0.5105472
-2.463694	eleven from
-0.60206	eleven in	-1.342912
-2.463694	eleven ninety
-1.005752	eleven o+clock	0.0423794
-1.570797	eleven oh
-1.035716	eleven p	1.497851
-2.463694	eleven please
-2.071199	eleven sixty	-0.2999537
-2.463694	eleven taken
-2.463694	eleven ten
-1.227601	eleven thirty	-0.05626986
-1.570797	eleven this	-0.8834916
-1.817994	eleven twelve	-0.1923072
-1.403692	eleven twenty	-0.3126974
-2.463694	eleven uh
-0.5828806	elizabeth </s>
-0.5828806	elizabeth please
-0.1903856	england </s>
-0.2818506	enough thank
-0.08715018	estimated arrival	-0.5337366
-0.9307483	estimated departure	-0.3386772
-0.2818506	even up
-0.03476211	evening </s>
-2.298884	evening for
-2.298884	evening in
-1.238882	evening on	-0.1379336
-0.2818506	eventually she
-0.2818506	expect the
-0.4569179	expected arrival	-0.8761594
-2.081191	expected delays
-2.081191	expected departure
-0.2082759	expected to	-1.901003
-1.729009	express </s>
-0.1249387	express flight	-0.1204683
-0.6690068	express flights	-0.8266325
-0.5828806	f </s>
-0.5828806	f w
-0.5883256	fairbanks </s>
-0.9808207	fairbanks be
-0.9808207	fairbanks leaving
-0.9808207	fairbanks today
-0.06694679	far away	0
-1.126949	far is
-0.3431962	fe </s>
-0.8435981	fe around
-1.236093	fe sounds
-1.236093	fe to
-0.2818506	february twenty
-0.2818506	feel a
-0.60206	fifteen </s>
-1.787001	fifteen arrive
-1.394506	fifteen arrived	-0.08798095
-0.8941036	fifteen eighty	-0.3473668
-1.787001	fifteen forty
-1.394506	fifteen from
-0.8941036	fifteen oh	-0.04367419
-1.1413	fifteen p	1.849558
-1.394506	fifteen sixteen
-1.787001	fifteen taken
-1.787001	fifteen twenty
-1.787001	fifteen zero
-0.7911162	fifty </s>
-1.221463	fifty eight	-0.3315725
-1.230449	fifty expected	-0.2117117
-0.8325089	fifty five	-0.385188
-1.221463	fifty four	-0.01380888
-1.468659	fifty from	-0.1951823
-1.054358	fifty nine	-0.07321193
-1.221463	fifty one	-0.1377269
-1.054358	fifty seven	0.002240105
-1.054358	fifty six	-0.1291835
-1.721865	fifty three	-0.2871692
-1.221463	fifty two	-0.08693494
-0.2818506	figures out
-0.1132718	find out	-0.1310483
-0.2818506	fine thank
-0.2818506	finished </s>
-1.661456	first </s>
-2.307157	first at
-1.122216	first flight	-0.2260406
-0.05682292	first one	-2.01155
-2.307157	first please
-0.774606	five </s>
-1.609239	five a	-0.5405033
-1.781269	five arrive	0.004588138
-2.02354	five arriving	-0.1171998
-2.66924	five be
-2.276746	five depart	-0.1444252
-1.78533	five eight
-2.66924	five eighteen
-1.4843	five eighty	-0.2591174
-1.776343	five fifty	-0.06772871
-2.02354	five five	-0.1183518
-2.02354	five forty
-2.66924	five four
-1.433147	five from	-0.129322
-1.609239	five hundred	0.09615235
-1.132117	five in	-0.7060897
-2.66924	five is
-2.66924	five leave
-2.66924	five leaving
-1.609239	five ninety	-0.1129704
-1.781269	five o+clock	-0.526045
-1.18327	five oh	-0.6557583
-2.02354	five on
-0.60206	five p	0.8815503
-2.66924	five right
-2.66924	five seventeen
-1.78533	five six	-0.1308375
-2.276746	five sixteen	-0.3235184
-2.02354	five sixty	-0.1349638
-2.66924	five take
-2.66924	five taken
-2.276746	five ten
-2.02354	five thirty
-2.276746	five this
-2.66924	five tomorrow
-1.781269	five twenty	-0.6105835
-2.276746	five two
-1.390882	flight </s>
-3.106313	flight after	-0.3142296
-3.498808	flight around
-3.498808	flight arrival
-2.216957	flight arrive	0.5899469
-2.605911	flight arrives	-0.3640566
-1.672889	flight arriving	-0.3740383
-3.106313	flight at
-1.353634	flight be	-1.105856
-2.610836	flight between	-0.05996808
-2.605911	flight coming	-0.1718781
-3.106313	flight delay	0.02144693
-3.498808	flight delayed
-3.106313	flight delta	0.1350919
-2.605911	flight departing	-0.03315122
-3.498808	flight departs
-3.106313	flight dl	-0.07710809
-2.853108	flight do	0.7019557
-2.070829	flight due	1.534454
-1.614897	flight eight	-0.4391129
-1.894738	flight eighteen	-0.2200951
-1.894738	flight eighty	-0.3398316
-1.961685	flight eleven	-0.4211883
-2.040866	flight fifteen	-0.342249
-2.313867	flight fifty	-0.07881912
-1.526761	flight five	-0.4978454
-3.498808	flight flights
-3.498808	flight flying
-2.610836	flight forty
-1.625893	flight four	-0.4734753
-1.785593	flight fourteen	-0.05065182
-0.7471352	flight from	0.1740077
-2.853108	flight get	-0.6280889
-2.605911	flight going	0.06502912
-3.498808	flight hundred
-3.106313	flight in	-0.3392915
-3.498808	flight info
-2.438806	flight information	-0.2511223
-1.874534	flight is	-0.5164079
-3.106313	flight landing
-3.498808	flight later
-2.614897	flight leave	0.04226157
-2.313867	flight leaves	0.08715019
-1.476595	flight leaving	0.1728137
-3.498808	flight n
-1.492681	flight nine	-0.5750403
-2.137776	flight nineteen	-0.1986343
-2.605911	flight ninety	-0.2129811
-2.853108	flight northwest
-3.106313	flight now	0.4985682
-1.769799	flight number	-0.07560062
-3.498808	flight numbers
-3.106313	flight of
-3.106313	flight oh	-0.2932844
-1.986508	flight on	-0.2222544
-1.308472	flight one	-0.6027439
-3.106313	flight out
-3.498808	flight please
-3.498808	flight running
-3.498808	flight schedule
-1.484563	flight seven	-0.3611802
-1.961685	flight seventeen	-0.2584338
-2.103014	flight seventy	-0.1045972
-1.476595	flight six	-0.4310011
-1.915927	flight sixteen	-0.1851514
-2.070829	flight sixty	-0.1173475
-3.106313	flight status	-0.3328717
-3.498808	flight take
-3.106313	flight takes	0.1033411
-1.637174	flight ten	-0.3276539
-1.526761	flight that	-0.8142905
-2.605911	flight that+s	-0.9625937
-3.498808	flight the
-2.137776	flight thirteen	-0.09286176
-1.986508	flight thirty	-0.1861375
-1.573505	flight three	-0.2599138
-1.698443	flight to	-0.1588175
-1.563745	flight twelve	-0.5199356
-1.648755	flight twenty	-0.2709189
-1.446105	flight two	-0.4272223
-3.106313	flight ua	-0.09125735
-2.438806	flight uh
-3.498808	flight um
-3.498808	flight united
-3.106313	flight us
-2.103014	flight will	-1.099927
-3.498808	flight you
-3.498808	flight zero
-1.819955	flights </s>
-2.913431	flights again	0.7995982
-1.380622	flights are	0.6396353
-2.245924	flights arrive	-0.006580549
-1.253223	flights arriving	0.04028076
-3.305926	flights at
-1.768803	flights between	0.03203185
-3.305926	flights by
-2.422015	flights coming	0.08226673
-2.913431	flights depart
-2.069833	flights departing	-0.2401932
-3.305926	flights departure
-1.701856	flights do	0.1839166
-2.660225	flights fly	-0.07105587
-2.913431	flights flying	-0.2413846
-0.1258985	flights from	-0.5340796
-2.245924	flights go	-0.353513
-2.660225	flights going	-0.689685
-3.305926	flights in
-2.660225	flights landing	0.02071451
-3.305926	flights late
-2.422015	flights leave	0.04226157
-1.793626	flights leaving	-0.1764392
-3.305926	flights of
-2.120985	flights on	-0.5959287
-2.245924	flights that	-0.08332841
-3.305926	flights there
-3.305926	flights this
-1.877947	flights to	-0.05728434
-3.305926	flights tonight
-2.245924	flights uh	-0.0740462
-3.305926	flights um
-2.660225	flights will	-0.8221066
-0.8839107	florida </s>
-0.8839107	florida leaving
-0.4914156	florida to
-1.5123	fly and
-0.08432089	fly from	-0.1320964
-1.119805	fly to
-0.4143018	flying from	-0.1044464
-0.6675069	flying in	-0.3368516
-1.060002	flying to
-0.837737	for a	-1.056718
-2.350037	for air
-2.350037	for american
-2.350037	for any
-2.350037	for arrival
-1.957541	for atlanta	-0.1781254
-1.704336	for boston	-0.7153529
-2.350037	for chicago
-2.350037	for continental
-1.457139	for delta	-0.561973
-1.957541	for denver
-1.290035	for flight
-1.462065	for flights	0.2415517
-2.350037	for for
-1.290035	for frontier	0.5862657
-2.350037	for helen
-2.350037	for los
-2.350037	for me
-1.957541	for midwest	0.3524401
-2.350037	for new
-0.9890046	for northwest	-0.7263442
-1.457139	for san	-0.3816083
-1.462065	for southwest	1.057332
-1.957541	for that	-0.2940513
-1.113943	for the	-0.4252452
-2.350037	for this
-2.350037	for today
-1.957541	for tomorrow
-2.350037	for twenty
-2.350037	for ua
-1.957541	for uh
-0.9542425	for united	0.04721795
-0.2818506	forecast for
-0.5828806	forget about
-0.5828806	forget the
-0.8803154	fort collins	0.02176918
-0.8852407	fort lauderdale	0.1179203
-0.7132105	fort myers
-0.3774183	fort worth	0.07286865
-2.074242	forty </s>
-2.074242	forty b
-1.186271	forty be	0.2402498
-1.681747	forty depart	-0.1754594
-2.074242	forty eight
-2.074242	forty eighty
-2.074242	forty eleven
-0.6163004	forty five	-0.3312853
-1.181345	forty four	0.02691513
-1.428542	forty nine	-0.07625125
-2.074242	forty nineteen
-1.428542	forty one
-2.074242	forty p
-1.181345	forty seven	-0.1036078
-1.186271	forty six	-0.7338875
-2.074242	forty thirteen
-1.181345	forty three	-0.1413859
-1.681747	forty two
-0.7106557	four </s>
-2.243464	four a	-0.04193517
-1.743062	four arrive	-0.1717057
-2.243464	four arriving
-2.635959	four be
-1.990259	four depart	0.003859088
-2.635959	four eight
-2.243464	four eighty
-2.635959	four expected
-2.635959	four fifteen
-1.743062	four fifty	-0.3430112
-1.451018	four forty	-0.2578196
-1.990259	four four	-0.1957593
-2.243464	four from
-1.575957	four hundred	0.09615235
-1.011686	four in	-1.113575
-2.635959	four is
-2.635959	four j
-2.635959	four leave
-2.635959	four leaving
-2.635959	four left
-1.990259	four ninety	-0.1256949
-1.399866	four o+clock	0.4016218
-1.312716	four oh	-0.3151005
-2.243464	four on	0.3606346
-0.5547679	four p	0.867762
-2.635959	four right
-2.635959	four seven
-1.743062	four seventy	-0.04882083
-2.243464	four six
-2.635959	four sixty
-2.635959	four take
-1.990259	four taken	0.6941304
-1.575957	four thirty	-0.2024058
-2.635959	four this
-2.243464	four three
-2.243464	four twenty
-1.773212	fourteen </s>
-1.773212	fourteen arrives
-1.773212	fourteen be
-0.7132105	fourteen fifteen	-0.04930966
-0.8893017	fourteen forty	-0.6012507
-1.773212	fourteen four
-1.773212	fourteen nineteen
-0.8803154	fourteen ninety	-0.9865562
-0.8803154	fourteen oh	-0.2512168
-1.127512	fourteen seventy	-0.7836385
-1.380717	fourteen sixty
-1.773212	fourteen twenty
-0.5828806	fourth </s>
-0.5828806	fourth two
-0.453121	francisco </s>
-1.643453	francisco and	-0.5038586
-2.527363	francisco are
-2.134868	francisco around
-2.134868	francisco arrive	-0.1569146
-1.015064	francisco arriving	-0.165015
-2.134868	francisco at	-0.324628
-1.643453	francisco for	-0.1347664
-2.527363	francisco in
-2.527363	francisco land
-2.527363	francisco leaving
-1.467361	francisco on	0.3967511
-2.527363	francisco san
-0.4601828	francisco to	-0.8200489
-1.643453	francisco today	0.1625502
-1.634466	francisco tomorrow	0.1084948
-2.527363	francisco tonight
-2.527363	francisco uh
-0.2818506	franciso </s>
-0.2818506	free call
-0.2818506	fresco arriving
-0.5392405	fresno </s>
-1.184941	fresno california
-1.184941	fresno delayed
-0.5392405	fresno to	-0.1978544
-0.4143018	friday </s>
-1.060002	friday afternoon
-1.060002	friday at
-1.060002	friday on
-0.2818506	friend at
-0.2818506	friend+s name
-1.58173	from </s>
-3.476365	from a
-3.476365	from albany
-2.194514	from albuquerque	0.06502909
-2.830665	from allentown
-3.08387	from american	-0.278414
-3.476365	from anchorage
-3.476365	from are
-2.830665	from aspen
-3.476365	from at
-1.561046	from atlanta	-0.07833588
-2.583468	from atlantic	-0.1984967
-2.830665	from baltimore
-2.583468	from bangor	-0.01937165
-2.583468	from baton	-0.6701435
-2.592454	from birmingham
-0.7116408	from boston	-0.3832839
-2.291424	from buffalo	0.002989995
-3.476365	from burbank
-2.583468	from burlington	0.06215496
-3.476365	from bwi
-3.476365	from california
-3.476365	from can
-2.592454	from charleston
-3.476365	from charlotte
-3.08387	from charlottesville
-0.6346077	from chicago	-0.6108668
-2.291424	from cincinnati	0.02869643
-3.476365	from clearwater
-2.588393	from cleveland	-0.4376709
-2.583468	from colorado	-0.3032321
-2.416363	from columbia	-0.06635182
-2.583468	from columbus	0.1672302
-3.476365	from concord
-3.08387	from continental
-3.476365	from d
-1.915761	from dallas	-0.1018285
-2.592454	from dayton	0.1224526
-1.872295	from denver	-0.2901862
-2.583468	from des	-0.1984967
-2.588393	from detroit	-0.1335509
-2.830665	from dfw
-2.194514	from dulles	-0.39794
-2.416363	from el	-0.4716468
-3.476365	from flights
-3.476365	from for
-2.240272	from fort	-0.3311612
-3.476365	from fresco
-2.583468	from fresno	-0.1618169
-3.08387	from greensboro
-3.08387	from greenville
-2.592454	from harrisburg
-2.830665	from hartford	-0.1097713
-3.08387	from hartsfield
-3.476365	from hong
-2.153122	from honolulu	-0.1601759
-2.115333	from houston	-0.132333
-2.240272	from indianapolis	-0.5862657
-3.476365	from jackson
-2.153122	from jacksonville	-0.1612226
-2.291424	from jfk	-0.30103
-2.592454	from kansas	0.4483402
-3.476365	from key
-2.583468	from knoxville	-0.09964012
-2.153122	from la	-0.5607487
-2.048386	from laguardia	-0.3986417
-2.592454	from las	0.214257
-3.476365	from lax
-3.08387	from lexington
-3.08387	from little	0.1491419
-2.592454	from logan	-0.09018366
-3.476365	from london
-3.08387	from long	-0.004107188
-1.470238	from los	0.3129292
-3.08387	from louisville
-3.476365	from lubbock
-2.830665	from memphis
-3.08387	from mexico	-0.2176314
-1.893484	from miami	-0.2730012
-2.583468	from milwaukee	-0.1809926
-2.115333	from minneapolis	-0.2552725
-3.08387	from mobile	-0.2413846
-3.08387	from myrtle	0.1033411
-3.08387	from nashville	-0.2793326
-1.388334	from new	-0.8954973
-2.115333	from newark	-0.1403192
-3.476365	from newport
-2.583468	from norfolk	-0.08252961
-2.830665	from o+hare
-2.592454	from oklahoma	0.1060578
-2.592454	from omaha
-2.592454	from orange	0.214257
-2.153122	from orlando	0.2704573
-3.08387	from palm	0.1033411
-2.588393	from philadelphia	-0.009112075
-2.153122	from phoenix	-0.1416525
-3.08387	from pittsburgh
-3.476365	from providence
-3.08387	from raleigh
-3.476365	from richmond
-3.08387	from roanoke	-0.1023635
-2.830665	from rochester
-3.08387	from sacramento
-1.852092	from saint	-0.2332459
-2.115333	from salt	0.1648103
-1.194514	from san	0.02479242
-3.08387	from santa
-2.830665	from savannah	-0.1097713
-3.476365	from seatac
-1.796574	from seattle	-0.1855109
-3.476365	from sfo
-2.592454	from shreveport	-0.05110774
-3.476365	from stapleton
-3.476365	from syracuse
-2.583468	from tallahassee	0.02176918
-3.476365	from tampa
-2.416363	from the	-0.3093605
-3.08387	from tokyo	0.1033411
-2.416363	from toronto	-0.1141187
-3.08387	from trenton
-2.830665	from tucson	-0.4564067
-2.830665	from tulsa	0.01302802
-2.048386	from uh	-0.2226207
-3.476365	from um
-3.08387	from united	-0.3295441
-3.476365	from vancouver
-1.779541	from washington	0.1659641
-3.476365	from westchester
-2.583468	from wichita	-0.002700615
-2.583468	from wilmington	-0.05193866
-0.01639042	frontier flight	-0.2371087
-0.2818506	fuck you
-0.2818506	g sixty
-0.9650043	gate </s>
-2.738217	gate a
-2.345722	gate and	-0.3385656
-1.850245	gate at	-0.07214494
-2.345722	gate c	-0.1023635
-1.177612	gate did	-1.005047
-1.025002	gate does	-0.8594562
-2.345722	gate e	0.1033411
-2.345722	gate fifty
-2.738217	gate five
-1.134147	gate for	-0.4635154
-2.738217	gate g
-0.8653014	gate is	0.05065678
-2.092517	gate it	-0.8204293
-2.738217	gate k
-2.092517	gate ninety
-2.738217	gate number
-2.738217	gate of
-2.738217	gate this
-0.3956682	gate will	-0.5195912
-1.678215	gate yet	0.8791778
-0.1903856	georgia </s>
-0.4393327	get from	-0.5370418
-0.4393327	get in	-0.4384399
-0.6775432	get me
-0.2818506	gets in
-0.2818506	getting in
-0.009340026	give me	-0.7311946
-0.3431962	go between	-0.8886928
-0.590393	go from	-0.7305843
-1.236093	go to
-0.5740313	going from	-0.1109053
-0.1760913	going to	-0.1509465
-2.496695	good </s>
-0.01072387	good bye	-0.4164234
-2.496695	good eventually
-2.496695	good job
-2.496695	good night
-0.09691001	grand rapids	-0.06634116
-1.126949	greensboro </s>
-0.4812486	greensboro around
-0.7344537	greensboro arrive	-0.224314
-1.126949	greensboro expected
-0.5828806	greenville south
-0.5828806	greenville spartanburg
-0.2108534	ground </s>
-0.502897	ground yet	0.6806812
-0.2818506	h </s>
-0.1903856	hanging up	-0.1774131
-0.2818506	hare a
-0.3357921	harrisburg </s>
-1.395794	harrisburg at
-1.003299	harrisburg pennsylvania	0.2925384
-1.395794	harrisburg that
-1.395794	harrisburg to
-1.395794	harrisburg today
-1.395794	harrisburg tomorrow
-0.7344537	hartford </s>
-1.126949	hartford around
-1.126949	hartford at
-1.126949	hartford on
-0.7344537	hartford to	-0.3311059
-0.3664769	hartsfield </s>
-0.7589719	hartsfield on
-1.258185	has alaska	0.387769
-1.758587	has american
-0.4220737	has flight	-0.1148931
-0.9661418	has it	-0.5146473
-0.9661418	has northwest	-0.5666434
-0.526809	has the	-0.9895166
-2.151082	has united
-0.2818506	hate you
-1.570597	have </s>
-1.317392	have a
-1.963092	have about
-1.070195	have any	0.4578201
-1.317392	have arriving	-0.1171998
-1.963092	have at
-1.963092	have dialed
-1.963092	have flights
-1.317392	have for
-0.60206	have from	-0.03424479
-1.070195	have information	-0.918656
-1.963092	have leaving
-1.963092	have on
-1.963092	have schedule
-1.07512	have the	-0.4328699
-1.963092	have today
-0.2818506	helen samuels
-0.2818506	hell </s>
-0.2340517	hello </s>
-1.126949	hello um
-1.126949	hello what
-0.1208222	help </s>
-2.126949	help again
-2.126949	help i
-0.7659168	help me	-0.5829861
-2.126949	help menu
-1.734454	help please
-0.2818506	hey do
-1.323243	hi are
-0.9307483	hi can	0.4663835
-0.6775432	hi i	-0.09896886
-1.323243	hi uh
-0.9307483	hi um
-0.9307483	hi what
-0.02020339	history </s>
-0.1903856	hole </s>
-0.2818506	hong kong
-0.3832167	honolulu </s>
-1.351754	honolulu around
-0.856277	honolulu arriving	0.02918061
-1.744249	honolulu do
-1.744249	honolulu due
-0.8513517	honolulu to	-0.2988413
-1.744249	honolulu uh
-0.1903856	hour </s>
-0.31037	houston </s>
-1.953948	houston after
-1.953948	houston approximately
-1.561453	houston around
-1.953948	houston arrive
-1.953948	houston arrives
-1.953948	houston arriving
-1.953948	houston at
-1.953948	houston for
-1.561453	houston intercontinental
-1.953948	houston into
-1.561453	houston on
-1.308248	houston texas	-0.2223235
-1.061051	houston to	-0.3371724
-1.953948	houston today
-1.953948	houston yet
-0.1423128	how about	-0.07950977
-1.355388	how can	-0.5546966
-2.41539	how do
-1.527418	how far	0
-2.41539	how how
-1.522493	how long	-0.135549
-1.531479	how many	-0.06634116
-0.9874108	how soon	0
-0.8839107	hummer and
-0.2382105	hummer on
-0.4616091	hundred </s>
-1.129316	hundred and	-0.2955183
-1.134242	hundred arrive	-0.1680263
-1.129316	hundred from
-2.022213	hundred ninety
-1.129316	hundred on	-0.3364303
-0.9622114	hundred supposed	0.154902
-1.134242	hundred will	-0.3536562
-0.68963	i am	0.0154093
-1.997878	i ask
-2.643579	i asked
-2.643579	i beg
-2.643579	i can
-2.643579	i cannot
-2.251083	i do	-0.3431818
-1.320335	i don+t	-0.1492981
-2.643579	i feel
-2.643579	i find
-1.759668	i get	-0.4345464
-2.643579	i hate
-1.458638	i have	-0.8680906
-2.643579	i i
-2.251083	i just
-2.643579	i mean
-2.643579	i meant
-2.643579	i must
-1.361728	i need	0.1067165
-2.643579	i please
-1.759668	i said
-1.750682	i say	-0.2007466
-2.643579	i sent
-1.755607	i talk	1.104756
-2.643579	i tell
-1.759668	i think	-0.1714175
-2.643579	i told
-2.643579	i use
-0.4586379	i want	-0.07785553
-1.759668	i wanted
-2.643579	i was
-1.019305	i would	-0.4409091
-1.744249	if a
-1.744249	if continental
-0.559308	if flight
-1.744249	if it
-0.6842467	if the
-0.860338	if there	-0.4387712
-1.351754	if there+s
-1.744249	if they
-1.744249	if they+re
-1.098549	if this	-0.7905253
-1.744249	if uh
-0.1132718	illinois </s>
-2.497087	in </s>
-2.254816	in a	-0.1839107
-2.497087	in albany	0.2788756
-3.142787	in allentown
-2.24989	in anchorage	-0.1704245
-2.24989	in around
-3.142787	in arrive
-2.497087	in aspen	-0.09310029
-2.254816	in at
-2.082785	in atlanta	-0.1420089
-3.142787	in austin
-2.750292	in baltimore	0.2555301
-3.142787	in bangor
-3.142787	in baton
-3.142787	in birmingham
-0.8117186	in boston	-1.01932
-2.497087	in boulder
-3.142787	in buffalo
-3.142787	in burbank
-3.142787	in burlington
-2.497087	in charleston	-0.1097713
-2.750292	in charlotte
-1.684845	in chicago	-0.5725534
-2.750292	in cincinnati
-2.258877	in clearwater	-0.2295657
-2.497087	in cleveland	-0.472201
-3.142787	in columbus
-2.497087	in concord	-0.3287118
-3.142787	in dallas
-2.750292	in dayton
-3.142787	in delta
-2.750292	in denver	-0.1204646
-3.142787	in des
-2.750292	in detroit
-2.750292	in dulles
-2.750292	in fairbanks
-2.750292	in flights
-2.497087	in fort	-0.1369004
-2.750292	in fresno	-0.1984557
-1.656817	in from	-0.1706078
-3.142787	in grand
-2.497087	in greensboro	-0.02420338
-3.142787	in harrisburg
-3.142787	in hartford
-2.497087	in honolulu	-0.1784816
-2.24989	in houston	-0.01800448
-3.142787	in illinois
-2.258877	in in
-2.750292	in indianapolis	-0.3045418
-2.750292	in jackson	0.1491419
-3.142787	in jacksonville
-3.142787	in jfk
-2.750292	in kansas	0.7326514
-2.497087	in key	-0.4509323
-2.750292	in la	-0.1527098
-2.750292	in laguardia	-0.307665
-3.142787	in lexington
-3.142787	in little
-3.142787	in long
-2.254816	in los	1.687681
-2.750292	in louisville
-2.497087	in lubbock	0.07117617
-3.142787	in memphis
-3.142787	in mexico
-2.497087	in miami	-0.184007
-2.750292	in milwaukee	-0.2793326
-3.142787	in minneapolis
-2.497087	in mobile	-0.6131099
-2.258877	in nashville	-0.3119408
-1.860937	in new	0.2124452
-3.142787	in newark
-2.497087	in newport	-0.4509323
-2.750292	in norfolk
-2.497087	in oakland
-2.750292	in ohio	0.1033411
-3.142787	in oklahoma
-3.142787	in omaha
-3.142787	in on
-3.142787	in orlando
-3.142787	in pennsylvania
-2.24989	in philadelphia	0.04314378
-1.819544	in phoenix	-0.1595639
-2.750292	in pittsburgh	-0.1683938
-2.750292	in providence
-3.142787	in raleigh
-2.750292	in richmond	0.02796826
-3.142787	in rochester
-3.142787	in sacramento
-2.258877	in saint	0.03628198
-2.258877	in salt	0.6479126
-2.082785	in san	0.1128257
-3.142787	in santa
-2.497087	in savannah	-0.4564067
-2.497087	in seattle	-0.04527814
-3.142787	in seoul
-3.142787	in sfo
-3.142787	in shanghai
-2.497087	in shreveport	-0.6503413
-2.750292	in syracuse	-0.07710809
-2.258877	in tampa
-0.3612495	in the	-1.563359
-1.781755	in to	-0.4124248
-3.142787	in tonight
-2.750292	in trenton
-2.497087	in tucson	-0.1097713
-2.750292	in tulsa
-3.142787	in uh
-2.497087	in washington	0.02548729
-2.497087	in westchester	0.02071451
-3.142787	in which
-1.035484	indianapolis </s>
-1.035484	indianapolis around
-1.427979	indianapolis from
-0.243038	indianapolis to	-0.0743558
-1.427979	indianapolis tomorrow
-0.2818506	info </s>
-1.394506	information </s>
-0.60206	information about	-0.01897974
-0.90309	information do	0.8954982
-1.787001	information for
-0.8941036	information from	-0.2160918
-1.787001	information of
-0.4637573	information on	-0.2050935
-0.5828806	intercontinental </s>
-0.5828806	intercontinental to
-0.03778856	interested in	-0.2620171
-0.04575749	into boston	-0.1091348
-3.246582	is </s>
-2.362671	is a	0.03414894
-3.246582	is about
-2.35861	is alaska	1.073722
-2.35861	is all	0.006946311
-2.353685	is aloha	-0.4737194
-2.35861	is american	0.1289961
-3.246582	is approximately
-2.18658	is around	-0.1261098
-2.854087	is arriving
-1.964731	is business	0.3388186
-3.246582	is coming
-3.246582	is continental
-1.923338	is delayed	-0.3590219
-1.923338	is delta	-0.04649665
-2.854087	is departing	-0.2445403
-1.446217	is due	-0.9404143
-3.246582	is eight
-1.331262	is flight	-0.2145041
-2.854087	is four	-0.3288812
-3.246582	is from
-3.246582	is is
-1.257161	is it	-0.5180753
-2.362671	is its	0.0295347
-2.854087	is leaving	-0.2639385
-3.246582	is midnight
-2.362671	is nine	-0.08687567
-2.600881	is northwest	-0.4367844
-3.246582	is not
-3.246582	is oh
-2.854087	is on	0.3606346
-2.18658	is pan	0.5351132
-3.246582	is pearl
-3.246582	is ridiculous
-3.246582	is scheduled
-3.246582	is six
-2.854087	is status	0.7647327
-3.246582	is ten
-2.362671	is that	-0.3883607
-0.2259504	is the	-1.015812
-1.07824	is there	-0.3036014
-3.246582	is there+s
-2.600881	is this	-0.1643873
-3.246582	is three
-3.246582	is time
-2.18658	is twa	-0.2282266
-2.600881	is twelve
-3.246582	is two
-1.48761	is united	-0.1335917
-2.35861	is us	-0.4807862
-1.50345	it </s>
-2.688391	it again
-0.3237548	it arrive	-0.7564493
-1.800419	it arrives	-0.2113635
-1.795494	it arriving	-0.3545896
-2.688391	it at
-1.327359	it be	0.5353172
-2.688391	it delayed
-1.327359	it depart	-0.02887956
-2.688391	it departed
-2.688391	it departing
-1.176091	it expected	-0.8361432
-2.688391	it from
-2.688391	it get
-2.688391	it gets
-2.688391	it going
-2.688391	it have
-2.688391	it i
-2.688391	it in
-1.795494	it is	-0.1072378
-2.688391	it land
-2.042691	it landed	-0.5233536
-1.800419	it leave	-0.3381483
-2.688391	it leaves
-2.688391	it leaving
-1.80448	it left	-0.1237321
-2.295896	it now	0.4985682
-1.452298	it on	0.1300021
-2.688391	it right
-2.295896	it scheduled	-0.2004018
-2.042691	it should	-0.1440649
-2.295896	it supposed	0.6534702
-2.688391	it take
-2.295896	it takeoff
-1.260412	it thank	1.109466
-2.042691	it will	-0.1883071
-0.4914156	its arrival	-0.2085706
-0.8839107	its new
-0.8839107	its scheduled
-0.2818506	j </s>
-0.1671049	jackson </s>
-1.060002	jackson and
-1.065447	jacksonville </s>
-1.065447	jacksonville around
-1.065447	jacksonville arriving
-1.457942	jacksonville florida
-1.457942	jacksonville that
-1.457942	jacksonville this
-0.39794	jacksonville to	-0.3091739
-0.1903856	jersey to	-0.3364117
-0.2818506	jesus christ
-0.7153318	jfk </s>
-1.361032	jfk airport
-1.361032	jfk from
-1.361032	jfk on
-0.30103	jfk to	0.008610581
-0.2818506	job pegasus
-0.69897	jose </s>
-1.582881	jose arriving
-1.190386	jose california
-1.582881	jose leave
-1.582881	jose on
-1.582881	jose that
-1.190386	jose this
-0.39794	jose to	-0.2270972
-0.3664769	july fourth
-0.7589719	july six
-0.01128101	jupiter </s>
-1.872915	jupiter please
-0.7589719	just did
-0.7589719	just some
-0.7589719	just want
-0.2818506	k sixty
-0.2818506	kalamazoo </s>
-0.03778856	kansas city	-0.2079574
-0.5828806	kennedy </s>
-0.5828806	kennedy airport
-0.238977	key west	-0.4047441
-0.09691001	kind of	-0.1383211
-1.273644	know </s>
-0.6481031	know about	-0.1179567
-2.117242	know any
-2.117242	know anything	0.02796826
-2.509737	know are
-2.509737	know for
-1.864037	know from	-0.1044464
-2.509737	know how
-0.9056674	know if	-0.3149276
-1.61684	know in
-2.117242	know jupiter	1.244535
-0.659685	know of	-1.148052
-1.051795	know the	-0.2169849
-2.509737	know uh
-0.9974378	know what	-1.087093
-1.148705	know when	-0.3238357
-2.509737	know where
-2.509737	know you
-1.126949	knoxville </s>
-0.4812486	knoxville tennessee	0.04592077
-0.4812486	knoxville to	-0.8089595
-0.2818506	kong </s>
-0.2818506	korea </s>
-0.5828806	korean air
-0.5828806	korean airline
-0.2818506	l </s>
-0.4436975	la </s>
-1.287296	la around
-1.679791	la at
-1.679791	la california
-1.679791	la landed
-1.679791	la next
-1.679791	la this
-0.49485	la to	-0.7459978
-1.679791	la today
-0.6532125	laguardia </s>
-1.320719	laguardia airport	-0.2373854
-1.713214	laguardia arriving
-1.067514	laguardia from	-0.08363573
-1.713214	laguardia on
-0.2852357	laguardia to	-0.06868259
-0.05115252	lake city	-0.1118454
-1.144628	lake to	-0.3364117
-0.4771213	land </s>
-0.20412	land in	-0.03167496
-1.662062	land on
-0.597999	landed </s>
-1.485971	landed already
-0.30103	landed yet	0.7700334
-1.126949	landing from
-0.06694679	landing in	-0.7408737
-0.06694679	las vegas	-0.02912043
-1.060002	last flight
-1.060002	last hour
-0.1760913	last one	-0.5186816
-0.4914156	late </s>
-0.8839107	late afternoon
-0.8839107	late tonight
-0.2818506	later in
-0.243038	lauderdale </s>
-1.126949	lauderdale around
-1.126949	lauderdale arriving
-1.126949	lauderdale to
-0.8839107	lax </s>
-0.8839107	lax arrive
-0.8839107	lax is
-0.8839107	lax on
-0.6255411	leave </s>
-1.861634	leave at
-1.861634	leave boston
-1.861634	leave chicago
-1.469139	leave denver	-0.1204646
-1.861634	leave for
-0.4658403	leave from	-0.2270498
-1.861634	leave indianapolis
-1.861634	leave jacksonville
-1.215934	leave on	0.5089189
-1.215934	leave seattle	-0.1696111
-1.861634	leave to
-1.861634	leave uh
-0.04139268	leaves around	-0.1917964
-1.323243	leaves uh
-2.534704	leaving </s>
-2.534704	leaving after
-2.534704	leaving albuquerque
-2.534704	leaving allentown
-2.534704	leaving an
-0.7213741	leaving around	-0.2531649
-0.7343391	leaving at	-0.7271891
-2.534704	leaving bangor
-1.13891	leaving boston	-0.1421098
-2.534704	leaving burlington
-2.534704	leaving colorado
-2.534704	leaving dayton
-2.534704	leaving dulles
-2.534704	leaving eleven
-2.142209	leaving fort	-0.2531082
-0.7614914	leaving from	-0.4801172
-2.534704	leaving harrisburg
-2.142209	leaving hartford
-1.298611	leaving in	-0.7518472
-2.534704	leaving jacksonville
-1.889004	leaving kansas	0.2547977
-2.534704	leaving la
-2.534704	leaving march
-2.534704	leaving minneapolis
-2.142209	leaving new	0.5039299
-1.022404	leaving on	-0.548108
-2.534704	leaving one
-2.534704	leaving or
-2.534704	leaving philadelphia
-2.142209	leaving raleigh
-2.534704	leaving richmond
-1.889004	leaving saint	-0.1465828
-2.142209	leaving san
-2.534704	leaving soon
-2.534704	leaving to
-2.534704	leaving tomorrow
-2.534704	leaving tucson
-2.534704	leaving tulsa
-2.534704	leaving uh
-0.9501815	left around
-1.838153	left cincinnati
-1.838153	left fort
-1.838153	left from
-1.445658	left in	-0.09837709
-1.838153	left las
-1.445658	left lexington	-0.2580556
-1.838153	left little
-1.445658	left long	-0.004107188
-1.445658	left sacramento	-0.2580556
-1.838153	left san
-1.445658	left santa	0.1006282
-1.445658	left the	-0.345455
-0.5149098	left yet	0.6450946
-0.1132718	let me	-0.8204448
-0.2818506	let+s say
-0.4812486	lexington </s>
-0.7344537	lexington around
-1.126949	lexington arrive
-1.126949	lexington to
-0.9785732	like a	-0.6506526
-1.624273	like flight
-1.624273	like more
-1.624273	like the
-0.1383027	like to	-0.4965859
-1.560604	list again
-0.6677073	list flights	0.1871012
-0.2373609	list of	-0.4039331
-1.168109	list the	-0.3331823
-0.2818506	listed </s>
-0.1671049	little rock	0.0635666
-1.060002	little trapped
-0.1903856	location of
-0.7153318	logan </s>
-0.4681349	logan airport	-0.07554566
-1.361032	logan from
-1.361032	logan on
-0.9685369	logan to
-0.6675069	london </s>
-0.6675069	london england	0.1033411
-1.060002	london to
-1.060002	london tomorrow
-0.2632414	long beach	-0.02912887
-0.9307483	long before	-0.2701519
-0.9307483	long is	0.04532946
-1.323243	long will
-0.01848341	looking for	-0.6870183
-0.003930293	los angeles	0.004354316
-2.327174	los los
-0.2818506	loser </s>
-0.3802112	louis </s>
-1.269567	louis and
-1.662062	louis arriving
-1.269567	louis at	-0.3274269
-1.662062	louis be
-1.662062	louis leaving
-0.60206	louis to	-0.1933335
-1.662062	louis today
-1.060002	louisville </s>
-0.6675069	louisville around
-0.6675069	louisville arrive	-0.224314
-1.060002	louisville expected
-0.3351205	lubbock </s>
-0.9808207	lubbock around
-0.9808207	lubbock arrive
-0.07339408	m </s>
-3.098754	m and
-1.285425	m arrive	-0.6471056
-3.098754	m arrives
-3.098754	m arriving
-3.098754	m at
-2.038753	m continental	-0.4771212
-2.453054	m departure	0.2611469
-3.098754	m eastern
-1.913814	m flight	-0.8587375
-2.453054	m from
-2.706259	m going	0.1305914
-2.214844	m in	-0.1926865
-3.098754	m on
-3.098754	m this
-3.098754	m to
-1.913814	m today	0.5001355
-1.862661	m tomorrow	-0.479413
-1.862661	m tonight	0.07918123
-1.913814	m us	-0.7515922
-0.5828806	major airline
-0.5828806	major airlines
-0.2818506	make a
-0.2382105	many flights	-0.1797801
-0.8839107	many us
-0.5828806	march first
-0.5828806	march twenty
-0.2382105	massachusetts </s>
-0.8839107	massachusetts arriving
-1.366847	me </s>
-1.453997	me a	-1.109751
-0.7269987	me about	-0.5760698
-2.690091	me again
-2.690091	me can
-2.690091	me departure
-1.802119	me flights	-0.2459047
-2.690091	me for
-1.630089	me if	-0.1759361
-1.802119	me information	-0.3123207
-2.690091	me jupiter
-1.797194	me more	-0.05772954
-2.690091	me of
-2.297596	me out	-0.09125735
-2.690091	me please
-2.690091	me something
-2.297596	me status	0.7647327
-2.04439	me talk	0.6380145
-0.4491986	me the	-1.032149
-2.690091	me there+s
-0.8519375	me to	-1.581616
-1.797194	me uh	-0.07478583
-2.297596	me um
-2.690091	me voyager
-1.802119	me what	-0.6788126
-2.04439	me when	-0.1934622
-2.690091	me with
-2.690091	me your
-0.5828806	mean dulles
-0.5828806	mean you
-0.2818506	meant flight
-0.1903856	meet a	-0.1727989
-0.2818506	meeting a
-0.8435981	memphis </s>
-1.236093	memphis around
-0.590393	memphis leaving	-0.7328985
-1.236093	memphis this
-1.236093	memphis to
-1.236093	memphis uh
-0.2818506	menu </s>
-0.2818506	message </s>
-0.8435981	mexico </s>
-0.590393	mexico city	-0.06227157
-0.3521825	mexico to	-0.4187702
-0.4259687	miami </s>
-1.883911	miami and
-1	miami arriving	-0.05401705
-1.883911	miami connecting
-1.883911	miami due
-1.883911	miami florida
-1.238211	miami leaving	-0.1097454
-1.883911	miami taken
-0.60206	miami to	-0.2801878
-1.883911	miami today
-1.491416	miami tonight	0.7326514
-0.2818506	michelle bye
-0.2818506	michigan today
-0.1413292	midnight </s>
-0.891423	midnight arrive	-0.6347682
-1.537123	midnight o+clock
-1.537123	midnight tonight
-0.7589719	midway </s>
-0.7589719	midway is
-0.7589719	midway on
-0.09691001	midwest express	-0.02878104
-0.8435981	milwaukee </s>
-1.236093	milwaukee delayed
-1.236093	milwaukee leaving
-1.236093	milwaukee left
-0.590393	milwaukee to
-1.236093	milwaukee wisconsin
-0.69897	minneapolis </s>
-1.582881	minneapolis arrive
-1.582881	minneapolis arriving
-1.582881	minneapolis at
-1.582881	minneapolis from
-1.582881	minneapolis on
-0.39794	minneapolis to	-0.4043981
-1.190386	minneapolis tomorrow
-1.582881	minneapolis which
-0.2818506	minnesota </s>
-1.060002	mobile </s>
-0.4143018	mobile around
-0.6675069	mobile to	-0.3452905
-1.060002	moines </s>
-1.060002	moines around
-1.060002	moines on
-1.060002	moines that
-0.6675069	moines to	-0.3461387
-0.2818506	moment </s>
-0.5883256	monday </s>
-0.9808207	monday at
-0.9808207	monday morning
-0.9808207	monday seven
-0.6361505	more </s>
-0.8893556	more about
-0.6361505	more flights	-0.1916213
-1.281851	more help
-1.281851	more information
-0.02562265	morning </s>
-1.919452	morning around
-2.565152	morning at
-2.565152	morning flights
-1.681241	morning from	-0.5370418
-2.172657	morning on	0.3606346
-0.2818506	much </s>
-0.2818506	must have
-0.2920437	my flight	-0.1647011
-1.184941	my friend+s
-1.184941	my query
-1.184941	my trap
-1.060002	myers around
-1.060002	myers arrive
-1.060002	myers arriving
-1.060002	myers at
-1.060002	myers on
-1.060002	myers to
-0.1903856	myrtle beach	-0.1984557
-0.1903856	n w	-0.2169148
-0.2818506	name is
-0.590393	nashville </s>
-0.590393	nashville around
-1.236093	nashville landed
-0.8435981	nashville to
-0.2920437	national </s>
-1.184941	national airport
-1.184941	national leaving
-1.184941	national to
-0.9307483	need a	-0.1727989
-0.9307483	need flight	-0.3449458
-1.323243	need i
-0.9307483	need the
-0.4393327	need to	-0.1391908
-0.2818506	needs work
-2.494038	new expected
-2.101543	new jersey	0.1033411
-1.601141	new mexico	-0.1568196
-1.06606	new orleans	-0.05478199
-2.494038	new query
-0.06605957	new york	0.07368188
-1.190386	newark </s>
-1.190386	newark airport
-0.9371805	newark and	-0.697401
-0.9371805	newark around	-0.1721069
-1.582881	newark arrive
-1.582881	newark delayed
-1.582881	newark landed
-1.190386	newark new	-0.3430787
-0.6899837	newark to	-0.2224569
-0.238977	newport news	-0.07527858
-0.2340517	news </s>
-1.126949	news arriving
-1.126949	news to
-1.221463	next american	-0.6931599
-2.11436	next delta
-0.2092596	next flight	-0.5792571
-2.11436	next hour
-2.11436	next to
-1.054358	next tower	-0.2922561
-1.230449	next united	0.5345218
-1.054358	next us	-0.4134606
-1.721865	next week	0.1033411
-0.2818506	nice day
-0.2818506	night </s>
-0.6110148	nine </s>
-0.9420081	nine a	-1.157803
-1.787106	nine arrive	-0.3186234
-2.278522	nine arriving
-2.671017	nine be
-2.278522	nine depart	-0.1444252
-2.278522	nine eighty
-2.671017	nine f
-1.77812	nine fifty	-0.3851953
-2.025317	nine five	-0.1183518
-1.77812	nine forty	-0.1094527
-1.275223	nine from	-0.08813176
-1.77812	nine hundred
-1.110412	nine in	-1.052877
-2.671017	nine is
-2.671017	nine landed
-2.671017	nine leave
-2.278522	nine leaving	-0.2639385
-2.671017	nine left
-2.278522	nine ninety	-0.3189463
-1.309985	nine o+clock	0.192829
-1.347773	nine oh	-0.6516648
-2.025317	nine on	-0.1806437
-2.278522	nine one	-0.3423031
-0.9420081	nine p	1.211544
-2.671017	nine please
-2.025317	nine seventy
-1.389166	nine six	-0.3548924
-2.671017	nine take
-2.278522	nine taken	1.171984
-2.025317	nine thirty	-0.09023803
-1.783045	nine this	-0.6849949
-2.278522	nine twenty
-2.671017	nine two
-2.671017	nine was
-0.7868937	nineteen </s>
-1.679791	nineteen arrive
-1.679791	nineteen arrived
-1.287296	nineteen arriving	-0.2890273
-1.679791	nineteen five
-1.679791	nineteen forty
-1.287296	nineteen from
-1.287296	nineteen ninety	-0.2496199
-0.79588	nineteen oh	-0.08902565
-1.287296	nineteen taken	1.171984
-1.034091	nineteen ten	-0.1949947
-1.679791	nineteen thirty
-2.094764	ninety </s>
-1.201867	ninety eight	-0.2293715
-1.449064	ninety expected	-0.4052542
-0.9098234	ninety five	-0.2133619
-1.201867	ninety four	-0.01380888
-0.69897	ninety nine	-0.1815667
-1.210853	ninety one
-1.206792	ninety seven	-0.09205066
-0.8129134	ninety six	-0.1074701
-1.210853	ninety three
-1.201867	ninety two	-0.2545424
-1.021189	no </s>
-2.449168	no bye
-2.449168	no flights
-2.449168	no good
-1.803468	no i	-0.1906262
-2.449168	no no
-0.1379336	no thank	0.2521335
-1.264227	no thanks	-0.1870867
-2.056673	no that	-0.2251077
-1.389166	no that+s	0.02840522
-2.449168	no three
-2.449168	no united
-2.449168	no what
-0.238977	nonstop northwest	-0.295896
-0.04898646	noon </s>
-2.065447	noon arrival	0.1197335
-2.457942	noon departure
-2.457942	noon flight
-2.065447	noon from	-0.2527306
-2.065447	noon in	-0.09837709
-1.812242	noon this	-0.6642804
-2.457942	noon time
-2.457942	noon today
-1.812242	noon tomorrow	-0.3037966
-0.7924456	norfolk </s>
-1.184941	norfolk around
-0.7924456	norfolk arriving
-0.7924456	norfolk to	-0.1568947
-1.184941	norfolk virginia
-2.200929	northwest </s>
-1.555229	northwest air	0.5941461
-1.555229	northwest airline	0.1571421
-0.9648356	northwest airlines	-0.5162734
-2.200929	northwest arrival
-1.808434	northwest eighty	-0.2148578
-0.228882	northwest flight	-0.1747837
-0.8776854	northwest flights	-0.23281
-2.200929	northwest please
-2.200929	northwest seventeen
-1.808434	northwest zero	-0.2635556
-0.9307483	not </s>
-1.323243	not as
-1.323243	not boston
-1.323243	not even
-0.9307483	not know	-0.3061639
-1.323243	not seventeen
-0.9307483	not six	-0.3228082
-1.323243	not sure
-1.883911	nothing good
-0.01099538	nothing thank	0.6834973
-0.06694679	now </s>
-1.211575	now bye	1.441167
-1.60407	now tell
-1.037332	number </s>
-1.925303	number airline
-1.925303	number arriving
-1.925303	number for
-1.532808	number from
-1.037332	number is	-0.06367458
-0.5642715	number of	-0.9686403
-1.532808	number one
-1.925303	number seventy
-1.279603	number twenty	-0.736347
-1.032406	number two	-0.3969847
-1.925303	number was
-1.925303	number zero
-0.2818506	numbers </s>
-0.2818506	o three
-0.2837251	o+clock </s>
-2.371756	o+clock a
-2.371756	o+clock afternoon
-2.371756	o+clock arrival
-2.371756	o+clock flight
-1.979261	o+clock from
-2.371756	o+clock has
-0.6127838	o+clock in	-1.243209
-1.726056	o+clock is	-0.1963574
-2.371756	o+clock or
-1.487845	o+clock p	2.043101
-1.478859	o+clock this	-0.1497879
-1.487845	o+clock today	0.1625502
-2.371756	o+clock tomorrow
-1.487845	o+clock tonight	0.4483402
-0.3351205	o+hare </s>
-0.9808207	o+hare on
-0.9808207	o+hare to
-0.243038	oakland </s>
-1.126949	oakland around
-1.126949	oakland landed
-1.126949	oakland today
-2.537716	of </s>
-1.44424	of a	-0.3804564
-2.930211	of air
-2.0463	of aircraft	0.06812896
-2.042239	of aloha	0.2122337
-2.0463	of america	0.8005227
-1.025111	of american	-0.8263534
-1.326141	of any	-0.2874427
-2.930211	of approximately
-1.606967	of continental	-0.7112044
-1.502232	of delta	-0.1592342
-2.930211	of dl
-1.201202	of flight	-0.07430745
-1.870209	of flights	0.1939234
-2.037314	of from	-0.3182929
-2.930211	of midwest
-2.930211	of my
-2.930211	of newark
-2.537716	of nine	-0.2938235
-1.393088	of northwest	-0.2446811
-2.930211	of of
-2.537716	of one	-0.3451711
-2.537716	of plane	-0.1774131
-2.930211	of questions
-2.930211	of roanoke
-2.930211	of santa
-2.930211	of schedule
-2.930211	of seven
-2.537716	of that	-0.2940513
-0.64836	of the	-0.6057048
-2.930211	of these
-1.870209	of tower	-0.7259116
-2.537716	of trans
-1.417911	of twa	-0.6431122
-2.930211	of two
-2.042239	of uh	-0.2314742
-0.74527	of united	-0.7210084
-1.129846	of us	-0.2917299
-0.4281348	off </s>
-2.107925	off already
-2.107925	off at
-0.5956259	off from	-0.4405551
-1.047924	off on	-0.1379336
-1.71543	off or	-0.2413846
-1.71543	off to	-0.3458288
-0.7121314	off yet	0.5781478
-0.2818506	offer flights
-2.541922	oh </s>
-0.8983436	oh eight	-0.1274374
-0.9590414	oh five	-0.09249195
-1.113943	oh four	-0.1221374
-2.541922	oh hare
-2.541922	oh i
-1.08398	oh nine	-0.0161721
-2.541922	oh nothing
-0.9378521	oh one	-0.1106128
-0.8621314	oh seven	-0.1439698
-2.541922	oh shit
-0.8983436	oh six	-0.2946451
-1.113943	oh three	-0.2139824
-0.9590414	oh two	-0.330696
-2.541922	oh uh
-2.541922	oh united
-0.1903856	ohio </s>
-0.5118834	okay </s>
-1.395794	okay give
-1.395794	okay help
-1.395794	okay how
-1.395794	okay i
-1.395794	okay san
-1.395794	okay that+s
-1.395794	okay uh
-1.003299	okay what
-0.08792369	oklahoma city
-0.5883256	omaha </s>
-0.9808207	omaha arriving
-0.9808207	omaha that
-0.9808207	omaha to
-2.913294	on a
-2.913294	on american
-2.913294	on an
-2.913294	on another
-2.913294	on any
-2.913294	on arrivals
-2.029384	on continental	-0.4174478
-2.267594	on delta	-0.7618911
-2.029384	on flight
-2.913294	on flights
-2.267594	on friday	-0.6131099
-2.913294	on march
-2.913294	on midwest
-2.267594	on monday	-0.0686305
-2.267594	on northwest	0.1893536
-1.853292	on pan	0.5351132
-2.913294	on schedule
-1.400995	on the	-0.6249579
-0.09488533	on time	-1.310665
-2.913294	on tuesday
-2.520799	on twa
-2.520799	on two	-0.3422189
-2.913294	on uh
-1.400995	on united	-0.3499276
-2.267594	on us	-0.6217332
-2.020397	on wednesday	-0.6633394
-0.6428222	one </s>
-1.837799	one a	-0.5405033
-1.661708	one arrive	-0.02771739
-2.2521	one arriving	-0.140743
-0.5825263	one be	-1.275957
-2.505306	one depart	-0.1444252
-2.897801	one departing
-2.505306	one due	0.2445347
-2.004904	one eight	-0.4053588
-2.004904	one eighty	-0.09212209
-2.897801	one expected
-1.837799	one fifty	-0.2337793
-2.01389	one five	-0.3609455
-2.009829	one forty	-0.2208113
-2.897801	one four
-1.661708	one from	-0.383322
-1.837799	one hundred	0.0381036
-1.61595	one in	-0.79324
-2.505306	one leaving	-0.2639385
-2.897801	one left
-1.536769	one ninety	-0.1281105
-1.661708	one o+clock	0.2028728
-2.505306	one of	-0.2359889
-1.41183	one oh	-0.9250231
-1.837799	one on	0.09105359
-2.004904	one one	-0.1338915
-1.21801	one p	1.258969
-2.505306	one please	0.07554383
-2.897801	one right
-2.897801	one running
-1.71286	one seven	-0.2714837
-1.574557	one seventy	-0.2674915
-2.897801	one sixty
-2.897801	one take
-2.897801	one taken
-1.837799	one ten	-0.4344977
-1.837799	one thirty	0.02009974
-2.897801	one this
-2.897801	one thousand
-2.897801	one three
-2.505306	one to
-2.505306	one tomorrow	0.1740571
-1.837799	one twenty	-0.2986405
-2.004904	one two
-0.2818506	one+s not
-1.060002	or after
-1.060002	or arrival
-1.060002	or arriving
-1.060002	or late
-0.6675069	or not	-0.2923492
-0.06694679	orange county	0.2079297
-0.2263964	orlando </s>
-1.787001	orlando and
-1.787001	orlando arrives
-1.787001	orlando arriving
-0.90309	orlando at	-0.4189374
-1.787001	orlando be
-1.787001	orlando that
-1.1413	orlando to	-0.00861041
-1.787001	orlando using
-0.3679768	orleans </s>
-1.427979	orleans around
-0.5350817	orleans arriving	-0.6567725
-1.427979	orleans taken
-1.427979	orleans to
-1.093476	other airlines	-0.3004688
-1.485971	other any
-1.485971	other flight
-0.2498775	other flights	0.29353
-1.485971	other northwest
-1.485971	other one
-1.485971	other requests
-0.8435981	out about
-1.236093	out from
-1.236093	out information
-0.3521825	out of
-1.236093	out what
-0.2818506	outgoing flights
-0.09691001	over </s>
-0.0009210915	p m	-0.08951762
-0.1903856	palm springs	-0.2440938
-1.662062	pan am
-0.01848341	pan american	-0.9971889
-0.2818506	pardon </s>
-0.7344537	paso arrive	-0.224314
-1.126949	paso land
-1.126949	paso this
-0.4812486	paso to	-0.8236825
-0.9808207	paul arrive
-0.9808207	paul at
-0.9808207	paul that
-0.9808207	paul this
-0.9808207	paul to
-0.2818506	pearl </s>
-0.3521825	pegasus </s>
-0.590393	pegasus now	0.02071451
-0.8435981	pegasus please	0.07554383
-0.1132718	pennsylvania </s>
-1.126949	petersburg </s>
-0.7344537	petersburg arrive
-1.126949	petersburg arriving
-1.126949	petersburg at
-0.7344537	petersburg to	-0.3199736
-0.3484547	philadelphia </s>
-1.744249	philadelphia are
-1.351754	philadelphia around	-0.3166029
-1.744249	philadelphia arrive
-0.6842467	philadelphia arriving	0.1360144
-1.744249	philadelphia at
-1.744249	philadelphia from
-0.860338	philadelphia to
-0.8839107	philly around
-0.2382105	philly arriving	0.1885766
-0.526809	phoenix </s>
-1.850052	phoenix and
-1.850052	phoenix arizona
-0.9620807	phoenix around	-0.2461112
-1.850052	phoenix delayed
-1.457557	phoenix from
-1.850052	phoenix in
-1.457557	phoenix is	-0.3459217
-1.457557	phoenix leaving	-0.2550448
-1.850052	phoenix left
-1.850052	phoenix on
-0.9620807	phoenix to	0.04309599
-0.09691001	phone </s>
-0.2818506	picking up
-0.4730602	pittsburgh </s>
-1.361032	pittsburgh and
-1.361032	pittsburgh arriving
-1.361032	pittsburgh that
-0.9685369	pittsburgh to	-0.1568947
-0.4914156	plane from
-0.4914156	plane is	-0.3218171
-0.2064739	please </s>
-1.850052	please can
-1.457557	please connect	1.100628
-1.850052	please get
-1.457557	please give	1.325568
-1.457557	please help
-1.457557	please repeat	0.1586201
-1.850052	please show
-1.850052	please talk
-1.457557	please tell	1.147625
-0.08792369	portland from	-0.3834154
-0.5883256	providence </s>
-0.9808207	providence around
-0.5883256	providence arrive	-0.224314
-0.1903856	puerto rico
-0.5828806	query </s>
-0.5828806	query again
-0.2818506	question </s>
-0.5828806	questions about
-0.5828806	questions can
-0.2818506	quit </s>
-0.6675069	raleigh </s>
-1.060002	raleigh around
-1.060002	raleigh arrive
-1.060002	raleigh at
-1.060002	raleigh on
-0.2382105	rapids </s>
-0.8839107	rapids leaving
-0.3664769	reason for	-0.3117678
-0.7589719	reason of
-0.2818506	remaining flights
-0.2818506	remember the
-0.1627273	repeat that	-1.014582
-0.60206	repeat the
-0.2818506	requests thanks
-0.2818506	return flight
-0.2382105	richmond </s>
-0.8839107	richmond at
-0.5828806	rico </s>
-0.5828806	rico this
-0.2818506	ridiculous </s>
-1.281851	right i
-0.04575749	right now	-0.154902
-0.7589719	roanoke right
-0.3664769	roanoke to	-0.3354801
-0.4143018	rochester </s>
-1.060002	rochester and
-1.060002	rochester arriving
-1.060002	rochester to
-0.5883256	rock </s>
-0.9808207	rock around
-0.5883256	rock to	-0.3458288
-0.4812486	rouge </s>
-1.126949	rouge land
-1.126949	rouge taken
-0.7344537	rouge to	-0.3453159
-0.1132718	running on	-0.1172191
-0.4812486	sacramento </s>
-0.7344537	sacramento around
-1.126949	sacramento arriving
-1.126949	sacramento to
-0.8839107	said </s>
-0.8839107	said around
-0.8839107	said new
-0.8839107	said yes
-0.1760913	saint louis	0.02953468
-0.9452562	saint paul
-0.9501815	saint petersburg	0.03594748
-0.0234811	salt lake	0.103341
-0.9808207	same slower
-0.09691001	same time	-0.2670948
-0.2818506	samuels </s>
-1.741136	san antonio	0.02176918
-0.9904547	san diego	-0.02645843
-0.1066699	san francisco	0.1106664
-2.634033	san franciso
-1.051152	san jose	0.09448978
-0.544068	santa clara	0.06812896
-0.1918855	santa fe	-0.03404758
-0.243038	savannah </s>
-1.126949	savannah arriving
-0.7344537	savannah to	-0.3461387
-0.6532125	say </s>
-1.713214	say at
-0.3174204	say gate	-0.2500799
-1.713214	say it
-1.713214	say more
-0.8203174	say that	-1.021876
-0.2818506	saying </s>
-0.6675069	schedule </s>
-1.060002	schedule arrival
-1.060002	schedule for
-1.060002	schedule from
-1.060002	schedule information
-0.540007	scheduled </s>
-1.035484	scheduled departure	0.1128626
-1.427979	scheduled for
-0.544068	scheduled to	-0.4081181
-0.09691001	scratch that	-0.5662418
-0.7589719	seatac </s>
-0.7589719	seatac arrive
-0.7589719	seatac is
-0.1903856	seats still	0.1033411
-0.5274264	seattle </s>
-1.20412	seattle and	-0.1252092
-1.44233	seattle around	-0.1677747
-2.088031	seattle arrive
-1.695536	seattle arriving
-1.195134	seattle at
-2.088031	seattle departing
-2.088031	seattle i
-2.088031	seattle in
-2.088031	seattle leaving
-1.44233	seattle on	-0.1172191
-2.088031	seattle one
-2.088031	seattle this
-0.60206	seattle to	-0.244462
-1.20412	seattle today	0.1625502
-2.088031	seattle tomorrow
-1.746688	second </s>
-0.90309	second flight	-0.636811
-0.07200266	second one	-1.526634
-0.2818506	send someone
-0.2818506	sent someone
-0.2818506	seoul </s>
-0.6690068	seven </s>
-1.422334	seven a	-0.6954053
-1.770456	seven arrive	0.004588138
-2.658428	seven arrived
-2.265933	seven arriving
-2.658428	seven be
-2.658428	seven d
-2.265933	seven depart
-2.265933	seven due	0.2445347
-2.265933	seven eight	-0.3443695
-1.598426	seven eighteen	-0.7067953
-2.012727	seven eighty	-0.1706621
-2.012727	seven fifteen	-0.7918252
-2.658428	seven fifty
-2.265933	seven forty
-1.774517	seven four	-0.436375
-1.422334	seven from
-1.598426	seven hundred	-0.05633387
-1.335184	seven in	-0.8310285
-2.658428	seven is
-2.012727	seven leave	-0.1832445
-1.774517	seven leaving	-0.2109481
-2.658428	seven ninety
-1.770456	seven o+clock	0.2448464
-1.146128	seven oh	-0.6711839
-2.265933	seven on
-2.265933	seven one
-0.8083752	seven p	1.094158
-2.658428	seven running
-1.770456	seven seven	-0.7403627
-2.658428	seven seventy
-1.774517	seven six	-0.3296287
-1.765531	seven sixty	-0.3314362
-2.658428	seven take
-2.012727	seven taken	0.6941304
-2.658428	seven the
-1.598426	seven thirty
-1.774517	seven this	0.05141015
-2.012727	seven three	-0.1904514
-2.658428	seven two
-2.658428	seven would
-2.012727	seven zero	-0.1731744
-1.113272	seventeen </s>
-1.758972	seventeen arrive
-1.366477	seventeen arrived	-0.08798095
-1.758972	seventeen arriving
-1.758972	seventeen but
-1.366477	seventeen eighteen
-1.366477	seventeen eighty
-1.758972	seventeen from
