
\data\
ngram 1=630
ngram 2=4267
ngram 3=3547

\1-grams:
-0.9457841	</s>
-99	<s>	-99
-2.065874	a	-99
-2.194377	about	-99
-3.375267	after	-99
-2.500206	afternoon	-99
-3.516596	again	-99
-4.63054	ahead	-99
-2.662057	air	-99
-3.852388	air+s	-99
-4.02848	aircraft	-99
-4.63054	aircraft+s	-99
-3.099061	airline	-99
-2.429143	airlines	-99
-3.375267	airport	-99
-4.32951	airports	-99
-4.63054	airway	-99
-2.977327	airways	-99
-3.215566	alaska	-99
-3.852388	albany	-99
-3.551358	albuquerque	-99
-3.63054	all	-99
-3.93157	allentown	-99
-3.215566	aloha	-99
-4.153419	already	-99
-4.32951	alright	-99
-4.63054	altitude	-99
-2.949299	am	-99
-3.215566	america	-99
-2.361027	american	-99
-3.63054	an	-99
-4.153419	analog	-99
-3.852388	anchorage	-99
-2.779281	and	-99
-2.589147	angeles	-99
-4.153419	another	-99
-4.32951	answer	-99
-3.93157	antonio	-99
-1.730719	any	-99
-4.02848	anything	-99
-4.63054	anytime	-99
-4.63054	anyway	-99
-4.63054	apparently	-99
-3.72745	approximate	-99
-3.516596	approximately	-99
-1.705744	are	-99
-4.63054	arizona	-99
-1.698066	around	-99
-4.63054	around:	-99
-2.431883	arrival	-99
-4.63054	arrivals	-99
-2.003174	arrive	-99
-3.676297	arrived	-99
-3.039475	arrives	-99
-1.682616	arriving	-99
-3.676297	as	-99
-4.153419	ask	-99
-4.63054	asked	-99
-4.63054	asking	-99
-3.852388	aspen	-99
-1.94212	at	-99
-2.70626	atlanta	-99
-3.852388	atlantic	-99
-3.852388	austin	-99
-4.153419	available	-99
-3.852388	away	-99
-4.63054	b	-99
-4.63054	back	-99
-4.32951	baggage	-99
-3.551358	baltimore	-99
-3.785442	bangor	-99
-3.785442	baton	-99
-2.239605	be	-99
-3.72745	beach	-99
-3.72745	before	-99
-4.63054	beg	-99
-4.63054	beijing	-99
-3.02848	between	-99
-3.93157	birmingham	-99
-1.593113	boston	-99
-3.785442	boulder	-99
-4.63054	breakfast	-99
-3.676297	buffalo	-99
-3.93157	burbank	-99
-3.785442	burlington	-99
-3.268812	business	-99
-3.93157	but	-99
-4.02848	bwi	-99
-4.153419	by	-99
-2.365722	bye	-99
-4.153419	c	-99
-3.785442	california	-99
-4.63054	call	-99
-4.02848	calling	-99
-2.370468	can	-99
-4.63054	canada	-99
-4.32951	cannot	-99
-4.63054	cape	-99
-4.32951	caracas	-99
-4.63054	carolina	-99
-4.63054	carrier	-99
-4.63054	cause	-99
-4.32951	champaign	-99
-3.785442	charleston	-99
-3.785442	charlotte	-99
-4.32951	charlottesville	-99
-1.943011	chicago	-99
-4.153419	china	-99
-4.32951	christ	-99
-3.308321	cincinnati	-99
-3.785442	cities	-99
-2.662057	city	-99
-4.63054	claim	-99
-4.02848	clara	-99
-3.308321	clear	-99
-3.852388	clearwater	-99
-3.375267	cleveland	-99
-4.63054	cod	-99
-3.93157	collins	-99
-3.589147	colorado	-99
-3.785442	columbia	-99
-3.852388	columbus	-99
-3.785442	comes	-99
-3.454448	coming	-99
-3.852388	concord	-99
-4.63054	confused	-99
-3.199176	connect	-99
-3.852388	connecting	-99
-2.744049	continental	-99
-4.32951	correct	-99
-3.168142	could	-99
-3.551358	county	-99
-4.32951	cover	-99
-3.268812	current	-99
-4.32951	d	-99
-2.874665	dallas	-99
-4.63054	day	-99
-3.785442	dayton	-99
-3.112026	dc	-99
-3.785442	delay	-99
-3.00729	delayed	-99
-4.153419	delays	-99
-2.643768	delta	-99
-2.791691	denver	-99
-2.997071	depart	-99
-4.02848	departed	-99
-2.696041	departing	-99
-3.852388	departs	-99
-2.773207	departure	-99
-3.852388	des	-99
-3.400091	detroit	-99
-4.02848	dfw	-99
-4.63054	dialed	-99
-2.744049	did	-99
-3.268812	diego	-99
-4.63054	difference	-99
-4.63054	digital	-99
-3.93157	dl	-99
-2.405231	do	-99
-2.445848	does	-99
-4.63054	doing	-99
-3.516596	don+t	-99
-2.744049	due	-99
-2.967782	dulles	-99
-4.63054	dummy	-99
-4.32951	e	-99
-3.199176	eagle	-99
-4.63054	early	-99
-4.63054	eastern	-99
-2.215566	eight	-99
-3.112026	eighteen	-99
-2.817626	eighty	-99
-3.785442	el	-99
-2.448696	eleven	-99
-4.32951	elizabeth	-99
-4.32951	england	-99
-4.63054	enough	-99
-3.589147	estimated	-99
-4.63054	even	-99
-2.613506	evening	-99
-4.63054	eventually	-99
-4.63054	expect	-99
-2.831199	expected	-99
-3.183382	express	-99
-4.32951	f	-99
-3.93157	fairbanks	-99
-3.785442	far	-99
-3.676297	fe	-99
-4.63054	february	-99
-4.63054	feel	-99
-3.12539	fifteen	-99
-2.798031	fifty	-99
-4.63054	figures	-99
-4.153419	find	-99
-4.63054	fine	-99
-4.63054	finished	-99
-2.605234	first	-99
-2.24315	five	-99
-1.413583	flight	-99
-1.606465	flights	-99
-4.02848	florida	-99
-3.400091	fly	-99
-3.852388	flying	-99
-2.562354	for	-99
-4.63054	forecast	-99
-4.32951	forget	-99
-3.139178	fort	-99
-2.838148	forty	-99
-2.276431	four	-99
-3.139178	fourteen	-99
-4.32951	fourth	-99
-2.385027	francisco	-99
-4.63054	franciso	-99
-4.63054	free	-99
-4.63054	fresco	-99
-3.72745	fresno	-99
-3.852388	friday	-99
-4.63054	friend	-99
-4.63054	friend+s	-99
-1.436025	from	-99
-3.215566	frontier	-99
-4.63054	fuck	-99
-4.63054	g	-99
-2.174174	gate	-99
-4.32951	georgia	-99
-3.589147	get	-99
-4.63054	gets	-99
-4.63054	getting	-99
-2.967782	give	-99
-3.676297	go	-99
-3.484412	going	-99
-2.415696	good	-99
-4.02848	grand	-99
-3.785442	greensboro	-99
-4.32951	greenville	-99
-3.516596	ground	-99
-4.63054	h	-99
-4.32951	hanging	-99
-4.63054	hare	-99
-3.516596	harrisburg	-99
-3.785442	hartford	-99
-4.153419	hartsfield	-99
-2.761308	has	-99
-4.63054	hate	-99
-2.949299	have	-99
-4.63054	helen	-99
-4.63054	hell	-99
-3.785442	hello	-99
-2.785442	help	-99
-4.63054	hey	-99
-3.589147	hi	-99
-3.308321	history	-99
-4.32951	hole	-99
-4.63054	hong	-99
-3.168142	honolulu	-99
-4.32951	hour	-99
-2.958442	houston	-99
-2.497001	how	-99
-4.02848	hummer	-99
-2.890177	hundred	-99
-2.268812	i	-99
-3.168142	if	-99
-4.153419	illinois	-99
-1.769603	in	-99
-3.484412	indianapolis	-99
-4.63054	info	-99
-3.12539	information	-99
-4.32951	intercontinental	-99
-3.589147	interested	-99
-3.676297	into	-99
-1.665809	is	-99
-2.224	it	-99
-4.02848	its	-99
-4.63054	j	-99
-3.852388	jackson	-99
-3.454448	jacksonville	-99
-4.32951	jersey	-99
-4.63054	jesus	-99
-3.551358	jfk	-99
-4.63054	job	-99
-3.32951	jose	-99
-4.153419	july	-99
-3.039475	jupiter	-99
-4.153419	just	-99
-4.63054	k	-99
-4.63054	kalamazoo	-99
-3.589147	kansas	-99
-4.32951	kennedy	-99
-3.785442	key	-99
-4.02848	kind	-99
-2.402653	know	-99
-3.785442	knoxville	-99
-4.63054	kong	-99
-4.63054	korea	-99
-4.32951	korean	-99
-4.63054	l	-99
-3.2326	la	-99
-3.199176	laguardia	-99
-3.375267	lake	-99
-3.250329	land	-99
-3.42642	landed	-99
-3.785442	landing	-99
-3.852388	las	-99
-3.852388	last	-99
-4.02848	late	-99
-4.63054	later	-99
-3.785442	lauderdale	-99
-4.02848	lax	-99
-3.050756	leave	-99
-3.589147	leaves	-99
-2.377687	leaving	-99
-3.074237	left	-99
-4.153419	let	-99
-4.63054	let+s	-99
-3.785442	lexington	-99
-3.288117	like	-99
-3.351786	list	-99
-4.63054	listed	-99
-3.852388	little	-99
-4.32951	location	-99
-3.551358	logan	-99
-3.852388	london	-99
-3.589147	long	-99
-3.268812	looking	-99
-2.585217	los	-99
-4.63054	loser	-99
-3.250329	louis	-99
-3.852388	louisville	-99
-3.93157	lubbock	-99
-1.813636	m	-99
-4.32951	major	-99
-4.63054	make	-99
-4.02848	many	-99
-4.32951	march	-99
-4.02848	massachusetts	-99
-2.2223	me	-99
-4.32951	mean	-99
-4.63054	meant	-99
-4.32951	meet	-99
-4.63054	meeting	-99
-3.676297	memphis	-99
-4.63054	menu	-99
-4.63054	message	-99
-3.676297	mexico	-99
-3.02848	miami	-99
-4.63054	michelle	-99
-4.63054	michigan	-99
-3.375267	midnight	-99
-4.153419	midway	-99
-4.02848	midwest	-99
-3.676297	milwaukee	-99
-3.32951	minneapolis	-99
-4.63054	minnesota	-99
-3.852388	mobile	-99
-3.852388	moines	-99
-4.63054	moment	-99
-3.93157	monday	-99
-3.63054	more	-99
-2.347239	morning	-99
-4.63054	much	-99
-4.63054	must	-99
-3.72745	my	-99
-3.852388	myers	-99
-4.32951	myrtle	-99
-4.32951	n	-99
-4.63054	name	-99
-3.676297	nashville	-99
-3.72745	national	-99
-3.589147	need	-99
-4.63054	needs	-99
-2.418352	new	-99
-3.32951	newark	-99
-3.785442	newport	-99
-3.785442	news	-99
-2.798031	next	-99
-4.63054	nice	-99
-4.63054	night	-99
-2.241374	nine	-99
-3.2326	nineteen	-99
-2.817626	ninety	-99
-2.463223	no	-99
-3.785442	nonstop	-99
-2.454448	noon	-99
-3.72745	norfolk	-99
-2.711462	northwest	-99
-3.589147	not	-99
-3.02848	nothing	-99
-3.308321	now	-99
-2.987087	number	-99
-4.63054	numbers	-99
-4.63054	o	-99
-2.540635	o+clock	-99
-3.93157	o+hare	-99
-3.785442	oakland	-99
-1.98218	of	-99
-2.804465	off	-99
-4.63054	offer	-99
-2.370468	oh	-99
-4.32951	ohio	-99
-3.516596	okay	-99
-3.93157	oklahoma	-99
-3.93157	omaha	-99
-1.999096	on	-99
-2.01459	one	-99
-4.63054	one+s	-99
-3.852388	or	-99
-3.852388	orange	-99
-3.12539	orlando	-99
-3.484412	orleans	-99
-3.42642	other	-99
-3.676297	out	-99
-4.63054	outgoing	-99
-4.02848	over	-99
-1.957519	p	-99
-4.32951	palm	-99
-3.250329	pan	-99
-4.63054	pardon	-99
-3.785442	paso	-99
-3.93157	paul	-99
-4.63054	pearl	-99
-3.676297	pegasus	-99
-4.153419	pennsylvania	-99
-3.785442	petersburg	-99
-3.168142	philadelphia	-99
-4.02848	philly	-99
-3.062338	phoenix	-99
-4.02848	phone	-99
-4.63054	picking	-99
-3.551358	pittsburgh	-99
-4.02848	plane	-99
-3.062338	please	-99
-3.93157	portland	-99
-3.93157	providence	-99
-4.32951	puerto	-99
-4.32951	query	-99
-4.63054	question	-99
-4.32951	questions	-99
-4.63054	quit	-99
-3.852388	raleigh	-99
-4.02848	rapids	-99
-4.153419	reason	-99
-4.63054	remaining	-99
-4.63054	remember	-99
-3.454448	repeat	-99
-4.63054	requests	-99
-4.63054	return	-99
-4.02848	richmond	-99
-4.32951	rico	-99
-4.63054	ridiculous	-99
-3.63054	right	-99
-4.153419	roanoke	-99
-3.852388	rochester	-99
-3.93157	rock	-99
-3.785442	rouge	-99
-4.153419	running	-99
-3.785442	sacramento	-99
-4.02848	said	-99
-3.074237	saint	-99
-3.375267	salt	-99
-3.93157	same	-99
-4.63054	samuels	-99
-2.278357	san	-99
-3.516596	santa	-99
-3.785442	savannah	-99
-3.199176	say	-99
-4.63054	saying	-99
-3.852388	schedule	-99
-3.484412	scheduled	-99
-4.02848	scratch	-99
-4.153419	seatac	-99
-4.32951	seats	-99
-2.82436	seattle	-99
-2.773207	second	-99
-4.63054	send	-99
-4.63054	sent	-99
-4.63054	seoul	-99
-2.253963	seven	-99
-3.153419	seventeen	-99
-2.804465	seventy	-99
-4.32951	sfo	-99
-4.63054	shanghai	-99
-4.32951	she	-99
-4.63054	shit	-99
-3.589147	should	-99
-4.32951	show	-99
-3.785442	shreveport	-99
-2.151973	six	-99
-3.2326	sixteen	-99
-2.859688	sixty	-99
-4.32951	slower	-99
-4.32951	so	-99
-4.63054	some	-99
-4.32951	someone	-99
-4.63054	something	-99
-3.63054	sometime	-99
-4.63054	sometimes	-99
-3.454448	soon	-99
-4.32951	sorry	-99
-4.63054	sounds	-99
-4.63054	south	-99
-3.215566	southwest	-99
-4.63054	spartanburg	-99
-4.32951	speak	-99
-4.63054	speed	-99
-3.589147	springs	-99
-3.93157	stapleton	-99
-3.93157	start	-99
-4.63054	states	-99
-2.121337	status	-99
-4.32951	still	-99
-4.63054	stop	-99
-4.63054	suck	-99
-4.63054	superbowl	-99
-3.676297	supposed	-99
-4.63054	sure	-99
-3.551358	switch	-99
-3.93157	syracuse	-99
-4.32951	system	-99
-4.32951	t	-99
-3.183382	take	-99
-3.12539	taken	-99
-4.32951	takeoff	-99
-4.32951	takes	-99
-4.153419	taking	-99
-3.168142	talk	-99
-3.93157	tallahassee	-99
-3.72745	tampa	-99
-2.437415	tell	-99
-2.392494	ten	-99
-4.153419	tennessee	-99
-3.551358	terminal	-99
-3.72745	texas	-99
-2.347239	thank	-99
-3.516596	thanks	-99
-2.540635	that	-99
-3.250329	that+s	-99
-1.41253	the	-99
-4.32951	then	-99
-1.705228	there	-99
-3.400091	there+s	-99
-4.63054	these	-99
-4.63054	they	-99
-4.63054	they+re	-99
-3.93157	think	-99
-3.484412	third	-99
-3.351786	thirteen	-99
-2.593113	thirty	-99
-2.551358	this	-99
-4.32951	those	-99
-4.63054	thousand	-99
-2.274514	three	-99
-3.785442	through	-99
-1.819636	time	-99
-4.32951	times	-99
-1.474294	to	-99
-2.69102	today	-99
-4.32951	tokyo	-99
-4.63054	told	-99
-4.63054	toll	-99
-2.831199	tomorrow	-99
-3.074237	tonight	-99
-3.589147	toronto	-99
-3.250329	tower	-99
-4.02848	trans	-99
-4.63054	trap	-99
-4.63054	trapped	-99
-3.93157	trenton	-99
-3.785442	tucson	-99
-4.63054	tuesday	-99
-3.852388	tulsa	-99
-2.867112	twa	-99
-2.652816	twelve	-99
-2.593113	twenty	-99
-2.261324	two	-99
-4.02848	type	-99
-3.676297	ua	-99
-2.349506	uh	-99
-4.63054	uk	-99
-2.82436	um	-99
-4.63054	understand	-99
-2.068247	united	-99
-4.02848	up	-99
-2.558658	us	-99
-4.32951	use	-99
-4.153419	using	-99
-4.63054	vancouver	-99
-3.852388	vegas	-99
-4.63054	very	-99
-4.63054	virginia	-99
-3.215566	voyager	-99
-3.93157	w	-99
-2.701121	want	-99
-4.02848	wanted	-99
-3.086472	was	-99
-2.744049	washington	-99
-4.153419	weather	-99
-3.785442	wednesday	-99
-4.32951	week	-99
-3.785442	well	-99
-3.062338	west	-99
-3.852388	westchester	-99
-1.637545	what	-99
-2.306257	when	-99
-3.2326	where	-99
-2.949299	which	-99
-4.32951	who	-99
-4.02848	why	-99
-3.852388	wichita	-99
-1.985117	will	-99
-3.785442	wilmington	-99
-4.63054	wisconsin	-99
-4.153419	with	-99
-4.63054	won	-99
-4.63054	wondering	-99
-4.63054	wood+s	-99
-4.63054	woods	-99
-4.63054	work	-99
-4.153419	world	-99
-3.516596	worth	-99
-3.2326	would	-99
-4.32951	wrong	-99
-4.63054	ya	-99
-3.852388	yeah	-99
-3.074237	yes	-99
-2.906264	yet	-99
-2.484412	york	-99
-1.873144	you	-99
-4.32951	your	-99
-4.63054	yup	-99
-3.268812	zero	-99

\2-grams:
-2.906604	<s> a	-0.6660383
-3.082696	<s> about	-0.2913786
-3.684756	<s> after
-3.383726	<s> afternoon	0.6532125
-3.383726	<s> alright
-2.538628	<s> american	-0.5755851
-3.684756	<s> any
-3.684756	<s> anytime
-3.684756	<s> apparently
-3.207634	<s> approximate	-0.1760913
-0.8155239	<s> are	-1.592796
-2.480636	<s> around	-0.3185314
-2.286816	<s> arrival	-0.1535254
-3.082696	<s> arrives
-1.417584	<s> arriving	-0.4869872
-2.383726	<s> at	-0.8085098
-2.906604	<s> atlanta	-0.3087168
-3.684756	<s> austin
-3.684756	<s> beijing
-2.985786	<s> between	-0.0669468
-1.770942	<s> boston	-1.017837
-2.570812	<s> bye	0.6737532
-1.520403	<s> can	-0.5063421
-3.383726	<s> champaign	0
-2.269782	<s> chicago	-0.2093645
-3.684756	<s> christ
-3.383726	<s> cincinnati	-0.2688453
-2.362536	<s> clear	0
-3.207634	<s> cleveland	-0.2498775
-2.286816	<s> connect	0
-2.906604	<s> continental	0.1918855
-2.253392	<s> could	0
-2.684756	<s> delta	0.08368176
-2.781666	<s> denver	-0.7281772
-2.031543	<s> departing	-0.2627822
-2.985786	<s> departs	0.07918123
-2.179606	<s> departure	-0.2762064
-3.684756	<s> detroit
-2.140687	<s> did	-0.2016454
-3.383726	<s> dl
-1.663566	<s> do	-0.4989666
-3.383726	<s> does
-3.684756	<s> dulles
-2.839658	<s> eight	-0.7625632
-3.684756	<s> eighteen
-3.207634	<s> eleven
-3.383726	<s> elizabeth
-2.781666	<s> five	-0.1908672
-2.362536	<s> flight	-0.1386858
-2.342333	<s> flights	-0.4117694
-3.684756	<s> forget
-2.839658	<s> four	-0.6978155
-3.383726	<s> friday
-2.253392	<s> from	-0.0961879
-3.684756	<s> fuck
-3.383726	<s> get	-0.3388186
-2.570812	<s> give	0
-1.502912	<s> good	-0.2680297
-3.684756	<s> harrisburg
-1.821433	<s> has	0.005908025
-3.684756	<s> have
-2.839658	<s> hello	0
-1.96048	<s> help	-0.754239
-3.684756	<s> hey
-2.643363	<s> hi	0
-3.684756	<s> honolulu
-2.781666	<s> houston	-0.5532114
-1.584385	<s> how	-0.2678613
-1.488856	<s> i	-0.5788992
-2.684756	<s> in	-0.274726
-1.344311	<s> is	-1.226971
-2.730513	<s> it	-0.9368685
-3.207634	<s> july	0
-3.684756	<s> just
-3.383726	<s> knoxville
-3.383726	<s> la
-3.684756	<s> laguardia
-3.684756	<s> late
-2.304544	<s> leaving	-0.5381355
-3.207634	<s> let	0
-3.684756	<s> let+s
-2.839658	<s> list	-0.7035176
-2.730513	<s> los	1.045323
-3.684756	<s> miami
-3.684756	<s> minnesota
-3.684756	<s> monday
-3.383726	<s> morning
-3.383726	<s> my
-3.684756	<s> n
-2.730513	<s> new	0.1972473
-3.684756	<s> next
-2.781666	<s> nine	-0.3732624
-1.532467	<s> no	-0.05191795
-3.684756	<s> noon
-3.207634	<s> northwest
-3.082696	<s> not	-0.2138798
-2.093691	<s> nothing	0.01099539
-3.684756	<s> now
-2.985786	<s> oh
-2.605574	<s> okay	-0.03218468
-3.383726	<s> on	-0.4730434
-3.207634	<s> one
-3.082696	<s> orlando	-0.3077634
-3.383726	<s> philadelphia	-0.2188433
-3.383726	<s> phoenix	-0.3238929
-3.383726	<s> pittsburgh
-2.730513	<s> please	-0.2055847
-3.383726	<s> saint	0
-2.570812	<s> san	-0.1509269
-3.207634	<s> santa	-0.4423591
-3.684756	<s> say
-3.684756	<s> scheduled
-3.082696	<s> scratch	0
-3.082696	<s> seattle	-0.4490925
-3.207634	<s> second	-0.4191293
-3.082696	<s> seven
-3.684756	<s> show
-3.383726	<s> six	-0.3982285
-3.383726	<s> so
-3.082696	<s> start	0
-3.082696	<s> status	0.4122925
-3.684756	<s> stop
-2.643363	<s> switch	-0.2632414
-3.684756	<s> t
-3.684756	<s> taking
-2.153277	<s> tell	-0.04991344
-2.985786	<s> ten	-0.5681338
-2.286816	<s> thank	0
-3.082696	<s> thanks	0.1139434
-3.082696	<s> that	-0.5775478
-2.643363	<s> that+s	-0.2254529
-1.671918	<s> the	-1.052506
-3.684756	<s> there
-2.570812	<s> there+s	-0.2167091
-3.207634	<s> this
-2.839658	<s> three	-0.6962832
-3.684756	<s> time
-2.839658	<s> to	-0.2393859
-3.383726	<s> today	0.3162699
-3.684756	<s> tomorrow
-3.684756	<s> tonight
-3.383726	<s> toronto	-0.2808266
-3.383726	<s> trans	0.1249387
-2.985786	<s> twa	-0.1908145
-3.082696	<s> twelve	-0.6077371
-2.985786	<s> two	-0.293542
-3.684756	<s> ua
-1.792661	<s> uh	-0.2414108
-1.985786	<s> um	-0.101066
-2.093691	<s> united	-0.4267118
-2.730513	<s> us	0.3729122
-3.383726	<s> want	0.02093389
-2.730513	<s> was	-0.5563025
-2.730513	<s> washington	-0.0454754
-3.684756	<s> wednesday
-2.985786	<s> well	-0.02996321
-0.720496	<s> what	-0.1173928
-1.410598	<s> when	-1.250905
-2.304544	<s> where	0
-2.166242	<s> which	-0.3813406
-3.383726	<s> who
-3.082696	<s> why	0
-1.334508	<s> will	-1.405729
-3.383726	<s> would	-0.4409091
-2.985786	<s> yeah	-0.04575749
-2.222358	<s> yes	-0.03103422
-2.985786	<s> you
-3.684756	<s> yup
-3.684756	<s> zero
-2.564666	a city
-2.263636	a continental
-2.564666	a delay
-2.087545	a delta	-0.1204382
-2.087545	a departure	-0.1426675
-2.564666	a digital
-0.4818807	a flight	-1.027944
-2.564666	a friend
-2.564666	a gate
-1.564666	a list	-0.665729
-2.564666	a little
-2.564666	a loser
-0.2974943	a m	-0.4414942
-2.564666	a major
-2.564666	a new
-2.564666	a nice
-2.564666	a northwest
-2.564666	a of
-2.564666	a question
-2.564666	a return
-2.564666	a second
-2.564666	a six
-1.786515	a southwest	0.5698753
-2.564666	a toll
-1.661576	a twa	-0.3669058
-2.564666	a twenty
-2.564666	a ua
-2.564666	a uh
-1.865696	a united	0.1029004
-2.087545	a us	-0.2377482
-2.564666	a wrong
-1.533073	about </s>
-1.39477	about a	-0.3905405
-1.591065	about american	-0.1936332
-2.436163	about another
-1.658011	about any	0.1739089
-1.834103	about around	-0.2600937
-2.436163	about arriving
-2.135133	about at
-2.436163	about c
-2.135133	about continental
-1.533073	about delta	0.05565303
-2.436163	about departing
-1.834103	about eight	-0.5563025
-2.436163	about eleven
-1.591065	about five	-0.7612128
-1.232043	about flight	-0.1766531
-0.8679609	about flights	-0.2465573
-1.834103	about four	-0.1591092
-1.591065	about from
-2.436163	about in
-2.436163	about information
-2.135133	about it
-1.48192	about leaving	-0.8078448
-2.436163	about mexico
-2.436163	about miami
-2.436163	about my
-2.436163	about newark
-1.591065	about northwest	-0.1564689
-1.959041	about one	-0.4500029
-2.436163	about other
-1.959041	about seven	-0.4037404
-1.658011	about six	-0.6992585
-2.135133	about southwest
-2.436163	about ten
-0.845098	about the	-0.4892194
-1.959041	about three	-0.3086161
-1.959041	about tomorrow	-0.08147305
-1.737193	about twa	-0.1116333
-1.737193	about twelve	-0.3646991
-2.436163	about two
-2.436163	about ua
-1.356981	about uh	-0.06998948
-2.135133	about um
-1.004799	about united	-0.07319089
-1.658011	about us	0.4486328
-2.436163	about what
-1.255273	after eight
-1.255273	after eleven
-0.9542425	after five	-0.3521825
-1.255273	after noon
-0.9542425	after one
-1.255273	after seven
-0.7781513	after six
-0.9542425	after ten	-0.3394457
-0.9542425	after that	-0.412522
-1.255273	after today
-1.255273	after twelve
-1.255273	after two
-0.03342376	afternoon </s>
-1.829304	afternoon at
-1.431364	afternoon expected	-0.3590219
-1.653213	afternoon on	0.2300432
0	again </s>
0	ahead of
-1.968483	air canada
-0.07638834	air flight	-0.5842177
-1.190332	air flights	0.2981634
-1.968483	air from
-1.968483	air sixty
-1.968483	air speed
-1.968483	air three
-1.968483	air twenty
-1.968483	air two
-1.968483	air united
-1.968483	air yet
0	air+s flight
0	aircraft is	-0.6727588
0	aircraft+s current
-0.2527253	airline </s>
-0.6283889	airline flight	-0.1896511
-1.230449	airline flights
-1.531479	airline from
-1.531479	airline nine
-1.531479	airline or
-1.531479	airline scheduled
-1.531479	airline six
-0.9972771	airlines </s>
-1.900367	airlines are
-2.201397	airlines arrive
-1.900367	airlines arriving
-1.502427	airlines do	0.748188
-1.724276	airlines eight	-0.4686881
-1.900367	airlines five	-0.4735468
-0.1970758	airlines flight	-0.5942221
-1.502427	airlines flights	-0.218135
-1.900367	airlines fly	0.2762064
-2.201397	airlines flying
-2.201397	airlines four
-2.201397	airlines from
-2.201397	airlines have
-2.201397	airlines is
-2.201397	airlines nine
-2.201397	airlines on
-1.900367	airlines one
-1.900367	airlines please	-0.05504758
-2.201397	airlines seven
-2.201397	airlines seventeen
-2.201397	airlines this
-2.201397	airlines three
-2.201397	airlines tomorrow
-2.201397	airlines twelve
-2.201397	airlines twenty
-2.201397	airlines two
-2.201397	airlines uh
-0.7781513	airport </s>
-0.9542425	airport and
-1.255273	airport arriving
-1.255273	airport at
-1.255273	airport but
-1.255273	airport in
-1.255273	airport please
-0.6532125	airport to
-0.9542425	airport today
-1.255273	airport will
-1.255273	airport yet
0	airports do	1.049218
0	airway us
-1.653213	airways </s>
-0.04042866	airways flight	-0.6657287
-1.653213	airways flights
-1.653213	airways sixteen
-1.653213	airways sixty
0	alaska flight	-0.2501327
-0.1760913	albany </s>
-0.7781513	albany around
-0.7781513	albany arrive
-1.079181	albuquerque </s>
-1.079181	albuquerque arrive
-1.079181	albuquerque at
-0.4771213	albuquerque new	-0.6854395
-1.079181	albuquerque that
-0.4771213	albuquerque to	-0.2973779
-0.5228788	all </s>
-1	all bye
-0.69897	all good	1.135663
-0.39794	all thank	0
-0.69897	allentown </s>
-0.69897	allentown around
-0.69897	allentown at
-0.69897	allentown landed
-0.69897	allentown on
-0.5698753	aloha airlines	-0.4651209
-0.1362197	aloha flight	-0.1915937
0	already </s>
-0.30103	alright </s>
-0.30103	alright this
0	altitude </s>
-1.079181	am calling	0
-1.681241	am confused
-1.681241	am finished
-1.681241	am flight
-1.681241	am from
-1.380211	am hanging	0
-0.6398485	am interested	0
-0.3195134	am looking	0
-1.681241	am meeting
-1.681241	am picking
-1.681241	am saying
-1.681241	am sorry
0	america west	-0.7498617
-2.269513	american </s>
-1.491362	american airline	-0.09177029
-0.8381492	american airlines	-0.1593856
-2.269513	american departed
-0.8381492	american eagle	0
-0.2566757	american flight	-1.106219
-1.366423	american flights	-0.3281076
-1.491362	american from
-2.269513	american is
-2.269513	american please
-2.269513	american uh
-1.667453	american west	-0.1307683
-0.30103	an america	0
-0.5228788	an american	-0.5926185
-1	an analog
-1	an noon
0	analog phone	0
-0.30103	anchorage </s>
-0.4771213	anchorage around
-0.7781513	anchorage delayed
-1.851258	and arrive
-1.00616	and arriving	-0.8220442
-1.374137	and atlanta	-0.4336556
-1.374137	and baltimore	0
-0.5959858	and boston	-0.3582493
-1.249198	and chicago	-0.2336371
-1.851258	and dallas
-1.550228	and denver	-0.251056
-1.851258	and dulles
-1.374137	and fifty	-0.4004872
-1.851258	and find
-1.851258	and from
-1.550228	and houston	-0.1852347
-1.851258	and how
-1.851258	and i
-1.550228	and london	-0.30103
-1.851258	and los
-1.073107	and new	0.005361739
-1.851258	and orlando
-1.550228	and san
-1.851258	and santa
-1.550228	and then
-1.851258	and three
-1.550228	and time	-0.113375
-1.851258	and twenty
-1.851258	and two
-1.851258	and washington
-1.851258	and you
-0.3881802	angeles </s>
-1.564271	angeles and	-0.3501388
-2.041393	angeles around
-1.08715	angeles arriving	-0.3804559
-2.041393	angeles at
-2.041393	angeles connecting
-2.041393	angeles departed
-2.041393	angeles due
-2.041393	angeles eleven
-2.041393	angeles land
-2.041393	angeles leaving
-2.041393	angeles left
-2.041393	angeles on
-2.041393	angeles that
-1.740363	angeles this
-0.473191	angeles to	-1.31896
-1.740363	angeles today	0.3162699
-2.041393	angeles tomorrow
-0.4771213	another carrier
-0.1760913	another flight
-0.30103	answer </s>
-0.30103	answer questions
-0.39794	antonio </s>
-0.69897	antonio at
-0.69897	antonio that
-0.69897	antonio to
-2.899821	any about
-2.899821	any airline
-2.054723	any american	-0.5249751
-2.899821	any any
-1.996731	any continental	-0.8739318
-2.899821	any delays
-2.20085	any delta	-0.7358622
-2.899821	any expected
-2.121669	any flight	-0.2153706
-0.04369606	any flights	-1.21944
-2.899821	any from
-2.59879	any information	-0.2941906
-2.422699	any more	-0.447158
-2.054723	any nonstop	0
-2.899821	any northwest
-2.899821	any of
-1.89982	any other	-0.03891805
-2.899821	any seats
-2.422699	any uh	-0.4656008
-2.899821	any um
-1.858428	any united	-0.9399976
-2.29776	any us	-0.2377482
-0.1249387	anything about	-0.4674699
-0.60206	anything i
0	anytime </s>
0	anyway </s>
0	apparently you
-0.30103	approximate arrival	-0.2327067
-0.30103	approximate departure	-0.2395775
-1.113943	approximately eight
-1.113943	approximately eleven
-0.8129134	approximately four	-0.3352004
-0.8129134	approximately nine	-0.4420636
-1.113943	approximately seven
-1.113943	approximately six
-1.113943	approximately ten
-0.8129134	approximately three	-0.3086161
-1.113943	approximately twelve
-1.113943	approximately two
-2.924796	are a
-2.322736	are any	0.7179769
-1.526856	are arriving	-0.985943
-2.924796	are available
-2.322736	are coming	-0.3802113
-2.924796	are doing
-2.225826	are flights	-0.07004656
-2.924796	are flying
-2.322736	are from
-2.623766	are going	0.0669468
-2.924796	are is
-1.970554	are leaving	-0.2225276
-2.924796	are not
-2.924796	are other
-2.924796	are supposed
-2.924796	are taking
-1.563068	are the	-0.7463203
-0.04857815	are there	-1.392863
-2.623766	are those	0
-2.623766	are you
0	arizona </s>
-2.932474	around </s>
-2.932474	around arriving
-1.35269	around eight	-0.7186933
-0.9196365	around eleven	-1.245968
-1.169046	around five	-0.9726353
-1.045983	around four	-1.145166
-2.932474	around i
-1.978231	around midnight	-0.4436975
-2.932474	around morning
-2.932474	around next
-1.20008	around nine	-1.287711
-0.8425686	around noon	-0.3397826
-1.309224	around one	-1.136022
-1.233504	around seven	-1.386851
-1.034847	around six	-1.231974
-1.029384	around ten	-1.080017
-2.631444	around the	-0.4758048
-2.932474	around this
-1.147144	around three	-1.368823
-1.853292	around twelve	-0.4372497
-1.176599	around two	-1.17905
-2.233504	around uh
0	around: ten
-2.198657	arrival </s>
-2.198657	arrival around
-2.198657	arrival at
-2.198657	arrival eight
-2.198657	arrival for
-0.5651886	arrival gate	-1.54259
-2.198657	arrival is
-2.198657	arrival northwest
-0.1816237	arrival time	-0.6005806
-2.198657	arrival times
-1.897627	arrival two	-0.4522977
-2.198657	arrival when
0	arrivals from
-0.6103325	arrive </s>
-2.326336	arrive around
-1.782268	arrive as	-0.2498775
-0.4512746	arrive at	-0.590853
-2.627366	arrive eleven
-2.326336	arrive from	-0.4589876
-0.4512746	arrive in	-0.3593583
-2.627366	arrive into
-2.326336	arrive on	0.2300432
-2.627366	arrive to
-2.326336	arrive today
-2.627366	arrive tomorrow
-2.627366	arrive uh
-0.1091445	arrived at	-0.8361061
-0.6532125	arrived yet	1.247155
-0.8920946	arrives </s>
-1.290035	arrives around
-1.290035	arrives at
-1.113943	arrives boston
-0.8920946	arrives from	-0.6652242
-0.5118834	arrives in	-0.07011422
-1.591065	arrives nine
-0.7459666	arrives sometime	0.09691001
-1.591065	arrives sometimes
-1.591065	arrives this
-1.868742	arriving </s>
-2.947924	arriving after
-0.2294219	arriving around	-0.899978
-0.9065309	arriving at	-0.4183657
-2.470802	arriving before	-0.39794
-2.947924	arriving between
-2.470802	arriving boston	-0.4508421
-2.947924	arriving eleven
-2.947924	arriving five
-2.947924	arriving four
-1.257728	arriving from	-0.2417496
-0.7689466	arriving in	-0.3972216
-2.947924	arriving into
-2.169772	arriving on	-0.1379336
-2.947924	arriving six
-2.947924	arriving ten
-2.044834	arriving this	-0.8044802
-2.102826	arriving today	-0.05170684
-2.947924	arriving tonight
-2.947924	arriving twelve
-2.646894	arriving two
-2.470802	arriving uh	-0.4679295
-0.9542425	as good
-0.1091445	as scheduled	-0.60206
-0.9542425	as well
-0.4771213	ask </s>
-0.4771213	ask about
-0.4771213	ask you
0	asked for
0	asking me
-0.4771213	aspen </s>
-0.7781513	aspen around
-0.7781513	aspen delayed
-0.7781513	aspen landed
-0.7781513	aspen on
-0.5123286	at </s>
-2.211298	at about	-0.4658403
-1.910269	at approximately	-0.1035406
-1.38739	at around	-0.4185491
-2.38739	at atlanta
-2.68842	at austin
-1.78533	at boston	-0.4134382
-2.68842	at boulder
-2.68842	at breakfast
-2.68842	at bwi
-2.68842	at charlotte
-2.68842	at concord
-2.68842	at dfw
-2.38739	at dulles
-1.308209	at eight	-1.222916
-2.68842	at eighty
-1.734177	at eleven	-0.5819587
-1.609239	at five	-0.3521825
-1.366201	at four	-0.7124039
-2.68842	at grand
-2.68842	at harrisburg
-2.68842	at hartsfield
-2.08636	at in
-2.68842	at jfk
-2.68842	at kansas
-2.68842	at laguardia
-2.68842	at lax
-2.38739	at logan
-1.843322	at midnight	0.1091444
-2.38739	at midway
-2.68842	at newport
-1.273446	at nine	-1.272647
-1.542292	at noon	-0.146128
-2.68842	at o+hare
-2.68842	at oakland
-1.98945	at one	-0.3915844
-2.68842	at philadelphia
-2.38739	at pittsburgh	-0.09691002
-2.38739	at seatac
-1.574476	at seven	-0.5855555
-1.409666	at six	-1.176764
-2.211298	at stapleton
-2.68842	at syracuse
-1.345997	at ten	-0.6725783
-2.68842	at that
-1.68842	at the	-0.6952738
-2.68842	at this
-1.226022	at three	-0.6784689
-1.734177	at twelve	-0.5619797
-1.512329	at two	-0.4428615
-1.910269	at uh	-0.4632596
-2.68842	at washington
-1.843322	at what	-0.7535613
-1.68842	at which	-0.7218793
-2.68842	at yet
-0.4929155	atlanta </s>
-1.623249	atlanta around
-1.623249	atlanta arrive
-1.322219	atlanta arriving	-0.297589
-1.924279	atlanta at
-1.924279	atlanta from
-1.924279	atlanta georgia
-1.623249	atlanta leaving
-1.924279	atlanta on
-1.924279	atlanta right
-0.3444957	atlanta to	-0.6138691
-1.322219	atlanta tomorrow	-0.1300784
0	atlantic city	-0.4224521
-0.30103	austin </s>
-0.7781513	austin be
-0.7781513	austin leaving
-0.7781513	austin today
-0.4771213	available </s>
-0.4771213	available from
-0.4771213	available on
0	away is	-0.4532387
0	b </s>
0	back </s>
-0.30103	baggage arriving
-0.30103	baggage claim
-0.1249387	baltimore </s>
-1.079181	baltimore arrive
-1.079181	baltimore arriving
-1.079181	baltimore to
-0.544068	bangor </s>
-0.845098	bangor around
-0.845098	bangor arriving
-0.845098	bangor on
-0.544068	bangor to	-0.4765147
0	baton rouge	0
-2.089905	be </s>
-2.089905	be around
-1.390935	be arriving	-0.9391307
-2.089905	be at	-0.3176181
-1.214844	be delayed	0.4191292
-2.390935	be departing
-2.390935	be early
-2.390935	be getting
-2.390935	be in
-1.545837	be leaving	-0.8597519
-0.08343907	be on	-1.602466
-2.390935	be using
-0.60206	beach </s>
-0.60206	beach around
-0.90309	beach arriving
-0.4259687	beach to	-0.2874861
-0.4259687	before noon	0.3699113
-0.90309	before take
-0.60206	before ten	-0.3462851
-0.60206	before the	-0.4252452
0	beg your
0	beijing china
-0.5228788	between boston	-1.107925
-1.60206	between chicago
-1.30103	between cleveland	-0.4259687
-1.60206	between dallas
-1.60206	between dulles
-1.30103	between los	1.568202
-1.60206	between miami
-1.60206	between minneapolis
-1.124939	between new	0.2483998
-1.124939	between newark	-0.5314789
-1.60206	between orlando
-1.60206	between phoenix
-1.60206	between pittsburgh
-1.60206	between saint
-1	between san	-0.03698356
-1.30103	between seattle	-0.4490925
-1.60206	between toronto
-1.60206	between two
-1.60206	between washington
-0.69897	birmingham </s>
-0.69897	birmingham connecting
-0.69897	birmingham delayed
-0.69897	birmingham land
-0.69897	birmingham left
-0.6536111	boston </s>
-3.037426	boston after
-1.861335	boston and	-0.2431629
-3.037426	boston approximately
-1.231246	boston around	-0.4051851
-3.037426	boston arrive
-0.5268815	boston arriving	-0.808134
-1.505948	boston at	-0.768629
-3.037426	boston boston
-3.037426	boston but
-3.037426	boston by
-2.736397	boston continental	-0.447963
-2.560305	boston departing
-3.037426	boston due
-3.037426	boston eight
-3.037426	boston flying
-2.134336	boston for	-0.5752668
-1.606063	boston from	-0.6179645
-3.037426	boston houston
-3.037426	boston in
-3.037426	boston is
-2.560305	boston leaving
-3.037426	boston left
-2.435366	boston logan	-0.1760913
-2.736397	boston massachusetts
-3.037426	boston midnight
-2.192328	boston on	-0.03972909
-3.037426	boston orlando
-2.736397	boston please	-0.05504758
-3.037426	boston san
-3.037426	boston sometime
-3.037426	boston that
-1.958245	boston this	-0.265211
-0.5918223	boston to	-1.27027
-1.715207	boston today	-0.1230627
-2.192328	boston tomorrow	0.1091445
-2.037426	boston tonight	0.5149098
-3.037426	boston us
-3.037426	boston using
-2.560305	boston which	-0.4490925
-3.037426	boston yet
-0.3679768	boulder </s>
-0.845098	boulder around
-0.845098	boulder be
-0.845098	boulder landed
-0.845098	boulder today
0	breakfast time
-0.6532125	buffalo </s>
-0.9542425	buffalo connecting
-0.9542425	buffalo delayed
-0.9542425	buffalo depart
-0.9542425	buffalo due
-0.6532125	buffalo new	0.3733385
-0.9542425	buffalo to
-0.39794	burbank </s>
-0.69897	burbank and
-0.69897	burbank be
-0.69897	burbank uh
-0.544068	burlington </s>
-0.3679768	burlington around
-0.845098	burlington at
-0.845098	burlington due
0	business express	0.06694707
-0.69897	but dallas
-0.69897	but i
-0.69897	but one
-0.69897	but six
-0.69897	but the
-0.60206	bwi around
-0.60206	bwi arrive
-0.60206	bwi is
-0.60206	bwi on
-0.4771213	by nine
-0.4771213	by six
-0.4771213	by united
-0.007139248	bye </s>
-1.963788	bye bye	1.310575
-2.264818	bye yes
-0.4771213	c o
-0.1760913	c sixty
-0.3679768	california </s>
-0.243038	california to	-0.3004234
0	call </s>
0	calling from	-0.6973017
-2.260071	can </s>
-0.8798602	can i	-1.325979
-1.959041	can tell	1.017033
-2.260071	can uh
-0.07255067	can you	-1.411263
0	canada flight
-0.30103	cannot sorry
-0.30103	cannot think
0	cape cod
0	caracas tomorrow	0.04346569
0	carolina to
0	carrier </s>
0	cause of
0	champaign illinois	0
-0.845098	charleston </s>
-0.544068	charleston around
-0.845098	charleston delayed
-0.845098	charleston landed
-0.845098	charleston leave
-0.845098	charleston on
-0.3679768	charlotte </s>
-0.845098	charlotte be
-0.845098	charlotte leaving
-0.845098	charlotte to
-0.845098	charlotte today
-0.30103	charlottesville land
-0.30103	charlottesville to
-0.8424309	chicago </s>
-2.386499	chicago and
-1.909378	chicago around	-0.343988
-2.687529	chicago around:
-2.386499	chicago arrive
-1.131226	chicago arriving	-0.9486579
-2.210408	chicago at
-2.687529	chicago delayed
-2.386499	chicago departing
-1.842431	chicago from	-0.4502688
-2.687529	chicago i
-2.687529	chicago into
-2.687529	chicago is
-2.687529	chicago jesus
-2.386499	chicago landing	0.3679768
-2.386499	chicago leave	-0.4414057
-2.386499	chicago leaving
-2.687529	chicago left
-2.687529	chicago o+hare
-2.210408	chicago on
-2.687529	chicago please
-2.085469	chicago this	-0.5691788
-2.687529	chicago three
-0.1743114	chicago to	-1.509769
-1.988559	chicago today	0.1613681
-2.386499	chicago tomorrow
-2.687529	chicago tonight
-2.687529	chicago uh
-2.687529	chicago you
0	china </s>
0	christ </s>
-0.4191293	cincinnati </s>
-0.845098	cincinnati are	-0.5889542
-1.021189	cincinnati around
-1.021189	cincinnati arriving	-0.09029903
-1.322219	cincinnati land
-0.845098	cincinnati on	0.1051045
-1.322219	cincinnati taken
-1.322219	cincinnati to
0	cities do	0.6232493
-0.5705429	city </s>
-1.123385	city around	-0.4109348
-1.667453	city arrive
-0.8223549	city arriving	-0.225554
-1.667453	city at
-1.968483	city delayed
-1.968483	city due
-1.968483	city expected
-1.968483	city kennedy
-1.491362	city land	-0.30103
-1.667453	city left	-0.3187588
-1.491362	city on	0.1051045
-1.968483	city this
-0.5371192	city to	-0.7414908
-1.968483	city tomorrow
-1.667453	city uh
0	claim will
0	clara </s>
0	clear history	0
-0.30103	clearwater </s>
-0.7781513	clearwater around
-0.7781513	clearwater arrive
-0.7781513	clearwater expected
-0.2552725	cleveland </s>
-0.9542425	cleveland and	-0.4519377
-0.7781513	cleveland arriving	-0.3960755
-0.7781513	cleveland to
0	cod </s>
-0.39794	collins </s>
-0.69897	collins connecting
-0.69897	collins delayed
-0.69897	collins left
-0.7403627	colorado on
-0.08715018	colorado springs	-0.05897789
-0.544068	columbia </s>
-0.845098	columbia land
-0.845098	columbia taken
-0.3679768	columbia to	-0.6011499
-0.1760913	columbus </s>
-0.7781513	columbus due
-0.7781513	columbus land
-0.845098	comes </s>
-0.845098	comes back
-0.146128	comes in	-0.7751499
-1.176091	coming as
-0.4771213	coming from
-0.39794	coming in	-0.8280168
-0.8750613	coming into	0
-1.176091	coming out
-0.07918125	concord </s>
-0.7781513	concord to
0	confused i
0	connect me	-1.365546
0	connecting through
-1.041393	continental </s>
-1.585461	continental airline
-1.187521	continental airlines	-0.1757877
-1.886491	continental arriving
-1.886491	continental eleven
-0.243038	continental flight	-0.3843421
-0.7725474	continental flights	-0.3570401
-1.886491	continental leave
-1.886491	continental offer
-1.585461	continental three	-0.4713434
0	correct </s>
-0.860338	could i	-0.5866851
-0.06445799	could you	-0.7611179
-0.30103	county </s>
-1.079181	county and
-1.079181	county arrive
-1.079181	county be
-1.079181	county this
-0.7781513	county to	-0.4765147
0	cover </s>
-1.361728	current altitude
-1.060698	current location	0
-0.1064553	current status	0.3853509
-1.060698	current time	-0.4751028
-0.30103	d </s>
-0.30103	d f
-0.7144822	dallas </s>
-1.755875	dallas and
-1.755875	dallas around
-0.9777236	dallas arriving	-0.391329
-1.755875	dallas at
-1.755875	dallas delayed
-1.056905	dallas departing	-0.1002637
-0.6419315	dallas fort	-0.9100388
-1.755875	dallas landed
-1.755875	dallas on
-1.454845	dallas sometime	0.5228787
-1.153815	dallas texas	0.30103
-1.056905	dallas to	-0.5093348
-1.056905	dallas tomorrow	-0.2575643
0	day </s>
-0.3679768	dayton </s>
-0.3679768	dayton around
-0.845098	dayton at
-0.4771213	dc </s>
-1.217484	dc around
-1.041393	dc arriving	-0.2152378
-1.217484	dc departing	-0.4669021
-1.518514	dc dulles
-1.518514	dc landed
-1.518514	dc leaving
-1.518514	dc on
-0.916454	dc this	-0.1712388
-0.7403627	dc to	-0.5885161
-1.518514	dc will
-0.243038	delay </s>
-0.845098	delay be
-0.845098	delay for
-0.845098	delay on
-0.09177037	delayed </s>
-1.623249	delayed and
-0.7781513	delayed this	-0.05435763
-0.4771213	delays </s>
-0.4771213	delays before
-0.4771213	delays for
-1.50965	delta </s>
-1.50965	delta airline	-0.4855544
-0.8728284	delta airlines	-0.2135762
-1.986772	delta at
-0.1738584	delta flight	-0.6008147
-1.032529	delta flights	0.2309833
-1.986772	delta nine
-1.986772	delta one
-1.986772	delta to
-0.3916911	denver </s>
-1.139879	denver around	-0.7360985
-1.361728	denver arriving	-0.2152378
-1.537819	denver colorado	-0.3899711
-1.838849	denver connecting
-1.838849	denver delayed
-1.838849	denver flights
-1.838849	denver friday
-1.838849	denver land
-1.361728	denver leaving	-0.5105749
-1.139879	denver on	-0.6938666
-1.838849	denver this
-0.6347291	denver to	-0.454414
-1.838849	denver tomorrow
-0.4873404	depart </s>
-1.156347	depart around	-0.4097515
-1.332438	depart at
-1.031408	depart boston	-0.5899394
-0.4293485	depart from	-0.3474926
-1.332438	depart on	0.2300432
-1.633469	depart today
-1.633469	depart wednesday
-0.60206	departed </s>
-0.30103	departed from	-0.4718164
-0.60206	departed yet
-1.633469	departing </s>
-0.6792259	departing around	-0.2401292
-0.6122792	departing at	-0.3381645
-1.633469	departing before	-0.3521825
-1.332438	departing boston	-0.2872674
-1.031408	departing eight	-0.8816919
-0.7303784	departing from	-0.782294
-1.934498	departing gate
-1.457377	departing in	-0.3539072
-1.934498	departing monday
-1.934498	departing nine
-1.457377	departing on	0.2300432
-1.934498	departing seattle
-1.457377	departing six	-0.4579473
-1.633469	departing tomorrow	-0.4101745
-0.7781513	departs approximately
-0.7781513	departs four
-0.7781513	departs from
-0.30103	departs houston
-1.556303	departure </s>
-1.857332	departure around
-1.158363	departure at
-1.857332	departure but
-1.556303	departure correct	0
-1.857332	departure delays
-1.857332	departure february
-1.012234	departure gate	-0.8699698
-1.857332	departure six
-1.380211	departure three	-0.4335549
-0.1852346	departure time	0.06625575
-1.857332	departure times
0	des moines	0
-0.3853509	detroit </s>
-1.230449	detroit arriving
-1.230449	detroit at
-1.230449	detroit leaving
-1.230449	detroit michigan
-1.230449	detroit that
-1.230449	detroit this
-0.6283889	detroit to	-0.3004234
-0.30103	dfw </s>
-0.60206	dfw on
-0.60206	dfw to
0	dialed a
-1.886491	did </s>
-1.108339	did american	-0.4946632
-1.886491	did flight
-0.3301882	did it	-0.9018109
-1.886491	did that
-1.409369	did the	-0.550184
-1.886491	did uh
-0.8073095	did united	-0.6047289
-0.6823707	did you	-1.214992
-0.2477845	diego </s>
-1.361728	diego around
-1.060698	diego arrive	-0.3549054
-1.361728	diego arriving
-1.361728	diego expected
-0.6627578	diego on	0.02721776
0	difference between
0	digital phone
-0.69897	dl </s>
-0.69897	dl flight
-0.2218488	dl one	-0.5967701
-2.225309	do </s>
-2.225309	do for
-2.225309	do i
-1.924279	do not	-0.3899711
-0.01312168	do you	-1.368605
-2.184691	does </s>
-1.582631	does american	-0.5339442
-1.230449	does continental	-0.2852357
-2.184691	does delta
-0.7075702	does flight	-0.5785752
-1.582631	does it
-1.70757	does my	-0.1760913
-2.184691	does northwest
-1.10551	does pan	0.30103
-1.40654	does southwest	0.5698753
-0.3586166	does the	-1.436402
-1.70757	does this	-0.5682017
-1.582631	does twa	-0.1116333
-2.184691	does uh
-2.184691	does um
-1.485721	does united	-0.1897556
-2.184691	does us
0	doing and
-1.113943	don+t i
-0.2108534	don+t know	-0.402202
-1.113943	don+t remember
-1.113943	don+t understand
-1.113943	don+t want
-1.113943	don+t you
-0.6077371	due in	-1.264772
-0.1230627	due to	-1.738131
-0.30103	dulles </s>
-1.662758	dulles and
-1.662758	dulles around
-0.5166298	dulles arriving	-0.7593058
-1.662758	dulles is
-1.185637	dulles on	0.1051045
-1.662758	dulles this
-1.361728	dulles to
0	dummy </s>
0	e twenty
-0.7323937	eagle airlines	-0.3401821
-1.431364	eagle eight
-0.2552725	eagle flight	-0.5403439
-1.431364	eagle four
-1.431364	eagle nine
-1.431364	eagle one
-1.431364	eagle seven
-1.431364	eagle six
-1.431364	eagle two
0	early or
0	eastern time
-0.7715207	eight </s>
-1	eight a	-1.126769
-1.569875	eight arrive	-0.1471511
-2.414973	eight arrived
-1.636822	eight arriving	-0.3661543
-2.414973	eight at
-2.414973	eight comes
-2.414973	eight depart
-2.414973	eight departed
-2.414973	eight due
-1.716003	eight eight	-0.6696029
-1.937852	eight eighty
-2.414973	eight expected
-2.113943	eight fifteen	-0.3521825
-1.937852	eight fifty	-0.5619428
-1.812913	eight forty
-2.414973	eight four
-1.335792	eight from	-0.1380049
-1.636822	eight hundred	0.007968931
-1.210853	eight in	-0.9822962
-1.937852	eight into	0
-2.414973	eight is
-1.636822	eight leaving	-0.3856362
-1.268845	eight nine	-0.82142
-1.716003	eight ninety	-0.3253893
-1.13622	eight o+clock	-0.2857585
-1.511883	eight oh	-0.5647051
-1.812913	eight on	0.1051045
-1.113943	eight p	0
-2.414973	eight right
-1.812913	eight six	-0.6916952
-2.113943	eight sixty
-2.414973	eight take
-2.113943	eight taken	0
-1.268845	eight thirty	-0.9080422
-2.113943	eight this
-2.113943	eight three
-2.414973	eight to
-2.414973	eight tomorrow
-2.113943	eight twenty	-0.421966
-1.937852	eight two	-0.590779
-2.113943	eight uh
-2.414973	eight zero
-0.5642715	eighteen </s>
-1.518514	eighteen arrives
-1.518514	eighteen be
-1.518514	eighteen fifteen
-1.518514	eighteen forty
-0.6734159	eighteen nineteen	-0.2922561
-1.041393	eighteen ninety	-0.50515
-0.7403627	eighteen oh	-0.2662679
-1.518514	eighteen sixty
-1.518514	eighteen thirty
-1.217484	eighteen twenty
-1.812913	eighty </s>
-0.9678153	eighty be	0.04068716
-1.511883	eighty depart	-0.3060508
-1.511883	eighty eight
-1.210853	eighty five	-0.2211362
-1.335792	eighty four	-0.3830842
-0.8586708	eighty nine	-0.3234836
-1.812913	eighty nineteen
-1.335792	eighty one	-0.3649619
-1.210853	eighty seven	-0.2936689
-1.812913	eighty seventeen
-1.511883	eighty seventy
-0.5824645	eighty six	-0.8011004
-1.812913	eighty take
-1.812913	eighty thirty
-1.210853	eighty three	-0.2416693
-1.335792	eighty two	-0.4217726
0	el paso	0
-1.181844	eleven </s>
-0.7194456	eleven a	-1.172527
-2.181844	eleven arrive
-2.181844	eleven arrived
-1.880814	eleven arriving	-0.4196187
-1.880814	eleven eighty	-0.4565996
-1.579784	eleven forty	-0.5786762
-2.181844	eleven from
-0.60206	eleven in	-1.342912
-2.181844	eleven ninety
-1.005752	eleven o+clock	-0.1653673
-1.482874	eleven oh
-1.035716	eleven p	0
-2.181844	eleven please
-1.880814	eleven sixty	-0.4305451
-2.181844	eleven taken
-2.181844	eleven ten
-1.227601	eleven thirty	-0.3261855
-1.482874	eleven this	-0.6180481
-1.704722	eleven twelve	-0.4678806
-1.403692	eleven twenty	-0.680244
-2.181844	eleven uh
-0.30103	elizabeth </s>
-0.30103	elizabeth please
0	england </s>
0	enough thank
-0.08715018	estimated arrival	-0.5337366
-0.7403627	estimated departure	-0.4648868
0	even up
-0.03476211	evening </s>
-2.017033	evening for
-2.017033	evening in
-1.238882	evening on	-0.1379336
0	eventually she
0	expect the
-0.4569179	expected arrival	-0.8761594
-1.799341	expected delays
-1.799341	expected departure
-0.2082759	expected to	-1.567374
-1.447158	express </s>
-0.1249387	express flight	-0.4145373
-0.6690068	express flights	-0.8266325
-0.30103	f </s>
-0.30103	f w
-0.39794	fairbanks </s>
-0.69897	fairbanks be
-0.69897	fairbanks leaving
-0.69897	fairbanks today
-0.06694679	far away	0
-0.845098	far is
-0.2552725	fe </s>
-0.6532125	fe around
-0.9542425	fe sounds
-0.9542425	fe to
0	february twenty
0	feel a
-0.60206	fifteen </s>
-1.50515	fifteen arrive
-1.20412	fifteen arrived	0.1760912
-0.80618	fifteen eighty	-0.6342447
-1.50515	fifteen forty
-1.20412	fifteen from
-0.80618	fifteen oh	-0.157677
-1.028029	fifteen p	0
-1.20412	fifteen sixteen
-1.50515	fifteen taken
-1.50515	fifteen twenty
-1.50515	fifteen zero
-0.7911162	fifty </s>
-1.133539	fifty eight	-0.6184504
-1.230449	fifty expected	-0.2798407
-0.8325089	fifty five	-0.8959113
-1.133539	fifty four	-0.1278117
-1.355388	fifty from	-0.4740579
-1.054358	fifty nine	-0.3504063
-1.133539	fifty one	-0.5840792
-1.054358	fifty seven	-0.2766355
-1.054358	fifty six	-0.1898194
-1.531479	fifty three	-0.4177606
-1.133539	fifty two	-0.2009377
0	figures out
0	find out	-0.3679768
0	fine thank
0	finished </s>
-1.548185	first </s>
-2.025306	first at
-1.122216	first flight	-0.3874128
-0.05682292	first one	-1.668932
-2.025306	first please
-0.774606	five </s>
-1.609239	five a	-0.5405033
-1.542292	five arrive	-0.4481811
-1.910269	five arriving	-0.3960755
-2.38739	five be
-2.08636	five depart	-0.2750166
-1.78533	five eight
-2.38739	five eighteen
-1.4843	five eighty	-0.743389
-1.68842	five fifty	-0.1817315
-1.910269	five five	-0.3972275
-1.910269	five forty
-2.38739	five four
-1.433147	five from	-0.2556193
-1.609239	five hundred	0.007968931
-1.132117	five in	-0.7060897
-2.38739	five is
-2.38739	five leave
-2.38739	five leaving
-1.609239	five ninety	-0.5762528
-1.542292	five o+clock	-0.526045
-1.18327	five oh	-1.026834
-1.910269	five on
-0.60206	five p	0
-2.38739	five right
-2.38739	five seventeen
-1.78533	five six	-0.2922855
-2.08636	five sixteen	-0.4409091
-1.910269	five sixty	-0.4138394
-2.38739	five take
-2.38739	five taken
-2.08636	five ten
-1.910269	five thirty
-2.08636	five this
-2.38739	five tomorrow
-1.542292	five twenty	-0.8101461
-2.08636	five two
-1.390882	flight </s>
-2.915927	flight after	-0.4259687
-3.216957	flight around
-3.216957	flight arrival
-2.216957	flight arrive	0.2849433
-2.517987	flight arrives	-0.6393843
-1.672889	flight arriving	-0.3407726
-2.915927	flight at
-1.353634	flight be	-1.105856
-2.371859	flight between	-0.1238516
-2.517987	flight coming	-0.2218487
-2.915927	flight delay	-0.1091445
-3.216957	flight delayed
-2.915927	flight delta	0.004500497
-2.517987	flight departing	-0.4804749
-3.216957	flight departs
-2.915927	flight dl	-0.07918127
-2.739836	flight do	0.9242793
-2.070829	flight due	0
-1.614897	flight eight	-1.363177
-1.894738	flight eighteen	-0.5026754
-1.894738	flight eighty	-0.3939125
-1.961685	flight eleven	-0.7234124
-2.040866	flight fifteen	-0.49485
-2.313867	flight fifty	-0.4416489
-1.526761	flight five	-0.6363655
-3.216957	flight flights
-3.216957	flight flying
-2.371859	flight forty
-1.625893	flight four	-0.7932585
-1.785593	flight fourteen	-0.1160934
-0.7471352	flight from	-0.0872656
-2.739836	flight get	-0.4057654
-2.517987	flight going	-0.1549019
-3.216957	flight hundred
-2.915927	flight in	-0.4698828
-3.216957	flight info
-2.438806	flight information	-0.4033351
-1.874534	flight is	-0.6187399
-2.915927	flight landing
-3.216957	flight later
-2.614897	flight leave	-0.1191864
-2.313867	flight leaves	0.08715019
-1.476595	flight leaving	0.09336103
-3.216957	flight n
-1.492681	flight nine	-0.909141
-2.137776	flight nineteen	-0.4082399
-2.517987	flight ninety	-0.30103
-2.739836	flight northwest
-2.915927	flight now	0.3679768
-1.769799	flight number	-0.07255068
-3.216957	flight numbers
-2.915927	flight of
-2.915927	flight oh	-0.4238757
-1.986508	flight on	-0.2222544
-1.308472	flight one	-0.8110489
-2.915927	flight out
-3.216957	flight please
-3.216957	flight running
-3.216957	flight schedule
-1.484563	flight seven	-0.77079
-1.961685	flight seventeen	-0.5910646
-2.103014	flight seventy	-0.3670498
-1.476595	flight six	-0.8745799
-1.915927	flight sixteen	-0.3802111
-2.070829	flight sixty	-0.4721861
-2.915927	flight status	-0.4634631
-3.216957	flight take
-2.915927	flight takes	0
-1.637174	flight ten	-1.41362
-1.526761	flight that	-1.006831
-2.517987	flight that+s	-0.6766936
-3.216957	flight the
-2.137776	flight thirteen	-0.3233064
-1.986508	flight thirty	-0.3642612
-1.573505	flight three	-0.6213056
-1.698443	flight to	-0.3100281
-1.563745	flight twelve	-1.037217
-1.648755	flight twenty	-0.6099565
-1.446105	flight two	-0.8758523
-2.915927	flight ua	-0.2218488
-2.438806	flight uh
-3.216957	flight um
-3.216957	flight united
-2.915927	flight us
-2.103014	flight will	-1.09691
-3.216957	flight you
-3.216957	flight zero
-1.819955	flights </s>
-2.723045	flights again	0
-1.380622	flights are	-0.07083932
-2.245924	flights arrive	-0.2843243
-1.253223	flights arriving	-0.5304987
-3.024075	flights at
-1.768803	flights between	-0.05115251
-3.024075	flights by
-2.422015	flights coming	-0.07918123
-2.723045	flights depart
-2.069833	flights departing	-0.8850454
-3.024075	flights departure
-1.701856	flights do	0.1839166
-2.546954	flights fly	0.1512677
-2.723045	flights flying	-0.30103
-0.1258985	flights from	-0.7921835
-2.245924	flights go	-0.4259687
-2.546954	flights going	-0.455932
-3.024075	flights in
-2.546954	flights landing	0.243038
-3.024075	flights late
-2.422015	flights leave	-0.1191864
-1.793626	flights leaving	-0.4759065
-3.024075	flights of
-2.120985	flights on	-0.5959287
-2.245924	flights that	-0.1689715
-3.024075	flights there
-3.024075	flights this
-1.877947	flights to	-0.2203308
-3.024075	flights tonight
-2.245924	flights uh	-0.1622296
-3.024075	flights um
-2.546954	flights will	-0.5991023
-0.60206	florida </s>
-0.60206	florida leaving
-0.30103	florida to
-1.230449	fly and
-0.08432089	fly from	-0.5511329
-0.9294189	fly to
-0.30103	flying from	-0.383322
-0.4771213	flying in	-0.467443
-0.7781513	flying to
-0.837737	for a	-1.056718
-2.068186	for air
-2.068186	for american
-2.068186	for any
-2.068186	for arrival
-1.767156	for atlanta	-0.3087168
-1.591065	for boston	-0.4930294
-2.068186	for chicago
-2.068186	for continental
-1.369216	for delta	-0.2965295
-1.767156	for denver
-1.290035	for flight
-1.223088	for flights	-0.3038966
-2.068186	for for
-1.290035	for frontier	0
-2.068186	for helen
-2.068186	for los
-2.068186	for me
-1.767156	for midwest	0
-2.068186	for new
-0.9890046	for northwest	-0.7263442
-1.369216	for san	-0.1161648
-1.223088	for southwest	0.5118834
-1.767156	for that	-0.4246427
-1.113943	for the	-0.4252452
-2.068186	for this
-2.068186	for today
-1.767156	for tomorrow
-2.068186	for twenty
-2.068186	for ua
-1.767156	for uh
-0.9542425	for united	-0.1153142
0	forecast for
-0.30103	forget about
-0.30103	forget the
-0.7923917	fort collins	0
-0.6462637	fort lauderdale	0
-0.7132105	fort myers
-0.3774183	fort worth	0
-1.792392	forty </s>
-1.792392	forty b
-0.9472936	forty be	0.04068716
-1.491362	forty depart	-0.3060508
-1.792392	forty eight
-1.792392	forty eighty
-1.792392	forty eleven
-0.6163004	forty five	-0.4451191
-1.093422	forty four	-0.4204085
-1.31527	forty nine	-0.3551269
-1.792392	forty nineteen
-1.31527	forty one
-1.792392	forty p
-1.093422	forty seven	-0.2163396
-0.9472936	forty six	-0.7338875
-1.792392	forty thirteen
-1.093422	forty three	-0.2294349
-1.491362	forty two
-0.7106557	four </s>
-2.053078	four a	-0.1725266
-1.655138	four arrive	-0.3812342
-2.053078	four arriving
-2.354108	four be
-1.876987	four depart	-0.2750166
-2.354108	four eight
-2.053078	four eighty
-2.354108	four expected
-2.354108	four fifteen
-1.655138	four fifty	-0.6298891
-1.451018	four forty	-0.5256716
-1.876987	four four	-0.4732608
-2.053078	four from
-1.575957	four hundred	0.007968931
-1.011686	four in	-1.113575
-2.354108	four is
-2.354108	four j
-2.354108	four leave
-2.354108	four leaving
-2.354108	four left
-1.876987	four ninety	-0.4045706
-1.399866	four o+clock	0.2753246
-1.312716	four oh	-0.9558304
-2.053078	four on	0.2300432
-0.5547679	four p	0
-2.354108	four right
-2.354108	four seven
-1.655138	four seventy	-0.4961445
-2.053078	four six
-2.354108	four sixty
-2.354108	four take
-1.876987	four taken	0
-1.575957	four thirty	-0.3691137
-2.354108	four this
-2.053078	four three
-2.053078	four twenty
-1.491362	fourteen </s>
-1.491362	fourteen arrives
-1.491362	fourteen be
-0.7132105	fourteen fifteen	-0.314394
-0.8893017	fourteen forty	-0.6624532
-1.491362	fourteen four
-1.491362	fourteen nineteen
-0.7923917	fourteen ninety	-0.7211127
-0.7923917	fourteen oh	-0.3392657
-1.01424	fourteen seventy	-0.5613151
-1.190332	fourteen sixty
-1.491362	fourteen twenty
-0.30103	fourth </s>
-0.30103	fourth two
-0.453121	francisco </s>
-1.643453	francisco and	-0.5719875
-2.245513	francisco are
-1.944483	francisco around
-1.944483	francisco arrive	-0.287506
-1.015064	francisco arriving	-0.320186
-1.944483	francisco at	-0.4552194
-1.643453	francisco for	-0.293542
-2.245513	francisco in
-2.245513	francisco land
-2.245513	francisco leaving
-1.467361	francisco on	0.2300432
-2.245513	francisco san
-0.4601828	francisco to	-1.068942
-1.643453	francisco today	0.09442121
-1.546543	francisco tomorrow	-0.1783831
-2.245513	francisco tonight
-2.245513	francisco uh
0	franciso </s>
0	free call
0	fresco arriving
-0.4259687	fresno </s>
-0.90309	fresno california
-0.90309	fresno delayed
-0.4259687	fresno to	-0.4765147
-0.30103	friday </s>
-0.7781513	friday afternoon
-0.7781513	friday at
-0.7781513	friday on
0	friend at
0	friend+s name
-1.58173	from </s>
-3.194514	from a
-3.194514	from albany
-2.194514	from albuquerque	-0.2218488
-2.717393	from allentown
-2.893484	from american	-0.4090054
-3.194514	from anchorage
-3.194514	from are
-2.717393	from aspen
-3.194514	from at
-1.561046	from atlanta	-0.4495518
-2.495544	from atlantic	0
-2.717393	from baltimore
-2.495544	from bangor	-0.07572071
-2.495544	from baton	0
-2.592454	from birmingham
-0.7116408	from boston	-0.578986
-2.291424	from buffalo	-0.01579425
-3.194514	from burbank
-2.495544	from burlington	-0.154902
-3.194514	from bwi
-3.194514	from california
-3.194514	from can
-2.592454	from charleston
-3.194514	from charlotte
-2.893484	from charlottesville
-0.6346077	from chicago	-0.8935673
-2.291424	from cincinnati	-0.1037494
-3.194514	from clearwater
-2.349416	from cleveland	-0.6690068
-2.495544	from colorado	-0.03778857
-2.416363	from columbia	-0.05799193
-2.495544	from columbus	0.07918127
-3.194514	from concord
-2.893484	from continental
-3.194514	from d
-1.915761	from dallas	-0.2688453
-2.592454	from dayton	0.146128
-1.872295	from denver	-0.4041889
-2.495544	from des	0
-2.349416	from detroit	-0.2514712
-2.717393	from dfw
-2.194514	from dulles	-0.39794
-2.416363	from el	0
-3.194514	from flights
-3.194514	from for
-2.240272	from fort	-0.6225816
-3.194514	from fresco
-2.495544	from fresno	-0.19382
-2.893484	from greensboro
-2.893484	from greenville
-2.592454	from harrisburg
-2.717393	from hartford	-0.3309932
-2.893484	from hartsfield
-3.194514	from hong
-2.153122	from honolulu	-0.3571459
-2.115333	from houston	-0.2309921
-2.240272	from indianapolis	-0.5862657
-3.194514	from jackson
-2.153122	from jacksonville	-0.2332782
-2.291424	from jfk	-0.30103
-2.592454	from kansas	0
-3.194514	from key
-2.495544	from knoxville	0.06694686
-2.153122	from la	-0.8195439
-2.048386	from laguardia	-0.5598624
-2.592454	from las	0
-3.194514	from lax
-2.893484	from lexington
-2.893484	from little	0.30103
-2.592454	from logan	-0.2218487
-3.194514	from london
-2.893484	from long	-0.1346986
-1.470238	from los	0.3129292
-2.893484	from louisville
-3.194514	from lubbock
-2.717393	from memphis
-2.893484	from mexico	-0.30103
-1.893484	from miami	-0.2730012
-2.495544	from milwaukee	-0.2218487
-2.115333	from minneapolis	-0.2552725
-2.893484	from mobile	-0.30103
-2.893484	from myrtle	0
-2.893484	from nashville	-0.3679768
-1.388334	from new	-0.5549684
-2.115333	from newark	-0.1931246
-3.194514	from newport
-2.495544	from norfolk	-0.39794
-2.717393	from o+hare
-2.592454	from oklahoma	0
-2.592454	from omaha
-2.592454	from orange	0
-2.153122	from orlando	-0.01336394
-2.893484	from palm	0
-2.349416	from philadelphia	-0.4618813
-2.153122	from phoenix	-0.3482522
-2.893484	from pittsburgh
-3.194514	from providence
-2.893484	from raleigh
-3.194514	from richmond
-2.893484	from roanoke	0
-2.717393	from rochester
-2.893484	from sacramento
-1.852092	from saint	0
-2.115333	from salt	0
-1.194514	from san	0.3478627
-2.893484	from santa
-2.717393	from savannah	-0.3309932
-3.194514	from seatac
-1.796574	from seattle	-0.3077634
-3.194514	from sfo
-2.592454	from shreveport	-0.1549019
-3.194514	from stapleton
-3.194514	from syracuse
-2.495544	from tallahassee	0
-3.194514	from tampa
-2.416363	from the	-0.4760684
-2.893484	from tokyo	0
-2.416363	from toronto	-0.2808266
-2.893484	from trenton
-2.717393	from tucson	-0.2340832
-2.717393	from tulsa	-0.1760913
-2.048386	from uh	-0.5893706
-3.194514	from um
-2.893484	from united	-0.4601355
-3.194514	from vancouver
-1.779541	from washington	-0.2274526
-3.194514	from westchester
-2.495544	from wichita	-0.04575749
-2.495544	from wilmington	-0.3309932
0	frontier flight	-0.715212
0	fuck you
0	g sixty
-0.9650043	gate </s>
-2.456366	gate a
-2.155336	gate and	-0.464712
-1.611268	gate at	-0.1434499
-2.155336	gate c	0
-1.177612	gate did	-1.005047
-1.025002	gate does	-0.8594562
-2.155336	gate e	0
-2.155336	gate fifty
-2.456366	gate five
-1.134147	gate for	-1.178313
-2.456366	gate g
-0.8653014	gate is	-0.9952639
-1.979245	gate it	-0.5969204
-2.456366	gate k
-1.979245	gate ninety
-2.456366	gate number
-2.456366	gate of
-2.456366	gate this
-0.3956682	gate will	-1.301767
-1.678215	gate yet	0.8791778
0	georgia </s>
-0.4393327	get from	-0.6051707
-0.4393327	get in	-0.5996606
-0.5642715	get me
0	gets in
0	getting in
0	give me	-0.8047463
-0.2552725	go between	-0.6232493
-0.4771213	go from	-0.5082607
-0.9542425	go to
-0.544068	going from	-0.2723533
-0.146128	going to	-0.2138967
-2.214844	good </s>
-0.01072387	good bye	-0.4164234
-2.214844	good eventually
-2.214844	good job
-2.214844	good night
0	grand rapids	0
-0.845098	greensboro </s>
-0.3679768	greensboro around
-0.544068	greensboro arrive	-0.3549054
-0.845098	greensboro expected
-0.30103	greenville south
-0.30103	greenville spartanburg
-0.2108534	ground </s>
-0.4149733	ground yet	0.9461246
0	h </s>
0	hanging up	-0.1760913
0	hare a
-0.3357921	harrisburg </s>
-1.113943	harrisburg at
-0.8129134	harrisburg pennsylvania	0
-1.113943	harrisburg that
-1.113943	harrisburg to
-1.113943	harrisburg today
-1.113943	harrisburg tomorrow
-0.544068	hartford </s>
-0.845098	hartford around
-0.845098	hartford at
-0.845098	hartford on
-0.544068	hartford to	-0.4616973
-0.1760913	hartsfield </s>
-0.4771213	hartsfield on
-1.170262	has alaska	0
-1.568202	has american
-0.4220737	has flight	-0.4423884
-0.9661418	has it	-0.8910014
-0.9661418	has northwest	-0.5666434
-0.526809	has the	-0.9895166
-1.869232	has united
0	hate you
-1.380211	have </s>
-1.20412	have a
-1.681241	have about
-0.9822713	have any	0.2524376
-1.20412	have arriving	-0.3960755
-1.681241	have at
-1.681241	have dialed
-1.681241	have flights
-1.20412	have for
-0.60206	have from	-0.08229201
-0.9822713	have information	-0.6532125
-1.681241	have leaving
-1.681241	have on
-1.681241	have schedule
-0.8361432	have the	-0.5214041
-1.681241	have today
0	helen samuels
0	hell </s>
-0.146128	hello </s>
-0.845098	hello um
-0.845098	hello what
-0.1208222	help </s>
-1.845098	help again
-1.845098	help i
-0.7659168	help me	-0.5829861
-1.845098	help menu
-1.544068	help please
0	hey do
-1.041393	hi are
-0.7403627	hi can	0.3357921
-0.5642715	hi i	-0.3778445
-1.041393	hi uh
-0.7403627	hi um
-0.7403627	hi what
0	history </s>
0	hole </s>
0	hong kong
-0.3832167	honolulu </s>
-1.161368	honolulu around
-0.6173	honolulu arriving	-0.5162677
-1.462398	honolulu do
-1.462398	honolulu due
-0.763428	honolulu to	-0.3868902
-1.462398	honolulu uh
0	hour </s>
-0.31037	houston </s>
-1.672098	houston after
-1.672098	houston approximately
-1.371068	houston around
-1.672098	houston arrive
-1.672098	houston arrives
-1.672098	houston arriving
-1.672098	houston at
-1.672098	houston for
-1.371068	houston intercontinental
-1.672098	houston into
-1.371068	houston on
-1.194977	houston texas	0
-0.9731278	houston to	-0.546701
-1.672098	houston today
-1.672098	houston yet
-0.1423128	how about	-0.2540334
-1.355388	how can	-0.716737
-2.133539	how do
-1.288441	how far	0
-2.133539	how how
-1.434569	how long	-0.5026754
-1.531479	how many	0
-0.9874108	how soon	0
-0.60206	hummer and
-0.1249387	hummer on
-0.4616091	hundred </s>
-1.041393	hundred and	-0.3791906
-0.8952646	hundred arrive	-0.7134747
-1.041393	hundred from
-1.740363	hundred ninety
-1.041393	hundred on	-0.07098677
-0.9622114	hundred supposed	0
-0.8952646	hundred will	-0.896157
-0.68963	i am	-0.04884852
-1.884607	i ask
-2.361728	i asked
-2.361728	i beg
-2.361728	i can
-2.361728	i cannot
-2.060698	i do	-0.4719201
-1.320335	i don+t	-0.1492981
-2.361728	i feel
-2.361728	i find
-1.759668	i get	-0.5026754
-2.361728	i hate
-1.458638	i have	-0.8293039
-2.361728	i i
-2.060698	i just
-2.361728	i mean
-2.361728	i meant
-2.361728	i must
-1.361728	i need	0
-2.361728	i please
-1.759668	i said
-1.662758	i say	-0.2887955
-2.361728	i sent
-1.51663	i talk	0.5593081
-2.361728	i tell
-1.759668	i think	-0.20412
-2.361728	i told
-2.361728	i use
-0.4586379	i want	-0.09860969
-1.759668	i wanted
-2.361728	i was
-1.019305	i would	-0.4409091
-1.462398	if a
-1.462398	if continental
-0.559308	if flight
-1.462398	if it
-0.6842467	if the
-0.860338	if there	-0.5999919
-1.161368	if there+s
-1.462398	if they
-1.462398	if they+re
-0.9852768	if this	-0.5682017
-1.462398	if uh
0	illinois </s>
-2.383815	in </s>
-2.015839	in a	-0.729359
-2.383815	in albany	0
-2.860937	in allentown
-2.161967	in anchorage	0
-2.161967	in around
-2.860937	in arrive
-2.383815	in aspen	-0.30103
-2.015839	in at
-2.082785	in atlanta	-0.3087168
-2.860937	in austin
-2.559907	in baltimore	0.1249387
-2.860937	in bangor
-2.860937	in baton
-2.860937	in birmingham
-0.8117186	in boston	-1.152928
-2.383815	in boulder
-2.860937	in buffalo
-2.860937	in burbank
-2.860937	in burlington
-2.383815	in charleston	-0.3309932
-2.559907	in charlotte
-1.684845	in chicago	-0.7939136
-2.559907	in cincinnati
-2.258877	in clearwater	-0.30103
-2.383815	in cleveland	-0.2498775
-2.860937	in columbus
-2.383815	in concord	0.1760913
-2.860937	in dallas
-2.559907	in dayton
-2.860937	in delta
-2.559907	in denver	-0.251056
-2.860937	in des
-2.559907	in detroit
-2.559907	in dulles
-2.559907	in fairbanks
-2.559907	in flights
-2.383815	in fort	-0.4007329
-2.559907	in fresno	-0.2730013
-1.656817	in from	-0.413298
-2.860937	in grand
-2.383815	in greensboro	-0.2340832
-2.860937	in harrisburg
-2.860937	in hartford
-2.383815	in honolulu	-0.446087
-2.161967	in houston	-0.1060534
-2.860937	in illinois
-2.258877	in in
-2.559907	in indianapolis	-0.4101745
-2.559907	in jackson	0.30103
-2.860937	in jacksonville
-2.860937	in jfk
-2.559907	in kansas	0
-2.383815	in key	0
-2.559907	in la	-0.2833012
-2.559907	in laguardia	-0.4259687
-2.860937	in lexington
-2.860937	in little
-2.860937	in long
-2.015839	in los	1.142233
-2.559907	in louisville
-2.383815	in lubbock	-0.07918127
-2.860937	in memphis
-2.860937	in mexico
-2.383815	in miami	-0.4548449
-2.559907	in milwaukee	-0.3679768
-2.860937	in minneapolis
-2.383815	in mobile	-0.30103
-2.258877	in nashville	-0.4259687
-1.860937	in new	0.2165524
-2.860937	in newark
-2.383815	in newport	0
-2.559907	in norfolk
-2.383815	in oakland
-2.559907	in ohio	0
-2.860937	in oklahoma
-2.860937	in omaha
-2.860937	in on
-2.860937	in orlando
-2.860937	in pennsylvania
-2.161967	in philadelphia	-0.3827001
-1.819544	in phoenix	-0.7519445
-2.559907	in pittsburgh	-0.09691002
-2.559907	in providence
-2.860937	in raleigh
-2.559907	in richmond	0.1249387
-2.860937	in rochester
-2.860937	in sacramento
-2.258877	in saint	-0.1249387
-2.258877	in salt	0
-2.082785	in san	0.09211113
-2.860937	in santa
-2.383815	in savannah	-0.2340832
-2.383815	in seattle	-0.3241538
-2.860937	in seoul
-2.860937	in sfo
-2.860937	in shanghai
-2.383815	in shreveport	-0.359022
-2.559907	in syracuse	-0.07918127
-2.258877	in tampa
-0.3612495	in the	-1.563359
-1.781755	in to	-0.4124248
-2.860937	in tonight
-2.559907	in trenton
-2.383815	in tucson	-0.3309932
-2.559907	in tulsa
-2.860937	in uh
-2.383815	in washington	-0.2533884
-2.383815	in westchester	0
-2.860937	in which
-0.845098	indianapolis </s>
-0.845098	indianapolis around
-1.146128	indianapolis from
-0.243038	indianapolis to	-0.2353945
-1.146128	indianapolis tomorrow
0	info </s>
-1.20412	information </s>
-0.60206	information about	-0.07971119
-0.90309	information do	0.8273693
-1.50515	information for
-0.80618	information from	-0.3041407
-1.50515	information of
-0.4637573	information on	-0.3989535
-0.30103	intercontinental </s>
-0.30103	intercontinental to
0	interested in	-0.7349452
0	into boston	-0.242742
-2.964731	is </s>
-2.362671	is a	-0.127299
-2.964731	is about
-2.119633	is alaska	0
-2.119633	is all	-0.1461281
-2.265761	is aloha	-0.2082759
-2.119633	is american	-0.3237732
-2.964731	is approximately
-2.18658	is around	-0.4049855
-2.663701	is arriving
-1.964731	is business	0
-2.964731	is coming
-2.964731	is continental
-1.923338	is delayed	-0.3590219
-1.923338	is delta	-0.3333745
-2.663701	is departing	-0.3751317
-1.446217	is due	-0.9237418
-2.964731	is eight
-1.331262	is flight	-0.5520415
-2.663701	is four	-0.4594726
-2.964731	is from
-2.964731	is is
-1.257161	is it	-0.6434527
-2.362671	is its	0
-2.663701	is leaving	-0.39453
-2.964731	is midnight
-2.362671	is nine	-0.2483236
-2.48761	is northwest	-0.2144608
-2.964731	is not
-2.964731	is oh
-2.663701	is on	0.2300432
-2.18658	is pan	0.5351132
-2.964731	is pearl
-2.964731	is ridiculous
-2.964731	is scheduled
-2.964731	is six
-2.663701	is status	0.6341413
-2.964731	is ten
-2.362671	is that	-0.5495814
-0.2259504	is the	-1.261922
-1.07824	is there	-0.3036014
-2.964731	is there+s
-2.48761	is this	-0.443263
-2.964731	is three
-2.964731	is time
-2.18658	is twa	-0.3949345
-2.48761	is twelve
-2.964731	is two
-1.48761	is united	-0.2950396
-2.119633	is us	-0.4807862
-1.50345	it </s>
-2.40654	it again
-0.3237548	it arrive	-0.7564493
-1.561442	it arrives	-0.6519735
-1.70757	it arriving	-0.6414674
-2.40654	it at
-1.327359	it be	0.09426998
-2.40654	it delayed
-1.327359	it depart	-0.3999551
-2.40654	it departed
-2.40654	it departing
-1.176091	it expected	-0.8361432
-2.40654	it from
-2.40654	it get
-2.40654	it gets
-2.40654	it going
-2.40654	it have
-2.40654	it i
-2.40654	it in
-1.70757	it is	-0.2209057
-2.40654	it land
-1.929419	it landed	-0.30103
-1.561442	it leave	-0.4266825
-2.40654	it leaves
-2.40654	it leaving
-1.80448	it left	-0.2762064
-2.10551	it now	0.3679768
-1.452298	it on	-0.1488736
-2.40654	it right
-2.10551	it scheduled	-0.3309932
-1.929419	it should	-0.3899711
-2.10551	it supposed	0
-2.40654	it take
-2.10551	it takeoff
-1.260412	it thank	0
-1.929419	it will	-0.4671828
-0.30103	its arrival	-0.339162
-0.60206	its new
-0.60206	its scheduled
0	j </s>
-0.07918125	jackson </s>
-0.7781513	jackson and
-0.8750613	jacksonville </s>
-0.8750613	jacksonville around
-0.8750613	jacksonville arriving
-1.176091	jacksonville florida
-1.176091	jacksonville that
-1.176091	jacksonville this
-0.39794	jacksonville to	-0.4756033
0	jersey to	-0.4670031
0	jesus christ
-0.60206	jfk </s>
-1.079181	jfk airport
-1.079181	jfk from
-1.079181	jfk on
-0.30103	jfk to	-0.2702651
0	job pegasus
-0.69897	jose </s>
-1.30103	jose arriving
-1	jose california
-1.30103	jose leave
-1.30103	jose on
-1.30103	jose that
-1	jose this
-0.39794	jose to	-0.3883179
-0.1760913	july fourth
-0.4771213	july six
-0.01128101	jupiter </s>
-1.591065	jupiter please
-0.4771213	just did
-0.4771213	just some
-0.4771213	just want
0	k sixty
0	kalamazoo </s>
0	kansas city	-0.6526932
-0.30103	kennedy </s>
-0.30103	kennedy airport
0	key west	-0.4810163
0	kind of	-0.2990737
-1.273644	know </s>
-0.6481031	know about	-0.4223745
-1.926857	know any
-1.926857	know anything	0.1249387
-2.227887	know are
-2.227887	know for
-1.750765	know from	-0.383322
-2.227887	know how
-0.9056674	know if	-0.3369426
-1.528917	know in
-1.926857	know jupiter	1.113943
-0.659685	know of	-1.518632
-1.051795	know the	-0.7553487
-2.227887	know uh
-0.9974378	know what	-1.083135
-1.148705	know when	-0.7570648
-2.227887	know where
-2.227887	know you
-0.845098	knoxville </s>
-0.3679768	knoxville tennessee	0
-0.3679768	knoxville to	-0.586636
0	kong </s>
0	korea </s>
-0.30103	korean air
-0.30103	korean airline
0	l </s>
-0.4436975	la </s>
-1.09691	la around
-1.39794	la at
-1.39794	la california
-1.39794	la landed
-1.39794	la next
-1.39794	la this
-0.49485	la to	-0.7522388
-1.39794	la today
-0.6532125	laguardia </s>
-1.130334	laguardia airport	-0.3679768
-1.431364	laguardia arriving
-0.9542425	laguardia from	-0.3625114
-1.431364	laguardia on
-0.2852357	laguardia to	-0.5753426
-0.05115252	lake city	-0.1494509
-0.9542425	lake to	-0.4670031
-0.4771213	land </s>
-0.20412	land in	-0.06034958
-1.380211	land on
-0.3590219	landed </s>
-1.20412	landed already
-0.30103	landed yet	0.7700334
-0.845098	landing from
-0.06694679	landing in	-0.7615882
0	las vegas	0
-0.7781513	last flight
-0.7781513	last hour
-0.1760913	last one	-0.5868106
-0.30103	late </s>
-0.60206	late afternoon
-0.60206	late tonight
0	later in
-0.243038	lauderdale </s>
-0.845098	lauderdale around
-0.845098	lauderdale arriving
-0.845098	lauderdale to
-0.60206	lax </s>
-0.60206	lax arrive
-0.60206	lax is
-0.60206	lax on
-0.6255411	leave </s>
-1.579784	leave at
-1.579784	leave boston
-1.579784	leave chicago
-1.278754	leave denver	-0.251056
-1.579784	leave for
-0.4658403	leave from	-0.7047588
-1.579784	leave indianapolis
-1.579784	leave jacksonville
-1.102662	leave on	0.2300432
-1.102662	leave seattle	-0.4417933
-1.579784	leave to
-1.579784	leave uh
-0.04139268	leaves around	-0.4348821
-1.041393	leaves uh
-2.252853	leaving </s>
-2.252853	leaving after
-2.252853	leaving albuquerque
-2.252853	leaving allentown
-2.252853	leaving an
-0.7213741	leaving around	-0.462328
-0.7343391	leaving at	-0.9304644
-2.252853	leaving bangor
-1.13891	leaving boston	-0.4853219
-2.252853	leaving burlington
-2.252853	leaving colorado
-2.252853	leaving dayton
-2.252853	leaving dulles
-2.252853	leaving eleven
-1.951823	leaving fort	-0.3836996
-0.7614914	leaving from	-0.4801172
-2.252853	leaving harrisburg
-1.951823	leaving hartford
-1.298611	leaving in	-0.7518472
-2.252853	leaving jacksonville
-1.775732	leaving kansas	0
-2.252853	leaving la
-2.252853	leaving march
-2.252853	leaving minneapolis
-1.951823	leaving new	0.3733385
-1.022404	leaving on	-0.548108
-2.252853	leaving one
-2.252853	leaving or
-2.252853	leaving philadelphia
-1.951823	leaving raleigh
-2.252853	leaving richmond
-1.775732	leaving saint	-0.3832168
-1.951823	leaving san
-2.252853	leaving soon
-2.252853	leaving to
-2.252853	leaving tomorrow
-2.252853	leaving tucson
-2.252853	leaving tulsa
-2.252853	leaving uh
-0.7112045	left around
-1.556303	left cincinnati
-1.556303	left fort
-1.556303	left from
-1.255273	left in	-0.2289685
-1.556303	left las
-1.255273	left lexington	-0.3309932
-1.556303	left little
-1.255273	left long	-0.1346986
-1.255273	left sacramento	-0.3309932
-1.556303	left san
-1.255273	left santa	0.0347621
-1.255273	left the	-0.4758048
-0.5149098	left yet	0.6450946
0	let me	-0.5969406
0	let+s say
-0.3679768	lexington </s>
-0.544068	lexington around
-0.845098	lexington arrive
-0.845098	lexington to
-0.8653014	like a	-0.4283291
-1.342423	like flight
-1.342423	like more
-1.342423	like the
-0.1383027	like to	-0.5878902
-1.278754	list again
-0.5797836	list flights	-0.09977666
-0.2373609	list of	-1.044663
-0.9777236	list the	-0.4637737
0	listed </s>
-0.07918125	little rock	0
-0.7781513	little trapped
0	location of
-0.60206	logan </s>
-0.3802112	logan airport	-0.1706962
-1.079181	logan from
-1.079181	logan on
-0.7781513	logan to
-0.4771213	london </s>
-0.4771213	london england	0
-0.7781513	london to
-0.7781513	london tomorrow
-0.2632414	long beach	-0.1760913
-0.7403627	long before	-0.3521825
-0.7403627	long is	-0.08526194
-1.041393	long will
0	looking for	-0.895602
-0.003930293	los angeles	0
-2.045323	los los
0	loser </s>
-0.3802112	louis </s>
-1.079181	louis and
-1.380211	louis arriving
-1.079181	louis at	-0.4580183
-1.380211	louis be
-1.380211	louis leaving
-0.60206	louis to	-0.5644091
-1.380211	louis today
-0.7781513	louisville </s>
-0.4771213	louisville around
-0.4771213	louisville arrive	-0.3549054
-0.7781513	louisville expected
-0.2218488	lubbock </s>
-0.69897	lubbock around
-0.69897	lubbock arrive
-0.07339408	m </s>
-2.816904	m and
-1.285425	m arrive	-1.147151
-2.816904	m arrives
-2.816904	m arriving
-2.816904	m at
-2.038753	m continental	-0.4771212
-2.339782	m departure	-0.01772877
-2.816904	m eastern
-1.913814	m flight	-0.8643902
-2.339782	m from
-2.515874	m going	0.0669468
-2.214844	m in	-0.3539072
-2.816904	m on
-2.816904	m this
-2.816904	m to
-1.913814	m today	-0.1096988
-1.862661	m tomorrow	-0.479413
-1.862661	m tonight	0.07918123
-1.913814	m us	-0.7515922
-0.30103	major airline
-0.30103	major airlines
0	make a
-0.1249387	many flights	-0.4586557
-0.60206	many us
-0.30103	march first
-0.30103	march twenty
-0.1249387	massachusetts </s>
-0.60206	massachusetts arriving
-1.366847	me </s>
-1.453997	me a	-0.8082458
-0.7269987	me about	-1.282505
-2.40824	me again
-2.40824	me can
-2.40824	me departure
-1.563142	me flights	-0.2459047
-2.40824	me for
-1.630089	me if	-0.236572
-1.563142	me information	-0.5118833
-2.40824	me jupiter
-1.70927	me more	-0.39794
-2.40824	me of
-2.10721	me out	-0.2218488
-2.40824	me please
-2.40824	me something
-2.10721	me status	0.6341413
-1.931119	me talk	0.860338
-0.4491986	me the	-1.274634
-2.40824	me there+s
-0.8519375	me to	-1.547724
-1.70927	me uh	-0.1887887
-2.10721	me um
-2.40824	me voyager
-1.563142	me what	-0.8677021
-1.931119	me when	-0.4709021
-2.40824	me with
-2.40824	me your
-0.30103	mean dulles
-0.30103	mean you
0	meant flight
0	meet a	-0.3033903
0	meeting a
-0.6532125	memphis </s>
-0.9542425	memphis around
-0.4771213	memphis leaving	-0.5105749
-0.9542425	memphis this
-0.9542425	memphis to
-0.9542425	memphis uh
0	menu </s>
0	message </s>
-0.6532125	mexico </s>
-0.4771213	mexico city	-0.3411472
-0.3521825	mexico to	-0.5799909
-0.4259687	miami </s>
-1.60206	miami and
-1	miami arriving	-0.2152378
-1.60206	miami connecting
-1.60206	miami due
-1.60206	miami florida
-1.124939	miami leaving	-0.3886211
-1.60206	miami taken
-0.60206	miami to	-0.7921667
-1.60206	miami today
-1.30103	miami tonight	0.60206
0	michelle bye
0	michigan today
-0.1413292	midnight </s>
-0.7781513	midnight arrive	-0.4124447
-1.255273	midnight o+clock
-1.255273	midnight tonight
-0.4771213	midway </s>
-0.4771213	midway is
-0.4771213	midway on
0	midwest express	-0.09691
-0.6532125	milwaukee </s>
-0.9542425	milwaukee delayed
-0.9542425	milwaukee leaving
-0.9542425	milwaukee left
-0.4771213	milwaukee to
-0.9542425	milwaukee wisconsin
-0.69897	minneapolis </s>
-1.30103	minneapolis arrive
-1.30103	minneapolis arriving
-1.30103	minneapolis at
-1.30103	minneapolis from
-1.30103	minneapolis on
-0.39794	minneapolis to	-0.8928168
-1	minneapolis tomorrow
-1.30103	minneapolis which
0	minnesota </s>
-0.7781513	mobile </s>
-0.30103	mobile around
-0.4771213	mobile to	-0.4756033
-0.7781513	moines </s>
-0.7781513	moines around
-0.7781513	moines on
-0.7781513	moines that
-0.4771213	moines to	-0.4765147
0	moment </s>
-0.39794	monday </s>
-0.69897	monday at
-0.69897	monday morning
-0.69897	monday seven
-0.5228788	more </s>
-0.69897	more about
-0.5228788	more flights	-0.470497
-1	more help
-1	more information
-0.02562265	morning </s>
-1.80618	morning around
-2.283301	morning at
-2.283301	morning flights
-1.681241	morning from	-0.6051707
-1.982271	morning on	0.2300432
0	much </s>
0	must have
-0.20412	my flight	-0.6120247
-0.90309	my friend+s
-0.90309	my query
-0.90309	my trap
-0.7781513	myers around
-0.7781513	myers arrive
-0.7781513	myers arriving
-0.7781513	myers at
-0.7781513	myers on
-0.7781513	myers to
0	myrtle beach	-0.2730013
0	n w	-0.2552725
0	name is
-0.4771213	nashville </s>
-0.4771213	nashville around
-0.9542425	nashville landed
-0.6532125	nashville to
-0.20412	national </s>
-0.90309	national airport
-0.90309	national leaving
-0.90309	national to
-0.7403627	need a	-0.3033903
-0.7403627	need flight	-0.4755372
-1.041393	need i
-0.7403627	need the
-0.4393327	need to	-0.3004234
0	needs work
-2.212188	new expected
-1.911158	new jersey	0
-1.513218	new mexico	-0.4436975
-1.06606	new orleans	0
-2.212188	new query
-0.06605957	new york	0
-1	newark </s>
-1	newark airport
-0.8239087	newark and	-0.4750775
-0.8239087	newark around	-0.4509825
-1.30103	newark arrive
-1.30103	newark delayed
-1.30103	newark landed
-1	newark new	-0.4717595
-0.60206	newark to	-0.5093348
0	newport news	0
-0.146128	news </s>
-0.845098	news arriving
-0.845098	news to
-1.133539	next american	-0.4277164
-1.832509	next delta
-0.2092596	next flight	-0.7173392
-1.832509	next hour
-1.832509	next to
-1.054358	next tower	-0.243038
-1.230449	next united	0.1820816
-1.054358	next us	-0.575501
-1.531479	next week	0
0	nice day
0	night </s>
-0.6110148	nine </s>
-0.9420081	nine a	-1.157803
-1.787106	nine arrive	-0.4798441
-2.088136	nine arriving
-2.389166	nine be
-2.088136	nine depart	-0.2750166
-2.088136	nine eighty
-2.389166	nine f
-1.690196	nine fifty	-0.6658016
-1.912045	nine five	-0.3972275
-1.690196	nine forty	-0.550031
-1.275223	nine from	-0.2262113
-1.690196	nine hundred
-1.110412	nine in	-1.052877
-2.389166	nine is
-2.389166	nine landed
-2.389166	nine leave
-2.088136	nine leaving	-0.39453
-2.389166	nine left
-2.088136	nine ninety	-0.4495378
-1.309985	nine o+clock	-0.0861861
-1.347773	nine oh	-0.9305404
-1.912045	nine on	-0.4595193
-2.088136	nine one	-0.4728945
-0.9420081	nine p	0
-2.389166	nine please
-1.912045	nine seventy
-1.389166	nine six	-0.8658257
-2.389166	nine take
-2.088136	nine taken	0
-1.912045	nine thirty	-0.3691137
-1.544068	nine this	-0.6849949
-2.088136	nine twenty
-2.389166	nine two
-2.389166	nine was
-0.69897	nineteen </s>
-1.39794	nineteen arrive
-1.39794	nineteen arrived
-1.09691	nineteen arriving	-0.4196187
-1.39794	nineteen five
-1.39794	nineteen forty
-1.09691	nineteen from
-1.09691	nineteen ninety	-0.3802113
-0.79588	nineteen oh	-0.2504736
-1.09691	nineteen taken	0
-0.9208187	nineteen ten	-0.4720713
-1.39794	nineteen thirty
-1.812913	ninety </s>
-1.113943	ninety eight	-0.3174204
-1.335792	ninety expected	-0.1829307
-0.9098234	ninety five	-0.8231962
-1.113943	ninety four	-0.1278117
-0.69897	ninety nine	-0.6592757
-1.210853	ninety one
-0.9678153	ninety seven	-0.1383027
-0.8129134	ninety six	-0.271556
-1.210853	ninety three
-1.113943	ninety two	-0.3425913
-1.021189	no </s>
-2.167317	no bye
-2.167317	no flights
-2.167317	no good
-1.690196	no i	-0.4695019
-2.167317	no no
-0.1379336	no thank	0
-1.264227	no thanks	-0.1870867
-1.866287	no that	-0.3556991
-1.389166	no that+s	-0.1383027
-2.167317	no three
-2.167317	no united
-2.167317	no what
0	nonstop northwest	-0.8413444
-0.04898646	noon </s>
-1.875061	noon arrival	-0.01085793
-2.176091	noon departure
-2.176091	noon flight
-1.875061	noon from	-0.383322
-1.875061	noon in	-0.2289685
-1.69897	noon this	-0.4419568
-2.176091	noon time
-2.176091	noon today
-1.69897	noon tomorrow	-0.08147305
-0.60206	norfolk </s>
-0.90309	norfolk around
-0.60206	norfolk arriving
-0.60206	norfolk to	-0.2874861
-0.90309	norfolk virginia
-1.919078	northwest </s>
-1.441957	northwest air	0.3152704
-1.441957	northwest airline	-0.1217336
-0.9648356	northwest airlines	-0.5162734
-1.919078	northwest arrival
-1.618048	northwest eighty	-0.3454491
-0.228882	northwest flight	-0.4348756
-0.8776854	northwest flights	-0.7079567
-1.919078	northwest please
-1.919078	northwest seventeen
-1.618048	northwest zero	-0.394147
-0.7403627	not </s>
-1.041393	not as
-1.041393	not boston
-1.041393	not even
-0.7403627	not know	-0.4367553
-1.041393	not seventeen
-0.7403627	not six	-0.4533996
-1.041393	not sure
-1.60206	nothing good
-0.01099538	nothing thank	0
-0.06694679	now </s>
-1.021189	now bye	1.310575
-1.322219	now tell
-0.7983546	number </s>
-1.643453	number airline
-1.643453	number arriving
-1.643453	number for
-1.342423	number from
-0.7983546	number is	-0.1522087
-0.5642715	number of	-0.9686403
-1.342423	number one
-1.643453	number seventy
-1.166331	number twenty	-0.5140235
-0.9444827	number two	-0.6838626
-1.643453	number was
-1.643453	number zero
0	numbers </s>
0	o three
-0.2837251	o+clock </s>
-2.089905	o+clock a
-2.089905	o+clock afternoon
-2.089905	o+clock arrival
-2.089905	o+clock flight
-1.788875	o+clock from
-2.089905	o+clock has
-0.6127838	o+clock in	-1.243209
-1.612784	o+clock is	-0.475233
-2.089905	o+clock or
-1.487845	o+clock p	0
-1.390935	o+clock this	-0.2378369
-1.487845	o+clock today	0.09442121
-2.089905	o+clock tomorrow
-1.487845	o+clock tonight	0.3802112
-0.2218488	o+hare </s>
-0.69897	o+hare on
-0.69897	o+hare to
-0.243038	oakland </s>
-0.845098	oakland around
-0.845098	oakland landed
-0.845098	oakland today
-2.34733	of </s>
-1.44424	of a	-0.5389096
-2.64836	of air
-2.0463	of aircraft	0
-1.803262	of aloha	-0.3332146
-2.0463	of america	0
-1.025111	of american	-0.8263534
-1.326141	of any	-0.2621461
-2.64836	of approximately
-1.606967	of continental	-0.7112044
-1.502232	of delta	-0.4381099
-2.64836	of dl
-1.201202	of flight	-0.1518873
-1.870209	of flights	-0.1369935
-1.94939	of from	-0.6051707
-2.64836	of midwest
-2.64836	of my
-2.64836	of newark
-2.34733	of nine	-0.4244149
-1.393088	of northwest	-0.678617
-2.64836	of of
-2.34733	of one	-0.475013
-2.34733	of plane	-0.1760913
-2.64836	of questions
-2.64836	of roanoke
-2.64836	of santa
-2.64836	of schedule
-2.64836	of seven
-2.34733	of that	-0.4246427
-0.64836	of the	-1.012864
-2.64836	of these
-1.870209	of tower	-0.7201593
-2.34733	of trans
-1.417911	of twa	-0.6431122
-2.64836	of two
-1.803262	of uh	-0.3493945
-0.74527	of united	-0.7210084
-1.129846	of us	-0.2917299
-0.4281348	off </s>
-1.826075	off already
-1.826075	off at
-0.5956259	off from	-0.5124764
-1.047924	off on	-0.1379336
-1.525045	off or	-0.30103
-1.525045	off to	-0.4762111
-0.7121314	off yet	0.5781478
0	offer flights
-2.260071	oh </s>
-0.8983436	oh eight	-0.4450651
-0.9590414	oh five	-0.2170762
-1.113943	oh four	-0.3285781
-2.260071	oh hare
-2.260071	oh i
-1.08398	oh nine	-0.09513374
-2.260071	oh nothing
-0.9378521	oh one	-0.2233184
-0.8621314	oh seven	-0.2739464
-2.260071	oh shit
-0.8983436	oh six	-0.4333897
-1.113943	oh three	-0.2834606
-0.9590414	oh two	-0.6015957
-2.260071	oh uh
-2.260071	oh united
0	ohio </s>
-0.5118834	okay </s>
-1.113943	okay give
-1.113943	okay help
-1.113943	okay how
-1.113943	okay i
-1.113943	okay san
-1.113943	okay that+s
-1.113943	okay uh
-0.8129134	okay what
0	oklahoma city
-0.39794	omaha </s>
-0.69897	omaha arriving
-0.69897	omaha that
-0.69897	omaha to
-2.631444	on a
-2.631444	on american
-2.631444	on an
-2.631444	on another
-2.631444	on any
-2.631444	on arrivals
-2.029384	on continental	-0.5606673
-2.154323	on delta	-0.5395675
-2.029384	on flight
-2.631444	on flights
-2.154323	on friday	-0.30103
-2.631444	on march
-2.631444	on midwest
-2.154323	on monday	-0.2552725
-2.154323	on northwest	-0.08952209
-1.853292	on pan	0.5351132
-2.631444	on schedule
-1.400995	on the	-0.6249579
-0.09488533	on time	-1.558163
-2.631444	on tuesday
-2.330414	on twa
-2.330414	on two	-0.4715174
-2.631444	on uh
-1.400995	on united	-0.6303675
-2.154323	on us	-0.3994097
-1.932474	on wednesday	-0.2340832
-0.6428222	one </s>
-1.837799	one a	-0.5405033
-1.661708	one arrive	-0.2562956
-2.138829	one arriving	-0.4196187
-0.5825263	one be	-1.275957
-2.31492	one depart	-0.2750166
-2.61595	one departing
-2.31492	one due	0.1306159
-1.91698	one eight	-0.6922366
-1.91698	one eighty	-0.2013271
-2.61595	one expected
-1.837799	one fifty	-0.4004872
-2.01389	one five	-0.5221662
-1.770852	one forty	-0.3159478
-2.61595	one four
-1.661708	one from	-0.383322
-1.837799	one hundred	-0.2281202
-1.61595	one in	-0.79324
-2.31492	one leaving	-0.39453
-2.61595	one left
-1.536769	one ninety	-0.2662678
-1.661708	one o+clock	-0.02570541
-2.31492	one of	-0.3665803
-1.41183	one oh	-1.087064
-1.837799	one on	-0.07098677
-1.91698	one one	-0.5799496
-1.21801	one p	0
-2.31492	one please	-0.05504758
-2.61595	one right
-2.61595	one running
-1.71286	one seven	-0.7817854
-1.574557	one seventy	-0.5675004
-2.61595	one sixty
-2.61595	one take
-2.61595	one taken
-1.837799	one ten	-0.7654145
-1.837799	one thirty	-0.06808367
-2.61595	one this
-2.61595	one thousand
-2.61595	one three
-2.31492	one to
-2.31492	one tomorrow	0.04346569
-1.837799	one twenty	-0.665004
-1.91698	one two
0	one+s not
-0.7781513	or after
-0.7781513	or arrival
-0.7781513	or arriving
-0.7781513	or late
-0.4771213	or not	-0.3899711
0	orange county	-1.51078e-08
-0.2263964	orlando </s>
-1.50515	orlando and
-1.50515	orlando arrives
-1.50515	orlando arriving
-0.90309	orlando at	-0.5801582
-1.50515	orlando be
-1.50515	orlando that
-1.028029	orlando to	-0.2874861
-1.50515	orlando using
-0.3679768	orleans </s>
-1.146128	orleans around
-0.447158	orleans arriving	-0.391329
-1.146128	orleans taken
-1.146128	orleans to
-0.90309	other airlines	-0.4310602
-1.20412	other any
-1.20412	other flight
-0.2498775	other flights	0.2470108
-1.20412	other northwest
-1.20412	other one
-1.20412	other requests
-0.6532125	out about
-0.9542425	out from
-0.9542425	out information
-0.3521825	out of
-0.9542425	out what
0	outgoing flights
0	over </s>
0	p m	-0.3332382
0	palm springs	-0.3388186
-1.380211	pan am
-0.01848341	pan american	-0.9971889
0	pardon </s>
-0.544068	paso arrive	-0.3549054
-0.845098	paso land
-0.845098	paso this
-0.3679768	paso to	-0.6011499
-0.69897	paul arrive
-0.69897	paul at
-0.69897	paul that
-0.69897	paul this
-0.69897	paul to
0	pearl </s>
-0.3521825	pegasus </s>
-0.4771213	pegasus now	0.243038
-0.6532125	pegasus please	-0.05504758
0	pennsylvania </s>
-0.845098	petersburg </s>
-0.544068	petersburg arrive
-0.845098	petersburg arriving
-0.845098	petersburg at
-0.544068	petersburg to	-0.450565
-0.3484547	philadelphia </s>
-1.462398	philadelphia are
-1.161368	philadelphia around	-0.4471943
-1.462398	philadelphia arrive
-0.6842467	philadelphia arriving	-0.2350613
-1.462398	philadelphia at
-1.462398	philadelphia from
-0.860338	philadelphia to
-0.60206	philly around
-0.1249387	philly arriving	-0.09029903
-0.526809	phoenix </s>
-1.568202	phoenix and
-1.568202	phoenix arizona
-0.7231037	phoenix around	-0.4701315
-1.568202	phoenix delayed
-1.267172	phoenix from
-1.568202	phoenix in
-1.267172	phoenix is	-0.4761782
-1.267172	phoenix leaving	-0.3856362
-1.568202	phoenix left
-1.568202	phoenix on
-0.7231037	phoenix to	-0.1611206
0	phone </s>
0	picking up
-0.2340832	pittsburgh </s>
-1.079181	pittsburgh and
-1.079181	pittsburgh arriving
-1.079181	pittsburgh that
-0.7781513	pittsburgh to	-0.2874861
-0.30103	plane from
-0.30103	plane is	-0.4524085
-0.2064739	please </s>
-1.568202	please can
-1.267172	please connect	0
-1.568202	please get
-1.267172	please give	0
-1.267172	please help
-1.267172	please repeat	0.09691001
-1.568202	please show
-1.568202	please talk
-1.267172	please tell	1.017033
0	portland from	-0.6702933
-0.39794	providence </s>
-0.69897	providence around
-0.39794	providence arrive	-0.3549054
0	puerto rico
-0.30103	query </s>
-0.30103	query again
0	question </s>
-0.30103	questions about
-0.30103	questions can
0	quit </s>
-0.4771213	raleigh </s>
-0.7781513	raleigh around
-0.7781513	raleigh arrive
-0.7781513	raleigh at
-0.7781513	raleigh on
-0.1249387	rapids </s>
-0.60206	rapids leaving
-0.1760913	reason for	-0.4423591
-0.4771213	reason of
0	remaining flights
0	remember the
-0.1346986	repeat that	-1.014582
-0.5740313	repeat the
0	requests thanks
0	return flight
-0.1249387	richmond </s>
-0.60206	richmond at
-0.30103	rico </s>
-0.30103	rico this
0	ridiculous </s>
-1	right i
-0.04575749	right now	-0.154902
-0.4771213	roanoke right
-0.1760913	roanoke to	-0.4660715
-0.30103	rochester </s>
-0.7781513	rochester and
-0.7781513	rochester arriving
-0.7781513	rochester to
-0.39794	rock </s>
-0.69897	rock around
-0.39794	rock to	-0.4762111
-0.3679768	rouge </s>
-0.845098	rouge land
-0.845098	rouge taken
-0.544068	rouge to	-0.4759073
0	running on	0.1051045
-0.3679768	sacramento </s>
-0.544068	sacramento around
-0.845098	sacramento arriving
-0.845098	sacramento to
-0.60206	said </s>
-0.60206	said around
-0.60206	said new
-0.60206	said yes
-0.1760913	saint louis	0
-0.8573325	saint paul
-0.7112045	saint petersburg	0
0	salt lake	0
-0.69897	same slower
-0.09691001	same time	-0.3352237
0	samuels </s>
-1.653213	san antonio	0
-0.9904547	san diego	0
-0.1066699	san francisco	0
-2.352183	san franciso
-1.051152	san jose	0
-0.5118834	santa clara	0
-0.1597008	santa fe	0
-0.243038	savannah </s>
-0.845098	savannah arriving
-0.544068	savannah to	-0.4765147
-0.6532125	say </s>
-1.431364	say at
-0.3174204	say gate	-0.4979971
-1.431364	say it
-1.431364	say more
-0.7323937	say that	-0.756432
0	saying </s>
-0.4771213	schedule </s>
-0.7781513	schedule arrival
-0.7781513	schedule for
-0.7781513	schedule from
-0.7781513	schedule information
-0.30103	scheduled </s>
-0.845098	scheduled departure	-0.01772877
-1.146128	scheduled for
-0.544068	scheduled to	-0.5693388
0	scratch that	-0.6343707
-0.4771213	seatac </s>
-0.4771213	seatac arrive
-0.4771213	seatac is
0	seats still	0
-0.5274264	seattle </s>
-1.20412	seattle and	-0.2822805
-1.329059	seattle around	-0.4466504
-1.80618	seattle arrive
-1.50515	seattle arriving
-1.10721	seattle at
-1.80618	seattle departing
-1.80618	seattle i
-1.80618	seattle in
-1.80618	seattle leaving
-1.329059	seattle on	0.1051045
-1.80618	seattle one
-1.80618	seattle this
-0.60206	seattle to	-0.4072349
-1.20412	seattle today	0.09442121
-1.80618	seattle tomorrow
-1.556303	second </s>
-0.90309	second flight	-0.9156867
-0.07200266	second one	-1.488195
0	send someone
0	sent someone
0	seoul </s>
-0.6690068	seven </s>
-1.422334	seven a	-0.6954053
-1.531479	seven arrive	-0.4481811
-2.376577	seven arrived
-2.075547	seven arriving
-2.376577	seven be
-2.376577	seven d
-2.075547	seven depart
-2.075547	seven due	0.1306159
-2.075547	seven eight	-0.4737676
-1.598426	seven eighteen	-0.7067953
-1.899456	seven eighty	-0.4495378
-1.899456	seven fifteen	-0.559308
-2.376577	seven fifty
-2.075547	seven forty
-1.774517	seven four	-0.5962564
-1.422334	seven from
-1.598426	seven hundred	-0.1169698
-1.335184	seven in	-0.8310285
-2.376577	seven is
-1.899456	seven leave	-0.4536402
-1.774517	seven leaving	-0.5633883
-2.376577	seven ninety
-1.531479	seven o+clock	0.1729251
-1.146128	seven oh	-1.04226
-2.075547	seven on
-2.075547	seven one
-0.8083752	seven p	0
-2.376577	seven running
-1.531479	seven seven	-0.7403627
-2.376577	seven seventy
-1.774517	seven six	-0.4908494
-1.677607	seven sixty	-0.6183141
-2.376577	seven take
-1.899456	seven taken	0
-2.376577	seven the
-1.598426	seven thirty
-1.774517	seven this	-0.30103
-1.899456	seven three	-0.4635181
-2.376577	seven two
-2.376577	seven would
-1.899456	seven zero	-0.4376127
-1	seventeen </s>
-1.477121	seventeen arrive
-1.176091	seventeen arrived	0.1760912
-1.477121	seventeen arriving
-1.477121	seventeen but
-1.176091	seventeen eighteen
-1.176091	seventeen eighty
-1.477121	seventeen from
-1	seventeen nineteen	-0.50515
-0.7781513	seventeen oh
-1.176091	seventeen taken	0
-0.7781513	seventeen thirty	-0.6438147
-1.176091	seventeen twenty	-0.4309208
-0.6799468	seventy </s>
-1.348954	seventy be	-0.5747369
-1.826075	seventy but
-1.348954	seventy due	0.00567713
-0.7846821	seventy eight	-0.3588131
-1.224015	seventy four	-0.2069929
-1.047924	seventy nine	-0.6245136
-1.348954	seventy oh
-1.826075	seventy one
-0.8718323	seventy seven	-0.8495072
-0.9809768	seventy six	-0.7338875
-1.224015	seventy three	-0.2416693
-1.826075	seventy uh
-0.30103	sfo </s>
-0.30103	sfo arrive
0	shanghai at
-0.30103	she comes
-0.30103	she figures
0	shit </s>
-0.7403627	should arrive	-0.287506
-1.041393	should be
-0.1383027	should it	-0.6748071
-0.30103	show denver
-0.30103	show me
-0.3679768	shreveport around
-0.845098	shreveport that
-0.845098	shreveport this
-0.544068	shreveport to	-0.4725513
-0.6460576	six </s>
-1.364623	six a	-0.8415334
-2.478566	six arrival
-1.575477	six arrive	-0.506173
-1.633469	six arriving	-0.7433346
-2.177536	six depart	-0.2750166
-2.478566	six eight
-2.001445	six eighty
-2.478566	six eleven
-2.478566	six expected
-2.478566	six fifteen
-2.177536	six fifty
-2.478566	six four
-1.478567	six from	-0.08765443
-1.779596	six hundred	-0.03778856
-0.9734165	six in	-1.270361
-2.478566	six is
-2.478566	six l
-2.478566	six leave
-1.700415	six ninety	-0.2515446
-2.177536	six northwest
-1.364623	six o+clock	-0.1854063
-1.399385	six oh	-0.9905925
-2.177536	six on	0.2300432
-1.700415	six one	-0.7219084
-0.7795965	six p	0
-2.478566	six right
-1.700415	six seven	-0.7237936
-1.274446	six seventy	-0.7204679
-1.779596	six six	-0.6669407
-2.177536	six take	0
-2.177536	six taken	0
-1.575477	six thirty	-0.3841774
-2.177536	six this	-0.327359
-2.177536	six three
-2.001445	six twenty
-2.478566	six two
-2.177536	six united	-0.4662784
-2.478566	six when
-1.09691	sixteen </s>
-0.9208187	sixteen arrive	-0.4124447
-1.39794	sixteen arrives
-1.39794	sixteen be
-0.9208187	sixteen ninety	-0.4495378
-0.69897	sixteen oh	-0.6032515
-0.6197888	sixteen seventeen	-0.4149733
-1.09691	sixteen seventy	-0.4363763
-1.39794	sixteen sixty
-1.39794	sixteen twenty
-0.770852	sixty </s>
-0.9927008	sixty eight	-0.3966017
-1.168792	sixty five	-0.284708
-0.925754	sixty four	-0.7969548
-1.168792	sixty from
-0.9927008	sixty nine	-0.6245136
-0.867762	sixty one	-0.7826842
-1.469822	sixty seven	-0.3723859
-0.925754	sixty six	-0.4328575
-1.168792	sixty three
-1.770852	sixty two
0	slower </s>
-0.30103	so can
-0.30103	so you
0	some time
0	someone off	-0.4639598
0	something about
-0.04575749	sometime after	-0.2632415
-1	sometime around
0	sometimes after
-1.176091	soon </s>
-0.02996322	soon will	-0.8770221
-0.30103	sorry bye
-0.30103	sorry from
0	sounds good
0	south carolina
-1.414973	southwest airlines
-0.01703334	southwest flight	-1.02701
0	spartanburg to
-0.30103	speak slower
-0.30103	speak with
0	speed of
-1.041393	springs </s>
-0.7403627	springs arrive	-0.3549054
-0.5642715	springs arriving	-0.3960755
-1.041393	springs at
-1.041393	springs that
-1.041393	springs this
-0.7403627	springs to	-0.4765147
-0.69897	stapleton </s>
-0.69897	stapleton arrive
-0.69897	stapleton in
-0.69897	stapleton is
-0.69897	stapleton on
-0.69897	start my
-0.09691001	start over	0
0	states from
-1.606112	status </s>
-1.509202	status for	-0.6220102
-2.509202	status northwest
-0.03498626	status of	-0.9872243
-2.032081	status on	-0.4740664
-2.509202	status status
-2.208173	status the
0	still available
0	stop </s>
0	suck </s>
0	superbowl </s>
0	supposed to	-0.6204913
0	sure what
-0.07918125	switch me	-0.9755754
-0.7781513	switch to	-0.4660715
-0.2218488	syracuse </s>
-0.69897	syracuse and
-0.69897	syracuse leaving
-0.30103	system </s>
-0.30103	system is
0	t w
0	take off	-0.8998368
0	taken off	-0.7716205
-0.30103	takeoff </s>
-0.30103	takeoff already
0	takes off	-0.2742957
0	taking off	-0.4639598
-0.01523997	talk to	-1.44192
-1.462398	talk with
-0.69897	tallahassee </s>
-0.69897	tallahassee arriving
-0.69897	tallahassee that
-0.39794	tallahassee to	-0.4765147
-0.4259687	tampa </s>
-0.90309	tampa around
-0.90309	tampa from
-0.90309	tampa landed
-0.90309	tampa to
-0.90309	tampa today
-1.892095	tell about
-2.193125	tell if
-0.01414765	tell me	-0.7814608
-2.193125	tell of
-2.193125	tell ya
-1.007597	ten </s>
-0.5848336	ten a	-1.358163
-1.937016	ten arrives	-0.3174204
-2.238046	ten be
-1.392948	ten eleven	-0.3322612
-1.635986	ten fifty	-0.5329791
-2.238046	ten five
-2.238046	ten forty
-2.238046	ten from
-0.5659482	ten in	-1.433088
-1.539076	ten o+clock	-0.4590982
-1.539076	ten oh	-0.1631745
-1.158865	ten p	0
-1.937016	ten seventy	-0.450387
-1.392948	ten sixty	-0.6974953
-1.238046	ten thirty	-0.8199059
-2.238046	ten this
-1.539076	ten twenty	-0.6658649
-0.4771213	tennessee </s>
-0.1760913	tennessee to	-0.4616973
0	terminal will	-1.075976
-0.1249387	texas </s>
-0.90309	texas arriving
-0.90309	texas to
0	thank you	-1.50477
-0.2108534	thanks </s>
-1.113943	thanks anyway
-0.8129134	thanks bye	1.310575
-1.113943	thanks good
-1.113943	thanks that
-0.8594562	that </s>
-1.311754	that again	0
-2.089905	that ahead
-2.089905	that are
-1.612784	that arrive	-0.4750679
-1.089905	that arrives	-0.4369641
-1.390935	that comes	-0.2340832
-2.089905	that departing
-0.9437771	that flight	-0.6468414
-2.089905	that go
-0.6127838	that is	-1.446232
-2.089905	that leave
-2.089905	that leaves
-0.7888751	that left	-0.3679768
-2.089905	that take
-2.089905	that time
-2.089905	that uh
-1.244807	that was	-0.763428
-1.788875	that you	-0.3700328
-0.90309	that+s all	-0.3222193
-0.6812412	that+s due	-0.6550885
-1.380211	that+s enough
-1.380211	that+s fine
-1.380211	that+s flight
-0.2662679	that+s it	-0.7883902
-3.21801	the a
-1.240286	the afternoon	-0.8519375
-2.91698	the air
-3.21801	the aircraft+s
-2.51904	the airport	-0.1706962
-2.071882	the alaska	0
-2.61595	the america	0
-1.527814	the american	-0.6407912
-3.21801	the analog
-3.21801	the answer
-2.51904	the approximate	0
-1.293731	the arrival	-0.7670157
-3.21801	the baggage
-2.372912	the business	0
-3.21801	the cause
-2.21801	the continental	-0.6320232
-1.875587	the current	0
-2.61595	the delay
-1.837799	the delta	-0.8985895
-3.21801	the departing
-1.91698	the departure	-0.2218487
-2.61595	the eight	-0.6532125
-3.21801	the eleven
-2.176617	the estimated	0
-1.379161	the evening	-0.7249057
-1.875587	the expected	-1.155866
-1.200977	the first	-0.2927574
-0.9484971	the flight	-0.9618648
-1.51904	the flights	-0.02948366
-3.21801	the forecast
-2.91698	the four	-0.3352004
-2.104067	the frontier	0
-2.263767	the gate	-0.9111763
-2.104067	the ground	0
-3.21801	the hell
-2.61595	the hummer	0
-2.91698	the information
-3.21801	the jfk
-2.439859	the last	0
-3.21801	the late
-2.91698	the list
-3.21801	the message
-1.044824	the morning	-0.9312778
-3.21801	the new
-3.21801	the newport
-1.405097	the next	-0.2022533
-2.61595	the nine	-0.2483236
-3.21801	the noon
-2.263767	the northwest	-0.4331044
-2.263767	the number	-0.8616973
-2.439859	the one	-0.4477585
-3.21801	the other
-3.21801	the outgoing
-2.91698	the plane	-0.1760913
-2.740889	the reason	0
-3.21801	the remaining
-2.51904	the same	0
-2.91698	the schedule
-3.21801	the scheduled
-1.385501	the second	0
-2.740889	the seven	-0.4037404
-3.21801	the six
-2.51904	the southwest	0.6368221
-0.7496627	the status	-0.5612049
