
\data\
ngram 1=660
ngram 2=2106
ngram 3=476

\1-grams:
-0.8558467	</s>
-99	<s>	-99
-3.641176	กระเทียม	-99
-3.641176	กระแส	-99
-3.641176	กรุงศรี	-99
-3.340147	กลับ	-99
-3.641176	กลางวัน	-99
-3.340147	กล้วย	-99
-2.796078	กว่า	-99
-3.641176	กสิกร	-99
-3.039117	กะเพรา	-99
-3.641176	กัญชา	-99
-2.465085	กัน	-99
-2.738086	กับ	-99
-3.641176	การ	-99
-3.641176	กาแฟ	-99
-3.641176	กำกับ	-99
-3.641176	กิจกรรม	-99
-2.298754	กิน	-99
-3.641176	กินข้าว	-99
-3.641176	กีฬา	-99
-1.987964	กี่	-99
-3.039117	กี่โมง	-99
-3.641176	กุมภา	-99
-3.641176	กู๊ด	-99
-3.164055	ก็	-99
-3.340147	ก็ได้	-99
-2.942207	ก่อน	-99
-3.641176	ก่อนหน้า	-99
-2.942207	ก๋วยเตี๋ยว	-99
-3.641176	ขนม	-99
-3.641176	ขนาด	-99
-3.641176	ขวด	-99
-3.641176	ขวัญ	-99
-2.122663	ขอ	-99
-2.362423	ของ	-99
-3.641176	ขอบคุณ	-99
-3.039117	ขั้น	-99
-2.942207	ขาย	-99
-3.641176	ขี้เกียจ	-99
-3.641176	ข้อมูล	-99
-3.641176	ข้าง	-99
-3.641176	ข้าม	-99
-2.796078	ข้าว	-99
-3.641176	ข้าวโพด	-99
-2.942207	คณะ	-99
-2.942207	คน	-99
-3.164055	ครั้ง	-99
-3.340147	คราว	-99
-3.641176	ครีมเมอรี่	-99
-2.279449	ครึ่ง	-99
-3.641176	คลุก	-99
-3.641176	คล้าย	-99
-3.340147	ความ	-99
-3.164055	คะแนน	-99
-3.039117	คำนวณ	-99
-3.641176	คิดส์ซาเนีย	-99
-3.641176	คิว	-99
-3.340147	คืน	-99
-2.796078	คือ	-99
-3.039117	คุย	-99
-3.641176	คู่	-99
-3.641176	ค่อย	-99
-3.641176	ค่า	-99
-2.863025	งบ	-99
-2.109698	งาน	-99
-3.641176	ง่วง	-99
-3.039117	จบ	-99
-3.641176	จอ	-99
-3.039117	จอง	-99
-3.164055	จอด	-99
-2.863025	จะ	-99
-3.641176	จัง	-99
-3.039117	จัด	-99
-2.738086	จันทร์	-99
-3.340147	จับ	-99
-2.527233	จาก	-99
-2.942207	จาม	-99
-3.340147	จีน	-99
-3.164055	จุด	-99
-3.641176	จุล	-99
-2.599784	จุฬา	-99
-3.164055	จ่าย	-99
-3.039117	ฉัน	-99
-2.599784	ฉาย	-99
-3.641176	ชอบ	-99
-3.641176	ชะตา	-99
-3.641176	ชัฟเฟิล	-99
-3.340147	ชั่ว	-99
-2.260965	ชั่วโมง	-99
-2.527233	ชั้น	-99
-3.164055	ชาบู	-99
-3.641176	ชาร์จ	-99
-3.340147	ชีวิต	-99
-2.863025	ชื่อ	-99
-3.641176	ชูกา	-99
-3.340147	ช่วง	-99
-3.164055	ช่วย	-99
-3.641176	ช้า	-99
-3.340147	ซัก	-99
-3.641176	ซาวด์แทรก	-99
-3.641176	ซีท	-99
-3.641176	ซีรีย์	-99
-3.641176	ซีอิ๊ว	-99
-2.796078	ซื้อ	-99
-3.641176	ซุเปอร์มาร์เก็ต	-99
-3.340147	ซ้ำ	-99
-3.340147	ญี่ปุ่น	-99
-3.641176	ดนตรี	-99
-3.641176	ดรีม	-99
-3.641176	ดัง	-99
-3.641176	ดังๆ	-99
-3.164055	ดับ	-99
-2.942207	ดาว	-99
-3.641176	ดิน	-99
-2.260965	ดี	-99
-3.641176	ดื่ม	-99
-3.164055	ดู	-99
-2.641176	ด้วย	-99
-3.164055	ตรง	-99
-3.641176	ตรา	-99
-3.340147	ตลาด	-99
-2.061393	ตอน	-99
-3.641176	ตอนนี้	-99
-3.340147	ตอบ	-99
-3.641176	ตัด	-99
-2.738086	ตั้ง	-99
-3.340147	ตั้งแต่	-99
-2.942207	ตั๋ว	-99
-3.164055	ตาม	-99
-2.942207	ตาราง	-99
-3.340147	ตำ	-99
-3.340147	ติด	-99
-3.641176	ติดต่อ	-99
-3.039117	ตี	-99
-3.641176	ตีห้า	-99
-3.641176	ตึก	-99
-2.437057	ตื่น	-99
-2.410728	ต่อ	-99
-2.863025	ต่อไป	-99
-3.641176	ต่ำ	-99
-3.340147	ต้น	-99
-2.863025	ต้ม	-99
-2.465085	ต้อง	-99
-3.340147	ถอย	-99
-3.340147	ถัด	-99
-3.641176	ถาม	-99
-2.641176	ถึง	-99
-3.340147	ถูก	-99
-3.641176	ถ่ายรูป	-99
-3.641176	ถ้า	-99
-3.641176	ทน	-99
-3.641176	ทรี	-99
-3.641176	ทองดี	-99
-3.164055	ทอด	-99
-2.942207	ทั้ง	-99
-3.641176	ทั้งวัน	-99
-2.796078	ทั้งหมด	-99
-2.465085	ทาง	-99
-2.178779	ทำ	-99
-2.942207	ทำงาน	-99
-3.340147	ที	-99
-3.641176	ทีม	-99
-1.619987	ที่	-99
-3.641176	ที่นั่ง	-99
-3.164055	ที่นี่	-99
-3.641176	ที่พัก	-99
-3.641176	ที่แล้ว	-99
-2.561995	ทุก	-99
-3.641176	ทุ่ง	-99
-2.599784	ทุ่ม	-99
-3.641176	ทูเดย์	-99
-3.039117	ธนาคาร	-99
-3.039117	ธุระ	-99
-3.164055	นอก	-99
-2.437057	นอน	-99
-3.641176	นอนได้	-99
-2.122663	นะ	-99
-3.641176	นักเรียน	-99
-1.942207	นัด	-99
-3.164055	นับ	-99
-2.495049	นั่ง	-99
-3.641176	นั้น	-99
-2.122663	นาที	-99
-2.942207	นาน	-99
-3.641176	นำ	-99
-3.641176	นิติ	-99
-2.686934	นี่	-99
-1.821633	นี้	-99
-3.641176	นี้่ิ	-99
-2.796078	นึง	-99
-3.039117	น่า	-99
-2.686934	น้ำ	-99
-3.641176	น้ำตาล	-99
-3.641176	น้ำปลา	-99
-3.164055	บน	-99
-3.641176	บริการ	-99
-3.641176	บรูซ	-99
-3.641176	บลีช	-99
-3.641176	บอก	-99
-3.641176	บัญชี	-99
-3.164055	บัตร	-99
-3.641176	บัว	-99
-2.686934	บาท	-99
-3.340147	บิวตี้	-99
-3.039117	บี	-99
-3.641176	บีทีเอส	-99
-3.340147	บีสต์	-99
-3.340147	บุฟเฟต์	-99
-2.561995	บ่าย	-99
-1.672694	บ้าง	-99
-3.164055	บ้าน	-99
-3.641176	บ๊ายบาย	-99
-3.164055	ปฎิทิน	-99
-3.641176	ประชาสัมพันธ์	-99
-2.318957	ประชุม	-99
-3.641176	ประดับ	-99
-3.641176	ประทับ	-99
-3.340147	ประมาณ	-99
-3.641176	ประเภท	-99
-2.260965	ปลุก	-99
-3.340147	ปะ	-99
-3.641176	ปังเย็น	-99
-3.641176	ปาร์ค	-99
-2.599784	ปิด	-99
-3.340147	ปิ้ง	-99
-3.164055	ผม	-99
-3.641176	ผลไม้	-99
-3.641176	ผักกาด	-99
-2.641176	ผัด	-99
-3.641176	ผัดซีอิ๊ว	-99
-3.641176	ผ้า	-99
-3.641176	ฝน	-99
-3.340147	ฝาก	-99
-3.340147	พร	-99
-3.641176	พริก	-99
-3.641176	พริกไทย	-99
-3.641176	พรีวิเลจ	-99
-3.641176	พรีเมี่ยม	-99
-2.942207	พรุ่ง	-99
-2.122663	พรุ่งนี้	-99
-3.340147	พฤหัส	-99
-3.641176	พอ	-99
-3.641176	พอส	-99
-3.340147	พะโล้	-99
-3.641176	พากย์	-99
-3.641176	พาณิชย์	-99
-2.796078	พารากอน	-99
-3.641176	พาราโบลา	-99
-3.641176	พิกัด	-99
-3.641176	พิการ	-99
-3.340147	พิเศษ	-99
-2.796078	พุธ	-99
-3.641176	พูด	-99
-3.641176	ฟรี	-99
-3.641176	ฟัง	-99
-3.641176	ฟันขาว	-99
-3.340147	ฟิตเนส	-99
-3.641176	ฟิฟตี้	-99
-3.340147	ฟ้า	-99
-3.039117	ภาค	-99
-3.641176	มรณะ	-99
-3.641176	มหิต	-99
-3.039117	มะรืน	-99
-3.641176	มังสวิรัติ	-99
-2.942207	มัน	-99
-2.410728	มั้ย	-99
-2.942207	มา	-99
-3.641176	มาก	-99
-3.164055	มาบุญครอง	-99
-2.863025	มาม่า	-99
-3.641176	มาย	-99
-3.641176	มารูน	-99
-3.641176	มิยาบิ	-99
-1.46799	มี	-99
-3.641176	มีนา	-99
-3.641176	มื้อ	-99
-3.641176	มูฟวี่	-99
-3.641176	ม้้ย	-99
-2.561995	ยกเลิก	-99
-3.340147	ยัง	-99
-3.340147	ยังไง	-99
-3.340147	ยา	-99
-2.863025	ยาว	-99
-3.641176	ยาโยอิ	-99
-3.641176	ยิน	-99
-2.863025	ยี่	-99
-3.641176	ยี่สิบ	-99
-3.641176	ยืนยัน	-99
-2.796078	ยู	-99
-3.641176	ย่อ	-99
-3.340147	ย้าย	-99
-2.738086	รถ	-99
-3.164055	รส	-99
-3.641176	รหัส	-99
-3.641176	รอ	-99
-3.641176	รองเท้า	-99
-2.527233	รอบ	-99
-3.164055	ระหว่าง	-99
-2.942207	รับ	-99
-2.738086	ราคา	-99
-3.641176	รางวัล	-99
-2.942207	ราย	-99
-3.641176	รายการ	-99
-3.340147	รายงาน	-99
-3.641176	รายชื่อ	-99
-3.641176	รายได้	-99
-3.641176	ริม	-99
-3.641176	ริฮันนา	-99
-3.340147	รีวิว	-99
-3.641176	รึยัง	-99
-3.641176	รุจิศรี	-99
-3.164055	ร้อง	-99
-2.863025	ร้อย	-99
-1.834997	ร้าน	-99
-3.039117	ลด	-99
-3.641176	ลบ	-99
-3.641176	ลวก	-99
-3.641176	ลอย	-99
-3.164055	ละ	-99
-2.686934	ลา	-99
-3.641176	ลางาน	-99
-3.641176	ลาน	-99
-3.641176	ลิฟท์	-99
-3.641176	ลิโด้	-99
-3.641176	ลืม	-99
-3.641176	ลุก	-99
-3.641176	ลุง	-99
-3.641176	ลูก	-99
-3.641176	ล็อบสเตอร์	-99
-3.641176	ล่า	-99
-3.641176	ล่าสุด	-99
-2.796078	วอล	-99
-2.942207	วัตถุดิบ	-99
-1.789918	วัน	-99
-3.340147	วันที่	-99
-2.362423	วันนี้	-99
-3.340147	วันศุกร์	-99
-3.641176	วันหยุด	-99
-3.641176	วันเสาร์	-99
-3.641176	วันไหน	-99
-3.641176	วาน	-99
-3.641176	วานซืน	-99
-3.039117	วิธี	-99
-3.164055	วิธีทำ	-99
-3.641176	วินาที	-99
-3.641176	วิฟ	-99
-3.641176	วิลลิส	-99
-3.039117	วิศวะ	-99
-3.164055	ว่า	-99
-2.863025	ว่าง	-99
-3.340147	ศิลปิน	-99
-2.863025	ศุกร์	-99
-3.641176	สคิป	-99
-3.641176	สตางค์	-99
-3.039117	สตาร์วอร์	-99
-3.641176	สต็อป	-99
-3.164055	สถานี	-99
-3.641176	สน	-99
-3.340147	สมัคร	-99
-3.164055	สมาชิก	-99
-3.641176	สยอง	-99
-3.340147	สยาม	-99
-3.164055	สระ	-99
-3.340147	สร้าง	-99
-3.641176	สวิฟ	-99
-3.641176	สวีท	-99
-2.340147	สอง	-99
-3.039117	สอน	-99
-3.641176	สะสาง	-99
-3.641176	สับ	-99
-2.796078	สัปดาห์	-99
-3.164055	สั่ง	-99
-3.340147	สาขา	-99
-2.437057	สาม	-99
-3.641176	สามย่าน	-99
-3.641176	สาย	-99
-3.340147	สำหรับ	-99
-3.641176	สิงหา	-99
-2.017927	สิบ	-99
-3.340147	สิบเอ็ด	-99
-3.641176	สิ้น	-99
-2.298754	สี่	-99
-3.641176	สุกี้	-99
-2.495049	สุด	-99
-3.641176	สุดท้าย	-99
-3.164055	สุภาพ	-99
-3.641176	สุ่ม	-99
-3.340147	สูง	-99
-2.942207	สูตร	-99
-3.340147	สเตย์	-99
-2.796078	สเต็ก	-99
-2.942207	สแควร์	-99
-3.164055	ส่ง	-99
-3.340147	ส่วน	-99
-3.340147	ส้ม	-99
-3.641176	ส้มตำ	-99
-2.527233	หก	-99
-2.050112	หนัง	-99
-2.796078	หนึ่ง	-99
-2.226203	หน่อย	-99
-2.641176	หน้า	-99
-3.039117	หมด	-99
-3.164055	หมอ	-99
-3.039117	หมู	-99
-3.641176	หมูสับ	-99
-3.164055	หยุด	-99
-3.164055	หรือ	-99
-3.039117	หลัง	-99
-3.641176	หลับ	-99
-3.340147	หวาน	-99
-3.039117	หอ	-99
-3.164055	หา	-99
-3.641176	หาย	-99
-3.641176	ห่าง	-99
-2.863025	ห้อง	-99
-2.194019	ห้า	-99
-3.340147	ห้าม	-99
-3.641176	อกหัก	-99
-3.641176	อด	-99
-2.437057	อยาก	-99
-2.385904	อยู่	-99
-3.641176	อย่า	-99
-3.641176	อย่าง	-99
-3.340147	อย่างไร	-99
-2.796078	อร่อย	-99
-2.796078	ออก	-99
-3.164055	ออฟ	-99
-2.863025	อะ	-99
-1.706678	อะไร	-99
-2.942207	อะไรวอล	-99
-3.164055	อักษร	-99
-2.942207	อังคาร	-99
-3.340147	อันดับ	-99
-3.340147	อันเดอร์วอเตอร์เวิล์ด	-99
-3.164055	อัลบั้ม	-99
-2.796078	อาทิตย์	-99
-3.340147	อาบ	-99
-3.641176	อาย	-99
-3.641176	อายุ	-99
-2.122663	อาหาร	-99
-3.641176	อินเซปชั่น	-99
-1.959935	อีก	-99
-3.641176	อีกรอบ	-99
-3.641176	อีเมล	-99
-3.641176	อีเมล์	-99
-2.863025	อื่น	-99
-3.641176	อุปกรณ์	-99
-3.641176	อเมซอน	-99
-3.641176	อ้อม	-99
-3.340147	อ้อย	-99
-3.641176	อ้าว	-99
-3.641176	ฮันนี่มูน	-99
-3.641176	ฮาจิบัง	-99
-3.641176	เกลือ	-99
-3.340147	เกาหลี	-99
-3.340147	เกาเหลา	-99
-3.641176	เกิน	-99
-3.641176	เกี่ยว	-99
-3.039117	เก้า	-99
-3.641176	เขต	-99
-3.641176	เขียน	-99
-3.641176	เขียว	-99
-2.863025	เข้า	-99
-3.641176	เค	-99
-3.340147	เครดิต	-99
-3.641176	เครป	-99
-3.641176	เครือ	-99
-3.164055	เครื่อง	-99
-3.641176	เคลียร์	-99
-3.641176	เคเอฟซี	-99
-2.863025	เงิน	-99
-3.039117	เงียบ	-99
-3.340147	เจฟเฟอร์	-99
-3.164055	เจียว	-99
-2.863025	เจ็ด	-99
-3.641176	เจ้า	-99
-2.942207	เจ๊	-99
-3.641176	เชดส์	-99
-3.641176	เชพ	-99
-3.164055	เชื่อม	-99
-3.164055	เช็ค	-99
-3.641176	เช่า	-99
-2.686934	เช้า	-99
-3.641176	เซ	-99
-3.641176	เซนเตอร์	-99
-3.641176	เซอเคิล	-99
-3.641176	เซเว่น	-99
-3.340147	เซ็นทรัลเวิลด์	-99
-2.863025	เดอะ	-99
-2.686934	เดือน	-99
-3.641176	เด็ก	-99
-2.686934	เด็ด	-99
-2.410728	เตือน	-99
-3.641176	เถอะ	-99
-3.641176	เทค	-99
-3.641176	เทพ	-99
-2.641176	เที่ยง	-99
-3.641176	เทเลอร์	-99
-2.465085	เท่า	-99
-3.641176	เท่าไร	-99
-2.796078	เท่าไหร่	-99
-3.641176	เนย	-99
-3.340147	เนี่ย	-99
-3.340147	เนื้อ	-99
-3.641176	เบอร์	-99
-2.942207	เบา	-99
-3.039117	เปลี่ยน	-99
-3.641176	เปล่า	-99
-2.527233	เปิด	-99
-2.385904	เป็น	-99
-1.877749	เพลง	-99
-3.340147	เพลย์ลิส	-99
-2.863025	เพลลิสต์	-99
-3.164055	เพลิง	-99
-2.465085	เพิ่ม	-99
-3.164055	เพื่อน	-99
-2.796078	เมนู	-99
-3.164055	เมื่อ	-99
-3.641176	เมื่อคืน	-99
-3.164055	เมื่อวาน	-99
-3.641176	เมื่อไหร่	-99
-2.942207	เมเจอร์	-99
-3.641176	เยส	-99
-2.686934	เย็น	-99
-3.641176	เย็นนี้	-99
-3.641176	เรด	-99
-3.641176	เรตติ้ง	-99
-2.942207	เรา	-99
-3.039117	เริ่ม	-99
-3.164055	เรียก	-99
-3.340147	เรียง	-99
-2.738086	เรียน	-99
-3.641176	เรียนพิเศษ	-99
-3.641176	เรือ	-99
-2.136027	เรื่อง	-99
-3.340147	เร็ว	-99
-3.641176	เลิฟ	-99
-3.641176	เลี้ยง	-99
-2.942207	เลื่อน	-99
-3.641176	เลโก	-99
-2.209813	เล่น	-99
-2.527233	เวลา	-99
-3.641176	เววเวต	-99
-3.340147	เวียดนาม	-99
-3.641176	เศรษฐศาสตร์	-99
-3.641176	เสนอ	-99
-3.641176	เสริมสวย	-99
-3.641176	เสร็จ	-99
-2.942207	เสาร์	-99
-2.942207	เสียง	-99
-3.641176	เสือ	-99
-3.340147	เส้น	-99
-3.641176	เหมือน	-99
-3.641176	เหรอ	-99
-3.641176	เหรียญ	-99
-3.164055	เหลือ	-99
-3.340147	เอ	-99
-3.164055	เอง	-99
-3.641176	เอทีเอม	-99
-3.641176	เอน	-99
-3.164055	เอฟ	-99
-3.164055	เอส	-99
-3.164055	เอา	-99
-3.641176	เอ็กซ์	-99
-3.164055	เอ็ด	-99
-3.164055	เอ็ม	-99
-3.641176	เฮท	-99
-3.641176	แกง	-99
-3.641176	แคนท์	-99
-3.641176	แคนเซิล	-99
-2.796078	แคลอรี่	-99
-3.641176	แค่	-99
-3.641176	แค่ไหน	-99
-2.942207	แจ้ง	-99
-3.340147	แดง	-99
-3.641176	แถม	-99
-2.641176	แถว	-99
-3.641176	แท็กซี่	-99
-3.641176	แนว	-99
-2.863025	แนะนำ	-99
-2.599784	แบบ	-99
-3.641176	แบ็ทแมน	-99
-2.527233	แปด	-99
-3.641176	แพง	-99
-3.641176	แพทย์	-99
-2.686934	แรก	-99
-3.641176	แรนดอม	-99
-3.641176	แรนด้อม	-99
-3.641176	แลก	-99
-3.039117	แลนด์	-99
-3.641176	และ	-99
-2.385904	แล้ว	-99
-3.641176	แว่น	-99
-3.641176	แสดง	-99
-3.641176	แห้ง	-99
-3.340147	แอนด์	-99
-3.641176	แอม	-99
-3.641176	แอล	-99
-3.641176	แอ็คชั่น	-99
-3.164055	แฮรี่พอตเตอร์	-99
-2.318957	โกวาจี	-99
-3.641176	โฆษณา	-99
-3.641176	โจอี้บอย	-99
-2.942207	โซน	-99
-3.641176	โซฟา	-99
-3.641176	โทร	-99
-3.641176	โทรศัพท์	-99
-3.164055	โบว์ลิ่ง	-99
-3.340147	โปรด	-99
-3.641176	โปรเจค	-99
-3.641176	โปรแกรม	-99
-3.039117	โปรโมชัน	-99
-3.340147	โปรโมชั่น	-99
-3.641176	โฟร์	-99
-1.686934	โมง	-99
-2.437057	โรง	-99
-3.641176	โรงหนัง	-99
-3.641176	โรตี	-99
-3.340147	โลแกน	-99
-3.641176	โอ	-99
-3.641176	โอว	-99
-2.942207	ใกล้	-99
-3.039117	ใคร	-99
-3.641176	ใจ	-99
-2.641176	ใช้	-99
-3.641176	ใต้	-99
-2.495049	ใน	-99
-2.863025	ใส่	-99
-2.942207	ใหม่	-99
-2.738086	ให้	-99
-3.641176	ไกล	-99
-2.942207	ไก่	-99
-2.465085	ไข่	-99
-3.340147	ไง	-99
-2.149815	ได้	-99
-3.641176	ได้มั้ย	-99
-3.641176	ได้ไหม	-99
-2.863025	ไทย	-99
-3.641176	ไนท์	-99
-2.122663	ไป	-99
-3.641176	ไผ่ทอง	-99
-3.641176	ไฟ	-99
-3.340147	ไฟฟ้า	-99
-3.641176	ไฟว์	-99
-2.686934	ไม่	-99
-3.340147	ไม่ว่าง	-99
-2.738086	ไร	-99
-3.641176	ไวไฟ	-99
-3.641176	ไส้	-99
-1.663453	ไหน	-99
-2.136027	ไหม	-99
-3.641176	ไหม้	-99
-2.641176	ไหร่	-99
-3.340147	ไห้	-99
-3.039117	ไอ	-99
-3.340147	ไอติม	-99
-3.641176	ไอที	-99
-3.641176	ไอเดีย	-99
-3.641176	ไอแม็กซ์	-99

\2-grams:
-2.78533	<s> กระแส
-2.78533	<s> กล้วย
-2.308208	<s> กิน
-2.4843	<s> กี่
-2.78533	<s> กู๊ด
-2.78533	<s> ก๋วยเตี๋ยว
-1.28018	<s> ขอ	0.01336397
-2.78533	<s> ของ
-2.18327	<s> ขั้น	0
-2.78533	<s> ขี้เกียจ
-2.78533	<s> ข้าม
-2.18327	<s> ข้าว	-0.359022
-2.78533	<s> ครีมเมอรี่
-2.18327	<s> คำนวณ	0
-2.78533	<s> คิดส์ซาเนีย
-2.4843	<s> คุย	-0.1760913
-2.78533	<s> ค่า
-2.308208	<s> งาน
-2.78533	<s> ง่วง
-2.4843	<s> จอง
-2.78533	<s> จอด
-2.78533	<s> จะ
-2.78533	<s> จับ
-2.308208	<s> จาม	0.09691
-2.78533	<s> จุด
-2.308208	<s> ฉัน	0
-2.78533	<s> ชัฟเฟิล
-2.18327	<s> ชั้น
-2.78533	<s> ชาร์จ
-2.4843	<s> ช่วง	0
-2.308208	<s> ช่วย	0
-2.08636	<s> ซื้อ	-0.154902
-2.78533	<s> ซุเปอร์มาร์เก็ต
-2.78533	<s> ดัง
-2.78533	<s> ดังๆ
-2.78533	<s> ดู
-2.78533	<s> ตลาด
-2.308208	<s> ตอน
-2.78533	<s> ตัด
-2.007179	<s> ตั้ง	-0.3521825
-1.88224	<s> ตื่น	-0.1139434
-2.4843	<s> ต่อ	-0.2466723
-2.78533	<s> ต้ม
-2.78533	<s> ถาม
-2.18327	<s> ทาง	-0.50515
-2.007179	<s> ทำ	-0.1116333
-1.609239	<s> ที่	-0.4771212
-2.308208	<s> ที่นี่	0
-2.18327	<s> ธนาคาร
-2.18327	<s> นอน	-0.2730013
-2.78533	<s> นักเรียน
-1.609239	<s> นัด	-0.3579348
-2.4843	<s> นับ	0
-2.78533	<s> นั่ง
-2.78533	<s> บรูซ
-2.78533	<s> บลีช
-2.78533	<s> บอก
-2.78533	<s> บัตร
-2.78533	<s> บัว
-2.78533	<s> บิวตี้
-2.78533	<s> บ่าย
-2.78533	<s> ประชาสัมพันธ์
-2.007179	<s> ประชุม	-0.1326256
-2.78533	<s> ประทับ
-1.831087	<s> ปลุก	-0.1180993
-2.78533	<s> ปังเย็น
-2.4843	<s> ปิด
-2.4843	<s> ผัด
-2.78533	<s> ผัดซีอิ๊ว
-2.78533	<s> พร
-2.08636	<s> พรุ่ง	0
-1.706149	<s> พรุ่งนี้	-0.8394209
-2.78533	<s> พอ
-2.78533	<s> พอส
-2.78533	<s> พาราโบลา
-2.4843	<s> พุธ
-2.78533	<s> พูด
-2.78533	<s> ฟิตเนส
-2.4843	<s> มะรืน	0
-2.78533	<s> มัน
-2.308208	<s> มา	-0.2552725
-1.044967	<s> มี	-0.2385629
-2.78533	<s> มื้อ
-1.78533	<s> ยกเลิก	-0.1426675
-2.78533	<s> ยืนยัน
-2.4843	<s> ย้าย	0
-2.308208	<s> ระหว่าง
-2.4843	<s> รับ	-0.2552725
-1.88224	<s> ร้าน	-0.6989699
-2.4843	<s> ลด
-2.78533	<s> ลบ
-2.78533	<s> ลาน
-2.78533	<s> ลุก
-1.506576	<s> วัน	-0.3413091
-2.78533	<s> วันที่
-2.007179	<s> วันนี้	-0.6133409
-2.78533	<s> วันศุกร์
-2.78533	<s> สคิป
-2.4843	<s> สตาร์วอร์
-2.78533	<s> สต็อป
-2.78533	<s> สถานี
-2.4843	<s> สร้าง	0
-2.18327	<s> สอน	0
-2.007179	<s> สัปดาห์	0
-2.78533	<s> สิบ
-2.78533	<s> สี่
-2.78533	<s> สุภาพ
-2.78533	<s> สุ่ม
-2.78533	<s> ส้มตำ
-1.58121	<s> หนัง	-0.8698332
-2.308208	<s> หยุด
-2.78533	<s> หลัง
-2.308208	<s> หา	0
-2.08636	<s> ห้อง	0
-2.4843	<s> ห้าม	0
-1.639202	<s> อยาก	-0.4191293
-2.78533	<s> อย่า
-2.78533	<s> อะไร
-2.78533	<s> อะไรวอล
-2.4843	<s> อันเดอร์วอเตอร์เวิล์ด
-2.18327	<s> อาทิตย์	-0.2340832
-2.78533	<s> อาบ
-1.423602	<s> อีก	-0.3173087
-2.4843	<s> เกาเหลา
-2.78533	<s> เครป
-2.78533	<s> เคลียร์
-2.4843	<s> เงียบ
-2.78533	<s> เจฟเฟอร์
-2.4843	<s> เช็ค	0
-2.78533	<s> เช้า
-2.4843	<s> เดือน
-2.18327	<s> เตือน
-2.78533	<s> เที่ยง
-2.18327	<s> เบา	-0.07918123
-2.4843	<s> เปลี่ยน
-2.08636	<s> เปิด	-0.5392691
-2.4843	<s> เป็น
-2.007179	<s> เพลง	-0.446087
-1.706149	<s> เพิ่ม	-0.1249387
-2.78533	<s> เมนู
-2.4843	<s> เมื่อ
-2.78533	<s> เมื่อคืน
-2.4843	<s> เมื่อวาน
-2.78533	<s> เย็น
-2.18327	<s> เริ่ม
-2.308208	<s> เรียก	0
-2.4843	<s> เรียง	0
-2.08636	<s> เลื่อน	0
-1.530057	<s> เล่น	-0.1484198
-2.78533	<s> เสาร์
-2.78533	<s> เสือ
-2.4843	<s> เอา
-2.78533	<s> แคนเซิล
-2.18327	<s> แจ้ง	0
-2.308208	<s> แถว
-2.08636	<s> แนะนำ	0
-2.78533	<s> แปด
-2.78533	<s> แรนดอม
-2.78533	<s> แลก
-2.78533	<s> แฮรี่พอตเตอร์
-1.463111	<s> โกวาจี	0
-2.78533	<s> โฆษณา
-2.78533	<s> โซน
-2.78533	<s> โปรโมชัน
-1.940232	<s> โรง	-0.3399481
-2.78533	<s> โรตี
-2.78533	<s> โลแกน
-2.308208	<s> ใคร
-2.08636	<s> ใส่
-2.308208	<s> ไข่
-2.78533	<s> ได้
-2.4843	<s> ไป
-2.78533	<s> ไฟ
-2.18327	<s> ไม่	-0.1249387
-2.78533	<s> ไอติม
0	กระเทียม ต้อง
0	กระแส ตอบ
0	กรุงศรี อยู่
-0.30103	กลับ บีทีเอส
-0.30103	กลับ บ้าน
0	กลางวัน หน่อย
-0.30103	กล้วย ปิ้ง
-0.30103	กล้วย ราคา
-0.243038	กว่า กัน	-0.30103
-0.3679768	กว่า จะ	-0.30103
0	กสิกร อยู่
-0.60206	กะเพรา ที
-0.60206	กะเพรา หมูสับ
-0.60206	กะเพรา ใช้
-0.60206	กะเพรา ไก่
0	กัญชา </s>
-0.2218488	กัน </s>
-1.176091	กัน สำหรับ
-1.176091	กัน เถอะ
-0.69897	กัน เอง
-1.176091	กัน แค่
-0.90309	กับ พุธ
-0.60206	กับ ร้าน
-0.90309	กับ ลา
-0.90309	กับ ส้ม
-0.60206	กับ หมอ
-0.90309	กับ เพลง
0	การ แจ้ง
0	กาแฟ อะไร
0	กำกับ เรื่อง
0	กิจกรรม พรุ่งนี้
-1.041393	กิน </s>
-1.342423	กิน ข้าว
-1.041393	กิน ชาบู	0
-1.342423	กิน ดี
-1.342423	กิน บ้าง
-1.342423	กิน ผัด
-1.342423	กิน ยา
-1.041393	กิน สเต็ก	-0.3309932
-0.5642715	กิน อะไร	-0.8082267
-1.041393	กิน อาหาร
-1.342423	กิน ฮาจิบัง
-1.342423	กิน เคเอฟซี
-1.342423	กิน ไก่
0	กินข้าว วัน
0	กีฬา ได้
-1.653213	กี่ คน
-1.653213	กี่ งาน
-1.352183	กี่ ที่	-0.4687692
-1.352183	กี่ นัด	-0.4593925
-0.7501225	กี่ นาที	-0.4259687
-1.653213	กี่ บาท
-1.653213	กี่ สาขา
-1.176091	กี่ แคลอรี่	-0.2340832
-0.2382392	กี่ โมง	-1.150927
0	กี่โมง </s>
0	กุมภา มี
0	กู๊ด ไนท์
0	ก็ ได้
-0.30103	ก็ได้ </s>
-0.30103	ก็ได้ นะ
-0.69897	ก่อน </s>
-0.69897	ก่อน ซัก
-0.39794	ก่อน นอน	-0.4191293
-0.69897	ก่อน สอง
0	ก่อนหน้า </s>
-0.69897	ก๋วยเตี๋ยว กัญชา
-0.69897	ก๋วยเตี๋ยว ที่
-0.69897	ก๋วยเตี๋ยว รุจิศรี
-0.69897	ก๋วยเตี๋ยว อด
-0.69897	ก๋วยเตี๋ยว เรือ
0	ขนม หวาน
0	ขนาด นั้น
0	ขวด ละ
0	ขวัญ เรื่อง
-1.518514	ขอ ข้อมูล
-0.916454	ขอ นอน	-0.09691001
-1.518514	ขอ พิกัด
-1.217484	ขอ รอบ	-0.4045706
-0.916454	ขอ ราย	0
-1.518514	ขอ รายชื่อ
-0.819544	ขอ สูตร	0
-0.819544	ขอ อีก
-1.518514	ขอ เบอร์
-0.916454	ขอ เพลง
-1.518514	ขอ เรื่อง
-1.217484	ขอ เส้น	0
-1.217484	ขอ โปรโมชัน
-0.9777236	ของ ที่	-0.4382032
-1.278754	ของ พรุ่งนี้
-1.278754	ของ มะรืน
-1.278754	ของ มารูน
-0.9777236	ของ วัน
-1.278754	ของ วันนี้
-0.9777236	ของ ศิลปิน
-1.278754	ของ สัปดาห์
-1.278754	ของ หาย
-1.278754	ของ เทเลอร์
-1.278754	ของ เมื่อวาน
-1.278754	ของ เอส
-1.278754	ของ แฮรี่พอตเตอร์
-1.278754	ของ โรงหนัง
-0.9777236	ของ ได้
0	ขอบคุณ </s>
-0.30103	ขั้น ตอน
-0.60206	ขั้น ต่อ
-0.60206	ขั้น ถัด
-0.69897	ขาย ข้าวโพด
-0.69897	ขาย ด้วย
-0.69897	ขาย ทุก
-0.69897	ขาย น้ำ
-0.69897	ขาย ยัง
0	ขี้เกียจ สระ
0	ข้อมูล หนัง
0	ข้าง แอม
0	ข้าม </s>
-0.845098	ข้าว กี่
-0.544068	ข้าว ผัด	-0.3802113
-0.3679768	ข้าว มัน	-0.20412
-0.845098	ข้าว หมู
0	ข้าวโพด คลุก
-0.69897	คณะ บัญชี
-0.39794	คณะ วิศวะ	-0.1760913
-0.69897	คณะ อักษร
-0.69897	คณะ แพทย์
-0.69897	คน นั่ง
-0.69897	คน พิการ
-0.69897	คน มั้ย
-0.69897	คน ร้อง
-0.69897	คน แล้ว
-0.4771213	ครั้ง ต่อ
-0.4771213	ครั้ง ถ้า
-0.4771213	ครั้ง หน้า
-0.30103	คราว </s>
-0.30103	คราว ที่
0	ครีมเมอรี่ มี
-0.6627578	ครึ่ง </s>
-1.361728	ครึ่ง ชั่ว
-0.4074853	ครึ่ง ชั่วโมง	-0.327359
-1.361728	ครึ่ง ต้อง
-0.6627578	ครึ่ง นะ	0
-1.361728	ครึ่ง หน่อย
-1.361728	ครึ่ง เป็น
0	คลุก เนย
0	คล้าย กับ
0	ความ ยาว
-0.4771213	คะแนน รีวิว
-0.1760913	คะแนน ไอ	-0.1760913
0	คำนวณ แคลอรี่
0	คิดส์ซาเนีย อยู่
0	คิว ยาว
-0.30103	คืน </s>
-0.30103	คืน มี
-0.845098	คือ งาน
-0.243038	คือ อะไร	-0.6033207
-0.544068	คือ แถว
-0.60206	คุย งาน
-0.60206	คุย ดี
-0.30103	คุย แบบ
0	คู่ ชีวิต
0	ค่อย ปลุก
0	ค่า สมัคร
-0.4771213	งบ ประมาณ	0
-0.7781513	งบ สาม
-0.7781513	งบ หนึ่ง
-0.4771213	งบ ห้า	-0.4449366
-0.7533277	งาน </s>
-1.054358	งาน ตอน
-1.531479	งาน ต่อไป
-1.531479	งาน บน
-1.531479	งาน บ้าง
-1.230449	งาน ประชุม	-0.3309932
-1.531479	งาน พรุ่งนี้
-1.531479	งาน มั้ย
-1.054358	งาน วัน
-1.230449	งาน วันนี้
-1.531479	งาน วันศุกร์
-1.531479	งาน หรือ
-0.6863809	งาน อะไร	-0.3171398
-1.531479	งาน เจ็ด
-1.531479	งาน เตือน
-1.531479	งาน เที่ยง
-1.531479	งาน แรก
0	ง่วง จัง
-0.60206	จบ กัน
-0.30103	จบ กี่	-0.1026624
-0.60206	จบ ก่อน
0	จอ ที่
-0.30103	จอง ตั๋ว
-0.60206	จอง ที่
-0.60206	จอง ได้
0	จอด รถ
-0.7781513	จะ จบ
-0.7781513	จะ ซื้อ
-0.7781513	จะ ออก
-0.7781513	จะ เที่ยง
-0.4771213	จะ แปด	0.3357921
0	จัง </s>
-0.30103	จัด งาน	-0.3770061
-0.60206	จัด ที่
-0.60206	จัด หน่อย
-0.60206	จันทร์ </s>
-0.90309	จันทร์ กับ
-0.90309	จันทร์ นี้
-0.90309	จันทร์ พุธ
-0.60206	จันทร์ มี	-0.4712523
-0.90309	จันทร์ แปด
0	จับ เวลา	-0.3631779
-1.113943	จาก บ่าย
-0.8129134	จาก บ้าน	0
-0.8129134	จาก ฟ้า	0
-0.8129134	จาก อัลบั้ม	0
-0.8129134	จาก เพลย์ลิส	0
-0.5118834	จาก เพลลิสต์	0
-0.09691001	จาม สแควร์	-0.20412
-0.69897	จาม เก้า
-0.30103	จีน อะไร
-0.30103	จีน ไหม
-0.4771213	จุด ถ่ายรูป
-0.4771213	จุด บริการ
-0.4771213	จุด ไหน
0	จุล มี
-0.5642715	จุฬา </s>
-0.1962947	จุฬา มี	-0.7552096
-1.041393	จุฬา เปิด
-0.4771213	จ่าย ด้วย
-0.1760913	จ่าย สาม
-0.1249387	ฉัน ตื่น
-0.60206	ฉัน ไป
-1.041393	ฉาย กี่
-1.041393	ฉาย ตอน
-1.041393	ฉาย ทั้งหมด
-1.041393	ฉาย ที่
-0.7403627	ฉาย บ้าง	0
-1.041393	ฉาย สิบ
-1.041393	ฉาย ห้า
-1.041393	ฉาย อยู่
-0.7403627	ฉาย เรื่อง	-0.2941906
0	ชอบ เพลง
0	ชะตา ชีวิต
0	ชัฟเฟิล </s>
-0.30103	ชั่ว คราว
-0.30103	ชั่ว โมง
-0.5351132	ชั่วโมง </s>
-1.380211	ชั่วโมง กี่
-1.079181	ชั่วโมง ครึ่ง
-1.380211	ชั่วโมง ค่อย
-1.079181	ชั่วโมง ตอน
-1.380211	ชั่วโมง นะ
-0.60206	ชั่วโมง นึง	-0.05799193
-1.380211	ชั่วโมง บ้าง
-1.380211	ชั่วโมง ประชุม
-1.380211	ชั่วโมง ปลุก
-1.380211	ชั่วโมง อะ
-0.8129134	ชั้น สอง
-1.113943	ชั้น สาม
-0.8129134	ชั้น สี่
-0.8129134	ชั้น หนึ่ง
-0.8129134	ชั้น ห้า
-0.5118834	ชั้น ไหน	-0.3802113
-0.1760913	ชาบู งบ
-0.4771213	ชาบู บ้าง
0	ชาร์จ โทรศัพท์
0	ชีวิต </s>
-0.7781513	ชื่อ ภาค
-0.7781513	ชื่อ สิบ
-0.30103	ชื่อ หนัง	-0.5672979
-0.7781513	ชื่อ อะไร
0	ชูกา </s>
0	ช่วง นี้	-0.3735807
-0.4771213	ช่วย ด้วย
-0.1760913	ช่วย ตั้ง	-0.2730013
0	ช้า สุด
-0.30103	ซัก ชั่วโมง
-0.30103	ซัก สิบ
0	ซาวด์แทรก </s>
0	ซีท มั้ย
0	ซีรีย์ วันไหน
0	ซีอิ๊ว ให้
-0.845098	ซื้อ ตั๋ว
-0.845098	ซื้อ ยา
-0.845098	ซื้อ หนึ่ง
-0.845098	ซื้อ อุปกรณ์
-0.3679768	ซื้อ เครื่อง
0	ซุเปอร์มาร์เก็ต อยู่
-0.30103	ซ้ำ </s>
-0.30103	ซ้ำ ทุก
-0.30103	ญี่ปุ่น อะไร
-0.30103	ญี่ปุ่น ไหม
0	ดนตรี ได้
0	ดรีม ทีม
0	ดัง อีก
0	ดังๆ หน่อย
0	ดับ เพลิง
-0.69897	ดาว </s>
-0.69897	ดาว ต้อง
-0.69897	ดาว ปิด
-0.69897	ดาว หน่อย
-0.69897	ดาว ใช้
0	ดิน ที่
-0.1760913	ดี </s>
-1.380211	ดี ดี
-1.079181	ดี บี
-1.380211	ดี มั้ย
-1.380211	ดี หน่อย
-1.079181	ดี อยาก
-1.380211	ดี เอ็กซ์
0	ดื่ม ขวด
-0.4771213	ดู หนัง
-0.4771213	ดู อะไรวอล
-0.4771213	ดู เนื้อ
-0.154902	ด้วย </s>
-1	ด้วย บัตร
-1	ด้วย พรุ่งนี้
-1	ด้วย ไหม
0	ตรง ไหน
0	ตรา จอด
0	ตลาด นัด
-1.579784	ตอน กี่
-1.278754	ตอน ตี
-1.579784	ตอน ต่อ
-1.579784	ตอน ถัด
-1.278754	ตอน นี้
-0.8808136	ตอน บ่าย	-0.09691002
-1.278754	ตอน สอง	-0.3802113
-1.278754	ตอน สาม
-0.8808136	ตอน สิบ	-0.6320232
-1.278754	ตอน สี่
-0.9777236	ตอน หก	0
-1.579784	ตอน ห้า
-1.579784	ตอน เก้า
-1.102662	ตอน เจ็ด	-0.1249387
-1.278754	ตอน เที่ยง
-1.102662	ตอน แปด	0.2108533
-1.579784	ตอน ไหน
0	ตอนนี้ </s>
-0.30103	ตอบ รับ
-0.30103	ตอบ อีเมล
0	ตัด แว่น
-0.4259687	ตั้ง ปลุก	-0.5006024
-0.20412	ตั้ง เวลา	-0.5672979
-0.30103	ตั้งแต่ วัน
-0.30103	ตั้งแต่ เที่ยง
-0.69897	ตั๋ว ที่
-0.69897	ตั๋ว พร
-0.69897	ตั๋ว ราคา
-0.69897	ตั๋ว หนัง
-0.69897	ตั๋ว แฮรี่พอตเตอร์
0	ตาม สั่ง
-0.69897	ตาราง ทั้งหมด
-0.09691001	ตาราง เรียน	-0.39794
0	ตำ เจ๊
-0.30103	ติด กัน
-0.30103	ติด ธุระ
0	ติดต่อ ได้
-0.60206	ตี สอง
-0.30103	ตี สี่
-0.60206	ตี ห้า
0	ตีห้า วันเสาร์
0	ตึก จุล
-0.7269987	ตื่น กี่	-0.2276011
-1.20412	ตื่น ช้า
-0.7269987	ตื่น สิบ	-0.4973246
-0.7269987	ตื่น หก	0
-1.20412	ตื่น เช้า
-0.90309	ตื่น เที่ยง	-0.3222193
-0.7269987	ตื่น แล้ว
-1.230449	ต่อ นะ
-1.230449	ต่อ อะ
-0.4522977	ต่อ อีก	-0.3273589
-1.230449	ต่อ ได้มั้ย
-1.230449	ต่อ ได้ไหม
-0.3853509	ต่อ ไป	-0.1558879
-0.7781513	ต่อไป </s>
-0.7781513	ต่อไป ยาว
-0.7781513	ต่อไป อยู่
-0.4771213	ต่อไป อีก
-0.7781513	ต่อไป เพลง
0	ต่ำ สุด
-0.30103	ต้น เดือน
-0.30103	ต้น ใหม่
-0.7781513	ต้ม </s>
-0.30103	ต้ม มาม่า	-0.1249387
-0.4771213	ต้ม หน่อย	0.3357921
-0.8750613	ต้อง ตื่น
-0.4771213	ต้อง ทำ	-0.5945068
-1.176091	ต้อง ปลุก
-1.176091	ต้อง มี
-1.176091	ต้อง สะสาง
-1.176091	ต้อง สุภาพ
-1.176091	ต้อง ออก
-1.176091	ต้อง เป็น
-0.8750613	ต้อง ใช้	-0.3802113
0	ถอย หลัง
0	ถัด ไป	-0.3899711
0	ถาม ซ้ำ
-1	ถึง กี่
-1	ถึง กี่โมง
-1	ถึง ตี
-1	ถึง ตีห้า
-0.69897	ถึง สิบ
-1	ถึง สิ้น
-1	ถึง สี่
-1	ถึง หก
-1	ถึง ห้า
-0.30103	ถูก ที่
-0.30103	ถูก สุด
0	ถ่ายรูป ที่
0	ถ้า มี
0	ทน รอ
0	ทรี ดี
0	ทองดี ฟันขาว
-0.4771213	ทอด กระเทียม
-0.4771213	ทอด ที่
-0.4771213	ทอด หน่อย
-0.69897	ทั้ง วัน
-0.2218488	ทั้ง หมด	-0.1760913
-0.69897	ทั้ง เดือน
0	ทั้งวัน </s>
-0.3679768	ทั้งหมด </s>
-0.3679768	ทั้งหมด ของ	-0.4288166
-0.845098	ทั้งหมด ที่
-1.176091	ทาง เข้า
-0.69897	ทาง เชื่อม	0
-0.8750613	ทาง ไป
-0.2218488	ทาง ไหน	-0.7781513
-1.462398	ทำ กะเพรา
-1.462398	ทำ คน
-1.462398	ทำ บัตร
-1.161368	ทำ บ้าง	0
-0.9852768	ทำ ผัด	-0.3222193
-1.462398	ทำ ราย
-1.462398	ทำ รายได้
-1.462398	ทำ สุกี้
-1.462398	ทำ หมู
-0.559308	ทำ อะไร	0.1019896
-1.462398	ทำ เงิน
-1.462398	ทำ แกง
-1.161368	ทำ แบบ	-0.3899711
-1.462398	ทำ ให้
-0.860338	ทำ ไข่	-0.1663314
-0.39794	ทำงาน ตอน
-0.69897	ทำงาน ที่
-0.69897	ทำงาน แปด
-0.69897	ทำงาน ไร
0	ที </s>
0	ทีม เป็น
-2.021189	ที่ </s>
-1.544068	ที่ คณะ	-0.2552725
-2.021189	ที่ จอง
-2.021189	ที่ จอด
-1.720159	ที่ จาม
-1.419129	ที่ ฉาย
-2.021189	ที่ ทำ
-2.021189	ที่ ทำงาน
-0.9420081	ที่ นั่ง	-0.02020337
-2.021189	ที่ นิติ
-1.066947	ที่ นี่	0
-1.720159	ที่ พารากอน
-1.720159	ที่ มาบุญครอง
-1.720159	ที่ ยี่	0
-2.021189	ที่ วิศวะ
-1.544068	ที่ สิบ
-2.021189	ที่ สิบเอ็ด
-1.322219	ที่ สุด	-0.02996323
-2.021189	ที่ หอ
-2.021189	ที่ ห่าง
-2.021189	ที่ อักษร
-2.021189	ที่ เจ็ด
-2.021189	ที่ เซ็นทรัลเวิลด์
-2.021189	ที่ เท่า
-2.021189	ที่ เท่าไหร่
-2.021189	ที่ เปลี่ยน
-2.021189	ที่ เป็น
-2.021189	ที่ เมเจอร์
-2.021189	ที่ เร็ว
-2.021189	ที่ เศรษฐศาสตร์
-2.021189	ที่ เหลือ
-2.021189	ที่ เอน
-1.720159	ที่ แล้ว
-1.720159	ที่ ใกล้	-0.2552725
-1.720159	ที่ ใน	-0.2340832
-0.5026754	ที่ ไหน	-0.4011283
0	ที่นั่ง </s>
-0.4771213	ที่นี่ ปิด
-0.1760913	ที่นี่ เปิด
0	ที่พัก ใกล้
0	ที่แล้ว </s>
-1.079181	ทุก ครั้ง
-1.079181	ทุก รายการ
-0.1760913	ทุก วัน	-0.2351014
-0.7781513	ทุก อาทิตย์
0	ทุ่ง </s>
-0.7403627	ทุ่ม </s>
-1.041393	ทุ่ม ถึง
-1.041393	ทุ่ม ที่
-1.041393	ทุ่ม นึง
-0.7403627	ทุ่ม บ้าง	0
-0.7403627	ทุ่ม วัน	-0.3892909
-1.041393	ทุ่ม สี่
-1.041393	ทุ่ม ออก
0	ทูเดย์ สเต็ก
-0.60206	ธนาคาร กรุงศรี
-0.60206	ธนาคาร กสิกร
-0.60206	ธนาคาร ยู
-0.60206	ธนาคาร ไทย
-0.30103	ธุระ </s>
-0.30103	ธุระ อะไร	-0.4669021
0	นอก จุฬา	-0.1627273
-0.90309	นอน </s>
-0.20412	นอน ต่อ	-0.2088838
-0.90309	นอน อีก
-1.20412	นอน ได้
-1.20412	นอน ไม่
0	นอนได้ ถึง
-0.08715018	นะ </s>
-0.7403627	นะ พรุ่งนี้	-0.7245241
0	นักเรียน ได้
-1.39794	นัด </s>
-1.39794	นัด กับ	-0.3521825
-1.69897	นัด กิน
-1.69897	นัด กินข้าว
-1.39794	นัด ตอน
-1.69897	นัด ตั้งแต่
-1.69897	นัด ต่อ
-1.69897	นัด ต่อไป
-1.39794	นัด ทั้งหมด	-0.2340832
-1.69897	นัด ทำงาน
-1.69897	นัด นำ
-1.09691	นัด ประชุม	-0.455932
-1.69897	นัด มัน
-1.69897	นัด มั้ย
-0.9208187	นัด วัน	-0.4111927
-1.69897	นัด วันนี้
-1.69897	นัด สาม
-1.69897	นัด สิบ
-1.69897	นัด สี่
-1.69897	นัด สุดท้าย
-1.69897	นัด ส่ง
-1.69897	นัด หมอ
-1.09691	นัด อะไร	-0.4720417
-1.69897	นัด เตือน
-1.69897	นัด เพิ่ม
-1.39794	นัด เพื่อน
-1.69897	นัด เย็นนี้
-1.69897	นัด เลี้ยง
-0.9208187	นัด แรก	-0.2218488
-0.1760913	นับ ถอย	0
-0.4771213	นับ เวลา
-1.146128	นั่ง ติด
-1.146128	นั่ง ถูก
-1.146128	นั่ง ทำงาน
-1.146128	นั่ง ที่
-1.146128	นั่ง บี
-1.146128	นั่ง พรีวิเลจ
-1.146128	นั่ง พรีเมี่ยม
-1.146128	นั่ง มั้ย
-1.146128	นั่ง ริม
-1.146128	นั่ง เอ
-0.6690068	นั่ง แบบ
-1.146128	นั่ง แพง
0	นั้น ก็
-0.2174839	นาที </s>
-1.518514	นาที กลับ
-1.518514	นาที กี่
-1.217484	นาที นะ	0.2632414
-1.518514	นาที ปลุก
-1.518514	นาที ละ
-1.518514	นาที อะ
-1.518514	นาที เที่ยง
-1.518514	นาที เป็น
-1.217484	นาที แปด	0.3357921
-1.518514	นาที แล้ว
-1.518514	นาที ได้
-0.69897	นาน แค่ไหน
-0.09691001	นาน ไหม	-0.559308
0	นำ เสนอ
0	นิติ มี
-0.9542425	นี่ </s>
-0.9542425	นี่ กลับ
-0.1760913	นี่ มี	-0.6302708
-0.9542425	นี่ เครือ
-0.6434527	นี้ </s>
-1.518514	นี้ กิน	-0.3388186
-1.518514	นี้ กี่
-1.819544	นี้ คิว
-1.217484	นี้ คือ	-0.3309932
-1.518514	นี้ จัด	-0.1760913
-1.819544	นี้ ซ้ำ
-1.518514	นี้ ตอน
-1.819544	นี้ ต้อง
-0.6734159	นี้ มี	-0.2592485
-1.518514	นี้ วัน
-1.819544	นี้ ว่าง
-1.819544	นี้ ส่ง
-1.342423	นี้ หนัง	-0.1165056
-1.518514	นี้ ออก
-1.819544	นี้ อีก
-1.819544	นี้ อีกรอบ
-1.819544	นี้ เป็น
-1.217484	นี้ โรง	-0.5362427
-1.819544	นี้ ใคร
-1.819544	นี้ ใหม่
-1.518514	นี้ ให้	-0.2730013
-1.518514	นี้ ไม่ว่าง	0
0	นี้่ิ งาน
-0.544068	นึง </s>
-0.3679768	นึง นะ	0.1383027
-0.845098	นึง ปลุก
-0.845098	นึง ได้
-0.1249387	น่า กิน	-0.4357286
-0.60206	น่า สน
-0.9542425	น้ำ คน
-0.2552725	น้ำ ชั้น
-0.9542425	น้ำ ดื่ม
-0.9542425	น้ำ เสร็จ
-0.9542425	น้ำ แล้ว
0	น้ำตาล เท่า
0	น้ำปลา เท่า
0	บน ปฎิทิน	0
0	บริการ แท็กซี่
0	บรูซ วิลลิส
0	บลีช เทพ
0	บอก งาน
0	บัญชี ขาย
-0.4771213	บัตร สมาชิก
-0.1760913	บัตร เครดิต
0	บัว ลอย
-0.6532125	บาท </s>
-0.4771213	บาท กิน	-0.4637573
-0.3521825	บาท ที่	-0.5351132
0	บิวตี้ แอนด์	0
-0.60206	บี มาก
-0.60206	บี สิบ
-0.60206	บี อยู่
-0.60206	บี เท่าไหร่
0	บีทีเอส สถานี
0	บีสต์ มี
-0.30103	บุฟเฟต์ ที่
-0.30103	บุฟเฟต์ บ้าง
-1.079181	บ่าย </s>
-0.60206	บ่าย สอง
-1.079181	บ่าย สาม
-0.2340832	บ่าย โมง
0	บ้าง </s>
-0.4771213	บ้าน </s>
-0.1760913	บ้าน แล้ว	-0.1760913
0	บ๊ายบาย </s>
-0.4771213	ปฎิทิน ตอน
-0.1760913	ปฎิทิน บ้าง	0
0	ประชาสัมพันธ์ อยู่
-0.845098	ประชุม </s>
-1.322219	ประชุม กี่
-1.021189	ประชุม ครั้ง
-1.322219	ประชุม คราว
-1.322219	ประชุม งาน
-1.322219	ประชุม จาก
-0.544068	ประชุม ตอน	-0.1148216
-1.322219	ประชุม ทุ่ม
-1.322219	ประชุม บ่าย
-1.322219	ประชุม พรุ่งนี้
-1.322219	ประชุม วัน
-1.322219	ประชุม วันนี้
-1.322219	ประชุม สาม
0	ประดับ ได้
0	ประทับ ตรา
0	ประมาณ เท่า	0
0	ประเภท ไหน
-1.380211	ปลุก </s>
-0.90309	ปลุก ด้วย	-0.07918127
-0.6812412	ปลุก ตอน	-0.1983677
-1.380211	ปลุก ตี
-0.90309	ปลุก ทุก	-0.1249387
-1.380211	ปลุก นะ
-1.380211	ปลุก วันหยุด
-1.380211	ปลุก สิบ
-1.380211	ปลุก สี่
-1.380211	ปลุก หก
-1.380211	ปลุก อีก
-1.380211	ปลุก เก้า
-1.079181	ปลุก เรา
-1.380211	ปลุก แปด
-1.380211	ปลุก ไป
0	ปะ </s>
0	ปังเย็น มี
0	ปาร์ค ปิด
-0.3424227	ปิด กี่	-0.4036923
-0.4393327	ปิด บ้าง	0
-1.041393	ปิด เสียง
-1.041393	ปิด โปรแกรม
-0.30103	ปิ้ง ที่
-0.30103	ปิ้ง ร้าน
-0.4771213	ผม ซัก
-0.1760913	ผม แล้ว
0	ผลไม้ ขาย
0	ผักกาด ทำ
-0.5228788	ผัด กะเพรา
-1	ผัด ซีอิ๊ว
-0.5228788	ผัด มาม่า
-0.69897	ผัด ไข่
-1	ผัด ไทย
0	ผัดซีอิ๊ว กี่
0	ผ้า อ้อม
0	ฝน </s>
0	ฝาก ของ	-0.4288166
0	พร จาก	-0.4045706
0	พริก เท่า
0	พริกไทย เท่า
0	พรีวิเลจ คือ
0	พรีเมี่ยม ราคา
-0.09691001	พรุ่ง นี้	-0.5606673
-0.69897	พรุ่ง นี้่ิ
-0.615424	พรุ่งนี้ </s>
-1.217484	พรุ่งนี้ กี่	-0.1026624
-1.518514	พรุ่งนี้ กี่โมง
-1.217484	พรุ่งนี้ ตื่น	-0.3869447
-1.518514	พรุ่งนี้ ทั้ง
-1.518514	พรุ่งนี้ ทั้งวัน
-1.518514	พรุ่งนี้ ทั้งหมด
-1.518514	พรุ่งนี้ นี้
-1.518514	พรุ่งนี้ บ่าย
-0.819544	พรุ่งนี้ ปลุก	-0.1840602
-0.819544	พรุ่งนี้ มี	-0.1853831
-1.518514	พรุ่งนี้ เปลี่ยน
-1.217484	พรุ่งนี้ เรา	-0.2552725
-1.518514	พรุ่งนี้ ไม่
-1.518514	พรุ่งนี้ ไหม
-0.30103	พฤหัส นี้
-0.30103	พฤหัส เย็น
0	พอ แล้ว
0	พอส </s>
-0.30103	พะโล้ </s>
-0.30103	พะโล้ ใช้
0	พากย์ ไทย
0	พาณิชย์ อยู่
-0.845098	พารากอน </s>
-0.845098	พารากอน จ่าย
-0.845098	พารากอน ตอนนี้
-0.845098	พารากอน มั้ย
-0.845098	พารากอน อย่าง
-0.845098	พารากอน แถว
-0.845098	พารากอน ได้
0	พาราโบลา วัน
0	พิกัด ร้าน
0	พิการ ไหม
-0.30103	พิเศษ ทุก
-0.30103	พิเศษ บ้าง
-0.845098	พุธ </s>
-0.845098	พุธ นี้
-0.845098	พุธ มี
-0.845098	พุธ ศุกร์
-0.845098	พุธ หน้า
-0.845098	พุธ ห้า
-0.845098	พุธ ไป
0	พูด ว่า
0	ฟรี มั้ย
0	ฟัง เพลง
0	ฟันขาว เข้า
-0.30103	ฟิตเนส มี
-0.30103	ฟิตเนส ไหม
0	ฟิฟตี้ เชดส์
0	ฟ้า รอบ
-0.60206	ภาค ล่า
-0.60206	ภาค ล่าสุด
-0.60206	ภาค ว่า
-0.60206	ภาค ใหม่
0	มรณะ เดอะ
0	มหิต มี
0	มะรืน นี้
0	มังสวิรัติ หน่อย
-0.69897	มัน ปิ้ง
-0.69897	มัน อยู่
-0.2218488	มัน ไก่
0	มั้ย </s>
-0.69897	มา กิน
-0.39794	มา ต้ม	-0.1760913
-0.39794	มา สี่	-0.4357286
0	มาก กว่า
-0.4771213	มาบุญครอง บ้าง
-0.4771213	มาบุญครอง สอง
-0.4771213	มาบุญครอง อยู่
-0.1760913	มาม่า กัน	-0.20412
-0.7781513	มาม่า หน่อย
-0.7781513	มาม่า ใช้
0	มาย อาย
0	มารูน ไฟว์
0	มิยาบิ หมด
-2.173186	มี </s>
-1.872156	มี กี่
-2.173186	มี คน
-1.872156	มี ความ	0
-1.094005	มี งาน	-0.2678616
-2.173186	มี จุด
-2.173186	มี ชื่อ
-2.173186	มี ซีรีย์
-2.173186	มี ตลาด
-1.872156	มี ตั๋ว
-2.173186	มี ทำงาน
-1.218944	มี ที่	-0.4244149
-2.173186	มี ที่พัก
-1.696065	มี ธุระ	-0.1760913
-0.9690663	มี นัด	-0.1486026
-1.571126	มี ประชุม	-0.2340832
-2.173186	มี ผลไม้
-2.173186	มี ผักกาด
-2.173186	มี ฟิตเนส
-2.173186	มี รส
-2.173186	มี รองเท้า
-2.173186	มี รีวิว
-0.5397178	มี ร้าน	-0.2666212
-2.173186	มี ลิฟท์
-1.571126	มี วิธี	0
-2.173186	มี ส่วน
-1.474216	มี หนัง	-0.03732431
-2.173186	มี หมู
-2.173186	มี ห้อง
-1.328088	มี อะไร	-0.5733575
-2.173186	มี อายุ
-2.173186	มี อเมซอน
-1.571126	มี เงิน
-2.173186	มี เซเว่น
-1.872156	มี เรียน
-2.173186	มี เวลา
-2.173186	มี เอทีเอม
-1.872156	มี แบบ
-1.571126	มี โซน	0
-2.173186	มี โปรโมชัน
-1.872156	มี โปรโมชั่น
-2.173186	มี ไวไฟ
-2.173186	มี ไอติม
0	มีนา มี
0	มื้อ นี้
0	มูฟวี่ เป็น
0	ม้้ย </s>
-1.079181	ยกเลิก </s>
-1.079181	ยกเลิก กิจกรรม
-0.7781513	ยกเลิก งาน	-0.4507923
-0.7781513	ยกเลิก ตาราง	0.2218487
-1.079181	ยกเลิก ทุก
-0.3802112	ยกเลิก นัด	-0.1663314
0	ยัง ไง	0
0	ยังไง </s>
-0.30103	ยา ตอน
-0.30103	ยา ได้
-0.30103	ยาว กี่	-0.5170492
-0.7781513	ยาว มั้ย
-0.7781513	ยาว เท่า
-0.7781513	ยาว เท่าไหร่
0	ยาโยอิ ไหม
0	ยิน ว่า
0	ยี่ สิบ	-0.3162699
0	ยี่สิบ นาที
0	ยืนยัน เพิ่ม
-0.3679768	ยู </s>
-0.845098	ยู อร่อย
-0.845098	ยู โอ
-0.845098	ยู ไป
-0.845098	ยู ไอ
0	ย่อ ของ
0	ย้าย งาน
-0.90309	รถ ชั้น
-0.4259687	รถ ดับ	0
-0.90309	รถ บ้าง
-0.90309	รถ ได้
-0.60206	รถ ไฟฟ้า
-0.4771213	รส จัด
-0.4771213	รส อะไร
-0.4771213	รส ใหม่
0	รหัส หก
0	รอ นาน
0	รองเท้า ให้
-1.113943	รอบ </s>
-1.113943	รอบ จุฬา
-0.8129134	รอบ ฉาย	-0.3899711
-1.113943	รอบ ต่อ
-0.6368221	รอบ นอก	0
-1.113943	รอบ สอง
-1.113943	รอบ สาม
-0.8129134	รอบ หก	0
-1.113943	รอบ ไหน
-0.4771213	ระหว่าง ก๋วยเตี๋ยว
-0.4771213	ระหว่าง สเต็ก
-0.4771213	ระหว่าง ส้ม
-0.39794	รับ ฝาก	0
-0.69897	รับ สมัคร
-0.69897	รับ เรื่อง
-0.69897	รับ เหรียญ
-0.20412	ราคา เท่า	-0.30103
-0.60206	ราคา เท่าไหร่	0
-0.90309	ราคา ไหน
0	รางวัล อะไร
-0.09691001	ราย ชื่อ	-0.30103
-0.69897	ราย ได้
0	รายการ ที่
-0.30103	รายงาน พรุ่งนี้
-0.30103	รายงาน วันนี้
0	รายชื่อ สาขา
0	รายได้ สูง
0	ริม ว่าง
0	ริฮันนา </s>
-0.30103	รีวิว เท่าไหร่
-0.30103	รีวิว เป็น
0	รึยัง </s>
0	รุจิศรี เมนู
-0.4771213	ร้อง </s>
-0.1760913	ร้อง ไห้
0	ร้อย บาท	-0.1918855
-1.80618	ร้าน กาแฟ
-1.329059	ร้าน ก๋วยเตี๋ยว
-1.80618	ร้าน ขนม
-1.80618	ร้าน ขาย
-1.80618	ร้าน ทูเดย์
-1.80618	ร้าน บุฟเฟต์
-1.80618	ร้าน มิยาบิ
-1.80618	ร้าน ยาโยอิ
-1.329059	ร้าน สเต็ก
-0.5509075	ร้าน อาหาร	-0.9128495
-1.80618	ร้าน เจฟเฟอร์
-1.80618	ร้าน เด็ด
-1.80618	ร้าน เปิด
-1.80618	ร้าน เสริมสวย
-1.80618	ร้าน เอ็ม
-1.50515	ร้าน ใน
-0.4259687	ร้าน ไหน	-0.717758
-1.80618	ร้าน ไอที
-1.80618	ร้าน ไอเดีย
-0.60206	ลด สำหรับ
-0.60206	ลด อะไร
-0.60206	ลด อีก
-0.60206	ลด เสียง
0	ลบ เพลง
0	ลวก </s>
0	ลอย สวีท
-0.1760913	ละ กัน	-0.07918127
-0.4771213	ละ ห้า
-0.9542425	ลา ก่อน
-0.3521825	ลา ลา	-0.4436975
-0.3521825	ลา แลนด์
0	ลางาน สาม
0	ลาน โบว์ลิ่ง
0	ลิฟท์ ตรง
0	ลิโด้ มั้ย
0	ลืม ปลุก
0	ลุก แล้ว
0	ลุง ที่
0	ลูก ทุ่ง
0	ล็อบสเตอร์ เข้า
0	ล่า สุด
0	ล่าสุด </s>
-0.544068	วอล มี	-0.4712523
-0.845098	วอล รอบ
-0.544068	วอล วันนี้
-0.845098	วอล เข้า
-0.845098	วอล เป็น
0	วัตถุดิบ อะไร	-0.551223
-1.550228	วัน </s>
-0.9481683	วัน จันทร์	0
-1.851258	วัน ตอน
-1.851258	วัน ทำงาน
-0.8970158	วัน ที่	-0.3309932
-0.737315	วัน นี้	-0.3086399
-1.249198	วัน พรุ่งนี้
-1.550228	วัน พฤหัส
-1.374137	วัน พุธ
-1.851258	วัน มะรืน
-1.550228	วัน มี
-1.152288	วัน ศุกร์	-0.09691001
-1.851258	วัน อะ
-1.152288	วัน อังคาร
-1.851258	วัน อาทิตย์
-1.249198	วัน เสาร์
-1.851258	วัน ไป
-1.073107	วัน ไหน	-0.5563025
-1.550228	วัน ไหม	0.5509075
-0.30103	วันที่ ยี่
-0.30103	วันที่ แปด
-0.8016323	วันนี้ </s>
-1.278754	วันนี้ ตั้งแต่
-0.9777236	วันนี้ ต้อง	-0.30103
-1.278754	วันนี้ ทั้งหมด
-1.278754	วันนี้ ที่
-1.278754	วันนี้ นอนได้
-1.278754	วันนี้ นี้
-0.6766936	วันนี้ มี	-0.5811621
-1.278754	วันนี้ หน่อย
-0.9777236	วันนี้ เหลือ
-0.9777236	วันนี้ ไป
-0.30103	วันศุกร์ นี้
-0.30103	วันศุกร์ มี
0	วันหยุด นี้
0	วันเสาร์ นี้
0	วันไหน บ้าง
0	วาน มี
0	วานซืน ทำ
-0.30103	วิธี ทำ	-0.446087
-0.30103	วิธี อื่น
-0.4771213	วิธีทำ ข้าว
-0.1760913	วิธีทำ ผัด
0	วินาที </s>
0	วิฟ มี
0	วิลลิส เล่น
-0.60206	วิศวะ กับ
-0.60206	วิศวะ มี
-0.30103	วิศวะ เปิด	-0.3174204
-0.4771213	ว่า มี
-0.1760913	ว่า อะไร
-0.7781513	ว่าง </s>
-0.7781513	ว่าง ตอน
-0.7781513	ว่าง บ้าง
-0.7781513	ว่าง มั้ย
-0.7781513	ว่าง วัน
-0.7781513	ว่าง ไหม
-0.30103	ศิลปิน ริฮันนา
-0.30103	ศิลปิน โจอี้บอย
-0.30103	ศุกร์ </s>
-0.7781513	ศุกร์ จัด
-0.7781513	ศุกร์ ตอน
-0.7781513	ศุกร์ ยกเลิก
0	สคิป หอ
0	สตางค์ ไหม
-0.60206	สตาร์วอร์ ที่
-0.60206	สตาร์วอร์ ภาค
-0.60206	สตาร์วอร์ มี
-0.60206	สตาร์วอร์ ได้
0	สต็อป </s>
-0.4771213	สถานี รถ
-0.1760913	สถานี อะไร	-0.3814719
0	สน ใจ
-0.30103	สมัคร งาน
-0.30103	สมัคร สมาชิก
-0.4771213	สมาชิก มั้ย
-0.4771213	สมาชิก มี
-0.4771213	สมาชิก เมเจอร์
0	สยอง ขวัญ
-0.30103	สยาม สแควร์
-0.30103	สยาม เซนเตอร์
0	สระ ผม	0
0	สร้าง งาน
0	สวิฟ </s>
0	สวีท เซอเคิล
-1.30103	สอง </s>
-1.30103	สอง ครึ่ง
-1	สอง ชั่วโมง
-1.30103	สอง ถึง
-1.30103	สอง ที่
-1.30103	สอง ที่นั่ง
-0.69897	สอง ทุ่ม
-1	สอง นาที
-1.30103	สอง มี
-1.30103	สอง ร้อย
-1.30103	สอง วัน
-1.30103	สอง เดือน
-1.30103	สอง เรื่อง
-1.30103	สอง ไป
-1.30103	สอง ไส้
0	สอน ทำ	-0.5789947
0	สะสาง บ้าง
0	สับ ทำ
-0.06694679	สัปดาห์ นี้	-0.6488034
-0.845098	สัปดาห์ หน้า
-0.4771213	สั่ง ที่
-0.4771213	สั่ง รอบ
-0.4771213	สั่ง ใน
-0.30103	สาขา </s>
-0.30103	สาขา ของ
-1.20412	สาม ชั่วโมง
-1.20412	สาม ทุ่ม
-1.20412	สาม นาที
-1.20412	สาม บ้าง
-1.20412	สาม ร้อย
-1.20412	สาม ร้าน
-1.20412	สาม วัน
-1.20412	สาม สิงหา
-0.90309	สาม สิบ
-1.20412	สาม หมู
-0.60206	สาม โมง
-1.20412	สาม ไป
0	สามย่าน กับ
0	สาย รหัส
-0.30103	สำหรับ สมาชิก
-0.30103	สำหรับ ห้า
0	สิงหา มี
-1.623249	สิบ </s>
-1.623249	สิบ ชั่วโมง
-1.623249	สิบ ถึง
-0.5818566	สิบ นาที	-0.1597008
-1.623249	สิบ บาท
-1.623249	สิบ มี
-1.623249	สิบ มีนา
-1.623249	สิบ ร้าน
-1.623249	สิบ วินาที
-1.021189	สิบ สอง	-0.2552725
-1.623249	สิบ สาม
-1.322219	สิบ สี่
-1.322219	สิบ ห้า
-1.623249	สิบ อันดับ
-1.623249	สิบ เจ็ด
-1.146128	สิบ เอ็ด	0
-0.6690068	สิบ โมง	-0.4259687
-0.30103	สิบเอ็ด </s>
-0.30103	สิบเอ็ด วัน
0	สิ้น เดือน
-1.342423	สี่ </s>
-1.041393	สี่ จ่าย	0
-1.041393	สี่ ชั่วโมง
-0.7403627	สี่ ทุ่ม	-0.2138798
-1.342423	สี่ พรุ่งนี้
-1.342423	สี่ มี
-0.8653014	สี่ สิบ
-1.342423	สี่ เดือน
-0.5642715	สี่ โมง	-0.5720968
-1.342423	สี่ ไป
0	สุกี้ แห้ง
-0.447158	สุด </s>
-1.146128	สุด ที่
-1.146128	สุด พรุ่งนี้
-1.146128	สุด มี
-0.845098	สุด ราคา	-0.05115253
-1.146128	สุด สถานี
-1.146128	สุด สอง
-1.146128	สุด อยู่
-1.146128	สุด ได้
0	สุดท้าย พรุ่งนี้
-0.4771213	สุภาพ ก็ได้
-0.1760913	สุภาพ หน่อย
0	สุ่ม เพลง
0	สูง สุด	-0.2852357
0	สูตร อาหาร	-0.7067953
-0.30103	สเตย์ </s>
-0.30103	สเตย์ วิฟ
-0.544068	สเต็ก งบ
-0.845098	สเต็ก รอบ
-0.544068	สเต็ก ร้าน
-0.845098	สเต็ก สามย่าน
-0.845098	สเต็ก ใน
-0.2218488	สแควร์ มี	-0.4541796
-0.69897	สแควร์ รับ
-0.69897	สแควร์ วัน
-0.4771213	ส่ง งาน
-0.1760913	ส่ง รายงาน
0	ส่วน ลด
0	ส้ม ตำ	0
0	ส้มตำ ข้าง
0	หก โมง	-0.3415444
-1.591065	หนัง ของ
-1.591065	หนัง ทั้งหมด
-1.113943	หนัง ที่	-0.5851921
-1.591065	หนัง ประเภท
-1.591065	หนัง ฟรี
-1.591065	หนัง ราคา
-1.591065	หนัง สยอง
-1.290035	หนัง อยู่
-1.591065	หนัง เมเจอร์
-0.2486419	หนัง เรื่อง	0.04878394
-1.290035	หนัง เอส	0
-1.591065	หนัง แนว
-1.591065	หนัง แอ็คชั่น
-1.591065	หนัง ไทย
-0.845098	หนึ่ง ชั่วโมง
-0.845098	หนึ่ง บ้าง
-0.845098	หนึ่ง มี
-0.544068	หนึ่ง ร้อย	0
-0.845098	หนึ่ง แถม
-0.845098	หนึ่ง ไป
-0.07255067	หน่อย </s>
-0.8129134	หน่อย นะ	0.04139268
-0.39794	หน้า </s>
-0.39794	หน้า มี	-0.6625043
-1	หน้า วัน
-1	หน้า สี่
-0.30103	หมด </s>
-0.60206	หมด ของ
-0.60206	หมด เขต
-0.4771213	หมอ กี่โมง
-0.4771213	หมอ บ่าย
-0.4771213	หมอ วันที่
-0.60206	หมู ทอด
-0.60206	หมู ปิด
-0.60206	หมู สับ
-0.60206	หมู แดง
0	หมูสับ </s>
-0.4771213	หยุด </s>
-0.4771213	หยุด ชั่ว
-0.4771213	หยุด เพลง
-0.4771213	หรือ ซาวด์แทรก
-0.4771213	หรือ สตาร์วอร์
-0.4771213	หรือ เปล่า
-0.60206	หลัง สาม
-0.60206	หลัง สิบ
-0.60206	หลัง สี่
-0.60206	หลัง สุด
0	หลับ อะ
-0.30103	หวาน </s>
-0.30103	หวาน มี
-0.30103	หอ ยู
-0.30103	หอ ใน
0	หา วิธีทำ	0
0	หาย ติดต่อ
0	ห่าง จอ
0	ห้อง น้ำ	-0.4259687
-1.447158	ห้า </s>
-1.447158	ห้า คน
-1.447158	ห้า จะ
-1.447158	ห้า ตอน
-1.447158	ห้า ทุ่ม
-0.447158	ห้า นาที	-0.04575745
-1.447158	ห้า บาท
-1.447158	ห้า มี
-1.146128	ห้า ร้อย	0
-1.447158	ห้า วัน
-1.447158	ห้า สิบ
-1.447158	ห้า อันดับ
-1.447158	ห้า เพลง
-0.845098	ห้า โมง	-0.08715016
-1.447158	ห้า ไป
0	ห้าม เล่น	0.3521825
0	อกหัก </s>
0	อด ทน
-0.3590219	อยาก กิน	-0.2808266
-1.20412	อยาก ตื่น
-0.7269987	อยาก ทำ
-0.7269987	อยาก นอน	-0.1760913
-1.20412	อยาก ฟัง
-1.20412	อยาก สระ
-1.255273	อยู่ </s>
-0.7781513	อยู่ ชั้น	-0.4423591
-0.9542425	อยู่ ตรง	0
-0.30103	อยู่ ที่	-0.8361432
-0.9542425	อยู่ บน	0
-1.255273	อยู่ ใน
0	อย่า ลืม
0	อย่าง ไร
-0.30103	อย่างไร </s>
-0.30103	อย่างไร บ้าง
-0.3679768	อร่อย </s>
-0.3679768	อร่อย กว่า	-0.2340832
-0.845098	อร่อย ไหม
-0.243038	ออก จาก	-0.5392691
-0.845098	ออก ทาง
-0.845098	ออก โรง
-0.845098	ออก ไป
-0.1760913	ออฟ ยู	-0.2340832
-0.4771213	ออฟ ออฟ
-0.1760913	อะ </s>
-0.7781513	อะ กี่
-0.7781513	อะ ไร
-0.7040495	อะไร </s>
-1.934498	อะไร กิน
-1.633469	อะไร ก็	0
-1.457377	อะไร ฉาย	-0.3899711
-1.0894	อะไร ดี	-0.4259687
-1.457377	อะไร ต้อง	-0.30103
-1.633469	อะไร นะ	0.2632414
-1.633469	อะไร น่า
-0.3904304	อะไร บ้าง	0
-1.934498	อะไร พิเศษ
-1.633469	อะไร มั้ย	0
-1.0894	อะไร วอล	0
-1.633469	อะไร อยู่	-0.4259687
-1.934498	อะไร ได้
-1.934498	อะไร ไป
-0.69897	อะไรวอล </s>
-0.69897	อะไรวอล ฉาย
-0.69897	อะไรวอล ที่
-0.69897	อะไรวอล บ้าง
-0.69897	อะไรวอล หรือ
-0.1760913	อักษร มี	-0.3292409
-0.4771213	อักษร ร้าน
-0.69897	อังคาร </s>
-0.69897	อังคาร ตอน
-0.69897	อังคาร ทั้ง
-0.69897	อังคาร ว่าง
-0.69897	อังคาร ห้า
0	อันดับ แรก	-0.3679768
-0.30103	อันเดอร์วอเตอร์เวิล์ด ปิด
-0.30103	อันเดอร์วอเตอร์เวิล์ด เปิด
-0.4771213	อัลบั้ม อะไร
-0.1760913	อัลบั้ม เดอะ
-0.845098	อาทิตย์ </s>
-0.845098	อาทิตย์ ถึง
-0.243038	อาทิตย์ นี้	-0.1974894
-0.845098	อาทิตย์ หน้า
0	อาบ น้ำ
0	อาย ออฟ
0	อายุ เท่า
-1.518514	อาหาร กลางวัน
-1.217484	อาหาร คณะ
-1.217484	อาหาร จีน
-1.217484	อาหาร ญี่ปุ่น
-1.041393	อาหาร ตาม	0
-1.518514	อาหาร ตึก
-1.041393	อาหาร ที่	-0.3132645
-1.518514	อาหาร นี้
-1.518514	อาหาร มหิต
-1.518514	อาหาร มังสวิรัติ
-1.518514	อาหาร ร้าน
-1.518514	อาหาร หอ
-1.217484	อาหาร เกาหลี
-1.217484	อาหาร เวียดนาม
-1.518514	อาหาร แนะนำ
-0.819544	อาหาร ไข่
-1.217484	อาหาร ไทย
-1.217484	อาหาร ไหน
0	อินเซปชั่น ได้
-1.079181	อีก </s>
-0.90309	อีก กี่	-0.6931404
-0.90309	อีก ครึ่ง	-0.5625514
-0.90309	อีก ชั่วโมง	-0.6532125
-1.681241	อีก ที
-1.079181	อีก นาน	0.09691
-1.681241	อีก ปะ
-1.681241	อีก ยี่
-1.681241	อีก ยี่สิบ
-1.681241	อีก รอบ
-1.380211	อีก สอง	-0.4313638
-1.20412	อีก สิบ	-0.3452337
-1.681241	อีก สิบเอ็ด
-1.681241	อีก สี่
-1.681241	อีก หน่อย
-0.7781513	อีก ห้า	-0.7112045
-1.681241	อีก ไหม
0	อีกรอบ </s>
0	อีเมล ตอน
0	อีเมล์ ตอน
-0.7781513	อื่น </s>
-0.7781513	อื่น ปะ
-0.7781513	อื่น ยังไง
-0.4771213	อื่น อีก
-0.7781513	อื่น ไหม
0	อุปกรณ์ กีฬา
0	อเมซอน กี่
0	อ้อม เด็ก
-0.30103	อ้อย ทำ
-0.30103	อ้อย ร้าน
0	อ้าว </s>
0	ฮันนี่มูน ซีท
0	ฮาจิบัง ต้อง
0	เกลือ เท่า
-0.30103	เกาหลี อะไร
-0.30103	เกาหลี ไหม
-0.30103	เกาเหลา ที่
-0.30103	เกาเหลา สาม
0	เกิน สี่
0	เกี่ยว กับ
-0.60206	เก้า เอ
-0.60206	เก้า แบบ
-0.30103	เก้า โมง
0	เขต วัน
0	เขียน ได้
0	เขียว หวาน
-0.7781513	เข้า รึยัง
-0.7781513	เข้า วัน
-0.7781513	เข้า ออก
-0.7781513	เข้า เมื่อไหร่
-0.4771213	เข้า โรง
0	เค ไหม
-0.30103	เครดิต พารากอน
-0.30103	เครดิต ได้
0	เครป หอ
0	เครือ อะไร
-0.4771213	เครื่อง ดนตรี
-0.4771213	เครื่อง ประดับ
-0.4771213	เครื่อง เขียน
0	เคลียร์ ตาราง
0	เคเอฟซี ใช้
-0.7781513	เงิน ที่
-0.7781513	เงิน สอง
-0.7781513	เงิน สูง
-0.7781513	เงิน หนึ่ง
-0.7781513	เงิน ห้า
-0.7781513	เงิน เท่าไร
-0.30103	เงียบ </s>
-0.60206	เงียบ เงียบ
-0.60206	เงียบ ได้
-0.30103	เจฟเฟอร์ ที่
-0.30103	เจฟเฟอร์ ไหม
-0.4771213	เจียว </s>
-0.4771213	เจียว ยังไง
-0.4771213	เจียว ใช้
-0.4771213	เจ็ด เดือน
-0.1760913	เจ็ด โมง	-0.2710668
0	เจ้า ของ
-0.69897	เจ๊ ดาว
-0.39794	เจ๊ อ้อย
-0.69897	เจ๊ แดง
-0.69897	เจ๊ โอว
0	เชดส์ เรตติ้ง
0	เชพ ออฟ
-0.4771213	เชื่อม รถ
-0.1760913	เชื่อม สยาม
-0.1760913	เช็ค งาน
-0.4771213	เช็ค อีเมล์
0	เช่า ไหม
-0.6532125	เช้า </s>
-0.9542425	เช้า นะ
-0.9542425	เช้า นี้
-0.9542425	เช้า พรุ่งนี้
-0.6532125	เช้า วัน
-0.9542425	เช้า อะ
-0.9542425	เช้า เช้า
0	เซ เยส
0	เซนเตอร์ ไป
0	เซอเคิล เมนู
0	เซเว่น กี่
-0.30103	เซ็นทรัลเวิลด์ มี
-0.30103	เซ็นทรัลเวิลด์ รอบ
-0.4771213	เดอะ บีสต์	0
-0.7781513	เดอะ มูฟวี่
-0.7781513	เดอะ ล็อบสเตอร์
-0.7781513	เดอะ เรด
-0.7781513	เดอะ เววเวต
-0.9542425	เดือน </s>
-0.9542425	เดือน กุมภา
-0.6532125	เดือน นี้
-0.2552725	เดือน หน้า	-0.07918119
0	เด็ก ไหม
-0.3521825	เด็ด บ้าง	0
-0.9542425	เด็ด รอบ
-0.3521825	เด็ด เด็ด	-0.4436975
-1.230449	เตือน </s>
-1.230449	เตือน กิน
-0.9294189	เตือน ครึ่ง	-0.2615215
-0.6283889	เตือน ด้วย	-0.07918127
-1.230449	เตือน พรุ่งนี้
-1.230449	เตือน ลางาน
-1.230449	เตือน สาม
-1.230449	เตือน สิบ
-1.230449	เตือน ห้า
-1.230449	เตือน เที่ยง
-0.9294189	เตือน ให้
-1.230449	เตือน ไป
0	เถอะ </s>
0	เทค มาย
0	เทพ มรณะ
-0.69897	เที่ยง </s>
-0.69897	เที่ยง คืน
-1	เที่ยง ถึง
-0.5228788	เที่ยง นะ	-0.3899711
-1	เที่ยง นี้
-1	เที่ยง หน่อย
0	เทเลอร์ สวิฟ
-0.4771213	เท่า ไร	0.1249387
-0.1760913	เท่า ไหร่	0
0	เท่าไร </s>
0	เท่าไหร่ </s>
0	เนย ไหม
0	เนี่ย </s>
0	เนื้อ เพลง
0	เบอร์ โทร
-0.69897	เบา หน่อย
-0.69897	เบา อีก
-0.69897	เบา เบา
-0.39794	เบา เสียง
-0.60206	เปลี่ยน </s>
-0.60206	เปลี่ยน ประชุม
-0.60206	เปลี่ยน ผ้า
-0.60206	เปลี่ยน เป็น
0	เปล่า </s>
-0.5118834	เปิด กี่	-0.3245111
-1.113943	เปิด ทุก
-1.113943	เปิด ยี่
-1.113943	เปิด เกิน
-1.113943	เปิด เนื้อ
-0.5118834	เปิด เพลง
-1.113943	เปิด ใหม่
-0.7781513	เป็น กัน	-0.50515
-1.255273	เป็น บุฟเฟต์
-1.255273	เป็น พากย์
-0.9542425	เป็น วัน
-0.9542425	เป็น สี่	-0.3388186
-0.9542425	เป็น หนัง
-0.9542425	เป็น อย่างไร
-1.255273	เป็น เจ้า
-1.255273	เป็น เพื่อน
-0.9542425	เป็น เวลา
-1.255273	เป็น แบบ
-0.9852768	เพลง </s>
-1.286307	เพลง ก่อน	-0.2552725
-1.763428	เพลง ก่อนหน้า
-1.161368	เพลง ของ	-0.2527253
-1.763428	เพลง ครึ่ง
-1.763428	เพลง คู่
-0.9852768	เพลง จาก	-0.5762528
-1.763428	เพลง ชะตา
-1.763428	เพลง ชูกา
-1.161368	เพลง ต่อไป
-1.763428	เพลง ที่แล้ว
-0.8091855	เพลง นี้	-0.2228347
-1.763428	เพลง บ้าง
-1.763428	เพลง ฝน
-1.763428	เพลง ลูก
-1.462398	เพลง สเตย์
-1.763428	เพลง หน่อย
-1.763428	เพลง อกหัก
-1.286307	เพลง อะไร	-0.4669021
-1.763428	เพลง อื่น
-1.763428	เพลง อ้าว
-1.763428	เพลง เชพ
-1.763428	เพลง เซ
-1.763428	เพลง แคนท์
-1.462398	เพลง โปรด	0
-1.763428	เพลง ใกล้
-1.763428	เพลง ไกล
-1.763428	เพลง ไอ
0	เพลย์ลิส </s>
0	เพลลิสต์ เพลง	-0.4379691
-0.4771213	เพลิง </s>
-0.4771213	เพลิง หน่อย
-0.4771213	เพลิง เร็ว
-1.176091	เพิ่ม การ
-0.8750613	เพิ่ม ตาราง	0.2218487
-0.39794	เพิ่ม นัด
-1.176091	เพิ่ม วัน
-1.176091	เพิ่ม อีก
-1.176091	เพิ่ม เวลา
-1.176091	เพิ่ม เสียง
-0.8750613	เพิ่ม ใน	-0.4101745
-0.4771213	เพื่อน คุย
-0.4771213	เพื่อน วัน
-0.4771213	เพื่อน เหรอ
-0.845098	เมนู ต้ม
-0.845098	เมนู ทอด
-0.544068	เมนู นี้
-0.845098	เมนู รส
-0.544068	เมนู ไหน	-0.4678806
-0.4771213	เมื่อ วัน
-0.4771213	เมื่อ วาน
-0.4771213	เมื่อ วานซืน
0	เมื่อคืน นอน
-0.4771213	เมื่อวาน ฉัน
-0.4771213	เมื่อวาน นี้
-0.4771213	เมื่อวาน มี
0	เมื่อไหร่ </s>
-0.2218488	เมเจอร์ พารากอน
-0.69897	เมเจอร์ ราคา
-0.69897	เมเจอร์ แถว
0	เยส </s>
-0.6532125	เย็น </s>
-0.9542425	เย็น ถึง
-0.9542425	เย็น นี้
-0.6532125	เย็น มี
-0.9542425	เย็น วัน
-0.9542425	เย็น วันนี้
-0.9542425	เย็น เป็น
0	เย็นนี้ ยกเลิก
0	เรด </s>
0	เรตติ้ง เท่าไหร่
-0.69897	เรา จบ
-0.39794	เรา ต้อง	-0.4149733
-0.69897	เรา สิบ
-0.69897	เรา หก
-0.60206	เริ่ม จับ
-0.60206	เริ่ม ต้น
-0.60206	เริ่ม นับ
-0.60206	เริ่ม เพลง
0	เรียก รถ	-0.39794
0	เรียง นัด	-0.4593925
-0.90309	เรียน กี่
-0.90309	เรียน ทุก
-0.60206	เรียน บ่าย
-0.90309	เรียน พิเศษ
-0.60206	เรียน วัน	-0.4252035
-0.90309	เรียน แปด
0	เรียนพิเศษ อยู่
0	เรือ ร้าน
-1.50515	เรื่อง ดรีม
-1.50515	เรื่อง ทองดี
-1.50515	เรื่อง บิวตี้
-1.50515	เรื่อง ฟิฟตี้
-1.50515	เรื่อง ย่อ
-1.028029	เรื่อง ลา	-0.3467875
-1.50515	เรื่อง สตาร์วอร์
-0.4637573	เรื่อง อะไร	-0.9877077
-1.028029	เรื่อง อะไรวอล
-1.50515	เรื่อง อินเซปชั่น
-1.50515	เรื่อง เดอะ
-1.50515	เรื่อง เลโก
-1.50515	เรื่อง โลแกน
-0.80618	เรื่อง ไหน	-0.3840042
-0.30103	เร็ว </s>
-0.30103	เร็ว ที่
0	เลิฟ ยู
0	เลี้ยง สาย
-0.69897	เลื่อน นัด
-0.39794	เลื่อน ประชุม
-0.69897	เลื่อน ส่ง
-0.69897	เลื่อน เวลา
0	เลโก แบ็ทแมน
-1.431364	เล่น หนัง
-1.431364	เล่น ห้า
-0.06963593	เล่น เพลง	-0.2515124
-1.130334	เล่น โบว์ลิ่ง
-0.6368221	เวลา </s>
-1.113943	เวลา ครึ่ง
-1.113943	เวลา ปลุก
-1.113943	เวลา ว่าง
-1.113943	เวลา สี่
-0.4149733	เวลา เตือน
-1.113943	เวลา เรียน
0	เววเวต </s>
-0.30103	เวียดนาม อะไร
-0.30103	เวียดนาม ไหม
0	เศรษฐศาสตร์ มี
0	เสนอ โปรเจค
0	เสริมสวย อะไร
0	เสร็จ แล้ว
-0.69897	เสาร์ ติด
-0.69897	เสาร์ ที่
-0.69897	เสาร์ นี้
-0.69897	เสาร์ หน้า
-0.69897	เสาร์ ไป
-0.09691001	เสียง </s>
-0.69897	เสียง หน่อย
0	เสือ ร้อง
0	เส้น ทาง	-0.4149733
0	เหมือน โรง
0	เหรอ คุย
0	เหรียญ สตางค์
-0.4771213	เหลือ งาน
-0.4771213	เหลือ อีก
-0.4771213	เหลือ ใน
-0.30103	เอ สิบ
-0.30103	เอ เก้า
-0.4771213	เอง ก็ได้
-0.4771213	เอง ขนาด
-0.4771213	เอง หน่อย
0	เอทีเอม จุด
0	เอน นอน
-0.4771213	เอฟ ที่
-0.4771213	เอฟ มาบุญครอง
-0.4771213	เอฟ แถว
0	เอส เอฟ
-0.4771213	เอา ออก
-0.1760913	เอา เพลง	-0.4038894
0	เอ็กซ์ มั้ย
0	เอ็ด โมง	-0.2632414
-0.1760913	เอ็ม ดี	-0.4393327
-0.4771213	เอ็ม เค
0	เฮท ยู
0	แกง เขียว
0	แคนท์ เทค
0	แคนเซิล นัด
-0.243038	แคลอรี่ </s>
-0.845098	แคลอรี่ ข้าว
-0.845098	แคลอรี่ อาหาร
-0.845098	แคลอรี่ เมนู
0	แค่ นี้
0	แค่ไหน </s>
0	แจ้ง เตือน	-0.1674911
-0.30103	แดง กับ
-0.30103	แดง ใน
0	แถม หนึ่ง
-1	แถว จุฬา
-0.69897	แถว ที่
-0.69897	แถว นี้
-1	แถว หลัง
-1	แถว อะไร
-1	แถว แถว
-1	แถว แอล
-1	แถว ไหน
0	แท็กซี่ อยู่
0	แนว อะไร
-0.4771213	แนะนำ อาหาร
-0.30103	แนะนำ เมนู
-0.7781513	แนะนำ ไหม
-1.041393	แบบ ชาบู
-1.041393	แบบ ทรี
-1.041393	แบบ สุภาพ
-0.7403627	แบบ อื่น
-1.041393	แบบ ฮันนี่มูน
-1.041393	แบบ เป็น
-1.041393	แบบ โซฟา
-1.041393	แบบ โฟร์
-1.041393	แบบ ใส่
-1.041393	แบบ ไหน
0	แบ็ทแมน ยาว
-1.113943	แปด ชั่วโมง
-1.113943	แปด ว่าง
-0.07255067	แปด โมง	-0.2010935
0	แพง สุด
0	แพทย์ </s>
-0.6532125	แรก </s>
-0.3521825	แรก ของ
-0.9542425	แรก คือ
-0.9542425	แรก วัน
-0.9542425	แรก สุด
0	แรนดอม เพลง
0	แรนด้อม เพลง
0	แลก เงิน
-0.60206	แลนด์ บ้าง
-0.60206	แลนด์ รอบ
-0.60206	แลนด์ เข้า
-0.60206	แลนด์ ได้
0	และ กล้วย
-0.30103	แล้ว </s>
-1.255273	แล้ว จะ
-1.255273	แล้ว นอน
-1.255273	แล้ว นะ
-1.255273	แล้ว มี
-1.255273	แล้ว เงียบ
-1.255273	แล้ว เตือน
-0.9542425	แล้ว เนี่ย	0
-1.255273	แล้ว เมื่อ
0	แว่น ได้
0	แสดง เรื่อง
0	แห้ง </s>
0	แอนด์ เดอะ	-0.30103
0	แอม ปาร์ค
0	แอล มี
0	แอ็คชั่น เรื่อง
-0.1760913	แฮรี่พอตเตอร์ ภาค
-0.4771213	แฮรี่พอตเตอร์ รอบ
-0.6232493	โกวาจี </s>
-1.322219	โกวาจี ขอ
-1.322219	โกวาจี ขอบคุณ
-1.322219	โกวาจี จอง
-1.322219	โกวาจี บ๊ายบาย
-1.322219	โกวาจี ลา
-1.322219	โกวาจี วันนี้
-1.322219	โกวาจี อีก
-1.322219	โกวาจี เพิ่ม
-1.322219	โกวาจี เรา
-0.544068	โกวาจี เล่น	0.05115253
-1.322219	โกวาจี แรนด้อม
0	โฆษณา ยาว
0	โจอี้บอย </s>
-0.09691001	โซน อะไร	-0.4720417
-0.69897	โซน เรียนพิเศษ
0	โซฟา มั้ย
0	โทร เมเจอร์
0	โทรศัพท์ ได้
-0.4771213	โบว์ลิ่ง ชื่อ
-0.4771213	โบว์ลิ่ง มี
-0.4771213	โบว์ลิ่ง ราคา
0	โปรด </s>
0	โปรเจค วัน
0	โปรแกรม </s>
-0.60206	โปรโมชัน ดู
-0.60206	โปรโมชัน ทั้ง
-0.60206	โปรโมชัน ที่
-0.60206	โปรโมชัน มา
-0.30103	โปรโมชั่น อะไร
-0.30103	โปรโมชั่น ไหม
0	โฟร์ ดี
-0.4101745	โมง </s>
-0.9542425	โมง ครึ่ง	-0.7522154
-1.352183	โมง ดี	-0.09690998
-1.653213	โมง ถึง
-1.477121	โมง ทุก	-0.39794
-1.109144	โมง นะ	0
-1.954242	โมง บ้าง
-1.653213	โมง มี	-0.4682879
-1.954242	โมง ละ
-1.954242	โมง วัน
-1.653213	โมง วันนี้
-1.954242	โมง สาม
-1.954242	โมง สิบ
-1.653213	โมง ห้า	-0.2852357
-1.176091	โมง เช้า	-0.2218487
-1.954242	โมง เป็น
-1.109144	โมง เย็น	-0.03698356
-1.653213	โมง แล้ว	-0.1760913
-1.954242	โมง ไป
-1.954242	โมง ไม่
-1.20412	โรง พารากอน
-1.20412	โรง ลิโด้
-0.4259687	โรง หนัง	-0.4301247
-0.50515	โรง อาหาร	-0.1946965
-1.20412	โรง อื่น
-1.20412	โรง เซ็นทรัลเวิลด์
-1.20412	โรง ไอแม็กซ์
0	โรงหนัง เมเจอร์
0	โรตี ลุง
-0.30103	โลแกน เข้า
-0.30103	โลแกน ได้
0	โอ บี
0	โอว ตอน
-0.69897	ใกล้ </s>
-0.39794	ใกล้ ที่	-0.455932
-0.69897	ใกล้ ใกล้
-0.69897	ใกล้ ไหม
-0.60206	ใคร กำกับ
-0.60206	ใคร ร้อง
-0.60206	ใคร เป็น
-0.60206	ใคร แสดง
0	ใจ บ้าง
-0.69897	ใช้ งบ	-0.30103
-1	ใช้ บ้าง
-0.30103	ใช้ วัตถุดิบ	0
-0.69897	ใช้ อะไร	-0.250193
0	ใต้ ดิน
-0.3679768	ใน จุฬา	0.1962945
-1.146128	ใน มี
-1.146128	ใน วันนี้
-1.146128	ใน วิศวะ
-1.146128	ใน สอง
-1.146128	ใน อักษร
-1.146128	ใน อัลบั้ม
-0.845098	ใน เพลลิสต์	0
-0.7781513	ใส่ น้ำตาล
-0.7781513	ใส่ น้ำปลา
-0.7781513	ใส่ พริก
-0.7781513	ใส่ พริกไทย
-0.7781513	ใส่ เกลือ
-0.7781513	ใส่ ไข่
-0.39794	ใหม่ </s>
-0.69897	ใหม่ ที่
-0.69897	ใหม่ อะไร
-0.69897	ใหม่ ไหม
-0.90309	ให้ ดู
-0.90309	ให้ ตอบ
-0.4259687	ให้ หน่อย	0.2108533
-0.90309	ให้ เช็ค
-0.90309	ให้ เช่า
-0.90309	ให้ ใช้
0	ไกล </s>
-0.69897	ไก่ ทอด
-0.69897	ไก่ รอบ
-0.69897	ไก่ หน่อย
-0.69897	ไก่ เจ๊
-0.69897	ไก่ ใน
-1.176091	ไข่ </s>
-0.5740313	ไข่ ดาว
-0.8750613	ไข่ ต้ม
-0.8750613	ไข่ พะโล้
-1.176091	ไข่ ลวก
-1.176091	ไข่ หน่อย
-0.69897	ไข่ เจียว
-1.176091	ไข่ และ
0	ไง </s>
-1.491362	ได้ </s>
-1.491362	ได้ กี่โมง
-1.01424	ได้ คะแนน	0
-1.491362	ได้ คือ
-1.491362	ได้ ต่ำ
-1.491362	ได้ ถึง
-1.491362	ได้ ถูก
-0.4913617	ได้ ที่	-0.8775359
-1.190332	ได้ บ้าง	0
-1.491362	ได้ มั้ย
-1.491362	ได้ ม้้ย
-1.491362	ได้ ยิน
-1.491362	ได้ ยี่
-1.491362	ได้ รางวัล
-1.491362	ได้ สิบ
-1.491362	ได้ ส่วน
-1.491362	ได้ แล้ว
-1.190332	ได้ ไหม	0.5509075
0	ได้มั้ย </s>
0	ได้ไหม ไม่
-0.7781513	ไทย ที่
-0.7781513	ไทย พาณิชย์
-0.7781513	ไทย หรือ
-0.7781513	ไทย อะไร
-0.7781513	ไทย เรื่อง
-0.7781513	ไทย ไหม
0	ไนท์ </s>
-0.7403627	ไป </s>
-1.518514	ไป กี่
-1.518514	ไป จบ
-1.518514	ไป ฉาย
-1.518514	ไป ต้น
-0.615424	ไป ทาง	-0.5563025
-1.518514	ไป ทำ
-1.518514	ไป บ้าง
-1.518514	ไป ประชุม
-1.518514	ไป ยัง
-1.518514	ไป ร้าน
-1.217484	ไป วัน
-1.518514	ไป สิบ
-1.518514	ไป หนึ่ง
-1.518514	ไป ห้า
-1.518514	ไป อาบ
-1.518514	ไป เจ๊
-1.518514	ไป เป็น
-1.518514	ไป เรียน
-1.518514	ไป โรง
0	ไผ่ทอง ขาย
0	ไฟ ไหม้
-0.30103	ไฟฟ้า ใต้
-0.30103	ไฟฟ้า ไป
0	ไฟว์ </s>
-0.9542425	ไม่ ชอบ
-0.4771213	ไม่ ต้อง
-0.9542425	ไม่ ว่าง
-0.9542425	ไม่ สระ
-0.9542425	ไม่ หลับ
-0.9542425	ไม่ เหมือน
-0.9542425	ไม่ เอา
0	ไม่ว่าง ทั้ง
-0.05799195	ไร </s>
-0.90309	ไร บ้าง
0	ไวไฟ ให้
0	ไส้ กี่
-0.39794	ไหน </s>
-1.977724	ไหน ขาย
-1.977724	ไหน คล้าย
-1.977724	ไหน จบ
-1.977724	ไหน ซื้อ
-1.199572	ไหน ดี	-0.3679768
-1.500602	ไหน ทำ
-1.977724	ไหน ที่
-1.977724	ไหน นะ
-1.676694	ไหน น่า	0.1249387
-0.7736036	ไหน บ้าง	0
-1.375664	ไหน ปิด	-0.5026754
-1.977724	ไหน มา
-1.500602	ไหน มี	-0.450063
-1.977724	ไหน รับ
-1.199572	ไหน อร่อย	0
-1.977724	ไหน เกี่ยว
-1.375664	ไหน เด็ด	-0.4436975
-1.977724	ไหน เปิด
-1.977724	ไหน เป็น
-1.977724	ไหน แถว
-1.977724	ไหน ได้
-0.04275198	ไหม </s>
-1.028029	ไหม กว่า	-0.359022
0	ไหม้ </s>
-0.09691001	ไหร่ </s>
-0.69897	ไหร่ บ้าง	0
-0.30103	ไห้ เจ๊
-0.30103	ไห้ ไป
-0.60206	ไอ เลิฟ
-0.30103	ไอ เอ็ม	0
-0.60206	ไอ เฮท
-0.30103	ไอติม รส
-0.30103	ไอติม ไผ่ทอง
0	ไอที อะไร
0	ไอเดีย ใช้
0	ไอแม็กซ์ ไม่

\3-grams:
-0.1249387	อร่อย กว่า กัน
-0.1249387	ไหม กว่า จะ
-0.09691001	กว่า กัน </s>
-0.1249387	มาม่า กัน </s>
-0.1760913	ละ กัน </s>
-0.1249387	เป็น กัน เอง
-0.1760913	นัด กับ หมอ
-0.1760913	นี้ กิน อะไร
-0.1760913	น่า กิน </s>
-0.1249387	บาท กิน อะไร
-0.544068	อยาก กิน ชาบู
-0.544068	อยาก กิน สเต็ก
-0.1760913	จบ กี่ โมง
-0.1249387	ตื่น กี่ โมง
-0.07918125	ปิด กี่ โมง
-0.1760913	พรุ่งนี้ กี่ โมง
-0.1249387	ยาว กี่ นาที
-0.07918125	อีก กี่ นาที
-0.09691001	เปิด กี่ โมง
0	อะไร ก็ ได้
-0.1760913	เพลง ก่อน นอน
-0.90309	<s> ขอ นอน
-1.20412	<s> ขอ รอบ
-0.90309	<s> ขอ ราย
-0.90309	<s> ขอ สูตร
-0.80618	<s> ขอ อีก
-0.90309	<s> ขอ เพลง
-1.20412	<s> ขอ เส้น
-1.20412	<s> ขอ โปรโมชัน
-0.1760913	ทั้งหมด ของ วัน
-0.1760913	ฝาก ของ ได้
-0.30103	เพลง ของ ศิลปิน
-0.30103	<s> ขั้น ตอน
-0.1249387	<s> ข้าว มัน
-0.1760913	ที่ คณะ วิศวะ
-0.07918125	อีก ครึ่ง ชั่วโมง
-0.1760913	เตือน ครึ่ง ชั่วโมง
-0.39794	โมง ครึ่ง </s>
-0.30103	โมง ครึ่ง นะ
0	มี ความ ยาว
-0.1760913	ได้ คะแนน ไอ
0	<s> คำนวณ แคลอรี่
-0.09691001	นี้ คือ อะไร
-0.1760913	<s> คุย แบบ
-0.1760913	ใช้ งบ ประมาณ
-0.1760913	จัด งาน อะไร
-0.3802112	มี งาน </s>
-0.60206	มี งาน อะไร
-0.1760913	ยกเลิก งาน ประชุม
-0.1760913	กว่า จะ แปด
-0.1760913	นี้ จัด งาน
-0.60206	วัน จันทร์ </s>
-0.60206	วัน จันทร์ มี
-0.1760913	พร จาก ฟ้า
-0.39794	ออก จาก บ้าน
-0.39794	ออก จาก เพลย์ลิส
-0.544068	เพลง จาก อัลบั้ม
-0.243038	เพลง จาก เพลลิสต์
-0.1249387	<s> จาม สแควร์
-0.1249387	นอก จุฬา มี
-0.544068	ใน จุฬา </s>
-0.243038	ใน จุฬา มี
-0.1760913	สี่ จ่าย สาม
-0.1249387	<s> ฉัน ตื่น
-0.1760913	รอบ ฉาย เรื่อง
-0.1760913	อะไร ฉาย บ้าง
-0.1760913	ครึ่ง ชั่วโมง </s>
-0.07918125	อีก ชั่วโมง นึง
-0.1249387	อยู่ ชั้น ไหน
-0.1760913	กิน ชาบู งบ
-0.1249387	ราย ชื่อ หนัง
0	<s> ช่วง นี้
-0.1760913	<s> ช่วย ตั้ง
-0.2218488	<s> ซื้อ เครื่อง
0	รถ ดับ เพลิง
-0.05799195	อะไร ดี </s>
-0.1760913	เอ็ม ดี บี
-0.39794	โมง ดี </s>
-0.39794	โมง ดี อยาก
-0.06694679	ไหน ดี </s>
-0.1249387	ปลุก ด้วย </s>
-0.1249387	เตือน ด้วย </s>
0	อยู่ ตรง ไหน
-0.4771213	ประชุม ตอน บ่าย
-0.39794	ปลุก ตอน เที่ยง
-0.07918125	<s> ตั้ง เวลา
-0.1760913	ช่วย ตั้ง ปลุก
0	อาหาร ตาม สั่ง
-0.1760913	ยกเลิก ตาราง เรียน
-0.1760913	เพิ่ม ตาราง เรียน
0	ส้ม ตำ เจ๊
-0.4259687	<s> ตื่น แล้ว
-0.1760913	พรุ่งนี้ ตื่น กี่
-0.1760913	<s> ต่อ ไป
-0.2218488	นอน ต่อ อีก
-0.1760913	มา ต้ม มาม่า
-0.1760913	วันนี้ ต้อง ทำ
-0.1760913	อะไร ต้อง ทำ
-0.1760913	เรา ต้อง ตื่น
0	นับ ถอย หลัง
-0.1760913	นัด ทั้งหมด ของ
-0.1249387	<s> ทาง เชื่อม
-0.1760913	เส้น ทาง ไป
-0.05115252	ไป ทาง ไหน
-0.4771213	<s> ทำ ไข่
-0.4771213	ต้อง ทำ บ้าง
-0.30103	ต้อง ทำ อะไร
-0.1760913	วิธี ทำ แบบ
-0.39794	สอน ทำ ผัด
-0.39794	สอน ทำ ไข่
-0.4771213	<s> ที่ นั่ง
-0.39794	<s> ที่ นี่
-0.1760913	กี่ ที่ ใน
-0.1760913	ของ ที่ นี่
-0.09691001	บาท ที่ ไหน
-0.1760913	มี ที่ นั่ง
-0.6532125	วัน ที่ ยี่
-0.4771213	วัน ที่ สิบ
-0.1249387	หนัง ที่ ฉาย
-0.04575749	อยู่ ที่ ไหน
-0.1760913	อาหาร ที่ ไหน
-0.1760913	ใกล้ ที่ สุด
-0.04139268	ได้ ที่ ไหน
-0.1760913	<s> ที่นี่ เปิด
-0.1249387	ปลุก ทุก วัน
-0.1760913	โมง ทุก อาทิตย์
-0.30103	สี่ ทุ่ม </s>
-0.1760913	มี ธุระ </s>
0	รอบ นอก จุฬา
-0.09691001	<s> นอน ต่อ
-0.1760913	ก่อน นอน </s>
-0.39794	ขอ นอน ต่อ
-0.39794	ขอ นอน อีก
-0.1249387	อยาก นอน ต่อ
-0.2218488	ครึ่ง นะ </s>
-0.39794	ครึ่ง นะ พรุ่งนี้
-0.1760913	นาที นะ </s>
-0.1249387	นึง นะ </s>
-0.09691001	หน่อย นะ </s>
-0.1760913	อะไร นะ </s>
-0.1760913	เที่ยง นะ พรุ่งนี้
-0.146128	โมง นะ </s>
-0.5440681	โมง นะ พรุ่งนี้
-0.8750613	<s> นัด ประชุม
-0.8750613	<s> นัด เพื่อน
-0.39794	<s> นัด แรก
-0.1760913	กี่ นัด </s>
-0.90309	มี นัด กับ
-0.60206	มี นัด อะไร
-0.39794	ยกเลิก นัด วัน
-0.1760913	เรียง นัด ทั้งหมด
-0.1760913	<s> นับ ถอย
-0.60206	ที่ นั่ง แบบ
-0.20412	กี่ นาที </s>
-0.60206	กี่ นาที แปด
-0.1383027	สิบ นาที </s>
-0.30103	ห้า นาที </s>
-0.69897	ห้า นาที นะ
-0.1249387	อีก นาน ไหม
-0.1760913	ที่ นี่ มี
-0.1760913	ช่วง นี้ มี
-0.39794	พรุ่ง นี้ มี
-0.39794	พรุ่ง นี้ โรง
-0.6368221	วัน นี้ </s>
-0.6368221	วัน นี้ มี
-0.8129134	วัน นี้ วัน
-0.8129134	วัน นี้ โรง
-0.4771213	สัปดาห์ นี้ มี
-0.30103	สัปดาห์ นี้ หนัง
-0.30103	อาทิตย์ นี้ มี
-0.4771213	เพลง นี้ </s>
-0.6532125	เพลง นี้ ออก
-0.30103	ชั่วโมง นึง นะ
-0.1760913	ไหน น่า กิน
-0.07918125	ห้อง น้ำ ชั้น
0	อยู่ บน ปฎิทิน
-0.544068	ร้อย บาท กิน
-0.243038	ร้อย บาท ที่
0	เดอะ บีสต์ มี
-0.39794	ตอน บ่าย สอง
0	ฉาย บ้าง </s>
0	ทำ บ้าง </s>
0	ทุ่ม บ้าง </s>
0	ปฎิทิน บ้าง </s>
0	ปิด บ้าง </s>
0	อะไร บ้าง </s>
0	เด็ด บ้าง </s>
0	ได้ บ้าง </s>
0	ไหน บ้าง </s>
0	ไหร่ บ้าง </s>
-0.1760913	จาก บ้าน แล้ว
-0.1760913	บน ปฎิทิน บ้าง
-0.4771213	<s> ประชุม ครั้ง
-0.1760913	งาน ประชุม ตอน
-0.1249387	นัด ประชุม ตอน
-0.30103	มี ประชุม </s>
0	งบ ประมาณ เท่า
-0.4771213	<s> ปลุก ทุก
-0.1249387	ตั้ง ปลุก ตอน
-0.39794	พรุ่งนี้ ปลุก เรา
-0.09691001	ไหน ปิด บ้าง
-0.1760913	สระ ผม แล้ว
-0.1760913	ข้าว ผัด ไข่
-0.1760913	ทำ ผัด มาม่า
0	รับ ฝาก ของ
-0.09691001	<s> พรุ่ง นี้
-0.7781513	<s> พรุ่งนี้ ตื่น
-0.3802112	<s> พรุ่งนี้ ปลุก
-0.7781513	<s> พรุ่งนี้ มี
-0.7781513	<s> พรุ่งนี้ เรา
-0.06694679	นะ พรุ่งนี้ </s>
0	จาก ฟ้า รอบ
0	<s> มะรืน นี้
-0.1249387	ข้าว มัน ไก่
0	อะไร มั้ย </s>
-0.1760913	<s> มา ต้ม
-0.1249387	ต้ม มาม่า กัน
-1.041393	<s> มี ที่
-0.9622114	<s> มี นัด
-0.4616091	<s> มี ร้าน
-1.138303	<s> มี วิธี
-1.263241	<s> มี หนัง
-1.439333	<s> มี อะไร
-1.263241	<s> มี เงิน
-0.1760913	จันทร์ มี เรียน
-0.05799195	จุฬา มี ร้าน
-0.07918125	นี่ มี ร้าน
-0.845098	นี้ มี งาน
-0.544068	นี้ มี นัด
-0.845098	นี้ มี หนัง
-0.39794	พรุ่งนี้ มี งาน
-0.1760913	วอล มี แบบ
-0.1249387	วันนี้ มี อะไร
-0.1249387	สแควร์ มี ร้าน
-0.09691001	หน้า มี งาน
-0.1760913	อักษร มี ร้าน
-0.1760913	โมง มี ธุระ
-0.1760913	ไหน มี ที่
-0.69897	<s> ยกเลิก ตาราง
-0.30103	<s> ยกเลิก นัด
0	ที่ ยี่ สิบ
-0.1760913	ออฟ ยู </s>
0	<s> ย้าย งาน
-0.1249387	เรียก รถ ดับ
-0.1760913	ขอ รอบ ฉาย
-0.1760913	<s> รับ ฝาก
-0.1760913	สุด ราคา เท่า
-0.09691001	ขอ ราย ชื่อ
0	หนึ่ง ร้อย บาท
0	ห้า ร้อย บาท
-0.60206	<s> ร้าน ก๋วยเตี๋ยว
-0.60206	<s> ร้าน สเต็ก
-0.4259687	<s> ร้าน อาหาร
-0.4573772	มี ร้าน อาหาร
-0.3324385	มี ร้าน ไหน
-0.09691001	ลา ลา แลนด์
-0.1249387	เรื่อง ลา ลา
-0.544068	อะไร วอล มี
-0.544068	อะไร วอล วันนี้
0	ใช้ วัตถุดิบ อะไร
-0.9777236	<s> วัน จันทร์
-0.6766936	<s> วัน ที่
-0.3756636	<s> วัน นี้
-0.60206	ทุก วัน จันทร์
-0.60206	ทุก วัน ไหม
-0.1760913	ทุ่ม วัน นี้
-0.4771213	นัด วัน ศุกร์
-0.4771213	นัด วัน อังคาร
-0.1760913	เรียน วัน จันทร์
-0.30103	<s> วันนี้ มี
-0.4771213	<s> วันนี้ เหลือ
-0.30103	มี วิธี ทำ
-0.30103	มี วิธี อื่น
-0.1760913	หา วิธีทำ ผัด
-0.1760913	คณะ วิศวะ เปิด
-0.2218488	วัน ศุกร์ </s>
0	<s> สร้าง งาน
-0.1760913	ตอน สอง ทุ่ม
-0.30103	สิบ สอง นาที
-0.1760913	อีก สอง ชั่วโมง
0	<s> สอน ทำ
-0.06694679	<s> สัปดาห์ นี้
-0.4771213	ตอน สิบ เอ็ด
-0.30103	ตอน สิบ โมง
-0.1249387	ตื่น สิบ โมง
-0.4771213	ยี่ สิบ นาที
-0.4771213	ยี่ สิบ สี่
-0.1760913	อีก สิบ นาที
-0.1760913	มา สี่ จ่าย
-0.1760913	เป็น สี่ โมง
-0.39794	ที่ สุด </s>
-0.1760913	สูง สุด </s>
0	ขอ สูตร อาหาร
-0.1760913	กิน สเต็ก งบ
-0.1249387	จาม สแควร์ มี
0	ตอน หก โมง
0	ตื่น หก โมง
0	รอบ หก โมง
-0.02632894	<s> หนัง เรื่อง
-0.1249387	ชื่อ หนัง ที่
-0.1760913	นี้ หนัง เรื่อง
-0.2218488	มี หนัง เรื่อง
-0.4771213	โรง หนัง อยู่
-0.4771213	โรง หนัง เอส
-0.1760913	ต้ม หน่อย </s>
-0.1249387	ให้ หน่อย </s>
-0.30103	เดือน หน้า </s>
-0.4771213	เดือน หน้า มี
-0.1760913	ทั้ง หมด </s>
0	<s> หา วิธีทำ
0	<s> ห้อง น้ำ
-0.1760913	งบ ห้า ร้อย
-0.05799195	อีก ห้า นาที
-0.1760913	โมง ห้า นาที
0	<s> ห้าม เล่น
-0.30103	<s> อยาก กิน
-0.6690068	<s> อยาก ทำ
-0.6690068	<s> อยาก นอน
-0.1760913	อะไร อยู่ บน
-0.3679768	ไหน อร่อย </s>
-0.3679768	ไหน อร่อย กว่า
-0.06694679	กิน อะไร ดี
-0.09691001	คือ อะไร </s>
-0.146128	งาน อะไร บ้าง
-0.60206	ทำ อะไร </s>
-0.60206	ทำ อะไร บ้าง
-0.1760913	ธุระ อะไร มั้ย
-0.09691001	นัด อะไร บ้าง
-0.544068	มี อะไร ต้อง
-0.544068	มี อะไร บ้าง
-0.544068	มี อะไร อยู่
-0.07918125	วัตถุดิบ อะไร บ้าง
-0.1760913	สถานี อะไร </s>
-0.1760913	เพลง อะไร ก็
-0.5642715	เรื่อง อะไร ฉาย
-0.1962947	เรื่อง อะไร วอล
-0.09691001	โซน อะไร บ้าง
-0.1760913	ใช้ อะไร บ้าง
-0.1760913	จาก อัลบั้ม เดอะ
-0.1249387	<s> อาทิตย์ นี้
-0.9542425	ร้าน อาหาร จีน
-0.9542425	ร้าน อาหาร ญี่ปุ่น
-0.7781513	ร้าน อาหาร ตาม
-0.9542425	ร้าน อาหาร ที่
-0.9542425	ร้าน อาหาร เกาหลี
-0.9542425	ร้าน อาหาร เวียดนาม
-0.9542425	ร้าน อาหาร ไทย
-0.9542425	ร้าน อาหาร ไหน
-0.07918125	สูตร อาหาร ไข่
-0.39794	โรง อาหาร คณะ
-0.8846066	<s> อีก กี่
-0.8846066	<s> อีก ครึ่ง
-0.8846066	<s> อีก ชั่วโมง
-0.8846066	<s> อีก นาน
-1.060698	<s> อีก สอง
-1.060698	<s> อีก สิบ
-0.7596679	<s> อีก ห้า
-0.4771213	ต่อ อีก ครึ่ง
-0.4771213	ต่อ อีก ห้า
-0.1249387	ตอน เจ็ด โมง
-0.1760913	ทาง เชื่อม สยาม
-0.1760913	<s> เช็ค งาน
-0.4771213	โมง เช้า </s>
-0.4771213	โมง เช้า วัน
-0.1760913	แอนด์ เดอะ บีสต์
-0.09691001	เด็ด เด็ด บ้าง
-0.09691001	ไหน เด็ด เด็ด
-0.39794	แจ้ง เตือน ให้
-0.1760913	ตื่น เที่ยง นะ
-0.1760913	ประมาณ เท่า ไหร่
-0.07918125	ราคา เท่า ไหร่
0	ราคา เท่าไหร่ </s>
0	แล้ว เนี่ย </s>
-0.30103	<s> เบา เสียง
-0.09691001	<s> เปิด เพลง
-0.1760913	วิศวะ เปิด กี่
-0.1760913	<s> เพลง ต่อไป
-0.4771213	เพลลิสต์ เพลง ก่อน
-0.4771213	เพลลิสต์ เพลง โปรด
-0.7596679	เล่น เพลง ของ
-0.5835766	เล่น เพลง จาก
-0.8846066	เล่น เพลง นี้
-1.060698	เล่น เพลง อะไร
-0.1760913	เอา เพลง นี้
0	จาก เพลย์ลิส </s>
0	จาก เพลลิสต์ เพลง
0	ใน เพลลิสต์ เพลง
-0.7781513	<s> เพิ่ม ตาราง
-0.3802112	<s> เพิ่ม นัด
-0.7781513	<s> เพิ่ม ใน
-0.544068	โมง เย็น </s>
-0.1760913	พรุ่งนี้ เรา ต้อง
0	<s> เรียก รถ
0	<s> เรียง นัด
-0.39794	ตาราง เรียน บ่าย
-0.39794	ตาราง เรียน วัน
-0.1760913	ฉาย เรื่อง อะไร
-1.041393	หนัง เรื่อง ลา
-0.5642715	หนัง เรื่อง อะไร
-0.7403627	หนัง เรื่อง ไหน
-0.39794	<s> เลื่อน ประชุม
-0.07463362	<s> เล่น เพลง
-0.9777236	<s> เล่น โบว์ลิ่ง
-0.1760913	ห้าม เล่น เพลง
-0.07918125	โกวาจี เล่น เพลง
-0.1760913	จับ เวลา </s>
-0.07918125	ตั้ง เวลา เตือน
0	ขอ เส้น ทาง
0	หนัง เอส เอฟ
0	สิบ เอ็ด โมง
-0.1760913	ไอ เอ็ม ดี
-0.1249387	กี่ แคลอรี่ </s>
0	<s> แจ้ง เตือน
-0.4771213	<s> แนะนำ อาหาร
-0.30103	<s> แนะนำ เมนู
-0.1760913	ทำ แบบ อื่น
-0.1760913	จะ แปด โมง
-0.1249387	ตอน แปด โมง
-0.1760913	นาที แปด โมง
-0.1760913	นัด แรก ของ
-0.1760913	อันดับ แรก </s>
-0.1760913	บ้าน แล้ว </s>
-0.1760913	โมง แล้ว </s>
0	บิวตี้ แอนด์ เดอะ
-0.6232493	<s> โกวาจี </s>
-0.544068	<s> โกวาจี เล่น
-0.09691001	มี โซน อะไร
0	เพลง โปรด </s>
-0.1362197	กี่ โมง </s>
-0.8129134	กี่ โมง ดี
-1.113943	กี่ โมง แล้ว
-0.1760913	สิบ โมง ครึ่ง
-0.3679768	สี่ โมง </s>
-0.3679768	สี่ โมง เย็น
-0.5118834	หก โมง นะ
-0.5118834	หก โมง เย็น
-0.30103	ห้า โมง </s>
-0.30103	เจ็ด โมง เช้า
-0.1760913	เอ็ด โมง </s>
-0.5642715	แปด โมง </s>
-0.5642715	แปด โมง ครึ่ง
-0.7403627	แปด โมง เช้า
-0.146128	<s> โรง หนัง
-0.09691001	นี้ โรง อาหาร
-0.1760913	ที่ ใกล้ ที่
-0.1760913	ต้อง ใช้ อะไร
-0.1760913	ที่ ใน จุฬา
-0.1760913	เพิ่ม ใน เพลลิสต์
-0.1760913	นี้ ให้ หน่อย
-0.30103	ทำ ไข่ ดาว
0	ยัง ไง </s>
-0.3679768	ต่อ ไป </s>
-0.1760913	ถัด ไป </s>
-0.30103	<s> ไม่ ต้อง
0	นี้ ไม่ว่าง ทั้ง
-0.07918125	เท่า ไร </s>
-0.1249387	ชั้น ไหน </s>
-0.04575749	ทาง ไหน </s>
-0.2397603	ที่ ไหน </s>
-0.819544	ที่ ไหน ดี
-1.041393	ที่ ไหน บ้าง
-1.217484	ที่ ไหน อร่อย
-0.5351132	ร้าน ไหน บ้าง
-0.7781513	ร้าน ไหน ปิด
-1.079181	ร้าน ไหน มี
-0.7781513	ร้าน ไหน อร่อย
-0.7781513	ร้าน ไหน เด็ด
-0.07918125	วัน ไหน </s>
-0.1760913	เมนู ไหน น่า
-0.2218488	เรื่อง ไหน ทำ
-0.1249387	นาน ไหม กว่า
-0.1760913	วัน ไหม </s>
-0.1760913	ได้ ไหม </s>
-0.09691001	เท่า ไหร่ </s>
-0.69897	เท่า ไหร่ บ้าง
-0.1760913	คะแนน ไอ เอ็ม

\end\
