
\data\
ngram 1=12

\1-grams:
-0.449969	</s>
-99	<s>
-1.190332	กลัว
-1.190332	กลั่นกรอง
-1.190332	กลั้น
-1.190332	กลาง
-1.190332	กลางคืน
-1.190332	กลางวัน
-1.190332	กลาย
-1.190332	กลิ่น
-1.190332	กลืน
-1.190332	กลุ่ม

\end\
