
\data\
ngram 1=660
ngram 2=2106

\1-grams:
-0.9160445	</s>
-99	<s>	-0.4324766
-3.401056	กระเทียม	-0.299648
-3.401056	กระแส	-0.3007712
-3.401056	กรุงศรี	-0.2993883
-3.224965	กลับ	-0.3005122
-3.401056	กลางวัน	-0.2986953
-3.224965	กล้วย	-0.2999939
-2.798996	กว่า	-0.6512245
-3.401056	กสิกร	-0.2993883
-3.003116	กะเพรา	-0.2991286
-3.401056	กัญชา	-0.2448575
-2.497966	กัน	-0.5448066
-2.747843	กับ	-0.3549334
-3.401056	การ	-0.3005123
-3.401056	กาแฟ	-0.2934617
-3.401056	กำกับ	-0.2981748
-3.401056	กิจกรรม	-0.298088
-2.340358	กิน	-0.3451442
-3.401056	กินข้าว	-0.294776
-3.401056	กีฬา	-0.2982616
-2.039328	กี่	-0.7474235
-3.003116	กี่โมง	-0.6427975
-3.401056	กุมภา	-0.2878977
-3.401056	กู๊ด	-0.3008575
-3.100026	ก็	-0.5992916
-3.224965	ก็ได้	-0.2415077
-2.923934	ก่อน	-0.2919673
-3.401056	ก่อนหน้า	-0.2448575
-2.923934	ก๋วยเตี๋ยว	-0.2910859
-3.401056	ขนม	-0.3007712
-3.401056	ขนาด	-0.3008575
-3.401056	ขวด	-0.3006849
-3.401056	ขวัญ	-0.2981748
-2.170607	ขอ	-0.5312151
-2.401056	ของ	-0.3287136
-3.401056	ขอบคุณ	-0.2448575
-3.003116	ขั้น	-0.3627715
-2.923934	ขาย	-0.2976536
-3.401056	ขี้เกียจ	-0.3006849
-3.401056	ข้อมูล	-0.2975667
-3.401056	ข้าง	-0.3008575
-3.401056	ข้าม	-0.2448575
-2.798996	ข้าว	-0.4334285
-3.401056	ข้าวโพด	-0.3008575
-2.923934	คณะ	-0.35106
-2.923934	คน	-0.2959992
-3.100026	ครั้ง	-0.2983483
-3.224965	คราว	-0.2343275
-3.401056	ครีมเมอรี่	-0.2878977
-2.321874	ครึ่ง	-0.5635069
-3.401056	คลุก	-0.3008575
-3.401056	คล้าย	-0.3002532
-3.224965	ความ	-0.4765172
-3.100026	คะแนน	-0.3972495
-3.003116	คำนวณ	-0.6982796
-3.401056	คิดส์ซาเนีย	-0.2993883
-3.401056	คิว	-0.3004259
-3.224965	คืน	-0.2298804
-2.798996	คือ	-0.5112549
-3.003116	คุย	-0.3617229
-3.401056	คู่	-0.3007712
-3.401056	ค่อย	-0.2988687
-3.401056	ค่า	-0.3007712
-2.856988	งบ	-0.3929964
-2.158018	งาน	-0.3743727
-3.401056	ง่วง	-0.3008575
-3.003116	จบ	-0.3620727
-3.401056	จอ	-0.2917912
-3.003116	จอง	-0.3553775
-3.100026	จอด	-0.6012832
-2.856988	จะ	-0.3384375
-3.401056	จัง	-0.2448575
-3.003116	จัด	-0.3532417
-2.747843	จันทร์	-0.2867555
-3.224965	จับ	-0.4759122
-2.555958	จาก	-0.4976603
-2.923934	จาม	-0.5431184
-3.224965	จีน	-0.2905561
-3.100026	จุด	-0.2923194
-3.401056	จุล	-0.2878977
-2.622904	จุฬา	-0.5964326
-3.100026	จ่าย	-0.3955186
-3.003116	ฉัน	-0.4727007
-2.622904	ฉาย	-0.3092497
-3.401056	ชอบ	-0.2959119
-3.401056	ชะตา	-0.3007712
-3.401056	ชัฟเฟิล	-0.2448575
-3.224965	ชั่ว	-0.292847
-2.304146	ชั่วโมง	-0.4159083
-2.555958	ชั้น	-0.4835414
-3.100026	ชาบู	-0.3891414
-3.401056	ชาร์จ	-0.3008575
-3.224965	ชีวิต	-0.4209488
-2.856988	ชื่อ	-0.3825799
-3.401056	ชูกา	-0.2448575
-3.224965	ช่วง	-0.4713045
-3.100026	ช่วย	-0.3962118
-3.401056	ช้า	-0.2997345
-3.224965	ซัก	-0.2951258
-3.401056	ซาวด์แทรก	-0.2448575
-3.401056	ซีท	-0.2994749
-3.401056	ซีรีย์	-0.3008575
-3.401056	ซีอิ๊ว	-0.3002532
-2.798996	ซื้อ	-0.3782232
-3.401056	ซุเปอร์มาร์เก็ต	-0.2993883
-3.224965	ซ้ำ	-0.2435797
-3.224965	ญี่ปุ่น	-0.2905561
-3.401056	ดนตรี	-0.2982616
-3.401056	ดรีม	-0.3008575
-3.401056	ดัง	-0.2967836
-3.401056	ดังๆ	-0.2986953
-3.100026	ดับ	-0.6017149
-2.923934	ดาว	-0.2383312
-3.401056	ดิน	-0.2917912
-2.304146	ดี	-0.5807661
-3.401056	ดื่ม	-0.3008575
-3.100026	ดู	-0.2967836
-2.660693	ด้วย	-0.4808707
-3.100026	ตรง	-0.5937012
-3.401056	ตรา	-0.3006849
-3.224965	ตลาด	-0.4727007
-2.111021	ตอน	-0.4709634
-3.401056	ตอนนี้	-0.2448575
-3.224965	ตอบ	-0.3003395
-3.401056	ตัด	-0.3008575
-2.747843	ตั้ง	-0.6955935
-3.224965	ตั้งแต่	-0.2938126
-2.923934	ตั๋ว	-0.2868298
-3.100026	ตาม	-0.6017149
-2.923934	ตาราง	-0.5425996
-3.224965	ตำ	-0.4766035
-3.224965	ติด	-0.2992152
-3.401056	ติดต่อ	-0.2982616
-3.003116	ตี	-0.3616354
-3.401056	ตีห้า	-0.3008575
-3.401056	ตึก	-0.3008575
-2.471637	ตื่น	-0.5039417
-2.446813	ต่อ	-0.5723954
-2.856988	ต่อไป	-0.2728955
-3.401056	ต่ำ	-0.2997345
-3.224965	ต้น	-0.299648
-2.856988	ต้ม	-0.417599
-2.497966	ต้อง	-0.4024014
-3.224965	ถอย	-0.4766899
-3.224965	ถัด	-0.4741792
-3.401056	ถาม	-0.3007712
-2.660693	ถึง	-0.3096867
-3.224965	ถูก	-0.2904678
-3.401056	ถ่ายรูป	-0.2917912
-3.401056	ถ้า	-0.2878977
-3.401056	ทน	-0.3008575
-3.401056	ทรี	-0.2988687
-3.401056	ทองดี	-0.3008575
-3.100026	ทอด	-0.2892289
-2.923934	ทั้ง	-0.4184004
-3.401056	ทั้งวัน	-0.2448575
-2.798996	ทั้งหมด	-0.4541604
-2.497966	ทาง	-0.6643606
-2.224964	ทำ	-0.4436119
-2.923934	ทำงาน	-0.3374474
-3.224965	ที	-0.4209488
-3.401056	ทีม	-0.2993883
-1.67678	ที่	-0.4952731
-3.401056	ที่นั่ง	-0.2448575
-3.100026	ที่นี่	-0.395692
-3.401056	ที่พัก	-0.3005123
-3.401056	ที่แล้ว	-0.2448575
-2.588142	ทุก	-0.5945794
-3.401056	ทุ่ง	-0.2448575
-2.622904	ทุ่ม	-0.2866794
-3.401056	ทูเดย์	-0.3003395
-3.003116	ธนาคาร	-0.2993883
-3.003116	ธุระ	-0.4123251
-3.100026	นอก	-0.6010239
-2.471637	นอน	-0.556245
-3.401056	นอนได้	-0.3000803
-2.170607	นะ	-1.183516
-3.401056	นักเรียน	-0.2982616
-1.994516	นัด	-0.3284191
-3.100026	นับ	-0.3964715
-2.525995	นั่ง	-0.3214136
-3.401056	นั้น	-0.3006849
-2.170607	นาที	-0.4963308
-2.923934	นาน	-0.5410392
-3.401056	นำ	-0.3008575
-3.401056	นิติ	-0.2878977
-2.702086	นี่	-0.4402255
-1.876011	นี้	-0.4757493
-3.401056	นี้่ิ	-0.2980011
-2.798996	นึง	-0.3741359
-3.003116	น่า	-0.4749599
-2.702086	น้ำ	-0.4434339
-3.401056	น้ำตาล	-0.299648
-3.401056	น้ำปลา	-0.299648
-3.100026	บน	-0.6017149
-3.401056	บริการ	-0.3008575
-3.401056	บรูซ	-0.3008575
-3.401056	บลีช	-0.3008575
-3.401056	บอก	-0.2980011
-3.401056	บัญชี	-0.3005123
-3.100026	บัตร	-0.3973359
-3.401056	บัว	-0.3008575
-2.702086	บาท	-0.5330385
-3.224965	บิวตี้	-0.4768625
-3.003116	บี	-0.294776
-3.401056	บีทีเอส	-0.3006849
-3.224965	บีสต์	-0.463989
-3.224965	บุฟเฟต์	-0.2834305
-2.588142	บ่าย	-0.5330385
-1.728958	บ้าง	-1.916955
-3.100026	บ้าน	-0.3398988
-3.401056	บ๊ายบาย	-0.2448575
-3.100026	ปฎิทิน	-0.3863162
-3.401056	ประชาสัมพันธ์	-0.2993883
-2.359663	ประชุม	-0.3299252
-3.401056	ประดับ	-0.2982616
-3.401056	ประทับ	-0.3008575
-3.224965	ประมาณ	-0.4757393
-3.401056	ประเภท	-0.2926712
-2.304146	ปลุก	-0.3291531
-3.224965	ปะ	-0.4209488
-3.401056	ปังเย็น	-0.2878977
-3.401056	ปาร์ค	-0.2999939
-2.622904	ปิด	-0.5610767
-3.224965	ปิ้ง	-0.2860271
-3.100026	ผม	-0.3960386
-3.401056	ผลไม้	-0.3005123
-3.401056	ผักกาด	-0.2984351
-2.660693	ผัด	-0.4739186
-3.401056	ผัดซีอิ๊ว	-0.2970448
-3.401056	ผ้า	-0.3008575
-3.401056	ฝน	-0.2448575
-3.224965	ฝาก	-0.4753931
-3.224965	พร	-0.4759122
-3.401056	พริก	-0.299648
-3.401056	พริกไทย	-0.299648
-3.401056	พรีวิเลจ	-0.3003395
-3.401056	พรีเมี่ยม	-0.3002532
-2.923934	พรุ่ง	-0.5380765
-2.170607	พรุ่งนี้	-0.4085847
-3.224965	พฤหัส	-0.2943383
-3.401056	พอ	-0.2993883
-3.401056	พอส	-0.2448575
-3.224965	พะโล้	-0.2437766
-3.401056	พากย์	-0.3004259
-3.401056	พาณิชย์	-0.2993883
-2.798996	พารากอน	-0.2380321
-3.401056	พาราโบลา	-0.294776
-3.401056	พิกัด	-0.295388
-3.401056	พิการ	-0.2981748
-3.224965	พิเศษ	-0.2917031
-2.798996	พุธ	-0.2145787
-3.401056	พูด	-0.3006849
-3.401056	ฟรี	-0.2994749
-3.401056	ฟัง	-0.2959119
-3.401056	ฟันขาว	-0.3004259
-3.224965	ฟิตเนส	-0.2849545
-3.401056	ฟิฟตี้	-0.3008575
-3.224965	ฟ้า	-0.4759122
-3.003116	ภาค	-0.299821
-3.401056	มรณะ	-0.3004259
-3.401056	มหิต	-0.2878977
-3.003116	มะรืน	-0.6931533
-3.401056	มังสวิรัติ	-0.2986953
-2.923934	มัน	-0.4235473
-2.446813	มั้ย	-1.1991
-2.923934	มา	-0.4213738
-3.401056	มาก	-0.3003395
-3.100026	มาบุญครอง	-0.2893175
-2.856988	มาม่า	-0.4724393
-3.401056	มาย	-0.3008575
-3.401056	มารูน	-0.3008575
-3.401056	มิยาบิ	-0.3005986
-1.525994	มี	-0.5300378
-3.401056	มีนา	-0.2878977
-3.401056	มื้อ	-0.2952133
-3.401056	มูฟวี่	-0.2993883
-3.401056	ม้้ย	-0.2448575
-2.588142	ยกเลิก	-0.4103182
-3.224965	ยัง	-0.4768625
-3.224965	ยังไง	-0.4209488
-3.224965	ยา	-0.2948635
-2.856988	ยาว	-0.390284
-3.401056	ยาโยอิ	-0.2981748
-3.401056	ยิน	-0.3006849
-2.856988	ยี่	-0.8413739
-3.401056	ยี่สิบ	-0.298088
-3.401056	ยืนยัน	-0.299648
-2.798996	ยู	-0.3192029
-3.401056	ย่อ	-0.2993018
-3.224965	ย้าย	-0.4740924
-2.747843	รถ	-0.4021077
-3.100026	รส	-0.2924953
-3.401056	รหัส	-0.299821
-3.401056	รอ	-0.3005123
-3.401056	รองเท้า	-0.3002532
-2.555958	รอบ	-0.3125375
-3.100026	ระหว่าง	-0.2995614
-2.923934	รับ	-0.3486323
-2.747843	ราคา	-0.5537975
-3.401056	รางวัล	-0.2934617
-2.923934	ราย	-0.5406917
-3.401056	รายการ	-0.2917912
-3.224965	รายงาน	-0.296348
-3.401056	รายชื่อ	-0.3007712
-3.401056	รายได้	-0.3007712
-3.401056	ริม	-0.3004259
-3.401056	ริฮันนา	-0.2448575
-3.224965	รีวิว	-0.2986953
-3.401056	รึยัง	-0.2448575
-3.401056	รุจิศรี	-0.3003395
-3.100026	ร้อง	-0.341473
-2.856988	ร้อย	-0.8442348
-1.889172	ร้าน	-0.6213759
-3.003116	ลด	-0.2883419
-3.401056	ลบ	-0.2959119
-3.401056	ลวก	-0.2448575
-3.401056	ลอย	-0.3008575
-3.100026	ละ	-0.3940418
-2.702086	ลา	-0.6002452
-3.401056	ลางาน	-0.2995614
-3.401056	ลาน	-0.3006849
-3.401056	ลิฟท์	-0.3006849
-3.401056	ลิโด้	-0.2994749
-3.401056	ลืม	-0.2988687
-3.401056	ลุก	-0.2993883
-3.401056	ลุง	-0.2917912
-3.401056	ลูก	-0.3008575
-3.401056	ล็อบสเตอร์	-0.3004259
-3.401056	ล่า	-0.2997345
-3.401056	ล่าสุด	-0.2448575
-2.798996	วอล	-0.3617128
-2.923934	วัตถุดิบ	-0.770583
-1.844753	วัน	-0.5533011
-3.224965	วันที่	-0.2992152
-2.401056	วันนี้	-0.3365705
-3.224965	วันศุกร์	-0.2819012
-3.401056	วันหยุด	-0.2952133
-3.401056	วันเสาร์	-0.2952133
-3.401056	วันไหน	-0.292847
-3.401056	วาน	-0.2878977
-3.401056	วานซืน	-0.2984351
-3.003116	วิธี	-0.4739186
-3.100026	วิธีทำ	-0.3962984
-3.401056	วินาที	-0.2448575
-3.401056	วิฟ	-0.2878977
-3.401056	วิลลิส	-0.2986086
-3.003116	วิศวะ	-0.3527954
-3.100026	ว่า	-0.377005
-2.856988	ว่าง	-0.2189762
-3.224965	ศิลปิน	-0.3006849
-2.856988	ศุกร์	-0.3361369
-3.401056	สคิป	-0.3005986
-3.401056	สตางค์	-0.2981748
-3.003116	สตาร์วอร์	-0.2749974
-3.401056	สต็อป	-0.2448575
-3.100026	สถานี	-0.3895812
-3.401056	สน	-0.3008575
-3.224965	สมัคร	-0.2976536
-3.100026	สมาชิก	-0.2857592
-3.401056	สยอง	-0.3008575
-3.224965	สยาม	-0.3003395
-3.100026	สระ	-0.6017149
-3.224965	สร้าง	-0.4740924
-3.401056	สวิฟ	-0.2448575
-3.401056	สวีท	-0.3008575
-2.379867	สอง	-0.2572896
-3.003116	สอน	-0.6963751
-3.401056	สะสาง	-0.292847
-3.401056	สับ	-0.2984351
-2.798996	สัปดาห์	-0.6464333
-3.100026	สั่ง	-0.2892289
-3.224965	สาขา	-0.2428902
-2.471637	สาม	-0.3240934
-3.401056	สามย่าน	-0.3002532
-3.401056	สาย	-0.3008575
-3.224965	สำหรับ	-0.2981747
-3.401056	สิงหา	-0.2878977
-2.068617	สิบ	-0.4328204
-3.224965	สิบเอ็ด	-0.2377329
-3.401056	สิ้น	-0.3001668
-2.340358	สี่	-0.4075063
-3.401056	สุกี้	-0.3008575
-2.525995	สุด	-0.3128546
-3.401056	สุดท้าย	-0.298088
-3.100026	สุภาพ	-0.3953451
-3.401056	สุ่ม	-0.2959119
-3.224965	สูง	-0.4758258
-2.923934	สูตร	-0.7752092
-3.224965	สเตย์	-0.2446612
-2.798996	สเต็ก	-0.3712367
-2.923934	สแควร์	-0.4058475
-3.100026	ส่ง	-0.3946505
-3.224965	ส่วน	-0.4766899
-3.224965	ส้ม	-0.4768625
-3.401056	ส้มตำ	-0.3008575
-2.555958	หก	-1.138209
-2.100026	หนัง	-0.5585682
-2.798996	หนึ่ง	-0.3080163
-2.270722	หน่อย	-1.086606
-2.660693	หน้า	-0.4631586
-3.003116	หมด	-0.3096398
-3.100026	หมอ	-0.2992152
-3.003116	หมู	-0.2992152
-3.401056	หมูสับ	-0.2448575
-3.100026	หยุด	-0.2387295
-3.100026	หรือ	-0.3002531
-3.003116	หลัง	-0.2924953
-3.401056	หลับ	-0.3004259
-3.224965	หวาน	-0.2298804
-3.003116	หอ	-0.4751332
-3.100026	หา	-0.6017149
-3.401056	หาย	-0.3008575
-3.401056	ห่าง	-0.3008575
-2.856988	ห้อง	-0.8442348
-2.239688	ห้า	-0.3416537
-3.224965	ห้าม	-0.4746999
-3.401056	อกหัก	-0.2448575
-3.401056	อด	-0.3008575
-2.471637	อยาก	-0.5561763
-2.423332	อยู่	-0.531621
-3.401056	อย่า	-0.3008575
-3.401056	อย่าง	-0.3002532
-3.224965	อย่างไร	-0.2355324
-2.798996	อร่อย	-0.4626635
-2.798996	ออก	-0.4322906
-3.100026	ออฟ	-0.3969039
-2.856988	อะ	-0.415517
-1.762566	อะไร	-0.7387164
-2.923934	อะไรวอล	-0.2231232
-3.100026	อักษร	-0.3789914
-2.923934	อังคาร	-0.2368341
-3.224965	อันดับ	-0.476258
-3.224965	อันเดอร์วอเตอร์เวิล์ด	-0.298782
-3.100026	อัลบั้ม	-0.389757
-2.798996	อาทิตย์	-0.3743362
-3.224965	อาบ	-0.476258
-3.401056	อาย	-0.3006849
-3.401056	อายุ	-0.299648
-2.170607	อาหาร	-0.4164491
-3.401056	อินเซปชั่น	-0.2982616
-2.01189	อีก	-0.4948541
-3.401056	อีกรอบ	-0.2448575
-3.401056	อีเมล	-0.2976536
-3.401056	อีเมล์	-0.2976536
-2.856988	อื่น	-0.2775264
-3.401056	อุปกรณ์	-0.3008575
-3.401056	อเมซอน	-0.2970448
-3.401056	อ้อม	-0.3008575
-3.224965	อ้อย	-0.2927591
-3.401056	อ้าว	-0.2448575
-3.401056	ฮันนี่มูน	-0.3008575
-3.401056	ฮาจิบัง	-0.299648
-3.401056	เกลือ	-0.299648
-3.224965	เกาหลี	-0.2905561
-3.224965	เกาเหลา	-0.290291
-3.401056	เกิน	-0.299042
-3.401056	เกี่ยว	-0.3002532
-3.003116	เก้า	-0.358738
-3.401056	เขต	-0.294776
-3.401056	เขียน	-0.2982616
-3.401056	เขียว	-0.3007712
-2.856988	เข้า	-0.3336241
-3.401056	เค	-0.2981748
-3.224965	เครดิต	-0.2975667
-3.401056	เครป	-0.3005986
-3.401056	เครือ	-0.2934617
-3.100026	เครื่อง	-0.3005122
-3.401056	เคลียร์	-0.3005123
-3.401056	เคเอฟซี	-0.3000803
-2.856988	เงิน	-0.2862057
-3.003116	เงียบ	-0.3081577
-3.224965	เจฟเฟอร์	-0.2888744
-3.100026	เจียว	-0.2434813
-2.856988	เจ็ด	-0.5932614
-3.401056	เจ้า	-0.2993018
-2.923934	เจ๊	-0.3509735
-3.401056	เชดส์	-0.3008575
-3.401056	เชพ	-0.3006849
-3.100026	เชื่อม	-0.3969039
-3.100026	เช็ค	-0.3947374
-3.401056	เช่า	-0.2981748
-2.702086	เช้า	-0.2802888
-3.401056	เซ	-0.3008575
-3.401056	เซนเตอร์	-0.298088
-3.401056	เซอเคิล	-0.3003395
-3.401056	เซเว่น	-0.2970448
-3.224965	เซ็นทรัลเวิลด์	-0.2866515
-2.856988	เดอะ	-0.341473
-2.702086	เดือน	-0.4477874
-3.401056	เด็ก	-0.2981748
-2.702086	เด็ด	-0.5917628
-2.446813	เตือน	-0.3031377
-3.401056	เถอะ	-0.2448575
-3.401056	เทค	-0.3008575
-3.401056	เทพ	-0.3008575
-2.660693	เที่ยง	-0.3556311
-3.401056	เทเลอร์	-0.3008575
-2.497966	เท่า	-0.9276907
-3.401056	เท่าไร	-0.2448575
-2.798996	เท่าไหร่	-0.8469175
-3.401056	เนย	-0.2981748
-3.224965	เนี่ย	-0.4209488
-3.224965	เนื้อ	-0.4720032
-3.401056	เบอร์	-0.3008575
-2.923934	เบา	-0.3445265
-3.003116	เปลี่ยน	-0.2406166
-3.401056	เปล่า	-0.2448575
-2.555958	เปิด	-0.4440423
-2.423332	เป็น	-0.4042133
-1.931234	เพลง	-0.390452
-3.224965	เพลย์ลิส	-0.4209488
-2.856988	เพลลิสต์	-0.8399799
-3.100026	เพลิง	-0.2419031
-2.497966	เพิ่ม	-0.4396893
-3.100026	เพื่อน	-0.2941632
-2.798996	เมนู	-0.364583
-3.100026	เมื่อ	-0.2944259
-3.401056	เมื่อคืน	-0.2995614
-3.100026	เมื่อวาน	-0.2814503
-3.401056	เมื่อไหร่	-0.2448575
-2.923934	เมเจอร์	-0.4235473
-3.401056	เยส	-0.2448575
-2.702086	เย็น	-0.2682345
-3.401056	เย็นนี้	-0.2999074
-3.401056	เรด	-0.2448575
-3.401056	เรตติ้ง	-0.3003395
-2.923934	เรา	-0.3454033
-3.003116	เริ่ม	-0.2950384
-3.100026	เรียก	-0.6012832
-3.224965	เรียง	-0.4727007
-2.747843	เรียน	-0.3538657
-3.401056	เรียนพิเศษ	-0.2993883
-3.401056	เรือ	-0.295388
-2.183572	เรื่อง	-0.4964182
-3.224965	เร็ว	-0.2343275
-3.401056	เลิฟ	-0.3003395
-3.401056	เลี้ยง	-0.3008575
-2.923934	เลื่อน	-0.3442631
-3.401056	เลโก	-0.3008575
-2.254928	เล่น	-0.8777664
-2.555958	เวลา	-0.3892294
-3.401056	เววเวต	-0.2448575
-3.224965	เวียดนาม	-0.2905561
-3.401056	เศรษฐศาสตร์	-0.2878977
-3.401056	เสนอ	-0.3008575
-3.401056	เสริมสวย	-0.2934617
-3.401056	เสร็จ	-0.2993883
-2.923934	เสาร์	-0.2815406
-2.923934	เสียง	-0.4852376
-3.401056	เสือ	-0.3006849
-3.224965	เส้น	-0.4757393
-3.401056	เหมือน	-0.2995614
-3.401056	เหรอ	-0.3005986
-3.401056	เหรียญ	-0.3008575
-3.100026	เหลือ	-0.2924074
-3.224965	เอ	-0.2968707
-3.100026	เอง	-0.2982616
-3.401056	เอทีเอม	-0.3006849
-3.401056	เอน	-0.2995614
-3.100026	เอฟ	-0.2904678
-3.100026	เอส	-0.6017149
-3.100026	เอา	-0.3921233
-3.401056	เอ็กซ์	-0.2994749
-3.100026	เอ็ด	-0.5941406
-3.100026	เอ็ม	-0.3956053
-3.401056	เฮท	-0.3003395
-3.401056	แกง	-0.3008575
-3.401056	แคนท์	-0.3008575
-3.401056	แคนเซิล	-0.2966094
-2.798996	แคลอรี่	-0.378225
-3.401056	แค่	-0.2952133
-3.401056	แค่ไหน	-0.2448575
-2.923934	แจ้ง	-0.7765962
-3.224965	แดง	-0.2989553
-3.401056	แถม	-0.3003395
-2.660693	แถว	-0.3175497
-3.401056	แท็กซี่	-0.2993883
-3.401056	แนว	-0.2934617
-2.856988	แนะนำ	-0.4706047
-2.622904	แบบ	-0.3095313
-3.401056	แบ็ทแมน	-0.3004259
-2.555958	แปด	-0.7162597
-3.401056	แพง	-0.2997345
-3.401056	แพทย์	-0.2448575
-2.702086	แรก	-0.3795496
-3.401056	แรนดอม	-0.2959119
-3.401056	แรนด้อม	-0.2959119
-3.401056	แลก	-0.3004259
-3.003116	แลนด์	-0.2881643
-3.401056	และ	-0.3007712
-2.423332	แล้ว	-0.3969384
-3.401056	แว่น	-0.2982616
-3.401056	แสดง	-0.2981748
-3.401056	แห้ง	-0.2448575
-3.224965	แอนด์	-0.4765172
-3.401056	แอม	-0.3008575
-3.401056	แอล	-0.2878977
-3.401056	แอ็คชั่น	-0.2981748
-3.100026	แฮรี่พอตเตอร์	-0.3962984
-2.359663	โกวาจี	-0.3657381
-3.401056	โฆษณา	-0.3004259
-3.401056	โจอี้บอย	-0.2448575
-2.923934	โซน	-0.5363243
-3.401056	โซฟา	-0.2994749
-3.401056	โทร	-0.3005123
-3.401056	โทรศัพท์	-0.2982616
-3.100026	โบว์ลิ่ง	-0.2864732
-3.224965	โปรด	-0.4209488
-3.401056	โปรเจค	-0.294776
-3.401056	โปรแกรม	-0.2448575
-3.003116	โปรโมชัน	-0.2903794
-3.224965	โปรโมชั่น	-0.2905561
-3.401056	โฟร์	-0.2988687
-1.743044	โมง	-0.6165722
-2.471637	โรง	-0.508271
-3.401056	โรงหนัง	-0.3005123
-3.401056	โรตี	-0.3008575
-3.224965	โลแกน	-0.2976536
-3.401056	โอ	-0.3005986
-3.401056	โอว	-0.2976536
-2.923934	ใกล้	-0.2815406
-3.003116	ใคร	-0.2986953
-3.401056	ใจ	-0.292847
-2.660693	ใช้	-0.5270071
-3.401056	ใต้	-0.3008575
-2.525995	ใน	-0.4196628
-2.856988	ใส่	-0.2987821
-2.923934	ใหม่	-0.2732427
-2.747843	ให้	-0.3635562
-3.401056	ไกล	-0.2448575
-2.923934	ไก่	-0.2953007
-2.497966	ไข่	-0.3974309
-3.224965	ไง	-0.4209488
-2.196936	ได้	-0.3416847
-3.401056	ได้มั้ย	-0.2448575
-3.401056	ได้ไหม	-0.3001668
-2.856988	ไทย	-0.2775537
-3.401056	ไนท์	-0.2448575
-2.170607	ไป	-0.3147785
-3.401056	ไผ่ทอง	-0.3005123
-3.401056	ไฟ	-0.3008575
-3.224965	ไฟฟ้า	-0.2979142
-3.401056	ไฟว์	-0.2448575
-2.702086	ไม่	-0.3558193
-3.224965	ไม่ว่าง	-0.4766035
-2.747843	ไร	-0.6334724
-3.401056	ไวไฟ	-0.3002532
-3.401056	ไส้	-0.2970448
-1.719815	ไหน	-0.6080087
-2.183572	ไหม	-1.173491
-3.401056	ไหม้	-0.2448575
-2.660693	ไหร่	-0.7126537
-3.224965	ไห้	-0.2975667
-3.003116	ไอ	-0.3672864
-3.224965	ไอติม	-0.3005122
-3.401056	ไอที	-0.2934617
-3.401056	ไอเดีย	-0.3000803
-3.401056	ไอแม็กซ์	-0.3001668

\2-grams:
-2.89487	<s> กระแส
-2.89487	<s> กล้วย
-2.417748	<s> กิน
-2.59384	<s> กี่
-2.89487	<s> กู๊ด
-2.89487	<s> ก๋วยเตี๋ยว
-1.38972	<s> ขอ
-2.89487	<s> ของ
-2.29281	<s> ขั้น
-2.89487	<s> ขี้เกียจ
-2.89487	<s> ข้าม
-2.29281	<s> ข้าว
-2.89487	<s> ครีมเมอรี่
-2.29281	<s> คำนวณ
-2.89487	<s> คิดส์ซาเนีย
-2.59384	<s> คุย
-2.89487	<s> ค่า
-2.417748	<s> งาน
-2.89487	<s> ง่วง
-2.59384	<s> จอง
-2.89487	<s> จอด
-2.89487	<s> จะ
-2.89487	<s> จับ
-2.417748	<s> จาม
-2.89487	<s> จุด
-2.417748	<s> ฉัน
-2.89487	<s> ชัฟเฟิล
-2.29281	<s> ชั้น
-2.89487	<s> ชาร์จ
-2.59384	<s> ช่วง
-2.417748	<s> ช่วย
-2.1959	<s> ซื้อ
-2.89487	<s> ซุเปอร์มาร์เก็ต
-2.89487	<s> ดัง
-2.89487	<s> ดังๆ
-2.89487	<s> ดู
-2.89487	<s> ตลาด
-2.417748	<s> ตอน
-2.89487	<s> ตัด
-2.116718	<s> ตั้ง
-1.99178	<s> ตื่น
-2.59384	<s> ต่อ
-2.89487	<s> ต้ม
-2.89487	<s> ถาม
-2.29281	<s> ทาง
-2.116718	<s> ทำ
-1.718778	<s> ที่
-2.417748	<s> ที่นี่
-2.29281	<s> ธนาคาร
-2.29281	<s> นอน
-2.89487	<s> นักเรียน
-1.718778	<s> นัด
-2.59384	<s> นับ
-2.89487	<s> นั่ง
-2.89487	<s> บรูซ
-2.89487	<s> บลีช
-2.89487	<s> บอก
-2.89487	<s> บัตร
-2.89487	<s> บัว
-2.89487	<s> บิวตี้
-2.89487	<s> บ่าย
-2.89487	<s> ประชาสัมพันธ์
-2.116718	<s> ประชุม
-2.89487	<s> ประทับ
-1.940627	<s> ปลุก
-2.89487	<s> ปังเย็น
-2.59384	<s> ปิด
-2.59384	<s> ผัด
-2.89487	<s> ผัดซีอิ๊ว
-2.89487	<s> พร
-2.1959	<s> พรุ่ง
-1.815688	<s> พรุ่งนี้
-2.89487	<s> พอ
-2.89487	<s> พอส
-2.89487	<s> พาราโบลา
-2.59384	<s> พุธ
-2.89487	<s> พูด
-2.89487	<s> ฟิตเนส
-2.59384	<s> มะรืน
-2.89487	<s> มัน
-2.417748	<s> มา
-1.154507	<s> มี
-2.89487	<s> มื้อ
-1.89487	<s> ยกเลิก
-2.89487	<s> ยืนยัน
-2.59384	<s> ย้าย
-2.417748	<s> ระหว่าง
-2.59384	<s> รับ
-1.99178	<s> ร้าน
-2.59384	<s> ลด
-2.89487	<s> ลบ
-2.89487	<s> ลาน
-2.89487	<s> ลุก
-1.616116	<s> วัน
-2.89487	<s> วันที่
-2.116718	<s> วันนี้
-2.89487	<s> วันศุกร์
-2.89487	<s> สคิป
-2.59384	<s> สตาร์วอร์
-2.89487	<s> สต็อป
-2.89487	<s> สถานี
-2.59384	<s> สร้าง
-2.29281	<s> สอน
-2.116718	<s> สัปดาห์
-2.89487	<s> สิบ
-2.89487	<s> สี่
-2.89487	<s> สุภาพ
-2.89487	<s> สุ่ม
-2.89487	<s> ส้มตำ
-1.69075	<s> หนัง
-2.417748	<s> หยุด
-2.89487	<s> หลัง
-2.417748	<s> หา
-2.1959	<s> ห้อง
-2.59384	<s> ห้าม
-1.748742	<s> อยาก
-2.89487	<s> อย่า
-2.89487	<s> อะไร
-2.89487	<s> อะไรวอล
-2.59384	<s> อันเดอร์วอเตอร์เวิล์ด
-2.29281	<s> อาทิตย์
-2.89487	<s> อาบ
-1.533142	<s> อีก
-2.59384	<s> เกาเหลา
-2.89487	<s> เครป
-2.89487	<s> เคลียร์
-2.59384	<s> เงียบ
-2.89487	<s> เจฟเฟอร์
-2.59384	<s> เช็ค
-2.89487	<s> เช้า
-2.59384	<s> เดือน
-2.29281	<s> เตือน
-2.89487	<s> เที่ยง
-2.29281	<s> เบา
-2.59384	<s> เปลี่ยน
-2.1959	<s> เปิด
-2.59384	<s> เป็น
-2.116718	<s> เพลง
-1.815688	<s> เพิ่ม
-2.89487	<s> เมนู
-2.59384	<s> เมื่อ
-2.89487	<s> เมื่อคืน
-2.59384	<s> เมื่อวาน
-2.89487	<s> เย็น
-2.29281	<s> เริ่ม
-2.417748	<s> เรียก
-2.59384	<s> เรียง
-2.1959	<s> เลื่อน
-1.639597	<s> เล่น
-2.89487	<s> เสาร์
-2.89487	<s> เสือ
-2.59384	<s> เอา
-2.89487	<s> แคนเซิล
-2.29281	<s> แจ้ง
-2.417748	<s> แถว
-2.1959	<s> แนะนำ
-2.89487	<s> แปด
-2.89487	<s> แรนดอม
-2.89487	<s> แลก
-2.89487	<s> แฮรี่พอตเตอร์
-1.57265	<s> โกวาจี
-2.89487	<s> โฆษณา
-2.89487	<s> โซน
-2.89487	<s> โปรโมชัน
-2.049772	<s> โรง
-2.89487	<s> โรตี
-2.89487	<s> โลแกน
-2.417748	<s> ใคร
-2.1959	<s> ใส่
-2.417748	<s> ไข่
-2.89487	<s> ได้
-2.59384	<s> ไป
-2.89487	<s> ไฟ
-2.29281	<s> ไม่
-2.89487	<s> ไอติม
-0.30103	กระเทียม ต้อง
-0.30103	กระแส ตอบ
-0.30103	กรุงศรี อยู่
-0.60206	กลับ บีทีเอส
-0.60206	กลับ บ้าน
-0.30103	กลางวัน หน่อย
-0.60206	กล้วย ปิ้ง
-0.60206	กล้วย ราคา
-0.3521825	กว่า กัน
-0.4771213	กว่า จะ
-0.30103	กสิกร อยู่
-0.90309	กะเพรา ที
-0.90309	กะเพรา หมูสับ
-0.90309	กะเพรา ใช้
-0.90309	กะเพรา ไก่
-0.30103	กัญชา </s>
-0.3467875	กัน </s>
-1.30103	กัน สำหรับ
-1.30103	กัน เถอะ
-0.8239087	กัน เอง
-1.30103	กัน แค่
-1.146128	กับ พุธ
-0.845098	กับ ร้าน
-1.146128	กับ ลา
-1.146128	กับ ส้ม
-0.845098	กับ หมอ
-1.146128	กับ เพลง
-0.30103	การ แจ้ง
-0.30103	กาแฟ อะไร
-0.30103	กำกับ เรื่อง
-0.30103	กิจกรรม พรุ่งนี้
-1.243038	กิน </s>
-1.544068	กิน ข้าว
-1.243038	กิน ชาบู
-1.544068	กิน ดี
-1.544068	กิน บ้าง
-1.544068	กิน ผัด
-1.544068	กิน ยา
-1.243038	กิน สเต็ก
-0.7659168	กิน อะไร
-1.243038	กิน อาหาร
-1.544068	กิน ฮาจิบัง
-1.544068	กิน เคเอฟซี
-1.544068	กิน ไก่
-0.30103	กินข้าว วัน
-0.30103	กีฬา ได้
-1.732394	กี่ คน
-1.732394	กี่ งาน
-1.431364	กี่ ที่
-1.431364	กี่ นัด
-0.8293038	กี่ นาที
-1.732394	กี่ บาท
-1.732394	กี่ สาขา
-1.255273	กี่ แคลอรี่
-0.3174204	กี่ โมง
-0.09691001	กี่โมง </s>
-0.30103	กุมภา มี
-0.30103	กู๊ด ไนท์
-0.1249387	ก็ ได้
-0.60206	ก็ได้ </s>
-0.60206	ก็ได้ นะ
-0.9542425	ก่อน </s>
-0.9542425	ก่อน ซัก
-0.6532125	ก่อน นอน
-0.9542425	ก่อน สอง
-0.30103	ก่อนหน้า </s>
-1	ก๋วยเตี๋ยว กัญชา
-1	ก๋วยเตี๋ยว ที่
-1	ก๋วยเตี๋ยว รุจิศรี
-1	ก๋วยเตี๋ยว อด
-1	ก๋วยเตี๋ยว เรือ
-0.30103	ขนม หวาน
-0.30103	ขนาด นั้น
-0.30103	ขวด ละ
-0.30103	ขวัญ เรื่อง
-1.662758	ขอ ข้อมูล
-1.060698	ขอ นอน
-1.662758	ขอ พิกัด
-1.361728	ขอ รอบ
-1.060698	ขอ ราย
-1.662758	ขอ รายชื่อ
-0.9637879	ขอ สูตร
-0.9637879	ขอ อีก
-1.662758	ขอ เบอร์
-1.060698	ขอ เพลง
-1.662758	ขอ เรื่อง
-1.361728	ขอ เส้น
-1.361728	ขอ โปรโมชัน
-1.230449	ของ ที่
-1.531479	ของ พรุ่งนี้
-1.531479	ของ มะรืน
-1.531479	ของ มารูน
-1.230449	ของ วัน
-1.531479	ของ วันนี้
-1.230449	ของ ศิลปิน
-1.531479	ของ สัปดาห์
-1.531479	ของ หาย
-1.531479	ของ เทเลอร์
-1.531479	ของ เมื่อวาน
-1.531479	ของ เอส
-1.531479	ของ แฮรี่พอตเตอร์
-1.531479	ของ โรงหนัง
-1.230449	ของ ได้
-0.30103	ขอบคุณ </s>
-0.544068	ขั้น ตอน
-0.845098	ขั้น ต่อ
-0.845098	ขั้น ถัด
-1	ขาย ข้าวโพด
-1	ขาย ด้วย
-1	ขาย ทุก
-1	ขาย น้ำ
-1	ขาย ยัง
-0.30103	ขี้เกียจ สระ
-0.30103	ข้อมูล หนัง
-0.30103	ข้าง แอม
-0.30103	ข้าม </s>
-1.041393	ข้าว กี่
-0.7403627	ข้าว ผัด
-0.5642715	ข้าว มัน
-1.041393	ข้าว หมู
-0.30103	ข้าวโพด คลุก
-0.9542425	คณะ บัญชี
-0.6532125	คณะ วิศวะ
-0.9542425	คณะ อักษร
-0.9542425	คณะ แพทย์
-1	คน นั่ง
-1	คน พิการ
-1	คน มั้ย
-1	คน ร้อง
-1	คน แล้ว
-0.7781513	ครั้ง ต่อ
-0.7781513	ครั้ง ถ้า
-0.7781513	ครั้ง หน้า
-0.60206	คราว </s>
-0.60206	คราว ที่
-0.30103	ครีมเมอรี่ มี
-0.7781513	ครึ่ง </s>
-1.477121	ครึ่ง ชั่ว
-0.5228788	ครึ่ง ชั่วโมง
-1.477121	ครึ่ง ต้อง
-0.7781513	ครึ่ง นะ
-1.477121	ครึ่ง หน่อย
-1.477121	ครึ่ง เป็น
-0.30103	คลุก เนย
-0.30103	คล้าย กับ
-0.1760913	ความ ยาว
-0.69897	คะแนน รีวิว
-0.39794	คะแนน ไอ
-0.09691001	คำนวณ แคลอรี่
-0.30103	คิดส์ซาเนีย อยู่
-0.30103	คิว ยาว
-0.60206	คืน </s>
-0.60206	คืน มี
-1	คือ งาน
-0.39794	คือ อะไร
-0.69897	คือ แถว
-0.845098	คุย งาน
-0.845098	คุย ดี
-0.544068	คุย แบบ
-0.30103	คู่ ชีวิต
-0.30103	ค่อย ปลุก
-0.30103	ค่า สมัคร
-0.69897	งบ ประมาณ
-1	งบ สาม
-1	งบ หนึ่ง
-0.69897	งบ ห้า
-0.9294189	งาน </s>
-1.230449	งาน ตอน
-1.70757	งาน ต่อไป
-1.70757	งาน บน
-1.70757	งาน บ้าง
-1.40654	งาน ประชุม
-1.70757	งาน พรุ่งนี้
-1.70757	งาน มั้ย
-1.230449	งาน วัน
-1.40654	งาน วันนี้
-1.70757	งาน วันศุกร์
-1.70757	งาน หรือ
-0.8624721	งาน อะไร
-1.70757	งาน เจ็ด
-1.70757	งาน เตือน
-1.70757	งาน เที่ยง
-1.70757	งาน แรก
-0.30103	ง่วง จัง
-0.845098	จบ กัน
-0.544068	จบ กี่
-0.845098	จบ ก่อน
-0.30103	จอ ที่
-0.544068	จอง ตั๋ว
-0.845098	จอง ที่
-0.845098	จอง ได้
-0.1249387	จอด รถ
-1.041393	จะ จบ
-1.041393	จะ ซื้อ
-1.041393	จะ ออก
-1.041393	จะ เที่ยง
-0.7403627	จะ แปด
-0.30103	จัง </s>
-0.544068	จัด งาน
-0.845098	จัด ที่
-0.845098	จัด หน่อย
-0.845098	จันทร์ </s>
-1.146128	จันทร์ กับ
-1.146128	จันทร์ นี้
-1.146128	จันทร์ พุธ
-0.845098	จันทร์ มี
-1.146128	จันทร์ แปด
-0.1760913	จับ เวลา
-1.278754	จาก บ่าย
-0.9777236	จาก บ้าน
-0.9777236	จาก ฟ้า
-0.9777236	จาก อัลบั้ม
-0.9777236	จาก เพลย์ลิส
-0.6766936	จาก เพลลิสต์
-0.243038	จาม สแควร์
-0.845098	จาม เก้า
-0.60206	จีน อะไร
-0.60206	จีน ไหม
-0.7781513	จุด ถ่ายรูป
-0.7781513	จุด บริการ
-0.7781513	จุด ไหน
-0.30103	จุล มี
-0.6690068	จุฬา </s>
-0.30103	จุฬา มี
-1.146128	จุฬา เปิด
-0.69897	จ่าย ด้วย
-0.39794	จ่าย สาม
-0.30103	ฉัน ตื่น
-0.7781513	ฉัน ไป
-1.30103	ฉาย กี่
-1.30103	ฉาย ตอน
-1.30103	ฉาย ทั้งหมด
-1.30103	ฉาย ที่
-1	ฉาย บ้าง
-1.30103	ฉาย สิบ
-1.30103	ฉาย ห้า
-1.30103	ฉาย อยู่
-1	ฉาย เรื่อง
-0.30103	ชอบ เพลง
-0.30103	ชะตา ชีวิต
-0.30103	ชัฟเฟิล </s>
-0.60206	ชั่ว คราว
-0.60206	ชั่ว โมง
-0.69897	ชั่วโมง </s>
-1.544068	ชั่วโมง กี่
-1.243038	ชั่วโมง ครึ่ง
-1.544068	ชั่วโมง ค่อย
-1.243038	ชั่วโมง ตอน
-1.544068	ชั่วโมง นะ
-0.7659168	ชั่วโมง นึง
-1.544068	ชั่วโมง บ้าง
-1.544068	ชั่วโมง ประชุม
-1.544068	ชั่วโมง ปลุก
-1.544068	ชั่วโมง อะ
-0.9777236	ชั้น สอง
-1.278754	ชั้น สาม
-0.9777236	ชั้น สี่
-0.9777236	ชั้น หนึ่ง
-0.9777236	ชั้น ห้า
-0.6766936	ชั้น ไหน
-0.39794	ชาบู งบ
-0.69897	ชาบู บ้าง
-0.30103	ชาร์จ โทรศัพท์
-0.1760913	ชีวิต </s>
-1	ชื่อ ภาค
-1	ชื่อ สิบ
-0.5228788	ชื่อ หนัง
-1	ชื่อ อะไร
-0.30103	ชูกา </s>
-0.1760913	ช่วง นี้
-0.69897	ช่วย ด้วย
-0.39794	ช่วย ตั้ง
-0.30103	ช้า สุด
-0.60206	ซัก ชั่วโมง
-0.60206	ซัก สิบ
-0.30103	ซาวด์แทรก </s>
-0.30103	ซีท มั้ย
-0.30103	ซีรีย์ วันไหน
-0.30103	ซีอิ๊ว ให้
-1.079181	ซื้อ ตั๋ว
-1.079181	ซื้อ ยา
-1.079181	ซื้อ หนึ่ง
-1.079181	ซื้อ อุปกรณ์
-0.60206	ซื้อ เครื่อง
-0.30103	ซุเปอร์มาร์เก็ต อยู่
-0.60206	ซ้ำ </s>
-0.60206	ซ้ำ ทุก
-0.60206	ญี่ปุ่น อะไร
-0.60206	ญี่ปุ่น ไหม
-0.30103	ดนตรี ได้
-0.30103	ดรีม ทีม
-0.30103	ดัง อีก
-0.30103	ดังๆ หน่อย
-0.1249387	ดับ เพลิง
-1	ดาว </s>
-1	ดาว ต้อง
-1	ดาว ปิด
-1	ดาว หน่อย
-1	ดาว ใช้
-0.30103	ดิน ที่
-0.2872417	ดี </s>
-1.491362	ดี ดี
-1.190332	ดี บี
-1.491362	ดี มั้ย
-1.491362	ดี หน่อย
-1.190332	ดี อยาก
-1.491362	ดี เอ็กซ์
-0.30103	ดื่ม ขวด
-0.7781513	ดู หนัง
-0.7781513	ดู อะไรวอล
-0.7781513	ดู เนื้อ
-0.30103	ด้วย </s>
-1.146128	ด้วย บัตร
-1.146128	ด้วย พรุ่งนี้
-1.146128	ด้วย ไหม
-0.1249387	ตรง ไหน
-0.30103	ตรา จอด
-0.1760913	ตลาด นัด
-1.740363	ตอน กี่
-1.439333	ตอน ตี
-1.740363	ตอน ต่อ
-1.740363	ตอน ถัด
-1.439333	ตอน นี้
-1.041393	ตอน บ่าย
-1.439333	ตอน สอง
-1.439333	ตอน สาม
-1.041393	ตอน สิบ
-1.439333	ตอน สี่
-1.138303	ตอน หก
-1.740363	ตอน ห้า
-1.740363	ตอน เก้า
-1.263241	ตอน เจ็ด
-1.439333	ตอน เที่ยง
-1.263241	ตอน แปด
-1.740363	ตอน ไหน
-0.30103	ตอนนี้ </s>
-0.60206	ตอบ รับ
-0.60206	ตอบ อีเมล
-0.30103	ตัด แว่น
-0.5228788	ตั้ง ปลุก
-0.30103	ตั้ง เวลา
-0.60206	ตั้งแต่ วัน
-0.60206	ตั้งแต่ เที่ยง
-1	ตั๋ว ที่
-1	ตั๋ว พร
-1	ตั๋ว ราคา
-1	ตั๋ว หนัง
-1	ตั๋ว แฮรี่พอตเตอร์
-0.1249387	ตาม สั่ง
-0.845098	ตาราง ทั้งหมด
-0.243038	ตาราง เรียน
-0.1760913	ตำ เจ๊
-0.60206	ติด กัน
-0.60206	ติด ธุระ
-0.30103	ติดต่อ ได้
-0.845098	ตี สอง
-0.544068	ตี สี่
-0.845098	ตี ห้า
-0.30103	ตีห้า วันเสาร์
-0.30103	ตึก จุล
-0.8846066	ตื่น กี่
-1.361728	ตื่น ช้า
-0.8846066	ตื่น สิบ
-0.8846066	ตื่น หก
-1.361728	ตื่น เช้า
-1.060698	ตื่น เที่ยง
-0.8846066	ตื่น แล้ว
-1.361728	ต่อ นะ
-1.361728	ต่อ อะ
-0.5835766	ต่อ อีก
-1.361728	ต่อ ได้มั้ย
-1.361728	ต่อ ได้ไหม
-0.5166298	ต่อ ไป
-1.041393	ต่อไป </s>
-1.041393	ต่อไป ยาว
-1.041393	ต่อไป อยู่
-0.7403627	ต่อไป อีก
-1.041393	ต่อไป เพลง
-0.30103	ต่ำ สุด
-0.60206	ต้น เดือน
-0.60206	ต้น ใหม่
-0.9542425	ต้ม </s>
-0.4771213	ต้ม มาม่า
-0.6532125	ต้ม หน่อย
-1.079181	ต้อง ตื่น
-0.6812412	ต้อง ทำ
-1.380211	ต้อง ปลุก
-1.380211	ต้อง มี
-1.380211	ต้อง สะสาง
-1.380211	ต้อง สุภาพ
-1.380211	ต้อง ออก
-1.380211	ต้อง เป็น
-1.079181	ต้อง ใช้
-0.1760913	ถอย หลัง
-0.1760913	ถัด ไป
-0.30103	ถาม ซ้ำ
-1.278754	ถึง กี่
-1.278754	ถึง กี่โมง
-1.278754	ถึง ตี
-1.278754	ถึง ตีห้า
-0.9777236	ถึง สิบ
-1.278754	ถึง สิ้น
-1.278754	ถึง สี่
-1.278754	ถึง หก
-1.278754	ถึง ห้า
-0.60206	ถูก ที่
-0.60206	ถูก สุด
-0.30103	ถ่ายรูป ที่
-0.30103	ถ้า มี
-0.30103	ทน รอ
-0.30103	ทรี ดี
-0.30103	ทองดี ฟันขาว
-0.7781513	ทอด กระเทียม
-0.7781513	ทอด ที่
-0.7781513	ทอด หน่อย
-0.90309	ทั้ง วัน
-0.4259687	ทั้ง หมด
-0.90309	ทั้ง เดือน
-0.30103	ทั้งวัน </s>
-0.5228788	ทั้งหมด </s>
-0.5228788	ทั้งหมด ของ
-1	ทั้งหมด ที่
-1.278754	ทาง เข้า
-0.8016323	ทาง เชื่อม
-0.9777236	ทาง ไป
-0.3245111	ทาง ไหน
-1.643453	ทำ กะเพรา
-1.643453	ทำ คน
-1.643453	ทำ บัตร
-1.342423	ทำ บ้าง
-1.166331	ทำ ผัด
-1.643453	ทำ ราย
-1.643453	ทำ รายได้
-1.643453	ทำ สุกี้
-1.643453	ทำ หมู
-0.7403627	ทำ อะไร
-1.643453	ทำ เงิน
-1.643453	ทำ แกง
-1.342423	ทำ แบบ
-1.643453	ทำ ให้
-1.041393	ทำ ไข่
-0.6532125	ทำงาน ตอน
-0.9542425	ทำงาน ที่
-0.9542425	ทำงาน แปด
-0.9542425	ทำงาน ไร
-0.1760913	ที </s>
-0.30103	ทีม เป็น
-2.149219	ที่ </s>
-1.672098	ที่ คณะ
-2.149219	ที่ จอง
-2.149219	ที่ จอด
-1.848189	ที่ จาม
-1.547159	ที่ ฉาย
-2.149219	ที่ ทำ
-2.149219	ที่ ทำงาน
-1.070038	ที่ นั่ง
-2.149219	ที่ นิติ
-1.194977	ที่ นี่
-1.848189	ที่ พารากอน
-1.848189	ที่ มาบุญครอง
-1.848189	ที่ ยี่
-2.149219	ที่ วิศวะ
-1.672098	ที่ สิบ
-2.149219	ที่ สิบเอ็ด
-1.450249	ที่ สุด
-2.149219	ที่ หอ
-2.149219	ที่ ห่าง
-2.149219	ที่ อักษร
-2.149219	ที่ เจ็ด
-2.149219	ที่ เซ็นทรัลเวิลด์
-2.149219	ที่ เท่า
-2.149219	ที่ เท่าไหร่
-2.149219	ที่ เปลี่ยน
-2.149219	ที่ เป็น
-2.149219	ที่ เมเจอร์
-2.149219	ที่ เร็ว
-2.149219	ที่ เศรษฐศาสตร์
-2.149219	ที่ เหลือ
-2.149219	ที่ เอน
-1.848189	ที่ แล้ว
-1.848189	ที่ ใกล้
-1.848189	ที่ ใน
-0.6307052	ที่ ไหน
-0.30103	ที่นั่ง </s>
-0.69897	ที่นี่ ปิด
-0.39794	ที่นี่ เปิด
-0.30103	ที่พัก ใกล้
-0.30103	ที่แล้ว </s>
-1.20412	ทุก ครั้ง
-1.20412	ทุก รายการ
-0.30103	ทุก วัน
-0.90309	ทุก อาทิตย์
-0.30103	ทุ่ง </s>
-0.9777236	ทุ่ม </s>
-1.278754	ทุ่ม ถึง
-1.278754	ทุ่ม ที่
-1.278754	ทุ่ม นึง
-0.9777236	ทุ่ม บ้าง
-0.9777236	ทุ่ม วัน
-1.278754	ทุ่ม สี่
-1.278754	ทุ่ม ออก
-0.30103	ทูเดย์ สเต็ก
-0.90309	ธนาคาร กรุงศรี
-0.90309	ธนาคาร กสิกร
-0.90309	ธนาคาร ยู
-0.90309	ธนาคาร ไทย
-0.4771213	ธุระ </s>
-0.4771213	ธุระ อะไร
-0.1249387	นอก จุฬา
-1.021189	นอน </s>
-0.3222193	นอน ต่อ
-1.021189	นอน อีก
-1.322219	นอน ได้
-1.322219	นอน ไม่
-0.30103	นอนได้ ถึง
-0.1127043	นะ </s>
-0.7659168	นะ พรุ่งนี้
-0.30103	นักเรียน ได้
-1.596597	นัด </s>
-1.596597	นัด กับ
-1.897627	นัด กิน
-1.897627	นัด กินข้าว
-1.596597	นัด ตอน
-1.897627	นัด ตั้งแต่
-1.897627	นัด ต่อ
-1.897627	นัด ต่อไป
-1.596597	นัด ทั้งหมด
-1.897627	นัด ทำงาน
-1.897627	นัด นำ
-1.295567	นัด ประชุม
-1.897627	นัด มัน
-1.897627	นัด มั้ย
-1.119476	นัด วัน
-1.897627	นัด วันนี้
-1.897627	นัด สาม
-1.897627	นัด สิบ
-1.897627	นัด สี่
-1.897627	นัด สุดท้าย
-1.897627	นัด ส่ง
-1.897627	นัด หมอ
-1.295567	นัด อะไร
-1.897627	นัด เตือน
-1.897627	นัด เพิ่ม
-1.596597	นัด เพื่อน
-1.897627	นัด เย็นนี้
-1.897627	นัด เลี้ยง
-1.119476	นัด แรก
-0.39794	นับ ถอย
-0.69897	นับ เวลา
-1.414973	นั่ง ติด
-1.414973	นั่ง ถูก
-1.414973	นั่ง ทำงาน
-1.414973	นั่ง ที่
-1.414973	นั่ง บี
-1.414973	นั่ง พรีวิเลจ
-1.414973	นั่ง พรีเมี่ยม
-1.414973	นั่ง มั้ย
-1.414973	นั่ง ริม
-1.414973	นั่ง เอ
-0.9378521	นั่ง แบบ
-1.414973	นั่ง แพง
-0.30103	นั้น ก็
-0.3521825	นาที </s>
-1.653213	นาที กลับ
-1.653213	นาที กี่
-1.352183	นาที นะ
-1.653213	นาที ปลุก
-1.653213	นาที ละ
-1.653213	นาที อะ
-1.653213	นาที เที่ยง
-1.653213	นาที เป็น
-1.352183	นาที แปด
-1.653213	นาที แล้ว
-1.653213	นาที ได้
-0.845098	นาน แค่ไหน
-0.243038	นาน ไหม
-0.30103	นำ เสนอ
-0.30103	นิติ มี
-1.113943	นี่ </s>
-1.113943	นี่ กลับ
-0.3357921	นี่ มี
-1.113943	นี่ เครือ
-0.7732987	นี้ </s>
-1.64836	นี้ กิน
-1.64836	นี้ กี่
-1.94939	นี้ คิว
-1.34733	นี้ คือ
-1.64836	นี้ จัด
-1.94939	นี้ ซ้ำ
-1.64836	นี้ ตอน
-1.94939	นี้ ต้อง
-0.803262	นี้ มี
-1.64836	นี้ วัน
-1.94939	นี้ ว่าง
-1.94939	นี้ ส่ง
-1.472269	นี้ หนัง
-1.64836	นี้ ออก
-1.94939	นี้ อีก
-1.94939	นี้ อีกรอบ
-1.94939	นี้ เป็น
-1.34733	นี้ โรง
-1.94939	นี้ ใคร
-1.94939	นี้ ใหม่
-1.64836	นี้ ให้
-1.64836	นี้ ไม่ว่าง
-0.30103	นี้่ิ งาน
-0.7403627	นึง </s>
-0.5642715	นึง นะ
-1.041393	นึง ปลุก
-1.041393	นึง ได้
-0.30103	น่า กิน
-0.7781513	น่า สน
-1.146128	น้ำ คน
-0.447158	น้ำ ชั้น
-1.146128	น้ำ ดื่ม
-1.146128	น้ำ เสร็จ
-1.146128	น้ำ แล้ว
-0.30103	น้ำตาล เท่า
-0.30103	น้ำปลา เท่า
-0.1249387	บน ปฎิทิน
-0.30103	บริการ แท็กซี่
-0.30103	บรูซ วิลลิส
-0.30103	บลีช เทพ
-0.30103	บอก งาน
-0.30103	บัญชี ขาย
-0.69897	บัตร สมาชิก
-0.39794	บัตร เครดิต
-0.30103	บัว ลอย
-0.7781513	บาท </s>
-0.60206	บาท กิน
-0.4771213	บาท ที่
-0.1760913	บิวตี้ แอนด์
-0.90309	บี มาก
-0.90309	บี สิบ
-0.90309	บี อยู่
-0.90309	บี เท่าไหร่
-0.30103	บีทีเอส สถานี
-0.1760913	บีสต์ มี
-0.60206	บุฟเฟต์ ที่
-0.60206	บุฟเฟต์ บ้าง
-1.20412	บ่าย </s>
-0.7269987	บ่าย สอง
-1.20412	บ่าย สาม
-0.3590219	บ่าย โมง
-0.004644905	บ้าง </s>
-0.69897	บ้าน </s>
-0.39794	บ้าน แล้ว
-0.30103	บ๊ายบาย </s>
-0.69897	ปฎิทิน ตอน
-0.39794	ปฎิทิน บ้าง
-0.30103	ประชาสัมพันธ์ อยู่
-1.054358	ประชุม </s>
-1.531479	ประชุม กี่
-1.230449	ประชุม ครั้ง
-1.531479	ประชุม คราว
-1.531479	ประชุม งาน
-1.531479	ประชุม จาก
-0.7533277	ประชุม ตอน
-1.531479	ประชุม ทุ่ม
-1.531479	ประชุม บ่าย
-1.531479	ประชุม พรุ่งนี้
-1.531479	ประชุม วัน
-1.531479	ประชุม วันนี้
-1.531479	ประชุม สาม
-0.30103	ประดับ ได้
-0.30103	ประทับ ตรา
-0.1760913	ประมาณ เท่า
-0.30103	ประเภท ไหน
-1.591065	ปลุก </s>
-1.113943	ปลุก ด้วย
-0.8920946	ปลุก ตอน
-1.591065	ปลุก ตี
-1.113943	ปลุก ทุก
-1.591065	ปลุก นะ
-1.591065	ปลุก วันหยุด
-1.591065	ปลุก สิบ
-1.591065	ปลุก สี่
-1.591065	ปลุก หก
-1.591065	ปลุก อีก
-1.591065	ปลุก เก้า
-1.290035	ปลุก เรา
-1.591065	ปลุก แปด
-1.591065	ปลุก ไป
-0.1760913	ปะ </s>
-0.30103	ปังเย็น มี
-0.30103	ปาร์ค ปิด
-0.4771213	ปิด กี่
-0.5740313	ปิด บ้าง
-1.176091	ปิด เสียง
-1.176091	ปิด โปรแกรม
-0.60206	ปิ้ง ที่
-0.60206	ปิ้ง ร้าน
-0.69897	ผม ซัก
-0.39794	ผม แล้ว
-0.30103	ผลไม้ ขาย
-0.30103	ผักกาด ทำ
-0.69897	ผัด กะเพรา
-1.176091	ผัด ซีอิ๊ว
-0.69897	ผัด มาม่า
-0.8750613	ผัด ไข่
-1.176091	ผัด ไทย
-0.30103	ผัดซีอิ๊ว กี่
-0.30103	ผ้า อ้อม
-0.30103	ฝน </s>
-0.1760913	ฝาก ของ
-0.1760913	พร จาก
-0.30103	พริก เท่า
-0.30103	พริกไทย เท่า
-0.30103	พรีวิเลจ คือ
-0.30103	พรีเมี่ยม ราคา
-0.243038	พรุ่ง นี้
-0.845098	พรุ่ง นี้่ิ
-0.7781513	พรุ่งนี้ </s>
-1.380211	พรุ่งนี้ กี่
-1.681241	พรุ่งนี้ กี่โมง
-1.380211	พรุ่งนี้ ตื่น
-1.681241	พรุ่งนี้ ทั้ง
-1.681241	พรุ่งนี้ ทั้งวัน
-1.681241	พรุ่งนี้ ทั้งหมด
-1.681241	พรุ่งนี้ นี้
-1.681241	พรุ่งนี้ บ่าย
-0.9822713	พรุ่งนี้ ปลุก
-0.9822713	พรุ่งนี้ มี
-1.681241	พรุ่งนี้ เปลี่ยน
-1.380211	พรุ่งนี้ เรา
-1.681241	พรุ่งนี้ ไม่
-1.681241	พรุ่งนี้ ไหม
-0.60206	พฤหัส นี้
-0.60206	พฤหัส เย็น
-0.30103	พอ แล้ว
-0.30103	พอส </s>
-0.60206	พะโล้ </s>
-0.60206	พะโล้ ใช้
-0.30103	พากย์ ไทย
-0.30103	พาณิชย์ อยู่
-1.146128	พารากอน </s>
-1.146128	พารากอน จ่าย
-1.146128	พารากอน ตอนนี้
-1.146128	พารากอน มั้ย
-1.146128	พารากอน อย่าง
-1.146128	พารากอน แถว
-1.146128	พารากอน ได้
-0.30103	พาราโบลา วัน
-0.30103	พิกัด ร้าน
-0.30103	พิการ ไหม
-0.60206	พิเศษ ทุก
-0.60206	พิเศษ บ้าง
-1.146128	พุธ </s>
-1.146128	พุธ นี้
-1.146128	พุธ มี
-1.146128	พุธ ศุกร์
-1.146128	พุธ หน้า
-1.146128	พุธ ห้า
-1.146128	พุธ ไป
-0.30103	พูด ว่า
-0.30103	ฟรี มั้ย
-0.30103	ฟัง เพลง
-0.30103	ฟันขาว เข้า
-0.60206	ฟิตเนส มี
-0.60206	ฟิตเนส ไหม
-0.30103	ฟิฟตี้ เชดส์
-0.1760913	ฟ้า รอบ
-0.90309	ภาค ล่า
-0.90309	ภาค ล่าสุด
-0.90309	ภาค ว่า
-0.90309	ภาค ใหม่
-0.30103	มรณะ เดอะ
-0.30103	มหิต มี
-0.09691001	มะรืน นี้
-0.30103	มังสวิรัติ หน่อย
-0.90309	มัน ปิ้ง
-0.90309	มัน อยู่
-0.4259687	มัน ไก่
-0.02482358	มั้ย </s>
-0.90309	มา กิน
-0.60206	มา ต้ม
-0.60206	มา สี่
-0.30103	มาก กว่า
-0.7781513	มาบุญครอง บ้าง
-0.7781513	มาบุญครอง สอง
-0.7781513	มาบุญครอง อยู่
-0.3521825	มาม่า กัน
-0.9542425	มาม่า หน่อย
-0.9542425	มาม่า ใช้
-0.30103	มาย อาย
-0.30103	มารูน ไฟว์
-0.30103	มิยาบิ หมด
-2.283301	มี </s>
-1.982271	มี กี่
-2.283301	มี คน
-1.982271	มี ความ
-1.20412	มี งาน
-2.283301	มี จุด
-2.283301	มี ชื่อ
-2.283301	มี ซีรีย์
-2.283301	มี ตลาด
-1.982271	มี ตั๋ว
-2.283301	มี ทำงาน
-1.329059	มี ที่
-2.283301	มี ที่พัก
-1.80618	มี ธุระ
-1.079181	มี นัด
-1.681241	มี ประชุม
-2.283301	มี ผลไม้
-2.283301	มี ผักกาด
-2.283301	มี ฟิตเนส
-2.283301	มี รส
-2.283301	มี รองเท้า
-2.283301	มี รีวิว
-0.6498328	มี ร้าน
-2.283301	มี ลิฟท์
-1.681241	มี วิธี
-2.283301	มี ส่วน
-1.584331	มี หนัง
-2.283301	มี หมู
-2.283301	มี ห้อง
-1.438203	มี อะไร
-2.283301	มี อายุ
-2.283301	มี อเมซอน
-1.681241	มี เงิน
-2.283301	มี เซเว่น
-1.982271	มี เรียน
-2.283301	มี เวลา
-2.283301	มี เอทีเอม
-1.982271	มี แบบ
-1.681241	มี โซน
-2.283301	มี โปรโมชัน
-1.982271	มี โปรโมชั่น
-2.283301	มี ไวไฟ
-2.283301	มี ไอติม
-0.30103	มีนา มี
-0.30103	มื้อ นี้
-0.30103	มูฟวี่ เป็น
-0.30103	ม้้ย </s>
-1.255273	ยกเลิก </s>
-1.255273	ยกเลิก กิจกรรม
-0.9542425	ยกเลิก งาน
-0.9542425	ยกเลิก ตาราง
-1.255273	ยกเลิก ทุก
-0.5563025	ยกเลิก นัด
-0.1760913	ยัง ไง
-0.1760913	ยังไง </s>
-0.60206	ยา ตอน
-0.60206	ยา ได้
-0.5228788	ยาว กี่
-1	ยาว มั้ย
-1	ยาว เท่า
-1	ยาว เท่าไหร่
-0.30103	ยาโยอิ ไหม
-0.30103	ยิน ว่า
-0.06694679	ยี่ สิบ
-0.30103	ยี่สิบ นาที
-0.30103	ยืนยัน เพิ่ม
-0.60206	ยู </s>
-1.079181	ยู อร่อย
-1.079181	ยู โอ
-1.079181	ยู ไป
-1.079181	ยู ไอ
-0.30103	ย่อ ของ
-0.1760913	ย้าย งาน
-1.113943	รถ ชั้น
-0.6368221	รถ ดับ
-1.113943	รถ บ้าง
-1.113943	รถ ได้
-0.8129134	รถ ไฟฟ้า
-0.7781513	รส จัด
-0.7781513	รส อะไร
-0.7781513	รส ใหม่
-0.30103	รหัส หก
-0.30103	รอ นาน
-0.30103	รองเท้า ให้
-1.342423	รอบ </s>
-1.342423	รอบ จุฬา
-1.041393	รอบ ฉาย
-1.342423	รอบ ต่อ
-0.8653014	รอบ นอก
-1.342423	รอบ สอง
-1.342423	รอบ สาม
-1.041393	รอบ หก
-1.342423	รอบ ไหน
-0.7781513	ระหว่าง ก๋วยเตี๋ยว
-0.7781513	ระหว่าง สเต็ก
-0.7781513	ระหว่าง ส้ม
-0.6532125	รับ ฝาก
-0.9542425	รับ สมัคร
-0.9542425	รับ เรื่อง
-0.9542425	รับ เหรียญ
-0.3424227	ราคา เท่า
-0.7403627	ราคา เท่าไหร่
-1.041393	ราคา ไหน
-0.30103	รางวัล อะไร
-0.243038	ราย ชื่อ
-0.845098	ราย ได้
-0.30103	รายการ ที่
-0.60206	รายงาน พรุ่งนี้
-0.60206	รายงาน วันนี้
-0.30103	รายชื่อ สาขา
-0.30103	รายได้ สูง
-0.30103	ริม ว่าง
-0.30103	ริฮันนา </s>
-0.60206	รีวิว เท่าไหร่
-0.60206	รีวิว เป็น
-0.30103	รึยัง </s>
-0.30103	รุจิศรี เมนู
-0.69897	ร้อง </s>
-0.39794	ร้อง ไห้
-0.06694679	ร้อย บาท
-1.919078	ร้าน กาแฟ
-1.441957	ร้าน ก๋วยเตี๋ยว
-1.919078	ร้าน ขนม
-1.919078	ร้าน ขาย
-1.919078	ร้าน ทูเดย์
-1.919078	ร้าน บุฟเฟต์
-1.919078	ร้าน มิยาบิ
-1.919078	ร้าน ยาโยอิ
-1.441957	ร้าน สเต็ก
-0.6638056	ร้าน อาหาร
-1.919078	ร้าน เจฟเฟอร์
-1.919078	ร้าน เด็ด
-1.919078	ร้าน เปิด
-1.919078	ร้าน เสริมสวย
-1.919078	ร้าน เอ็ม
-1.618048	ร้าน ใน
-0.5388669	ร้าน ไหน
-1.919078	ร้าน ไอที
-1.919078	ร้าน ไอเดีย
-0.90309	ลด สำหรับ
-0.90309	ลด อะไร
-0.90309	ลด อีก
-0.90309	ลด เสียง
-0.30103	ลบ เพลง
-0.30103	ลวก </s>
-0.30103	ลอย สวีท
-0.39794	ละ กัน
-0.69897	ละ ห้า
-1.079181	ลา ก่อน
-0.4771213	ลา ลา
-0.4771213	ลา แลนด์
-0.30103	ลางาน สาม
-0.30103	ลาน โบว์ลิ่ง
-0.30103	ลิฟท์ ตรง
-0.30103	ลิโด้ มั้ย
-0.30103	ลืม ปลุก
-0.30103	ลุก แล้ว
-0.30103	ลุง ที่
-0.30103	ลูก ทุ่ง
-0.30103	ล็อบสเตอร์ เข้า
-0.30103	ล่า สุด
-0.30103	ล่าสุด </s>
-0.7781513	วอล มี
-1.079181	วอล รอบ
-0.7781513	วอล วันนี้
-1.079181	วอล เข้า
-1.079181	วอล เป็น
-0.07918125	วัตถุดิบ อะไร
-1.653213	วัน </s>
-1.051152	วัน จันทร์
-1.954242	วัน ตอน
-1.954242	วัน ทำงาน
-1	วัน ที่
-0.8402991	วัน นี้
-1.352183	วัน พรุ่งนี้
-1.653213	วัน พฤหัส
-1.477121	วัน พุธ
-1.954242	วัน มะรืน
-1.653213	วัน มี
-1.255273	วัน ศุกร์
-1.954242	วัน อะ
-1.255273	วัน อังคาร
-1.954242	วัน อาทิตย์
-1.352183	วัน เสาร์
-1.954242	วัน ไป
-1.176091	วัน ไหน
-1.653213	วัน ไหม
-0.60206	วันที่ ยี่
-0.60206	วันที่ แปด
-1	วันนี้ </s>
-1.477121	วันนี้ ตั้งแต่
-1.176091	วันนี้ ต้อง
-1.477121	วันนี้ ทั้งหมด
-1.477121	วันนี้ ที่
-1.477121	วันนี้ นอนได้
-1.477121	วันนี้ นี้
-0.8750613	วันนี้ มี
-1.477121	วันนี้ หน่อย
-1.176091	วันนี้ เหลือ
-1.176091	วันนี้ ไป
-0.60206	วันศุกร์ นี้
-0.60206	วันศุกร์ มี
-0.30103	วันหยุด นี้
-0.30103	วันเสาร์ นี้
-0.30103	วันไหน บ้าง
-0.30103	วาน มี
-0.30103	วานซืน ทำ
-0.4771213	วิธี ทำ
-0.4771213	วิธี อื่น
-0.69897	วิธีทำ ข้าว
-0.39794	วิธีทำ ผัด
-0.30103	วินาที </s>
-0.30103	วิฟ มี
-0.30103	วิลลิส เล่น
-0.845098	วิศวะ กับ
-0.845098	วิศวะ มี
-0.544068	วิศวะ เปิด
-0.69897	ว่า มี
-0.39794	ว่า อะไร
-1.079181	ว่าง </s>
-1.079181	ว่าง ตอน
-1.079181	ว่าง บ้าง
-1.079181	ว่าง มั้ย
-1.079181	ว่าง วัน
-1.079181	ว่าง ไหม
-0.60206	ศิลปิน ริฮันนา
-0.60206	ศิลปิน โจอี้บอย
-0.5228788	ศุกร์ </s>
-1	ศุกร์ จัด
-1	ศุกร์ ตอน
-1	ศุกร์ ยกเลิก
-0.30103	สคิป หอ
-0.30103	สตางค์ ไหม
-0.90309	สตาร์วอร์ ที่
-0.90309	สตาร์วอร์ ภาค
-0.90309	สตาร์วอร์ มี
-0.90309	สตาร์วอร์ ได้
-0.30103	สต็อป </s>
-0.69897	สถานี รถ
-0.39794	สถานี อะไร
-0.30103	สน ใจ
-0.60206	สมัคร งาน
-0.60206	สมัคร สมาชิก
-0.7781513	สมาชิก มั้ย
-0.7781513	สมาชิก มี
-0.7781513	สมาชิก เมเจอร์
-0.30103	สยอง ขวัญ
-0.60206	สยาม สแควร์
-0.60206	สยาม เซนเตอร์
-0.1249387	สระ ผม
-0.1760913	สร้าง งาน
-0.30103	สวิฟ </s>
-0.30103	สวีท เซอเคิล
-1.544068	สอง </s>
-1.544068	สอง ครึ่ง
-1.243038	สอง ชั่วโมง
-1.544068	สอง ถึง
-1.544068	สอง ที่
-1.544068	สอง ที่นั่ง
-0.9420081	สอง ทุ่ม
-1.243038	สอง นาที
-1.544068	สอง มี
-1.544068	สอง ร้อย
-1.544068	สอง วัน
-1.544068	สอง เดือน
-1.544068	สอง เรื่อง
-1.544068	สอง ไป
-1.544068	สอง ไส้
-0.09691001	สอน ทำ
-0.30103	สะสาง บ้าง
-0.30103	สับ ทำ
-0.1760913	สัปดาห์ นี้
-0.9542425	สัปดาห์ หน้า
-0.7781513	สั่ง ที่
-0.7781513	สั่ง รอบ
-0.7781513	สั่ง ใน
-0.60206	สาขา </s>
-0.60206	สาขา ของ
-1.447158	สาม ชั่วโมง
-1.447158	สาม ทุ่ม
-1.447158	สาม นาที
-1.447158	สาม บ้าง
-1.447158	สาม ร้อย
-1.447158	สาม ร้าน
-1.447158	สาม วัน
-1.447158	สาม สิงหา
-1.146128	สาม สิบ
-1.447158	สาม หมู
-0.845098	สาม โมง
-1.447158	สาม ไป
-0.30103	สามย่าน กับ
-0.30103	สาย รหัส
-0.60206	สำหรับ สมาชิก
-0.60206	สำหรับ ห้า
-0.30103	สิงหา มี
-1.770852	สิบ </s>
-1.770852	สิบ ชั่วโมง
-1.770852	สิบ ถึง
-0.7294593	สิบ นาที
-1.770852	สิบ บาท
-1.770852	สิบ มี
-1.770852	สิบ มีนา
-1.770852	สิบ ร้าน
-1.770852	สิบ วินาที
-1.168792	สิบ สอง
-1.770852	สิบ สาม
-1.469822	สิบ สี่
-1.469822	สิบ ห้า
-1.770852	สิบ อันดับ
-1.770852	สิบ เจ็ด
-1.293731	สิบ เอ็ด
-0.8166095	สิบ โมง
-0.60206	สิบเอ็ด </s>
-0.60206	สิบเอ็ด วัน
-0.30103	สิ้น เดือน
-1.50515	สี่ </s>
-1.20412	สี่ จ่าย
-1.20412	สี่ ชั่วโมง
-0.90309	สี่ ทุ่ม
-1.50515	สี่ พรุ่งนี้
-1.50515	สี่ มี
-1.028029	สี่ สิบ
-1.50515	สี่ เดือน
-0.7269987	สี่ โมง
-1.50515	สี่ ไป
-0.30103	สุกี้ แห้ง
-0.6627578	สุด </s>
-1.361728	สุด ที่
-1.361728	สุด พรุ่งนี้
-1.361728	สุด มี
-1.060698	สุด ราคา
-1.361728	สุด สถานี
-1.361728	สุด สอง
-1.361728	สุด อยู่
-1.361728	สุด ได้
-0.30103	สุดท้าย พรุ่งนี้
-0.69897	สุภาพ ก็ได้
-0.39794	สุภาพ หน่อย
-0.30103	สุ่ม เพลง
-0.1760913	สูง สุด
-0.07918125	สูตร อาหาร
-0.60206	สเตย์ </s>
-0.60206	สเตย์ วิฟ
-0.7781513	สเต็ก งบ
-1.079181	สเต็ก รอบ
-0.7781513	สเต็ก ร้าน
-1.079181	สเต็ก สามย่าน
-1.079181	สเต็ก ใน
-0.4259687	สแควร์ มี
-0.90309	สแควร์ รับ
-0.90309	สแควร์ วัน
-0.69897	ส่ง งาน
-0.39794	ส่ง รายงาน
-0.1760913	ส่วน ลด
-0.1760913	ส้ม ตำ
-0.30103	ส้มตำ ข้าง
-0.03218468	หก โมง
-1.724276	หนัง ของ
-1.724276	หนัง ทั้งหมด
-1.247155	หนัง ที่
-1.724276	หนัง ประเภท
-1.724276	หนัง ฟรี
-1.724276	หนัง ราคา
-1.724276	หนัง สยอง
-1.423246	หนัง อยู่
-1.724276	หนัง เมเจอร์
-0.3818532	หนัง เรื่อง
-1.423246	หนัง เอส
-1.724276	หนัง แนว
-1.724276	หนัง แอ็คชั่น
-1.724276	หนัง ไทย
-1.113943	หนึ่ง ชั่วโมง
-1.113943	หนึ่ง บ้าง
-1.113943	หนึ่ง มี
-0.8129134	หนึ่ง ร้อย
-1.113943	หนึ่ง แถม
-1.113943	หนึ่ง ไป
-0.1047354	หน่อย </s>
-0.845098	หน่อย นะ
-0.544068	หน้า </s>
-0.544068	หน้า มี
-1.146128	หน้า วัน
-1.146128	หน้า สี่
-0.544068	หมด </s>
-0.845098	หมด ของ
-0.845098	หมด เขต
-0.7781513	หมอ กี่โมง
-0.7781513	หมอ บ่าย
-0.7781513	หมอ วันที่
-0.90309	หมู ทอด
-0.90309	หมู ปิด
-0.90309	หมู สับ
-0.90309	หมู แดง
-0.30103	หมูสับ </s>
-0.7781513	หยุด </s>
-0.7781513	หยุด ชั่ว
-0.7781513	หยุด เพลง
-0.7781513	หรือ ซาวด์แทรก
-0.7781513	หรือ สตาร์วอร์
-0.7781513	หรือ เปล่า
-0.90309	หลัง สาม
-0.90309	หลัง สิบ
-0.90309	หลัง สี่
-0.90309	หลัง สุด
-0.30103	หลับ อะ
-0.60206	หวาน </s>
-0.60206	หวาน มี
-0.4771213	หอ ยู
-0.4771213	หอ ใน
-0.1249387	หา วิธีทำ
-0.30103	หาย ติดต่อ
-0.30103	ห่าง จอ
-0.06694679	ห้อง น้ำ
-1.633469	ห้า </s>
-1.633469	ห้า คน
-1.633469	ห้า จะ
-1.633469	ห้า ตอน
-1.633469	ห้า ทุ่ม
-0.6334684	ห้า นาที
-1.633469	ห้า บาท
-1.633469	ห้า มี
-1.332438	ห้า ร้อย
-1.633469	ห้า วัน
-1.633469	ห้า สิบ
-1.633469	ห้า อันดับ
-1.633469	ห้า เพลง
-1.031408	ห้า โมง
-1.633469	ห้า ไป
-0.1760913	ห้าม เล่น
-0.30103	อกหัก </s>
-0.30103	อด ทน
-0.4973246	อยาก กิน
-1.342423	อยาก ตื่น
-0.8653014	อยาก ทำ
-0.8653014	อยาก นอน
-1.342423	อยาก ฟัง
-1.342423	อยาก สระ
-1.380211	อยู่ </s>
-0.90309	อยู่ ชั้น
-1.079181	อยู่ ตรง
-0.4259687	อยู่ ที่
-1.079181	อยู่ บน
-1.380211	อยู่ ใน
-0.30103	อย่า ลืม
-0.30103	อย่าง ไร
-0.60206	อย่างไร </s>
-0.60206	อย่างไร บ้าง
-0.5228788	อร่อย </s>
-0.5228788	อร่อย กว่า
-1	อร่อย ไหม
-0.4393327	ออก จาก
-1.041393	ออก ทาง
-1.041393	ออก โรง
-1.041393	ออก ไป
-0.39794	ออฟ ยู
-0.69897	ออฟ ออฟ
-0.3521825	อะ </s>
-0.9542425	อะ กี่
-0.9542425	อะ ไร
-0.7738724	อะไร </s>
-2.004321	อะไร กิน
-1.703291	อะไร ก็
-1.5272	อะไร ฉาย
-1.159223	อะไร ดี
-1.5272	อะไร ต้อง
-1.703291	อะไร นะ
-1.703291	อะไร น่า
-0.4602533	อะไร บ้าง
-2.004321	อะไร พิเศษ
-1.703291	อะไร มั้ย
-1.159223	อะไร วอล
-1.703291	อะไร อยู่
-2.004321	อะไร ได้
-2.004321	อะไร ไป
-1	อะไรวอล </s>
-1	อะไรวอล ฉาย
-1	อะไรวอล ที่
-1	อะไรวอล บ้าง
-1	อะไรวอล หรือ
-0.39794	อักษร มี
-0.69897	อักษร ร้าน
-1	อังคาร </s>
-1	อังคาร ตอน
-1	อังคาร ทั้ง
-1	อังคาร ว่าง
-1	อังคาร ห้า
-0.1760913	อันดับ แรก
-0.60206	อันเดอร์วอเตอร์เวิล์ด ปิด
-0.60206	อันเดอร์วอเตอร์เวิล์ด เปิด
-0.69897	อัลบั้ม อะไร
-0.39794	อัลบั้ม เดอะ
-1.041393	อาทิตย์ </s>
-1.041393	อาทิตย์ ถึง
-0.4393327	อาทิตย์ นี้
-1.041393	อาทิตย์ หน้า
-0.1760913	อาบ น้ำ
-0.30103	อาย ออฟ
-0.30103	อายุ เท่า
-1.70757	อาหาร กลางวัน
-1.40654	อาหาร คณะ
-1.40654	อาหาร จีน
-1.40654	อาหาร ญี่ปุ่น
-1.230449	อาหาร ตาม
-1.70757	อาหาร ตึก
-1.230449	อาหาร ที่
-1.70757	อาหาร นี้
-1.70757	อาหาร มหิต
-1.70757	อาหาร มังสวิรัติ
-1.70757	อาหาร ร้าน
-1.70757	อาหาร หอ
-1.40654	อาหาร เกาหลี
-1.40654	อาหาร เวียดนาม
-1.70757	อาหาร แนะนำ
-1.0086	อาหาร ไข่
-1.40654	อาหาร ไทย
-1.40654	อาหาร ไหน
-0.30103	อินเซปชั่น ได้
-1.210853	อีก </s>
-1.034762	อีก กี่
-1.034762	อีก ครึ่ง
-1.034762	อีก ชั่วโมง
-1.812913	อีก ที
-1.210853	อีก นาน
-1.812913	อีก ปะ
-1.812913	อีก ยี่
-1.812913	อีก ยี่สิบ
-1.812913	อีก รอบ
-1.511883	อีก สอง
-1.335792	อีก สิบ
-1.812913	อีก สิบเอ็ด
-1.812913	อีก สี่
-1.812913	อีก หน่อย
-0.9098234	อีก ห้า
-1.812913	อีก ไหม
-0.30103	อีกรอบ </s>
-0.30103	อีเมล ตอน
-0.30103	อีเมล์ ตอน
-1.041393	อื่น </s>
-1.041393	อื่น ปะ
-1.041393	อื่น ยังไง
-0.7403627	อื่น อีก
-1.041393	อื่น ไหม
-0.30103	อุปกรณ์ กีฬา
-0.30103	อเมซอน กี่
-0.30103	อ้อม เด็ก
-0.60206	อ้อย ทำ
-0.60206	อ้อย ร้าน
-0.30103	อ้าว </s>
-0.30103	ฮันนี่มูน ซีท
-0.30103	ฮาจิบัง ต้อง
-0.30103	เกลือ เท่า
-0.60206	เกาหลี อะไร
-0.60206	เกาหลี ไหม
-0.60206	เกาเหลา ที่
-0.60206	เกาเหลา สาม
-0.30103	เกิน สี่
-0.30103	เกี่ยว กับ
-0.845098	เก้า เอ
-0.845098	เก้า แบบ
-0.544068	เก้า โมง
-0.30103	เขต วัน
-0.30103	เขียน ได้
-0.30103	เขียว หวาน
-1.041393	เข้า รึยัง
-1.041393	เข้า วัน
-1.041393	เข้า ออก
-1.041393	เข้า เมื่อไหร่
-0.7403627	เข้า โรง
-0.30103	เค ไหม
-0.60206	เครดิต พารากอน
-0.60206	เครดิต ได้
-0.30103	เครป หอ
-0.30103	เครือ อะไร
-0.7781513	เครื่อง ดนตรี
-0.7781513	เครื่อง ประดับ
-0.7781513	เครื่อง เขียน
-0.30103	เคลียร์ ตาราง
-0.30103	เคเอฟซี ใช้
-1.079181	เงิน ที่
-1.079181	เงิน สอง
-1.079181	เงิน สูง
-1.079181	เงิน หนึ่ง
-1.079181	เงิน ห้า
-1.079181	เงิน เท่าไร
-0.544068	เงียบ </s>
-0.845098	เงียบ เงียบ
-0.845098	เงียบ ได้
-0.60206	เจฟเฟอร์ ที่
-0.60206	เจฟเฟอร์ ไหม
-0.7781513	เจียว </s>
-0.7781513	เจียว ยังไง
-0.7781513	เจียว ใช้
-0.60206	เจ็ด เดือน
-0.30103	เจ็ด โมง
-0.30103	เจ้า ของ
-0.9542425	เจ๊ ดาว
-0.6532125	เจ๊ อ้อย
-0.9542425	เจ๊ แดง
-0.9542425	เจ๊ โอว
-0.30103	เชดส์ เรตติ้ง
-0.30103	เชพ ออฟ
-0.69897	เชื่อม รถ
-0.39794	เชื่อม สยาม
-0.39794	เช็ค งาน
-0.69897	เช็ค อีเมล์
-0.30103	เช่า ไหม
-0.90309	เช้า </s>
-1.20412	เช้า นะ
-1.20412	เช้า นี้
-1.20412	เช้า พรุ่งนี้
-0.90309	เช้า วัน
-1.20412	เช้า อะ
-1.20412	เช้า เช้า
-0.30103	เซ เยส
-0.30103	เซนเตอร์ ไป
-0.30103	เซอเคิล เมนู
-0.30103	เซเว่น กี่
-0.60206	เซ็นทรัลเวิลด์ มี
-0.60206	เซ็นทรัลเวิลด์ รอบ
-0.7403627	เดอะ บีสต์
-1.041393	เดอะ มูฟวี่
-1.041393	เดอะ ล็อบสเตอร์
-1.041393	เดอะ เรด
-1.041393	เดอะ เววเวต
-1.113943	เดือน </s>
-1.113943	เดือน กุมภา
-0.8129134	เดือน นี้
-0.4149733	เดือน หน้า
-0.30103	เด็ก ไหม
-0.4771213	เด็ด บ้าง
-1.079181	เด็ด รอบ
-0.4771213	เด็ด เด็ด
-1.462398	เตือน </s>
-1.462398	เตือน กิน
-1.161368	เตือน ครึ่ง
-0.860338	เตือน ด้วย
-1.462398	เตือน พรุ่งนี้
-1.462398	เตือน ลางาน
-1.462398	เตือน สาม
-1.462398	เตือน สิบ
-1.462398	เตือน ห้า
-1.462398	เตือน เที่ยง
-1.161368	เตือน ให้
-1.462398	เตือน ไป
-0.30103	เถอะ </s>
-0.30103	เทค มาย
-0.30103	เทพ มรณะ
-0.90309	เที่ยง </s>
-0.90309	เที่ยง คืน
-1.20412	เที่ยง ถึง
-0.7269987	เที่ยง นะ
-1.20412	เที่ยง นี้
-1.20412	เที่ยง หน่อย
-0.30103	เทเลอร์ สวิฟ
-0.5314789	เท่า ไร
-0.2304489	เท่า ไหร่
-0.30103	เท่าไร </s>
-0.05799195	เท่าไหร่ </s>
-0.30103	เนย ไหม
-0.1760913	เนี่ย </s>
-0.1760913	เนื้อ เพลง
-0.30103	เบอร์ โทร
-0.9542425	เบา หน่อย
-0.9542425	เบา อีก
-0.9542425	เบา เบา
-0.6532125	เบา เสียง
-0.90309	เปลี่ยน </s>
-0.90309	เปลี่ยน ประชุม
-0.90309	เปลี่ยน ผ้า
-0.90309	เปลี่ยน เป็น
-0.30103	เปล่า </s>
-0.69897	เปิด กี่
-1.30103	เปิด ทุก
-1.30103	เปิด ยี่
-1.30103	เปิด เกิน
-1.30103	เปิด เนื้อ
-0.69897	เปิด เพลง
-1.30103	เปิด ใหม่
-0.9852768	เป็น กัน
-1.462398	เป็น บุฟเฟต์
-1.462398	เป็น พากย์
-1.161368	เป็น วัน
-1.161368	เป็น สี่
-1.161368	เป็น หนัง
-1.161368	เป็น อย่างไร
-1.462398	เป็น เจ้า
-1.462398	เป็น เพื่อน
-1.161368	เป็น เวลา
-1.462398	เป็น แบบ
-1.156347	เพลง </s>
-1.457377	เพลง ก่อน
-1.934498	เพลง ก่อนหน้า
-1.332438	เพลง ของ
-1.934498	เพลง ครึ่ง
-1.934498	เพลง คู่
-1.156347	เพลง จาก
-1.934498	เพลง ชะตา
-1.934498	เพลง ชูกา
-1.332438	เพลง ต่อไป
-1.934498	เพลง ที่แล้ว
-0.980256	เพลง นี้
-1.934498	เพลง บ้าง
-1.934498	เพลง ฝน
-1.934498	เพลง ลูก
-1.633469	เพลง สเตย์
-1.934498	เพลง หน่อย
-1.934498	เพลง อกหัก
-1.457377	เพลง อะไร
-1.934498	เพลง อื่น
-1.934498	เพลง อ้าว
-1.934498	เพลง เชพ
-1.934498	เพลง เซ
-1.934498	เพลง แคนท์
-1.633469	เพลง โปรด
-1.934498	เพลง ใกล้
-1.934498	เพลง ไกล
-1.934498	เพลง ไอ
-0.1760913	เพลย์ลิส </s>
-0.06694679	เพลลิสต์ เพลง
-0.7781513	เพลิง </s>
-0.7781513	เพลิง หน่อย
-0.7781513	เพลิง เร็ว
-1.361728	เพิ่ม การ
-1.060698	เพิ่ม ตาราง
-0.5835766	เพิ่ม นัด
-1.361728	เพิ่ม วัน
-1.361728	เพิ่ม อีก
-1.361728	เพิ่ม เวลา
-1.361728	เพิ่ม เสียง
-1.060698	เพิ่ม ใน
-0.7781513	เพื่อน คุย
-0.7781513	เพื่อน วัน
-0.7781513	เพื่อน เหรอ
-1.079181	เมนู ต้ม
-1.079181	เมนู ทอด
-0.7781513	เมนู นี้
-1.079181	เมนู รส
-0.7781513	เมนู ไหน
-0.7781513	เมื่อ วัน
-0.7781513	เมื่อ วาน
-0.7781513	เมื่อ วานซืน
-0.30103	เมื่อคืน นอน
-0.7781513	เมื่อวาน ฉัน
-0.7781513	เมื่อวาน นี้
-0.7781513	เมื่อวาน มี
-0.30103	เมื่อไหร่ </s>
-0.4259687	เมเจอร์ พารากอน
-0.90309	เมเจอร์ ราคา
-0.90309	เมเจอร์ แถว
-0.30103	เยส </s>
-0.90309	เย็น </s>
-1.20412	เย็น ถึง
-1.20412	เย็น นี้
-0.90309	เย็น มี
-1.20412	เย็น วัน
-1.20412	เย็น วันนี้
-1.20412	เย็น เป็น
-0.30103	เย็นนี้ ยกเลิก
-0.30103	เรด </s>
-0.30103	เรตติ้ง เท่าไหร่
-0.9542425	เรา จบ
-0.6532125	เรา ต้อง
-0.9542425	เรา สิบ
-0.9542425	เรา หก
-0.90309	เริ่ม จับ
-0.90309	เริ่ม ต้น
-0.90309	เริ่ม นับ
-0.90309	เริ่ม เพลง
-0.1249387	เรียก รถ
-0.1760913	เรียง นัด
-1.146128	เรียน กี่
-1.146128	เรียน ทุก
-0.845098	เรียน บ่าย
-1.146128	เรียน พิเศษ
-0.845098	เรียน วัน
-1.146128	เรียน แปด
-0.30103	เรียนพิเศษ อยู่
-0.30103	เรือ ร้าน
-1.662758	เรื่อง ดรีม
-1.662758	เรื่อง ทองดี
-1.662758	เรื่อง บิวตี้
-1.662758	เรื่อง ฟิฟตี้
-1.662758	เรื่อง ย่อ
-1.185637	เรื่อง ลา
-1.662758	เรื่อง สตาร์วอร์
-0.6213651	เรื่อง อะไร
-1.185637	เรื่อง อะไรวอล
-1.662758	เรื่อง อินเซปชั่น
-1.662758	เรื่อง เดอะ
-1.662758	เรื่อง เลโก
-1.662758	เรื่อง โลแกน
-0.9637879	เรื่อง ไหน
-0.60206	เร็ว </s>
-0.60206	เร็ว ที่
-0.30103	เลิฟ ยู
-0.30103	เลี้ยง สาย
-0.9542425	เลื่อน นัด
-0.6532125	เลื่อน ประชุม
-0.9542425	เลื่อน ส่ง
-0.9542425	เลื่อน เวลา
-0.30103	เลโก แบ็ทแมน
-1.491362	เล่น หนัง
-1.491362	เล่น ห้า
-0.1296339	เล่น เพลง
-1.190332	เล่น โบว์ลิ่ง
-0.8239087	เวลา </s>
-1.30103	เวลา ครึ่ง
-1.30103	เวลา ปลุก
-1.30103	เวลา ว่าง
-1.30103	เวลา สี่
-0.60206	เวลา เตือน
-1.30103	เวลา เรียน
-0.30103	เววเวต </s>
-0.60206	เวียดนาม อะไร
-0.60206	เวียดนาม ไหม
-0.30103	เศรษฐศาสตร์ มี
-0.30103	เสนอ โปรเจค
-0.30103	เสริมสวย อะไร
-0.30103	เสร็จ แล้ว
-1	เสาร์ ติด
-1	เสาร์ ที่
-1	เสาร์ นี้
-1	เสาร์ หน้า
-1	เสาร์ ไป
-0.243038	เสียง </s>
-0.845098	เสียง หน่อย
-0.30103	เสือ ร้อง
-0.1760913	เส้น ทาง
-0.30103	เหมือน โรง
-0.30103	เหรอ คุย
-0.30103	เหรียญ สตางค์
-0.7781513	เหลือ งาน
-0.7781513	เหลือ อีก
-0.7781513	เหลือ ใน
-0.60206	เอ สิบ
-0.60206	เอ เก้า
-0.7781513	เอง ก็ได้
-0.7781513	เอง ขนาด
-0.7781513	เอง หน่อย
-0.30103	เอทีเอม จุด
-0.30103	เอน นอน
-0.7781513	เอฟ ที่
-0.7781513	เอฟ มาบุญครอง
-0.7781513	เอฟ แถว
-0.1249387	เอส เอฟ
-0.69897	เอา ออก
-0.39794	เอา เพลง
-0.30103	เอ็กซ์ มั้ย
-0.1249387	เอ็ด โมง
-0.39794	เอ็ม ดี
-0.69897	เอ็ม เค
-0.30103	เฮท ยู
-0.30103	แกง เขียว
-0.30103	แคนท์ เทค
-0.30103	แคนเซิล นัด
-0.4393327	แคลอรี่ </s>
-1.041393	แคลอรี่ ข้าว
-1.041393	แคลอรี่ อาหาร
-1.041393	แคลอรี่ เมนู
-0.30103	แค่ นี้
-0.30103	แค่ไหน </s>
-0.07918125	แจ้ง เตือน
-0.60206	แดง กับ
-0.60206	แดง ใน
-0.30103	แถม หนึ่ง
-1.255273	แถว จุฬา
-0.9542425	แถว ที่
-0.9542425	แถว นี้
-1.255273	แถว หลัง
-1.255273	แถว อะไร
-1.255273	แถว แถว
-1.255273	แถว แอล
-1.255273	แถว ไหน
-0.30103	แท็กซี่ อยู่
-0.30103	แนว อะไร
-0.6532125	แนะนำ อาหาร
-0.4771213	แนะนำ เมนู
-0.9542425	แนะนำ ไหม
-1.322219	แบบ ชาบู
-1.322219	แบบ ทรี
-1.322219	แบบ สุภาพ
-1.021189	แบบ อื่น
-1.322219	แบบ ฮันนี่มูน
-1.322219	แบบ เป็น
-1.322219	แบบ โซฟา
-1.322219	แบบ โฟร์
-1.322219	แบบ ใส่
-1.322219	แบบ ไหน
-0.30103	แบ็ทแมน ยาว
-1.20412	แปด ชั่วโมง
-1.20412	แปด ว่าง
-0.1627273	แปด โมง
-0.30103	แพง สุด
-0.30103	แพทย์ </s>
-0.845098	แรก </s>
-0.544068	แรก ของ
-1.146128	แรก คือ
-1.146128	แรก วัน
-1.146128	แรก สุด
-0.30103	แรนดอม เพลง
-0.30103	แรนด้อม เพลง
-0.30103	แลก เงิน
-0.90309	แลนด์ บ้าง
-0.90309	แลนด์ รอบ
-0.90309	แลนด์ เข้า
-0.90309	แลนด์ ได้
-0.30103	และ กล้วย
-0.4771213	แล้ว </s>
-1.431364	แล้ว จะ
-1.431364	แล้ว นอน
-1.431364	แล้ว นะ
-1.431364	แล้ว มี
-1.431364	แล้ว เงียบ
-1.431364	แล้ว เตือน
-1.130334	แล้ว เนี่ย
-1.431364	แล้ว เมื่อ
-0.30103	แว่น ได้
-0.30103	แสดง เรื่อง
-0.30103	แห้ง </s>
-0.1760913	แอนด์ เดอะ
-0.30103	แอม ปาร์ค
-0.30103	แอล มี
-0.30103	แอ็คชั่น เรื่อง
-0.39794	แฮรี่พอตเตอร์ ภาค
-0.69897	แฮรี่พอตเตอร์ รอบ
-0.819544	โกวาจี </s>
-1.518514	โกวาจี ขอ
-1.518514	โกวาจี ขอบคุณ
-1.518514	โกวาจี จอง
-1.518514	โกวาจี บ๊ายบาย
-1.518514	โกวาจี ลา
-1.518514	โกวาจี วันนี้
-1.518514	โกวาจี อีก
-1.518514	โกวาจี เพิ่ม
-1.518514	โกวาจี เรา
-0.7403627	โกวาจี เล่น
-1.518514	โกวาจี แรนด้อม
-0.30103	โฆษณา ยาว
-0.30103	โจอี้บอย </s>
-0.243038	โซน อะไร
-0.845098	โซน เรียนพิเศษ
-0.30103	โซฟา มั้ย
-0.30103	โทร เมเจอร์
-0.30103	โทรศัพท์ ได้
-0.7781513	โบว์ลิ่ง ชื่อ
-0.7781513	โบว์ลิ่ง มี
-0.7781513	โบว์ลิ่ง ราคา
-0.1760913	โปรด </s>
-0.30103	โปรเจค วัน
-0.30103	โปรแกรม </s>
-0.90309	โปรโมชัน ดู
-0.90309	โปรโมชัน ทั้ง
-0.90309	โปรโมชัน ที่
-0.90309	โปรโมชัน มา
-0.60206	โปรโมชั่น อะไร
-0.60206	โปรโมชั่น ไหม
-0.30103	โฟร์ ดี
-0.4973246	โมง </s>
-1.041393	โมง ครึ่ง
-1.439333	โมง ดี
-1.740363	โมง ถึง
-1.564271	โมง ทุก
-1.196295	โมง นะ
-2.041393	โมง บ้าง
-1.740363	โมง มี
-2.041393	โมง ละ
-2.041393	โมง วัน
-1.740363	โมง วันนี้
-2.041393	โมง สาม
-2.041393	โมง สิบ
-1.740363	โมง ห้า
-1.263241	โมง เช้า
-2.041393	โมง เป็น
-1.196295	โมง เย็น
-1.740363	โมง แล้ว
-2.041393	โมง ไป
-2.041393	โมง ไม่
-1.361728	โรง พารากอน
-1.361728	โรง ลิโด้
-0.5835766	โรง หนัง
-0.6627578	โรง อาหาร
-1.361728	โรง อื่น
-1.361728	โรง เซ็นทรัลเวิลด์
-1.361728	โรง ไอแม็กซ์
-0.30103	โรงหนัง เมเจอร์
-0.30103	โรตี ลุง
-0.60206	โลแกน เข้า
-0.60206	โลแกน ได้
-0.30103	โอ บี
-0.30103	โอว ตอน
-0.9542425	ใกล้ </s>
-0.6532125	ใกล้ ที่
-0.9542425	ใกล้ ใกล้
-0.9542425	ใกล้ ไหม
-0.90309	ใคร กำกับ
-0.90309	ใคร ร้อง
-0.90309	ใคร เป็น
-0.90309	ใคร แสดง
-0.30103	ใจ บ้าง
-0.845098	ใช้ งบ
-1.146128	ใช้ บ้าง
-0.447158	ใช้ วัตถุดิบ
-0.845098	ใช้ อะไร
-0.30103	ใต้ ดิน
-0.5642715	ใน จุฬา
-1.342423	ใน มี
-1.342423	ใน วันนี้
-1.342423	ใน วิศวะ
-1.342423	ใน สอง
-1.342423	ใน อักษร
-1.342423	ใน อัลบั้ม
-1.041393	ใน เพลลิสต์
-1.079181	ใส่ น้ำตาล
-1.079181	ใส่ น้ำปลา
-1.079181	ใส่ พริก
-1.079181	ใส่ พริกไทย
-1.079181	ใส่ เกลือ
-1.079181	ใส่ ไข่
-0.6532125	ใหม่ </s>
-0.9542425	ใหม่ ที่
-0.9542425	ใหม่ อะไร
-0.9542425	ใหม่ ไหม
-1.146128	ให้ ดู
-1.146128	ให้ ตอบ
-0.6690068	ให้ หน่อย
-1.146128	ให้ เช็ค
-1.146128	ให้ เช่า
-1.146128	ให้ ใช้
-0.30103	ไกล </s>
-1	ไก่ ทอด
-1	ไก่ รอบ
-1	ไก่ หน่อย
-1	ไก่ เจ๊
-1	ไก่ ใน
-1.361728	ไข่ </s>
-0.7596679	ไข่ ดาว
-1.060698	ไข่ ต้ม
-1.060698	ไข่ พะโล้
-1.361728	ไข่ ลวก
-1.361728	ไข่ หน่อย
-0.8846066	ไข่ เจียว
-1.361728	ไข่ และ
-0.1760913	ไง </s>
-1.690196	ได้ </s>
-1.690196	ได้ กี่โมง
-1.213075	ได้ คะแนน
-1.690196	ได้ คือ
-1.690196	ได้ ต่ำ
-1.690196	ได้ ถึง
-1.690196	ได้ ถูก
-0.6901961	ได้ ที่
-1.389166	ได้ บ้าง
-1.690196	ได้ มั้ย
-1.690196	ได้ ม้้ย
-1.690196	ได้ ยิน
-1.690196	ได้ ยี่
-1.690196	ได้ รางวัล
-1.690196	ได้ สิบ
-1.690196	ได้ ส่วน
-1.690196	ได้ แล้ว
-1.389166	ได้ ไหม
-0.30103	ได้มั้ย </s>
-0.30103	ได้ไหม ไม่
-1.079181	ไทย ที่
-1.079181	ไทย พาณิชย์
-1.079181	ไทย หรือ
-1.079181	ไทย อะไร
-1.079181	ไทย เรื่อง
-1.079181	ไทย ไหม
-0.30103	ไนท์ </s>
-0.9461246	ไป </s>
-1.724276	ไป กี่
-1.724276	ไป จบ
-1.724276	ไป ฉาย
-1.724276	ไป ต้น
-0.8211859	ไป ทาง
-1.724276	ไป ทำ
-1.724276	ไป บ้าง
-1.724276	ไป ประชุม
-1.724276	ไป ยัง
-1.724276	ไป ร้าน
-1.423246	ไป วัน
-1.724276	ไป สิบ
-1.724276	ไป หนึ่ง
-1.724276	ไป ห้า
-1.724276	ไป อาบ
-1.724276	ไป เจ๊
-1.724276	ไป เป็น
-1.724276	ไป เรียน
-1.724276	ไป โรง
-0.30103	ไผ่ทอง ขาย
-0.30103	ไฟ ไหม้
-0.60206	ไฟฟ้า ใต้
-0.60206	ไฟฟ้า ไป
-0.30103	ไฟว์ </s>
-1.20412	ไม่ ชอบ
-0.7269987	ไม่ ต้อง
-1.20412	ไม่ ว่าง
-1.20412	ไม่ สระ
-1.20412	ไม่ หลับ
-1.20412	ไม่ เหมือน
-1.20412	ไม่ เอา
-0.1760913	ไม่ว่าง ทั้ง
-0.154902	ไร </s>
-1	ไร บ้าง
-0.30103	ไวไฟ ให้
-0.30103	ไส้ กี่
-0.4884023	ไหน </s>
-2.068186	ไหน ขาย
-2.068186	ไหน คล้าย
-2.068186	ไหน จบ
-2.068186	ไหน ซื้อ
-1.290035	ไหน ดี
-1.591065	ไหน ทำ
-2.068186	ไหน ที่
-2.068186	ไหน นะ
-1.767156	ไหน น่า
-0.8640659	ไหน บ้าง
-1.466126	ไหน ปิด
-2.068186	ไหน มา
-1.591065	ไหน มี
-2.068186	ไหน รับ
-1.290035	ไหน อร่อย
-2.068186	ไหน เกี่ยว
-1.466126	ไหน เด็ด
-2.068186	ไหน เปิด
-2.068186	ไหน เป็น
-2.068186	ไหน แถว
-2.068186	ไหน ได้
-0.06908092	ไหม </s>
-1.054358	ไหม กว่า
-0.30103	ไหม้ </s>
-0.1760913	ไหร่ </s>
-0.7781513	ไหร่ บ้าง
-0.60206	ไห้ เจ๊
-0.60206	ไห้ ไป
-0.845098	ไอ เลิฟ
-0.544068	ไอ เอ็ม
-0.845098	ไอ เฮท
-0.60206	ไอติม รส
-0.60206	ไอติม ไผ่ทอง
-0.30103	ไอที อะไร
-0.30103	ไอเดีย ใช้
-0.30103	ไอแม็กซ์ ไม่

\end\
