
\data\
ngram 1=4504
ngram 2=10085
ngram 3=2917

\1-grams:
-0.932297	</s>
-99	<s>	-0.1905112
-2.514784	@	-0.6381695
-1.838478	@@	-1.006728
-4.285636	@@0	-0.2974833
-1.11965	a	-1.627937
-1.342142	aa	-1.39982
-2.116844	b	-1.054272
-4.109545	bl	-0.2957446
-4.285636	br	-0.2985255
-2.024373	c	-1.207851
-1.995602	ch	-1.261159
-4.109545	ch^	-0.4231459
-2.089736	d	-1.12306
-4.285636	dr	-0.2984576
-2.356217	e	-1.11848
-2.240313	ee	-0.8293841
-2.700175	f	-0.6463428
-3.808515	f^	-0.4891108
-3.984606	fr	-0.2827299
-2.268603	h	-0.9814622
-1.75161	i	-1.040035
-2.043841	ii	-0.8707413
-2.228731	iia	-0.9220858
-1.960326	j	-1.200724
-1.807792	j^	-1.113589
-1.879096	k	-1.322285
-1.824738	k^	-1.111148
-1.883375	kh	-1.295035
-3.030364	khl	-0.505071
-2.667588	khr	-0.7008316
-3.109545	khw	-0.7674124
-2.830791	kl	-0.6918226
-2.711605	kr	-0.7532926
-3.586666	kw	-0.9797832
-1.910888	l	-1.268551
-3.808515	l^	-0.3534119
-1.931528	m	-1.270914
-1.750975	m^	-1.211687
-1.744681	n	-1.45274
-1.408841	n^	-1.487713
-2.700175	ng	-0.6744031
-1.606663	ng^	-1.307419
-1.838478	o	-1.782987
-2.287813	oo	-0.6297857
-2.296632	p	-0.9773427
-2.001205	p^	-0.9601454
-1.82249	ph	-1.333195
-3.264447	phl	-0.4606478
-2.735408	phr	-0.9023829
-3.042598	pl	-0.4858982
-2.377151	pr	-1.060256
-3.472723	q	-0.3218756
-2.476076	qq	-0.6602133
-1.794975	r	-1.402956
-1.607118	s	-1.586483
-3.683576	s^	-0.3682756
-1.963417	t	-1.218169
-1.579345	t^	-1.318615
-1.75161	th	-1.422659
-3.887696	thr	-0.2479581
-2.89647	tr	-0.7152851
-1.974943	u	-0.9249932
-2.188726	uu	-0.6933097
-2.178426	uua	-0.7991017
-2.56136	v	-1.023197
-2.537448	vv	-0.6735703
-2.333813	vva	-0.594121
-2.040123	w	-1.305083
-2.142621	w^	-0.8294597
-2.838478	x	-0.5770676
-2.161784	xx	-0.7797738
-2.061621	z	-1.149475
-4.285636	ก.	-0.2952547
-4.285636	กฎ	-0.2952547
-4.285636	กฎหมาย	-0.2952547
-4.285636	กฎหมายอาญา	-0.2952547
-4.285636	กฎเกณฑ์	-0.2952547
-4.285636	กด	-0.2952547
-4.285636	กดขี่	-0.2952547
-4.285636	กดดัน	-0.2952547
-4.285636	กตัญญู	-0.2952547
-4.285636	กติกา	-0.2952547
-4.285636	กทม.	-0.2952547
-4.285636	กบฏ	-0.2952547
-4.285636	กมล	-0.2952547
-4.109545	กรกฎาคม	-0.471346
-4.285636	กรณี	-0.2952547
-4.285636	กรม	-0.3001855
-4.285636	กรรม	-0.2952547
-4.285636	กรรมกร	-0.2952547
-4.285636	กรรมการ	-0.2952547
-4.285636	กรรมพันธุ์	-0.2952547
-4.285636	กรรมวิธี	-0.2952547
-4.285636	กรรมสิทธิ์	-0.2952547
-4.285636	กรรมาธิการ	-0.2952547
-4.285636	กรอ.	-0.2952547
-4.285636	กรอบ	-0.3001855
-4.285636	กระจก	-0.3001855
-4.285636	กระจกเงา	-0.3001855
-4.285636	กระจัดกระจาย	-0.3001855
-4.285636	กระจาบ	-0.3001855
-4.285636	กระจาย	-0.3001855
-4.285636	กระจ่าง	-0.3001855
-4.285636	กระดูก	-0.3001855
-4.285636	กระตือรือร้น	-0.3001855
-4.285636	กระตุก	-0.3001855
-4.285636	กระตุ้น	-0.3001855
-4.285636	กระทบ	-0.3001855
-4.285636	กระทบกระทั่ง	-0.3001855
-4.285636	กระทบกระเทือน	-0.3001855
-4.109545	กระทรวง	-0.4762768
-4.285636	กระทั่ง	-0.3001855
-4.285636	กระทำ	-0.3001855
-4.285636	กระทู้	-0.3001855
-4.285636	กระท่อม	-0.3001855
-4.285636	กระนั้น	-0.3001855
-4.285636	กระบวน	-0.3001855
-4.285636	กระบวนการ	-0.3001855
-4.285636	กระป๋อง	-0.3001855
-4.285636	กระพือ	-0.3001855
-4.285636	กระมัง	-0.3001855
-4.285636	กระสุน	-0.3001855
-4.285636	กระหาย	-0.3001855
-4.285636	กระเดียด	-0.3001855
-4.285636	กระเทือน	-0.3001855
-4.285636	กระแทก	-0.3001855
-4.285636	กระแส	-0.3001855
-4.285636	กระโดด	-0.3001855
-4.285636	กระโน้น	-0.3001855
-4.285636	กระไร	-0.3001855
-4.285636	กราบ	-0.3001855
-4.285636	กริยา	-0.3001855
-4.285636	กรีซ	-0.3001855
-4.285636	กรีน	-0.3001855
-4.285636	กรุง	-0.3001855
-4.285636	กรุงเทพ	-0.3001855
-4.285636	กรุงเทพมหานคร	-0.3001855
-4.285636	กรุณา	-0.2952547
-4.285636	กรุณาธิคุณ	-0.2952547
-4.285636	กลม	-0.3003883
-4.285636	กลมกลืน	-0.3003883
-4.285636	กลยุทธ์	-0.2952547
-4.285636	กลวิธาน	-0.2952547
-4.285636	กลวิธี	-0.2952547
-4.285636	กลับ	-0.3003883
-4.285636	กลับกลาย	-0.3003883
-4.285636	กลัว	-0.3003883
-4.285636	กลั่นกรอง	-0.3003883
-4.285636	กลั้น	-0.3003883
-4.285636	กลาง	-0.3003883
-4.285636	กลางคืน	-0.3003883
-4.285636	กลางวัน	-0.3003883
-4.285636	กลาย	-0.3003883
-4.285636	กลาโหม	-0.2952547
-4.285636	กลิ่น	-0.3003883
-4.285636	กลืน	-0.3003883
-4.285636	กลุ่ม	-0.3003883
-4.285636	กลไก	-0.2952547
-4.285636	กล่องเสียง	-0.3003883
-4.285636	กล่าว	-0.3003883
-4.285636	กล่าวขวัญ	-0.3003883
-4.285636	กล่าวคือ	-0.3003883
-4.285636	กล่าวว่า	-0.3003883
-4.285636	กล่าวหา	-0.3003883
-4.285636	กล่าวอ้าง	-0.3003883
-4.285636	กล้า	-0.3003883
-4.285636	กล้ามเนื้อ	-0.3003883
-4.285636	กล้าหาญ	-0.3003883
-4.285636	กวาดล้าง	-0.3009175
-4.285636	กวี	-0.2952547
-4.285636	กวีนิพนธ์	-0.2952547
-4.285636	กว่า	-0.3009175
-4.285636	กว้าง	-0.3009175
-4.285636	กว้างขวาง	-0.3009175
-4.285636	กว้าน	-0.3009175
-4.285636	กษัตริย์	-0.2952547
-4.285636	กษัยการ	-0.2952547
-4.285636	กสิกร	-0.2952547
-4.285636	กสิกรรม	-0.2952547
-4.285636	กอง	-0.2952547
-4.285636	กองทหาร	-0.2952547
-4.285636	กองทัพ	-0.2952547
-4.285636	กองทุน	-0.2952547
-4.285636	กองพัน	-0.2952547
-4.285636	กอบกู้	-0.2952547
-4.285636	กอบโกย	-0.2952547
-4.285636	กอร์บาชอฟ	-0.2952547
-4.285636	กะทันหัน	-0.2952547
-4.285636	กะทูน	-0.2952547
-4.285636	กะโหลก	-0.2952547
-4.285636	กักกุม	-0.2952547
-4.285636	กังวล	-0.2952547
-4.285636	กังวาล	-0.2952547
-4.285636	กัณหา	-0.2952547
-4.285636	กัด	-0.2952547
-4.285636	กัน	-0.2952547
-4.285636	กันยายน	-0.2952547
-4.285636	กันเอง	-0.2952547
-4.285636	กันและกัน	-0.2952547
-4.285636	กับ	-0.2952547
-4.285636	กัป	-0.2952547
-4.285636	กัมพูชา	-0.2952547
-4.285636	กั้น	-0.2952547
-4.285636	กาก	-0.2952547
-4.285636	กาญจนบุรี	-0.2952547
-4.285636	กาม	-0.2952547
-4.285636	กาย	-0.2952547
-4.285636	กายภาพ	-0.2952547
-4.285636	การ	-0.2952547
-4.285636	การค้า	-0.2952547
-4.285636	การงาน	-0.2952547
-4.285636	การณ์	-0.2952547
-4.285636	การดำเนิน	-0.2952547
-4.285636	การตลาด	-0.2952547
-4.285636	การทหาร	-0.2952547
-4.285636	การผลิต	-0.2952547
-4.285636	การละคร	-0.2952547
-4.285636	การวิจัย	-0.2952547
-4.285636	การศึกษา	-0.2952547
-4.285636	การสัมมนา	-0.2952547
-4.285636	การันต์	-0.2952547
-4.285636	การุณยวนิช	-0.2952547
-4.285636	การเกษตร	-0.2952547
-4.285636	การเงิน	-0.2952547
-4.285636	การเมือง	-0.2952547
-4.285636	การได้ยิน	-0.2952547
-4.285636	กาล	-0.2952547
-4.285636	กาลิโก	-0.2952547
-4.285636	กาลเทศะ	-0.2952547
-4.285636	กาลเวลา	-0.2952547
-4.285636	กาแฟ	-0.2952547
-4.285636	กำจัด	-0.2952547
-4.285636	กำนัน	-0.2952547
-4.285636	กำพร้า	-0.2952547
-4.285636	กำลัง	-0.2952547
-4.285636	กำลังจะ	-0.2952547
-4.285636	กำลังเอก	-0.2952547
-4.285636	กำลังใจ	-0.2952547
-4.285636	กำสรวล	-0.2952547
-4.285636	กำหนด	-0.2952547
-4.285636	กำหนดการ	-0.2952547
-4.285636	กำเดา	-0.2952547
-4.285636	กำเนิด	-0.2952547
-4.285636	กำไร	-0.2952547
-4.285636	กิจ	-0.2952547
-4.285636	กิจกรรม	-0.2952547
-4.285636	กิจการ	-0.2952547
-4.285636	กิจวัตร	-0.2952547
-4.285636	กิตติ	-0.2952547
-4.285636	กิตติขจร	-0.2952547
-4.285636	กิน	-0.2952547
-4.285636	กินดี	-0.2952547
-4.285636	กินอยู่	-0.2952547
-4.285636	กิริยา	-0.2952547
-4.285636	กิเลส	-0.2952547
-4.285636	กีดกัน	-0.2952547
-4.285636	กีดขวาง	-0.2952547
-4.285636	กีฬา	-0.2952547
-4.285636	กี่	-0.2952547
-4.285636	กึ่ง	-0.2952547
-4.285636	กุม	-0.2952547
-4.285636	กุมภาพันธ์	-0.2952547
-4.285636	กุศล	-0.2952547
-4.285636	กุหลาบ	-0.2952547
-4.285636	กุ้ง	-0.2952547
-4.285636	กู	-0.2952547
-4.285636	กู้	-0.2952547
-4.285636	ก็	-0.2952547
-4.285636	ก็ดี	-0.2952547
-4.285636	ก็ตาม	-0.2952547
-4.285636	ก็ตามแต่	-0.2952547
-4.109545	ก็ได้	-0.471346
-4.285636	ก่อ	-0.2952547
-4.285636	ก่อตั้ง	-0.2952547
-4.285636	ก่อน	-0.2952547
-4.285636	ก่อนหน้า	-0.2952547
-4.285636	ก่อนหน้านี้	-0.2952547
-4.285636	ก่อสร้าง	-0.2952547
-4.285636	ก้อน	-0.2952547
-4.285636	ก้อย	-0.2952547
-4.285636	ก้าว	-0.2952547
-4.285636	ก้าวร้าว	-0.2952547
-4.285636	ก้าวหน้า	-0.2952547
-4.285636	ก๊กมินตั๋ง	-0.2952547
-4.285636	ก๊าซ	-0.2952547
-4.285636	ก๋อง	-0.2952547
-4.285636	ข.	-0.2953117
-4.285636	ขจรประศาสน์	-0.2953117
-4.285636	ขจัด	-0.2953117
-4.285636	ขณะ	-0.2953117
-4.285636	ขณะที่	-0.2953117
-4.285636	ขณะนั้น	-0.2953117
-4.285636	ขณะนี้	-0.2953117
-4.285636	ขณะเดียวกัน	-0.2953117
-4.285636	ขนบ	-0.2953117
-4.285636	ขนมปัง	-0.2953117
-4.285636	ขนส่ง	-0.2953117
-4.285636	ขนาด	-0.2953117
-4.285636	ขบคิด	-0.2953117
-4.285636	ขบวน	-0.2953117
-4.285636	ขบวนการ	-0.2953117
-4.285636	ขยะ	-0.2953117
-4.285636	ขยัน	-0.2953117
-4.285636	ขยับ	-0.2953117
-4.285636	ขยับขยาย	-0.2953117
-4.285636	ขยาย	-0.2953117
-4.285636	ขวด	-0.2953117
-4.285636	ขวนขวาย	-0.2953117
-4.285636	ขวบ	-0.2953117
-4.285636	ขวัญ	-0.3006924
-4.285636	ขวา	-0.3006924
-4.285636	ขอ	-0.2953117
-4.285636	ของ	-0.2953117
-4.285636	ของชำ	-0.2953117
-4.285636	ของเล่น	-0.2953117
-4.285636	ของเสีย	-0.2953117
-4.285636	ของใช้	-0.2953117
-4.285636	ขอนแก่น	-0.2953117
-4.285636	ขอบข่าย	-0.2953117
-4.285636	ขอบคุณ	-0.2953117
-4.285636	ขอบเขต	-0.2953117
-4.285636	ขอม	-0.2953117
-4.285636	ขอร้อง	-0.2953117
-4.285636	ขัง	-0.2953117
-4.285636	ขัด	-0.2953117
-4.285636	ขัดขวาง	-0.2953117
-4.285636	ขัดขืน	-0.2953117
-4.285636	ขัดข้อง	-0.2953117
-4.285636	ขัดสมาธิ	-0.2953117
-4.285636	ขัดแย้ง	-0.2953117
-4.285636	ขัน	-0.2953117
-4.285636	ขันธ์	-0.2953117
-4.285636	ขับ	-0.2953117
-4.285636	ขับถ่าย	-0.2953117
-4.285636	ขั้น	-0.2953117
-4.285636	ขั้นตอน	-0.2953117
-4.285636	ขั้นบันได	-0.2953117
-4.285636	ขา	-0.2953117
-4.285636	ขาด	-0.2953117
-4.285636	ขาดแคลน	-0.2953117
-4.285636	ขานรับ	-0.2953117
-4.285636	ขาย	-0.2953117
-4.285636	ขายตัว	-0.2953117
-4.285636	ขายปลีก	-0.2953117
-4.285636	ขาว	-0.2953117
-4.285636	ขาเข้า	-0.2953117
-4.285636	ขีด	-0.2953117
-4.285636	ขีดสุด	-0.2953117
-4.285636	ขีปนาวุธ	-0.2953117
-4.285636	ขี่	-0.2953117
-4.285636	ขี้เกียจ	-0.2953117
-4.285636	ขึ้น	-0.2953117
-4.285636	ขืน	-0.2953117
-4.285636	ขุด	-0.2953117
-4.285636	ขุน	-0.2953117
-4.285636	ขุนนาง	-0.2953117
-4.285636	ขูด	-0.2953117
-4.285636	ข่มขู่	-0.2953117
-4.285636	ข่มเหง	-0.2953117
-4.285636	ข่าย	-0.2953117
-4.285636	ข่ายงาน	-0.2953117
-4.285636	ข่าว	-0.2953117
-4.285636	ข่าวกรอง	-0.2953117
-4.285636	ข่าวคราว	-0.2953117
-4.285636	ข่าวลือ	-0.2953117
-4.285636	ข่าวสาร	-0.2953117
-4.285636	ข้อ	-0.2953117
-4.285636	ข้อขัดแย้ง	-0.2953117
-4.285636	ข้อความ	-0.2953117
-4.285636	ข้อคิด	-0.2953117
-4.285636	ข้อง	-0.2953117
-4.285636	ข้องคับ	-0.2953117
-4.285636	ข้องใจ	-0.2953117
-4.285636	ข้อจำกัด	-0.2953117
-4.285636	ข้อดี	-0.2953117
-4.285636	ข้อบังคับ	-0.2953117
-4.285636	ข้อมูล	-0.2953117
-4.285636	ข้อสงสัย	-0.2953117
-4.285636	ข้อสรุป	-0.2953117
-4.285636	ข้อสังเกต	-0.2953117
-4.285636	ข้อหา	-0.2953117
-4.285636	ข้อห้าม	-0.2953117
-4.285636	ข้ออ้าง	-0.2953117
-4.285636	ข้อเขียน	-0.2953117
-4.285636	ข้อเท็จจริง	-0.2953117
-4.285636	ข้อเรียกร้อง	-0.2953117
-4.285636	ข้อเสนอ	-0.2953117
-4.285636	ข้อเสีย	-0.2953117
-4.285636	ข้อแก้ตัว	-0.2953117
-4.285636	ข้อโต้แย้ง	-0.2953117
-4.285636	ข้าง	-0.2953117
-4.285636	ข้างต้น	-0.2953117
-4.285636	ข้างนอก	-0.2953117
-4.285636	ข้างมาก	-0.2953117
-4.285636	ข้างหน้า	-0.2953117
-4.285636	ข้างใน	-0.2953117
-4.285636	ข้าพเจ้า	-0.2953117
-4.285636	ข้าม	-0.2953117
-4.285636	ข้าราชการ	-0.2953117
-4.285636	ข้าว	-0.2953117
-4.285636	ข้าวเปลือก	-0.2953117
-4.285636	ข้าวเหนียว	-0.2953117
-4.285636	คง	-0.2953117
-4.285636	คงจะ	-0.2953117
-4.285636	คงทน	-0.2953117
-4.285636	คงที่	-0.2953117
-4.285636	คงสมพงษ์	-0.2953117
-4.285636	คณบดี	-0.2953117
-4.285636	คณะ	-0.2953117
-4.285636	คณาจารย์	-0.2953117
-4.285636	คดี	-0.2953117
-4.285636	คติ	-0.2953117
-4.285636	คน	-0.2953117
-4.285636	คนงาน	-0.2953117
-4.285636	คนป่วย	-0.2953117
-4.285636	คนรัก	-0.2953117
-4.285636	คนร้าย	-0.2953117
-4.285636	คนหนึ่ง	-0.2953117
-4.285636	คนเรา	-0.2953117
-4.285636	คนใด	-0.2953117
-4.285636	คนใดคนหนึ่ง	-0.2953117
-4.285636	คนไข้	-0.2953117
-4.285636	คบ	-0.2953117
-4.285636	คบค้า	-0.2953117
-4.285636	คบหา	-0.2953117
-4.285636	คม	-0.2953117
-4.285636	คมนาคม	-0.2953117
-4.285636	ครบ	-0.3000953
-4.285636	ครบถ้วน	-0.3000953
-4.285636	ครม.	-0.2953117
-4.285636	ครรภ์	-0.2953117
-4.285636	ครอง	-0.3000953
-4.285636	ครองชีพ	-0.3000953
-4.285636	ครอบ	-0.3000953
-4.285636	ครอบครอง	-0.3000953
-4.285636	ครอบครัว	-0.3000953
-4.285636	ครอบคลุม	-0.3000953
-4.285636	ครอบงำ	-0.3000953
-4.285636	ครับ	-0.3000953
-4.285636	ครัวเรือน	-0.3000953
-4.285636	ครั้ง	-0.3000953
-4.285636	ครั้งคราว	-0.3000953
-4.285636	ครั้งนั้น	-0.3000953
-4.285636	ครั้งนี้	-0.3000953
-4.285636	ครั้น	-0.3000953
-4.285636	คราประยูร	-0.3000953
-4.285636	คราว	-0.3000953
-4.285636	คราวนี้	-0.3000953
-4.285636	คริสตจักร	-0.3000953
-4.285636	คริสต์	-0.3000953
-4.285636	คริสต์ศักราช	-0.3000953
-4.285636	ครึ่ง	-0.3000953
-4.285636	ครุสชอฟ	-0.3000953
-4.285636	ครู	-0.3000953
-4.285636	ครูบาอาจารย์	-0.3000953
-4.285636	คร่าว	-0.3000953
-4.285636	คลอด	-0.3006248
-4.285636	คลัง	-0.3006248
-4.285636	คลาดเคลื่อน	-0.3006248
-4.285636	คลาย	-0.3006248
-4.109545	คลาสสิค	-0.2999825
-4.285636	คลี่คลาย	-0.3006248
-4.285636	คลื่น	-0.3006248
-4.285636	คลุกคลี	-0.3006248
-4.285636	คลุม	-0.3006248
-4.285636	คลุมเครือ	-0.3006248
-4.285636	คล่อง	-0.3006248
-4.285636	คล่องแคล่ว	-0.3006248
-4.285636	คล้อยตาม	-0.3006248
-4.285636	คล้าย	-0.3006248
-4.285636	คล้ายคลึง	-0.3006248
-4.285636	คล้ำ	-0.3006248
-4.285636	ควง	-0.2953117
-4.285636	ควบกล้ำ	-0.2953117
-4.285636	ควบคุม	-0.2953117
-4.285636	ควบคู่	-0.2953117
-4.285636	ควร	-0.2953117
-4.285636	ความ	-0.3006924
-4.285636	ความคิด	-0.3006924
-4.285636	ความจริง	-0.3006924
-4.285636	ความจำ	-0.3006924
-4.285636	ความดัน	-0.3006924
-4.285636	ความผิด	-0.3006924
-4.285636	ความหมาย	-0.3006924
-4.285636	ความเห็น	-0.3006924
-4.285636	คอมพิวเตอร์	-0.2953117
-4.109545	คอมมิวนิสต์	-0.471403
-4.285636	คอย	-0.2953117
-4.285636	คอร์รัปชั่น	-0.2953117
-4.285636	คะ	-0.2953117
-4.285636	คะเน	-0.2953117
-4.285636	คะแนน	-0.2953117
-4.285636	คะแนนเสียง	-0.2953117
-4.285636	คัด	-0.2953117
-4.285636	คัดค้าน	-0.2953117
-4.285636	คัดลอก	-0.2953117
-4.285636	คัดเลือก	-0.2953117
-4.285636	คับ	-0.2953117
-4.285636	คับข้อง	-0.2953117
-4.285636	คับแคบ	-0.2953117
-4.285636	คับใจ	-0.2953117
-4.285636	คัมภีร์	-0.2953117
-4.285636	คั่งค้าง	-0.2953117
-4.285636	คาด	-0.2953117
-4.285636	คาดการณ์	-0.2953117
-4.285636	คาดคิด	-0.2953117
-4.285636	คาดฝัน	-0.2953117
-4.285636	คาดหมาย	-0.2953117
-4.285636	คาดหวัง	-0.2953117
-4.285636	คาถา	-0.2953117
-4.285636	คาน	-0.2953117
-4.285636	คาบเกี่ยว	-0.2953117
-4.285636	คารามาซอฟ	-0.2953117
-4.285636	คาร์บอนไดออกไซด์	-0.2953117
-4.285636	คาโบนิคแอสิด	-0.2953117
-4.285636	คาโปน	-0.2953117
-4.285636	คำ	-0.2953117
-4.285636	คำขาด	-0.2953117
-4.285636	คำตอบ	-0.2953117
-4.285636	คำถาม	-0.2953117
-4.285636	คำนึง	-0.2953117
-4.285636	คำปรึกษา	-0.2953117
-4.285636	คำพูด	-0.2953117
-4.285636	คำศัพท์	-0.2953117
-4.285636	คำสอน	-0.2953117
-4.285636	คำสั่ง	-0.2953117
-4.285636	คำอธิบาย	-0.2953117
-4.285636	คิด	-0.2953117
-4.285636	คิดค้น	-0.2953117
-4.285636	คิดถึง	-0.2953117
-4.285636	คิดเห็น	-0.2953117
-4.285636	คิว	-0.2953117
-4.285636	คีบ	-0.2953117
-4.285636	คึกฤทธิ์	-0.2953117
-4.285636	คืน	-0.2953117
-4.285636	คืบหน้า	-0.2953117
-4.285636	คือ	-0.2953117
-4.285636	คุก	-0.2953117
-4.285636	คุกคาม	-0.2953117
-4.285636	คุณ	-0.2953117
-4.285636	คุณค่า	-0.2953117
-4.285636	คุณธรรม	-0.2953117
-4.285636	คุณประโยชน์	-0.2953117
-4.285636	คุณภาพ	-0.2953117
-4.285636	คุณลักษณะ	-0.2953117
-4.285636	คุณศัพท์	-0.2953117
-4.285636	คุณสมบัติ	-0.2953117
-4.285636	คุณหญิง	-0.2953117
-4.285636	คุณูปการ	-0.2953117
-4.285636	คุม	-0.2953117
-4.285636	คุรุสภา	-0.2953117
-4.285636	คุ้น	-0.2953117
-4.285636	คุ้นเคย	-0.2953117
-4.285636	คุ้ม	-0.2953117
-4.285636	คุ้มกัน	-0.2953117
-4.285636	คุ้มครอง	-0.2953117
-4.285636	คุ้มค่า	-0.2953117
-4.285636	คูน	-0.2953117
-4.285636	คูเวต	-0.2953117
-4.285636	คู่	-0.2953117
-4.285636	คู่ครอง	-0.2953117
-4.285636	คู่ค้า	-0.2953117
-4.285636	คู่มือ	-0.2953117
-4.285636	ค่อน	-0.2953117
-4.285636	ค่อนข้าง	-0.2953117
-4.109545	ค่อย	-0.471403
-4.285636	ค่า	-0.2953117
-4.285636	ค่าจ้าง	-0.2953117
-4.285636	ค่านิยม	-0.2953117
-4.285636	ค่าย	-0.2953117
-4.285636	ค่าเช่า	-0.2953117
-4.285636	ค่าแรง	-0.2953117
-4.285636	ค่าใช้จ่าย	-0.2953117
-4.285636	ค่ำคืน	-0.2953117
-4.285636	ค้น	-0.2953117
-4.285636	ค้นคว้า	-0.2953117
-4.285636	ค้นพบ	-0.2953117
-4.285636	ค้นหา	-0.2953117
-4.285636	ค้า	-0.2953117
-4.285636	ค้าง	-0.2953117
-4.285636	ค้าน	-0.2953117
-4.285636	ค้ำ	-0.2953117
-4.285636	ฆ่า	-0.2953117
-4.285636	งง	-0.3001629
-4.285636	งด	-0.3001629
-4.285636	งดงาม	-0.3001629
-4.285636	งดเว้น	-0.3001629
-4.285636	งบ	-0.3001629
-4.285636	งบประมาณ	-0.3001629
-4.285636	งมงาย	-0.3001629
-4.285636	งอก	-0.3001629
-4.285636	งอกงาม	-0.3001629
-4.285636	งาน	-0.3001629
-4.285636	งาม	-0.3001629
-4.285636	งูเห่า	-0.3001629
-4.285636	ง่าม	-0.3001629
-4.285636	ง่าย	-0.3001629
-4.285636	ง่ายดาย	-0.3001629
-4.109545	จ.	-0.4729958
-4.285636	จง	-0.2969045
-4.285636	จงรัก	-0.2969045
-4.285636	จงใจ	-0.2969045
-4.285636	จด	-0.2969045
-4.285636	จดจำ	-0.2969045
-4.285636	จดหมาย	-0.2969045
-4.285636	จดหมายเหตุ	-0.2969045
-4.285636	จตุจักร	-0.2969045
-4.285636	จน	-0.2969045
-4.285636	จนกระทั่ง	-0.2969045
-4.285636	จนกว่า	-0.2969045
-4.285636	จนถึง	-0.2969045
-4.285636	จบ	-0.2969045
-4.285636	จปร.	-0.2969045
-4.285636	จม	-0.2969045
-4.109545	จมูก	-0.4729958
-4.285636	จรรยา	-0.2969045
-4.285636	จระเข้	-0.2969045
-4.285636	จริง	-0.2969045
-4.285636	จริงจัง	-0.2969045
-4.285636	จริงอยู่	-0.2969045
-4.285636	จริงใจ	-0.2969045
-4.285636	จริยธรรม	-0.2969045
-4.285636	จริยศาสตร์	-0.2969045
-4.285636	จริยศึกษา	-0.2969045
-4.285636	จอ	-0.2969045
-4.285636	จอด	-0.2969045
-4.285636	จอมพล	-0.2969045
-4.285636	จอร์จ	-0.2969045
-4.285636	จะ	-0.2969045
-4.285636	จัก	-0.2969045
-4.285636	จักร	-0.2969045
-4.285636	จักรวาล	-0.2969045
-4.285636	จักรๆ	-0.2969045
-4.285636	จังหวะ	-0.2969045
-4.285636	จังหวัด	-0.2969045
-4.285636	จัด	-0.2969045
-4.285636	จัดการ	-0.2969045
-4.285636	จัดตั้ง	-0.2969045
-4.285636	จัดสรร	-0.2969045
-4.285636	จัดหา	-0.2969045
-4.285636	จัดเจน	-0.2969045
-4.285636	จัดแต่ง	-0.2969045
-4.285636	จัดแสดง	-0.2969045
-4.285636	จันทร์	-0.2969045
-4.285636	จันท์เทวี	-0.2969045
-4.285636	จับ	-0.2969045
-4.285636	จับกุม	-0.2969045
-4.285636	จับคู่	-0.2969045
-4.285636	จับต้อง	-0.2969045
-4.285636	จาก	-0.2969045
-4.285636	จากนั้น	-0.2969045
-4.285636	จาง	-0.2969045
-4.285636	จาน	-0.2969045
-4.285636	จารีต	-0.2969045
-4.285636	จารึก	-0.2969045
-4.285636	จำ	-0.2969045
-4.285636	จำกัด	-0.2969045
-4.285636	จำคุก	-0.2969045
-4.285636	จำนงศรี	-0.2969045
-4.285636	จำนน	-0.2969045
-4.285636	จำนวน	-0.2969045
-4.285636	จำนวนเต็ม	-0.2969045
-4.285636	จำยอม	-0.2969045
-4.285636	จำลอง	-0.2969045
-4.285636	จำหน่าย	-0.2969045
-4.285636	จำเจ	-0.2969045
-4.285636	จำเป็น	-0.2969045
-4.285636	จำแนก	-0.2969045
-4.285636	จิต	-0.2969045
-4.285636	จิตรกร	-0.2969045
-4.285636	จิตรกรรม	-0.2969045
-4.285636	จิตวิทยา	-0.2969045
-4.285636	จิตวิเคราะห์	-0.2969045
-4.285636	จิตสำนึก	-0.2969045
-4.285636	จิตเภท	-0.2969045
-4.285636	จิตเวช	-0.2969045
-4.285636	จิตแพทย์	-0.2969045
-4.285636	จิตใจ	-0.2969045
-4.285636	จินดา	-0.2969045
-4.285636	จิรโรจน์	-0.2969045
-4.285636	จิ่งกังซาน	-0.2969045
-4.285636	จี	-0.2969045
-4.285636	จีน	-0.2969045
-4.285636	จีเซลซาฟ	-0.2969045
-4.285636	จีเมนซาฟ	-0.2969045
-4.285636	จี้	-0.2969045
-4.285636	จึง	-0.2969045
-4.285636	จุด	-0.2969045
-4.285636	จุดจบ	-0.2969045
-4.285636	จุดประสงค์	-0.2969045
-4.285636	จุดมุ่งหมาย	-0.2969045
-4.285636	จุดยืน	-0.2969045
-4.285636	จุดสำคัญ	-0.2969045
-4.285636	จุดหมาย	-0.2969045
-4.285636	จุดเด่น	-0.2969045
-4.285636	จุลจอมเกล้า	-0.2969045
-4.285636	จุลละทรัพย์	-0.2969045
-4.285636	จูงใจ	-0.2969045
-4.285636	จู่โจม	-0.2969045
-4.285636	จ่อ	-0.2969045
-4.285636	จ่าย	-0.2969045
-4.285636	จ้อย	-0.2969045
-4.285636	จ้าง	-0.2969045
-4.285636	จ๋อย	-0.2969045
-4.285636	ฉกรรจ์	-0.2966205
-4.285636	ฉบับ	-0.2966205
-4.285636	ฉลาก	-0.2966205
-4.285636	ฉลาด	-0.2966205
-4.285636	ฉลุ	-0.2966205
-4.285636	ฉวย	-0.2966205
-4.285636	ฉะนั้น	-0.2966205
-4.285636	ฉัน	-0.2966205
-4.285636	ฉันนั้น	-0.2966205
-4.285636	ฉันใด	-0.2966205
-4.285636	ฉับพลัน	-0.2966205
-4.285636	ฉับไว	-0.2966205
-4.285636	ฉาก	-0.2966205
-4.285636	ฉาบฉวย	-0.2966205
-4.285636	ฉาย	-0.2966205
-4.285636	ฉีดยา	-0.2966205
-4.285636	ฉุกคิด	-0.2966205
-4.285636	ฉ้อฉล	-0.2966205
-4.285636	ชน	-0.2966205
-4.285636	ชนชั้น	-0.2966205
-4.285636	ชนชั้นนำ	-0.2966205
-4.285636	ชนชาติ	-0.2966205
-4.285636	ชนบท	-0.2966205
-4.285636	ชนวน	-0.2966205
-4.285636	ชนะ	-0.2966205
-4.285636	ชนิด	-0.2966205
-4.285636	ชม	-0.2966205
-4.285636	ชมชอบ	-0.2966205
-4.285636	ชมเชย	-0.2966205
-4.285636	ชรา	-0.2966205
-4.285636	ชลบุรี	-0.2966205
-4.285636	ชลประทาน	-0.2966205
-4.285636	ชวน	-0.2966205
-4.285636	ชวลิต	-0.2966205
-4.285636	ชวา	-0.2966205
-4.285636	ชอตต์	-0.2966205
-4.285636	ชอบ	-0.2966205
-4.285636	ชอบธรรม	-0.2966205
-4.285636	ชอบพอ	-0.2966205
-4.285636	ชะงัก	-0.2966205
-4.285636	ชะงักงัน	-0.2966205
-4.285636	ชะตา	-0.2966205
-4.285636	ชะตากรรม	-0.2966205
-4.285636	ชะลอ	-0.2966205
-4.285636	ชะล้าง	-0.2966205
-4.285636	ชัก	-0.2966205
-4.285636	ชักจูง	-0.2966205
-4.285636	ชักชวน	-0.2966205
-4.285636	ชักนำ	-0.2966205
-4.285636	ชัด	-0.2966205
-4.285636	ชัดเจน	-0.2966205
-4.285636	ชัดแจ้ง	-0.2966205
-4.285636	ชัน	-0.2966205
-4.285636	ชัยชนะ	-0.2966205
-4.285636	ชัยนาม	-0.2966205
-4.285636	ชัยภูมิ	-0.2966205
-4.285636	ชัยวัฒน์	-0.2966205
-4.285636	ชั่ง	-0.2966205
-4.285636	ชั่ว	-0.2966205
-4.285636	ชั่วคราว	-0.2966205
-4.285636	ชั่วโมง	-0.2966205
-4.285636	ชั้น	-0.2966205
-4.285636	ชั้นปี	-0.2966205
-4.285636	ชั้นผู้ใหญ่	-0.2966205
-4.285636	ชาญ	-0.2966205
-4.285636	ชาญวิทย์	-0.2966205
-4.285636	ชาติ	-0.2966205
-4.285636	ชาติชาย	-0.2966205
-4.285636	ชาตินิยม	-0.2966205
-4.285636	ชาติพันธุ์	-0.2966205
-4.285636	ชาติไทย	-0.2966205
-4.285636	ชาย	-0.2966205
-4.285636	ชายคา	-0.2966205
-4.285636	ชายฝั่ง	-0.2966205
-4.285636	ชายเลน	-0.2966205
-4.285636	ชายแดน	-0.2966205
-4.285636	ชาว	-0.2966205
-4.285636	ชาวนา	-0.2966205
-4.285636	ชาวบ้าน	-0.2966205
-4.285636	ชาวเกาะ	-0.2966205
-4.285636	ชาวเขา	-0.2966205
-4.285636	ชาวเมือง	-0.2966205
-4.285636	ชาวไทย	-0.2966205
-4.285636	ชาวไร่	-0.2966205
-4.285636	ชำนาญ	-0.2966205
-4.285636	ชำนิชำนาญ	-0.2966205
-4.285636	ชำระ	-0.2966205
-4.285636	ชิง	-0.2966205
-4.285636	ชิงชัง	-0.2966205
-4.285636	ชิด	-0.2966205
-4.285636	ชิดชอบ	-0.2966205
-4.285636	ชิดพงษ์	-0.2966205
-4.285636	ชิลี	-0.2966205
-4.285636	ชิ้น	-0.2966205
-4.285636	ชิ้นส่วน	-0.2966205
-4.285636	ชีพ	-0.2966205
-4.285636	ชีพจร	-0.2966205
-4.285636	ชีวภาพ	-0.2966205
-4.285636	ชีววิทยา	-0.2966205
-4.285636	ชีวิต	-0.2966205
-4.285636	ชีวิตชีวา	-0.2966205
-4.285636	ชีวเคมี	-0.2966205
-4.285636	ชี้	-0.2966205
-4.285636	ชี้ขาด	-0.2966205
-4.285636	ชี้นำ	-0.2966205
-4.285636	ชี้แจง	-0.2966205
-4.285636	ชื่นชม	-0.2966205
-4.285636	ชื่อ	-0.2966205
-4.285636	ชื่อดัง	-0.2966205
-4.285636	ชื่อเสียง	-0.2966205
-4.285636	ชุกชุม	-0.2966205
-4.285636	ชุณหะวัณ	-0.2966205
-4.285636	ชุด	-0.2966205
-4.285636	ชุดคำสั่ง	-0.2966205
-4.285636	ชุมชน	-0.2966205
-4.285636	ชุมนุม	-0.2966205
-4.285636	ชุมแพ	-0.2966205
-4.285636	ชูศักดิ์	-0.2966205
-4.285636	ชู้สาว	-0.2966205
-4.285636	ช่วง	-0.2966205
-4.285636	ช่วงชิง	-0.2966205
-4.285636	ช่วย	-0.2966205
-4.285636	ช่วยเหลือ	-0.2966205
-4.285636	ช่อง	-0.2966205
-4.285636	ช่องทาง	-0.2966205
-4.285636	ช่องว่าง	-0.2966205
-4.285636	ช่าง	-0.2966205
-4.285636	ช้า	-0.2966205
-4.285636	ช้าง	-0.2966205
-4.285636	ช้านาน	-0.2966205
-4.285636	ซอย	-0.2901635
-4.285636	ซอสสมา	-0.2901635
-4.285636	ซักถาม	-0.2901635
-4.285636	ซัดดัม	-0.2901635
-4.285636	ซับซ้อน	-0.2901635
-4.285636	ซาบซึ้ง	-0.2901635
-4.285636	ซาร์ทร์	-0.2901635
-4.285636	ซาลิน่า	-0.2901635
-4.285636	ซาอุดิอาระเบีย	-0.2901635
-4.285636	ซิ	-0.2901635
-4.285636	ซิซิลี	-0.2901635
-4.285636	ซี	-0.2901635
-4.285636	ซีก	-0.2901635
-4.285636	ซีกโลก	-0.2901635
-4.285636	ซีพี	-0.2901635
-4.285636	ซีไรต์	-0.2901635
-4.285636	ซึม	-0.2901635
-4.285636	ซึ่ง	-0.2901635
-4.285636	ซึ่งกันและกัน	-0.2901635
-4.285636	ซื่อ	-0.2901635
-4.285636	ซื่อตรง	-0.2901635
-4.285636	ซื่อสัตย์	-0.2901635
-4.285636	ซื้อ	-0.2901635
-4.285636	ซื้อขาย	-0.2901635
-4.285636	ซื้อหา	-0.2901635
-4.285636	ซุก	-0.2901635
-4.285636	ซุกซ่อน	-0.2901635
-4.285636	ซ่อนเร้น	-0.2901635
-4.285636	ซ่อม	-0.2901635
-4.285636	ซ่อมแซม	-0.2901635
-4.285636	ซ้อน	-0.2901635
-4.285636	ซ้าย	-0.2901635
-4.285636	ซ้ำ	-0.2901635
-4.285636	ซ้ำซ้อน	-0.2901635
-4.285636	ซ้ำร้าย	-0.2901635
-4.285636	ญัตติ	-0.2962453
-4.285636	ญาณ	-0.2962453
-4.285636	ญาติ	-0.2962453
-4.285636	ญี่ปุ่น	-0.2962453
-4.285636	ฐาน	-0.2932666
-4.285636	ฐานกรณ์	-0.2932666
-4.285636	ฐานะ	-0.2932666
-4.285636	ณรงค์	-0.2931406
-4.285636	ดงใหญ่	-0.2974833
-4.285636	ดนตรี	-0.2974833
-4.285636	ดม	-0.2974833
-4.285636	ดวง	-0.2974833
-4.285636	ดวงดาว	-0.2974833
-4.285636	ดวงมน	-0.2974833
-4.285636	ดวงอาทิตย์	-0.2974833
-4.285636	ดอก	-0.2974833
-4.285636	ดอกไม้	-0.2974833
-4.285636	ดอน	-0.2974833
-4.285636	ดอลลาร์	-0.2974833
-4.285636	ดอสโตเยฟสกี	-0.2974833
-4.285636	ดัก	-0.2974833
-4.285636	ดัง	-0.2974833
-4.285636	ดังกล่าว	-0.2974833
-4.285636	ดังต่อไปนี้	-0.2974833
-4.285636	ดังที่	-0.2974833
-4.285636	ดังนั้น	-0.2974833
-4.285636	ดังนี้	-0.2974833
-4.285636	ดังเดิม	-0.2974833
-4.285636	ดัดแปลง	-0.2974833
-4.285636	ดัตช์	-0.2974833
-4.285636	ดับทุกข์	-0.2974833
-4.285636	ดั่ง	-0.2974833
-4.285636	ดั่งนี้	-0.2974833
-4.285636	ดั้งเดิม	-0.2974833
-4.285636	ดาราศาสตร์	-0.2974833
-4.285636	ดาว	-0.2974833
-4.285636	ดำ	-0.2974833
-4.285636	ดำรง	-0.2974833
-4.285636	ดำเนิน	-0.2974833
-4.285636	ดำเนินการ	-0.2974833
-4.285636	ดำเนินงาน	-0.2974833
-4.285636	ดิฉัน	-0.2974833
-4.285636	ดิน	-0.2974833
-4.285636	ดินแดน	-0.2974833
-4.285636	ดิษฐพันธุ์	-0.2974833
-4.285636	ดิเรก	-0.2974833
-4.285636	ดิ่ง	-0.2974833
-4.285636	ดิ้น	-0.2974833
-4.285636	ดิ้นรน	-0.2974833
-4.285636	ดี	-0.2974833
-4.285636	ดีดีที	-0.2974833
-4.285636	ดีเด่น	-0.2974833
-4.285636	ดีใจ	-0.2974833
-4.285636	ดึก	-0.2974833
-4.285636	ดึกดำบรรพ์	-0.2974833
-4.285636	ดึง	-0.2974833
-4.285636	ดื่ม	-0.2974833
-4.285636	ดื้อดึง	-0.2974833
-4.285636	ดุ	-0.2974833
-4.285636	ดุจ	-0.2974833
-4.285636	ดุน	-0.2974833
-4.285636	ดุล	-0.2974833
-4.285636	ดุลพินิจ	-0.2974833
-4.285636	ดุลยภาพ	-0.2974833
-4.285636	ดุลอำนาจ	-0.2974833
-4.285636	ดุเดือด	-0.2974833
-4.285636	ดุ้น	-0.2974833
-4.285636	ดู	-0.2974833
-4.285636	ดูจะ	-0.2974833
-4.285636	ดูด	-0.2974833
-4.285636	ดูถูก	-0.2974833
-4.285636	ดูหมิ่น	-0.2974833
-4.285636	ดูเหมือน	-0.2974833
-4.285636	ดูเหมือนว่า	-0.2974833
-4.285636	ดูแล	-0.2974833
-4.109545	ด็อกเตอร์	-0.4735746
-4.285636	ด่วน	-0.2974833
-4.285636	ด่าง	-0.2974833
-4.285636	ด้น	-0.2974833
-4.285636	ด้วย	-0.2974833
-4.285636	ด้วยว่า	-0.2974833
-4.285636	ด้วยเหตุที่	-0.2974833
-4.285636	ด้วยเหตุนี้	-0.2974833
-4.109545	ด้อย	-0.4735746
-4.285636	ด้อยพัฒนา	-0.2974833
-4.285636	ด้าน	-0.2974833
-4.285636	ตก	-0.2962795
-4.285636	ตกต่ำ	-0.2962795
-4.285636	ตกทอด	-0.2962795
-4.285636	ตกยาก	-0.2962795
-4.285636	ตกลง	-0.2962795
-4.285636	ตกใจ	-0.2962795
-4.285636	ตน	-0.2962795
-4.285636	ตนเอง	-0.2962795
-4.285636	ตรง	-0.3004784
-4.285636	ตรงกันข้าม	-0.3004784
-4.285636	ตรงข้าม	-0.3004784
-4.285636	ตรงไปตรงมา	-0.3004784
-4.285636	ตรรกวิทยา	-0.2962795
-4.285636	ตรวจ	-0.3004784
-4.285636	ตรวจการณ์	-0.3004784
-4.285636	ตรวจจับ	-0.3004784
-4.285636	ตรวจสอบ	-0.3004784
-4.285636	ตระกูล	-0.3004784
-4.285636	ตระหนก	-0.3004784
-4.285636	ตระหนัก	-0.3004784
-4.285636	ตระเตรียม	-0.3004784
-4.285636	ตรัส	-0.3004784
-4.285636	ตรา	-0.3004784
-4.285636	ตราบ	-0.3004784
-4.285636	ตราหน้า	-0.3004784
-4.285636	ตรี	-0.3004784
-4.285636	ตรุษจีน	-0.3004784
-4.285636	ตลก	-0.2962795
-4.285636	ตลอด	-0.2962795
-4.285636	ตลอดจน	-0.2962795
-4.285636	ตลอดมา	-0.2962795
-4.285636	ตลอดไป	-0.2962795
-4.285636	ตลาด	-0.2962795
-4.285636	ตลาดมืด	-0.2962795
-4.285636	ตวง	-0.2962795
-4.285636	ตอน	-0.2962795
-4.285636	ตอนนั้น	-0.2962795
-4.285636	ตอนนี้	-0.2962795
-4.285636	ตอนแรก	-0.2962795
-4.285636	ตอบ	-0.2962795
-4.285636	ตอบสนอง	-0.2962795
-4.285636	ตอบแทน	-0.2962795
-4.285636	ตอบโต้	-0.2962795
-4.285636	ตะกวด	-0.2962795
-4.285636	ตะกั่ว	-0.2962795
-4.285636	ตะราง	-0.2962795
-4.285636	ตะวัน	-0.2962795
-4.285636	ตะวันตก	-0.2962795
-4.285636	ตะวันออก	-0.2962795
-4.285636	ตะวันออกกลาง	-0.2962795
-4.285636	ตะวันออกเฉียงเหนือ	-0.2962795
-4.285636	ตะวันออกเฉียงใต้	-0.2962795
-4.285636	ตะเข็บ	-0.2962795
-4.285636	ตัก	-0.2962795
-4.285636	ตักตวง	-0.2962795
-4.285636	ตักเตือน	-0.2962795
-4.285636	ตัณหา	-0.2962795
-4.285636	ตัด	-0.2962795
-4.285636	ตัดสิน	-0.2962795
-4.285636	ตัดสินใจ	-0.2962795
-4.285636	ตัน	-0.2962795
-4.285636	ตับ	-0.2962795
-4.285636	ตัว	-0.2962795
-4.285636	ตัวการ	-0.2962795
-4.285636	ตัวตน	-0.2962795
-4.285636	ตัวนำ	-0.2962795
-4.285636	ตัวประกอบ	-0.2962795
-4.285636	ตัวละคร	-0.2962795
-4.285636	ตัวสะกด	-0.2962795
-4.285636	ตัวหนังสือ	-0.2962795
-4.285636	ตัวอย่าง	-0.2962795
-4.285636	ตัวอ่อน	-0.2962795
-4.285636	ตัวเมือง	-0.2962795
-4.285636	ตัวเลข	-0.2962795
-4.285636	ตัวเอก	-0.2962795
-4.285636	ตัวเอง	-0.2962795
-4.285636	ตัวแทน	-0.2962795
-4.285636	ตัวแปร	-0.2962795
-4.285636	ตั้ง	-0.2962795
-4.285636	ตั้งมั่น	-0.2962795
-4.285636	ตั้งอยู่	-0.2962795
-4.285636	ตั้งแต่	-0.2962795
-4.285636	ตั้งใจ	-0.2962795
-4.285636	ตา	-0.2962795
-4.285636	ตาด	-0.2962795
-4.285636	ตาทัพ	-0.2962795
-4.285636	ตาม	-0.2962795
-4.285636	ตามพรลิงค์	-0.2962795
-4.285636	ตามแต่	-0.2962795
-4.285636	ตามใจ	-0.2962795
-4.285636	ตาย	-0.2962795
-4.285636	ตายตัว	-0.2962795
-4.285636	ตาราง	-0.2962795
-4.285636	ตำนาน	-0.2962795
-4.285636	ตำรวจ	-0.2962795
-4.285636	ตำรับตำรา	-0.2962795
-4.285636	ตำรา	-0.2962795
-4.285636	ตำหนัก	-0.2962795
-4.285636	ตำหนิ	-0.2962795
-4.109545	ตำแหน่ง	-0.4723707
-4.285636	ติณสูลานนท์	-0.2962795
-4.285636	ติด	-0.2962795
-4.285636	ติดขัด	-0.2962795
-4.285636	ติดตั้ง	-0.2962795
-4.285636	ติดตาม	-0.2962795
-4.285636	ติดต่อ	-0.2962795
-4.285636	ติดยา	-0.2962795
-4.285636	ติเตียน	-0.2962795
-4.285636	ตี	-0.2962795
-4.285636	ตีความ	-0.2962795
-4.285636	ตีน	-0.2962795
-4.285636	ตีพิมพ์	-0.2962795
-4.285636	ตีแผ่	-0.2962795
-4.285636	ตึก	-0.2962795
-4.285636	ตึงเครียด	-0.2962795
-4.285636	ตื่น	-0.2962795
-4.285636	ตื่นตัว	-0.2962795
-4.285636	ตื่นเต้น	-0.2962795
-4.285636	ตื้น	-0.2962795
-4.285636	ตุลาการ	-0.2962795
-4.285636	ตุลาคม	-0.2962795
-4.285636	ตุ่ม	-0.2962795
-4.285636	ต่อ	-0.2962795
-4.285636	ต่อจากนั้น	-0.2962795
-4.285636	ต่อต้าน	-0.2962795
-4.109545	ต่อม	-0.4723707
-4.285636	ต่อมา	-0.2962795
-4.285636	ต่อรอง	-0.2962795
-4.285636	ต่อสู้	-0.2962795
-4.285636	ต่อเนื่อง	-0.2962795
-4.285636	ต่อเมื่อ	-0.2962795
-4.285636	ต่อไป	-0.2962795
-4.285636	ต่อไปนี้	-0.2962795
-4.285636	ต่าง	-0.2962795
-4.285636	ต่างกัน	-0.2962795
-4.285636	ต่างจังหวัด	-0.2962795
-4.285636	ต่างชาติ	-0.2962795
-4.285636	ต่างประเทศ	-0.2962795
-4.285636	ต่างหาก	-0.2962795
-4.285636	ต่ำ	-0.2962795
-4.285636	ต่ำสุด	-0.2962795
-4.285636	ต้น	-0.2962795
-4.285636	ต้นกำเนิด	-0.2962795
-4.285636	ต้นฉบับ	-0.2962795
-4.285636	ต้นทุน	-0.2962795
-4.285636	ต้นน้ำ	-0.2962795
-4.285636	ต้นเหตุ	-0.2962795
-4.285636	ต้นแบบ	-0.2962795
-4.285636	ต้นไม้	-0.2962795
-4.285636	ต้วมเตี้ยม	-0.2962795
-4.285636	ต้อ	-0.2962795
-4.109545	ต้อง	-0.4723707
-4.285636	ต้องกัน	-0.2962795
-4.285636	ต้องการ	-0.2962795
-4.285636	ต้องห้าม	-0.2962795
-4.285636	ต้อนรับ	-0.2962795
-4.285636	ต้านทาน	-0.2962795
-4.285636	ถกเถียง	-0.2932666
-4.285636	ถดถอย	-0.2932666
-4.285636	ถนน	-0.2932666
-4.285636	ถนอม	-0.2932666
-4.285636	ถนัด	-0.2932666
-4.285636	ถล่ม	-0.2932666
-4.285636	ถวาย	-0.2932666
-4.285636	ถอน	-0.2932666
-4.285636	ถอย	-0.2932666
-4.285636	ถัด	-0.2932666
-4.285636	ถากถาง	-0.2932666
-4.285636	ถาม	-0.2932666
-4.285636	ถาวร	-0.2932666
-4.285636	ถิ่น	-0.2932666
-4.285636	ถิ่นฐาน	-0.2932666
-4.285636	ถีบ	-0.2932666
-4.285636	ถี่	-0.2932666
-4.285636	ถี่ถ้วน	-0.2932666
-4.285636	ถึง	-0.2932666
-4.285636	ถึงกระนั้น	-0.2932666
-4.285636	ถึงแม้	-0.2932666
-4.285636	ถึงแม้ว่า	-0.2932666
-4.285636	ถือ	-0.2932666
-4.285636	ถือกำเนิด	-0.2932666
-4.285636	ถูก	-0.2932666
-4.285636	ถูกต้อง	-0.2932666
-4.285636	ถ่วง	-0.2932666
-4.285636	ถ่องแท้	-0.2932666
-4.285636	ถ่ายทอด	-0.2932666
-4.285636	ถ่ายเท	-0.2932666
-4.285636	ถ่ายแบบ	-0.2932666
-4.285636	ถ้วนหน้า	-0.2932666
-4.109545	ถ้อย	-0.4693579
-4.285636	ถ้อยคำ	-0.2932666
-4.285636	ถ้า	-0.2932666
-4.285636	ถ้าหากว่า	-0.2932666
-4.285636	ทดลอง	-0.2932666
-4.285636	ทดสอบ	-0.2932666
-4.285636	ทดแทน	-0.2932666
-4.285636	ทน	-0.2932666
-4.285636	ทนทาน	-0.2932666
-4.285636	ทบทวน	-0.2932666
-4.285636	ทบวง	-0.2932666
-4.285636	ทมยันตี	-0.2932666
-4.285636	ทยอย	-0.2932666
-4.285636	ทรง	-0.2901635
-4.285636	ทรงคุณวุฒิ	-0.2901635
-4.285636	ทรงจำ	-0.2901635
-4.285636	ทรงตัว	-0.2901635
-4.285636	ทรมาน	-0.2932666
-4.285636	ทรรศนะ	-0.2932666
-4.285636	ทระนง	-0.2932666
-4.285636	ทรัพยากร	-0.2901635
-4.285636	ทรัพย์	-0.2901635
-4.285636	ทรัพย์สิน	-0.2901635
-4.285636	ทราบ	-0.2901635
-4.285636	ทราม	-0.2901635
-4.285636	ทราย	-0.2901635
-4.285636	ทรุด	-0.2901635
-4.285636	ทฤษฎี	-0.3009737
-4.285636	ทลาย	-0.2932666
-4.285636	ทวน	-0.2932666
-4.285636	ทวารวดี	-0.2932666
-4.285636	ทวิ	-0.2932666
-4.285636	ทวี	-0.2932666
-4.285636	ทวีป	-0.2932666
-4.285636	ทว่า	-0.2932666
-4.285636	ทศท.	-0.2932666
-4.285636	ทศวรรษ	-0.2932666
-4.285636	ทหาร	-0.2932666
-4.285636	ทหารบก	-0.2932666
-4.285636	ทอง	-0.2932666
-4.285636	ทอด	-0.2932666
-4.285636	ทอดทิ้ง	-0.2932666
-4.285636	ทอน	-0.2932666
-4.285636	ทอริโอ	-0.2932666
-4.285636	ทะนุบำรุง	-0.2932666
-4.285636	ทะลัก	-0.2932666
-4.285636	ทะลุ	-0.2932666
-4.285636	ทะเบียน	-0.2932666
-4.285636	ทะเยอทะยาน	-0.2932666
-4.285636	ทะเล	-0.2932666
-4.285636	ทะเลทราย	-0.2932666
-4.285636	ทะเลาะ	-0.2932666
-4.285636	ทักทาย	-0.2932666
-4.285636	ทักษะ	-0.2932666
-4.285636	ทันที	-0.2932666
-4.285636	ทันสมัย	-0.2932666
-4.285636	ทับ	-0.2932666
-4.285636	ทัพ	-0.2932666
-4.285636	ทัศนคติ	-0.2932666
-4.285636	ทัศนะ	-0.2932666
-4.285636	ทั่ว	-0.2932666
-4.285636	ทั่วถึง	-0.2932666
-4.285636	ทั่วโลก	-0.2932666
-4.285636	ทั่วไป	-0.2932666
-4.285636	ทั้ง	-0.2932666
-4.285636	ทั้งที่	-0.2932666
-4.285636	ทั้งนั้น	-0.2932666
-4.285636	ทั้งนี้	-0.2932666
-4.285636	ทั้งปวง	-0.2932666
-4.285636	ทั้งมวล	-0.2932666
-4.285636	ทั้งสิ้น	-0.2932666
-4.285636	ทั้งหมด	-0.2932666
-4.285636	ทั้งหลาย	-0.2932666
-4.285636	ทาง	-0.2932666
-4.285636	ทางการ	-0.2932666
-4.285636	ทางสายกลาง	-0.2932666
-4.285636	ทางออก	-0.2932666
-4.285636	ทางเดิน	-0.2932666
-4.285636	ทางเลือก	-0.2932666
-4.285636	ทาน	-0.2932666
-4.285636	ทานากะ	-0.2932666
-4.285636	ทายาท	-0.2932666
-4.285636	ทารก	-0.2932666
-4.285636	ทารุณ	-0.2932666
-4.285636	ทาส	-0.2932666
-4.285636	ทำ	-0.2932666
-4.285636	ทำกิน	-0.2932666
-4.285636	ทำครัว	-0.2932666
-4.285636	ทำงาน	-0.2932666
-4.285636	ทำท่า	-0.2932666
-4.285636	ทำนอง	-0.2932666
-4.285636	ทำนองคลองธรรม	-0.2932666
-4.285636	ทำนา	-0.2932666
-4.285636	ทำนาย	-0.2932666
-4.285636	ทำนุ	-0.2932666
-4.285636	ทำมาหากิน	-0.2932666
-4.285636	ทำร้าย	-0.2932666
-4.285636	ทำลาย	-0.2932666
-4.285636	ทำลายล้าง	-0.2932666
-4.285636	ทำเล	-0.2932666
-4.285636	ทำใจ	-0.2932666
-4.285636	ทำให้	-0.2932666
-4.285636	ทำไม	-0.2932666
-4.285636	ทิศ	-0.2932666
-4.285636	ทิศทาง	-0.2932666
-4.285636	ทิ้ง	-0.2932666
-4.285636	ที	-0.2932666
-4.285636	ทีท่า	-0.2932666
-4.285636	ทีนี้	-0.2932666
-4.285636	ทีม	-0.2932666
-4.285636	ทีละ	-0.2932666
-4.285636	ทีเดียว	-0.2932666
-4.285636	ที่	-0.2932666
-4.285636	ที่ชัง	-0.2932666
-4.285636	ที่ดิน	-0.2932666
-4.285636	ที่ทำการ	-0.2932666
-4.285636	ที่ทำงาน	-0.2932666
-4.285636	ที่นั่น	-0.2932666
-4.285636	ที่นี่	-0.2932666
-4.285636	ที่นี้	-0.2932666
-4.285636	ที่ประชุม	-0.2932666
-4.285636	ที่ปรึกษา	-0.2932666
-4.285636	ที่พึ่ง	-0.2932666
-4.285636	ที่มั่น	-0.2932666
-4.285636	ที่มา	-0.2932666
-4.285636	ที่รัก	-0.2932666
-4.285636	ที่สุด	-0.2932666
-4.285636	ที่หมาย	-0.2932666
-4.285636	ที่อยู่	-0.2932666
-4.285636	ที่แล้ว	-0.2932666
-4.285636	ทึ่ง	-0.2932666
-4.285636	ทุก	-0.2932666
-4.285636	ทุกขัง	-0.2932666
-4.285636	ทุกข์	-0.2932666
-4.285636	ทุกข์ร้อน	-0.2932666
-4.285636	ทุกคน	-0.2932666
-4.285636	ทุกที	-0.2932666
-4.285636	ทุกวัน	-0.2932666
-4.285636	ทุกวันนี้	-0.2932666
-4.285636	ทุกสิ่ง	-0.2932666
-4.285636	ทุกอย่าง	-0.2932666
-4.109545	ทุจริต	-0.4693579
-4.285636	ทุติยภูมิ	-0.2932666
-4.285636	ทุน	-0.2932666
-4.285636	ทุนทรัพย์	-0.2932666
-4.285636	ทุนนิยม	-0.2932666
-4.285636	ทุนเดิม	-0.2932666
-4.285636	ทุ่ง	-0.2932666
-4.285636	ทุ่ม	-0.2932666
-4.285636	ทุ่มเท	-0.2932666
-4.285636	ทูต	-0.2932666
-4.285636	ทูน่า	-0.2932666
-4.285636	ท่วมท้น	-0.2932666
-4.285636	ท่อ	-0.2932666
-4.109545	ท่องเที่ยว	-0.4693579
-4.285636	ท่าทาง	-0.2932666
-4.285636	ท่าที	-0.2932666
-4.285636	ท่าน	-0.2932666
-4.285636	ท่าม	-0.2932666
-4.285636	ท่ามกลาง	-0.2932666
-4.285636	ท่าเรือ	-0.2932666
-4.285636	ท้วงติง	-0.2932666
-4.285636	ท้อง	-0.2932666
-4.285636	ท้องถิ่น	-0.2932666
-4.285636	ท้องที่	-0.2932666
-4.285636	ท้องเรื่อง	-0.2932666
-4.285636	ท้อถอย	-0.2932666
-4.285636	ท้าทาย	-0.2932666
-4.285636	ท้าย	-0.2932666
-4.285636	ท้าว	-0.2932666
-4.285636	ธนบัตร	-0.2932666
-4.285636	ธนาคาร	-0.2932666
-4.285636	ธรรม	-0.2932666
-4.285636	ธรรมชาติ	-0.2932666
-4.285636	ธรรมดา	-0.2932666
-4.285636	ธรรมนูญ	-0.2932666
-4.285636	ธรรมราชา	-0.2932666
-4.285636	ธรรมราชาลิไท	-0.2932666
-4.285636	ธรรมศาสตร์	-0.2932666
-4.285636	ธรรมะ	-0.2932666
-4.285636	ธรรมเนียม	-0.2932666
-4.285636	ธวาณัติก์	-0.2932666
-4.285636	ธัญญาหาร	-0.2932666
-4.285636	ธันวาคม	-0.2932666
-4.285636	ธาตุ	-0.2932666
-4.285636	ธาร	-0.2932666
-4.285636	ธิดา	-0.2932666
-4.285636	ธีระสวัสดิ์	-0.2932666
-4.285636	ธุรกิจ	-0.2932666
-4.285636	ธุระ	-0.2932666
-4.285636	ธุลี	-0.2932666
-4.285636	ธูป	-0.2932666
-4.285636	น.	-0.2931406
-4.285636	นก	-0.2931406
-4.285636	นคร	-0.2931406
-4.285636	นครนายก	-0.2931406
-4.285636	นครบาล	-0.2931406
-4.285636	นครศรีธรรมราช	-0.2931406
-4.285636	นม	-0.2931406
-4.285636	นมนาน	-0.2931406
-4.285636	นริศรา	-0.2931406
-4.285636	นริศรานุวัดติวงศ์	-0.2931406
-4.285636	นวนิยาย	-0.2931406
-4.285636	นอ	-0.2931406
-4.285636	นอก	-0.2931406
-4.285636	นอกจาก	-0.2931406
-4.285636	นอกจากนั้น	-0.2931406
-4.285636	นอกจากนี้	-0.2931406
-4.285636	นอกทาง	-0.2931406
-4.285636	นอกลู่	-0.2931406
-4.285636	นอกเหนือ	-0.2931406
-4.285636	นองเลือด	-0.2931406
-4.285636	นอน	-0.2931406
-4.285636	นอนหลับ	-0.2931406
-4.285636	นอบน้อม	-0.2931406
-4.285636	นะ	-0.2931406
-4.285636	นัก	-0.2931406
-4.285636	นักการเมือง	-0.2931406
-4.285636	นักจิตวิทยา	-0.2931406
-4.285636	นักดนตรี	-0.2931406
-4.285636	นักท่องเที่ยว	-0.2931406
-4.285636	นักธรรม	-0.2931406
-4.285636	นักธุรกิจ	-0.2931406
-4.285636	นักบิน	-0.2931406
-4.285636	นักปราชญ์	-0.2931406
-4.285636	นักมวย	-0.2931406
-4.285636	นักมานุษยวิทยา	-0.2931406
-4.285636	นักรบ	-0.2931406
-4.285636	นักร้อง	-0.2931406
-4.285636	นักลงทุน	-0.2931406
-4.285636	นักวิจัย	-0.2931406
-4.285636	นักวิจารณ์	-0.2931406
-4.285636	นักวิชาการ	-0.2931406
-4.285636	นักวิทยาศาสตร์	-0.2931406
-4.285636	นักศึกษา	-0.2931406
-4.285636	นักหนา	-0.2931406
-4.285636	นักอ่าน	-0.2931406
-4.285636	นักเขียน	-0.2931406
-4.285636	นักเรียน	-0.2931406
-4.285636	นักโทษ	-0.2931406
-4.285636	นัด	-0.2931406
-4.285636	นัดหมาย	-0.2931406
-4.285636	นับ	-0.2931406
-4.285636	นับถือ	-0.2931406
-4.285636	นับแต่	-0.2931406
-4.109545	นัย	-0.4692319
-4.285636	นัยสำคัญ	-0.2931406
-4.285636	นั่ง	-0.2931406
-4.285636	นั่น	-0.2931406
-4.285636	นั่นเอง	-0.2931406
-4.285636	นั้น	-0.2931406
-4.285636	นา	-0.2931406
-4.285636	นาค	-0.2931406
-4.285636	นาง	-0.2931406
-4.285636	นางเอก	-0.2931406
-4.285636	นาจิบุลลาห์	-0.2931406
-4.285636	นาฏศิลป์	-0.2931406
-4.285636	นาที	-0.2931406
-4.285636	นาน	-0.2931406
-4.285636	นานา	-0.2931406
-4.285636	นานาชาติ	-0.2931406
-4.285636	นาปรัง	-0.2931406
-4.285636	นาม	-0.2931406
-4.285636	นามธรรม	-0.2931406
-4.285636	นาย	-0.2931406
-4.285636	นายก	-0.2931406
-4.285636	นายกรัฐมนตรี	-0.2931406
-4.285636	นายจ้าง	-0.2931406
-4.285636	นายทหาร	-0.2931406
-4.285636	นายทุน	-0.2931406
-4.285636	นายพล	-0.2931406
-4.285636	นายร้อย	-0.2931406
-4.285636	นายแพทย์	-0.2931406
-4.285636	นำ	-0.2931406
-4.285636	นำทาง	-0.2931406
-4.285636	นำมา	-0.2931406
-4.285636	นำเข้า	-0.2931406
-4.285636	นำเสนอ	-0.2931406
-4.285636	นิกร	-0.2931406
-4.285636	นิกสัน	-0.2931406
-4.285636	นิกส์	-0.2931406
-4.285636	นิคม	-0.2931406
-4.285636	นิด	-0.2931406
-4.285636	นิดหน่อย	-0.2931406
-4.285636	นิดเดียว	-0.2931406
-4.285636	นิติบัญญัติ	-0.2931406
-4.285636	นิติภาวะ	-0.2931406
-4.285636	นิติศาสตร์	-0.2931406
-4.285636	นิทรรศการ	-0.2931406
-4.285636	นิทาน	-0.2931406
-4.285636	นิธิ	-0.2931406
-4.285636	นิพนธ์	-0.2931406
-4.285636	นิพพาน	-0.2931406
-4.285636	นิมนต์	-0.2931406
-4.285636	นิมิตหมาย	-0.2931406
-4.285636	นิยม	-0.2931406
-4.285636	นิยาม	-0.2931406
-4.285636	นิยาย	-0.2931406
-4.285636	นิรันดร์	-0.2931406
-4.285636	นิรันศักดิ์	-0.2931406
-4.285636	นิราศ	-0.2931406
-4.285636	นิวยอร์ค	-0.2931406
-4.285636	นิวเคลียร์	-0.2931406
-4.285636	นิสัย	-0.2931406
-4.285636	นิสิต	-0.2931406
-4.285636	นิเวศวิทยา	-0.2931406
-4.285636	นิ่ง	-0.2931406
-4.285636	นี่	-0.2931406
-4.285636	นี่เอง	-0.2931406
-4.285636	นี่แหละ	-0.2931406
-4.285636	นี้	-0.2931406
-4.285636	นึก	-0.2931406
-4.285636	นึกคิด	-0.2931406
-4.285636	นึกถึง	-0.2931406
-4.285636	นุกูล	-0.2931406
-4.285636	นุวัดติวงศ์	-0.2931406
-4.285636	นุ่ง	-0.2931406
-4.285636	นุ่มนวล	-0.2931406
-4.285636	นุ่มนิ่ม	-0.2931406
-4.285636	นเรศวร	-0.2931406
-4.285636	นโยบาย	-0.2931406
-4.285636	น่ะ	-0.2931406
-4.285636	น่า	-0.2931406
-4.285636	น่ากลัว	-0.2931406
-4.285636	น่าคิด	-0.2931406
-4.285636	น่าจะ	-0.2931406
-4.285636	น่าดู	-0.2931406
-4.285636	น่าฟัง	-0.2931406
-4.285636	น่ารัก	-0.2931406
-4.285636	น้อง	-0.2931406
-4.285636	น้อม	-0.2931406
-4.285636	น้อย	-0.2931406
-4.285636	น้อยเนื้อต่ำใจ	-0.2931406
-4.285636	น้า	-0.2931406
-4.285636	น้ำ	-0.2931406
-4.285636	น้ำกาม	-0.2931406
-4.285636	น้ำดื่ม	-0.2931406
-4.285636	น้ำตาล	-0.2931406
-4.109545	น้ำมัน	-0.4692319
-4.285636	น้ำมันดิบ	-0.2931406
-4.285636	น้ำลาย	-0.2931406
-4.285636	น้ำหนัก	-0.2931406
-4.285636	น้ำหนึ่ง	-0.2931406
-4.285636	น้ำเสีย	-0.2931406
-4.285636	น้ำเสียง	-0.2931406
-4.285636	น้ำใจ	-0.2931406
-4.285636	บก	-0.2976987
-4.285636	บก.	-0.2976987
-4.109545	บกพร่อง	-0.47379
-4.285636	บงการ	-0.2976987
-4.285636	บท	-0.2976987
-4.285636	บทความ	-0.2976987
-4.285636	บทบัญญัติ	-0.2976987
-4.285636	บทบาท	-0.2976987
-4.285636	บทเรียน	-0.2976987
-4.285636	บน	-0.2976987
-4.285636	บรมครู	-0.2976987
-4.285636	บรมวงศ์เธอ	-0.2976987
-4.285636	บรรจบ	-0.2976987
-4.285636	บรรจุ	-0.2976987
-4.285636	บรรดา	-0.2976987
-4.285636	บรรทัด	-0.2976987
-4.285636	บรรพชน	-0.2976987
-4.285636	บรรพบุรุษ	-0.2976987
-4.285636	บรรยากาศ	-0.2976987
-4.285636	บรรยาย	-0.2976987
-4.285636	บรรลุ	-0.2976987
-4.285636	บรรษัท	-0.2976987
-4.285636	บรรเทา	-0.2976987
-4.285636	บรรเลง	-0.2976987
-4.285636	บริการ	-0.2976987
-4.285636	บริจาค	-0.2976987
-4.285636	บริบท	-0.2976987
-4.285636	บริบูรณ์	-0.2976987
-4.285636	บริวาร	-0.2976987
-4.285636	บริษัท	-0.2976987
-4.285636	บริสุทธิ์	-0.2976987
-4.109545	บริหาร	-0.47379
-4.285636	บริเวณ	-0.2976987
-4.109545	บริโภค	-0.47379
-4.285636	บล็อค	-0.3009962
-4.285636	บวก	-0.2976987
-4.285636	บวช	-0.2976987
-4.285636	บวรนิเวศน์	-0.2976987
-4.285636	บวรศักดิ์	-0.2976987
-4.285636	บอก	-0.2976987
-4.285636	บอกเล่า	-0.2976987
-4.285636	บอกใบ้	-0.2976987
-4.285636	บอด	-0.2976987
-4.109545	บอริส	-0.47379
-4.285636	บัคเตรี	-0.2976987
-4.285636	บังคับ	-0.2976987
-4.285636	บังคับการ	-0.2976987
-4.285636	บังคับบัญชา	-0.2976987
-4.285636	บังอาจ	-0.2976987
-4.285636	บังเกิด	-0.2976987
-4.285636	บังเอิญ	-0.2976987
-4.285636	บัญชร	-0.2976987
-4.285636	บัญชาการ	-0.2976987
-4.285636	บัญชี	-0.2976987
-4.285636	บัญชีเดินสะพัด	-0.2976987
-4.109545	บัญญัติ	-0.47379
-4.285636	บัณฑิต	-0.2976987
-4.285636	บัดนั้น	-0.2976987
-4.285636	บัดนี้	-0.2976987
-4.285636	บัตร	-0.2976987
-4.285636	บันดาล	-0.2976987
-4.285636	บันทึก	-0.2976987
-4.285636	บันเทิง	-0.2976987
-4.285636	บันได	-0.2976987
-4.285636	บัว	-0.2976987
-4.285636	บัวหลวง	-0.2976987
-4.285636	บั้นปลาย	-0.2976987
-4.285636	บาง	-0.2976987
-4.285636	บางที	-0.2976987
-4.285636	บาดเจ็บ	-0.2976987
-4.285636	บาท	-0.2976987
-4.285636	บาป	-0.2976987
-4.285636	บารมี	-0.2976987
-4.285636	บาลี	-0.2976987
-4.285636	บาหลี	-0.2976987
-4.285636	บำบัด	-0.2976987
-4.285636	บำรุง	-0.2976987
-4.285636	บำเพ็ญ	-0.2976987
-4.285636	บำเหน็จ	-0.2976987
-4.285636	บิณฑบาต	-0.2976987
-4.285636	บิดา	-0.2976987
-4.285636	บิดเบือน	-0.2976987
-4.285636	บิน	-0.2976987
-4.285636	บีบ	-0.2976987
-4.285636	บีบคั้น	-0.2976987
-4.285636	บีบบังคับ	-0.2976987
-4.285636	บึง	-0.2976987
-4.285636	บุก	-0.2976987
-4.285636	บุกรุก	-0.2976987
-4.285636	บุกเบิก	-0.2976987
-4.285636	บุคคล	-0.2976987
-4.285636	บุคลากร	-0.2976987
-4.285636	บุคลิก	-0.2976987
-4.285636	บุคลิกภาพ	-0.2976987
-4.285636	บุคลิกลักษณะ	-0.2976987
-4.285636	บุช	-0.2976987
-4.285636	บุญ	-0.2976987
-4.285636	บุญชู	-0.2976987
-4.285636	บุตร	-0.2976987
-4.285636	บุตรศรี	-0.2976987
-4.285636	บุพกาล	-0.2976987
-4.285636	บุรุษ	-0.2976987
-4.285636	บุหรี่	-0.2976987
-4.285636	บูชา	-0.2976987
-4.285636	บูรณปกรณ์	-0.2976987
-4.285636	บูรณภาพ	-0.2976987
-4.285636	บูรณะ	-0.2976987
-4.285636	บูรณาการ	-0.2976987
-4.285636	บ่	-0.2976987
-4.285636	บ่ง	-0.2976987
-4.285636	บ่งชี้	-0.2976987
-4.285636	บ่งถึง	-0.2976987
-4.285636	บ่งบอก	-0.2976987
-4.285636	บ่น	-0.2976987
-4.285636	บ่นว่า	-0.2976987
-4.285636	บ่อ	-0.2976987
-4.285636	บ่อย	-0.2976987
-4.285636	บ่อยครั้ง	-0.2976987
-4.285636	บ่อเกิด	-0.2976987
-4.285636	บ่าย	-0.2976987
-4.285636	บ้า	-0.2976987
-4.285636	บ้าง	-0.2976987
-4.285636	บ้าน	-0.2976987
-4.285636	บ้านเชียง	-0.2976987
-4.285636	บ้านเมือง	-0.2976987
-4.285636	ป.	-0.2988308
-4.285636	ปก	-0.2988308
-4.285636	ปกครอง	-0.2988308
-4.109545	ปกติ	-0.4749221
-4.285636	ปกป้อง	-0.2988308
-4.285636	ปฏิกิริยา	-0.2988308
-4.285636	ปฏิชีวนะ	-0.2988308
-4.285636	ปฏิญาณ	-0.2988308
-4.285636	ปฏิทิน	-0.2988308
-4.285636	ปฏิบัติ	-0.2988308
-4.285636	ปฏิบัติการ	-0.2988308
-4.285636	ปฏิบัติงาน	-0.2988308
-4.285636	ปฏิบัติธรรม	-0.2988308
-4.285636	ปฏิปักษ์	-0.2988308
-4.285636	ปฏิรูป	-0.2988308
-4.285636	ปฏิวัติ	-0.2988308
-4.285636	ปฏิสัมพันธ์	-0.2988308
-4.285636	ปฏิเสธ	-0.2988308
-4.285636	ปฐมภูมิ	-0.2988308
-4.285636	ปน	-0.2988308
-4.285636	ปมด้อย	-0.2988308
-4.285636	ปรก	-0.2992038
-4.285636	ปรกติ	-0.2992038
-4.285636	ปรปักษ์	-0.2988308
-4.285636	ปรมาจารย์	-0.2988308
-4.285636	ปรองดอง	-0.2992038
-4.285636	ประกอบ	-0.2992038
-4.285636	ประกอบการ	-0.2992038
-4.285636	ประกัน	-0.2992038
-4.285636	ประการ	-0.2992038
-4.285636	ประกาศ	-0.2992038
-4.285636	ประคับประคอง	-0.2992038
-4.285636	ประจวบเหมาะ	-0.2992038
-4.285636	ประจักษ์	-0.2992038
-4.285636	ประจักษ์แจ้ง	-0.2992038
-4.285636	ประจำ	-0.2992038
-4.285636	ประจำการ	-0.2992038
-4.285636	ประจำตัว	-0.2992038
-4.285636	ประจำปี	-0.2992038
-4.285636	ประจำวัน	-0.2992038
-4.285636	ประชวร	-0.2992038
-4.285636	ประชา	-0.2992038
-4.285636	ประชากร	-0.2992038
-4.285636	ประชาคม	-0.2992038
-4.285636	ประชาชน	-0.2992038
-4.285636	ประชาชาติ	-0.2992038
-4.285636	ประชาธิปัตย์	-0.2992038
-4.285636	ประชาธิปไตย	-0.2992038
-4.285636	ประชาราษฎร์	-0.2992038
-4.285636	ประชาสัมพันธ์	-0.2992038
-4.285636	ประชุม	-0.2992038
-4.285636	ประณาม	-0.2992038
-4.285636	ประณีต	-0.2992038
-4.285636	ประดับ	-0.2992038
-4.285636	ประดิษฐ์	-0.2992038
-4.285636	ประติมากร	-0.2992038
-4.285636	ประติมากรรม	-0.2992038
-4.285636	ประตู	-0.2992038
-4.285636	ประถม	-0.2992038
-4.285636	ประถมศึกษา	-0.2992038
-4.285636	ประทับ	-0.2992038
-4.285636	ประทับใจ	-0.2992038
-4.285636	ประทาน	-0.2992038
-4.285636	ประทุษร้าย	-0.2992038
-4.285636	ประท้วง	-0.2992038
-4.285636	ประธาน	-0.2992038
-3.984606	ประธานาธิบดี	-0.6002338
-4.285636	ประนีประนอม	-0.2992038
-4.285636	ประปา	-0.2992038
-4.285636	ประพฤติ	-0.2992038
-4.285636	ประพันธ์	-0.2992038
-4.285636	ประพาส	-0.2992038
-4.285636	ประมง	-0.2992038
-4.285636	ประมวล	-0.2992038
-4.285636	ประมวลผล	-0.2992038
-4.285636	ประมาณ	-0.2992038
-4.285636	ประมาท	-0.2992038
-4.109545	ประมุข	-0.4752951
-4.285636	ประมูล	-0.2992038
-4.109545	ประยุกต์	-0.4752951
-4.285636	ประวัติ	-0.2992038
-4.285636	ประวัติการณ์	-0.2992038
-4.285636	ประวัติศาสตร์	-0.2992038
-4.285636	ประสงค์	-0.2992038
-4.285636	ประสบ	-0.2992038
-4.285636	ประสบการณ์	-0.2992038
-4.285636	ประสม	-0.2992038
-4.285636	ประสาท	-0.2992038
-4.285636	ประสาน	-0.2992038
-4.285636	ประสิทธิผล	-0.2992038
-4.285636	ประสิทธิภาพ	-0.2992038
-4.285636	ประหยัด	-0.2992038
-4.285636	ประหลาด	-0.2992038
-4.285636	ประหัตประหาร	-0.2992038
-4.285636	ประเด็น	-0.2992038
-4.285636	ประเทศ	-0.2992038
-4.285636	ประเทศราช	-0.2992038
-4.285636	ประเพณี	-0.2992038
-4.285636	ประเภท	-0.2992038
-4.285636	ประเมิน	-0.2992038
-4.285636	ประเสริฐ	-0.2992038
-4.285636	ประโยค	-0.2992038
-4.285636	ประโยชน์	-0.2992038
-4.285636	ปรัชญา	-0.2992038
-4.285636	ปรับ	-0.2992038
-4.285636	ปรับปรุง	-0.2992038
-4.285636	ปรากฏ	-0.2992038
-4.109545	ปรากฏการณ์	-0.4752951
-4.285636	ปราจีนบุรี	-0.2992038
-4.285636	ปราบ	-0.2992038
-4.285636	ปราบปราม	-0.2992038
-4.285636	ปรารถนา	-0.2992038
-4.285636	ปราศจาก	-0.2992038
-4.285636	ปราศรัย	-0.2992038
-4.285636	ปราสาท	-0.2992038
-4.285636	ปราโมช	-0.2992038
-4.285636	ปราโมทย์	-0.2992038
-4.285636	ปริจเฉท	-0.2988308
-4.285636	ปริญญา	-0.2988308
-4.285636	ปริญญาตรี	-0.2988308
-4.285636	ปริตตา	-0.2988308
-4.285636	ปริมณฑล	-0.2988308
-4.285636	ปริมาณ	-0.2988308
-4.285636	ปริยาย	-0.2988308
-4.285636	ปรีชา	-0.2992038
-4.285636	ปรีดา	-0.2992038
-4.285636	ปรึกษา	-0.2992038
-4.285636	ปรุงแต่ง	-0.2992038
-4.285636	ปลด	-0.3006361
-4.285636	ปลดเปลื้อง	-0.3006361
-4.285636	ปลอด	-0.3006361
-4.285636	ปลอดภัย	-0.3006361
-4.285636	ปลอม	-0.3006361
-4.285636	ปลัด	-0.2988308
-4.285636	ปลา	-0.3006361
-4.285636	ปลาย	-0.3006361
-4.285636	ปลุก	-0.3006361
-4.285636	ปลูก	-0.3006361
-4.285636	ปลูกฝัง	-0.3006361
-4.285636	ปล่อย	-0.3006361
-4.285636	ปล่อยตัว	-0.3006361
-4.285636	ปวงชน	-0.2988308
-4.285636	ปวด	-0.2988308
-4.285636	ปะปน	-0.2988308
-4.285636	ปะลิศ	-0.2988308
-4.285636	ปัจจัย	-0.2988308
-4.285636	ปัจจุบัน	-0.2988308
-4.285636	ปัจจุบันนี้	-0.2988308
-4.285636	ปัจเจกชน	-0.2988308
-4.285636	ปัญญา	-0.2988308
-4.285636	ปัญญาชน	-0.2988308
-4.285636	ปัญญาอ่อน	-0.2988308
-4.285636	ปัญหา	-0.2988308
-4.285636	ปัดเป่า	-0.2988308
-4.285636	ปัน	-0.2988308
-4.285636	ปันผล	-0.2988308
-4.285636	ปันยารชุน	-0.2988308
-4.285636	ปั่นป่วน	-0.2988308
-4.285636	ปั้น	-0.2988308
-4.285636	ปาก	-0.2988308
-4.285636	ปากท้อง	-0.2988308
-4.285636	ปานกลาง	-0.2988308
-4.285636	ปารุสกวัน	-0.2988308
-4.285636	ปาสคาล	-0.2988308
-4.285636	ปิด	-0.2988308
-4.285636	ปิดกั้น	-0.2988308
-4.285636	ปิดบัง	-0.2988308
-4.285636	ปี	-0.2988308
-4.285636	ปีก	-0.2988308
-4.285636	ปีติ	-0.2988308
-4.285636	ปีเตอร์ลินช์	-0.2988308
-4.285636	ปี่	-0.2988308
-4.285636	ปึกแผ่น	-0.2988308
-4.285636	ปืน	-0.2988308
-4.285636	ปืนกล	-0.2988308
-4.285636	ปุถุชน	-0.2988308
-4.285636	ปุ่ม	-0.2988308
-4.285636	ปุ๋ย	-0.2988308
-4.285636	ปู	-0.2988308
-4.285636	ปู่	-0.2988308
-4.285636	ป่น	-0.2988308
-4.285636	ป่วน	-0.2988308
-4.285636	ป่วย	-0.2988308
-4.285636	ป่า	-0.2988308
-4.285636	ป่าช้า	-0.2988308
-4.285636	ป่านนี้	-0.2988308
-4.285636	ป่าสงวน	-0.2988308
-4.109545	ป่าไม้	-0.4749221
-4.285636	ป้องกัน	-0.2988308
-4.285636	ป้อน	-0.2988308
-4.285636	ป้อม	-0.2988308
-4.285636	ป้าย	-0.2988308
-4.285636	ป๋วย	-0.2988308
-4.285636	ผกผัน	-0.2944446
-4.285636	ผจญภัย	-0.2944446
-4.285636	ผนวก	-0.2944446
-4.285636	ผนึก	-0.2944446
-4.285636	ผม	-0.2944446
-4.285636	ผล	-0.2944446
-4.285636	ผลกรรม	-0.2944446
-4.285636	ผลกระทบ	-0.2944446
-4.285636	ผลงาน	-0.2944446
-4.285636	ผลดี	-0.2944446
-4.285636	ผลประโยชน์	-0.2944446
-4.285636	ผลผลิต	-0.2944446
-4.285636	ผลลัพธ์	-0.2944446
-4.285636	ผลัก	-0.3007937
-4.285636	ผลักดัน	-0.3007937
-4.285636	ผลัดเปลี่ยน	-0.3007937
-4.285636	ผลิต	-0.2944446
-4.285636	ผลิตผล	-0.2944446
-4.285636	ผลิตภัณฑ์	-0.2944446
-4.285636	ผลเสีย	-0.2944446
-4.285636	ผลไม้	-0.2944446
-4.285636	ผสม	-0.2944446
-4.285636	ผสมผสาน	-0.2944446
-4.285636	ผัง	-0.2944446
-4.285636	ผังเมือง	-0.2944446
-4.285636	ผัน	-0.2944446
-4.285636	ผันผวน	-0.2944446
-4.285636	ผันแปร	-0.2944446
-4.285636	ผัว	-0.2944446
-4.285636	ผาสุก	-0.2944446
-4.285636	ผิด	-0.2944446
-4.285636	ผิดปกติ	-0.2944446
-4.285636	ผิดพลาด	-0.2944446
-4.285636	ผิดหวัง	-0.2944446
-4.285636	ผิดแผก	-0.2944446
-4.285636	ผิน	-0.2944446
-4.285636	ผิว	-0.2944446
-4.285636	ผิวหนัง	-0.2944446
-4.285636	ผี	-0.2944446
-4.285636	ผีสาง	-0.2944446
-4.285636	ผึ้ง	-0.2944446
-4.285636	ผืน	-0.2944446
-4.285636	ผืนผ้า	-0.2944446
-4.285636	ผุด	-0.2944446
-4.285636	ผูกขาด	-0.2944446
-4.285636	ผูกพัน	-0.2944446
-4.285636	ผู้	-0.2944446
-4.285636	ผู้ก่อการ	-0.2944446
-4.285636	ผู้คน	-0.2944446
-4.285636	ผู้ชาย	-0.2944446
-4.285636	ผู้ช่วย	-0.2944446
-4.285636	ผู้นำ	-0.2944446
-4.285636	ผู้น้อย	-0.2944446
-4.285636	ผู้บริหาร	-0.2944446
-4.285636	ผู้บริโภค	-0.2944446
-4.285636	ผู้บังคับบัญชา	-0.2944446
-4.285636	ผู้บัญชาการ	-0.2944446
-4.285636	ผู้ปฏิบัติงาน	-0.2944446
-4.285636	ผู้ปฏิวัติ	-0.2944446
-4.285636	ผู้ประกอบการ	-0.2944446
-4.285636	ผู้ป่วย	-0.2944446
-4.285636	ผู้ผลิต	-0.2944446
-4.285636	ผู้พิพากษา	-0.2944446
-4.285636	ผู้ฟัง	-0.2944446
-4.285636	ผู้มีอิทธิพล	-0.2944446
-4.285636	ผู้รับผิดชอบ	-0.2944446
-4.285636	ผู้รู้	-0.2944446
-4.285636	ผู้ร้าย	-0.2944446
-4.285636	ผู้ว่า	-0.2944446
-4.285636	ผู้ว่าการ	-0.2944446
-4.285636	ผู้ว่าราชการ	-0.2944446
-4.285636	ผู้สนับสนุน	-0.2944446
-4.285636	ผู้สมัคร	-0.2944446
-4.285636	ผู้สร้าง	-0.2944446
-4.285636	ผู้สอน	-0.2944446
-4.285636	ผู้สื่อข่าว	-0.2944446
-4.285636	ผู้หญิง	-0.2944446
-4.285636	ผู้อำนวยการ	-0.2944446
-4.285636	ผู้อื่น	-0.2944446
-4.285636	ผู้อ่าน	-0.2944446
-4.285636	ผู้เขียน	-0.2944446
-4.285636	ผู้เข้าร่วม	-0.2944446
-4.285636	ผู้เช่า	-0.2944446
-4.285636	ผู้เรียน	-0.2944446
-4.285636	ผู้แทน	-0.2944446
-4.285636	ผู้โดยสาร	-0.2944446
-4.285636	ผู้ใช้	-0.2944446
-4.285636	ผู้ใช้แรงงาน	-0.2944446
-4.285636	ผู้ใด	-0.2944446
-4.285636	ผู้ใหญ่	-0.2944446
-4.285636	ผู้ให้	-0.2944446
-4.285636	ผ่อน	-0.2944446
-4.285636	ผ่อนคลาย	-0.2944446
-4.285636	ผ่อนปรน	-0.2944446
-4.285636	ผ่าตัด	-0.2944446
-4.285636	ผ่าน	-0.2944446
-4.285636	ผ้า	-0.2944446
-4.285636	ฝน	-0.3001629
-4.285636	ฝรั่งเศส	-0.3001629
-4.285636	ฝักใฝ่	-0.3001629
-4.285636	ฝัง	-0.3001629
-4.285636	ฝัน	-0.3001629
-4.285636	ฝันเฟื่อง	-0.3001629
-4.285636	ฝั่ง	-0.3001629
-4.285636	ฝา	-0.3001629
-4.285636	ฝาก	-0.3001629
-4.285636	ฝาผนัง	-0.3001629
-4.285636	ฝิ่น	-0.3001629
-4.285636	ฝีมือ	-0.3001629
-4.285636	ฝึก	-0.3001629
-4.285636	ฝึกฝน	-0.3001629
-4.285636	ฝึกอบรม	-0.3001629
-4.285636	ฝืดเคือง	-0.3001629
-4.285636	ฝุ่น	-0.3001629
-4.285636	ฝ่า	-0.3001629
-4.285636	ฝ่าฝืน	-0.3001629
-4.285636	ฝ่าย	-0.3001629
-4.285636	ฝ่ายค้าน	-0.3001629
-4.285636	พ.ร.บ.	-0.2944446
-4.285636	พงศาวดาร	-0.2944446
-4.285636	พงษ์พานิช	-0.2944446
-4.285636	พจนา	-0.2944446
-4.285636	พนักงาน	-0.2944446
-4.285636	พบ	-0.2944446
-4.285636	พบปะ	-0.2944446
-4.285636	พยัญชนะ	-0.2944446
-4.285636	พยากรณ์	-0.2944446
-4.285636	พยาธิ	-0.2944446
-4.285636	พยาบาล	-0.2944446
-4.285636	พยายาม	-0.2944446
-4.285636	พยุง	-0.2944446
-4.285636	พรมแดน	-0.3002306
-4.285636	พรรค	-0.2944446
-4.285636	พรรคพวก	-0.2944446
-4.285636	พรรณนา	-0.2944446
-4.285636	พรสวรรค์	-0.2944446
-4.285636	พรหมสูตร	-0.3002306
-4.285636	พระ	-0.3002306
-4.285636	พระจันทร์	-0.3002306
-4.285636	พระจุลจอมเกล้า	-0.3002306
-4.285636	พระที่นั่ง	-0.3002306
-4.285636	พระธรรมศาสตร์	-0.3002306
-4.285636	พระบรมราชโองการ	-0.3002306
-4.285636	พระบรมรูป	-0.3002306
-4.285636	พระบาท	-0.3002306
-4.285636	พระบาทสมเด็จ	-0.3002306
-4.285636	พระผู้มีพระภาคเจ้า	-0.3002306
-4.285636	พระพุทธรูป	-0.3002306
-4.285636	พระพุทธศาสนา	-0.3002306
-4.285636	พระพุทธองค์	-0.3002306
-4.109545	พระพุทธเจ้า	-0.4763218
-4.285636	พระภิกษุ	-0.3002306
-4.285636	พระมหากษัตริย์	-0.3002306
-4.285636	พระยา	-0.3002306
-4.285636	พระราชดำรัส	-0.3002306
-4.285636	พระราชดำริ	-0.3002306
-4.285636	พระราชทาน	-0.3002306
-4.285636	พระราชบัญญัติ	-0.3002306
-4.285636	พระราชพิธี	-0.3002306
-4.285636	พระราชวัง	-0.3002306
-4.285636	พระราชวินิจฉัย	-0.3002306
-4.285636	พระราชอำนาจ	-0.3002306
-4.285636	พระราชาคณะ	-0.3002306
-4.285636	พระสงฆ์	-0.3002306
-4.285636	พระองค์	-0.3002306
-4.285636	พระอาทิตย์	-0.3002306
-4.285636	พระเกียรติ	-0.3002306
-4.109545	พระเจ้า	-0.4763218
-4.285636	พระเจ้าอยู่หัว	-0.3002306
-4.285636	พระเชตุพน	-0.3002306
-4.285636	พระเยซู	-0.3002306
-4.285636	พระเยาว์	-0.3002306
-4.285636	พระเวท	-0.3002306
-4.285636	พระเอก	-0.3002306
-4.285636	พราก	-0.3002306
-4.285636	พราหมณ์	-0.3002306
-4.285636	พริกไทย	-0.3002306
-4.285636	พร้อม	-0.3002306
-4.285636	พร้อมกัน	-0.3002306
-4.285636	พร้อมกับ	-0.3002306
-4.285636	พร้อมทั้ง	-0.3002306
-4.285636	พร้อมใจ	-0.3002306
-4.285636	พฤติกรรม	-0.3002306
-4.285636	พฤติการณ์	-0.3002306
-4.285636	พฤตินัย	-0.3002306
-4.285636	พฤศจิกายน	-0.3002306
-4.285636	พฤษภาคม	-0.3002306
-4.285636	พฤหัสบดี	-0.2944446
-4.285636	พล	-0.2944446
-4.285636	พลตรี	-0.2944446
-4.285636	พลตำรวจ	-0.2944446
-4.285636	พลตำรวจเอก	-0.2944446
-4.285636	พลพรรค	-0.2944446
-4.285636	พลวัตร	-0.2944446
-4.285636	พลสิน	-0.2944446
-4.285636	พลอย	-0.3007937
-4.285636	พลอากาศ	-0.2944446
-4.285636	พลอากาศเอก	-0.2944446
-4.285636	พละ	-0.2944446
-4.285636	พละกำลัง	-0.2944446
-4.285636	พลัง	-0.2944446
-4.285636	พลังงาน	-0.2944446
-4.285636	พลังน้ำ	-0.2944446
-4.285636	พลัดพราก	-0.3007937
-4.285636	พลาง	-0.3007937
-4.285636	พลาด	-0.3007937
-4.285636	พลานามัย	-0.2944446
-4.285636	พลาสติก	-0.3007937
-4.285636	พลิก	-0.3007937
-4.285636	พลเมือง	-0.2944446
-4.285636	พลเรือน	-0.2944446
-4.285636	พลเรือเอก	-0.2944446
-4.285636	พลเอก	-0.2944446
-4.285636	พวก	-0.2944446
-4.285636	พวกเขา	-0.2944446
-4.285636	พวกเรา	-0.2944446
-4.285636	พวง	-0.2944446
-4.285636	พวน	-0.2944446
-4.285636	พอ	-0.2944446
-4.285636	พอควร	-0.2944446
-4.285636	พอจะ	-0.2944446
-4.285636	พอดี	-0.2944446
-4.285636	พอเพียง	-0.2944446
-4.285636	พอใจ	-0.2944446
-4.285636	พะวง	-0.2944446
-4.285636	พัก	-0.2944446
-4.285636	พักผ่อน	-0.2944446
-4.285636	พัง	-0.2944446
-4.285636	พังพอน	-0.2944446
-4.285636	พัฒนา	-0.2944446
-4.285636	พัฒนาการ	-0.2944446
-4.285636	พัด	-0.2944446
-4.285636	พัน	-0.2944446
-4.285636	พันธบัตร	-0.2944446
-4.285636	พันธมิตร	-0.2944446
-4.285636	พันธะ	-0.2944446
-4.285636	พันธุกรรม	-0.2944446
-4.285636	พันธุวิศวกรรม	-0.2944446
-4.109545	พันธุ์	-0.2922117
-4.285636	พันเอก	-0.2944446
-4.285636	พันโท	-0.2944446
-4.285636	พับ	-0.2944446
-4.285636	พัวพัน	-0.2944446
-4.285636	พา	-0.2944446
-4.285636	พาณิชยกรรม	-0.2944446
-4.285636	พาณิชย์	-0.2944446
-4.285636	พาย	-0.2944446
-4.285636	พายุ	-0.2944446
-4.285636	พาหะ	-0.2944446
-4.285636	พำนัก	-0.2944446
-4.285636	พิการ	-0.2944446
-4.285636	พิจารณา	-0.2944446
-4.285636	พิชิต	-0.2944446
-4.285636	พิทักษ์	-0.2944446
-4.285636	พิธี	-0.2944446
-4.285636	พิธีกร	-0.2944446
-4.285636	พิธีกรรม	-0.2944446
-4.285636	พิธีการ	-0.2944446
-4.285636	พิธีรีตอง	-0.2944446
-4.285636	พินิจ	-0.2944446
-4.285636	พิบูล	-0.2944446
-4.285636	พิบูลสงคราม	-0.2944446
-4.285636	พิพัฒน์เสรีธรรม	-0.2944446
-4.285636	พิพากษา	-0.2944446
-4.285636	พิพาท	-0.2944446
-4.285636	พิพิธภัณฑสถาน	-0.2944446
-4.285636	พิพิธภัณฑ์	-0.2944446
-4.285636	พิมพ์	-0.2944446
-4.285636	พิมพ์ดีด	-0.2944446
-4.285636	พิมพ์ใจ	-0.2944446
-4.285636	พิษ	-0.2944446
-4.285636	พิษณุโลก	-0.2944446
-4.285636	พิสดาร	-0.2944446
-4.285636	พิสัย	-0.2944446
-4.285636	พิสูจน์	-0.2944446
-4.285636	พิเคราะห์	-0.2944446
-4.285636	พิเศษ	-0.2944446
-4.285636	พี	-0.2944446
-4.285636	พีระศรี	-0.2944446
-4.285636	พี่	-0.2944446
-4.285636	พี่เลี้ยง	-0.2944446
-4.285636	พึง	-0.2944446
-4.285636	พึงประสงค์	-0.2944446
-4.285636	พึงปรารถนา	-0.2944446
-4.285636	พึงพอใจ	-0.2944446
-4.285636	พึ่ง	-0.2944446
-4.285636	พึ่งพา	-0.2944446
-4.285636	พึ่งพิง	-0.2944446
-4.285636	พืช	-0.2944446
-4.285636	พืชพันธุ์	-0.2944446
-4.285636	พื้น	-0.2944446
-4.285636	พื้นฐาน	-0.2944446
-4.285636	พื้นดิน	-0.2944446
-4.285636	พื้นที่	-0.2944446
-4.285636	พื้นบ้าน	-0.2944446
-4.285636	พื้นเพ	-0.2944446
-4.285636	พื้นเมือง	-0.2944446
-4.285636	พุทธ	-0.2944446
-4.285636	พุทธทาส	-0.2944446
-4.285636	พุทธธรรม	-0.2944446
-4.285636	พุทธบริษัท	-0.2944446
-4.285636	พุทธประวัติ	-0.2944446
-4.109545	พุทธศตวรรษ	-0.4705358
-4.285636	พุทธศักราช	-0.2944446
-4.285636	พุทธศาสนา	-0.2944446
-4.285636	พุธ	-0.2944446
-4.285636	พุ่ง	-0.2944446
-4.285636	พุ่มข้าวบิณฑ์	-0.2944446
-4.285636	พูด	-0.2944446
-4.285636	พูดคุย	-0.2944446
-4.285636	พูดจา	-0.2944446
-4.285636	พ่วง	-0.2944446
-4.285636	พ่อ	-0.2944446
-4.285636	พ่อขุน	-0.2944446
-4.285636	พ่อค้า	-0.2944446
-4.285636	พ่อตา	-0.2944446
-4.285636	พ่าย	-0.2944446
-4.285636	พ่ายแพ้	-0.2944446
-4.285636	พ้น	-0.2944446
-4.285636	พ้อง	-0.2944446
-4.285636	ฟรอยด์	-0.300985
-4.285636	ฟรี	-0.300985
-4.285636	ฟอร์แทรน	-0.3001629
-4.285636	ฟัง	-0.3001629
-4.285636	ฟาก	-0.3001629
-4.285636	ฟาง	-0.3001629
-4.285636	ฟาฟิลอฟ	-0.3001629
-4.285636	ฟิลิปปินส์	-0.3001629
-4.285636	ฟิลิปส์	-0.3001629
-4.285636	ฟื้น	-0.3001629
-4.285636	ฟื้นฟู	-0.3001629
-4.285636	ฟุ่มเฟือย	-0.3001629
-4.285636	ฟูคูดะ	-0.3001629
-4.285636	ฟ้อง	-0.3001629
-4.285636	ฟ้องร้อง	-0.3001629
-4.285636	ฟ้า	-0.3001629
-4.285636	ฟ้าผ่า	-0.3001629
-4.285636	ภพ	-0.2944446
-4.285636	ภยันตราย	-0.2944446
-4.285636	ภรรยา	-0.2944446
-4.285636	ภริยา	-0.2944446
-4.285636	ภักดี	-0.2944446
-4.285636	ภัย	-0.2944446
-4.285636	ภัยพิบัติ	-0.2944446
-4.285636	ภาค	-0.2944446
-4.285636	ภาคภูมิใจ	-0.2944446
-4.285636	ภาคเหนือ	-0.2944446
-4.285636	ภาพ	-0.2944446
-4.285636	ภาพถ่าย	-0.2944446
-4.285636	ภาพพจน์	-0.2944446
-4.285636	ภาพยนตร์	-0.2944446
-4.285636	ภายนอก	-0.2944446
-4.285636	ภายหน้า	-0.2944446
-4.285636	ภายหลัง	-0.2944446
-4.285636	ภายใต้	-0.2944446
-4.285636	ภายใน	-0.2944446
-4.285636	ภารกิจ	-0.2944446
-4.285636	ภาระ	-0.2944446
-4.285636	ภาวะ	-0.2944446
-4.285636	ภาษา	-0.2944446
-4.285636	ภาษาศาสตร์	-0.2944446
-4.285636	ภาษี	-0.2944446
-4.285636	ภิกษุ	-0.2944446
-4.285636	ภู	-0.2944446
-4.109545	ภูธร	-0.4705358
-4.285636	ภูมิ	-0.2944446
-4.285636	ภูมิธรรม	-0.2944446
-4.285636	ภูมิปัญญา	-0.2944446
-4.285636	ภูมิพล	-0.2944446
-4.109545	ภูมิภาค	-0.4705358
-4.285636	ภูมิศาสตร์	-0.2944446
-4.285636	ภูมิหลัง	-0.2944446
-4.285636	ภูมิแพ้	-0.2944446
-4.285636	ภูมิใจ	-0.2944446
-4.285636	ภูเขา	-0.2944446
-4.285636	ม.	-0.2959154
-4.285636	มกราคม	-0.2959154
-4.285636	มงกุฎเกล้า	-0.2959154
-4.285636	มงคล	-0.2959154
-4.285636	มณเฑียรบาล	-0.2959154
-4.285636	มติ	-0.2959154
-4.285636	มนตรี	-0.2959154
-4.285636	มนต์ขลัง	-0.2959154
-4.285636	มนัส	-0.2959154
-4.285636	มนุษยชน	-0.2959154
-4.285636	มนุษยชาติ	-0.2959154
-4.285636	มนุษยสัมพันธ์	-0.2959154
-4.285636	มนุษย์	-0.2959154
-4.285636	มรดก	-0.2959154
-4.285636	มรรคผล	-0.2959154
-4.285636	มลทิน	-0.2959154
-4.285636	มลพิษ	-0.2959154
-4.285636	มลภาวะ	-0.2959154
-4.285636	มวล	-0.2959154
-4.285636	มวลชน	-0.2959154
-4.285636	มหัศจรรย์	-0.2959154
-4.285636	มหา	-0.2959154
-4.285636	มหาชน	-0.2959154
-4.285636	มหาดไทย	-0.2959154
-4.285636	มหาประเทศ	-0.2959154
-4.285636	มหายาน	-0.2959154
-4.285636	มหาราช	-0.2959154
-4.285636	มหาวิทยาลัย	-0.2959154
-4.285636	มหาศาล	-0.2959154
-4.285636	มหาสมุทร	-0.2959154
-4.285636	มหาอำนาจ	-0.2959154
-4.285636	มอง	-0.2959154
-4.285636	มองข้าม	-0.2959154
-4.285636	มองเห็น	-0.2959154
-4.285636	มองโกเลีย	-0.2959154
-4.285636	มอบ	-0.2959154
-4.285636	มอบหมาย	-0.2959154
-4.285636	มอร์แกน	-0.2959154
-4.285636	มอเตอร์ไซค์	-0.2959154
-4.285636	มะขาม	-0.2959154
-4.285636	มะเร็ง	-0.2959154
-4.285636	มัก	-0.2959154
-4.285636	มักกะสัน	-0.2959154
-4.285636	มักจะ	-0.2959154
-4.285636	มัจฉา	-0.2959154
-4.285636	มัธยม	-0.2959154
-4.285636	มัน	-0.2959154
-4.285636	มันสมอง	-0.2959154
-4.285636	มันสำปะหลัง	-0.2959154
-4.285636	มัว	-0.2959154
-4.285636	มัวหมอง	-0.2959154
-4.285636	มัวเมา	-0.2959154
-4.285636	มั่งคั่ง	-0.2959154
-4.285636	มั่งมี	-0.2959154
-4.285636	มั่นคง	-0.2959154
-4.285636	มั่นใจ	-0.2959154
-4.285636	มั่วสุม	-0.2959154
-4.285636	มา	-0.2959154
-4.285636	มาก	-0.2959154
-4.285636	มากมาย	-0.2959154
-4.285636	มาจาก	-0.2959154
-4.285636	มาตรการ	-0.2959154
-4.285636	มาตรฐาน	-0.2959154
-4.109545	มาตรา	-0.4720067
-4.285636	มานะ	-0.2959154
-4.285636	มานาน	-0.2959154
-4.285636	มานุษยวิทยา	-0.2959154
-4.285636	มาบตาพุด	-0.2959154
-4.285636	มาฟิโอโส	-0.2959154
-4.285636	มายา	-0.2959154
-4.285636	มารดา	-0.2959154
-4.285636	มารยาท	-0.2959154
-4.285636	มาร์กซ์	-0.2959154
-4.285636	มาสโลว์	-0.2959154
-4.285636	มาเฟีย	-0.2959154
-4.285636	มาเลย์	-0.2959154
-4.285636	มาเลเซีย	-0.2959154
-4.285636	มาแรนซาโน	-0.2959154
-4.285636	มิ	-0.2959154
-4.285636	มิจฉาชีพ	-0.2959154
-4.285636	มิฉะนั้น	-0.2959154
-4.285636	มิตร	-0.2959154
-4.285636	มิติ	-0.2959154
-4.285636	มิถุนายน	-0.2959154
-4.285636	มิอาจ	-0.2959154
-4.285636	มิเช่นนั้น	-0.2959154
-4.285636	มิใช่	-0.2959154
-4.285636	มิได้	-0.2959154
-4.285636	มี	-0.2959154
-4.285636	มีชัย	-0.2959154
-4.285636	มีนาคม	-0.2959154
-4.285636	มีแต่	-0.2959154
-4.285636	มึง	-0.2959154
-4.285636	มืด	-0.2959154
-4.285636	มือ	-0.2959154
-4.285636	มือดี	-0.2959154
-4.285636	มุกดาหาร	-0.2959154
-4.285636	มุม	-0.2959154
-4.285636	มุมานะ	-0.2959154
-4.285636	มุสลิม	-0.2959154
-4.285636	มุ่ง	-0.2959154
-4.285636	มุ่งมั่น	-0.2959154
-4.285636	มุ่งหน้า	-0.2959154
-4.285636	มุ่งหมาย	-0.2959154
-4.285636	มุ่งหวัง	-0.2959154
-4.285636	มุ่งเน้น	-0.2959154
-4.285636	มูล	-0.2959154
-4.285636	มูลค่า	-0.2959154
-4.285636	มูลฐาน	-0.2959154
-4.285636	มูลเหตุ	-0.2959154
-4.285636	มโหฬาร	-0.2959154
-4.285636	ม้า	-0.2959154
-4.285636	ยก	-0.2962453
-4.109545	ยกย่อง	-0.4723366
-4.285636	ยกเลิก	-0.2962453
-4.285636	ยกเว้น	-0.2962453
-4.285636	ยงค์	-0.2962453
-4.285636	ยงใจยุทธ	-0.2962453
-4.285636	ยถากรรม	-0.2962453
-4.285636	ยศ	-0.2962453
-4.285636	ยอก	-0.2962453
-4.285636	ยอด	-0.2962453
-4.285636	ยอดเยี่ยม	-0.2962453
-4.285636	ยอม	-0.2962453
-4.285636	ยอมรับ	-0.2962453
-4.285636	ยัง	-0.2962453
-4.285636	ยังคง	-0.2962453
-4.285636	ยังชีพ	-0.2962453
-4.285636	ยังเติร์ก	-0.2962453
-4.285636	ยังไง	-0.2962453
-4.285636	ยัดเยียด	-0.2962453
-4.285636	ยับยั้ง	-0.2962453
-4.285636	ยับเยิน	-0.2962453
-4.285636	ยั่งยืน	-0.2962453
-4.285636	ยั่วยุ	-0.2962453
-4.285636	ยั้งคิด	-0.2962453
-4.285636	ยา	-0.2962453
-4.285636	ยาก	-0.2962453
-4.285636	ยากจน	-0.2962453
-4.285636	ยากลำบาก	-0.2962453
-4.285636	ยากเย็น	-0.2962453
-4.285636	ยากแค้น	-0.2962453
-4.285636	ยากไร้	-0.2962453
-4.285636	ยางพารา	-0.2962453
-4.285636	ยาม	-0.2962453
-4.285636	ยาย	-0.2962453
-4.285636	ยาว	-0.2962453
-4.285636	ยาวนาน	-0.2962453
-4.285636	ยาวเหยียด	-0.2962453
-4.285636	ยาเสพติด	-0.2962453
-4.285636	ยำเกรง	-0.2962453
-4.285636	ยิง	-0.2962453
-4.285636	ยิน	-0.2962453
-4.285636	ยินดี	-0.2962453
-4.285636	ยินยอม	-0.2962453
-4.285636	ยิว	-0.2962453
-4.285636	ยิ่ง	-0.2962453
-4.285636	ยิ่งกว่า	-0.2962453
-4.285636	ยิ่งกว่านั้น	-0.2962453
-4.285636	ยิ่งยวด	-0.2962453
-4.285636	ยิ่งหย่อน	-0.2962453
-4.285636	ยิ่งใหญ่	-0.2962453
-4.285636	ยี่	-0.2962453
-4.285636	ยี่สิบ	-0.2962453
-4.285636	ยึด	-0.2962453
-4.285636	ยึดครอง	-0.2962453
-4.285636	ยึดถือ	-0.2962453
-4.285636	ยึดมั่น	-0.2962453
-4.285636	ยึดเหนี่ยว	-0.2962453
-4.285636	ยืด	-0.2962453
-4.285636	ยืดหยุ่น	-0.2962453
-4.285636	ยืดเยื้อ	-0.2962453
-4.285636	ยืน	-0.2962453
-4.285636	ยืนกราน	-0.2962453
-4.285636	ยืนต้น	-0.2962453
-4.285636	ยืนยัน	-0.2962453
-4.285636	ยืนยาว	-0.2962453
-4.285636	ยืม	-0.2962453
-4.285636	ยื่น	-0.2962453
-4.285636	ยุค	-0.2962453
-3.984606	ยุติ	-0.5972754
-4.285636	ยุติธรรม	-0.2962453
-4.285636	ยุทธการ	-0.2962453
-4.285636	ยุทธศาสตร์	-0.2962453
-4.285636	ยุบ	-0.2962453
-4.285636	ยุโรป	-0.2962453
-4.285636	ยุ่ง	-0.2962453
-4.285636	ยุ่งยาก	-0.2962453
-4.285636	ยุ่งเกี่ยว	-0.2962453
-4.285636	ยุ้ง	-0.2962453
-4.285636	ยโสธร	-0.2962453
-4.285636	ย่อ	-0.2962453
-4.285636	ย่อท้อ	-0.2962453
-4.109545	ย่อม	-0.4723366
-4.109545	ย่อย	-0.4723366
-4.285636	ย่า	-0.2962453
-4.285636	ย่าง	-0.2962453
-4.285636	ย่าน	-0.2962453
-4.285636	ย่ำ	-0.2962453
-4.285636	ย้อน	-0.2962453
-4.285636	ย้าย	-0.2962453
-4.285636	ย้ำ	-0.2962453
-4.285636	ร	-0.2940103
-4.285636	รณรงค์	-0.2940103
-4.285636	รถ	-0.2940103
-4.285636	รถประจำทาง	-0.2940103
-4.109545	รถยนต์	-0.4701016
-4.285636	รถเมล์	-0.2940103
-4.285636	รบ	-0.2940103
-4.285636	รบกวน	-0.2940103
-4.285636	รวดเร็ว	-0.2940103
-4.285636	รวบยอด	-0.2940103
-4.285636	รวบรวม	-0.2940103
-4.285636	รวบรัด	-0.2940103
-4.285636	รวม	-0.2940103
-4.285636	รส	-0.2940103
-4.285636	รสช.	-0.2940103
-4.285636	รสชาติ	-0.2940103
-4.285636	รสนิยม	-0.2940103
-4.285636	รหัส	-0.2940103
-4.285636	รอ	-0.2940103
-4.285636	รอง	-0.2940103
-4.285636	รองรับ	-0.2940103
-4.285636	รองเท้า	-0.2940103
-4.285636	รอด	-0.2940103
-4.285636	รอดพ้น	-0.2940103
-4.285636	รอบ	-0.2940103
-4.285636	รอบคอบ	-0.2940103
-4.285636	รอย	-0.2940103
-4.285636	ระงับ	-0.2940103
-4.285636	ระดม	-0.2940103
-4.285636	ระดับ	-0.2940103
-4.285636	ระดู	-0.2940103
-4.285636	ระบบ	-0.2940103
-4.285636	ระบอบ	-0.2940103
-4.285636	ระบาด	-0.2940103
-4.285636	ระบาย	-0.2940103
-4.285636	ระบุ	-0.2940103
-4.285636	ระมัดระวัง	-0.2940103
-4.285636	ระยอง	-0.2940103
-4.285636	ระยะ	-0.2940103
-4.285636	ระลึก	-0.2940103
-4.285636	ระวัง	-0.2940103
-4.285636	ระหว่าง	-0.2940103
-4.285636	ระเบิด	-0.2940103
-4.285636	ระเบียบ	-0.2940103
-4.285636	รัก	-0.2940103
-4.285636	รักษา	-0.2940103
-4.285636	รักใคร่	-0.2940103
-4.285636	รังสรรค์	-0.2940103
-4.285636	รังสี	-0.2940103
-4.285636	รังเกียจ	-0.2940103
-4.285636	รัชกาล	-0.2940103
-4.285636	รัชมังคลาภิเษก	-0.2940103
-4.285636	รัชสมัย	-0.2940103
-4.285636	รัฐ	-0.2940103
-4.285636	รัฐธรรมนูญ	-0.2940103
-4.285636	รัฐบาล	-0.2940103
-4.285636	รัฐประหาร	-0.2940103
-4.285636	รัฐมนตรี	-0.2940103
-4.285636	รัฐมนตรีว่าการ	-0.2940103
-4.285636	รัฐวิสาหกิจ	-0.2940103
-4.285636	รัฐศาสตร์	-0.2940103
-4.109545	รัฐสภา	-0.4701016
-4.285636	รัตนโกสินทร์	-0.2940103
-4.285636	รัตนโกเศศ	-0.2940103
-4.285636	รับ	-0.2940103
-4.285636	รับช่วง	-0.2940103
-4.285636	รับประทาน	-0.2940103
-4.285636	รับผิดชอบ	-0.2940103
-4.285636	รับฟัง	-0.2940103
-4.285636	รับรอง	-0.2940103
-4.285636	รับราชการ	-0.2940103
-4.285636	รับรู้	-0.2940103
-4.285636	รับหน้า	-0.2940103
-4.285636	รับเหมา	-0.2940103
-4.285636	รับใช้	-0.2940103
-4.285636	รัสเซีย	-0.2940103
-4.285636	รา	-0.2940103
-4.285636	รากฐาน	-0.2940103
-4.285636	รากเหง้า	-0.2940103
-4.285636	ราคะ	-0.2940103
-4.285636	ราคา	-0.2940103
-4.285636	รางวัล	-0.2940103
-4.285636	ราชการ	-0.2940103
-4.285636	ราชครู	-0.2940103
-4.285636	ราชธน	-0.2940103
-4.285636	ราชบัณฑิต	-0.2940103
-4.285636	ราชประเพณี	-0.2940103
-4.285636	ราชมงคล	-0.2940103
-4.285636	ราชสมบัติ	-0.2940103
-4.285636	ราชอาณาจักร	-0.2940103
-4.285636	ราบ	-0.2940103
-4.285636	ราบรื่น	-0.2940103
-4.285636	รามคำแหง	-0.2940103
-4.285636	รามเกียรติ์	-0.2940103
-4.285636	ราย	-0.2940103
-4.285636	รายการ	-0.2940103
-4.285636	รายงาน	-0.2940103
-4.285636	รายจ่าย	-0.2940103
-4.285636	รายชื่อ	-0.2940103
-4.285636	รายละเอียด	-0.2940103
-4.285636	รายได้	-0.2940103
-4.285636	ราว	-0.2940103
-4.285636	ราศี	-0.2940103
-4.285636	ราษฎร	-0.2940103
-4.285636	รำ	-0.2940103
-4.285636	รำคาญ	-0.2940103
-4.285636	รำลึก	-0.2940103
-4.285636	ริดรอน	-0.2940103
-4.285636	ริดสีดวง	-0.2940103
-4.285636	ริม	-0.2940103
-4.285636	ริเริ่ม	-0.2940103
-4.285636	รีด	-0.2940103
-4.285636	รีบ	-0.2940103
-4.285636	รีบด่วน	-0.2940103
-4.285636	รีบร้อน	-0.2940103
-4.285636	รีบเร่ง	-0.2940103
-4.285636	รีพับลิกัน	-0.2940103
-4.285636	รื่นรมย์	-0.2940103
-4.285636	รื้อ	-0.2940103
-4.285636	รุก	-0.2940103
-4.285636	รุกราน	-0.2940103
-4.285636	รุดหน้า	-0.2940103
-4.285636	รุนแรง	-0.2940103
-4.285636	รุมเร้า	-0.2940103
-4.285636	รุ่งขึ้น	-0.2940103
-4.285636	รุ่งเรือง	-0.2940103
-4.285636	รุ่งโรจน์	-0.2940103
-4.285636	รุ่น	-0.2940103
-4.285636	รูป	-0.2940103
-4.285636	รูปการณ์	-0.2940103
-4.285636	รูปธรรม	-0.2940103
-4.285636	รูปร่าง	-0.2940103
-4.285636	รูปลักษณ์	-0.2940103
-4.285636	รูปแบบ	-0.2940103
-4.285636	รูเบิล	-0.2940103
-4.285636	รู้	-0.2940103
-4.285636	รู้จัก	-0.2940103
-4.285636	รู้ดี	-0.2940103
-4.285636	รู้ตัว	-0.2940103
-4.285636	รู้สึก	-0.2940103
-4.285636	รู้เท่าไม่ถึงการณ์	-0.2940103
-4.285636	รู้เรื่อง	-0.2940103
-4.285636	ร่มเย็น	-0.2940103
-4.285636	ร่วม	-0.2940103
-4.285636	ร่วมงาน	-0.2940103
-4.285636	ร่วมมือ	-0.2940103
-4.285636	ร่วมสมัย	-0.2940103
-4.285636	ร่องรอย	-0.2940103
-4.285636	ร่าง	-0.2940103
-4.285636	ร่างกาย	-0.2940103
-4.285636	ร่าเริง	-0.2940103
-4.285636	ร่ำรวย	-0.2940103
-4.285636	ร่ำไป	-0.2940103
-4.285636	ร้อง	-0.2940103
-4.285636	ร้องขอ	-0.2940103
-4.285636	ร้องเพลง	-0.2940103
-4.285636	ร้องเรียน	-0.2940103
-4.285636	ร้องไห้	-0.2940103
-4.285636	ร้อน	-0.2940103
-4.285636	ร้อย	-0.2940103
-4.285636	ร้อยตำรวจเอก	-0.2940103
-4.285636	ร้อยละ	-0.2940103
-4.285636	ร้อยเอ็ด	-0.2940103
-4.285636	ร้าน	-0.2940103
-4.285636	ร้าย	-0.2940103
-4.285636	ร้ายกาจ	-0.2940103
-4.285636	ร้ายแรง	-0.2940103
-4.285636	ฤดู	-0.2940103
-4.285636	ฤทธิ์	-0.2940103
-4.285636	ล	-0.2956649
-4.285636	ลง	-0.2956649
-4.285636	ลงทุน	-0.2956649
-4.285636	ลงนาม	-0.2956649
-4.285636	ลงมือ	-0.2956649
-4.285636	ลงรอย	-0.2956649
-4.285636	ลงเอย	-0.2956649
-4.285636	ลงโทษ	-0.2956649
-4.285636	ลด	-0.2956649
-4.285636	ลดทอน	-0.2956649
-4.285636	ลบ	-0.2956649
-4.285636	ลม	-0.2956649
-4.285636	ลวดลาย	-0.2956649
-4.285636	ลอกเลียน	-0.2956649
-4.285636	ลอง	-0.2956649
-4.285636	ลอนดอน	-0.2956649
-4.285636	ลอบ	-0.2956649
-4.285636	ลอย	-0.2956649
-4.285636	ลอยฟ้า	-0.2956649
-4.285636	ละ	-0.2956649
-4.285636	ละคร	-0.2956649
-4.285636	ละทิ้ง	-0.2956649
-4.285636	ละออง	-0.2956649
-4.285636	ละอาย	-0.2956649
-4.285636	ละเมิด	-0.2956649
-4.285636	ละเลย	-0.2956649
-4.285636	ละเล่น	-0.2956649
-4.285636	ละเอียด	-0.2956649
-4.285636	ละเอียดลออ	-0.2956649
-4.285636	ละเอียดอ่อน	-0.2956649
-4.285636	ละแวก	-0.2956649
-4.285636	ลักกี้	-0.2956649
-4.285636	ลักลอบ	-0.2956649
-4.285636	ลักลั่น	-0.2956649
-4.285636	ลักษณะ	-0.2956649
-4.285636	ลังกา	-0.2956649
-4.285636	ลังกาวี	-0.2956649
-4.285636	ลังเล	-0.2956649
-4.285636	ลัทธิ	-0.2956649
-4.285636	ลับ	-0.2956649
-4.285636	ลั่น	-0.2956649
-4.285636	ลา	-0.2956649
-4.285636	ลาง	-0.2956649
-4.285636	ลาด	-0.2956649
-4.285636	ลาดชัน	-0.2956649
-4.285636	ลายมือ	-0.2956649
-4.285636	ลายสือ	-0.2956649
-4.285636	ลาว	-0.2956649
-4.285636	ลาออก	-0.2956649
-4.285636	ลำ	-0.2956649
-4.285636	ลำคอ	-0.2956649
-4.285636	ลำดับ	-0.2956649
-4.285636	ลำน้ำ	-0.2956649
-4.285636	ลำบาก	-0.2956649
-4.285636	ลำพัง	-0.2956649
-4.285636	ลำพูน	-0.2956649
-4.285636	ลำเลียง	-0.2956649
-4.285636	ลำเอียง	-0.2956649
-4.285636	ลิง	-0.2956649
-4.285636	ลิไท	-0.2956649
-4.285636	ลิ้น	-0.2956649
-4.285636	ลีลา	-0.2956649
-4.285636	ลี้ลับ	-0.2956649
-4.285636	ลึก	-0.2956649
-4.285636	ลึกซึ้ง	-0.2956649
-4.285636	ลึกลับ	-0.2956649
-4.285636	ลืม	-0.2956649
-4.285636	ลือ	-0.2956649
-4.285636	ลุ	-0.2956649
-4.285636	ลุก	-0.2956649
-4.285636	ลุกฮือ	-0.2956649
-4.285636	ลุง	-0.2956649
-4.285636	ลุงชาน	-0.2956649
-4.285636	ลุล่วง	-0.2956649
-4.285636	ลุ่มน้ำ	-0.2956649
-4.285636	ลุ่มลึก	-0.2956649
-4.285636	ลูก	-0.2956649
-4.285636	ลูกค้า	-0.2956649
-4.285636	ลูกจ้าง	-0.2956649
-4.285636	ลูกตา	-0.2956649
-4.285636	ลูกน้อง	-0.2956649
-4.285636	ลูกบาศก์	-0.2956649
-4.285636	ลูกผสม	-0.2956649
-4.285636	ลูกศิษย์	-0.2956649
-4.285636	ลูกสาว	-0.2956649
-4.285636	ลูกหนี้	-0.2956649
-4.285636	ลูกเขย	-0.2956649
-4.285636	ลูกโซ่	-0.2956649
-4.285636	ลูบ	-0.2956649
-4.285636	ลูเซียโน	-0.2956649
-4.285636	ลู่ทาง	-0.2956649
-4.285636	ล่มจม	-0.2956649
-4.285636	ล่วง	-0.2956649
-4.285636	ล่วงหน้า	-0.2956649
-4.285636	ล่ะ	-0.2956649
-4.285636	ล่าง	-0.2956649
-4.285636	ล่าช้า	-0.2956649
-4.285636	ล่าสุด	-0.2956649
-4.285636	ล้นพ้น	-0.2956649
-4.285636	ล้ม	-0.2956649
-4.285636	ล้มล้าง	-0.2956649
-4.285636	ล้มเหลว	-0.2956649
-4.285636	ล้วน	-0.2956649
-4.285636	ล้วนแต่	-0.2956649
-4.285636	ล้วนแล้ว	-0.2956649
-4.285636	ล้อม	-0.2956649
-4.285636	ล้อเลียน	-0.2956649
-4.285636	ล้อเล่น	-0.2956649
-4.285636	ล้าง	-0.2956649
-4.285636	ล้าน	-0.2956649
-4.285636	ล้านนา	-0.2956649
-4.285636	ล้าหลัง	-0.2956649
-4.285636	วง	-0.2970521
-4.285636	วงการ	-0.2970521
-4.285636	วงจร	-0.2970521
-4.285636	วงศ์วรรณ	-0.2970521
-4.285636	วงศ์วานิช	-0.2970521
-4.285636	วงศ์ๆ	-0.2970521
-4.285636	วงเงิน	-0.2970521
-4.285636	วน	-0.2970521
-4.285636	วนเกษตร	-0.2970521
-4.285636	วรรค	-0.2970521
-4.285636	วรรณกรรม	-0.2970521
-4.285636	วรรณคดี	-0.2970521
-4.285636	วรรณศิลป์	-0.2970521
-4.285636	วรรณะ	-0.2970521
-4.285636	วรศักดิ์	-0.2970521
-4.285636	วลี	-0.2970521
-4.285636	วสันต์	-0.2970521
-4.285636	วอชิงตัน	-0.2970521
-4.285636	วอร์ซอ	-0.2970521
-4.285636	วัคซีน	-0.2970521
-4.285636	วัง	-0.2970521
-4.285636	วังกานนท์	-0.2970521
-4.285636	วัชพืช	-0.2970521
-4.285636	วัฒนธรรม	-0.2970521
-4.285636	วัด	-0.2970521
-4.285636	วัตถุ	-0.2970521
-4.285636	วัตถุดิบ	-0.2970521
-4.285636	วัตถุธรรม	-0.2970521
-4.285636	วัตถุนิยม	-0.2970521
-4.285636	วัตถุประสงค์	-0.2970521
-4.285636	วัน	-0.2970521
-4.285636	วันที่	-0.2970521
-4.285636	วันนี้	-0.2970521
-4.285636	วันหนึ่ง	-0.2970521
-4.285636	วันเกิด	-0.2970521
-4.285636	วัย	-0.2970521
-4.285636	วัยรุ่น	-0.2970521
-4.285636	วัลลีย์	-0.2970521
-4.285636	วัสดุ	-0.2970521
-4.285636	วาง	-0.2970521
-4.285636	วางแผน	-0.2970521
-4.285636	วาจา	-0.2970521
-4.285636	วาด	-0.2970521
-4.285636	วาทศิลป์	-0.2970521
-4.285636	วายร้าย	-0.2970521
-4.285636	วารสาร	-0.2970521
-4.285636	วาระ	-0.2970521
-4.285636	วาสนา	-0.2970521
-4.285636	วิกฤตการณ์	-0.2970521
-4.285636	วิกฤติ	-0.2970521
-4.285636	วิกฤติการณ์	-0.2970521
-4.285636	วิกลจริต	-0.2970521
-4.285636	วิงเวียน	-0.2970521
-4.285636	วิจัย	-0.2970521
-4.285636	วิจารณญาณ	-0.2970521
-4.285636	วิจารณ์	-0.2970521
-4.285636	วิจิตร	-0.2970521
-4.285636	วิชา	-0.2970521
-4.285636	วิชาการ	-0.2970521
-4.285636	วิชาชีพ	-0.2970521
-4.285636	วิญญาณ	-0.2970521
-4.285636	วิตก	-0.2970521
-4.285636	วิตกกังวล	-0.2970521
-4.285636	วิตามิน	-0.2970521
-4.285636	วิถี	-0.2970521
-4.285636	วิถีชีวิต	-0.2970521
-4.285636	วิถีทาง	-0.2970521
-4.285636	วิทยา	-0.2970521
-4.285636	วิทยาการ	-0.2970521
-4.285636	วิทยาลัย	-0.2970521
-4.285636	วิทยาศาสตร์	-0.2970521
-4.285636	วิทยาเขต	-0.2970521
-4.285636	วิทยุ	-0.2970521
-4.285636	วิธี	-0.2970521
-4.285636	วิธีการ	-0.2970521
-4.285636	วินัย	-0.2970521
-4.285636	วินาศกรรม	-0.2970521
-4.285636	วินิจฉัย	-0.2970521
-4.285636	วิพากษ์	-0.2970521
-4.285636	วิมล	-0.2970521
-4.285636	วิมัตินิยม	-0.2970521
-4.285636	วิริยะ	-0.2970521
-4.285636	วิวัฒนาการ	-0.2970521
-4.285636	วิศว	-0.2970521
-4.285636	วิศวกร	-0.2970521
-4.285636	วิศวกรรม	-0.2970521
-4.285636	วิศวกรรมศาสตร์	-0.2970521
-4.285636	วิสัทลักษณ์	-0.2970521
-4.285636	วิสัย	-0.2970521
-4.285636	วิสามัญ	-0.2970521
-4.285636	วิอาญา	-0.2970521
-4.285636	วิเคราะห์	-0.2970521
-4.285636	วิเชษฐ	-0.2970521
-4.285636	วิเทศธนกิจ	-0.2970521
-4.285636	วิเศษ	-0.2970521
-4.285636	วิเศษณ์	-0.2970521
-4.285636	วิโรจน์	-0.2970521
-4.285636	วิ่ง	-0.2970521
-4.285636	วิ่งเต้น	-0.2970521
-4.285636	วีรบุรุษ	-0.2970521
-4.285636	วีระ	-0.2970521
-4.285636	วุฒิปรีชา	-0.2970521
-4.285636	วุฒิสภา	-0.2970521
-4.285636	วุ่นวาย	-0.2970521
-4.285636	วูบ	-0.2970521
-4.285636	ว่า	-0.2970521
-4.285636	ว่าการ	-0.2970521
-4.285636	ว่าง	-0.2970521
-4.285636	ว่างงาน	-0.2970521
-4.285636	ว่างเปล่า	-0.2970521
-4.285636	ว่าจ้าง	-0.2970521
-4.285636	ว้าวุ่น	-0.2970521
-4.285636	ว้าเหว่	-0.2970521
-4.285636	ศก	-0.2901635
-4.285636	ศตวรรษ	-0.2901635
-4.285636	ศพ	-0.2901635
-4.285636	ศรัทธา	-0.2901635
-4.285636	ศรี	-0.2901635
-4.285636	ศรีปราชญ์	-0.2901635
-4.285636	ศรีเมือง	-0.2901635
-4.285636	ศักดินา	-0.2901635
-4.285636	ศักดิ์	-0.2901635
-4.285636	ศักดิ์ศรี	-0.2901635
-4.285636	ศักดิ์สิทธิ์	-0.2901635
-4.285636	ศักยภาพ	-0.2901635
-4.285636	ศักราช	-0.2901635
-4.285636	ศัตรู	-0.2901635
-4.285636	ศัพท์	-0.2901635
-4.285636	ศาล	-0.2901635
-4.285636	ศาสดา	-0.2901635
-4.285636	ศาสตร์	-0.2901635
-4.285636	ศาสนจักร	-0.2901635
-4.285636	ศาสนสถาน	-0.2901635
-4.285636	ศาสนา	-0.2901635
-4.285636	ศิรินวกุล	-0.2901635
-4.285636	ศิลปกรรม	-0.2901635
-4.285636	ศิลปวัฒนธรรม	-0.2901635
-4.285636	ศิลปวัตถุ	-0.2901635
-4.285636	ศิลปวิทยา	-0.2901635
-4.285636	ศิลปหัตถกรรม	-0.2901635
-4.285636	ศิลปะ	-0.2901635
-4.285636	ศิลปากร	-0.2901635
-4.285636	ศิลปิน	-0.2901635
-4.285636	ศิลป์	-0.2901635
-4.285636	ศิลาจารึก	-0.2901635
-4.285636	ศิลาอ่อน	-0.2901635
-4.285636	ศิวลึงค์	-0.2901635
-4.285636	ศิษย์	-0.2901635
-4.285636	ศีรษะ	-0.2901635
-4.285636	ศีล	-0.2901635
-4.285636	ศีลธรรม	-0.2901635
-4.285636	ศึก	-0.2901635
-4.285636	ศึกษา	-0.2901635
-4.285636	ศึกษาธิการ	-0.2901635
-4.285636	ศุกร์	-0.2901635
-4.285636	ศูนย์	-0.2901635
-4.285636	ศูนย์กลาง	-0.2901635
-4.285636	ส.ส.	-0.2901635
-4.285636	สกปรก	-0.2901635
-4.285636	สกัด	-0.2901635
-4.285636	สกุล	-0.2901635
-4.285636	สงขลา	-0.2901635
-4.285636	สงคราม	-0.2901635
-4.285636	สงครามโลก	-0.2901635
-4.285636	สงฆ์	-0.2901635
-4.285636	สงบ	-0.2901635
-4.285636	สงบสุข	-0.2901635
-4.285636	สงสัย	-0.2901635
-4.285636	สงสาร	-0.2901635
-4.285636	สงเคราะห์	-0.2901635
-4.285636	สง่า	-0.2901635
-4.285636	สด	-0.2901635
-4.285636	สดชื่น	-0.2901635
-4.285636	สตรี	-0.2901635
-4.285636	สตัฟฟ์	-0.2901635
-4.285636	สติ	-0.2901635
-4.285636	สติปัญญา	-0.2901635
-4.285636	สถาน	-0.2901635
-4.285636	สถานการณ์	-0.2901635
-4.285636	สถานที่	-0.2901635
-4.285636	สถานภาพ	-0.2901635
-4.285636	สถานะ	-0.2901635
-4.285636	สถานี	-0.2901635
-4.285636	สถาบัน	-0.2901635
-4.285636	สถาปนา	-0.2901635
-4.285636	สถาปัตยกรรม	-0.2901635
-4.285636	สถิติ	-0.2901635
-4.285636	สถูป	-0.2901635
-4.285636	สนทนา	-0.2901635
-4.285636	สนอง	-0.2901635
-4.285636	สนองตอบ	-0.2901635
-4.285636	สนับสนุน	-0.2901635
-4.285636	สนั่น	-0.2901635
-4.285636	สนาม	-0.2901635
-4.285636	สนามรบ	-0.2901635
-4.285636	สนิท	-0.2901635
-4.285636	สนิทสนม	-0.2901635
-4.285636	สนุก	-0.2901635
-4.285636	สนุกสนาน	-0.2901635
-4.285636	สนเทศ	-0.2901635
-4.285636	สนใจ	-0.2901635
-4.285636	สบถ	-0.2901635
-4.285636	สบาย	-0.2901635
-4.285636	สบายใจ	-0.2901635
-4.285636	สภา	-0.2901635
-4.285636	สภาพ	-0.2901635
-4.285636	สภาพการณ์	-0.2901635
-4.285636	สภาพแวดล้อม	-0.2901635
-4.285636	สภาวการณ์	-0.2901635
-4.285636	สภาวะ	-0.2901635
-4.285636	สม	-0.2901635
-4.285636	สมควร	-0.2901635
-4.285636	สมจริง	-0.2901635
-4.285636	สมชัย	-0.2901635
-4.285636	สมณศักดิ์	-0.2901635
-4.285636	สมดุล	-0.2901635
-4.285636	สมดุลยภาพ	-0.2901635
-4.285636	สมดุลย์	-0.2901635
-4.285636	สมถะ	-0.2901635
-4.285636	สมทบ	-0.2901635
-4.285636	สมบัติ	-0.2901635
-4.285636	สมบูรณาญาสิทธิราชย์	-0.2901635
-4.285636	สมบูรณ์	-0.2901635
-4.285636	สมประกอบ	-0.2901635
-4.285636	สมภาร	-0.2901635
-4.285636	สมมุติ	-0.2901635
-4.285636	สมรรถนะ	-0.2901635
-4.285636	สมรรถภาพ	-0.2901635
-4.285636	สมรส	-0.2901635
-4.285636	สมศรี	-0.2901635
-4.285636	สมอง	-0.2901635
-4.285636	สมอเรียง	-0.2901635
-4.285636	สมัคร	-0.2901635
-4.285636	สมัครใจ	-0.2901635
-4.285636	สมัย	-0.2901635
-4.285636	สมัยก่อน	-0.2901635
-4.285636	สมาคม	-0.2901635
-4.285636	สมาชิก	-0.2901635
-4.285636	สมาชิกภาพ	-0.2901635
-4.285636	สมาธิ	-0.2901635
-4.285636	สมาน	-0.2901635
-4.285636	สมุด	-0.2901635
-4.285636	สมุน	-0.2901635
-4.285636	สมุย	-0.2901635
-4.285636	สมเด็จ	-0.2901635
-4.285636	สมเหตุสมผล	-0.2901635
-4.285636	สม่ำเสมอ	-0.2901635
-4.285636	สยาม	-0.2901635
-4.285636	สรง	-0.2901635
-4.285636	สรงน้ำ	-0.2901635
-4.285636	สรณะ	-0.2901635
-4.285636	สรรค์	-0.2901635
-4.285636	สรรพสิ่ง	-0.2901635
-4.285636	สรรหา	-0.2901635
-4.285636	สระ	-0.2901635
-4.285636	สรีระ	-0.2901635
-4.109545	สรุป	-0.4662548
-4.285636	สร้าง	-0.2901635
-4.285636	สร้างสม	-0.2901635
-4.285636	สร้างสรรค์	-0.2901635
-4.285636	สฤษดิ์	-0.2901635
-4.285636	สละ	-0.2901635
-4.285636	สลักสำคัญ	-0.2901635
-4.109545	สลับ	-0.4662548
-4.285636	สลัม	-0.2901635
-4.285636	สลาย	-0.2901635
-4.285636	สวน	-0.2901635
-4.285636	สวนทาง	-0.2901635
-4.285636	สวย	-0.2901635
-4.285636	สวยงาม	-0.2901635
-4.285636	สวรรค์	-0.2901635
-4.285636	สวัสดิการ	-0.2901635
-4.285636	สวัสดิภาพ	-0.2901635
-4.285636	สวัสดิ์	-0.2901635
-4.285636	สวีเดน	-0.2901635
-4.285636	สว่าง	-0.2901635
-4.285636	สหกรณ์	-0.2901635
-4.285636	สหประชาชาติ	-0.2901635
-4.285636	สหพันธ์	-0.2901635
-4.285636	สหภาพ	-0.2901635
-4.285636	สหภาพโซเวียต	-0.2901635
-4.285636	สหรัฐ	-0.2901635
-4.285636	สหรัฐอเมริกา	-0.2901635
-4.285636	สหวิทยาลัย	-0.2901635
-4.285636	สหอาชีวะ	-0.2901635
-4.285636	สอง	-0.2901635
-4.285636	สอดคล้อง	-0.2901635
-4.285636	สอดส่อง	-0.2901635
-4.285636	สอดแทรก	-0.2901635
-4.285636	สอน	-0.2901635
-4.285636	สอบ	-0.2901635
-4.285636	สอบถาม	-0.2901635
-4.285636	สอบสวน	-0.2901635
-4.285636	สอบไล่	-0.2901635
-4.285636	สะกด	-0.2901635
-4.285636	สะดวก	-0.2901635
-4.285636	สะดุด	-0.2901635
-4.285636	สะท้อน	-0.2901635
-4.285636	สะบั้น	-0.2901635
-4.285636	สะสม	-0.2901635
-4.285636	สะสาง	-0.2901635
-4.285636	สะอาด	-0.2901635
-4.285636	สะเทือน	-0.2901635
-4.285636	สัก	-0.2901635
-4.285636	สังกัด	-0.2901635
-4.285636	สังคม	-0.2901635
-4.285636	สังคมนิยม	-0.2901635
-4.285636	สังคมวิทยา	-0.2901635
-4.285636	สังคมศาสตร์	-0.2901635
-4.285636	สังฆาธิการ	-0.2901635
-4.285636	สังสรรค์	-0.2901635
-4.285636	สังหาร	-0.2901635
-4.285636	สังเกต	-0.2901635
-4.285636	สังเกตการณ์	-0.2901635
-4.285636	สังเขป	-0.2901635
-4.285636	สังเคราะห์	-0.2901635
-4.285636	สัจจะ	-0.2901635
-4.285636	สัจธรรม	-0.2901635
-4.285636	สัญจร	-0.2901635
-4.285636	สัญชาตญาณ	-0.2901635
-4.285636	สัญญา	-0.2901635
-4.285636	สัญลักษณ์	-0.2901635
-4.285636	สัณฐาน	-0.2901635
-4.285636	สัดส่วน	-0.2901635
-4.285636	สัตย์	-0.2901635
-4.285636	สัตว์	-0.2901635
-4.285636	สัตว์น้ำ	-0.2901635
-4.285636	สัตว์ป่า	-0.2901635
-4.285636	สันดาน	-0.2901635
-4.285636	สันติ	-0.2901635
-4.285636	สันติภาพ	-0.2901635
-4.285636	สันนิษฐาน	-0.2901635
-4.285636	สันสกฤต	-0.2901635
-4.285636	สันโดษ	-0.2901635
-4.285636	สับสน	-0.2901635
-4.285636	สัปดาห์	-0.2901635
-4.285636	สัมปทาน	-0.2901635
-4.285636	สัมผัส	-0.2901635
-4.285636	สัมพันธภาพ	-0.2901635
-4.285636	สัมพันธมิตร	-0.2901635
-4.285636	สัมพันธ์	-0.2901635
-4.285636	สัมภาษณ์	-0.2901635
-4.285636	สัมมนา	-0.2901635
-4.285636	สัมมา	-0.2901635
-4.285636	สัมฤทธิผล	-0.2901635
-4.285636	สัมฤทธิ์	-0.2901635
-4.285636	สัมโพธิญาณ	-0.2901635
-4.285636	สั่ง	-0.2901635
-4.285636	สั่งสม	-0.2901635
-4.285636	สั่งสอน	-0.2901635
-4.285636	สั่น	-0.2901635
-4.285636	สั้น	-0.2901635
-4.285636	สาก	-0.2901635
-4.285636	สากล	-0.2901635
-4.285636	สาขา	-0.2901635
-4.285636	สาด	-0.2901635
-4.285636	สาธารณชน	-0.2901635
-4.285636	สาธารณประโยชน์	-0.2901635
-4.285636	สาธารณรัฐ	-0.2901635
-4.285636	สาธารณสุข	-0.2901635
-4.285636	สาธารณะ	-0.2901635
-4.285636	สาธารณูปโภค	-0.2901635
-4.285636	สาม	-0.2901635
-4.285636	สามนต์	-0.2901635
-4.285636	สามัคคี	-0.2901635
-4.285636	สามัญ	-0.2901635
-4.285636	สามัญชน	-0.2901635
-4.285636	สามารถ	-0.2901635
-4.285636	สามี	-0.2901635
-4.285636	สามเณร	-0.2901635
-4.285636	สาย	-0.2901635
-4.285636	สายตา	-0.2901635
-4.285636	สายลม	-0.2901635
-4.285636	สาร	-0.2901635
-4.285636	สารคดี	-0.2901635
-4.285636	สารพิษ	-0.2901635
-4.285636	สารวัตร	-0.2901635
-4.285636	สารสนเทศ	-0.2901635
-4.285636	สาระ	-0.2901635
-4.285636	สารเคมี	-0.2901635
-4.285636	สาว	-0.2901635
-4.285636	สาวก	-0.2901635
-4.285636	สาหัส	-0.2901635
-4.285636	สาเหตุ	-0.2901635
-4.285636	สำคัญ	-0.2901635
-4.285636	สำนวน	-0.2901635
-4.285636	สำนัก	-0.2901635
-4.285636	สำนักงาน	-0.2901635
-4.285636	สำนักพิมพ์	-0.2901635
-4.285636	สำนึก	-0.2901635
-4.285636	สำรวจ	-0.2901635
-4.285636	สำราญ	-0.2901635
-4.285636	สำริด	-0.2901635
-4.285636	สำหรับ	-0.2901635
-4.285636	สำเริง	-0.2901635
-4.285636	สำเร็จ	-0.2901635
-4.285636	สำเร็จรูป	-0.2901635
-4.285636	สำแดง	-0.2901635
-4.285636	สิ	-0.2901635
-4.285636	สิงหาคม	-0.2901635
-4.285636	สิงห์	-0.2901635
-4.109545	สิทธิ	-0.4662548
-4.285636	สิทธิ์	-0.2901635
-4.285636	สิทธิ์ขาด	-0.2901635
-4.285636	สินค้า	-0.2901635
-4.285636	สินทรัพย์	-0.2901635
-4.285636	สินเชื่อ	-0.2901635
-4.285636	สิบ	-0.2901635
-4.285636	สิริกิติ์	-0.2901635
-4.285636	สิริสัมพันธ์	-0.2901635
-4.285636	สิ่ง	-0.2901635
-4.285636	สิ่งของ	-0.2901635
-4.285636	สิ่งทอ	-0.2901635
-4.285636	สิ่งมีชีวิต	-0.2901635
-4.285636	สิ่งแวดล้อม	-0.2901635
-4.285636	สิ่งใด	-0.2901635
-4.285636	สิ้น	-0.2901635
-4.285636	สิ้นสุด	-0.2901635
-4.285636	สิ้นหวัง	-0.2901635
-4.285636	สิ้นเชิง	-0.2901635
-4.285636	สิ้นเนื้อประดาตัว	-0.2901635
-4.285636	สิ้นเปลือง	-0.2901635
-4.285636	สิ้นใจ	-0.2901635
-4.285636	สี	-0.2901635
-4.285636	สี่	-0.2901635
-4.285636	สี่เหลี่ยม	-0.2901635
-4.285636	สึก	-0.2901635
-4.285636	สืบ	-0.2901635
-4.285636	สืบต่อ	-0.2901635
-4.285636	สืบทอด	-0.2901635
-4.285636	สืบพันธุ์	-0.2901635
-4.285636	สืบสวน	-0.2901635
-4.285636	สืบเนื่อง	-0.2901635
-4.285636	สื่อ	-0.2901635
-4.285636	สื่อกลาง	-0.2901635
-4.285636	สื่อมวลชน	-0.2901635
-4.285636	สื่อสาร	-0.2901635
-4.285636	สุกเอาเผากิน	-0.2901635
-4.285636	สุข	-0.2901635
-4.285636	สุขภาพ	-0.2901635
-4.285636	สุขภาพจิต	-0.2901635
-4.285636	สุขศึกษา	-0.2901635
-4.285636	สุขสบาย	-0.2901635
-4.285636	สุขเวทนา	-0.2901635
-4.285636	สุขใจ	-0.2901635
-4.285636	สุคนธ์	-0.2901635
-4.285636	สุจริต	-0.2901635
-4.285636	สุจินดา	-0.2901635
-4.285636	สุด	-0.2901635
-4.285636	สุดขีด	-0.2901635
-4.285636	สุดท้อง	-0.2901635
-4.285636	สุดท้าย	-0.2901635
-4.285636	สุดยอด	-0.2901635
-4.285636	สุดวิสัย	-0.2901635
-4.285636	สุธี	-0.2901635
-4.285636	สุนทร	-0.2901635
-4.285636	สุนทรภู่	-0.2901635
-4.285636	สุนทราภรณ์	-0.2901635
-4.285636	สุนทรียภาพ	-0.2901635
-4.285636	สุนทรเวช	-0.2901635
-4.285636	สุนัข	-0.2901635
-4.285636	สุนีย์	-0.2901635
-4.285636	สุพรรณ	-0.2901635
-4.285636	สุภาพ	-0.2901635
-4.285636	สุรา	-0.2901635
-4.285636	สุเทพ	-0.2901635
-4.285636	สุโขทัย	-0.2901635
-4.285636	สุ่ม	-0.2901635
-4.285636	สูง	-0.2901635
-4.285636	สูงสุด	-0.2901635
-4.285636	สูงส่ง	-0.2901635
-4.285636	สูงอายุ	-0.2901635
-4.285636	สูญ	-0.2901635
-4.285636	สูญพันธุ์	-0.2901635
-4.285636	สูญหาย	-0.2901635
-4.285636	สูญเปล่า	-0.2901635
-4.285636	สูญเสีย	-0.2901635
-4.285636	สูบ	-0.2901635
-4.285636	สู่	-0.2901635
-4.285636	สู้	-0.2901635
-4.285636	สเมอร์ดิยาคอฟ	-0.2901635
-4.285636	สโมสร	-0.2901635
-4.285636	ส่ง	-0.2901635
-4.285636	ส่งออก	-0.2901635
-4.285636	ส่งเสริม	-0.2901635
-4.285636	ส่งเสีย	-0.2901635
-4.285636	ส่วน	-0.2901635
-4.285636	ส่วนกลาง	-0.2901635
-4.285636	ส่วนช่วย	-0.2901635
-4.285636	ส่วนตัว	-0.2901635
-4.285636	ส่วนน้อย	-0.2901635
-4.285636	ส่วนประกอบ	-0.2901635
-4.285636	ส่วนมาก	-0.2901635
-4.285636	ส่วนย่อย	-0.2901635
-4.285636	ส่วนรวม	-0.2901635
-4.285636	ส่วนร่วม	-0.2901635
-4.285636	ส่วนหนึ่ง	-0.2901635
-4.285636	ส่วนเสีย	-0.2901635
-4.285636	ส่วนใหญ่	-0.2901635
-4.285636	ส่วนได้	-0.2901635
-4.285636	ส่วย	-0.2901635
-4.285636	ส่อ	-0.2901635
-4.285636	ส่อง	-0.2901635
-4.285636	หก	-0.2986839
-4.285636	หงุดหงิด	-0.3001629
-4.285636	หญิง	-0.2962453
-4.285636	หดหาย	-0.2986839
-4.285636	หน	-0.2986839
-4.285636	หนทาง	-0.2986839
-4.285636	หนอง	-0.2931406
-4.285636	หนัก	-0.2931406
-4.285636	หนักหน่วง	-0.2931406
-4.285636	หนักใจ	-0.2931406
-4.285636	หนัง	-0.2931406
-4.285636	หนังสือ	-0.2931406
-4.285636	หนังสือพิมพ์	-0.2931406
-4.285636	หนาม	-0.2931406
-4.285636	หนาว	-0.2931406
-4.285636	หนาแน่น	-0.2931406
-4.285636	หนี	-0.2931406
-4.285636	หนี้	-0.2931406
-4.285636	หนึ่ง	-0.2931406
-4.285636	หนุน	-0.2931406
-4.285636	หนุ่ม	-0.2931406
-4.285636	หนู	-0.2931406
-4.285636	หน่วย	-0.2931406
-4.285636	หน่วยงาน	-0.2931406
-4.285636	หน่อย	-0.2931406
-4.285636	หน้า	-0.2931406
-4.285636	หน้าตา	-0.2931406
-4.285636	หน้าที่	-0.2931406
-4.285636	หน้ามืด	-0.2931406
-4.285636	หน้าไหว้หลังหลอก	-0.2931406
-4.285636	หมด	-0.2959154
-4.285636	หมวด	-0.2959154
-4.285636	หมอ	-0.2959154
-4.285636	หมอนวด	-0.2959154
-4.285636	หมัก	-0.2959154
-4.285636	หมัน	-0.2959154
-4.285636	หมา	-0.2959154
-4.285636	หมาด	-0.2959154
-4.285636	หมาย	-0.2959154
-4.285636	หมายความ	-0.2959154
-4.285636	หมายจับ	-0.2959154
-4.285636	หมายถึง	-0.2959154
-4.285636	หมายเลข	-0.2959154
-4.285636	หมื่น	-0.2959154
-4.285636	หมุน	-0.2959154
-4.285636	หมุนเวียน	-0.2959154
-4.285636	หมู	-0.2959154
-4.285636	หมู่	-0.2959154
-4.285636	หมู่บ้าน	-0.2959154
-4.285636	หมู่เกาะ	-0.2959154
-4.285636	หม่อมราชวงศ์	-0.2959154
-4.285636	หม้อ	-0.2959154
-4.285636	หยั่งเสียง	-0.2962453
-4.285636	หยิบ	-0.2962453
-4.285636	หยิบยก	-0.2962453
-4.285636	หยิ่ง	-0.2962453
-4.285636	หยุด	-0.2962453
-4.285636	หยุดนิ่ง	-0.2962453
-4.285636	หยุดยั้ง	-0.2962453
-4.285636	หย่อน	-0.2962453
-4.285636	หย่อนยาน	-0.2962453
-4.285636	หย่อนใจ	-0.2962453
-4.285636	หย่า	-0.2962453
-4.285636	หย่าร้าง	-0.2962453
-4.285636	หรอก	-0.2940103
-4.285636	หรือ	-0.2940103
-4.285636	หรือยัง	-0.2940103
-4.285636	หรือเปล่า	-0.2940103
-4.285636	หรูหรา	-0.2940103
-4.285636	หลง	-0.2956649
-4.285636	หลงเหลือ	-0.2956649
-4.285636	หลบ	-0.2956649
-4.285636	หลบหนี	-0.2956649
-4.285636	หลบหลีก	-0.2956649
-4.285636	หลวง	-0.2956649
-4.285636	หลวม	-0.2956649
-4.285636	หลอก	-0.2956649
-4.285636	หลอกลวง	-0.2956649
-4.285636	หลอม	-0.2956649
-4.285636	หลัก	-0.2956649
-4.285636	หลักการ	-0.2956649
-4.285636	หลักฐาน	-0.2956649
-4.285636	หลักทรัพย์	-0.2956649
-4.285636	หลักธรรม	-0.2956649
-4.285636	หลักสูตร	-0.2956649
-4.285636	หลักเกณฑ์	-0.2956649
-4.285636	หลัง	-0.2956649
-4.285636	หลังจาก	-0.2956649
-4.285636	หลับ	-0.2956649
-4.285636	หลับนอน	-0.2956649
-4.285636	หลั่งไหล	-0.2956649
-4.285636	หลากหลาย	-0.2956649
-4.285636	หลาน	-0.2956649
-4.285636	หลาย	-0.2956649
-4.285636	หลีก	-0.2956649
-4.285636	หลีกภัย	-0.2956649
-4.285636	หลีกหนี	-0.2956649
-4.285636	หลีกเลี่ยง	-0.2956649
-4.285636	หลุด	-0.2956649
-4.285636	หลุดพ้น	-0.2956649
-4.285636	หล่อ	-0.2956649
-4.285636	หวง	-0.2986839
-4.285636	หวงแหน	-0.2986839
-4.285636	หวน	-0.2986839
-4.285636	หวัง	-0.2970521
-4.285636	หวั่นกลัว	-0.2970521
-4.285636	หวั่นไหว	-0.2970521
-4.285636	หวาดกลัว	-0.2970521
-4.285636	หวาดระแวง	-0.2970521
-4.285636	หวาน	-0.2970521
-4.285636	หอ	-0.2986839
-4.285636	หอการค้า	-0.2986839
-4.285636	หอม	-0.2986839
-4.285636	หักล้าง	-0.2986839
-4.285636	หัตถกรรม	-0.2986839
-4.285636	หัน	-0.2986839
-4.285636	หันเห	-0.2986839
-4.285636	หัว	-0.2986839
-4.285636	หัวข้อ	-0.2986839
-4.285636	หัวคะแนน	-0.2986839
-4.285636	หัวปี	-0.2986839
-4.285636	หัวรบ	-0.2986839
-4.285636	หัวรุนแรง	-0.2986839
-4.285636	หัวหน้า	-0.2986839
-4.285636	หัวเมือง	-0.2986839
-4.285636	หัวเราะ	-0.2986839
-4.285636	หัวเลี้ยวหัวต่อ	-0.2986839
-4.285636	หัวใจ	-0.2986839
-4.285636	หา	-0.2986839
-4.285636	หาก	-0.2986839
-4.285636	หากแต่	-0.2986839
-4.285636	หาดใหญ่	-0.2986839
-4.285636	หาทาง	-0.2986839
-4.285636	หาย	-0.2986839
-4.285636	หายนะ	-0.2986839
-4.285636	หายใจ	-0.2986839
-4.285636	หารือ	-0.2986839
-4.285636	หาว่า	-0.2986839
-4.285636	หาเสียง	-0.2986839
-4.285636	หาไม่	-0.2986839
-4.285636	หิน	-0.2986839
-4.285636	หิว	-0.2986839
-4.285636	หิวโหย	-0.2986839
-4.285636	หึ	-0.2986839
-4.285636	หุ้น	-0.2986839
-4.285636	หุ้ม	-0.2986839
-4.285636	หู	-0.2986839
-4.285636	หูตึง	-0.2986839
-4.285636	ห่วงใย	-0.2986839
-4.285636	ห่าง	-0.2986839
-4.285636	ห่างเหิน	-0.2986839
-4.285636	ห่างไกล	-0.2986839
-4.285636	ห้วยขาแข้ง	-0.2986839
-4.285636	ห้อง	-0.2986839
-4.285636	ห้องนอน	-0.2986839
-4.285636	ห้องน้ำ	-0.2986839
-4.285636	ห้องสมุด	-0.2986839
-4.285636	ห้องเรียน	-0.2986839
-4.285636	ห้า	-0.2986839
-4.285636	ห้าม	-0.2986839
-4.285636	อคติ	-0.2972451
-4.285636	องคภาวะ	-0.2972451
-4.285636	องค์	-0.2972451
-4.285636	องค์กร	-0.2972451
-4.285636	องค์การ	-0.2972451
-4.285636	องค์ประกอบ	-0.2972451
-4.285636	อด	-0.2972451
-4.285636	อดกลั้น	-0.2972451
-4.285636	อดทน	-0.2972451
-4.285636	อดอยาก	-0.2972451
-4.285636	อดิเรกสาร	-0.2972451
-4.285636	อดีต	-0.2972451
-4.285636	อธิการบดี	-0.2972451
-4.285636	อธิบดี	-0.2972451
-4.285636	อธิบาย	-0.2972451
-4.285636	อธิปัตย์	-0.2972451
-4.285636	อธิปไตย	-0.2972451
-4.285636	อธิษฐาน	-0.2972451
-4.285636	อนัตตา	-0.2972451
-4.285636	อนาคต	-0.2972451
-4.285636	อนามัย	-0.2972451
-4.285636	อนิจจัง	-0.2972451
-4.285636	อนึ่ง	-0.2972451
-4.285636	อนุญาต	-0.2972451
-4.285636	อนุบาล	-0.2972451
-4.285636	อนุพากย์	-0.2972451
-4.285636	อนุมัติ	-0.2972451
-4.109545	อนุมาน	-0.4733364
-4.285636	อนุมานราชธน	-0.2972451
-4.285636	อนุรักษ์	-0.2972451
-4.285636	อนุสรณ์	-0.2972451
-4.285636	อนุโลม	-0.2972451
-4.285636	อบรม	-0.2972451
-4.285636	อบอุ่น	-0.2972451
-4.285636	อพยพ	-0.2972451
-4.285636	อภัย	-0.2972451
-4.285636	อภัยทาน	-0.2972451
-4.285636	อภัยธรรม	-0.2972451
-4.285636	อภัยวงศ์	-0.2972451
-4.285636	อภิปราย	-0.2972451
-4.285636	อม	-0.2972451
-4.285636	อมรวิวัฒน์	-0.2972451
-4.285636	อมเรศ	-0.2972451
-4.285636	อยาก	-0.2962453
-4.285636	อยุติธรรม	-0.2972451
-4.285636	อยู่	-0.2962453
-4.285636	อยู่ดี	-0.2962453
-4.285636	อยู่ตัว	-0.2962453
-4.285636	อยู่บำรุง	-0.2962453
-4.285636	อยู่รอด	-0.2962453
-4.285636	อย่า	-0.2962453
-4.285636	อย่าง	-0.2962453
-4.285636	อย่างยิ่ง	-0.2962453
-4.285636	อย่างหนึ่ง	-0.2962453
-4.285636	อย่างเช่น	-0.2962453
-4.285636	อย่างเดียว	-0.2962453
-4.285636	อย่างใด	-0.2962453
-4.285636	อย่างไร	-0.2962453
-4.285636	อย่างไรก็ดี	-0.2962453
-4.285636	อย่างไรก็ตาม	-0.2962453
-4.285636	อรหันต์	-0.2972451
-4.285636	อริยบุคคล	-0.2972451
-4.285636	อริยสัจ	-0.2972451
-4.285636	อวัยวะ	-0.2972451
-4.285636	ออก	-0.2972451
-4.285636	ออกกำลัง	-0.2972451
-4.285636	ออกกำลังกาย	-0.2972451
-4.285636	ออกแบบ	-0.2972451
-4.285636	ออฟโฟร์	-0.2972451
-4.285636	ออม	-0.2972451
-4.285636	ออมชอม	-0.2972451
-4.285636	อะตอม	-0.2972451
-4.285636	อะไร	-0.2972451
-4.285636	อักษร	-0.2972451
-4.285636	อักษรศาสตร์	-0.2972451
-4.285636	อักษะ	-0.2972451
-4.285636	อักเสบ	-0.2972451
-4.285636	อังกฤษ	-0.2972451
-4.285636	อังคาร	-0.2972451
-4.285636	อัจฉริยภาพ	-0.2972451
-4.285636	อัจฉริยะ	-0.2972451
-4.285636	อัญชัน	-0.2972451
-4.285636	อัญมณี	-0.2972451
-4.285636	อัด	-0.2972451
-4.285636	อัตตาธิปไตย	-0.2972451
-4.285636	อัตภาพ	-0.2972451
-4.285636	อัตรา	-0.2972451
-4.285636	อัตราส่วน	-0.2972451
-4.285636	อัตลักษณ์	-0.2972451
-4.285636	อัตโนมัติ	-0.2972451
-4.285636	อัน	-0.2972451
-4.285636	อันดับ	-0.2972451
-4.285636	อันตราย	-0.2972451
-4.285636	อันที่จริง	-0.2972451
-4.285636	อันหนึ่ง	-0.2972451
-4.285636	อันหนึ่งอันเดียวกัน	-0.2972451
-4.285636	อันเดียว	-0.2972451
-4.285636	อันเดียวกัน	-0.2972451
-4.285636	อันเนื่องมาจาก	-0.2972451
-4.285636	อับอาย	-0.2972451
-4.285636	อัปมงคล	-0.2972451
-4.285636	อัปยศ	-0.2972451
-4.285636	อัลคาโปน	-0.2972451
-4.285636	อัศจรรย์	-0.2972451
-4.285636	อา	-0.2972451
-4.285636	อากร	-0.2972451
-4.285636	อาการ	-0.2972451
-4.285636	อาการนาม	-0.2972451
-4.285636	อากาศ	-0.2972451
-4.285636	อาคาร	-0.2972451
-4.285636	อาคเนย์	-0.2972451
-4.285636	อาจ	-0.2972451
-4.285636	อาจารย์	-0.2972451
-4.285636	อาชญากร	-0.2972451
-4.109545	อาชญากรรม	-0.4733364
-4.285636	อาชีพ	-0.2972451
-4.285636	อาณัติ	-0.2972451
-4.285636	อาณาจักร	-0.2972451
-4.285636	อาณานิคม	-0.2972451
-4.285636	อาณาเขต	-0.2972451
-4.285636	อาตมา	-0.2972451
-4.285636	อาทร	-0.2972451
-4.285636	อาทิ	-0.2972451
-4.285636	อาทิตย์	-0.2972451
-4.285636	อานันท์	-0.2972451
-4.285636	อาบน้ำ	-0.2972451
-4.285636	อามิสทาน	-0.2972451
-4.285636	อาย	-0.2972451
-4.285636	อายตนะ	-0.2972451
-4.285636	อายัด	-0.2972451
-4.285636	อายุ	-0.2972451
-4.285636	อายุขัย	-0.2972451
-4.285636	อารมณ์	-0.2972451
-4.285636	อารยชน	-0.2972451
-4.285636	อารยธรรม	-0.2972451
-4.285636	อาร์ตติสท์	-0.2972451
-4.285636	อาวุธ	-0.2972451
-4.285636	อาวุโส	-0.2972451
-4.285636	อาศัย	-0.2972451
-4.285636	อาสา	-0.2972451
-4.285636	อาสาสมัคร	-0.2972451
-4.285636	อาหว่า	-0.2972451
-4.285636	อาหาร	-0.2972451
-4.285636	อาเซียน	-0.2972451
-4.285636	อำนวย	-0.2972451
-4.285636	อำนวยการ	-0.2972451
-4.285636	อำนาจ	-0.2972451
-4.285636	อำเภอ	-0.2972451
-4.285636	อิจฉา	-0.2972451
-4.285636	อิตาเลียน	-0.2972451
-4.285636	อิทธิพล	-0.2972451
-4.285636	อินเดีย	-0.2972451
-4.285636	อินโดจีน	-0.2972451
-4.285636	อินโดนีเซีย	-0.2972451
-4.285636	อิรัก	-0.2972451
-4.285636	อิลิช	-0.2972451
-4.285636	อิสระ	-0.2972451
-4.285636	อิสลาม	-0.2972451
-4.285636	อิเล็กทรอนิกส์	-0.2972451
-4.285636	อิ่ม	-0.2972451
-4.285636	อีก	-0.2972451
-4.285636	อีรี่	-0.2972451
-4.285636	อีวาน	-0.2972451
-4.285636	อีสาน	-0.2972451
-4.285636	อึดอัด	-0.2972451
-4.285636	อื่น	-0.2972451
-4.285636	อื้อฉาว	-0.2972451
-4.285636	อุณหภูมิ	-0.2972451
-4.285636	อุดตัน	-0.2972451
-4.285636	อุดม	-0.2972451
-4.285636	อุดมการณ์	-0.2972451
-3.984606	อุดมศึกษา	-0.5982751
-4.285636	อุดมสมบูรณ์	-0.2972451
-4.285636	อุดร	-0.2972451
-4.285636	อุดรธานี	-0.2972451
-4.285636	อุตสาหกรรม	-0.2972451
-4.285636	อุตสาหะ	-0.2972451
-4.285636	อุทยาน	-0.2972451
-4.285636	อุทัย	-0.2972451
-4.285636	อุทาหรณ์	-0.2972451
-4.285636	อุทิศ	-0.2972451
-4.285636	อุบัติเหตุ	-0.2972451
-4.285636	อุปกรณ์	-0.2972451
-4.285636	อุปนิสัย	-0.2972451
-4.285636	อุปสรรค	-0.2972451
-4.285636	อุปโภค	-0.2972451
-4.285636	อเนกชน	-0.2972451
-4.285636	อเมริกัน	-0.2972451
-4.285636	อเมริกา	-0.2972451
-4.285636	อเล็กซานเดรีย	-0.2972451
-4.285636	อโลชา	-0.2972451
-4.285636	อโศก	-0.2972451
-4.285636	อ่อน	-0.2972451
-4.285636	อ่อนหวาน	-0.2972451
-4.285636	อ่อนแอ	-0.2972451
-4.285636	อ่อนโยน	-0.2972451
-4.285636	อ่าง	-0.2972451
-4.285636	อ่าน	-0.2972451
-4.285636	อ่าว	-0.2972451
-4.285636	อ้วน	-0.2972451
-4.285636	อ้อม	-0.2972451
-4.285636	อ้าง	-0.2972451
-4.285636	อ้างอิง	-0.2972451
-4.285636	อ้าย	-0.2972451
-4.285636	ฮอร์โมน	-0.2986839
-4.285636	ฮินดู	-0.2986839
-4.285636	ฮุสเซ็น	-0.2986839
-4.285636	ฯพณฯ	-0.2944446
-4.285636	เกณฑ์	-0.2952547
-4.285636	เกรง	-0.3001855
-4.285636	เกรงขาม	-0.3001855
-4.285636	เกรงอกเกรงใจ	-0.3001855
-4.285636	เกรงใจ	-0.3001855
-4.285636	เกริกเกียรติ	-0.3001855
-4.285636	เกรียวกราว	-0.3001855
-4.285636	เกลียด	-0.3003883
-4.285636	เกลียดชัง	-0.3003883
-4.285636	เกลื่อนกลาด	-0.3003883
-4.285636	เกษตร	-0.2952547
-4.285636	เกษตรกร	-0.2952547
-4.285636	เกษตรกรรม	-0.2952547
-4.285636	เกษียณ	-0.2952547
-4.285636	เกาหลีเหนือ	-0.2952547
-4.285636	เกาหลีใต้	-0.2952547
-4.285636	เกาะ	-0.2952547
-4.285636	เกิด	-0.2952547
-4.285636	เกิน	-0.2952547
-4.285636	เกียรติ	-0.2952547
-4.285636	เกียรติภูมิ	-0.2952547
-4.285636	เกียรติยศ	-0.2952547
-4.285636	เกี่ยว	-0.2952547
-4.285636	เกี่ยวกับ	-0.2952547
-4.109545	เกี่ยวข้อง	-0.471346
-4.285636	เกี่ยวพัน	-0.2952547
-4.285636	เกี่ยวเนื่อง	-0.2952547
-4.285636	เกี่ยวโยง	-0.2952547
-4.285636	เกือบ	-0.2952547
-4.285636	เกือบจะ	-0.2952547
-4.285636	เกื้อกูล	-0.2952547
