
\data\
ngram 1=1408
ngram 2=5892
ngram 3=8359

\1-grams:
-0.8041378	</s>
-99	<s>	-1.147491
-3.085241	กด	-0.9528346
-4.199184	กรอบ	-0.6986624
-3.784211	กระ	-1.113872
-3.149966	กระจาย	-0.7578954
-4.120003	กระถาง	-0.7775688
-3.483181	กระทะ	-0.8926483
-4.296095	กระสุน	-0.5278946
-3.597125	กระเทียม	-0.6830138
-3.694035	กระเป๋า	-1.129955
-3.784211	กระแส	-1.11385
-3.517943	กระโดด	-1.375663
-4.120003	กรุงศรี	-0.7765891
-3.619401	กรุงเทพ	-0.7662373
-4.120003	กรุงไทย	-0.7751595
-4.296095	กล	-0.602038
-4.296095	กลม	-0.5278946
-3.254702	กลับ	-0.9050708
-3.597125	กลาง	-0.7888569
-4.199184	กลางวัน	-0.6972535
-4.120003	กล่องขายของ	-0.7039858
-3.784211	กล้วย	-0.844004
-3.943912	กล้าม	-0.9541491
-2.876965	กว่า	-1.078007
-3.856762	กสิกร	-0.7764183
-3.017341	กะเพรา	-1.20104
-4.053056	กัญชา	-0.7709326
-2.667706	กัน	-1.172356
-2.628642	กับ	-0.9533343
-4.120003	กับข้าว	-0.7778876
-3.379641	กางเกง	-1.066084
-3.943912	กางเกงยีน	-0.8800771
-3.065645	การ	-0.9648854
-3.207958	การบ้าน	-1.099626
-3.483181	การเชื่อมต่อ	-1.406966
-4.120003	การ์ด	-0.7039858
-3.199185	กาแฟ	-0.7946242
-4.053056	กำกับ	-0.8436516
-3.354086	กำลัง	-0.9760512
-4.296095	กิจกรรม	-0.6005695
-2.243978	กิน	-1.031615
-3.784211	กินข้าว	-0.6947657
-4.120003	กิโลแคลอรี่	-0.7039858
-4.296095	กิ๊ก	-0.5940526
-4.120003	กีฬา	-0.7748442
-2.068208	กี่	-1.415769
-3.483181	กี่คน	-1.340808
-3.274905	กี่โมง	-1.256811
-4.296095	กุมภา	-0.5904075
-2.70503	กุ้ง	-0.9393203
-4.120003	กุ้งสับ	-0.7749549
-3.575935	กู้	-1.320938
-3.597125	ก็	-1.297723
-4.199184	ก็อท	-0.6989425
-3.406793	ก็ได้	-0.9632753
-3.30709	ก่อน	-0.8465409
-4.120003	ก่อนหน้า	-0.7039858
-3.264686	ก๋วยเตี๋ยว	-0.8324178
-3.466791	ขนม	-0.9780014
-3.694035	ขนมหวาน	-1.194605
-3.642882	ขนาด	-0.8235077
-4.120003	ขยะ	-0.7744235
-4.199184	ขยาย	-0.6988327
-3.667706	ขวด	-0.7214792
-3.898154	ขวัญ	-0.7348369
-2.815369	ขวา	-1.016815
-3.856762	ขวาน	-0.9672273
-2.04935	ขอ	-1.008518
-2.267727	ของ	-0.9141836
-4.120003	ของขวัญ	-0.7748442
-4.120003	ของหวาน	-0.7764348
-4.199184	ขอบ	-0.6989096
-4.120003	ขอบคุณ	-0.7779151
-4.120003	ขอโทษ	-0.776545
-3.500215	ขั้น	-0.760812
-3.575935	ขั้นตอน	-1.321631
-3.667706	ขา	-0.9536602
-2.764616	ขาย	-0.843412
-4.120003	ขาว	-0.7039858
-4.053056	ขี้เกียจ	-0.8449937
-3.274905	ขึ้น	-0.8827556
-4.296095	ขึ้วา	-0.5278946
-3.694035	ขุด	-1.204005
-3.165761	ขโมย	-1.267023
-3.784211	ข่ายงาน	-1.113839
-4.120003	ข่าว	-0.7778052
-4.053056	ข้อ	-0.7709326
-3.642882	ข้อมูล	-0.8174142
-4.053056	ข้อสอบ	-0.8437728
-2.939113	ข้าง	-1.137087
-4.199184	ข้าพเจ้า	-0.6873175
-3.597125	ข้าม	-0.7857026
-2.764616	ข้าว	-1.111697
-3.483181	ข้าวกะเพรา	-0.9684415
-3.235397	ข้าวผัด	-0.8499323
-4.053056	ข้าวมัน	-0.8444387
-3.856762	ข้าวมันไก่	-0.7736864
-2.429807	ข้าวหลามตัด	-1.791842
-4.120003	ข้าวเปล่า	-0.7735088
-4.120003	ข้าวเปล่่า	-0.7761756
-3.694035	ข้าวเหนียว	-0.854184
-4.053056	ข้าวโพด	-0.8450596
-3.856762	ข้าวไข่ดาว	-0.7780305
-3.07208	คณะ	-1.242423
-2.35038	คน	-1.066399
-3.898154	คนป่วย	-0.9258345
-3.856762	คนแก่	-0.9672273
-3.856762	คนไม่สบาย	-0.9672273
-4.120003	ครับ	-0.7039858
-3.450996	ครั้ง	-0.7290015
-4.296095	คราว	-0.5925454
-3.149966	คริส	-0.9911441
-4.053056	ครีมเมอรี่	-0.8334455
-2.75514	ครึ่ง	-1.177955
-4.053056	คลุก	-0.8450596
-3.722063	คล้าย	-0.9011308
-3.354086	ควร	-1.087779
-4.296095	ควัน	-0.5278946
-3.105763	ความ	-1.046736
-3.112825	ความคิดเห็น	-1.301857
-3.943912	ความยาว	-0.6971653
-3.190584	ความรู้สึก	-1.234621
-3.483181	ความสัมพันธ์	-1.40815
-3.059305	ความเร็ว	-1.29902
-3.856762	ความแรง	-1.040607
-2.804733	ควีน	-1.020415
-4.120003	คอ	-0.7777392
-3.619401	คอมพิวเตอร์	-0.9857395
-4.296095	คะ	-0.602038
-3.898154	คะน้า	-0.7353038
-3.046896	คะแนน	-1.096374
-4.120003	คัตสึด้ง	-0.7774588
-4.120003	คัทสึด้ง	-0.7039858
-3.752027	คั่ว	-0.7258277
-4.199184	คั้งค่า	-0.6987119
-3.898154	คาปูชิโน่	-0.6651016
-4.120003	คาโบนาร่า	-0.7773048
-3.575935	คำนวณ	-1.321846
-3.667706	คำแนะนำ	-1.228777
-2.898154	คิง	-1.091647
-3.856762	คิด	-0.776837
-4.120003	คิดส์ซาเนีย	-0.7765891
-4.053056	คิล	-0.8450322
-3.818973	คิว	-1.078648
-4.199184	คิวบิด	-0.6982501
-3.856762	คิสึเนะอุด้ง	-0.7759494
-3.285371	คืน	-0.7880136
-2.672845	คือ	-1.157387
-3.274905	คุก	-0.6445258
-4.199184	คุกกี้	-0.6989425
-3.784211	คุณภาพ	-1.113476
-4.053056	คุมสอบ	-0.8445321
-3.30709	คุย	-0.8557892
-2.685967	คู่	-1.051812
-3.784211	ค่อย	-1.11302
-4.120003	ค่ะ	-0.7039858
-3.341852	ค่า	-0.7586332
-3.483181	ค่าย	-1.409119
-4.199184	ค่ำ	-0.6972535
-3.034832	ค้นหา	-1.038656
-4.120003	ค้อน	-0.7039858
-4.053056	ฆ่า	-0.8447025
-4.120003	งง	-0.7778052
-4.053056	งด	-0.8370906
-3.329953	งบ	-0.9888659
-3.483181	งบประมาณ	-1.413637
-2.645301	งาน	-0.865564
-4.296095	งีบ	-0.6020161
-3.818973	ง่วง	-0.7383374
-4.296095	ง่าย	-0.5940526
-3.483181	จง	-0.8557567
-3.235397	จดหมาย	-0.8476783
-3.483181	จน	-1.414396
-3.667706	จบ	-0.9502987
-4.053056	จอ	-0.8355834
-3.341852	จอง	-0.9757757
-3.555732	จอด	-1.342126
-4.120003	จอบ	-0.7039858
-2.833697	จะ	-0.9514648
-3.098814	จัง	-1.259675
-3.500215	จัด	-0.8324348
-4.053056	จัดการ	-0.5273797
-3.264686	จันทร์	-0.6878136
-3.366676	จับ	-1.530737
-4.296095	จััดการ	-0.6016645
-3.856762	จั่ว	-0.7777173
-3.619401	จั้ม	-1.278567
-4.053056	จั้มฟอส	-0.5888028
-3.694035	จั๊ม	-1.203933
-2.406793	จาก	-1.086179
-4.199184	จากนี้	-0.6873175
-2.797784	จาน	-1.549784
-3.264686	จาม	-1.341873
-4.199184	จำ	-0.6987119
-3.694035	จำนวน	-1.202177
-3.784211	จี	-0.5963562
-3.856762	จีน	-0.7671975
-3.07861	จุด	-0.9414552
-3.784211	จุล	-0.8318408
-2.939113	จุฬา	-1.400871
-3.296094	จ่าย	-0.938534
-2.367955	ฉัน	-1.153687
-2.811795	ฉาย	-0.975656
-3.784211	ชวน	-1.11286
-3.784211	ชวาล	-1.039778
-3.134727	ชอบ	-1.105783
-4.053056	ชั่ว	-0.8421063
-2.675438	ชั่วโมง	-1.003024
-2.948765	ชั้น	-1.030198
-4.120003	ชานม	-0.7763796
-3.642882	ชาบู	-0.9695091
-3.285371	ชาม	-1.076042
-3.818973	ชาร์จ	-0.8048723
-3.856762	ชาเขียว	-0.7773489
-4.296095	ชำระ	-0.6007788
-2.876965	ชิ้น	-1.340128
-4.199184	ชีวิต	-0.6986624
-4.120003	ชีส	-0.7740856
-2.963656	ชื่อ	-0.8440042
-3.752027	ชุด	-0.6472945
-3.694035	ช็อกโกแลต	-0.9164616
-3.856762	ช็อคโกแลต	-0.7035101
-3.694035	ช็อต	-1.129955
-3.536427	ช่วง	-1.357596
-3.856762	ช่วงนี้	-0.6901284
-3.536427	ช่วย	-1.07795
-2.3654	ช่อง	-1.480284
-4.120003	ช้อนชา	-0.7039858
-4.120003	ช้อนโต๊ะ	-0.7780908
-3.784211	ช้า	-1.113196
-4.053056	ซอบิงโก	-0.8419681
-4.053056	ซอลบิง	-0.8440756
-3.856762	ซอส	-0.7778217
-3.784211	ซัก	-0.8422279
-4.053056	ซาวด์แทรก	-0.7709326
-4.296095	ซิก	-0.602038
-4.120003	ซินนามอน	-0.7039858
-3.784211	ซี	-0.5201268
-4.053056	ซีท	-0.844004
-3.943912	ซีรีย์	-0.6983821
-4.199184	ซีอิ๊ว	-0.6978209
-2.898154	ซื้อ	-0.8224694
-4.120003	ซุเปอร์มาร์เก็ต	-0.7765891
-2.804733	ซ้าย	-1.02629
-4.199184	ซ้ำ	-0.6984096
-3.856762	ญี่ปุ่น	-0.7671975
-4.053056	ฐานข้อมูล	-0.8440701
-4.120003	ดนตรี	-0.7748442
-4.199184	ดราก้อน	-0.6248046
-4.053056	ดรีม	-0.8450596
-3.856762	ดวง	-0.7727757
-3.575935	ดวล	-1.320343
-2.640476	ดอกจิก	-1.583159
-3.536427	ดับ	-1.0785
-4.120003	ดับเบิ้ล	-0.7780634
-2.911383	ดาว	-1.086369
-4.120003	ดำ	-0.7773654
-4.053056	ดิจิตอล	-0.8450596
-3.575935	ดิน	-0.7563071
-2.547907	ดี	-1.156729
-4.120003	ดีแทค	-0.7740856
-4.053056	ดึก	-0.8355834
-4.053056	ดื่ม	-0.8450047
-2.305978	ดู	-1.039096
-3.406793	ดูด	-1.203889
-4.120003	ดููด	-0.7780908
-2.710634	ด้วย	-1.068206
-3.667706	ด้าน	-0.6970053
-4.120003	ตก	-0.7780854
-4.120003	ตกลง	-0.7039858
-3.341852	ตรง	-1.261207
-4.120003	ตรงไหน	-0.7039858
-4.120003	ตรวจสอบ	-0.7777612
-4.120003	ตรา	-0.7780305
-3.784211	ตลาด	-1.112552
-2.655116	ตอง	-1.109991
-2.446368	ตอน	-0.9881697
-3.216913	ตอนนี้	-0.9201315
-4.199184	ตอนเที่ยง	-0.6248046
-3.619401	ตอนเรียน	-1.269239
-3.667706	ตอบ	-0.953946
-2.915883	ตะกร้า	-1.609795
-3.943912	ตะไคร้	-0.8800771
-4.120003	ตังค์	-0.7773048
-4.120003	ตัด	-0.7781183
-4.120003	ตับ	-0.7039858
-3.341852	ตัว	-1.192967
-3.149966	ตัวอย่าง	-1.743451
-4.120003	ตัวเอง	-0.7039858
-3.053056	ตั้ง	-1.257169
-3.667706	ตั้งค่า	-1.230191
-3.943912	ตั้งแต่	-0.6952534
-3.274905	ตั๋ว	-0.8770684
-3.856762	ตา	-1.039042
-3.500215	ตาม	-1.39761
-3.818973	ตาย	-0.7372081
-3.536427	ตาราง	-0.9183795
-3.943912	ตาล	-0.8800771
-3.784211	ตำ	-1.113773
-3.07208	ติด	-1.241718
-3.667706	ติดตาม	-1.156283
-3.366676	ติดต่อ	-1.066122
-4.053056	ติว	-0.841791
-4.053056	ติวสอบ	-0.844004
-4.199184	ติวโตเรียล	-0.6248046
-3.165761	ตี	-0.7503281
-4.199184	ตีห้า	-0.6989425
-3.406793	ตึก	-1.035427
-4.053056	ตึกร้อยปี	-0.8448344
-2.736787	ตื่น	-1.098404
-3.046896	ตู้	-0.9196077
-3.112825	ตู้เย็น	-0.8677962
-4.120003	ตู้เย็็น	-0.7664987
-2.787565	ต่อ	-1.051735
-3.341852	ต่อไป	-0.9070516
-3.597125	ต่ำ	-0.7895634
-3.943912	ต่ำกว่า	-0.9510462
-3.943912	ต้น	-0.6981291
-3.406793	ต้นไม้	-0.7643768
-3.098814	ต้ม	-0.8175887
-3.07861	ต้มยำ	-1.524154
-3.597125	ต้มยำกุ้งน้ำข้น	-0.7873746
-2.626313	ต้อง	-1.076264
-3.393005	ถอน	-1.20666
-3.898154	ถอย	-0.9994176
-3.575935	ถัด	-1.317671
-3.856762	ถั่ว	-0.6991589
-3.856762	ถั่วงอก	-0.7037187
-4.199184	ถาม	-0.6989425
-3.011664	ถึง	-0.7892796
-3.856762	ถุง	-0.9672273
-3.173879	ถูก	-0.8922626
-4.120003	ถูกต้อง	-0.7777173
-3.285371	ถูกใจ	-1.318181
-4.120003	ถ่ายรูป	-0.7686367
-4.120003	ถ้วยตวง	-0.7780908
-4.199184	ถ้า	-0.6873175
-4.053056	ทน	-0.8450596
-4.053056	ทรานสคริปต์	-0.8355834
-3.856762	ทรี	-0.7025243
-3.483181	ทวง	-1.413692
-4.120003	ทวน	-0.7760984
-4.120003	ทหารไทย	-0.777981
-3.818973	ทอง	-0.737587
-4.053056	ทองดี	-0.8450596
-3.366676	ทอด	-0.7982101
-3.784211	ทอป	-0.6956463
-3.619401	ทอย	-0.9953686
-4.120003	ทะเล	-0.7781183
-4.120003	ทักษิณ	-0.7751595
-4.296095	ทัน	-0.6018568
-4.053056	ทัศนศึกษา	-0.844004
-3.555732	ทั้ง	-0.8991462
-4.199184	ทั้งวัน	-0.6248046
-2.804733	ทั้งหมด	-1.235962
-2.710634	ทาง	-1.346324
-2.215107	ทำ	-1.069817
-3.406793	ทำงาน	-0.75618
-4.199184	ทำนาย	-0.6980356
-3.483181	ทำยังไง	-1.340808
-3.244942	ทำลาย	-1.194664
-3.517943	ทิ้ง	-1.096361
-3.149966	ที	-1.380438
-4.053056	ทีม	-0.8428796
-3.07861	ทีวี	-1.157731
-1.664144	ที่	-1.224227
-4.120003	ที่ดิน	-0.7039858
-3.667706	ที่นั่ง	-0.7231072
-3.722063	ที่นี่	-0.8998605
-4.053056	ที่ปรึกษา	-0.8447959
-4.120003	ที่พัก	-0.7778107
-4.120003	ที่สุด	-0.7039858
-3.856762	ที่แล้ว	-0.7037577
-3.393005	ที่ไหน	-1.133803
-2.889554	ทุก	-1.321527
-4.296095	ทุกวัน	-0.5278946
-4.120003	ทุกวันศุกร์	-0.7039858
-3.694035	ทุกเวลา	-0.7751209
-4.120003	ทุบ	-0.7781183
-3.085241	ทุ่ม	-0.7487432
-4.199184	ทู	-0.6248046
-4.053056	ทูฟาสต์	-0.8450596
-4.053056	ทูสลีบ	-0.8405499
-4.053056	ทูเดย์	-0.844752
-4.296095	ท่า	-0.602038
-4.120003	ท้องเสีย	-0.777959
-3.575935	ท้า	-1.322104
-3.149966	ธนาคาร	-0.8465898
-3.943912	ธรรมดา	-0.8800771
-3.784211	ธุระ	-0.7628266
-3.943912	นนทบุรี	-0.8800771
-3.694035	นม	-0.92532
-3.406793	นอก	-1.490862
-4.053056	นอกเวลา	-0.8370906
-2.774303	นอน	-1.212762
-4.053056	นอนได้	-0.8446751
-2.432772	นะ	-1.913207
-4.053056	นักเรียน	-0.841791
-3.483181	นักแสดงนำ	-1.410237
-2.495034	นัด	-0.8170148
-3.752027	นับ	-0.8742643
-2.915883	นั่ง	-0.8775657
-3.597125	นั้น	-0.9468936
-4.296095	นั้ั้น	-0.602038
-2.450997	นาที	-1.131592
-3.127302	นาน	-1.106831
-3.667706	นาม	-0.6985195
-4.199184	นาย	-0.6248046
-3.483181	นาฬิกา	-1.340808
-3.059305	นำ	-1.253512
-4.053056	นิติ	-0.8334455
-2.953672	นี่	-1.176358
-2.023673	นี้	-1.102623
-4.199184	นี้่ิ	-0.6979861
-2.920431	นึง	-1.139823
-3.14228	น่า	-1.17091
-3.149966	น่าดู	-1.197692
-4.120003	น้อง	-0.7765891
-3.694035	น้อย	-0.854569
-2.742818	น้ำ	-0.8564757
-4.120003	น้ำข้น	-0.7039858
-3.856762	น้ำจิ้ม	-1.039417
-3.898154	น้ำตาล	-0.7375588
-4.296095	น้ำปลา	-0.6012356
-3.421033	น้ำเงิน	-1.402956
-3.856762	น้ำเปล่า	-0.7734145
-3.575935	น้ำแข็ง	-0.6929302
-4.120003	น้ำใส	-0.7039858
-4.053056	บท	-0.8392441
-3.011664	บน	-0.883697
-4.296095	บรรจุ	-0.602038
-3.722063	บริการ	-0.7526132
-4.053056	บรูซ	-0.8450596
-4.053056	บลายบิด	-0.8410324
-4.053056	บลีช	-0.8450596
-3.898154	บลู	-0.6661646
-3.575935	บวก	-1.317577
-3.235397	บอก	-0.9957957
-4.296095	บอม	-0.5278946
-3.784211	บอส	-0.7704177
-3.694035	บะหมี่	-0.9285505
-3.575935	บังคับ	-1.321472
-3.619401	บัญชี	-0.9875796
-3.450996	บัตร	-0.9997362
-4.120003	บันทึก	-0.7765119
-3.818973	บัว	-0.8127596
-2.675438	บาท	-1.292192
-4.053056	บิงซู	-0.8450596
-2.925027	บิชอป	-1.667897
-3.818973	บิล	-0.8113953
-3.784211	บิวตี้	-1.113872
-3.157792	บี	-0.7131251
-4.053056	บีทีเอส	-0.8449717
-3.784211	บีสต์	-1.102291
-3.784211	บึ้ม	-0.6238199
-4.296095	บืชอป	-0.5974176
-3.818973	บุฟเฟต์	-0.7952123
-3.483181	บ่อย	-1.410908
-3.065645	บ่าย	-0.9930952
-1.738287	บ้าง	-2.607812
-2.845076	บ้าน	-1.124294
-4.120003	ปกติ	-0.7039858
-3.366676	ปฎิทิน	-0.8663408
-4.120003	ปฏิเสธ	-0.7039858
-3.943912	ปทุมธานี	-0.8800771
-3.575935	ประกอบ	-1.32047
-4.120003	ประกัน	-0.7781183
-3.575935	ประกันตัว	-1.321433
-3.450996	ประจำ	-0.9951243
-4.120003	ประชาสัมพันธ์	-0.7765891
-2.943912	ประชุม	-0.7150726
-4.120003	ประดับ	-0.7748442
-3.053056	ประตู	-0.8163434
-4.120003	ประทับ	-0.7781183
-4.120003	ประท้วง	-0.776881
-3.318371	ประมาณ	-1.287871
-3.500215	ประมูล	-1.396615
-4.120003	ประยุทธ์	-0.7757672
-4.120003	ประวัติ	-0.7758003
-4.199184	ประสงค์	-0.6983326
-3.483181	ประเทศ	-1.409119
-3.642882	ประเภท	-0.8079143
-3.784211	ปรับ	-1.113872
-3.667706	ปริมาณ	-1.228947
-4.053056	ปลั๊ก	-0.8444881
-3.818973	ปลา	-0.7375348
-3.149966	ปลาหมึก	-1.74721
-2.672845	ปลุก	-0.9614156
-3.597125	ปล้น	-1.300244
-4.120003	ปวด	-0.7781183
-3.149966	ปอนด์	-0.9911441
-3.752027	ปะ	-1.071963
-4.120003	ปัง	-0.7713279
-3.296094	ปังย่า	-0.6267968
-4.053056	ปังเย็น	-0.8334455
-4.120003	ปั่น	-0.7039858
-4.296095	ปา	-0.5278946
-4.296095	ปาตี้	-0.6013126
-4.120003	ปานกลาง	-0.7039858
-4.053056	ปาร์ค	-0.8438884
-4.296095	ปาร์ตี้	-0.5278946
-3.483181	ปาล์ม	-0.8918536
-2.555732	ปิด	-1.076083
-4.053056	ปิดเทอม	-0.8441746
-3.517943	ปิ้ง	-0.9250758
-3.406793	ปี	-0.9162636
-3.694035	ปืน	-0.6023979
-4.120003	ปู	-0.7777997
-3.642882	ป่าว	-1.181107
-3.421033	ป้องกัน	-0.757646
-4.053056	ป้อม	-0.8450596
-4.053056	ป๊อปคอร์น	-0.844004
-4.296095	ผงก	-0.602038
-3.406793	ผม	-0.8433264
-3.483181	ผลิต	-1.413268
-3.784211	ผลไม้	-0.840278
-3.856762	ผัก	-0.7035101
-4.199184	ผักกาด	-0.6963153
-3.856762	ผักคะน้า	-0.764911
-4.120003	ผักบุ้ง	-0.7774588
-2.647735	ผัด	-1.268789
-4.199184	ผัดซีอิ๊ว	-0.6952423
-3.995065	ผู้	-0.6522946
-3.483181	ผู้กำกับ	-1.410237
-4.120003	ผู้จัดการ	-0.7039858
-3.667706	ผู้ชาย	-0.8791448
-4.053056	ผู้ช่วย	-0.844642
-3.856762	ผู้สูงอายุ	-0.9672273
-3.667706	ผู้หญิง	-1.156283
-3.943912	ผู้เล่น	-0.624772
-3.943912	ผู้ใหญ่	-0.6896012
-3.517943	ผ่าน	-0.7439825
-4.120003	ผ้า	-0.7781183
-4.053056	ฝั่ง	-0.6008283
-3.856762	ฝาก	-1.039042
-3.406793	ฝุ่น	-0.7564293
-4.296095	พก	-0.5278946
-4.053056	พร	-0.8433926
-4.053056	พรจากฟ้า	-0.8442076
-4.053056	พระเกี้ยว	-0.8405499
-3.722063	พริก	-0.7468164
-3.856762	พริกน้ำปลา	-0.7720914
-4.199184	พริกไทย	-0.6981456
-4.053056	พรีวิเลจ	-0.8441746
-4.053056	พรีเมี่ยม	-0.8441361
-3.329953	พรุ่ง	-1.274594
-2.465185	พรุ่งนี้	-0.9419733
-4.296095	พร้อม	-0.602038
-3.856762	พฤหัส	-0.7736253
-3.149966	พล	-0.9911441
-3.667706	พลัง	-0.8012588
-3.856762	พลิก	-1.041222
-3.856762	พอ	-0.7746949
-4.199184	พอส	-0.6982831
-4.120003	พอแล้ว	-0.7039858
-3.943912	พะโล้	-0.6229705
-4.296095	พัก	-0.5990682
-3.341852	พัน	-0.9133908
-4.053056	พากย์	-0.8447959
-4.120003	พาณิชย์	-0.7765891
-3.694035	พานาคอตต้า	-0.7002245
-4.053056	พารากราฟ	-0.8450596
-3.085241	พารากอน	-0.8117461
-3.784211	พาราโบลา	-0.8301221
-4.053056	พิกัด	-0.8419681
-4.120003	พิการ	-0.7740856
-3.898154	พิม	-0.9996485
-3.091974	พิเศษ	-0.9045099
-3.898154	พี	-0.6003048
-4.296095	พี่	-0.6020051
-4.120003	พื้น	-0.777981
-3.329953	พุธ	-0.5908401
-3.597125	พูด	-0.862829
-3.818973	ฟรี	-0.8077434
-4.053056	ฟรุตตี้	-0.8443506
-3.943912	ฟร้องซ์	-0.8800771
-3.856762	ฟอง	-0.9672273
-4.120003	ฟองนม	-0.7039858
-3.366676	ฟอส	-0.6114517
-4.053056	ฟัง	-0.8450267
-4.120003	ฟัน	-0.777959
-4.053056	ฟันขาว	-0.8443891
-3.856762	ฟาร์ม	-0.9672273
-3.856762	ฟิตเนส	-0.7623221
-4.053056	ฟิฟตี้	-0.8450596
-3.943912	ฟิลเตอร์	-0.8800771
-3.856762	ฟ้า	-0.7772332
-3.329953	ภาค	-0.9124554
-3.517943	ภายใน	-0.8217772
-3.393005	ภาษา	-1.217088
-4.296095	ภู	-0.6018568
-4.053056	มรณะ	-0.8449278
-4.053056	มหาจักรีสิรินธร	-0.8435358
-4.053056	มหิต	-0.8334455
-3.856762	มอคค่า	-0.7028902
-4.120003	มอง	-0.7763796
-4.199184	มอน	-0.6248046
-4.199184	มอนเตอร์	-0.6248046
-4.053056	มะม่วง	-0.8448014
-3.517943	มะรืน	-1.376079
-4.199184	มักโรนี	-0.6980356
-4.199184	มังสวิรัติ	-0.6972535
-3.040822	มัน	-1.029486
-4.053056	มันฝรั่ง	-0.8449772
-4.199184	มั่ว	-0.6984975
-2.599301	มั้ย	-2.224688
-2.647735	มา	-0.8726158
-3.264686	มาก	-0.9851429
-4.120003	มากิ	-0.7767874
-3.619401	มาบุญครอง	-0.831297
-3.329953	มาม่า	-0.8341691
-4.120003	มาส	-0.7039858
-3.619401	มิดเทอม	-0.992529
-4.199184	มิตรภาพ	-0.6980356
-4.053056	มิติ	-0.8370906
-4.053056	มิยาบิ	-0.8449333
-4.120003	มิลลิลิตร	-0.7039858
-1.577178	มี	-1.189225
-4.053056	มีนา	-0.5888084
-3.856762	มืด	-0.7777722
-4.296095	มือถือ	-0.5979944
-4.199184	มื้อ	-0.6948379
-4.053056	มูฟวี่	-0.8428796
-3.235397	ม้า	-1.362271
-4.053056	ม้้ย	-0.7709326
-4.053056	ย	-0.8450596
-4.053056	ยกคลาส	-0.8449772
-3.07208	ยกเลิก	-0.88618
-4.120003	ยอม	-0.7781183
-4.053056	ยักษ์	-0.8438884
-2.683311	ยัง	-1.540543
-3.034832	ยังไง	-1.789157
-3.898154	ยา	-0.7354871
-3.354086	ยาก	-1.243123
-4.120003	ยางมะตูม	-0.7740413
-2.911383	ยาว	-1.143024
-4.053056	ยาโยอิ	-0.8410324
-4.120003	ยำ	-0.7772939
-3.555732	ยิง	-0.6379846
-4.053056	ยิน	-0.8448948
-3.943912	ยีนส์	-0.8800771
-3.329953	ยี่	-1.566254
-3.466791	ยี่สิบ	-0.8684329
-3.575935	ยึด	-1.320343
-3.943912	ยืด	-0.944728
-4.199184	ยืนยัน	-0.6969944
-3.694035	ยืม	-1.202839
-3.642882	ยู	-0.8188275
-3.483181	ย่อ	-0.6994551
-4.053056	ย่อย	-0.8437728
-3.856762	ย่าง	-0.7694386
-3.379641	ย้อน	-1.227606
-4.053056	ย้าย	-0.8441141
-3.575935	รด	-1.321433
-3.341852	รดน้ำ	-0.988653
-3.165761	รถ	-0.7924989
-4.296095	รบ	-0.5278946
-4.053056	รวม	-0.8435414
-3.667706	รส	-0.7943624
-3.483181	รสชาติ	-1.412755
-3.856762	รหัส	-0.7703841
-4.053056	รหัสวิชา	-0.8382747
-4.053056	รอ	-0.8447739
-4.296095	รองรับ	-0.6018842
-3.752027	รองเท้า	-0.7995324
-4.296095	รอด	-0.5278946
-2.68864	รอบ	-0.930708
-4.296095	ระ	-0.602038
-3.134727	ระดับ	-1.085347
-3.500215	ระหว่าง	-0.8444058
-4.053056	ระเบิด	-0.5278685
-4.053056	รัก	-0.8450596
-3.190584	รักษา	-0.9687224
-3.207958	รับ	-0.8897667
-3.943912	รัว	-0.6247459
-2.655116	ราคา	-1.167562
-3.784211	รางวัล	-0.8382356
-3.575935	ราดหน้า	-0.7760212
-3.366676	ราย	-1.531006
-2.856762	รายการ	-1.19449
-3.943912	รายงาน	-0.6965418
-4.053056	รายชื่อ	-0.8450267
-3.694035	รายละเอียด	-1.201769
-3.318371	รายได้	-1.123399
-4.053056	ริม	-0.8447355
-3.943912	ริเวอร์	-0.6247459
-4.053056	รีบ	-0.8430452
-3.619401	รีวิว	-0.9964383
-3.536427	รึ	-0.919521
-4.053056	รึยัง	-0.7709326
-4.053056	รุจิศรี	-0.8436956
-3.856762	รุ้ง	-0.7026878
-3.285371	รูป	-1.142064
-4.120003	รู้	-0.7776183
-3.642882	ร้อง	-0.9034734
-3.856762	ร้อน	-0.7035753
-2.797784	ร้อย	-1.140958
-2.143806	ร้าน	-1.142642
-3.784211	ร้านค้า	-1.039778
-3.943912	ร้านแนะนำ	-0.8800771
-2.948765	ลง	-0.924674
-4.053056	ลงทะเบียน	-0.8435358
-2.787565	ลด	-1.089975
-3.500215	ลบ	-1.112618
-3.722063	ลวก	-0.6746643
-4.199184	ลอง	-0.6988547
-4.053056	ลอจิค	-0.8450596
-4.053056	ลอย	-0.8450596
-3.040822	ละ	-1.021653
-3.694035	ละลาย	-0.9292431
-4.120003	ละหมาด	-0.7740856
-4.053056	ลั่น	-0.5273797
-2.968736	ลา	-1.632765
-4.199184	ลางาน	-0.6957737
-4.120003	ลาน	-0.7780634
-4.199184	ลาส	-0.6988986
-3.856762	ลาเต้	-0.7028902
-4.120003	ลิฟท์	-0.7779536
-4.120003	ลิมิต	-0.7778052
-4.053056	ลิเนียร์	-0.8450596
-4.053056	ลิโด้	-0.844004
-4.296095	ลีนุกซ์	-0.5979944
-3.619401	ลืม	-1.27783
-3.898154	ลุก	-0.6646574
-3.784211	ลุง	-0.8355442
-4.120003	ลุ้น	-0.7778272
-3.856762	ลูก	-0.9672273
-4.120003	ลูกชิ้นปลา	-0.7774588
-3.722063	ลูกเต๋า	-0.6687073
-3.943912	ลูป	-0.8800771
-3.575935	ล็อกอิน	-1.041167
-4.199184	ล็อกเอาท์	-0.6248046
-3.341852	ล็อค	-0.8993068
-4.053056	ล็อบสเตอร์	-0.8443891
-4.053056	ล่วง	-0.8433595
-3.898154	ล่า	-0.9992526
-3.354086	ล่าง	-0.7350243
-3.318371	ล่าสุด	-1.047931
-4.120003	ล้าง	-0.7780908
-3.856762	ล้าน	-1.040475
-4.296095	วง	-0.602038
-3.207958	วอล	-0.9343283
-4.120003	วอล์ค	-0.7736031
-3.575935	วัตถุดิบ	-1.315396
-2.129516	วัน	-1.270909
-3.318371	วันที่	-1.009156
-2.667706	วันนี้	-0.8738016
-4.120003	วันปีใหม่	-0.7701438
-3.856762	วันศุกร์	-0.7622536
-3.500215	วันหยุด	-0.9481159
-3.483181	วันเกิด	-1.412622
-4.199184	วันเสาร์	-0.6948379
-4.199184	วันไหน	-0.6909626
-4.296095	วัยรุ่น	-0.5940526
-4.120003	วัว	-0.7039858
-3.619401	วาง	-0.7372381
-3.943912	วาน	-0.94259
-4.199184	วานซืน	-0.6963153
-3.575935	วาป	-1.317671
-2.516138	วิชา	-0.9788899
-2.968736	วิดีโอ	-0.9236208
-2.911383	วิธี	-1.110066
-3.575935	วิธีทำ	-0.8828239
-4.120003	วิธีี	-0.7754966
-3.296094	วินาที	-1.527894
-4.296095	วินโดวส์	-0.5979944
-3.694035	วินโด้	-1.200813
-3.856762	วิป	-0.7035362
-3.856762	วิปครีม	-0.7774754
-4.053056	วิลลิส	-0.8442076
-3.07208	วิศวะ	-0.997793
-4.053056	วิเคราะห์ระบบ	-0.8334455
-2.984341	วิ่ง	-1.319771
-4.296095	วิ่่ง	-0.6013951
-3.784211	วีดิโอ	-1.104429
-2.801244	วีดีโอ	-1.2334
-3.329953	ว่า	-0.7607895
-3.07861	ว่าง	-0.9772336
-4.053056	ศาลา	-0.8450596
-3.483181	ศิลปิน	-1.40815
-3.30709	ศุกร์	-0.7797595
-3.040822	ศูนย์	-0.907924
-4.120003	สกาย	-0.7781183
-4.053056	สคิป	-0.8449278
-3.694035	สตอเบอร์รี่	-0.9164616
-4.053056	สตางค์	-0.8410324
-4.053056	สตาร์บัค	-0.8434256
-3.329953	สตาร์วอร์	-0.8879845
-4.120003	สถานะ	-0.7039858
-3.536427	สถานี	-1.072057
-4.053056	สน	-0.8450596
-3.694035	สปาเก็ตตี้	-0.9293255
-3.667706	สภาพ	-1.228947
-3.642882	สมัคร	-0.976602
-3.500215	สมาชิก	-0.8306732
-4.053056	สมุด	-0.8449937
-3.943912	สมุทรปราการ	-0.8800771
-3.898154	สยอง	-0.9999451
-3.856762	สยาม	-0.7778876
-3.619401	สระ	-1.278583
-4.120003	สรุป	-0.7664987
-3.752027	สร้าง	-0.8739066
-3.406793	สร้างขึ้น	-1.491192
-4.120003	สลัดบาร์	-0.7776898
-3.575935	สลับ	-0.8102065
-4.053056	สลาฟ	-0.8450431
-3.898154	สวย	-0.6661711
-4.053056	สวีท	-0.8450596
-3.483181	สว่าง	-0.8934023
-4.296095	สอ	-0.5278946
-2.025998	สอง	-0.9438834
-4.120003	สองทุ่ม	-0.7781183
-3.254702	สอน	-1.064212
-2.939113	สอบ	-0.9139497
-4.053056	สอบย่อย	-0.8413703
-4.199184	สะกด	-0.6984975
-4.053056	สะสาง	-0.8370906
-3.856762	สะอาด	-0.7734589
-3.995065	สัก	-0.6508616
-4.120003	สังเกต	-0.7780634
-4.120003	สังเกตุ	-0.7780634
-3.483181	สับ	-0.9672717
-3.943912	สับตะไคร้	-0.8800771
-2.925027	สัปดาห์	-1.670806
-3.120003	สั่ง	-0.8975459
-4.120003	สั่งงาน	-0.7780359
-3.943912	สั้น	-0.8800771
-3.784211	สาขา	-0.7681425
-2.134727	สาม	-0.9408696
-3.784211	สามย่าน	-0.8420565
-3.818973	สามารถ	-0.8100377
-3.722063	สาย	-0.7473512
-2.889554	สำหรับ	-0.855073
-3.722063	สิ	-0.8269858
-4.296095	สิงหา	-0.5904075
-2.461992	สินค้า	-1.06042
-2.349151	สิบ	-1.079437
-3.856762	สิบเอ็ด	-0.5552336
-3.619401	สิ่ง	-1.269239
-3.575935	สิ่งก่อสร้าง	-1.320343
-3.856762	สิ้น	-1.040854
-2.742818	สี	-1.197649
-2.261667	สี่	-0.9714885
-3.575935	สุก	-0.9670904
-4.199184	สุกี้	-0.6988876
-3.856762	สุกๆ	-1.0407
-4.120003	สุขภาพ	-0.7764348
-2.764616	สุด	-0.9644255
-3.722063	สุดท้าย	-0.7398779
-3.619401	สุภาพ	-0.9981125
-3.784211	สุ่ม	-0.7705808
-3.667706	สูง	-0.8791904
-3.575935	สูตร	-1.32047
-3.098814	สเต็ก	-0.8897516
-3.274905	สแควร์	-1.151077
-2.826272	ส่ง	-0.978121
-3.619401	ส่วน	-1.278045
-3.483181	ส่วนผสม	-1.40815
-4.120003	ส่วนลด	-0.7740856
-3.856762	ส่าย	-1.041129
-3.784211	ส้ม	-1.113872
-4.053056	ส้มตำ	-0.8445981
-2.670268	หก	-1.117022
-4.120003	หญ้า	-0.7039858
-1.964667	หนัง	-1.467496
-3.226057	หนังสือ	-0.9931352
-3.483181	หนาว	-0.8580977
-4.120003	หนี	-0.7775413
-3.406793	หนี้	-0.7761812
-1.973359	หนึ่ง	-1.131284
-2.404	หน่อย	-1.943638
-2.398467	หน้า	-0.8644339
-3.500215	หน้าจอ	-0.8792231
-3.667706	หน้าต่าง	-1.230048
-3.575935	หน้าบ้าน	-0.8082996
-4.296095	หน้้า	-0.6019722
-3.421033	หมด	-0.7538786
-3.619401	หมอ	-0.6573043
-3.694035	หมา	-1.129955
-3.285371	หมายเลข	-0.9366385
-4.120003	หมี่กรอบ	-0.7735088
-3.406793	หมื่น	-1.202271
-3.023093	หมู	-0.7697083
-3.575935	หมูกระเทียม	-0.8066798
-3.435756	หมูสับ	-0.8204467
-3.856762	หมู่บ้าน	-0.9672273
-4.120003	หยิบ	-0.7758003
-3.149966	หยุด	-0.6906929
-2.973875	หรือ	-1.167987
-4.199184	หลบหลีก	-0.6248046
-4.120003	หลอด	-0.7761756
-2.872849	หลัง	-0.8557683
-4.120003	หลังบ้าน	-0.7039858
-4.053056	หลับ	-0.8447465
-4.053056	หลาย	-0.8437728
-3.023093	หวาน	-0.8201386
-4.296095	หวาย	-0.6018568
-3.406793	หอ	-1.202348
-4.053056	หอกลาง	-0.844004
-4.199184	หอย	-0.6987833
-3.856762	หอยแครง	-0.7743405
-3.555732	หัน	-0.6505358
-4.296095	หัว	-0.5278946
-3.856762	หัวหอม	-0.7033797
-3.091974	หา	-0.8946013
-4.120003	หาย	-0.7779645
-4.120003	หิน	-0.7039858
-3.856762	หิว	-1.040607
-3.856762	หีบ	-0.9672273
-3.856762	หุง	-0.7773159
-4.053056	ห่าง	-0.8450596
-2.885317	ห้อง	-1.121464
-3.856762	ห้องครัว	-0.7025506
-3.856762	ห้องนอน	-0.7026224
-3.667706	ห้องน้ำ	-0.7997669
-4.053056	ห้องพัก	-0.844642
-4.053056	ห้องสมุด	-0.844004
-2.163355	ห้า	-1.010813
-4.597125	อ	-0.3002991
-4.120003	องศา	-0.7039858
-4.053056	อด	-0.8450596
-3.517943	อติวงศ์	-0.7508841
-3.555732	อบ	-1.051037
-2.398467	อยาก	-1.276196
-2.444836	อยู่	-1.155123
-3.500215	อย่า	-0.9526803
-3.034832	อย่าง	-1.100369
-3.784211	อย่างน้อย	-1.110747
-3.406793	อย่างไร	-1.12044
-3.165761	อร่อย	-1.073715
-4.120003	อวด	-0.7776953
-2.780883	ออก	-1.143707
-3.898154	ออน	-0.6661711
-4.053056	ออสการ์	-0.844004
-4.120003	ออเดอร์	-0.7039858
-4.120003	ออเรนจิน่า	-0.7740856
-3.091974	อะ	-1.143941
-1.807191	อะไร	-1.445022
-3.784211	อะไรบ้าง	-1.039778
-3.406793	อะไรวอล	-0.7484434
-3.619401	อักษร	-0.985132
-3.667706	อังกฤษ	-0.7263843
-3.536427	อังคาร	-0.5826886
-3.619401	อัน	-0.9862612
-2.161758	อันดับ	-1.753662
-3.483181	อันเดอร์วอเตอร์เวิล์ด	-0.854562
-3.694035	อัปเดต	-1.196113
-3.207958	อัพ	-0.8439435
-4.199184	อัพโหลด	-0.6982831
-4.053056	อัลกอริทึม	-0.8450376
-2.739792	อา	-1.246212
-2.979076	อาจารย์	-0.9572154
-3.034832	อาทิตย์	-1.027102
-3.818973	อาบ	-1.078395
-4.597125	อาบน้ำ	-0.3009202
-3.575935	อาม	-0.9667645
-4.199184	อาย	-0.6989425
-3.818973	อายุ	-0.8102753
-4.120003	อาราบิก้า	-0.7039858
-4.199184	อาร์	-0.6988272
-3.466791	อาวุธ	-1.06933
-2.395727	อาหาร	-0.9541414
-4.120003	อาหารตะวันตก	-0.7764348
-4.120003	อาหารตะวันออก	-0.7764348
-3.694035	อาหารบูด	-0.8526207
-3.694035	อาหารเสีย	-0.8526207
-4.120003	อาหารไทย	-0.7764348
-3.784211	อาารย์	-1.113811
-4.199184	อิท	-0.6989206
-4.053056	อินเซปชั่น	-0.841791
-3.694035	อี	-0.5935041
-2.326446	อีก	-1.145127
-4.199184	อีเมล	-0.6974133
-4.199184	อีเมล์	-0.6974133
-3.536427	อื่น	-0.8062907
-3.856762	อุณหภูมิ	-0.7730758
-3.366676	อุปกรณ์	-0.9968701
-3.856762	อุ้ม	-0.7774039
-3.784211	อเมซอน	-0.8317729
-3.856762	อเมริกาโน่	-0.7028902
-3.235397	อ่าน	-1.203675
-4.120003	อ้วน	-0.7756678
-4.120003	อ้อม	-0.7778821
-3.784211	อ้อย	-0.8392942
-3.694035	อ้างอิง	-1.2028
-4.053056	ฮันนี่มูน	-0.8450596
-3.784211	ฮาจิบัง	-0.8399947
-4.120003	ฮิจิริ	-0.7767874
-4.296095	ฮิต	-0.5940526
-4.296095	ฮิว	-0.6018568
-2.423938	เกม	-1.083807
-4.199184	เกมส์	-0.6980356
-3.619401	เกรด	-0.998603
-4.296095	เกราะ	-0.5278946
-3.517943	เกลือ	-0.8618983
-3.856762	เกาหลี	-0.7671975
-3.784211	เกาเหลา	-0.832316
-3.483181	เกิด	-0.775386
-4.053056	เกิน	-0.842714
-3.329953	เกี่ยว	-1.277698
-3.856762	เกี้ยว	-0.7772829
-2.929672	เก็บ	-1.20801
-3.134727	เก้า	-0.8779336
-4.120003	เก๊าท์	-0.777959
-4.053056	เขต	-0.841863
-4.296095	เขม	-0.6018568
-4.120003	เขียน	-0.7748442
-4.053056	เขียนโปรแกรม	-0.8334455
-3.354086	เขียว	-1.180618
-2.787565	เข้า	-1.052783
-4.120003	เข้าฉาย	-0.7701438
-4.199184	เข้าใจ	-0.6248046
-3.254702	เค	-1.275187
-3.667706	เครดิต	-0.7975001
-3.784211	เครป	-0.8448893
-4.120003	เครือ	-0.7713279
-3.575935	เครื่อง	-0.7778822
-4.053056	เครื่องคิดเลข	-0.8443891
-3.856762	เครื่องปรุง	-0.7732313
-4.053056	เคร่ง	-0.8410324
-3.536427	เคลียร์	-0.9200384
-4.120003	เคล็ดลับ	-0.7754966
-4.120003	เคียว	-0.7039858
-4.053056	เคเอฟซี	-0.8435524
-4.120003	เค็ม	-0.7740856
-3.483181	เค้ก	-0.8450665
-3.296094	เค้าเตอร์	-0.6267968
-2.530798	เงิน	-1.168303
-4.053056	เงียบ	-0.841791
-4.199184	เจน	-0.6984975
-3.784211	เจฟเฟอร์	-0.8314273
-3.421033	เจียว	-0.6859683
-2.811795	เจ็ด	-0.9378908
-4.053056	เจ็นเอ็ด	-0.8437728
-4.120003	เจ้า	-0.7758003
-3.435756	เจ้าของ	-0.9363006
-4.053056	เจ้าหน้าที่	-0.8450596
-3.406793	เจ๊	-0.928479
-3.943912	เฉพาะ	-0.9532806
-3.784211	เฉลี่ย	-0.8449059
-4.053056	เชดส์	-0.8450596
-3.694035	เชอร์รี่	-0.9164616
-3.943912	เชิร์ต	-0.9474191
-3.694035	เชื่อม	-0.9290618
-3.182151	เช็ค	-0.9728593
-4.120003	เช่า	-0.7740856
-3.098814	เช้า	-0.8066602
-4.053056	เซงเซียมอี๊	-0.8436956
-4.120003	เซนเตอร์	-0.7736031
-3.943912	เซลล์	-0.94259
-4.053056	เซอเคิล	-0.8436956
-4.053056	เซเว่น	-0.8413703
-3.575935	เซ็ต	-1.32184
-3.784211	เซ็นทรัลเวิลด์	-0.8325309
-4.120003	เดบิต	-0.7776898
-3.406793	เดอะ	-0.9292322
-2.696757	เดิน	-1.181613
-3.784211	เดิม	-1.039778
-4.296095	เดียว	-0.602038
-2.906928	เดือน	-1.226508
-3.207958	เด็ก	-0.9324007
-3.034832	เด็ด	-1.26838
-3.694035	เตรียม	-0.7772059
-3.694035	เตาถ่าน	-0.7010778
-3.856762	เตาแก๊ส	-0.7745842
-3.165761	เติม	-1.070287
-2.979076	เตือน	-0.7079402
-3.694035	เต็ม	-0.9244434
-3.575935	เต๋อ	-0.9667645
-3.466791	เถอะ	-1.06734
-4.120003	เทค	-0.7780359
-4.053056	เทพ	-0.8450596
-4.120003	เทมปุระด้ง	-0.7774588
-3.157792	เทอม	-1.270875
-3.943912	เทา	-0.8800771
-4.120003	เทิร์น	-0.7039858
-2.958635	เที่ยง	-1.038504
-2.722063	เท่า	-1.629403
-3.856762	เท่ากับ	-1.037665
-4.199184	เท่านั้น	-0.6248046
-3.046896	เท่าไร	-1.480231
-2.512548	เท่าไหร่	-2.010654
-4.053056	เนย	-0.8410324
-4.120003	เนอะ	-0.7039858
-3.784211	เนี่ย	-1.039778
-3.575935	เนื้อ	-1.040981
-3.856762	เนื้อปลา	-0.7033797
-3.575935	เนื้อหมู	-0.6876063
-3.575935	เนื้อไก่	-0.6876063
-4.296095	เน็ต	-0.5940526
-3.818973	เบอร์	-0.8126882
-3.856762	เบอร์เกอร์	-0.7734312
-4.296095	เบา	-0.5278946
-4.120003	เบาหวาน	-0.777959
-3.898154	เบาๆ	-0.9258345
-4.296095	เบิด	-0.5278946
-2.925027	เบี้ย	-1.081098
-4.120003	เบื่อ	-0.7039858
-3.667706	เปรียบเทียบ	-0.8792688
-3.898154	เปรี้ยว	-0.7358811
-2.623997	เปลี่ยน	-1.139613
-3.165761	เปล่า	-1.658228
-3.466791	เปอร์เซนต์	-1.062448
-4.053056	เปอร์เซ็นต์	-0.7709326
-2.334673	เปิด	-0.8794155
-2.292849	เป็น	-1.130436
-4.120003	เป็ปซี่	-0.7777612
-3.341852	เผา	-1.101177
-4.199184	เผื่อ	-0.6983326
-3.856762	เผ็ด	-0.7738473
-3.149966	เพจ	-1.438355
-3.235397	เพชร	-0.9182174
-3.784211	เพลง	-0.8368724
-3.784211	เพลิง	-0.6226694
-2.34306	เพิ่ม	-0.9817722
-2.603688	เพื่อน	-1.162301
-4.120003	เฟท	-0.7781183
-4.053056	เฟ้ย	-0.7709326
-2.491614	เมนู	-1.002384
-4.120003	เมล็ด	-0.7778766
-4.120003	เมล์	-0.7780689
-4.120003	เมษายน	-0.7701438
-4.120003	เมอร์ลิน	-0.7778052
-3.597125	เมื่อ	-0.7558182
-4.053056	เมื่อคืน	-0.8443671
-3.667706	เมื่อวาน	-0.6727909
-3.406793	เมื่อไร	-1.417196
-3.393005	เมื่อไหร่	-1.430984
-3.264686	เมเจอร์	-1.049124
-4.120003	เยน	-0.7039858
-3.059305	เยอะ	-1.009975
-4.296095	เยาะ	-0.602038
-4.296095	เยี่ยม	-0.5278946
-3.046896	เย็น	-0.8337237
-4.296095	เย็นนี้	-0.601692
-4.296095	เย้ย	-0.5278946
-4.053056	เรตติ้ง	-0.8437617
-3.244942	เรา	-0.9865059
-3.296094	เริ่ม	-0.8108979
-3.575935	เรียก	-0.883375
-3.435756	เรียง	-1.172989
-2.545972	เรียน	-0.876835
-4.120003	เรียนพิเศษ	-0.7765891
-3.023093	เรือ	-1.278009
-2.478199	เรื่อง	-1.225437
-3.483181	เรื่องย่อ	-1.410237
-3.722063	เร็ว	-0.6669425
-4.053056	เลคเชอร์	-0.8449717
-3.000527	เลย	-1.527478
-3.435756	เลิก	-1.173867
-4.120003	เลิฟ	-0.7781183
-4.199184	เลี้ยง	-0.6988876
-2.848937	เลือก	-1.118009
-3.784211	เลือด	-0.7707958
-2.745866	เลื่อน	-1.062133
-4.053056	เลโก	-0.8450596
-3.818973	เล็ก	-0.5935237
-4.296095	เล็ง	-0.5278946
-2.68864	เล่น	-0.8564607
-3.619401	เล่ม	-0.9899575
-4.199184	เว	-0.6248046
-3.784211	เวท	-0.7707958
-4.199184	เวทมนตร์	-0.6248046
-3.784211	เวทมนต์	-1.039778
-2.767821	เวลา	-0.787596
-3.500215	เวอร์	-1.113224
-4.053056	เวิคช็อป	-0.844004
-3.856762	เวียดนาม	-0.7671975
-4.120003	เวเวอร์	-0.7778052
-3.943912	เว็บไซต์	-0.8800771
-4.053056	เศรษฐศาสตร์	-0.8334455
-4.199184	เสนอ	-0.6989096
-4.120003	เสริมสวย	-0.7713279
-3.597125	เสร็จ	-0.8634084
-4.120003	เสร็็จ	-0.7039858
-3.393005	เสาร์	-0.6308239
-3.226057	เสียง	-0.7986746
-4.053056	เสือ	-0.8449992
-3.285371	เสื้อ	-0.8798423
-3.285371	เสื้อผ้า	-0.9556901
-3.943912	เสื้อยืด	-0.9535226
-3.642882	เส้น	-0.9025539
-3.694035	เส้นเล็ก	-0.9282808
-4.120003	เส้นใหญ่	-0.7039858
-4.296095	เหงา	-0.601714
-3.366676	เหมาะ	-1.530918
-4.120003	เหมือง	-0.7039858
-3.393005	เหมือน	-0.7843969
-3.190584	เหมือนกัน	-1.40682
-3.784211	เหรอ	-0.7706785
-3.722063	เหรียญ	-0.6790841
-3.216913	เหลือ	-0.9299024
-3.406793	เหลือง	-1.417196
-4.120003	เห็ด	-0.7740856
-3.435756	เห็น	-0.8276264
-3.149966	เอ	-0.8840957
-3.450996	เอกพล	-0.8094257
-3.536427	เอง	-0.7363902
-3.694035	เอช	-0.6700988
-3.07861	เอซ	-1.157942
-3.329953	เอด	-0.9211523
-4.120003	เอทีเอม	-0.7777887
-4.053056	เอน	-0.8443671
-3.235397	เอฟ	-0.8031015
-4.053056	เอมอาที	-0.8449717
-2.503703	เอส	-1.47773
-3.856762	เอสเปสโซ่	-0.7028902
-2.534543	เอา	-0.79266
-4.053056	เอเอสอาร์	-0.8438609
-3.722063	เอ็กซ์	-0.8276264
-3.667706	เอ็ด	-0.9395165
-3.421033	เอ็ม	-0.8218657
-4.053056	เอ็มเค	-0.8410324
-3.500215	เอ้าท์	-0.877713
-3.329953	เอ้าลาส	-0.6412246
-4.199184	แกง	-0.6987778
-4.120003	แกรน	-0.7780963
-4.120003	แกรนด์	-0.7781183
-3.856762	แก้	-0.7771838
-3.046896	แก้ว	-0.9607638
-4.120003	แก้ไข	-0.7767488
-4.199184	แคนเซิล	-0.6975786
-3.065645	แคลอรี่	-0.9409786
-4.199184	แค่ไหน	-0.6248046
-3.216913	แจ็ค	-0.9362392
-3.943912	แจ็คเก็ต	-0.8800771
-3.379641	แจ้ง	-1.518058
-3.943912	แจ๊กเก็ต	-0.953308
-3.694035	แชร์	-1.200392
-4.296095	แซก	-0.5278946
-3.165761	แดง	-0.9804577
-3.856762	แตงกวา	-0.7033797
-3.149966	แตงโม	-0.9911441
-3.943912	แตงไทย	-0.8800771
-4.199184	แตะ	-0.6989425
-4.199184	แต่	-0.6987942
-3.575935	แต้ม	-1.321538
-4.120003	แถบ	-0.7767488
-4.053056	แถม	-0.8404556
-2.797784	แถว	-1.062548
-4.120003	แท็กซี่	-0.7765891
-4.296095	แท็บ	-0.5278946
-4.296095	แนน	-0.5278946
-3.264686	แนว	-1.163281
-2.764616	แนะนำ	-1.13617
-4.296095	แนะนำไหม	-0.5278946
-4.296095	แน่	-0.5925454
-3.856762	แบคแพ็ค	-0.9672273
-3.575935	แบน	-1.321433
-2.876965	แบบ	-0.8364218
-4.120003	แบบนี้	-0.7760984
-4.053056	แบ็ทแมน	-0.8445651
-2.722063	แปด	-0.9971021
-4.053056	แปป	-0.8445761
-3.483181	แผนที่	-0.9695588
-3.536427	แพง	-0.8403552
-4.053056	แพทย์	-0.7709326
-4.296095	แพลนท์	-0.602038
-4.120003	แพ้	-0.7039858
-4.120003	แฟต	-0.7039858
-4.296095	แฟน	-0.5940526
-4.053056	แฟลช	-0.7709326
-4.296095	แมค	-0.5979944
-3.943912	แมพ	-0.9533521
-4.199184	แย่ง	-0.6989425
-2.868771	แรก	-0.9642285
-4.120003	แลก	-0.77687
-4.120003	แลคโตส	-0.7780854
-3.264686	แลนด์	-0.9480963
-3.406793	แลนด์มาร์ค	-1.127728
-4.053056	และ	-0.8450267
-3.619401	แล็บ	-0.8446806
-2.525243	แล้ว	-0.9872334
-4.296095	แล้้ว	-0.6019392
-4.120003	แว่น	-0.7748442
-4.120003	แสง	-0.7780085
-2.657605	แสดง	-0.9785107
-3.943912	แสตท	-0.9536656
-4.120003	แสน	-0.7772333
-4.120003	แหก	-0.7779206
-3.264686	แหม่ม	-0.9810991
-4.296095	แหละ	-0.5278946
-3.722063	แห้ง	-0.6732273
-4.296095	แอคชั่น	-0.5979944
-4.120003	แอด	-0.7780634
-3.784211	แอนด์	-1.113773
-4.053056	แอม	-0.8450596
-4.053056	แอมปาร์ค	-0.8435358
-3.216913	แอร์	-0.8622576
-3.722063	แอล	-0.8150671
-4.053056	แอลจิบ้า	-0.841791
-4.053056	แอ็คชั่น	-0.8436516
-3.500215	แฮรี่พอตเตอร์	-1.112849
-3.694035	โกง	-1.200054
-2.425398	โกวาจี	-0.8989218
-4.053056	โครงสร้าง	-0.8449937
-4.053056	โฆษณา	-0.8445651
-3.500215	โจมตี	-0.6886172
-4.053056	โจ๊ก	-0.8450267
-3.856762	โฉนด	-0.9672273
-4.120003	โชตะ	-0.7039858
-3.406793	โซน	-1.197263
-4.053056	โซฟา	-0.844004
-3.943912	โดกาปอง	-0.6227022
-3.784211	โดด	-0.7655323
-4.053056	โดน	-0.8442076
-3.694035	โต๊ะ	-0.9292212
-4.053056	โทร	-0.8448619
-4.120003	โทรศัพท์	-0.7748442
-3.694035	โบว์ลิ่ง	-0.7650242
-3.483181	โบ๊ท	-0.8918536
-3.105763	โปรด	-1.250586
-3.856762	โปรเจค	-0.7735809
-3.517943	โปรแกรม	-1.02264
-3.329953	โปรโมชัน	-0.816838
-3.393005	โปรโมชั่น	-0.8539046
-2.428333	โพธิ์ดำ	-1.793309
-2.517943	โพธิ์แดง	-1.704336
-2.678046	โพสต์	-1.729256
-2.939113	โฟธ	-0.8250284
-4.053056	โฟร์	-0.8438663
-2.163355	โมง	-1.253733
-4.120003	โรคไต	-0.777959
-2.764616	โรง	-1.236958
-4.053056	โรงหนัง	-0.8448619
-4.053056	โรงอาหาร	-0.844004
-3.856762	โรงแรม	-0.9672273
-4.053056	โรตี	-0.8450267
-3.575935	โรนัน	-0.9667645
-4.120003	โรบัสต้า	-0.7776898
-4.053056	โรแมนติก	-0.8436516
-4.120003	โลลิ	-0.7039858
-3.784211	โลแกน	-0.8410767
-3.500215	โหมด	-1.113317
-3.517943	โหลด	-1.093288
-3.274905	โอ	-0.9559538
-4.053056	โอว	-0.8435414
-3.575935	โอเวอร์	-0.9669535
-4.053056	โอโตยะ	-0.8410324
-4.199184	โฮมเพจ	-0.6248046
-3.105763	ใกล้	-0.9684841
-2.517943	ใคร	-1.19261
-4.053056	ใจ	-0.8370906
-3.034832	ใช่	-0.9723167
-4.053056	ใช่ไหม	-0.7709326
-2.449448	ใช้	-1.132877
-4.120003	ใต้	-0.7780359
-2.415281	ใน	-1.077805
-3.098814	ใบ	-1.210097
-2.915883	ใส่	-0.8157166
-4.120003	ใหญ่	-0.7039858
-3.157792	ใหม่	-0.9629555
-2.578008	ให้	-1.110459
-2.818973	ไก่	-0.8123482
-2.727893	ไข่	-1.115878
-3.406793	ไข่ดาว	-0.8466029
-4.120003	ไข่ตุ๋น	-0.7764458
-3.694035	ไข่ต้ม	-0.773359
-3.856762	ไข่ยางมะตูม	-0.7740746
-3.575935	ไข่ลวก	-0.6970993
-3.149966	ไข่เค็ม	-0.7579226
-3.406793	ไข่เจียว	-0.7619964
-4.120003	ไข่่ตุ๋น	-0.7039858
-2.77105	ไง	-1.45555
-3.285371	ไซส์	-0.9523218
-2.120003	ได้	-1.088174
-4.053056	ได้มั้ย	-0.7709326
-4.053056	ได้ไหม	-0.8433264
-4.120003	ไต	-0.7039858
-3.149966	ไตเติ้ล	-0.9911441
-3.157792	ไทย	-0.8117452
-4.120003	ไทยพาณิชย์	-0.777981
-1.982227	ไป	-0.9730099
-4.053056	ไผ่	-0.8450322
-4.053056	ไผ่ทอง	-0.8443506
-2.852832	ไฟ	-0.8898513
-4.053056	ไฟนอล	-0.8445981
-3.856762	ไฟฟ้า	-0.7735699
-3.406793	ไมโครเวฟ	-1.126804
-2.390299	ไม่	-1.02044
-4.053056	ไม่ว่าง	-0.8449772
-3.856762	ไม่สุก	-1.03675
-4.120003	ไม่ใช่	-0.7039858
-4.053056	ไม้	-0.8447025
-2.995064	ไร	-1.341449
-4.053056	ไรท์ติ้ง	-0.8446971
-4.296095	ไลน์	-0.6004978
-4.120003	ไลฟ์	-0.7039858
-4.199184	ไวท์	-0.6989425
-4.120003	ไวฟุ	-0.7758003
-4.053056	ไวไฟ	-0.843949
-4.053056	ไว้	-0.7709326
-4.053056	ไส้	-0.8413703
-4.120003	ไส้กรอง	-0.7740856
-1.873259	ไหน	-1.327811
-2.030687	ไหม	-2.315563
-4.199184	ไหม้	-0.6248046
-2.911383	ไหร่	-1.606516
-3.784211	ไห้	-0.8403779
-3.642882	ไอ	-0.9775258
-3.500215	ไอติม	-0.8448565
-4.120003	ไอที	-0.7713279
-4.053056	ไอรอนแมน	-0.8334455
-4.053056	ไอเดีย	-0.8435524
-3.034832	ไอเทม	-1.200912
-3.943912	ไอเท็ม	-0.8800771
-4.053056	ไอแม็กซ์	-0.8433264

\2-grams:
-2.496761	<s> กด	-0.1829305
-3.030364	<s> กระ	0
-3.030364	<s> กระแส	0
-2.747817	<s> กระโดด	0
-2.662387	<s> กลับ	-0.6462636
-3.331393	<s> กล้วย	-0.60206
-2.565477	<s> กะเพรา	-0.9754318
-3.410575	<s> กับข้าว	0
-3.109545	<s> กาแฟ	-0.6481918
-2.787326	<s> กิน	-0.7793459
-2.995601	<s> กี่	-0.700209
-3.410575	<s> กุ้ง	-0.738034
-2.808515	<s> กู้	0
-3.331393	<s> ก่อน	-0.7814289
-3.030364	<s> ก๋วยเตี๋ยว	-0.7231037
-2.933454	<s> ขนมหวาน	0
-3.507485	<s> ขยาย	0
-1.273854	<s> ขอ	-0.02528646
-2.933454	<s> ของ	-0.9026846
-3.410575	<s> ขอบคุณ	0
-3.410575	<s> ขอโทษ	0
-2.729334	<s> ขั้น	0
-2.808515	<s> ขั้นตอน	0
-2.410575	<s> ขาย	-0.6487907
-3.410575	<s> ขี้เกียจ	0.06694679
-3.206455	<s> ขึ้น	-0.6159958
-2.933454	<s> ขุด	0
-2.496761	<s> ขโมย	-0.4293486
-3.331393	<s> ข้อสอบ	0
-3.507485	<s> ข้าพเจ้า	0
-3.068152	<s> ข้าม	-0.7781513
-2.264447	<s> ข้าว	-0.9354094
-3.109545	<s> ข้าวผัด	-0.6833649
-2.854272	<s> คณะ	-0.3590218
-3.109545	<s> คน	-0.7664445
-2.565477	<s> คริส	-0.1591528
-3.331393	<s> ครีมเมอรี่	0
-3.410575	<s> ควร	-0.7150995
-2.632424	<s> ความคิดเห็น	-1.210535
-2.310204	<s> ควีน	-0.906343
-3.632424	<s> คั่ว	-0.5118834
-3.507485	<s> คั้งค่า	0
-3.155302	<s> คาปูชิโน่	0
-2.808515	<s> คำนวณ	0
-3.206455	<s> คำแนะนำ	0.2762064
-2.310204	<s> คิง	-0.9191768
-3.109545	<s> คิด	0
-3.410575	<s> คิดส์ซาเนีย	0
-3.410575	<s> คิว	0.30103
-2.711605	<s> คืน	-0.7897953
-2.854272	<s> คุย	-1.043225
-1.90003	<s> คู่	0
-2.767122	<s> ค่า	-0.5867885
-2.507485	<s> ค้นหา	-0.7290816
-3.331393	<s> ฆ่า	0
-3.410575	<s> งง	0
-2.767122	<s> งาน	-0.7445092
-3.410575	<s> ง่วง	-0.509306
-2.905425	<s> จง	-0.2934768
-2.933454	<s> จดหมาย	-0.9879115
-2.747817	<s> จอง	-0.3467875
-3.410575	<s> จอด	0.5642715
-2.747817	<s> จะ	-0.74402
-3.507485	<s> จัด	-0.6320232
-3.331393	<s> จัดการ	0
-2.647147	<s> จับ	0.05435768
-3.632424	<s> จััดการ	0
-3.109545	<s> จั่ว	0
-2.632424	<s> จาม	-0.750999
-3.109545	<s> จุด	-0.6782565
-2.933454	<s> จ่าย	-0.4964265
-1.826244	<s> ฉัน	-0.9266192
-3.206455	<s> ชอบ	-0.8221252
-2.711605	<s> ชั้น	-0.45364
-3.410575	<s> ชาร์จ	-0.5672979
-3.632424	<s> ชำระ	0
-3.410575	<s> ช็อกโกแลต	-0.6268836
-2.879096	<s> ช่วง	0.1064553
-3.410575	<s> ช่วงนี้	-0.544068
-2.767122	<s> ช่วย	0
-2.206455	<s> ซื้อ	-0.1521476
-3.410575	<s> ซุเปอร์มาร์เก็ต	0
-3.109545	<s> ดับ	-0.8073095
-3.410575	<s> ดับเบิ้ล	0
-2.933454	<s> ดาว	-1.135765
-3.331393	<s> ดี	-0.1534273
-1.96653	<s> ดู	-0.9382583
-3.109545	<s> ดูด	-0.3813408
-3.410575	<s> ตก	0
-3.410575	<s> ตกลง	0
-3.410575	<s> ตรวจสอบ	0
-3.331393	<s> ตลาด	0.2688453
-1.868996	<s> ตอง	0
-2.729334	<s> ตอน	-0.7017994
-2.496761	<s> ตอนนี้	-0.3765418
-3.410575	<s> ตัด	0
-2.401975	<s> ตั้ง	0.1229601
-2.905425	<s> ตั้งค่า	0
-3.206455	<s> ติดต่อ	-0.5118834
-3.632424	<s> ตี	-0.5812098
-3.030364	<s> ตึก	-0.5026754
-2.331393	<s> ตื่น	-0.4111013
-2.632424	<s> ตู้	-0.9499454
-2.808515	<s> ตู้เย็น	-0.6267335
-3.410575	<s> ตู้เย็็น	0
-2.854272	<s> ต่อ	-0.8468926
-3.410575	<s> ต่อไป	-0.5850266
-3.109545	<s> ต้นไม้	-0.6320232
-2.747817	<s> ต้ม	-0.5801055
-2.507485	<s> ต้มยำ	-0.6318071
-3.155302	<s> ต้มยำกุ้งน้ำข้น	-0.5118833
-2.933454	<s> ต้อง	-0.6574914
-2.711605	<s> ถอน	-0.7995494
-3.410575	<s> ถัด	0.544068
-3.507485	<s> ถาม	0
-3.410575	<s> ถูกต้อง	0
-2.711605	<s> ทวง	0
-3.410575	<s> ทวน	0
-3.109545	<s> ทอด	-0.5672979
-2.854272	<s> ทอย	0
-3.410575	<s> ทั้งหมด	-0.7609832
-2.694571	<s> ทาง	-0.9082617
-2.180126	<s> ทำ	-0.6633157
-2.507485	<s> ทำลาย	-0.4952197
-2.747817	<s> ทิ้ง	0
-2.109545	<s> ที่	-1.132159
-2.963417	<s> ที่นี่	0
-3.410575	<s> ทุบ	0
-3.331393	<s> ทูฟาสต์	0
-3.410575	<s> ท้องเสีย	0
-2.808515	<s> ท้า	0
-2.711605	<s> ธนาคาร	-0.4343691
-2.565477	<s> นอน	-0.8317271
-3.331393	<s> นักเรียน	0
-2.28347	<s> นัด	-0.7770775
-3.155302	<s> นับ	-0.60206
-3.410575	<s> นั่ง	-0.7577581
-2.303365	<s> นำ	-0.3947109
-3.410575	<s> น้อง	0
-3.632424	<s> บรรจุ	0
-3.331393	<s> บรูซ	0
-3.331393	<s> บลีช	0
-2.496761	<s> บอก	-0.2552724
-2.808515	<s> บังคับ	0
-3.331393	<s> บัตร	-0.748188
-3.410575	<s> บันทึก	0
-3.331393	<s> บัว	-0.5762527
-2.331393	<s> บิชอป	0.1853321
-3.331393	<s> บิวตี้	0.2688453
-3.030364	<s> บึ้ม	0
-3.632424	<s> บืชอป	0
-2.963417	<s> บ่าย	-0.6195507
-3.410575	<s> บ้าน	-0.7400308
-3.410575	<s> ปฏิเสธ	0
-3.410575	<s> ประกัน	0
-2.808515	<s> ประกันตัว	0
-3.410575	<s> ประชาสัมพันธ์	0
-2.787326	<s> ประชุม	-0.5563025
-3.109545	<s> ประตู	-0.7193733
-3.410575	<s> ประทับ	0
-3.410575	<s> ประท้วง	0
-2.729334	<s> ประมูล	0
-3.206455	<s> ประเภท	-0.7323937
-3.030364	<s> ปรับ	0
-2.507485	<s> ปลาหมึก	0.1354042
-2.361357	<s> ปลุก	-0.6644056
-2.830791	<s> ปล้น	0
-3.410575	<s> ปวด	0
-2.565477	<s> ปอนด์	-0.1591528
-3.331393	<s> ปังเย็น	0
-3.410575	<s> ปั่น	0
-3.632424	<s> ปา	0
-1.995601	<s> ปิด	-0.5531824
-2.854272	<s> ปี	-0.672641
-3.030364	<s> ป้องกัน	-0.5099137
-3.632424	<s> ผงก	0
-3.410575	<s> ผักคะน้า	-0.544068
-3.206455	<s> ผัด	-0.6061053
-3.507485	<s> ผัดซีอิ๊ว	0
-3.331393	<s> ผู้ช่วย	0
-3.331393	<s> ผ่าน	-0.7359536
-3.331393	<s> พรจากฟ้า	0
-2.604395	<s> พรุ่ง	0.04830468
-1.933454	<s> พรุ่งนี้	-0.6992643
-3.632424	<s> พร้อม	0
-2.565477	<s> พล	-0.1591528
-3.410575	<s> พลิก	0.2632414
-3.109545	<s> พอ	0
-3.507485	<s> พอส	0
-3.410575	<s> พอแล้ว	0
-3.109545	<s> พานาคอตต้า	-0.4259688
-3.331393	<s> พาราโบลา	-0.60206
-3.155302	<s> พิม	0
-2.933454	<s> พิเศษ	-1.099385
-3.410575	<s> พื้น	0
-3.331393	<s> พุธ	-0.5399121
-2.830791	<s> พูด	0
-3.410575	<s> ฟิตเนส	-0.544068
-3.109545	<s> มอคค่า	0
-3.030364	<s> มะรืน	0.2662679
-3.331393	<s> มัน	-0.8098657
-3.507485	<s> มั่ว	0
-2.541343	<s> มา	-0.7318384
-3.331393	<s> มิดเทอม	-0.6901961
-1.313665	<s> มี	-0.7722141
-3.410575	<s> มืด	-0.544068
-3.507485	<s> มื้อ	0
-2.787326	<s> ม้า	0.31037
-2.331393	<s> ยกเลิก	-0.1531378
-3.410575	<s> ยอม	0
-2.787326	<s> ยิง	0
-2.808515	<s> ยึด	0
-3.507485	<s> ยืนยัน	0
-2.933454	<s> ยืม	0
-2.995601	<s> ย่อ	-0.3817166
-2.604395	<s> ย้อน	0
-3.331393	<s> ย้าย	0
-2.933454	<s> รด	0.1180993
-2.632424	<s> รดน้ำ	0.05958563
-3.410575	<s> รถ	-0.7410094
-2.729334	<s> ระหว่าง	0
-2.711605	<s> รับ	-0.7067953
-2.933454	<s> ราคา	-0.3474874
-3.507485	<s> รายการ	-0.6835951
-3.109545	<s> ร้อน	0
-2.060327	<s> ร้าน	-0.7765242
-3.155302	<s> ลง	-0.6980736
-2.170026	<s> ลด	-0.7010183
-2.729334	<s> ลบ	0
-3.507485	<s> ลอง	0
-3.410575	<s> ละลาย	-0.3928004
-3.331393	<s> ลั่น	0
-3.331393	<s> ลา	-0.5540523
-3.410575	<s> ลาน	0
-3.109545	<s> ลาเต้	0
-3.155302	<s> ลุก	0
-3.331393	<s> ลุง	-0.60206
-2.808515	<s> ล็อกอิน	0
-3.507485	<s> ล็อกเอาท์	0
-2.632424	<s> ล็อค	-0.3273589
-3.410575	<s> ล้าง	0
-1.910888	<s> วัน	-0.7973635
-3.632424	<s> วันที่	-0.5690597
-2.240313	<s> วันนี้	-0.6707177
-3.331393	<s> วันศุกร์	-0.544068
-2.711605	<s> วันเกิด	0
-2.854272	<s> วาง	0
-2.808515	<s> วาป	0
-2.252212	<s> วิชา	-0.6131488
-3.206455	<s> วิดีโอ	-0.659906
-2.234483	<s> วิธี	-0.4355199
-3.410575	<s> วิธีี	0
-2.20106	<s> วิ่ง	0
-3.632424	<s> วิ่่ง	0
-3.410575	<s> ศูนย์	-0.7497559
-3.410575	<s> สกาย	0
-3.331393	<s> สคิป	0
-3.410575	<s> สตอเบอร์รี่	-0.6268836
-3.030364	<s> สตาร์วอร์	-0.594042
-3.410575	<s> สถานี	-0.6766936
-2.905425	<s> สภาพ	0
-3.410575	<s> สรุป	0
-2.995601	<s> สร้าง	0
-3.206455	<s> สลับ	-0.1823402
-3.331393	<s> สวย	0.1383027
-2.808515	<s> สอง	-0.6315903
-2.808515	<s> สอน	-1.081485
-3.331393	<s> สอบ	-0.7259116
-3.507485	<s> สะกด	0
-3.410575	<s> สับ	-0.6927211
-2.223054	<s> สัปดาห์	0.08009625
-2.933454	<s> สั่ง	-0.8193474
-3.410575	<s> สั่งงาน	0
-2.933454	<s> สาม	-0.6068894
-3.206455	<s> สินค้า	-0.9036493
-2.787326	<s> สิบ	-0.6536614
-2.632424	<s> สี่	-0.5245458
-3.331393	<s> สุภาพ	-0.447158
-3.206455	<s> สุ่ม	-0.5862657
-2.529761	<s> ส่ง	-1.150874
-3.331393	<s> ส้มตำ	0
-3.507485	<s> หก	-0.6336377
-1.482179	<s> หนัง	-1.636959
-3.410575	<s> หนาว	-0.6959645
-2.854272	<s> หนึ่ง	-0.5533513
-3.109545	<s> หน้า	-1.028804
-3.331393	<s> หมู	-0.8136896
-3.109545	<s> หมูกระเทียม	-0.5303668
-3.410575	<s> หยิบ	0
-2.529761	<s> หยุด	-0.3380638
-3.155302	<s> หลัง	-0.685514
-2.808515	<s> หวาน	-0.6247241
-3.410575	<s> หอยแครง	-0.544068
-2.933454	<s> หัน	-0.1249387
-3.410575	<s> หัวหอม	-0.544068
-2.711605	<s> หา	-0.9450992
-3.410575	<s> หิว	0.2632414
-3.109545	<s> หุง	0
-2.476076	<s> ห้อง	-0.8210369
-3.410575	<s> ห้องครัว	-0.544068
-3.331393	<s> ห้องพัก	0
-2.541343	<s> ห้า	-0.6869913
-2.933454	<s> อบ	-0.7454821
-1.81288	<s> อยาก	-0.5284677
-3.410575	<s> อยู่	-0.764878
-2.729334	<s> อย่า	0
-3.331393	<s> อย่าง	-0.5672979
-3.155302	<s> ออก	-0.7008541
-2.830791	<s> อะไร	-1.01322
-3.331393	<s> อะไรวอล	-0.763428
-3.109545	<s> อัน	-0.7403627
-2.456332	<s> อันดับ	-1.298589
-2.711605	<s> อันเดอร์วอเตอร์เวิล์ด	0
-2.662387	<s> อัพ	-0.2092596
-2.662387	<s> อาจารย์	-0.661936
-2.401975	<s> อาทิตย์	-0.7249059
-3.410575	<s> อาบ	0.30103
-2.466092	<s> อาหาร	-1.225772
-3.410575	<s> อาหารบูด	-0.6268836
-3.410575	<s> อาหารเสีย	-0.6268836
-3.632424	<s> อี	-0.5314789
-1.951182	<s> อีก	-0.6412423
-3.109545	<s> อุ้ม	0
-3.331393	<s> อเมซอน	-0.60206
-3.109545	<s> อเมริกาโน่	0
-2.933454	<s> อ่าน	-1.041393
-1.988971	<s> เกม	-0.6881847
-2.854272	<s> เกรด	0
-3.030364	<s> เกาเหลา	0
-3.410575	<s> เกี่ยว	-0.7168816
-2.905425	<s> เก็บ	-0.7242201
-3.109545	<s> เก้า	-0.5630358
-3.410575	<s> เก๊าท์	0
-2.995601	<s> เข้า	-0.7820116
-3.030364	<s> เครป	0
-2.767122	<s> เคลียร์	0
-3.410575	<s> เคล็ดลับ	0
-3.507485	<s> เจน	0
-3.331393	<s> เจฟเฟอร์	-0.60206
-2.905425	<s> เจ็ด	-0.5915945
-3.410575	<s> เจ้าของ	-0.7017629
-3.331393	<s> เจ้าหน้าที่	0
-3.410575	<s> เชอร์รี่	-0.6268836
-2.51848	<s> เช็ค	-0.1886077
-3.206455	<s> เช้า	-0.9023247
-3.331393	<s> เซงเซียมอี๊	0
-2.808515	<s> เซ็ต	0
-1.933454	<s> เดิน	-0.1867941
-2.428303	<s> เดือน	-0.6197889
-2.933454	<s> เตรียม	0
-3.410575	<s> เตาถ่าน	-0.6368221
-3.109545	<s> เตาแก๊ส	0
-2.632424	<s> เติม	-0.8796088
-2.854272	<s> เตือน	-0.5529315
-3.410575	<s> เทค	0
-2.632424	<s> เทอม	-0.9115781
-3.068152	<s> เที่ยง	-1.024512
-3.507485	<s> เท่าไร	-0.6741464
-3.410575	<s> เนื้อปลา	-0.544068
-3.109545	<s> เนื้อหมู	-0.544068
-3.109545	<s> เนื้อไก่	-0.544068
-3.410575	<s> เบาหวาน	0
-2.290001	<s> เบี้ย	0.1350895
-1.930568	<s> เปลี่ยน	-0.6187794
-1.745933	<s> เปิด	-0.6229531
-3.030364	<s> เป็น	-0.7634974
-2.565477	<s> เผา	0
-2.632424	<s> เพจ	-1.166851
-3.410575	<s> เพชร	-0.7333389
-1.75161	<s> เพิ่ม	-0.620751
-2.711605	<s> เพื่อน	-1.359074
-2.270696	<s> เมนู	-0.9789023
-3.410575	<s> เมล็ด	0
-3.030364	<s> เมื่อ	-0.5247629
-3.410575	<s> เมื่อคืน	0.06694679
-3.264447	<s> เมื่อวาน	-0.4661259
-3.632424	<s> เยี่ยม	0
-2.963417	<s> เย็น	-0.607523
-2.787326	<s> เริ่ม	-0.4511855
-2.879096	<s> เรียก	-0.3941469
-2.662387	<s> เรียง	0
-2.553242	<s> เรือ	-0.5627503
-3.030364	<s> เลิก	-0.4149733
-2.185266	<s> เลือก	-0.4819203
-1.963417	<s> เลื่อน	0.002829296
-3.632424	<s> เล็ง	0
-2.296631	<s> เล่น	-0.6268336
-3.410575	<s> เสร็็จ	0
-3.109545	<s> เสาร์	-0.5785789
-3.331393	<s> เสือ	0
-3.109545	<s> เหลือ	-0.4156033
-2.879096	<s> เอซ	0.01494046
-3.030364	<s> เอด	-0.5854607
-3.507485	<s> เอส	-0.5371743
-3.109545	<s> เอสเปสโซ่	0
-1.842373	<s> เอา	-0.3709953
-3.331393	<s> เอเอสอาร์	0
-2.933454	<s> แก้ว	-0.6840523
-3.410575	<s> แก้ไข	0
-3.507485	<s> แคนเซิล	0
-2.879096	<s> แจ็ค	-0.3383542
-2.729334	<s> แจ้ง	0.1205739
-3.410575	<s> แตงกวา	-0.544068
-2.565477	<s> แตงโม	-0.1591528
-2.437447	<s> แถว	-0.5834377
-2.11391	<s> แนะนำ	-0.8465057
-2.808515	<s> แบน	0
-2.995601	<s> แปด	-0.3435585
-3.632424	<s> แพลนท์	0
-3.507485	<s> แย่ง	0
-3.410575	<s> แลก	0
-3.410575	<s> แลคโตส	0
-3.331393	<s> แล็บ	-0.69897
-2.206455	<s> แสดง	-0.7152071
-3.410575	<s> แหก	0
-2.854272	<s> แหม่ม	-0.1823402
-3.410575	<s> แอด	0
-3.410575	<s> แอร์	-0.7351166
-3.331393	<s> แฮรี่พอตเตอร์	-0.7311547
-1.644162	<s> โกวาจี	0.005361585
-3.331393	<s> โฆษณา	0
-3.030364	<s> โจมตี	-0.4670208
-3.331393	<s> โจ๊ก	0
-3.410575	<s> โซน	-0.704365
-3.410575	<s> โต๊ะ	-0.6268836
-3.331393	<s> โปรโมชัน	-0.7781513
-1.995601	<s> โพสต์	-0.8495072
-2.155302	<s> โฟธ	0
-3.410575	<s> โรคไต	0
-2.228731	<s> โรง	-0.8860567
-3.331393	<s> โรตี	0
-3.410575	<s> โรบัสต้า	0
-3.331393	<s> โลแกน	-0.60206
-3.206455	<s> โหลด	-0.7867514
-2.165062	<s> ใคร	-0.7178552
-3.410575	<s> ใช่	-0.7497559
-2.419349	<s> ใช้	-1.145922
-2.729334	<s> ใน	-0.7508281
-2.830791	<s> ใส่	-0.5511012
-2.647147	<s> ให้	-0.9681022
-2.393542	<s> ไข่	-0.6491984
-3.410575	<s> ไข่ยางมะตูม	-0.544068
-3.410575	<s> ไข่ลวก	-0.6766936
-3.410575	<s> ไข่เจียว	-0.7112045
-3.109545	<s> ได้	-0.7712793
-2.565477	<s> ไตเติ้ล	-0.1591528
-2.338693	<s> ไป	-0.8085505
-3.155302	<s> ไฟ	-0.7073624
-3.331393	<s> ไฟนอล	0
-2.180126	<s> ไม่	-0.7685906
-3.410575	<s> ไม่ใช่	0
-2.854272	<s> ไอติม	-0.39794
-3.331393	<s> ไอรอนแมน	0
-0.9542425	กด ข้าม	-0.5026754
-0.6532125	กด ติดตาม	0
-0.9542425	กด สับ	-0.8081145
-0.9542425	กด สับตะไคร้	0
-1.380211	กด ออก	-0.5761243
-1.380211	กด แท็บ	0
-0.7781513	กด โอ	-0.567691
-1.079181	กด ไว้	0
-0.09691001	กรอบ ที	0.2118068
-0.03476211	กระ โดด	0
-1.10721	กระจาย </s>
-1.10721	กระจาย ทำ	-0.7568371
-1.10721	กระจาย ทำยังไง	0.6368221
-1.10721	กระจาย บ่อย	0.6368221
-0.6300887	กระจาย มี	-0.7671102
-1.10721	กระจาย รสชาติ	0.6368221
-1.10721	กระจาย ล่าสุด	-0.3521825
-1.10721	กระจาย เปรี้ยว	-0.5149098
-1.10721	กระจาย ใช้	-0.7404938
-0.07918125	กระถาง หลัง	-0.7593477
-0.2710668	กระทะ </s>
-0.748188	กระทะ ทำ	-0.7697507
-0.748188	กระทะ แก้	-0.544068
-0.1249387	กระสุน </s>
-0.6627578	กระเทียม </s>
-0.7596679	กระเทียม ต้อง	-0.6163351
-0.6627578	กระเทียม ยัง	-0.1988874
-0.6627578	กระเทียม เจียว	-0.6490566
-0.02802872	กระเป๋า </s>
-0.03476211	กระแส ตอบ	-0.6368221
-0.01848341	กระโดด ไป	-0.6627792
-0.07918125	กรุงศรี อยู่	-0.6449028
-0.4191293	กรุงเทพ </s>
-0.6232493	กรุงเทพ สี่	-0.7687709
-0.6232493	กรุงเทพ อยู่	-0.6449028
-0.07918125	กรุงไทย ห้า	-0.774404
-0.1249387	กล เบา	0
-0.1249387	กลม </s>
-0.9120448	กลับ บีทีเอส	0
-1.213075	กลับ บ้าน	-0.346057
-1.088136	กลับ มา	-0.6901065
-1.088136	กลับ ออก	-0.6594614
-0.9120448	กลับ เอมอาที	0
-0.3891661	กลับ ไป	-1.013004
-0.3881802	กลาง </s>
-0.7403627	กลาง ตอน	-0.6815959
-0.5642715	กลาง ว่าง	-0.7646917
-0.09691001	กลางวัน หน่อย	0.1747103
-0.07918125	กล่องขายของ </s>
-0.3679768	กล้วย ปิ้ง	-0.7311547
-0.3679768	กล้วย ราคา	-0.6547663
-0.05115252	กล้าม ผู้ชาย	-0.69897
-0.5759572	กว่า กัน	-1.157587
-0.41961	กว่า จะ	-0.9615375
-1.149988	กว่า ร้อย	-0.9273009
-1.274927	กว่า สอง	-0.5955209
-1.575957	กว่า สาม	-0.590103
-1.354108	กว่า สี่	-0.7734864
-1.575957	กว่า หนึ่ง	-0.5871
-1.575957	กว่า ห้า	-0.5822118
-1.575957	กว่า แปด	-0.5939421
-0.3802112	กสิกร หมื่น	-0.1180993
-0.3802112	กสิกร อยู่	-0.6449028
-1.30103	กะเพรา ที	0.2118068
-1.30103	กะเพรา ยังไง	1.164353
-1.30103	กะเพรา หมูสับ	-0.5740313
-1.30103	กะเพรา ใช้	-0.6691098
-0.132238	กะเพรา ไก่	-0.4327912
-0.06694679	กัญชา </s>
-0.2705818	กัน </s>
-1.474702	กัน ก็ได้	-0.4405274
-1.474702	กัน สำหรับ	-0.8222352
-1.349763	กัน หนาว	-0.8140638
-1.173672	กัน อย่างน้อย	0
-2.252853	กัน อาบน้ำ
-1.048733	กัน เถอะ	-0.6283889
-0.9975805	กัน เอง	-0.3332147
-1.775732	กัน แน่	0
-1.775732	กัน ไหม	0.8352207
-1.617	กับ ข้าว	-0.7628036
-1.71391	กับ คน	-0.6943251
-1.31597	กับ คริส	-0.7474245
-1.01494	กับ ช่อง	-0.9862198
-1.537819	กับ ซอบิงโก	0
-1.31597	กับ ปอนด์	-0.7474245
-1.617	กับ ผู้จัดการ	0
-1.31597	กับ พล	-0.7474245
-1.71391	กับ พุธ	-0.6585413
-1.537819	กับ มันฝรั่ง	0
-1.236789	กับ ร้าน	-0.8318698
-1.537819	กับ ลา	-0.5540523
-1.537819	กับ ส้ม	0.2688453
-1.537819	กับ หมอ	-0.4707811
-0.9180303	กับ อะไร	-1.346709
-1.537819	กับ เพลง	-0.60206
-1.838849	กับ เพื่อน	-0.5389427
-1.31597	กับ แตงโม	-0.7474245
-1.537819	กับ ใคร	-0.8016323
-1.31597	กับ ไข่ดาว	-0.525426
-1.617	กับ ไข่เจียว	-0.7112045
-1.31597	กับ ไตเติ้ล	-0.7474245
-0.07918125	กับข้าว เหลือ	-0.5010334
-0.3399481	กางเกง ขา	0
-0.640978	กางเกง ยีนส์	0
-0.640978	กางเกง ออก	-0.5996932
-0.05115252	กางเกงยีน </s>
-1.273001	การ จำ	0
-0.6709413	การ ดู	-0.9376168
-0.5740313	การ ทำ	-0.7435279
-1.273001	การ มัน	-0.5978091
-0.8750613	การ ส่าย	0
-1.273001	การ หลบหลีก	0
-1.273001	การ แจ้ง	0.819544
-1.176091	การ ใช้	-0.717886
-0.9378521	การบ้าน กี่	-0.8413595
-0.9378521	การบ้าน วัน	-0.7749355
-0.3357921	การบ้าน อะไร	-1.382565
-0.6368221	การบ้าน เยอะ	-0.6834365
-0.01703334	การเชื่อมต่อ บ้าง	0.5993671
-0.07918125	การ์ด </s>
-0.9852768	กาแฟ กี่	-0.8375884
-0.763428	กาแฟ คั่ว	-0.3521825
-1.064458	กาแฟ อร่อย	-0.7382798
-1.064458	กาแฟ อะไร	-0.5357993
-1.064458	กาแฟ เย็น	-0.7497559
-1.064458	กาแฟ แก้ว	-0.7177354
-1.286307	กาแฟ แบบ	-0.5486584
-1.064458	กาแฟ ใกล้	-0.7090703
-1.064458	กาแฟ ไม่	-0.7589598
-0.06694679	กำกับ เรื่อง	-0.8160266
-0.6766936	กำลัง ลด	-0.8756857
-1.102662	กำลัง ฮิต	0
-0.6766936	กำลัง เซลล์	0
-0.4036923	กำลัง เล่น	-1.073546
-0.1249387	กิจกรรม พรุ่งนี้	-0.5976208
-1.304634	กิน </s>
-1.684845	กิน กะเพรา	-0.460522
-1.985875	กิน กาแฟ	-0.7389991
-1.342423	กิน ข้าว	-0.4607308
-1.985875	กิน ข้าวกะเพรา	-0.6927211
-1.362626	กิน ควีน	-1.231408
-1.985875	กิน คัทสึด้ง	0
-1.605664	กิน ชาบู	-0.6802878
-1.985875	กิน ชาเขียว	-0.544068
-2.082785	กิน ดี	-0.2655773
-1.985875	กิน ต้ม	-0.7464368
-1.985875	กิน ต้มยำ	0.2028255
-1.166331	กิน บิชอป	0.433656
-2.082785	กิน บ้าง	1.31537
-1.684845	กิน ปลาหมึก	0.7067953
-1.906694	กิน ผัด	-0.830935
-1.304634	กิน ม้า	0.2571246
-2.082785	กิน ยา	-0.5026754
-1.985875	กิน ราดหน้า	-0.6766936
-1.605664	กิน สเต็ก	-1.033537
-0.725804	กิน อะไร	-1.371182
-1.323117	กิน อาหาร	-0.7914729
-1.906694	กิน ฮาจิบัง	-0.60206
-1.906694	กิน เคเอฟซี	0
-1.985875	กิน เบอร์เกอร์	-0.544068
-1.253482	กิน เบี้ย	-0.1510147
-1.253482	กิน เรือ	-0.4453648
-1.985875	กิน เส้นเล็ก	-0.3928004
-1.985875	กิน แก้	-0.544068
-1.730603	กิน ไก่	-0.7103994
-1.684845	กิน ไข่	-0.8540932
-1.985875	กิน ได้	-0.7747289
-1.985875	กิน ไป	-0.7702277
-1.985875	กิน ไหม	0.6591294
-0.5740313	กินข้าว ตอนเที่ยง	0
-0.5740313	กินข้าว วัน	-0.675568
-0.5740313	กินข้าว วันนี้	-0.6701664
-0.07918125	กิโลแคลอรี่ </s>
-0.1249387	กิ๊ก บ้าง	1.41228
-0.07918125	กีฬา ได้	-0.7389348
-2.066947	กี่ ข้อ	0
-0.7447275	กี่ คน	-1.60206
-2.066947	กี่ ครั้ง	-0.6621674
-2.243038	กี่ งาน	-0.6553894
-2.367977	กี่ ชั่วโมง	-0.5947608
-2.146128	กี่ ชั้น	-0.7546701
-2.146128	กี่ ช้อนชา	0
-1.669007	กี่ ดาว	-0.8347355
-2.066947	กี่ ตัว	-0.1219944
-1.765917	กี่ ที่	-1.111016
-1.942008	กี่ นัด	-0.9371482
-0.8037053	กี่ นาที	-0.8042499
-1.430125	กี่ บาท	-0.7831433
-2.066947	กี่ ปี	-0.7607772
-2.146128	กี่ มิลลิลิตร	0
-1.765917	กี่ ร้าน	-1.102205
-1.30103	กี่ วัน	-1.222205
-2.066947	กี่ วิชา	-0.8246569
-2.066947	กี่ สาขา	-0.60206
-2.146128	กี่ องศา	0
-2.066947	กี่ เปอร์เซ็นต์	0
-2.146128	กี่ เยน	0
-1.502675	กี่ แคลอรี่	-0.8911909
-0.5228788	กี่ โมง	-1.337786
-1.447158	กี่ ใบ	-1.208213
-0.01703334	กี่คน </s>
-0.08940041	กี่โมง </s>
-0.8553172	กี่โมง ดี	-0.4117053
-0.1249387	กุมภา มี	-0.5883676
-1.054358	กุ้ง </s>
-1.531479	กุ้ง กี่	-0.7039052
-1.230449	กุ้ง ทำ	-1.020079
-1.230449	กุ้ง ทำยังไง	0.3735807
-1.531479	กุ้ง น้ำข้น	0
-1.230449	กุ้ง บ่อย	0.3735807
-0.6863809	กุ้ง มี	-0.8484546
-1.230449	กุ้ง รสชาติ	0.3735807
-1.230449	กุ้ง ล่าสุด	-0.615424
-1.531479	กุ้ง หนึ่ง	-0.7476976
-1.230449	กุ้ง หวาน	-0.9863451
-1.531479	กุ้ง เพิ่ม	-0.7668409
-1.054358	กุ้ง ใช้	-0.8590924
-1.531479	กุ้ง ไม่	-0.7718479
-1.531479	กุ้ง ไหม	0.6591294
-0.07918125	กุ้งสับ สาม	-0.6347895
-0.0211893	กู้ เงิน	-0.9377838
-0.02227639	ก็ ได้	-0.9729248
-0.09691001	ก็อท อิท	0
-0.2174839	ก็ได้ </s>
-0.7403627	ก็ได้ นะ	-0.0202034
-0.916454	ก็ได้ หน่อย	0.1747103
-0.8653014	ก่อน ซัก	-0.60206
-1.041393	ก่อน บ้าง	1.31537
-0.8653014	ก่อน สอง	-0.8324771
-0.6434527	ก่อน หน้า	-0.9816245
-0.8653014	ก่อน เรียน	-0.8125107
-0.8653014	ก่อน ได้	-0.8368386
-0.07918125	ก่อนหน้า </s>
-0.9120448	ก๋วยเตี๋ยว กัญชา	0
-0.9120448	ก๋วยเตี๋ยว ที่	-0.8362547
-0.9120448	ก๋วยเตี๋ยว รอบ	-0.7644421
-0.9120448	ก๋วยเตี๋ยว รุจิศรี	0
-0.9120448	ก๋วยเตี๋ยว อด	0
-0.9120448	ก๋วยเตี๋ยว เรือ	-0.8103359
-0.9120448	ก๋วยเตี๋ยว ใน	-0.7855902
-0.763428	ขนม ปัง	0
-0.6842467	ขนม หวาน	-0.8129134
-0.2863067	ขนม อะไร	-1.183377
-0.02802872	ขนมหวาน ที่	-1.195277
-0.5228788	ขนาด นั้น	-0.69897
-0.8239087	ขนาด เล็ก	-0.4973246
-0.39794	ขนาด เสื้อผ้า	-0.7579479
-0.07918125	ขยะ กี่	-0.762357
-0.09691001	ขยาย หน้าจอ	-0.5463598
-0.5797836	ขวด </s>
-0.5006024	ขวด ละ	-0.7715207
-0.5797836	ขวด หนึ่ง	-0.6074187
-0.2632414	ขวัญ เรื่อง	-0.6658711
-0.5642715	ขวัญ ไหม	0.8352207
-0.4607309	ขวา </s>
-1.511883	ขวา ซ้าย	-0.6720284
-1.159701	ขวา บน	-0.5359638
-1.159701	ขวา ล่าง	-0.3979399
-1.113943	ขวา สอง	-0.9104636
-1.113943	ขวา สาม	-0.8980309
-1.072551	ขวา สี่	-0.6491725
-1	ขวา หนึ่ง	-0.6734827
-1.414973	ขวา ห้า	-0.6917467
-1.511883	ขวา เอ	-0.6399921
-0.04139268	ขวาน </s>
-2.189209	ขอ กาแฟ	-0.7389991
-2.110028	ขอ ข้อมูล	-0.6901961
-2.189209	ขอ ข้าว	-0.7468936
-1.58715	ขอ ข้าวกะเพรา	-0.4973246
-1.88818	ขอ ข้าวผัด	-0.6268836
-1.88818	ขอ ข้าวมันไก่	0
-2.189209	ขอ ข้าวเปล่า	0
-2.189209	ขอ ข้าวเปล่่า	0
-2.189209	ขอ ข้าวไข่ดาว	-0.544068
-2.286119	ขอ ความยาว	-0.4771212
-2.189209	ขอ คัตสึด้ง	0
-2.189209	ขอ คิสึเนะอุด้ง	-0.544068
-2.411058	ขอ งีบ	0
-2.189209	ขอ ชาเขียว	-0.544068
-1.98509	ขอ ชื่อ	-0.6611814
-0.850753	ขอ ดู	-0.8869453
-2.189209	ขอ ต้มยำ	-0.7444682
-2.189209	ขอ นม	-0.6268836
-1.441021	ขอ นอน	-0.4510092
-2.189209	ขอ น้ำจิ้ม	0.2632414
-2.189209	ขอ น้ำตาล	-0.5149098
-2.189209	ขอ น้ำเปล่า	-0.544068
-1.88818	ขอ น้ำแข็ง	-0.544068
-2.189209	ขอ บะหมี่	-0.3928004
-2.189209	ขอ ประวัติ	0
-2.189209	ขอ พริกน้ำปลา	-0.544068
-2.411058	ขอ พัก	0
-2.110028	ขอ พิกัด	0
-1.632907	ขอ รอบ	-1.232177
-2.189209	ขอ ราดหน้า	-0.6766936
-1.411058	ขอ ราย	0.04011723
-2.110028	ขอ รายชื่อ	0
-2.189209	ขอ ร้อง	-0.6455257
-2.189209	ขอ วิปครีม	-0.544068
-2.189209	ขอ สปาเก็ตตี้	-0.3928004
-1.98509	ขอ สอง	-0.9498941
-1.98509	ขอ สาม	-0.9486566
-1.58715	ขอ สูตร	0
-1.712088	ขอ สเต็ก	-0.675081
-1.98509	ขอ หนึ่ง	-0.9503033
-2.189209	ขอ หลอด	0
-2.189209	ขอ อะไร	-0.7750503
-2.189209	ขอ อันดับ	-0.7412899
-1.383029	ขอ อีก	-0.5157663
-2.189209	ขอ เกี้ยว	-0.544068
-2.189209	ขอ เครื่องปรุง	-0.544068
-2.286119	ขอ เดิน	-0.6884412
-2.189209	ขอ เทมปุระด้ง	0
-1.846787	ขอ เบอร์	0
-2.189209	ขอ เบอร์เกอร์	-0.544068
-2.189209	ขอ เปลี่ยน	-0.7672113
-2.189209	ขอ เป็ปซี่	0
-2.189209	ขอ เพิ่ม	-0.7725329
-1.286119	ขอ เมนู	-0.9344984
-1.808998	ขอ เรื่อง	-1.09478
-1.808998	ขอ เส้น	-0.6802878
-2.189209	ขอ เส้นเล็ก	-0.3928004
-2.189209	ขอ เหมือน	-0.7150995
-1.49024	ขอ เอส	-1.253178
-2.189209	ขอ แบบ	-0.7598239
-2.189209	ขอ แผนที่	-0.6927211
-2.189209	ขอ แสง	0
-1.808998	ขอ โปรโมชัน	-0.69897
-2.110028	ขอ ใบ	-0.8037053
-2.189209	ขอ ไข่ต้ม	-0.6368221
-1.383029	ขอ ไซส์	-0.4149736
-2.189209	ขอ ไฟ	-0.7216699
-2.286119	ขอ ไม่	-0.6939346
-1.273233	ของ </s>
-1.972203	ของ กิน	-0.7736414
-1.671173	ของ คริส	-0.4077948
-1.273233	ของ ค่าย	0
-2.069113	ของ จาก	-0.6937688
-0.7266902	ของ ฉัน	-1.238812
-2.069113	ของ ชิ้น	-0.6655462
-1.768083	ของ ตอน	-0.9368684
-1.495082	ของ ที่	-1.183708
-1.671173	ของ ปอนด์	-0.4077948
-1.972203	ของ ปาล์ม	-0.4449366
-2.069113	ของ พรุ่งนี้	-0.693041
-1.671173	ของ พล	-0.4077948
-2.069113	ของ มะรืน	0.6812412
-1.671173	ของ มา	-0.9951475
-1.972203	ของ รึ	-0.6812412
-2.069113	ของ ร้านค้า	0.4149733
-1.467053	ของ วัน	-0.7038314
-2.069113	ของ วันนี้	-0.6895795
-1.893022	ของ สตาร์วอร์	-0.6947122
-2.194052	ของ สัปดาห์	-0.4372497
-1.972203	ของ หวาน	-0.7514991
-1.972203	ของ หาย	0
-1.972203	ของ อาม	-0.2808266
-1.972203	ของ อาหารบูด	-0.3928004
-1.972203	ของ อาหารเสีย	-0.3928004
-2.069113	ของ เก้า	-0.6170659
-1.768083	ของ เข้า	-0.9015362
-1.972203	ของ เต็ม	-0.6268836
-1.972203	ของ เต๋อ	-0.2808266
-1.768083	ของ เพื่อน	-0.9007232
-2.069113	ของ เมื่อวาน	-0.60206
-1.893022	ของ เรื่อง	-0.8259349
-1.893022	ของ เอส	-0.7905123
-1.671173	ของ แตงโม	-0.4077948
-1.893022	ของ แฮรี่พอตเตอร์	-0.3332147
-1.972203	ของ โบ๊ท	-0.4449366
-1.495082	ของ โพสต์	-0.6600519
-1.893022	ของ โรงหนัง	0
-1.972203	ของ โรนัน	-0.2808266
-1.309445	ของ ใน	-0.8691363
-1.671173	ของ ได้	-0.730648
-1.671173	ของ ไตเติ้ล	-0.4077948
-0.07918125	ของขวัญ ได้	-0.7389348
-0.07918125	ของหวาน หน่อย	0.0955291
-0.09691001	ขอบ ฟ้า	-0.5228788
-0.07918125	ขอบคุณ มาก	-0.7281772
-0.07918125	ขอโทษ นะ	-0.7707018
-0.763428	ขั้น ก่อนหน้า	0
-0.6173	ขั้น ตอน	-0.6431623
-0.9852768	ขั้น ต่อ	-0.4833702
-0.763428	ขั้น ต่อไป	-0.5850266
-0.860338	ขั้น ถัด	0.6232493
-0.0211893	ขั้นตอน แรก	-1.240033
-0.3521825	ขา ยาว	-0.9046837
-0.3521825	ขา สั้น	0
-1.494155	ขาย ของ	-0.7543614
-1.414973	ขาย ข้าวโพด	0
-0.8920946	ขาย ช่อง	-0.9862198
-1.494155	ขาย ดี	-0.7688512
-1.414973	ขาย ด้วย	-0.8289113
-1.494155	ขาย ตับ	0
-1.414973	ขาย ที่	-0.8362547
-1.414973	ขาย ทุก	-0.5521859
-1.414973	ขาย น้ำ	-0.8283923
-1.193125	ขาย บ้าน	-0.7853897
-1.414973	ขาย ปืน	-0.6802878
-1.414973	ขาย ผลไม้	-0.60206
-1.414973	ขาย ยัง	-0.2658342
-1.494155	ขาย รถ	-0.7410094
-1.414973	ขาย อะไร	-0.6027461
-1.494155	ขาย เรือ	-0.7493795
-1.494155	ขาย แลนด์มาร์ค	-0.6154239
-1.494155	ขาย โฉนด	0.2632414
-1.494155	ขาย โรงแรม	0.2632414
-1.494155	ขาย ไต	0
-1.414973	ขาย ไม้	0
-0.07918125	ขาว </s>
-0.06694679	ขี้เกียจ สระ	0.4336556
-0.3405385	ขึ้น </s>
-1.060698	ขึ้น ขึ้น	-0.6594614
-1.060698	ขึ้น ข้าง	-0.6806812
-1.060698	ขึ้น ลง	-0.6806812
-0.7596679	ขึ้น ไป	-0.9502988
-0.1249387	ขึ้วา </s>
-0.02802872	ขุด ดิน	-0.3521825
-0.544068	ขโมย ของ	-0.7679492
-0.2296741	ขโมย เงิน	-0.6451614
-1.146128	ขโมย ไอเทม	-0.6754889
-0.03476211	ข่ายงาน คอมพิวเตอร์	-0.7160034
-0.07918125	ข่าว จัง	-0.3269657
-0.06694679	ข้อ </s>
-0.5228788	ข้อมูล จาก	-0.8372727
-0.60206	ข้อมูล ที่ดิน	0
-0.5228788	ข้อมูล หนัง	-0.8421268
-0.06694679	ข้อสอบ วิชา	-0.7920695
-1.20862	ข้าง ข้าง	-0.8173677
-1.384712	ข้าง บน	-0.6560418
-1.20862	ข้าง มั้ย	1.453755
-1.384712	ข้าง ล่าง	-0.60206
-0.41857	ข้าง หน้า	-0.7884513
-0.5554079	ข้าง หลัง	-0.4901727
-1.20862	ข้าง แอม	0
-0.09691001	ข้าพเจ้า มี	-0.6957869
-0.30103	ข้าม </s>
-0.7403627	ข้าม ติวโตเรียล	0
-0.7403627	ข้าม ไป	-0.6970026
-1.255273	ข้าว </s>
-1.556303	ข้าว กี่	-0.6939781
-0.3590219	ข้าว ผัด	-1.333463
-0.90309	ข้าว มัน	-1.163115
-1.158363	ข้าว ยัง	-0.4621289
-1.459392	ข้าว หน้า	-0.7719023
-1.079181	ข้าว หมู	-1.048677
-1.459392	ข้าว อะไร	-0.752337
-1.158363	ข้าว ไข่เจียว	-0.6320232
-0.748188	ข้าวกะเพรา กับ	-0.7566471
-0.748188	ข้าวกะเพรา หมู	-0.7521378
-0.2710668	ข้าวกะเพรา หมูสับ	-0.6547178
-0.7075702	ข้าวผัด </s>
-0.7075702	ข้าวผัด กุ้ง	-0.7518224
-1.0086	ข้าวผัด ทำ	-0.7577101
-1.0086	ข้าวผัด ปู	0
-0.7075702	ข้าวผัด หมู	-0.7244664
-1.0086	ข้าวผัด เก็บ	-0.6790198
-0.06694679	ข้าวมัน ไก่	-0.8116743
-0.3802112	ข้าวมันไก่ พิเศษ	-0.7459666
-0.3802112	ข้าวมันไก่ สอง	-0.7727089
-0.2659306	ข้าวหลามตัด </s>
-0.9956352	ข้าวหลามตัด ดอกจิก	-0.4393326
-0.615424	ข้าวหลามตัด โพธิ์ดำ	-0.6397271
-0.9956352	ข้าวหลามตัด โพธิ์แดง	-0.6636118
-0.07918125	ข้าวเปล่า หนึ่ง	-0.7476976
-0.07918125	ข้าวเปล่่า เพิ่ม	-0.755228
-0.5314789	ข้าวเหนียว </s>
-0.2304489	ข้าวเหนียว ยัง	-0.4621289
-0.06694679	ข้าวโพด คลุก	0
-0.3802112	ข้าวไข่ดาว สุกๆ	0.2632414
-0.3802112	ข้าวไข่ดาว ไม่สุก	0.2632414
-0.7659168	คณะ บัญชี	0.1549019
-0.2218488	คณะ วิศวะ	-0.5953149
-1.066947	คณะ อักษร	-0.447158
-1.066947	คณะ แพทย์	0
-0.4448541	คน </s>
-1.575188	คน ก่อน	-0.9294189
-1.797037	คน ข้าง	-0.8173677
-1.973128	คน ดี	-0.691546
-1.399097	คน ถูกใจ	-1.012234
-1.797037	คน ที่	-0.8312627
-1.797037	คน นั่ง	-0.8205088
-1.973128	คน นี้	-0.6402715
-1.876218	คน พิการ	0
-1.797037	คน มั้ย	1.453755
-1.797037	คน ร้อง	-0.4114425
-1.876218	คน สอง	-0.7705127
-1.876218	คน สาม	-0.7746685
-1.876218	คน สี่	-0.7734864
-1.399097	คน อยู่	-0.8670475
-2.098067	คน เดียว	0
-1.876218	คน เต็ม	-0.3928004
-1.876218	คน เยอะ	-0.6647944
-1.399097	คน แชร์	0
-1.797037	คน แล้ว	-0.4992557
-0.9219753	คน แสดง	-1.188028
-2.098067	คน ไม่	-0.5789264
-1.070038	คน ไหน	-1.039103
-1.876218	คน ไหม	0.6591294
-0.04575749	คนป่วย </s>
-0.04139268	คนแก่ </s>
-0.04139268	คนไม่สบาย </s>
-0.07918125	ครับ </s>
-0.4637573	ครั้ง </s>
-1.028029	ครั้ง ต่อ	-0.4833702
-0.90309	ครั้ง ถ้า	0
-0.7269987	ครั้ง ที่แล้ว	-0.544068
-1.028029	ครั้ง หน้า	-0.5983214
-0.1249387	คราว ที่	-0.5986423
-1.08636	คริส คือ	-0.7128189
-1.08636	คริส ชอบ	-0.5491239
-1.08636	คริส ถูกใจ	-0.3853509
-0.3082086	คริส มี	-0.8440489
-1.08636	คริส เรียน	-0.7321999
-1.08636	คริส ใช้	-0.7404938
-0.06694679	ครีมเมอรี่ มี	-0.8439071
-0.7841416	ครึ่ง </s>
-1.386202	ครึ่ง ชั่ว	0
-0.4161648	ครึ่ง ชั่วโมง	-0.7675682
-1.687232	ครึ่ง ต้อง	-0.5955617
-0.6080503	ครึ่ง นะ	0.2865038
-1.386202	ครึ่ง หน่อย	-0.8014867
-1.562293	ครึ่ง เป็น	-0.6908521
-1.687232	ครึ่ง เรียก	-0.5413622
-0.06694679	คลุก เนย	0
-0.30103	คล้าย กัน	-0.6204676
-0.4259687	คล้าย กับ	-0.8323237
-0.1702617	ควร กิน	-1.324521
-0.9661418	ควร นอน	-0.6665449
-0.8692317	ควร ลวก	-0.6268836
-0.1249387	ควัน </s>
-1.224015	ความ ประสงค์	0
-0.7468936	ความ ยาว	-0.5607737
-0.5250448	ความ สว่าง	-0.4973245
-0.8260748	ความ สะอาด	0
-1.127105	ความ อ้วน	0
-0.8260748	ความ เย็น	-0.8339617
-0.6232493	ความคิดเห็น กี่	-1.117934
-0.3222193	ความคิดเห็น ที่	-0.9293905
-0.6232493	ความคิดเห็น อะไร	-0.961768
-0.39794	ความยาว วิดีโอ	-0.659906
-0.39794	ความยาว เท่าไหร่	0.7853299
-0.2471546	ความรู้สึก กี่	-1.405176
-1.025306	ความรู้สึก ต่อ	-0.7621238
-0.5481846	ความรู้สึก บ้าง	0.8102205
-0.01703334	ความสัมพันธ์ อะไร	-1.172621
-1.249198	ความเร็ว </s>
-1.249198	ความเร็ว บวก	0.6232493
-0.0731071	ความเร็ว วีดีโอ	-1.053374
-0.04139268	ความแรง น้ำ	-0.9334173
-0.6467304	ควีน </s>
-0.8016323	ควีน กิน	-0.5777007
-1.3457	ควีน ข้าวหลามตัด	-0.5058805
-1.04467	ควีน ดอกจิก	-0.6294982
-1.64673	ควีน สอง	-0.4711309
-1.64673	ควีน สาม	-0.4586982
-1.64673	ควีน สี่	-0.4529522
-1.64673	ควีน ห้า	-0.5156554
-1.04467	ควีน โพธิ์ดำ	-0.3440096
-0.6467304	ควีน ไป	-0.7708938
-0.07918125	คอ หมู	-0.7521378
-0.5228788	คอมพิวเตอร์ ที่	-0.8436366
-0.2218488	คอมพิวเตอร์ หนึ่ง	-1.105029
-0.1249387	คะ แนน	0
-0.3424227	คะน้า หนึ่ง	-0.7476976
-0.4393327	คะน้า หมู	-0.6782854
-0.7047223	คะแนน กี่	-1.194713
-1.102662	คะแนน รีวิว	-0.6901961
-1.102662	คะแนน อย่างไร	-0.4860761
-1.102662	คะแนน เท่า	-0.4414057
-0.4828736	คะแนน เท่าไหร่	0.06932648
-0.8016323	คะแนน ไอ	-0.6802878
-0.07918125	คัตสึด้ง จาน	-0.6837785
-0.07918125	คัทสึด้ง </s>
-0.7269987	คั่ว กาแฟ	-0.5789947
-0.50515	คั่ว ระดับ	-0.7416344
-0.50515	คั่ว แบบ	-0.7247496
-0.09691001	คั้งค่า เสียง	-0.6648902
-0.3424227	คาปูชิโน่ </s>
-0.4393327	คาปูชิโน่ คือ	-0.5891318
-0.07918125	คาโบนาร่า ด้วย	-0.4084055
-0.0211893	คำนวณ แคลอรี่	-0.39794
-0.02632894	คำแนะนำ ใน	-1.179958
-1.071063	คิง </s>
-0.5939421	คิง กิน	-0.6678772
-1.247155	คิง ข้าวหลามตัด	-0.7245241
-1.247155	คิง ดอกจิก	-0.7325686
-1.247155	คิง เข้า	-0.8260748
-0.9461246	คิง โพธิ์ดำ	-0.6889451
-0.5067919	คิง ไป	-0.803102
-0.3802112	คิด ตังค์	0
-0.3802112	คิด เงิน	-0.760053
-0.07918125	คิดส์ซาเนีย อยู่	-0.6449028
-0.06694679	คิล บิล	-0.5762527
-0.03778856	คิว ยาว	-0.7633546
-0.09691001	คิวบิด ออก	-0.6594614
-0.3802112	คิสึเนะอุด้ง ชาม	-0.7244664
-0.3802112	คิสึเนะอุด้ง เพิ่ม	-0.7725329
-1.185637	คืน </s>
-1.060698	คืน ทุก	-0.4060579
-0.9637879	คืน นี้	-0.759644
-0.9637879	คืน มา	-0.7144822
-1.185637	คืน มี	-0.5883676
-0.3617278	คืน เงิน	-0.9377838
-1.553883	คือ กะเพรา	-0.1972805
-1.553883	คือ ข้าว	-0.5282738
-1.650793	คือ งาน	-0.5790939
-1.553883	คือ ต้มยำ	0.2028255
-0.854913	คือ นักแสดงนำ	0
-1.553883	คือ ปลาหมึก	0.9700368
-0.9975805	คือ วัน	-0.9247874
-0.854913	คือ วันที่	-1.00631
-0.650793	คือ อะไร	-1.544519
-1.173672	คือ แถว	-0.7834411
-0.9975805	คือ ใคร	-1.235288
-1.553883	คือ ไข่	-0.5908518
-0.79588	คุก </s>
-1.221849	คุก ด้วย	-0.2323142
-0.7447275	คุก มี	-0.5541165
-1.221849	คุก ราคา	-0.4117283
-1.221849	คุก ลง	-0.4413631
-1.221849	คุก อยู่	-0.5750951
-0.9208187	คุก เล่น	-0.5233583
-1.221849	คุก ได้	-0.5560752
-1.221849	คุก ไม่	-0.5828686
-0.09691001	คุกกี้ ทำนาย	0
-0.03476211	คุณภาพ วิดีโอ	-1.053945
-0.06694679	คุมสอบ ห้อง	-0.7279847
-0.9344984	คุย </s>
-0.9344984	คุย กับ	-0.7675323
-1.031408	คุย งาน	-0.6649348
-0.8553172	คุย ดี	-0.8339139
-0.3781959	คุย แบบ	-0.7751499
-1.168792	คู่ ควีน	-1.072877
-0.9927008	คู่ คิง	-0.733606
-1.168792	คู่ สอง	-1.104097
-0.9927008	คู่ สาม	-0.8149366
-1.469822	คู่ สิบ	-0.8310116
-0.9927008	คู่ สี่	-0.7981015
-1.168792	คู่ หก	-0.7990709
-1.469822	คู่ ห้า	-0.8360499
-1.469822	คู่ เก้า	-0.7549214
-1.469822	คู่ เจ็ด	-0.8040318
-0.9927008	คู่ เอซ	-0.5035735
-1.469822	คู่ เอด	-0.6901961
-1.469822	คู่ แจ็ค	-0.7311547
-1.168792	คู่ แปด	-1.08052
-1.469822	คู่ แหม่ม	-0.6294982
-0.03476211	ค่อย ปลุก	-1.084488
-0.07918125	ค่ะ </s>
-1.135663	ค่า </s>
-1.010724	ค่า การ	-0.6751671
-0.9138138	ค่า จอด	0.5642715
-0.5336026	ค่า สมัคร	-0.6802878
-0.9138138	ค่า ส่ง	-0.7611179
-0.8346326	ค่า เทอม	-0.7967933
-0.01703334	ค่าย ไหน	-1.155156
-0.09691001	ค่ำ หน่อย	0.1747103
-0.5118834	ค้นหา </s>
-0.9890046	ค้นหา กางเกงยีน	0
-0.9890046	ค้นหา ละ	-0.8530816
-0.9890046	ค้นหา เสื้อ	-0.8692317
-0.6879746	ค้นหา เสื้อผ้า	-0.757948
-0.9890046	ค้นหา แจ๊กเก็ต	0
-0.07918125	ค้อน </s>
-0.06694679	ฆ่า มัน	-0.3490377
-0.07918125	งง จัง	-0.3269657
-0.06694679	งด บ้าง	1.169242
-0.5228788	งบ ประมาณ	-0.9542425
-0.8239087	งบ สาม	-0.833141
-0.8239087	งบ หนึ่ง	-0.8301381
-0.5228788	งบ ห้า	-1.077374
-0.01703334	งบประมาณ เท่าไหร่	0.06932648
-1.0201	งาน </s>
-1.122762	งาน ตอน	-0.5958059
-1.25746	งาน ต่อไป	-0.60206
-1.696793	งาน บน	-0.5548809
-1.821732	งาน บ่าย	-0.4711309
-1.599883	งาน บ้าง	1.236189
-1.520702	งาน ประชุม	-0.748188
-1.821732	งาน พรุ่งนี้	-0.5603728
-1.520702	งาน มั้ย	1.453755
-1.122762	งาน วัน	-0.7308088
-1.344611	งาน วันนี้	-0.6208094
-1.696793	งาน วันศุกร์	-0.5228788
-1.821732	งาน หรือ	-0.400858
-1.696793	งาน หลัง	-0.6839929
-0.6176118	งาน อะไร	-0.6116351
-1.821732	งาน เจ็ด	-0.5426663
-1.821732	งาน เตือน	-0.4961019
-1.821732	งาน เที่ยง	-0.5526552
-1.520702	งาน เยอะ	-0.7317412
-1.696793	งาน แรก	-0.68373
-1.696793	งาน ใน	-0.6936412
-0.1249387	งีบ สัก	-0.4259687
-0.4149733	ง่วง </s>
-0.3357921	ง่วง จัง	-0.3939125
-0.1249387	ง่าย บ้าง	1.41228
-0.559308	จง ออก	-0.9147339
-0.860338	จง เดิน	-0.6435708
-0.763428	จง เปิด	-0.7727562
-0.559308	จง แสดง	-0.9354593
-1.0086	จดหมาย </s>
-0.4065402	จดหมาย มา	-0.6936738
-1.0086	จดหมาย ว่าง	-0.4950946
-1.0086	จดหมาย ส่ง	-0.7611179
-1.0086	จดหมาย เปล่า	0.9542425
-1.0086	จดหมาย ไหม	0.6591294
-0.01703334	จน กว่า	-1.206993
-0.2552725	จบ กี่	-0.8864908
-0.4771213	จบ ก่อน	-0.7814289
-0.06694679	จอ ที่	-0.8327663
-0.3357921	จอง ตั๋ว	-0.5532115
-0.8129134	จอง ที่	-0.8241761
-0.8920946	จอง ที่นั่ง	-0.6455257
-0.8129134	จอง ได้	-0.8368386
-0.02020339	จอด รถ	-0.6126101
-0.07918125	จอบ </s>
-1.332438	จะ จบ	-0.4929155
-1.332438	จะ ซื้อ	-0.7976734
-1.41162	จะ ตาย	-0.5672979
-1.633469	จะ ถึง	-0.5873367
-1.41162	จะ นอน	-0.7622412
-1.332438	จะ สอบ	-0.8182259
-1.11059	จะ สุก	-0.544068
-1.2075	จะ หา	-0.90309
-1.332438	จะ ออก	-0.4905488
-1.332438	จะ เที่ยง	-0.7631058
-1.031408	จะ แปด	-0.9087497
-1.50853	จะ โจมตี	-0.634512
-0.5791108	จะ ได้	-0.7440451
-1.50853	จะ ไป	-0.6970026
-0.1896641	จัง </s>
-1.113943	จัง ปิด	-0.7595091
-0.6368221	จัง เลย	-0.20412
-0.845098	จัด การ	-0.6751671
-0.447158	จัด งาน	-0.9215165
-0.6690068	จัด ที่	-0.7810192
-0.845098	จัด หน่อย	0.1747103
-0.4259687	จัดการ </s>
-0.4259687	จัดการ เลย	0.39794
-0.8538719	จันทร์ </s>
-1.09691	จันทร์ กับ	-0.6904957
-1.09691	จันทร์ ถึง	-0.6638056
-0.9208187	จันทร์ ที่	-0.8419253
-1.09691	จันทร์ นี้	-0.6402715
-0.9208187	จันทร์ พุธ	-0.7829502
-0.8538719	จันทร์ มี	-0.8920488
-1.09691	จันทร์ แปด	-0.4937764
-0.01296498	จับ เวลา	-0.6735449
-0.1249387	จััดการ มัน	-0.4864213
-0.3802112	จั่ว การ์ด	0
-0.3802112	จั่ว ไอเทม	-0.6532125
-0.0234811	จั้ม ฟอส	-0.2804229
-0.4259687	จั้มฟอส มี	-0.560707
-0.4259687	จั้มฟอส อยู่	-0.5750951
-0.02802872	จั๊ม ฟอส	-0.2903061
-1.827369	จาก กระทะ	-0.4449366
-1.623249	จาก กรุงเทพ	-0.7459666
-0.7781513	จาก ตะกร้า	-0.7691031
-1.623249	จาก ถูก	-0.8897845
-1.827369	จาก ทักษิณ	0
-1.748188	จาก ที่ไหน	-0.7579479
-1.049218	จาก ธนาคาร	-0.3521826
-1.623249	จาก นนทบุรี	0
-2.049218	จาก บ่าย	-0.4289332
-1.572097	จาก บ้าน	-0.9658457
-1.623249	จาก ปทุมธานี	0
-1.827369	จาก ประยุทธ์	0
-1.128399	จาก ประเทศ	0
-1.350248	จาก ปาล์ม	-0.3853509
-1.748188	จาก ฟ้า	-0.544068
-1.225309	จาก รายการ	-0.6527927
-1.924279	จาก ร้านค้า	0.4149733
-2.049218	จาก วัน	-0.5861075
-1.924279	จาก วิดีโอ	-0.679877
-1.623249	จาก สมุทรปราการ	0
-1.827369	จาก อาจารย์	-0.6272768
-1.526339	จาก อาม	-0.544068
-1.526339	จาก เต๋อ	-0.544068
-1.623249	จาก แพง	-0.7867514
-1.350248	จาก โบ๊ท	-0.3853509
-1.526339	จาก โรนัน	-0.544068
-1.350248	จาก ไมโครเวฟ	-0.9294189
-0.09691001	จากนี้ มี	-0.6852776
-0.20412	จาน </s>
-0.80618	จาน นึง	-0.9754318
-0.7092699	จาน หนึ่ง	-1.244241
-0.08715018	จาม สแควร์	-0.5383909
-0.8653014	จาม เก้า	-0.8023461
-0.09691001	จำ เสียง	-0.5428959
-0.02802872	จำนวน คน	-0.7604707
-0.7269987	จี สอ	0
-0.7269987	จี หก	-0.5367277
-0.7269987	จี เจ็ด	-0.4782084
-0.7269987	จี ไหม	0.8352207
-0.3802112	จีน อะไร	-0.5357993
-0.3802112	จีน ไหม	0.6591294
-1.164353	จุด ถ่ายรูป	0
-1.164353	จุด บริการ	-0.6268836
-0.7841416	จุด สอง	-1.107404
-0.9602329	จุด หนึ่ง	-0.78351
-0.6592029	จุด ห้า	-0.8530205
-1.261263	จุด เจ็ด	-0.685708
-0.8633229	จุด เตาถ่าน	-0.4259688
-1.164353	จุด ไหน	-0.709084
-0.3679768	จุล มี	-0.7739686
-0.3679768	จุล อยู่	-0.7118495
-0.5882717	จุฬา </s>
-0.1903317	จุฬา มี	-1.7142
-1.190332	จุฬา เปิด	-0.8386159
-0.8653014	จ่าย ค่า	-0.7763822
-0.60206	จ่าย ด้วย	-0.782761
-0.9444827	จ่าย ยังไง	1.085172
-0.5642715	จ่าย สาม	-0.8366921
-0.9444827	จ่าย เงิน	-0.7637335
-1.034154	ฉัน </s>
-0.8536982	ฉัน กับ	-0.9213218
-0.8536982	ฉัน กิน	-0.9105039
-1.154728	ฉัน คน	-1.376344
-1.154728	ฉัน คือ	-0.7128189
-1.649578	ฉัน ชอบ	-0.8931885
-1.853698	ฉัน ดวง	-0.544068
-1.154728	ฉัน ติด	-1.223088
-1.297396	ฉัน ตื่น	-0.6605737
-1.853698	ฉัน ที	-0.7382798
-2.075547	ฉัน บ้าง	1.41228
-1.853698	ฉัน มาก	-0.7281772
-0.8994557	ฉัน มี	-0.9738568
-1.251638	ฉัน อยาก	-0.8391398
-1.853698	ฉัน เบื่อ	0
-1.853698	ฉัน เปิด	-0.7683914
-1.950608	ฉัน เลือก	-0.6842467
-1.950608	ฉัน แตงไทย	0.2552725
-2.075547	ฉัน ไป	-0.6005853
-1.348954	ฉาย กี่	-0.6901961
-1.348954	ฉาย ตอน	-0.8277239
-1.348954	ฉาย ทั้งหมด	-0.6639273
-1.348954	ฉาย ที่	-0.8421702
-0.8718323	ฉาย บ้าง	0.7355869
-1.348954	ฉาย ปี	-0.7607772
-0.7291648	ฉาย วัน	-1.344811
-1.348954	ฉาย สิบ	-0.8381119
-1.348954	ฉาย ห้า	-0.8329915
-1.348954	ฉาย อยู่	-0.8242717
-0.8718323	ฉาย เรื่อง	-1.099527
-1.348954	ฉาย เวลา	-0.8277239
-1.348954	ฉาย แบบ	-0.8230105
-0.03476211	ชวน เพื่อน	-1.088008
-0.03476211	ชวาล </s>
-0.8822398	ชอบ </s>
-0.3873898	ชอบ ศิลปิน	0
-0.5812098	ชอบ สินค้า	-1.179856
-0.8822398	ชอบ ให้	-0.8597386
-0.06694679	ชั่ว โมง	-0.8404614
-0.7781513	ชั่วโมง </s>
-1.477121	ชั่วโมง กี่	-0.6901961
-1.410174	ชั่วโมง ครึ่ง	-0.5644066
-1.477121	ชั่วโมง ค่อย	0.2688453
-1.778151	ชั่วโมง จะ	-0.5918409
-1.352183	ชั่วโมง ตอน	-0.6197888
-1	ชั่วโมง นะ	-0.453859
-1.653213	ชั่วโมง นี้	-0.6967682
-0.5477023	ชั่วโมง นึง	0.2441254
-1.477121	ชั่วโมง บ้าง	1.169242
-1.778151	ชั่วโมง ประชุม	-0.5493537
-1.477121	ชั่วโมง ปลุก	-0.8156431
-1.176091	ชั่วโมง อะ	-0.4169632
-1.477121	ชั่วโมง ได้	-0.7875928
-1.278754	ชั้น </s>
-0.9777236	ชั้น สอง	-0.7301646
-0.9777236	ชั้น สาม	-0.7374518
-0.9777236	ชั้น สี่	-0.7630439
-0.9777236	ชั้น หนึ่ง	-0.7288941
-0.9777236	ชั้น ห้า	-0.7683406
-0.4592097	ชั้น ไหน	-0.9533603
-0.07918125	ชานม ไม่	-0.7589598
-0.1995724	ชาบู งบ	-0.5854607
-0.5797836	ชาบู บ้าง	1.236189
-0.1563472	ชาม </s>
-0.9344984	ชาม นึง	-0.4313637
-0.9344984	ชาม หนึ่ง	-0.6074187
-0.3357921	ชาร์จ บ้าง	1.169242
-0.4149733	ชาร์จ โทรศัพท์	0
-0.3802112	ชาเขียว หวาน	-0.7231037
-0.3802112	ชาเขียว เย็น	-0.5707203
-0.1249387	ชำระ เงิน	-0.5876423
-0.6532125	ชิ้น </s>
-0.2272438	ชิ้น ที่	-1.004938
-1.130334	ชิ้น นี้	-0.8955441
-1.130334	ชิ้น แรก	-0.9232083
-0.09691001	ชีวิต หยุด	-0.6718178
-0.07918125	ชีส ไหม	0.6591294
-1.50515	ชื่อ </s>
-1.380211	ชื่อ ชวาล	0.4149733
-1.380211	ชื่อ ผู้	-0.4436975
-1.20412	ชื่อ ภาค	-0.7763822
-1.380211	ชื่อ วิดีโอ	-0.659906
-0.90309	ชื่อ สิบ	-0.8310116
-0.7269987	ชื่อ หนัง	-1.266745
-0.8361432	ชื่อ อะไร	-1.107826
-1.380211	ชื่อ เป็น	-0.69493
-1.380211	ชื่อ เพื่อน	-0.6454508
-0.90309	ชื่อ ให้	-0.6602329
-0.50515	ชุด </s>
-0.50515	ชุด หนึ่ง	-0.6074187
-0.7269987	ชุด เกราะ	0
-0.2304489	ช็อกโกแลต มี	-1.00004
-0.5314789	ช็อกโกแลต เอา	-0.7527467
-0.3802112	ช็อคโกแลต </s>
-0.3802112	ช็อคโกแลต ยังไง	1.085172
-0.02802872	ช็อต </s>
-0.01930515	ช่วง นี้	-0.8332512
-0.3802112	ช่วงนี้ </s>
-0.3802112	ช่วงนี้ มี	-0.7632297
-0.7781513	ช่วย ด้วย	-0.3292242
-0.1249387	ช่วย ตั้ง	-1.048899
-0.5299882	ช่อง </s>
-0.2686676	ช่อง ที่	-1.249889
-1.639735	ช่อง สอง	-0.8233134
-1.428882	ช่อง สาม	-1.002766
-1.639735	ช่อง สี่	-0.8051347
-1.639735	ช่อง หนึ่ง	-0.78351
-2.065704	ช่อง ห้า	-0.5156554
-1.843855	ช่อง เจ็ด	-0.6542996
-1.940765	ช่อง ใกล้	-0.672641
-0.07918125	ช้อนชา </s>
-0.07918125	ช้อนโต๊ะ เท่ากับ	0.2632414
-0.03476211	ช้า สุด	-0.7883704
-0.06694679	ซอบิงโก ร้าน	-0.6797307
-0.06694679	ซอลบิง กับ	-0.8323237
-0.3802112	ซอส ขาว	0
-0.3802112	ซอส แดง	-0.7389991
-0.3679768	ซัก ชั่วโมง	-0.7004153
-0.3679768	ซัก สิบ	-0.7831278
-0.06694679	ซาวด์แทรก </s>
-0.1249387	ซิก แซก	0
-0.07918125	ซินนามอน </s>
-0.7269987	ซี </s>
-0.7269987	ซี สาม	-0.4586982
-0.7269987	ซี สี่	-0.4529522
-0.7269987	ซี หก	-0.5367277
-0.06694679	ซีท มั้ย	1.453755
-0.39794	ซีรีย์ ทุก	-0.4060579
-0.39794	ซีรีย์ วันไหน	0
-0.09691001	ซีอิ๊ว ให้	-0.5257644
-0.9505146	ซื้อ ของ	-0.6953123
-1.365488	ซื้อ ของขวัญ	0
-1.587337	ซื้อ ชุด	-0.5118834
-0.9852768	ซื้อ ตั๋ว	-0.7170682
-1.365488	ซื้อ น้ำ	-0.6701758
-1.365488	ซื้อ บ้าน	-0.5221483
-1.587337	ซื้อ พี	-0.4771213
-1.365488	ซื้อ ยา	-0.5149098
-1.587337	ซื้อ ระเบิด	-0.39794
-1.286307	ซื้อ หนึ่ง	-0.842147
-1.365488	ซื้อ อุปกรณ์	-0.7132105
-1.587337	ซื้อ เกม	-0.5979434
-0.8883668	ซื้อ เครื่อง	-0.3521825
-1.587337	ซื้อ เอ	-0.5808707
-1.587337	ซื้อ เอ็ม	-0.5606673
-1.365488	ซื้อ โฉนด	0.2632414
-1.365488	ซื้อ โรงแรม	0.2632414
-0.07918125	ซุเปอร์มาร์เก็ต อยู่	-0.6449028
-0.4426104	ซ้าย </s>
-1.220762	ซ้าย ขวา	-0.6713865
-1.04467	ซ้าย บน	-0.6146491
-1.169609	ซ้าย ล่าง	-0.5854607
-1.123852	ซ้าย สอง	-0.9104636
-1.123852	ซ้าย สาม	-0.8980309
-1.424882	ซ้าย สี่	-0.6290435
-1.009908	ซ้าย หนึ่ง	-0.6734827
-1.424882	ซ้าย ห้า	-0.6917467
-1.64673	ซ้าย เจ็ด	-0.5716301
-0.09691001	ซ้ำ ทุก	-0.6822643
-0.3802112	ญี่ปุ่น อะไร	-0.5357993
-0.3802112	ญี่ปุ่น ไหม	0.6591294
-0.06694679	ฐานข้อมูล ต้อง	-0.8320028
-0.07918125	ดนตรี ได้	-0.7389348
-0.09691001	ดราก้อน </s>
-0.06694679	ดรีม ทีม	0
-0.3802112	ดวง ดี	-0.7574218
-0.3802112	ดวง นี้	-0.7726258
-0.0211893	ดวล ช่อง	-0.9862198
-0.4452739	ดอกจิก </s>
-0.6415685	ดอกจิก ข้าวหลามตัด	-0.894972
-0.7085153	ดอกจิก โพธิ์ดำ	-0.74902
-0.7085153	ดอกจิก โพธิ์แดง	-0.7382453
-0.30103	ดับ เพลิง	0
-0.3802112	ดับ ไฟ	-0.6277654
-0.07918125	ดับเบิ้ล ช็อต	0.4259687
-0.2419852	ดาว </s>
-1.410777	ดาว ต้อง	-0.6163351
-1.234686	ดาว ปิด	-0.7781513
-1.410777	ดาว ยังไง	1.164353
-1.410777	ดาว หน่อย	0.1747103
-0.836746	ดาว โหลด	-0.80618
-1.410777	ดาว ใช้	-0.6691098
-0.07918125	ดำ น้ำ	-0.6701758
-0.06694679	ดิจิตอล ลอจิค	0
-0.6812412	ดิน ที่	-0.7725221
-0.6812412	ดิน สอง	-0.6472222
-0.6812412	ดิน สาม	-0.6347895
-0.6812412	ดิน หนึ่ง	-0.6074187
-0.1997257	ดี </s>
-1.770852	ดี กัน	-0.6583046
-1.594761	ดี ดี	-0.8339139
-1.673942	ดี ที่	-0.7658195
-1.293731	ดี บี	-0.7549214
-1.331519	ดี มั้ย	1.219672
-1.895791	ดี มาก	-0.3542755
-1.895791	ดี สี่	-0.4529522
-1.594761	ดี หน่อย	0.02858231
-1.895791	ดี ห้า	-0.5156554
-1.293731	ดี อยาก	-0.8291099
-1.594761	ดี เอ็กซ์	-0.640978
-1.895791	ดี แปด	-0.5856696
-0.07918125	ดีแทค ไหม	0.6591294
-0.06694679	ดึก ที่	-0.8327663
-0.06694679	ดื่ม ขวด	-0.6802878
-1.249198	ดู กางเกง	-0.6112679
-1.72632	ดู ขนาด	-0.7323937
-1.93044	ดู ข่าว	0
-1.93044	ดู ข้อมูล	-0.6532125
-2.152288	ดู คะ	0
-1.72632	ดู คำแนะนำ	0.2762064
-1.93044	ดู ช่วง	0.5835766
-2.02735	ดู ช่อง	-0.3629704
-2.02735	ดู ซีรีย์	-0.4771212
-1.152288	ดู ตัวอย่าง	0.2568263
-1.93044	ดู นี่	-0.7538826
-1.588017	ดู บ้าง	0.9351593
-2.152288	ดู ผู้	-0.4259687
-2.02735	ดู รอบ	-0.6684807
-2.152288	ดู ราย	0.9294189
-1.72632	ดู รายการ	-0.8891799
-1.249198	ดู รูป	-0.7592284
-1.93044	ดู สถานะ	0
-0.9481683	ดู สินค้า	-1.122582
-1.851258	ดู หนัง	-0.8421268
-1.515466	ดู หน่อย	-0.2724477
-1.93044	ดู หิว	0.2632414
-1.851258	ดู อะไรวอล	-0.763428
-1.72632	ดู อัน	-0.7323937
-1.72632	ดู เฉพาะ	0
-1.93044	ดู เมนู	-0.7172164
-2.02735	ดู เวทมนต์	0.4149733
-1.249198	ดู เสื้อ	-0.6232494
-1.72632	ดู เสื้อผ้า	-0.8670923
-1.23147	ดู เอส	-1.253178
-2.02735	ดู แมพ	0.2552725
-1.93044	ดู โปรโมชั่น	-0.7112045
-1.72632	ดู ไซส์	-0.8692317
-1.23147	ดู ได้	-1.357468
-1.23147	ดู ไหม	0.02230732
-2.02735	ดู ไอเท็ม	0.2552725
-0.10721	ดูด ฝุ่น	-0.31627
-0.80618	ดูด ห้องครัว	-0.544068
-0.07918125	ดููด ห้องนอน	-0.544068
-0.241716	ด้วย </s>
-1.737723	ด้วย กัน	-0.5947196
-1.214844	ด้วย ช็อกโกแลต	-0.6560418
-1.436693	ด้วย บัตร	-0.5141048
-1.737723	ด้วย พรุ่งนี้	-0.5603728
-1.737723	ด้วย มะรืน	0.7781512
-1.737723	ด้วย มี	-0.5978774
-1.214844	ด้วย สตอเบอร์รี่	-0.6560418
-1.515874	ด้วย อะไร	-0.757408
-1.214844	ด้วย เชอร์รี่	-0.6560418
-1.436693	ด้วย ไหม	0.5921826
-0.69897	ด้าน ขวา	-0.5144456
-0.69897	ด้าน ซ้าย	-0.5045373
-0.69897	ด้าน บน	-0.6560418
-0.69897	ด้าน ล่าง	-0.60206
-0.07918125	ตก ปลา	-0.5672979
-0.07918125	ตกลง </s>
-0.7900504	ตรง กลาง	-0.7067953
-0.1058037	ตรง ไหน	-0.6271038
-0.07918125	ตรงไหน </s>
-0.07918125	ตรวจสอบ ตู้	-0.7193732
-0.07918125	ตรา จอด	0.5642715
-0.03476211	ตลาด นัด	-0.7950869
-1.496007	ตอง ควีน	-0.8040318
-1.496007	ตอง คิง	-0.7929201
-1.194977	ตอง สอง	-0.83192
-0.8939466	ตอง สาม	-0.9240811
-1.194977	ตอง สี่	-0.8103359
-1.194977	ตอง หก	-0.7990709
-1.496007	ตอง ห้า	-0.8360499
-1.496007	ตอง เก้า	-0.8023461
-1.496007	ตอง เจ็ด	-0.8250501
-0.8939466	ตอง เอซ	-0.7222523
-1.194977	ตอง เอด	-0.4471581
-1.018885	ตอง แจ็ค	-0.4908226
-1.018885	ตอง แปด	-0.7754622
-1.194977	ตอง แหม่ม	-0.3864602
-1.40654	ตอน </s>
-2.0086	ตอน กี่	-0.447158
-1.640623	ตอน ตี	-0.6029074
-1.883661	ตอน ต่อ	-0.5802802
-1.883661	ตอน ต่อไป	-0.5058454
-2.0086	ตอน ถัด	0.7201593
-1.883661	ตอน ที่แล้ว	-0.5228788
-0.9805714	ตอน นี้	-0.5973958
-1.123994	ตอน บ่าย	-0.2670109
-1.40654	ตอน มิดเทอม	-0.7160034
-1.582631	ตอน สอง	-0.9416215
-1.339593	ตอน สาม	-0.8839424
-1.038563	ตอน สิบ	-1.085203
-1.883661	ตอน สิบเอ็ด	-0.5392691
-1.70757	ตอน สิ้น	0.1962947
-1.640623	ตอน สี่	-0.6174439
-0.9542425	ตอน หก	-1.245458
-1.582631	ตอน ห้า	-0.6822351
-1.883661	ตอน เก้า	-0.6170659
-1.339593	ตอน เจ็ด	-1.116698
-1.281601	ตอน เที่ยง	-0.4459332
-1.70757	ตอน เรียน	-0.823647
-1.255273	ตอน แปด	-1.050079
-1.40654	ตอน ไหน	-0.7570214
-0.9378521	ตอนนี้ </s>
-1.017033	ตอนนี้ มี	-0.7564066
-1.017033	ตอนนี้ หนัง	-0.6837018
-0.9378521	ตอนนี้ อาจารย์	-0.6942236
-0.3180633	ตอนนี้ เปิด	-1.387302
-0.09691001	ตอนเที่ยง </s>
-0.0234811	ตอนเรียน ที่	-1.239858
-0.1760913	ตอบ รับ	-0.7382038
-0.6532125	ตอบ อีเมล	0
-0.04725248	ตะกร้า </s>
-1.083682	ตะกร้า สินค้า	-0.9036493
-0.05115252	ตะไคร้ </s>
-0.07918125	ตังค์ ด้วย	-0.4084055
-0.07918125	ตัด แว่น	0
-0.07918125	ตับ </s>
-0.09108047	ตัว </s>
-0.8692317	ตัว ลิมิต	0
-0.007825337	ตัวอย่าง หนัง	-1.452065
-0.07918125	ตัวเอง </s>
-1.386202	ตั้ง ค่า	-0.5690597
-0.3862016	ตั้ง ปลุก	-1.04204
-0.6592029	ตั้ง เป็น	-0.9378522
-0.5622929	ตั้ง เวลา	-1.261379
-0.02632894	ตั้งค่า เสียง	-0.5428958
-0.39794	ตั้งแต่ วัน	-0.6579332
-0.39794	ตั้งแต่ เที่ยง	-0.679877
-0.8939466	ตั๋ว ที่	-0.8421702
-0.8939466	ตั๋ว พร	0
-0.8939466	ตั๋ว ราคา	-0.6547663
-0.6307052	ตั๋ว หนัง	-0.8074505
-0.8939466	ตั๋ว แล้ว	-0.8347572
-0.8939466	ตั๋ว แฮรี่พอตเตอร์	-0.3332147
-0.04139268	ตา ของ	-0.7687911
-0.01772877	ตาม สั่ง	-0.6524918
-0.3357921	ตาย </s>
-0.4149733	ตาย แล้ว	-0.4323089
-0.9208187	ตาราง ทั้งหมด	-0.5483751
-0.9208187	ตาราง สัปดาห์	-0.4372497
-0.19382	ตาราง เรียน	-0.9253992
-0.05115252	ตาล </s>
-0.03476211	ตำ เจ๊	-0.5177391
-0.544068	ติด กระทะ	0.08543009
-0.5898255	ติด กัน	-0.9539728
-1.367977	ติด ธุระ	-0.359022
-0.447158	ติด หนี้	-0.2632413
-0.02632894	ติดตาม </s>
-0.8573325	ติดต่อ ที่	-0.7577394
-0.1945747	ติดต่อ เจ้าของ	-0.5086383
-0.8573325	ติดต่อ ได้	-0.7389348
-0.06694679	ติว ได้	-0.7975947
-0.06694679	ติวสอบ มั้ย	1.453755
-0.09691001	ติวโตเรียล </s>
-1.20412	ตี ก่อน	-0.6575773
-1.20412	ตี บวก	0.6232493
-1.20412	ตี บอส	-0.3309932
-0.90309	ตี ผู้เล่น	0
-1.20412	ตี มอน	0
-1.20412	ตี มอนเตอร์	0
-1.20412	ตี สอง	-0.6968012
-1.329059	ตี สาม	-0.5999737
-0.9610819	ตี สี่	-0.5001625
-1.329059	ตี ห้า	-0.5156554
-0.90309	ตี เพื่อน	-0.6285123
-0.09691001	ตีห้า วันเสาร์	0
-0.4393327	ตึก จุล	0
-0.7403627	ตึก มหาจักรีสิรินธร	0
-0.4393327	ตึก ไหน	-0.8541257
-0.06694679	ตึกร้อยปี แอร์	-0.733606
-0.8129134	ตื่น กี่	-1.243038
-1.414973	ตื่น กี่โมง	-0.7798313
-1.414973	ตื่น ช้า	0.2688453
-1.414973	ตื่น ตอน	-0.8277239
-1.414973	ตื่น มา	-0.8317341
-0.9378521	ตื่น สิบ	-1.210071
-0.9378521	ตื่น หก	-0.9801431
-1.414973	ตื่น เช้า	-0.806753
-0.9378521	ตื่น เที่ยง	-1.066146
-1.414973	ตื่น เลย	-0.8112398
-0.8129134	ตื่น แล้ว	-0.3975994
-1.414973	ตื่น ได้	-0.840988
-0.8976271	ตู้ จดหมาย	-0.6833649
-0.4996871	ตู้ นี้	-1.256369
-1.198657	ตู้ มี	-0.7741687
-1.198657	ตู้ อะไร	-0.5357993
-1.198657	ตู้ เฟท	0
-1.198657	ตู้ เลิฟ	0
-1.198657	ตู้ เอ	-0.6122792
-1.198657	ตู้ แกรน	0
-1.198657	ตู้ ไอ	-0.6455257
-0.6499835	ตู้เย็น </s>
-1.127105	ตู้เย็น ของ	-0.7734964
-1.127105	ตู้เย็น ทำ	-0.7316536
-1.127105	ตู้เย็น บ้าง	1.236189
-0.8260748	ตู้เย็น มี	-0.7346126
-1.127105	ตู้เย็น อะไร	-0.7764313
-0.6499835	ตู้เย็น เหลือ	-0.9270021
-0.07918125	ตู้เย็็น มี	-0.777159
-1.236789	ต่อ </s>
-1.537819	ต่อ จาก	-0.6937688
-1.361728	ต่อ นะ	-0.0202034
-1.361728	ต่อ อะ	-0.5103849
-0.4586379	ต่อ อีก	-0.7520288
-1.361728	ต่อ เยอะ	-0.7082601
-1.440909	ต่อ โพสต์	-0.6927211
-1.361728	ต่อ ได้มั้ย	0
-1.361728	ต่อ ได้ไหม	0
-0.6213651	ต่อ ไป	-0.8428912
-0.4449366	ต่อไป </s>
-1.113943	ต่อไป วัน	-0.5318975
-0.5118834	ต่อไป อีก	-0.7409635
-0.8129134	ต่อไป เรียน	-0.834505
-0.7403627	ต่ำ </s>
-0.3881802	ต่ำ กว่า	-0.5533028
-0.5642715	ต่ำ สุด	-0.6222634
-0.05115252	ต่ำกว่า สาม	-0.9422855
-0.39794	ต้น เดือน	-0.4685211
-0.39794	ต้น ใหม่	-0.375276
-0.544068	ต้นไม้ </s>
-0.845098	ต้นไม้ จะ	-0.7609832
-0.845098	ต้นไม้ ดู	-0.7730237
-0.845098	ต้นไม้ ตอน	-0.7533277
-0.845098	ต้นไม้ ให้	-0.6049457
-1.249198	ต้ม </s>
-1.152288	ต้ม กุ้ง	-0.7651863
-1.249198	ต้ม ต้อง	-0.6163351
-0.6471384	ต้ม มาม่า	-0.6636781
-0.8512583	ต้ม ยังไง	0.8219302
-1.152288	ต้ม ยำ	0
-0.9481683	ต้ม หน่อย	-0.08056214
-1.152288	ต้ม ไข่ยางมะตูม	-0.544068
-1.152288	ต้ม ไข่ลวก	-0.6766936
-0.04792355	ต้มยำ กุ้ง	-0.2678616
-1.127105	ต้มยำ ทะเล	0
-0.3424227	ต้มยำกุ้งน้ำข้น </s>
-0.7403627	ต้มยำกุ้งน้ำข้น ทำ	-0.6785288
-0.6434527	ต้มยำกุ้งน้ำข้น เก็บ	-0.6790198
-1.050079	ต้อง ตื่น	-0.6605737
-0.7142867	ต้อง ทำ	-1.076818
-1.82823	ต้อง ปลุก	-0.5875822
-1.5272	ต้อง มี	-0.8381044
-1.5272	ต้อง ลง	-0.8173677
-1.606381	ต้อง ละลาย	-0.6268836
-1.5272	ต้อง สะสาง	0
-1.5272	ต้อง สุภาพ	-0.6901961
-0.9251401	ต้อง ส่ง	-1.025306
-1.82823	ต้อง ออก	-0.2475108
-1.5272	ต้อง อ่าน	-0.544068
-1.606381	ต้อง เปลี่ยน	-0.7672113
-1.5272	ต้อง เป็น	-0.8266146
-1.22617	ต้อง เรียน	-0.823647
-1.5272	ต้อง โดน	0
-0.7612833	ต้อง ใช้	-0.9254114
-0.7403627	ถอน ที่	-0.7810192
-0.1205739	ถอน เงิน	-1.243291
-0.04575749	ถอย หลัง	-0.4646764
-0.0211893	ถัด ไป	-1.304184
-0.3802112	ถั่ว </s>
-0.3802112	ถั่ว ไหม	0.6591294
-0.3802112	ถั่วงอก </s>
-0.3802112	ถั่วงอก ชาม	-0.7244664
-0.09691001	ถาม ซ้ำ	0
-1.255273	ถึง กี่	-0.6232493
-0.8750613	ถึง กี่โมง	-0.3835649
-0.9542425	ถึง จะ	-1.00635
-1.352183	ถึง ตี	-0.6486649
-1.352183	ถึง ตีห้า	0
-1.477121	ถึง บ่าย	-0.5582811
-1.255273	ถึง ยัง	-0.6921554
-1.109144	ถึง วัน	-0.6137379
-1.051152	ถึง สิบ	-0.6475286
-1.352183	ถึง สิ้น	0.3424227
-1.352183	ถึง สี่	-0.6809705
-1.477121	ถึง หก	-0.3034495
-1.352183	ถึง ห้า	-0.6853261
-1.477121	ถึง เวลา	-0.5934598
-0.04139268	ถุง </s>
-0.559308	ถูก </s>
-0.860338	ถูก กว่า	-0.9223533
-0.860338	ถูก ถูก	-0.8140638
-0.9852768	ถูก ที่	-0.8327663
-0.9852768	ถูก สุด	-0.8081145
-0.860338	ถูก ไป	-0.9502988
-0.07918125	ถูกต้อง เลย	0.2218487
-0.447158	ถูกใจ กี่	-1.117934
-0.2253093	ถูกใจ เพจ	-1.164248
-0.07918125	ถ่ายรูป ที่	-0.7140724
-0.07918125	ถ้วยตวง เท่ากับ	0.2632414
-0.09691001	ถ้า มี	-0.6867072
-0.06694679	ทน รอ	0
-0.06694679	ทรานสคริปต์ ที่	-0.7810192
-0.4771213	ทรี </s>
-0.30103	ทรี ดี	-0.8243685
-0.01703334	ทวง เงิน	-1.243291
-0.07918125	ทวน อีก	-0.7612942
-0.07918125	ทหารไทย หมื่น	-0.1180993
-0.4149733	ทอง </s>
-0.3357921	ทอง มา	-0.8317341
-0.06694679	ทองดี ฟันขาว	0
-0.9890046	ทอด กระเทียม	-0.6159958
-0.9890046	ทอด ต้อง	-0.6163351
-0.8129134	ทอด ที่	-0.7810192
-0.8920946	ทอด ยัง	-0.1988874
-0.9890046	ทอด หน่อย	0.1747103
-0.5910646	ทอด แล้ว	-0.7607772
-0.5740313	ทอป ทรี	-0.5228788
-0.5740313	ทอป ทู	0
-0.5740313	ทอป วัน	-0.6563653
-0.154902	ทอย ลูกเต๋า	0
-0.69897	ทอย ไป	-0.6970026
-0.07918125	ทะเล น้ำใส	0
-0.07918125	ทักษิณ ห้า	-0.741582
-0.1249387	ทัน ว่า	-0.5706515
-0.06694679	ทัศนศึกษา มั้ย	1.453755
-0.90309	ทั้ง วัน	-0.5594553
-0.4259687	ทั้ง หมด	-0.531103
-0.4259687	ทั้ง เดือน	-0.7002454
-0.09691001	ทั้งวัน </s>
-0.467137	ทั้งหมด </s>
-0.9344984	ทั้งหมด ของ	-0.9114586
-0.619228	ทั้งหมด ที่	-1.203397
-1.2075	ทั้งหมด ออก	-0.5996932
-1.41162	ทั้งหมด เท่าไหร่	0.7061486
-0.8095597	ทั้งหมด ไป	-1.312292
-0.7269987	ทาง ขวา	-0.5314789
-0.7269987	ทาง ซ้าย	-0.5215706
-1.50515	ทาง หนี	0
-1.425969	ทาง เข้า	-0.8260748
-1.028029	ทาง เชื่อม	0
-1.124939	ทาง ไป	-0.839169
-0.4637573	ทาง ไหน	-1.48837
-2.018701	ทำ กระเทียม	-0.6716959
-2.115611	ทำ กะเพรา	-0.6766936
-2.018701	ทำ กับ	-0.7675323
-1.939519	ทำ การบ้าน	-0.7918525
-1.541579	ทำ ขนม	-0.88785
-1.717671	ทำ ข้าวผัด	-0.9466064
-2.018701	ทำ ข้าวเหนียว	-0.6268836
-1.939519	ทำ คน	-0.8381119
-1.717671	ทำ ความ	-0.9711927
-1.240549	ทำ ด้วย	-0.9536539
-2.240549	ทำ ต่อ	-0.5761243
-1.717671	ทำ ต้มยำกุ้งน้ำข้น	-0.7781513
-2.240549	ทำ ท่า	0
-2.018701	ทำ บัตร	-0.447158
-1.571543	ทำ บ้าง	0.8382492
-1.319731	ทำ ประมาณ	-0.9700368
-1.337459	ทำ ผัด	-0.8497183
-2.018701	ทำ พานาคอตต้า	-0.6368221
-1.717671	ทำ ยัง	-0.4621289
-1.319731	ทำ ยาก	-0.5576409
-1.149469	ทำ รายได้	0
-2.115611	ทำ สุกี้	0
-2.115611	ทำ หมู	-0.6782854
-1.717671	ทำ หมูกระเทียม	-0.7936082
-2.115611	ทำ หอย	0
-1.337459	ทำ อย่าง	-1.196041
-0.9933946	ทำ อะไร	-0.4872074
-2.018701	ทำ อาหาร	-0.7718295
-2.018701	ทำ อีก	-0.7473211
-1.939519	ทำ เงิน	-0.8343298
-2.018701	ทำ เสร็จ	-0.6661775
-2.115611	ทำ แกง	0
-1.814581	ทำ แบบ	-0.9245356
-1.939519	ทำ ให้	-0.7505941
-1.161368	ทำ ไข่	-0.922365
-1.717671	ทำ ไข่ดาว	-0.3928005
-2.018701	ทำ ไข่ตุ๋น	0
-1.717671	ทำ ไข่ลวก	-0.544068
-1.717671	ทำ ไข่เจียว	-0.8952647
-2.018701	ทำ ไข่่ตุ๋น	0
-1.717671	ทำ ไง	-0.7452344
-0.845098	ทำงาน </s>
-0.544068	ทำงาน ตอน	-0.7317625
-0.845098	ทำงาน ที่	-0.7140724
-0.9420081	ทำงาน แปด	-0.6881121
-0.7659168	ทำงาน ไร	-0.7763822
-0.09691001	ทำนาย กัน	-0.3651951
-0.01703334	ทำยังไง </s>
-1.070038	ทำลาย มิตรภาพ	0
-0.3710679	ทำลาย สิ่งก่อสร้าง	0
-0.3710679	ทำลาย แลนด์มาร์ค	-0.8962505
-0.9208187	ทิ้ง อาวุธ	-0.3853509
-0.09691001	ทิ้ง ไอเทม	-0.9465557
-0.05690485	ที </s>
-1.056905	ที ว่า	-0.7244664
-0.06694679	ทีม เป็น	-0.8006789
-0.3617278	ทีวี </s>
-0.5378191	ทีวี เป็น	-1.285526
-1.139879	ทีวี เวลา	-0.7637215
-0.8388491	ทีวี ให้	-0.8681871
-2.47373	ที่ </s>
-2.649822	ที่ กลาง	-0.6118198
-2.047761	ที่ กำลัง	-0.7168817
-1.695579	ที่ คณะ	-0.6377756
-2.348791	ที่ คล้าย	-0.6532125
-2.47373	ที่ จอง	-0.7725474
-2.47373	ที่ จอด	0.4973246
-2.47373	ที่ จะ	-0.8244134
-2.1727	ที่ จาม	0.4973246
-1.733368	ที่ ฉัน	-1.173244
-1.87167	ที่ ฉาย	-0.7593861
-2.649822	ที่ ช่อง	-0.3629704
-2.348791	ที่ ตะกร้า	-0.9168608
-2.47373	ที่ ต้อง	-0.8320028
-2.348791	ที่ ถูก	-0.8897845
-1.695579	ที่ ทำ	-1.247719
-2.47373	ที่ ทำงาน	-0.69897
-1.327602	ที่ นั่ง	-0.263603
-2.47373	ที่ นิติ	0
-1.338068	ที่ นี่	-0.3686505
-2.649822	ที่ นึง	-0.3521825
-2.47373	ที่ น่า	-0.7993405
-2.47373	ที่ บัญชี	-0.447158
-2.348791	ที่ ผ่าน	-0.8016323
-2.1727	ที่ พารากอน	-0.767105
-2.1727	ที่ มาบุญครอง	-0.4771213
-2.137938	ที่ ยี่	0.4220737
-2.021433	ที่ ราคา	-0.9360974
-2.47373	ที่ ลด	-0.7665412
-2.1727	ที่ วิศวะ	-0.6719713
-1.06719	ที่ สอง	-1.038086
-2.1727	ที่ สอบ	-1.058426
-2.07579	ที่ สั่ง	-1.094049
-1.144671	ที่ สาม	-1.028991
-2.210489	ที่ สามารถ	0
-1.87167	ที่ สิบ	-0.6987851
-2.77476	ที่ สิบเอ็ด	-0.4881167
-2.552912	ที่ สี	-0.763428
-1.488454	ที่ สี่	-1.141754
-1.552911	ที่ สุด	-0.5983512
-1.154971	ที่ หนึ่ง	-1.047374
-2.47373	ที่ หอ	-0.640978
-2.47373	ที่ ห่าง	0
-2.137938	ที่ ห้า	-0.781311
-1.552911	ที่ อยาก	-1.612943
-2.649822	ที่ อยู่	-0.6856968
-2.47373	ที่ อักษร	-0.447158
-2.77476	ที่ เจ็ด	-0.5609937
-2.348791	ที่ เช็ค	-0.7168816
-2.47373	ที่ เซ็นทรัลเวิลด์	-0.60206
-2.47373	ที่ เท่า	-0.4414057
-2.77476	ที่ เท่าไหร่	0.8822399
-2.552912	ที่ เปลี่ยน	-0.7672113
-2.137938	ที่ เป็น	-0.8617916
-2.47373	ที่ เมเจอร์	-0.5247629
-2.348791	ที่ เรา	-0.8768303
-2.47373	ที่ เร็ว	-0.6560418
-2.77476	ที่ เล่น	-0.5948014
-2.649822	ที่ เวลา	-0.6874648
-2.47373	ที่ เศรษฐศาสตร์	0
-1.87167	ที่ เหมาะ	0.1335389
-2.348791	ที่ เหมือน	-0.8484387
-1.552911	ที่ เหมือนกัน	0
-2.649822	ที่ เหลือ	-0.6648902
-2.47373	ที่ เอน	0
-2.105753	ที่ แล้ว	-0.384214
-2.348791	ที่ แสดง	-0.9354593
-1.890154	ที่ ใกล้	-0.8771849
-1.950851	ที่ ใช้	-0.7482912
-2.1727	ที่ ใน	-1.054435
-2.649822	ที่ ไป	-0.6910465
-1.503693	ที่ ไม่	-1.095824
-0.8627154	ที่ ไหน	-0.9946426
-0.07918125	ที่ดิน </s>
-0.5006024	ที่นั่ง </s>
-0.5797836	ที่นั่ง ว่าง	-0.4950946
-0.5797836	ที่นั่ง ได้	-0.720646
-0.50515	ที่นี่ ปิด	-0.7112045
-0.2498775	ที่นี่ เปิด	-0.7046165
-0.06694679	ที่ปรึกษา เทอม	-0.2653144
-0.07918125	ที่พัก ใกล้	-0.7090703
-0.07918125	ที่สุด </s>
-0.4771213	ที่แล้ว </s>
-0.30103	ที่แล้ว ยาก	0.01223444
-0.7403627	ที่ไหน </s>
-0.1205739	ที่ไหน บ้าง	0.5993671
-1.423246	ทุก ครั้ง	-0.640978
-1.423246	ทุก รายการ	-0.4895305
-0.3093025	ทุก วัน	-0.6660727
-0.5067919	ทุก อย่าง	-1.004156
-1.122216	ทุก อาทิตย์	-0.6264193
-0.1249387	ทุกวัน </s>
-0.07918125	ทุกวันศุกร์ </s>
-0.5563025	ทุกเวลา ยี่สิบ	-0.60206
-0.5563025	ทุกเวลา สิบ	-0.7723373
-0.5563025	ทุกเวลา หก	-0.7658474
-0.07918125	ทุบ หิน	0
-0.6931404	ทุ่ม </s>
-1.267172	ทุ่ม ถึง	-0.6792259
-1.09108	ทุ่ม ที่	-0.8421702
-1.39211	ทุ่ม นึง	-0.2552725
-0.7900504	ทุ่ม บ้าง	0.9003971
-1.39211	ทุ่ม มี	-0.5897972
-1.267172	ทุ่ม วัน	-0.6082454
-0.9661418	ทุ่ม วันนี้	-0.6061053
-1.267172	ทุ่ม สี่	-0.6895896
-1.170262	ทุ่ม ออก	-0.7621238
-0.09691001	ทู </s>
-0.06694679	ทูฟาสต์ ทูสลีบ	0
-0.06694679	ทูสลีบ ไป	-0.8366745
-0.06694679	ทูเดย์ สเต็ก	-0.7646917
-0.1249387	ท่า เยาะ	0
-0.07918125	ท้องเสีย ควร	-0.2891307
-0.0211893	ท้า ดวล	0
-1.10721	ธนาคาร กรุงศรี	0
-0.80618	ธนาคาร กรุงเทพ	-0.4973247
-1.10721	ธนาคาร กรุงไทย	0
-0.80618	ธนาคาร กสิกร	0
-1.10721	ธนาคาร ทหารไทย	0
-1.10721	ธนาคาร ยู	-0.6532125
-1.10721	ธนาคาร หนึ่ง	-0.7756934
-1.10721	ธนาคาร ไทย	-0.7422387
-1.10721	ธนาคาร ไทยพาณิชย์	0
-0.05115252	ธรรมดา </s>
-0.3679768	ธุระ </s>
-0.3679768	ธุระ อะไร	-0.8430333
-0.05115252	นนทบุรี </s>
-0.5314789	นม วัว	0
-0.2304489	นม ไหม	0.395888
-0.01424044	นอก จุฬา	-1.041393
-0.06694679	นอกเวลา บ้าง	1.169242
-1.143015	นอน </s>
-0.2509202	นอน ต่อ	-0.7844002
-0.8877423	นอน อีก	-0.6188177
-1.444045	นอน แฟต	0
-1.444045	นอน แล้ว	-0.7695511
-1.143015	นอน ได้	-0.7593416
-1.364864	นอน ไม่	-0.8375229
-0.06694679	นอนได้ ถึง	-0.7829502
-0.07040732	นะ </s>
-0.9120448	นะ พรุ่งนี้	-1.482195
-1.769377	นะ อาหาร	-0.6506948
-0.06694679	นักเรียน ได้	-0.840988
-0.01703334	นักแสดงนำ หนัง	-1.118851
-1.413452	นัด </s>
-1.676694	นัด กับ	-0.8323237
-1.609747	นัด กิน	-0.8828866
-1.551755	นัด กินข้าว	-0.3679768
-1.852785	นัด ควร	-0.6492822
-1.852785	นัด ซื้อ	-0.6473492
-1.852785	นัด ดู	-0.6948729
-1.551755	นัด ตอน	-0.609448
-1.852785	นัด ตั้งแต่	-0.4771212
-1.852785	นัด ต่อ	-0.5802802
-1.852785	นัด ต่อไป	-0.5392691
-1.375664	นัด ทั้งหมด	-1.060259
-1.852785	นัด ทำงาน	-0.6462637
-1.551755	นัด ทุก	-0.7922595
-1.852785	นัด นำ	-0.6741464
-1.250725	นัด ประชุม	-0.8361433
-1.676694	นัด มัน	-0.8098657
-1.977724	นัด มั้ย	1.696793
-1.056905	นัด วัน	-0.7774387
-1.852785	นัด วันนี้	-0.6895795
-1.852785	นัด สาม	-0.6961861
-1.977724	นัด สิบ	-0.5333772
-1.977724	นัด สี่	-0.5850267
-1.551755	นัด สุดท้าย	-0.4227636
-1.551755	นัด ส่ง	-0.6457245
-1.375664	นัด หมอ	-0.3786348
-1.250725	นัด อะไร	-0.988097
-1.977724	นัด เตือน	-0.4961019
-1.454845	นัด เพิ่ม	-0.7668408
-1.551755	นัด เพื่อน	-0.6818528
-1.977724	นัด เย็นนี้	0
-1.852785	นัด เลี้ยง	0
-1.074634	นัด แรก	-0.8535723
-0.2218488	นับ ถอย	0
-0.5740313	นับ เวลา	-0.6634977
-1.259275	นั่ง ตรง	-0.768258
-1.259275	นั่ง ติด	-0.7160034
-1.259275	นั่ง ถูก	-0.7976734
-1.338457	นั่ง ทำงาน	-0.7112045
-1.259275	นั่ง ที่	-0.8436366
-1.259275	นั่ง บี	-0.8023461
-1.259275	นั่ง พรีวิเลจ	0
-1.259275	นั่ง พรีเมี่ยม	0
-1.259275	นั่ง มั้ย	1.453755
-1.259275	นั่ง ริม	0
-1.259275	นั่ง สำหรับ	-0.8222352
-1.259275	นั่ง เอ	-0.8016323
-0.782154	นั่ง แบบ	-0.7400363
-1.259275	นั่ง แพง	-0.7259116
-0.2082759	นั้น </s>
-0.544068	นั้น ก็	0.455932
-0.1249387	นั้ั้น แหละ	0
-0.2136131	นาที </s>
-1.99417	นาที กลับ	-0.5746217
-1.693141	นาที กี่	-0.6901961
-1.693141	นาที ค่อย	0.2688453
-1.772322	นาที จะ	-0.6452851
-1.471292	นาที ถึง	-0.9902402
-1.39211	นาที นะ	-0.2890487
-1.693141	นาที ปลุก	-0.5570928
-1.99417	นาที มี	-0.5978774
-1.626194	นาที ละ	-0.7800273
-1.693141	นาที อะ	-0.5103849
-1.99417	นาที เตือน	-0.4961019
-1.693141	นาที เที่ยง	-0.7631058
-1.869232	นาที เป็น	-0.6908521
-1.39211	นาที แปด	-0.9087497
-1.99417	นาที แล้ว	-0.5969204
-1.693141	นาที ได้	-0.7875928
-1.093422	นาน </s>
-0.4913617	นาน กี่	-1.299943
-1.190332	นาน แค่ไหน	0
-0.3299937	นาน ไหม	0.7240703
-0.69897	นาม ตาล	0.2552725
-0.69897	นาม บี	-0.6087934
-0.69897	นาม ฟร้องซ์	0.2552725
-0.69897	นาม แตงไทย	0.2552725
-0.09691001	นาย </s>
-0.01703334	นาฬิกา </s>
-0.9542425	นำ กางเกง	-0.8415382
-0.1760913	นำ สินค้า	-1.152162
-1.255273	นำ เสนอ	0
-0.9542425	นำ เสื้อยืด	0
-0.06694679	นิติ มี	-0.7739686
-0.6627578	นี่ </s>
-0.8846066	นี่ กลับ	-0.7231037
-0.3105753	นี่ มี	-0.9218087
-1.264818	นี่ สิ	-0.3521825
-1.264818	นี่ เครือ	0
-0.8981765	นี้ </s>
-2.120025	นี้ การบ้าน	-0.7311547
-1.379663	นี้ กิน	-1.441026
-1.752048	นี้ กี่	-0.7282377
-2.120025	นี้ ครั้ง	-0.7549214
-2.120025	นี้ คิว	0.2340832
-1.296116	นี้ คือ	-0.9163314
-1.995087	นี้ จัง	-0.503057
-1.898176	นี้ จัด	-0.8495072
-2.199207	นี้ ฉัน	-0.7720257
-1.898176	นี้ ตอน	-0.6798196
-2.296117	นี้ ต้อง	-0.6058062
-2.120025	นี้ ทำ	-0.8400772
-2.199207	นี้ ที	0.1326256
-1.642904	นี้ บ้าง	0.7355869
-0.5143611	นี้ มี	-0.736759
-2.199207	นี้ มืด	-0.544068
-1.898176	นี้ ราคา	-0.4817662
-2.120025	นี้ วัน	-0.5586692
-2.120025	นี้ วิชา	-0.8246569
-2.053078	นี้ ว่าง	-0.3334331
-1.818995	นี้ สอบ	-0.7895807
-2.421055	นี้ ส่ง	-0.5780218
-1.642904	นี้ หนัง	-0.8981265
-1.898176	นี้ หน่อย	0.2002644
-1.752048	นี้ ออก	-0.8423921
-1.818995	นี้ อาารย์	0
-1.818995	นี้ อีก	-0.7574577
-1.995087	นี้ เข้า	-0.8908998
-2.120025	นี้ เคร่ง	0
-2.120025	นี้ เท่า	-0.4414057
-2.120025	นี้ เท่าไหร่	-0.8342852
-2.421055	นี้ เป็น	-0.5959858
-2.120025	นี้ เริ่ม	-0.7138191
-2.120025	นี้ เลิก	-0.146128
-2.120025	นี้ เอา	-0.8351138
-1.995087	นี้ แล้ว	-0.6084002
-1.517965	นี้ โรง	-1.295682
-2.120025	นี้ ใช่ไหม	0
-1.784233	นี้ ให้	-0.9729225
-1.818995	นี้ ไม่	-1.057914
-2.120025	นี้ ไม่ว่าง	0
-2.296117	นี้ ไหม	0.7383107
-0.09691001	นี้่ิ งาน	-0.6901515
-0.2596373	นึง </s>
-0.7447275	นึง นะ	-0.453859
-1.522879	นึง ปลุก	-0.572605
-1.221849	นึง ละ	-0.7220353
-1.221849	นึง อะ	-0.5103849
-1.221849	นึง ได้	-0.7875928
-0.3309932	น่า กิน	-1.150211
-0.5740313	น่า ดู	-0.9376168
-1	น่า ลง	-0.8173677
-1	น่า สน	0
-0.5873367	น่าดู </s>
-0.5873367	น่าดู บ้าง	1.276807
-0.365488	น่าดู ไหม	0.02230732
-0.07918125	น้อง อยู่	-0.724084
-0.2304489	น้อย </s>
-0.5314789	น้อย กว่า	-0.7584966
-0.6573291	น้ำ </s>
-1.502427	น้ำ คน	-0.7723373
-0.8034571	น้ำ ชั้น	-0.45364
-1.423246	น้ำ ดื่ม	0
-1.201397	น้ำ พิเศษ	-0.6051511
-1.502427	น้ำ ลูกชิ้นปลา	0
-1.502427	น้ำ สอง	-0.6472222
