
\data\
ngram 1=2945
ngram 2=11227
ngram 3=14546

\1-grams:
-4.11608	0.65	-0.9541797
-3.161837	1	-0.7063281
-4.371352	1,000	-0.6989146
-3.748103	1.2	-0.8213958
-3.748103	1.3	-0.8843589
-4.371352	10	-0.6989515
-4.11608	10400	-0.9540541
-4.371352	11	-0.6988037
-4.371352	1180	-0.6364295
-4.11608	13	-0.6986596
-4.371352	14	-0.6988333
-4.11608	16	-0.697779
-3.140903	2	-0.7177885
-4.11608	2.1.4	-0.9539469
-4.11608	2.1.5	-0.953603
-3.748103	2.2	-0.7738639
-3.956379	2.5	-0.7823656
-4.371352	2.6	-0.6988037
-4.11608	20	-0.9542093
-4.371352	23	-0.6979271
-4.371352	25	-0.6989515
-4.11608	2516	-0.9542093
-4.371352	2517	-0.6364295
-4.371352	2531	-0.6989515
-4.371352	2532	-0.6953834
-4.371352	2533	-0.6985561
-3.231473	3	-0.7578346
-4.11608	3.1	-0.9512663
-4.371352	3.1ไทย	-0.6989515
-4.11608	3.2	-0.9529107
-4.371352	3.3	-0.6949475
-4.11608	36	-0.9536659
-3.346047	4	-0.8258664
-4.371352	4.1.1	-0.6980604
-4.11608	4.3	-0.9541206
-4.11608	4.3.1	-0.9536548
-4.11608	45	-0.954176
-3.314447	5	-0.7458513
-3.672382	50	-0.8447323
-3.672382	6	-0.8403853
-4.371352	6-1	-0.6949475
-3.748103	7	-0.8839596
-4.11608	70	-0.9531848
-4.371352	8	-0.6364295
-4.371352	8096	-0.6364295
-4.371352	9	-0.6988185
-4.371352	90	-0.6989035
-4.371352	900	-0.6989515
-0.8725182	</s>
-99	<s>	-1.052171
-4.371352	กข.๙	-0.6364295
-4.11608	กงล้อ	-0.944448
-4.371352	กฉา	-0.6988333
-3.207	กด	-0.9121783
-4.11608	กดดัน	-0.954091
-4.371352	กรง	-0.6364295
-4.11608	กรมอุตุนิยมวิทยา	-0.944448
-3.956379	กรรมการ	-0.7814043
-4.11608	กรอก	-0.9533329
-4.371352	กรองคอ	-0.6989515
-4.371352	กรองสมรด	-0.6364295
-4.371352	กรองสังเวียน	-0.6989515
-4.371352	กรอบ	-0.6987335
-4.371352	กรอบเช็ดหน้า	-0.6989515
-3.956379	กระ	-1.113895
-3.292171	กระจาย	-0.7578518
-4.11608	กระดอง	-0.6976345
-4.371352	กระดานดำ	-0.6959938
-3.346047	กระดาษ	-0.7976323
-3.839874	กระดูก	-0.9541466
-4.292171	กระถาง	-0.7777151
-4.371352	กระทบ	-0.6984045
-4.11608	กระทรวง	-0.9542093
-4.371352	กระทรวงมหาดไทย	-0.6976975
-4.11608	กระทรวงฯ	-0.9506559
-3.655349	กระทะ	-0.9045472
-4.371352	กระทำ	-0.6364295
-3.956379	กระบวนการ	-0.844747
-4.371352	กระบอกปืน	-0.6364295
-4.371352	กระบืองาน	-0.6976975
-4.371352	กระบือปลัก	-0.6364295
-4.371352	กระรอก	-0.6364295
-4.468263	กระสุน	-0.5395195
-3.769292	กระเทียม	-0.6946762
-3.502121	กระเบื้อง	-0.8450826
-3.866202	กระเป๋า	-1.14158
-4.371352	กระเพา	-0.6987076
-3.748103	กระแส	-1.041267
-4.11608	กระแสไฟฟ้า	-0.6888542
-3.690111	กระโดด	-1.376248
-4.371352	กรา	-0.6989515
-3.346047	กราฟ	-0.8159713
-4.11608	กราฟฟิก	-0.8917021
-4.371352	กราฟฟิกไทยโชว์	-0.6989515
-4.371352	กราฟิก	-0.6364295
-4.371352	กรุ	-0.6975419
-4.292171	กรุงศรี	-0.7765378
-3.791569	กรุงเทพ	-0.7788346
-4.11608	กรุงเทพฯ	-0.9542093
-4.292171	กรุงไทย	-0.7761261
-4.371352	กฤปาน	-0.6989515
-4.371352	กฤษณพงศ์	-0.6989515
-3.991141	กล	-0.7503558
-4.371352	กลบ	-0.6989515
-4.468263	กลม	-0.5395195
-4.11608	กลอน	-0.8917021
-3.389081	กลับ	-0.8805168
-4.371352	กลับกลาย	-0.6953834
-4.11608	กลัว	-0.697249
-4.11608	กลั่นตัว	-0.9532626
-3.769292	กลาง	-0.8012353
-4.371352	กลางคืน	-0.6984193
-4.11608	กลางวัน	-0.6350965
-4.371352	กลางแจ้ง	-0.6985376
-4.11608	กลาย	-0.9506559
-4.11608	กลายเป็น	-0.6938762
-4.371352	กลีบ	-0.6989515
-4.11608	กลืน	-0.9538804
-4.11608	กลไก	-0.6913424
-4.371352	กล่อง	-0.6987742
-4.292171	กล่องขายของ	-0.7156108
-3.748103	กล่าว	-0.7704784
-3.956379	กล่าวคือ	-0.7825363
-3.839874	กล่าวถึง	-1.226426
-3.839874	กล้วย	-0.8008337
-4.11608	กล้าม	-0.9541797
-2.803151	กว่า	-0.9680034
-3.956379	กว้าง	-0.8438552
-4.11608	กว้างขวาง	-0.9541945
-4.02893	กสิกร	-0.7763932
-4.371352	กองวิทยาลัยเทคนิค	-0.6364295
-4.371352	กอหญ้า	-0.6364295
-4.371352	กะพริบ	-0.6954951
-3.189509	กะเพรา	-1.200489
-4.371352	กังฆา	-0.6989515
-4.225224	กัญชา	-0.7825575
-4.11608	กัด	-0.6363741
-2.590315	กัน	-1.028523
-4.371352	กันสาด	-0.6989368
-2.488259	กับ	-0.8588912
-4.292171	กับข้าว	-0.7779443
-3.502121	กางเกง	-1.112993
-4.11608	กางเกงยีน	-0.8917021
-4.11608	กางเขน	-0.8917021
-4.11608	กาญจนะวรรณ	-0.9506559
-4.371352	กานพลู	-0.6989515
-2.035293	การ	-0.9427621
-3.380126	การบ้าน	-1.104289
-4.371352	การสื่อสารแห่งประเทศไทย	-0.6976975
-3.655349	การเชื่อมต่อ	-1.409588
-3.748103	การแพทย์	-0.9787967
-4.292171	การ์ด	-0.7156108
-3.371352	กาแฟ	-0.7979757
-4.02893	กำกับ	-0.7730573
-3.956379	กำจัด	-0.6978863
-3.32996	กำลัง	-0.7624063
-4.11608	กำลังส่ง	-0.944448
-3.607924	กำหนด	-0.6857673
-4.371352	กำเนิด	-0.6988924
-4.11608	กำเริบ	-0.954091
-4.371352	กำไลมือ	-0.6964733
-4.468263	กิจกรรม	-0.6010578
-4.11608	กิตติ	-0.9542093
-4.11608	กิติพจน์	-0.9542093
-2.404741	กิน	-1.051443
-3.956379	กินข้าว	-0.6961015
-4.292171	กิโลแคลอรี่	-0.7156108
-4.11608	กิ่งไม้	-0.9542093
-4.468263	กิ๊ก	-0.5966746
-4.371352	กีรติกร	-0.6364295
-4.292171	กีฬา	-0.7742629
-2.237813	กี่	-1.407202
-3.655349	กี่คน	-1.352433
-3.447073	กี่โมง	-1.268839
-4.371352	กึ่ง	-0.6989515
-4.468263	กุมภา	-0.5918573
-2.877198	กุ้ง	-0.9586529
-4.292171	กุ้งสับ	-0.7760036
-3.748103	กู้	-1.321343
-2.949749	ก็	-0.9876977
-4.371352	ก็อท	-0.6989515
-3.362752	ก็ได้	-1.18203
-3.151244	ก่อน	-0.8352724
-4.292171	ก่อนหน้า	-0.7156108
-4.11608	ก่อนหลัง	-0.9507565
-4.371352	ก่อไฟ	-0.6980789
-4.371352	ก้าม	-0.6989368
-4.11608	ก้าวร้าว	-0.9542093
-3.551809	ก๊าซ	-0.7866233
-3.436854	ก๋วยเตี๋ยว	-0.8306317
-4.11608	ขณะ	-0.6971415
-4.11608	ขณะที่	-0.6985635
-4.11608	ขณะนี้	-0.9539875
-4.371352	ขน	-0.6989368
-3.638959	ขนม	-0.9803063
-3.866202	ขนมหวาน	-1.194325
-2.983963	ขนาด	-0.9452299
-4.371352	ขนาน	-0.6364295
-3.956379	ขม	-1.113618
-4.11608	ขมิ้น	-0.6978938
-4.292171	ขยะ	-0.7756323
-3.502121	ขยาย	-0.8322135
-4.371352	ขลับ	-0.6976975
-4.371352	ขลิบ	-0.6891755
-3.839874	ขวด	-0.7348695
-4.371352	ขวนขวาย	-0.6989515
-4.371352	ขวบ	-0.6988037
-4.070323	ขวัญ	-0.7365637
-2.973412	ขวา	-1.048991
-4.02893	ขวาน	-0.9788522
-2.214198	ขอ	-0.9418563
-2.086696	ของ	-0.8485408
-4.292171	ของขวัญ	-0.7742629
-4.292171	ของหวาน	-0.7769973
-4.371352	ของเหลว	-0.6959938
-4.371352	ของแข็ง	-0.6988481
-4.371352	ขอนแก่น	-0.6364295
-3.956379	ขอบ	-0.6959342
-4.292171	ขอบคุณ	-0.7775931
-4.371352	ขอบพระคุณ	-0.6989515
-4.11608	ขอม	-0.9541797
-4.292171	ขอโทษ	-0.7770714
-4.371352	ขะมุกขะมอม	-0.6364295
-4.371352	ขัดยอก	-0.6364295
-4.371352	ขัดแตะ	-0.6364295
-4.371352	ขับ	-0.6989515
-3.551809	ขั้น	-0.799455
-3.502121	ขั้นตอน	-1.046223
-4.11608	ขั้วโลก	-0.8917021
-3.839874	ขั้วโลกเหนือ	-1.167908
-4.11608	ขั้วโลหะ	-0.9534994
-3.748103	ขา	-1.040853
-3.956379	ขาด	-0.8450021
-3.839874	ขาดแคลน	-0.953518
-2.924194	ขาย	-0.8349877
-3.81505	ขาว	-0.9151235
-4.371352	ขีด	-0.6979123
-4.225224	ขี้เกียจ	-0.8450279
-2.894231	ขึ้น	-0.8995765
-3.748103	ขึ้นมา	-0.6999314
-4.11608	ขึ้นอยู่	-0.9528292
-3.839874	ขึ้นไป	-0.8914931
-4.468263	ขึ้วา	-0.5395195
-4.11608	ขื่อ	-0.6953648
-3.866202	ขุด	-1.204028
-4.371352	ขูด	-0.6979234
-3.306894	ขโมย	-1.115265
-3.839874	ข่าย	-0.8015031
-3.956379	ข่ายงาน	-1.113459
-4.070323	ข่าว	-0.6775534
-3.956379	ข่าวสาร	-0.6349552
-3.791569	ข้อ	-0.7820411
-4.11608	ข้อกำหนด	-0.9506708
-4.11608	ข้อความ	-0.9535253
-4.371352	ข้อจำกัด	-0.6953983
-4.11608	ข้อดี	-0.944448
-4.371352	ข้อบกพร่อง	-0.6988333
-4.371352	ข้อผิดพลาด	-0.695484
-4.11608	ข้อพระหัตถ์	-0.8917021
-4.371352	ข้อมือ	-0.6989515
-2.679387	ข้อมูล	-0.7940784
-4.371352	ข้อสรุป	-0.6891755
-3.894231	ข้อสอบ	-0.6892059
-4.371352	ข้อเสนอ	-0.6979086
-3.111281	ข้าง	-1.138192
-3.672382	ข้างล่าง	-1.394465
-4.371352	ข้าพเจ้า	-0.6887673
-3.769292	ข้าม	-0.7981594
-2.796165	ข้าว	-1.045346
-3.655349	ข้าวกะเพรา	-0.9682379
-3.407565	ข้าวผัด	-0.8624537
-4.225224	ข้าวมัน	-0.8446546
-4.02893	ข้าวมันไก่	-0.7750337
-2.601975	ข้าวหลามตัด	-1.805091
-4.11608	ข้าวเจ้า	-0.9541391
-4.292171	ข้าวเปล่า	-0.7748253
-4.292171	ข้าวเปล่่า	-0.7767787
-3.866202	ข้าวเหนียว	-0.8658363
-4.225224	ข้าวโพด	-0.8450722
-4.02893	ข้าวไข่ดาว	-0.77807
-4.11608	คง	-0.6953499
-3.195261	คณะ	-1.061625
-3.839874	คณะกรรมการ	-0.8011445
-4.371352	คณะกรรมการบริหาร	-0.6982861
-4.371352	คณะรัฐมนตรี	-0.6950817
-4.371352	คติ	-0.6979123
-2.498614	คน	-1.061557
-4.070323	คนป่วย	-0.9374595
-4.02893	คนแก่	-0.9788522
-4.02893	คนไม่สบาย	-0.9788522
-4.371352	คมนาคม	-0.6986448
-3.839874	ครบ	-0.7383618
-4.371352	ครบถ้วน	-0.6986079
-4.11608	ครอบ	-0.9506559
-4.11608	ครอบครัว	-0.9506559
-4.292171	ครับ	-0.7156108
-3.42687	ครั้ง	-0.7879054
-4.371352	ครั้งคราว	-0.695484
-4.371352	ครั้งละ	-0.6989515
-4.371352	ครั้นแล้ว	-0.6987742
-4.468263	คราว	-0.5922655
-3.322134	คริส	-0.9920738
-4.11608	คริสต์ศตวรรษ	-0.944448
-4.371352	ครีมเชื่อม	-0.6364295
-4.225224	ครีมเมอรี่	-0.8348953
-2.927308	ครึ่ง	-1.189666
-4.11608	คลอง	-0.6891264
-4.371352	คลอไรด์	-0.6989515
-4.11608	คลั่ง	-0.6987113
-4.11608	คลาดเคลื่อน	-0.9541945
-4.371352	คลินิก	-0.6364295
-3.956379	คลื่น	-0.6958077
-4.371352	คลื่นพาห์	-0.6364295
-4.371352	คลื่นแสง	-0.6988629
-4.371352	คลื่นไส้	-0.6989368
-4.225224	คลุก	-0.8450722
-4.371352	คลุม	-0.6985524
-4.371352	คล่องตัว	-0.695484
-3.578961	คล้าย	-0.8424044
-4.11608	คล้ายคลึง	-0.9531256
-3.41711	ควบคุม	-0.7508983
-3.29947	ควร	-0.804134
-4.468263	ควัน	-0.5395195
-4.371352	ควันไฟ	-0.6981307
-2.613956	ความ	-0.9542654
-4.371352	ความกว้าง	-0.6989515
-4.371352	ความคิด	-0.6989515
-3.284993	ความคิดเห็น	-1.305091
-3.839874	ความจริง	-0.9541318
-4.11608	ความจำ	-0.9532626
-4.371352	ความจุ	-0.6989515
-3.140903	ความถี่	-0.785374
-4.11608	ความยาว	-0.697742
-3.839874	ความรู้	-0.7992508
-3.362752	ความรู้สึก	-1.238492
-3.655349	ความสัมพันธ์	-1.41035
-4.371352	ความสูง	-0.6953983
-4.371352	ความเข้ม	-0.6988185
-4.371352	ความเข้าใจ	-0.6979086
-4.11608	ความเป็นมา	-0.9540836
-3.207	ความเร็ว	-1.2155
-4.02893	ความแรง	-1.040701
-4.11608	ควาย	-0.95297
-4.371352	ควินิน	-0.6364295
-2.976901	ควีน	-1.041133
-3.81505	คอ	-0.8221877
-4.371352	คอก	-0.6986448
-2.953051	คอมพิวเตอร์	-0.860685
-4.371352	คอมแพคดิสก์	-0.6989515
-4.468263	คะ	-0.6020452
-4.070323	คะน้า	-0.7367575
-3.219064	คะแนน	-1.098278
-4.292171	คัตสึด้ง	-0.7776116
-4.292171	คัทสึด้ง	-0.7156108
-3.924194	คั่ว	-0.7255595
-4.371352	คั้งค่า	-0.698752
-4.371352	คั้น	-0.6979234
-4.371352	คานคู่	-0.6364295
-4.11608	คาปาซิเตอร์ทรานซิสเตอร์	-0.9512663
-4.070323	คาปูชิโน่	-0.6767459
-4.292171	คาโบนาร่า	-0.7767231
-4.11608	คำกำกวม	-0.8917021
-3.41711	คำนวณ	-1.068986
-4.371352	คำนวน	-0.6970227
-4.371352	คำนึง	-0.6984932
-3.748103	คำสั่ง	-0.7099776
-4.371352	คำเชื่อม	-0.6975419
-3.839874	คำแนะนำ	-1.226963
-3.070323	คิง	-1.106931
-3.479258	คิด	-0.854709
-4.292171	คิดส์ซาเนีย	-0.7765378
-4.225224	คิล	-0.8450537
-3.991141	คิว	-1.078719
-4.371352	คิวบิด	-0.6981307
-4.02893	คิสึเนะอุด้ง	-0.7766268
-4.371352	คีย์บอร์ด	-0.6364295
-3.41711	คืน	-0.8394476
-2.668922	คือ	-0.974001
-3.447073	คุก	-0.6573997
-4.371352	คุกกี้	-0.6989515
-3.956379	คุณภาพ	-1.113614
-3.956379	คุณสมบัติ	-1.110357
-4.225224	คุมสอบ	-0.8447027
-3.479258	คุย	-0.8672315
-4.371352	คุ้นเคย	-0.6979715
-2.858135	คู่	-1.058407
-4.371352	คู่มือ	-0.6949475
-4.11608	คู่แข่งขัน	-0.9536844
-3.956379	ค่อย	-1.113322
-4.292171	ค่ะ	-0.7156108
-3.292171	ค่า	-0.8053172
-3.655349	ค่าย	-1.411044
-3.672382	ค่าใช้จ่าย	-0.945399
-4.371352	ค่ำ	-0.697816
-4.371352	ค่ำคืน	-0.6364295
-4.371352	ค้น	-0.698508
-3.183831	ค้นหา	-1.00955
-4.292171	ค้อน	-0.7156108
-4.371352	ค้า	-0.6980382
-4.371352	ค้างคืน	-0.6987372
-4.225224	ฆ่า	-0.8447729
-4.292171	งง	-0.7779185
-4.225224	งด	-0.8397126
-3.502121	งบ	-0.9922858
-3.538843	งบประมาณ	-1.17946
-4.371352	งวดเงิน	-0.6364295
-4.371352	งอ	-0.6989515
-4.11608	งอกเงย	-0.9541649
-4.371352	งัว	-0.6364295
-2.754352	งาน	-0.8665234
-4.11608	งาม	-0.6984895
-4.11608	งามเจตนรมณ์	-0.9512663
-4.468263	งีบ	-0.6020305
-4.11608	งุนงง	-0.9542093
-4.11608	งูพิษ	-0.9542093
-3.991141	ง่วง	-0.7501041
-3.623164	ง่าย	-0.7321941
-4.371352	ง่ายๆ	-0.6971415
-4.371352	จ	-0.6989515
-3.655349	จง	-0.8563677
-3.407565	จดหมาย	-0.8614314
-3.337929	จน	-0.9273833
-4.11608	จนถึง	-0.6949288
-3.839874	จบ	-0.951415
-4.371352	จฬ.	-0.6364295
-3.479258	จอ	-0.9205473
-3.51402	จอง	-0.9750077
-3.7279	จอด	-1.342223
-4.292171	จอบ	-0.7156108
-3.839874	จอภาพ	-0.8915272
-4.371352	จอมอนิเตอร์	-0.6364295
-2.264143	จะ	-0.9426424
-4.371352	จะต้อง	-0.6964733
-3.270982	จัง	-1.271889
-3.748103	จังหวัด	-0.8747289
-3.457539	จัด	-0.8104203
-3.894231	จัดการ	-0.6900742
-3.956379	จัดซื้อ	-0.8450168
-4.371352	จัดทำ	-0.6987668
-4.11608	จัดลำดับ	-0.9542093
-3.436854	จันทร์	-0.7024623
-4.371352	จันทร์แสนวิไล	-0.6364295
-4.371352	จันทัน	-0.6989515
-3.407565	จับ	-1.085818
-4.468263	จััดการ	-0.6017348
-4.02893	จั่ว	-0.7778594
-3.791569	จั้ม	-1.278628
-4.225224	จั้มฟอส	-0.5902054
-3.866202	จั๊ม	-1.203994
-2.349337	จาก	-0.9542047
-3.839874	จากนั้น	-0.9513184
-4.371352	จากนี้	-0.6887673
-2.90597	จาน	-1.50414
-4.371352	จานสายอากาศ	-0.6979901
-3.436854	จาม	-1.342053
-3.956379	จารึก	-0.8430061
-4.371352	จารึกเขาน้อย	-0.6364295
-4.11608	จำ	-0.6986744
-4.371352	จำกัด	-0.6973565
-3.322134	จำนวน	-1.162965
-4.371352	จำพวก	-0.6989515
-4.371352	จำหน่าย	-0.695484
-3.672382	จำเป็น	-0.8898725
-4.11608	จิระศักดิ์	-0.9542093
-3.956379	จี	-0.5982312
-4.02893	จีน	-0.770768
-2.897136	จึง	-0.894674
-3.178228	จุด	-0.889253
-4.371352	จุดสำคัญ	-0.6953983
-4.371352	จุดหมาย	-0.6364295
-4.371352	จุดเชื่อม	-0.6988481
-3.956379	จุล	-0.8332434
-3.111281	จุฬา	-1.415339
-4.371352	จุฬาลงกรณ์มหาวิทยาลัย	-0.6989515
-3.468262	จ่าย	-0.9395195
-4.11608	จ่ายเงิน	-0.8917021
-4.11608	ฉบับ	-0.9507676
-4.371352	ฉลามลาย	-0.6364295
-3.956379	ฉะนั้น	-0.8410271
-2.540123	ฉัน	-1.175471
-2.969952	ฉาย	-0.9666603
-4.11608	ชง	-0.6317806
-4.371352	ชนบท	-0.6953834
-3.457539	ชนิด	-0.7485988
-4.371352	ชนินทร์	-0.6989515
-3.956379	ชวน	-1.1132
-3.956379	ชวาล	-1.051403
-3.306894	ชอบ	-1.117131
-4.371352	ชอล์ก	-0.6989515
-4.11608	ชะ	-0.9540614
-4.11608	ชะโลม	-0.9516752
-4.11608	ชัก	-0.6357892
-4.11608	ชัดเจน	-0.9506559
-4.371352	ชัยกุล	-0.6364295
-4.371352	ชัยวัฒน์	-0.6989515
-4.371352	ชัยสินธพ	-0.6364295
-4.225224	ชั่ว	-0.8430877
-4.371352	ชั่วคราว	-0.6364295
-2.827284	ชั่วโมง	-0.9860935
-3.017244	ชั้น	-1.000704
-4.371352	ชั้นสูง	-0.6364295
-4.292171	ชานม	-0.7763227
-3.81505	ชาบู	-0.9721997
-3.457539	ชาม	-1.089554
-4.371352	ชายคา	-0.6964733
-3.991141	ชาร์จ	-0.8075055
-4.371352	ชาว	-0.6989515
-4.371352	ชาวกรีก	-0.6364295
-4.11608	ชาวนา	-0.9541797
-4.02893	ชาเขียว	-0.7775081
-4.468263	ชำระ	-0.6011837
-4.11608	ชิพ	-0.9542093
-3.017244	ชิ้น	-1.290655
-3.956379	ชีวประวัติ	-0.8447655
-4.371352	ชีวิต	-0.6987483
-4.292171	ชีส	-0.7754204
-2.930443	ชื่อ	-0.8111533
-3.447073	ชุด	-0.7576845
-4.371352	ชุดฝึก	-0.698922
-4.11608	ชุบ	-0.9541649
-4.371352	ชุมชน	-0.6364295
-3.866202	ช็อกโกแลต	-0.9181447
-4.02893	ช็อคโกแลต	-0.7152993
-3.866202	ช็อต	-1.14158
-3.578961	ช่วง	-1.487887
-4.02893	ช่วงนี้	-0.7038062
-3.270982	ช่วย	-0.9853709
-4.11608	ช่วยเหลือ	-0.9541354
-2.522547	ช่อง	-1.386078
-4.371352	ช่องว่าง	-0.6891755
-4.292171	ช้อนชา	-0.7156108
-4.292171	ช้อนโต๊ะ	-0.7780811
-3.839874	ช้า	-0.9535587
-4.225224	ซอบิงโก	-0.8429949
-4.11608	ซอฟต์แวร์	-0.8917021
-3.956379	ซอฟท์แวร์	-0.8443957
-4.225224	ซอลบิง	-0.8436847
-3.708595	ซอส	-0.8089206
-3.956379	ซัก	-0.8431396
-3.956379	ซับซ้อน	-0.7819215
-4.371352	ซาก	-0.6989515
-4.225224	ซาวด์แทรก	-0.7825575
-4.468263	ซิก	-0.6020452
-4.371352	ซิงคาโน	-0.6964027
-4.11608	ซิงโครนัส	-0.8917021
-4.292171	ซินนามอน	-0.7156108
-4.371352	ซิเทรต	-0.698922
-3.956379	ซี	-0.5344478
-4.225224	ซีท	-0.8443624
-4.11608	ซีรีย์	-0.6984119
-4.371352	ซีอิ๊ว	-0.6969671
-3.839874	ซีเอ็นซี	-0.8908738
-2.803151	ซึ่ง	-0.9011585
-3.070323	ซื้อ	-0.8229433
-4.371352	ซุก	-0.6983934
-4.292171	ซุเปอร์มาร์เก็ต	-0.7765378
-4.371352	ซ้อน	-0.6978531
-2.976901	ซ้าย	-1.045442
-4.371352	ซ้ำ	-0.6984304
-4.02893	ญี่ปุ่น	-0.770768
-3.638959	ฐานข้อมูล	-0.9706881
-4.11608	ฐานปฏิบัติการ	-0.8917021
-4.292171	ดนตรี	-0.7742629
-3.551809	ดร.	-0.8690951
-3.551809	ดรัม	-1.167716
-4.371352	ดราก้อน	-0.6364295
-4.225224	ดรีม	-0.8450722
-4.02893	ดวง	-0.773752
-3.956379	ดวงอาทิตย์	-0.7780638
-3.748103	ดวล	-1.320913
-4.371352	ดอก	-0.6989515
-2.812644	ดอกจิก	-1.596666
-4.371352	ดอกดวง	-0.6988776
-4.371352	ดอง	-0.6949475
-3.457539	ดัง	-0.942627
-3.748103	ดังกล่าว	-0.702656
-4.11608	ดังต่อไปนี้	-0.8917021
-4.11608	ดังนั้น	-0.696581
-3.41711	ดังนี้	-1.298111
-4.371352	ดัน	-0.6989515
-3.708595	ดับ	-1.078708
-4.292171	ดับเบิ้ล	-0.7780921
-4.371352	ดั้งแขวน	-0.6988037
-4.371352	ดาบ	-0.6364295
-3.083551	ดาว	-1.098176
-4.371352	ดาวพระเคราะห์	-0.6987889
-4.371352	ดาวเทียม	-0.6975567
-3.924194	ดำ	-0.8743366
-3.839874	ดำเนินงาน	-0.7348567
-3.638959	ดิจิตอล	-0.7243002
-3.672382	ดิน	-0.6796445
-4.11608	ดินปืน	-0.9440398
-3.956379	ดิบ	-0.8400715
-4.371352	ดิสก์	-0.6959938
-4.11608	ดิสก์แพ็ค	-0.9542093
-4.371352	ดิสชาร์จ	-0.6891755
-4.371352	ดิสเกตต์	-0.6950817
-2.675871	ดี	-1.103448
-4.11608	ดี.ซี.พลานาร์แมกนิตรอย	-0.8917021
-4.371352	ดีซีเซอร์โวมอเตอร์	-0.6364295
-4.371352	ดีซ่าน	-0.6989072
-4.11608	ดีบี	-0.8917021
-4.11608	ดีมอดูเลท	-0.9532626
-3.956379	ดีมอส	-1.113041
-4.292171	ดีแทค	-0.7754204
-4.225224	ดึก	-0.8353035
-4.11608	ดึง	-0.6978901
-4.225224	ดื่ม	-0.8450353
-4.11608	ดื้อยา	-0.8917021
-4.11608	ดุ	-0.95297
-2.452274	ดู	-1.048477
-3.578961	ดูด	-1.203965
-4.371352	ดูดซับ	-0.6989515
-4.292171	ดููด	-0.7781106
-2.483735	ด้วย	-0.8980513
-4.371352	ด้วยเหตุที่	-0.6887673
-3.380126	ด้าน	-0.6552808
-4.371352	ด้าย	-0.6969448
-3.593201	ตก	-0.8279939
-4.371352	ตกค้าง	-0.698922
-4.292171	ตกลง	-0.7156108
-4.371352	ตกเลือด	-0.6987039
-3.551809	ตนเอง	-0.7843403
-4.371352	ตย.	-0.6989515
-3.354319	ตรง	-0.8983568
-4.371352	ตรงกลาง	-0.6989515
-4.292171	ตรงไหน	-0.7156108
-4.371352	ตรรก	-0.6986559
-3.607924	ตรวจ	-0.8998197
-4.11608	ตรวจวัด	-0.9512663
-3.655349	ตรวจสอบ	-0.7697334
-4.371352	ตระกูล	-0.6954951
-4.292171	ตรา	-0.77807
-4.11608	ตราบ	-0.9536289
-4.11608	ตรึง	-0.9542093
-4.371352	ตรุษ	-0.6364295
-4.11608	ตลอดจน	-0.6980197
-4.371352	ตลับ	-0.6984304
-3.839874	ตลาด	-0.9532589
-2.827284	ตอง	-1.115902
-2.60643	ตอน	-1.008503
-3.389081	ตอนนี้	-0.9368321
-4.371352	ตอนเที่ยง	-0.6364295
-3.791569	ตอนเรียน	-1.268959
-3.839874	ตอบ	-0.9538805
-4.371352	ตอบสนอง	-0.6989515
-3.088051	ตะกร้า	-1.622035
-4.11608	ตะขาบ	-0.9542093
-4.371352	ตะพานหนู	-0.6364295
-4.371352	ตะวันตก	-0.6364295
-4.371352	ตะแกรง	-0.698715
-4.11608	ตะไคร้	-0.8917021
-4.292171	ตังค์	-0.7767231
-3.593201	ตัด	-0.765281
-4.371352	ตัดขวาง	-0.6953983
-4.371352	ตัดสิน	-0.6983157
-4.371352	ตัดสินใจ	-0.6984378
-4.11608	ตันปรียชญา	-0.9542093
-4.292171	ตับ	-0.7156108
-2.877198	ตัว	-0.9314044
-4.11608	ตัวกลาง	-0.6363058
-4.11608	ตัวความต้านทาน	-0.9542093
-4.11608	ตัวตน	-0.9507676
-4.371352	ตัวตรวจจับ	-0.6979901
-4.11608	ตัวตั้งเวลา	-0.9512663
-4.11608	ตัวนับ	-0.8917021
-4.371352	ตัวนำ	-0.6364295
-4.11608	ตัวผู้	-0.6329905
-4.371352	ตัวหนอน	-0.6965995
-3.21299	ตัวอย่าง	-1.269266
-3.457539	ตัวอักษร	-0.7464432
-4.371352	ตัวอ่อน	-0.6982861
-3.956379	ตัวเมีย	-0.6350793
-4.371352	ตัวเลข	-0.6982861
-4.070323	ตัวเอง	-0.6761724
-4.371352	ตัวเอ็นโค้คเดอร์	-0.6954951
-4.11608	ตัวแปร	-0.9541391
-3.061722	ตั้ง	-1.127216
-3.839874	ตั้งค่า	-1.230231
-4.371352	ตั้งฉาก	-0.6975567
-3.607924	ตั้งแต่	-0.8166866
-4.371352	ตั้งใจ	-0.6965995
-3.447073	ตั๋ว	-0.8787196
-3.894231	ตา	-0.8993022
-3.839874	ตาก	-0.95408
-4.371352	ตาชั่ง	-0.6891755
-2.973412	ตาม	-0.8159375
-3.866202	ตาย	-0.7095627
-3.362752	ตาราง	-1.11868
-4.11608	ตาล	-0.8917021
-3.839874	ตำ	-0.9541096
-4.371352	ตำรวจ	-0.6976975
-4.371352	ตำรับ	-0.6987705
-4.11608	ตำรา	-0.6364082
-3.956379	ตำแหน่ง	-0.8410606
-3.219064	ติด	-1.265795
-3.956379	ติดตั้ง	-0.8350655
-3.551809	ติดตาม	-1.004313
-3.538843	ติดต่อ	-1.065299
-4.225224	ติว	-0.8412097
-4.225224	ติวสอบ	-0.8443624
-4.371352	ติวโตเรียล	-0.6364295
-3.306894	ตี	-0.7496995
-4.371352	ตีห้า	-0.6989515
-3.578961	ตึก	-1.037389
-4.225224	ตึกร้อยปี	-0.8449207
-4.371352	ตึงเครียด	-0.6989368
-2.897136	ตื่น	-1.079816
-3.219064	ตู้	-0.9242728
-3.284993	ตู้เย็น	-0.8869633
-4.292171	ตู้เย็็น	-0.7679485
-2.784765	ต่อ	-0.9640505
-3.607924	ต่อมา	-1.17214
-4.371352	ต่อเนื่อง	-0.6364295
-3.292171	ต่อไป	-1.129448
-4.11608	ต่อไปนี้	-0.9518721
-3.956379	ต่าง	-1.112826
-3.956379	ต่างประเทศ	-0.7785291
-2.959733	ต่างๆ	-0.7714915
-3.468262	ต่ำ	-0.8052598
-4.11608	ต่ำกว่า	-0.9520949
-3.551809	ต้น	-0.8678444
-4.371352	ต้นข้าว	-0.6986374
-4.11608	ต้นแบบ	-0.6987963
-3.578961	ต้นไม้	-0.7744325
-3.195261	ต้ม	-0.8168343
-3.250778	ต้มยำ	-1.524343
-3.769292	ต้มยำกุ้งน้ำข้น	-0.7993562
-2.594651	ต้อง	-0.9991255
-3.346047	ต้องการ	-0.7152233
-4.371352	ต้านทาน	-0.698922
-4.11608	ถนนพระราม6	-0.9542093
-4.371352	ถลา	-0.6988185
-3.565172	ถอน	-1.206793
-4.070323	ถอย	-0.9995639
-3.748103	ถัด	-1.318256
-4.02893	ถั่ว	-0.7124555
-4.02893	ถั่วงอก	-0.7154359
-4.371352	ถาม	-0.6989515
-4.371352	ถิ่นอาศัย	-0.6959938
-4.371352	ถี่	-0.6970227
-2.959733	ถึง	-0.7856051
-4.02893	ถุง	-0.9788522
-4.11608	ถุงพลาสติก	-0.9542093
-4.11608	ถู	-0.9541797
-2.973412	ถูก	-0.772827
-3.7279	ถูกต้อง	-0.7318525
-3.457539	ถูกใจ	-1.319492
-4.371352	ถ่องแท้	-0.6364295
-4.371352	ถ่านไฟฉาย	-0.6989515
-4.11608	ถ่าย	-0.6988887
-3.839874	ถ่ายทอด	-1.229539
-4.371352	ถ่ายภาพ	-0.6989515
-4.292171	ถ่ายรูป	-0.7683567
-4.11608	ถ่ายเท	-0.6989331
-4.292171	ถ้วยตวง	-0.7780811
-3.140903	ถ้า	-0.8214386
-3.551809	ทดลอง	-0.7348652
-3.839874	ทดสอบ	-0.9532034
-4.225224	ทน	-0.8450722
-4.371352	ทนทาน	-0.6982566
-4.11608	ทบทวน	-0.9531848
-4.371352	ทบวงมหาวิทยาลัย	-0.6364295
-3.748103	ทรง	-0.7773452
-4.11608	ทรงกระบอก	-0.6363912
-4.371352	ทรัพยากร	-0.6891755
-3.551809	ทรานซิสเตอร์	-0.8051443
-4.225224	ทรานสคริปต์	-0.8353035
-4.371352	ทรานเฟอร์ฟังชันก์	-0.6989368
-4.371352	ทราบ	-0.6978531
-4.02893	ทรี	-0.7145515
-4.11608	ทรูโฮล	-0.9541058
-3.748103	ทฤษฎี	-0.8186055
-3.655349	ทวง	-1.414097
-4.292171	ทวน	-0.7766824
-4.292171	ทหารไทย	-0.7780071
-3.991141	ทอง	-0.7492196
-4.371352	ทองคำเปลว	-0.6987705
-4.225224	ทองดี	-0.8450722
-4.371352	ทองแดง	-0.6959938
-3.538843	ทอด	-0.7984278
-3.956379	ทอป	-0.696722
-3.791569	ทอย	-0.9959811
-3.538843	ทะเล	-0.8181409
-4.11608	ทะเลจีนใต้	-0.8917021
-4.371352	ทะเลใต้	-0.6987446
-4.292171	ทักษิณ	-0.7761261
-3.991141	ทัน	-0.7496172
-4.371352	ทันที	-0.6985561
-4.371352	ทับทิม	-0.6959938
-4.225224	ทัศนศึกษา	-0.8443624
-4.371352	ทั่ว	-0.6989515
-3.748103	ทั่วไป	-0.8178308
-3.956379	ทั่วๆไป	-1.051403
-3.079096	ทั้ง	-0.8395454
-4.11608	ทั้งนี้	-0.9537547
-4.371352	ทั้งวัน	-0.6364295
-4.371352	ทั้งสอง	-0.6887673
-2.91196	ทั้งหมด	-1.13618
-4.371352	ทั้งแผ่น	-0.6364295
-3.748103	ทา	-0.8841297
-2.620073	ทาง	-1.059615
-4.371352	ทางปฏิบัติ	-0.6364295
-4.371352	ทางเดินหายใจ	-0.6985672
-2.241663	ทำ	-1.106056
-3.956379	ทำการ	-0.6987224
-3.151244	ทำงาน	-0.8082416
-4.371352	ทำนอง	-0.6989072
-4.371352	ทำนาย	-0.6978531
-4.11608	ทำมุม	-0.9542093
-3.655349	ทำยังไง	-1.352433
-3.314447	ทำลาย	-1.085332
-4.11608	ทำหน้าที่	-0.954091
-3.257409	ทำให้	-0.7988903
-4.371352	ทิศทาง	-0.6959938
-3.51402	ทิ้ง	-0.9883096
-3.264142	ที	-1.27875
-4.225224	ทีม	-0.8415115
-3.250778	ทีวี	-1.166957
-1.65169	ที่	-1.094692
-3.839874	ที่1	-0.8798975
-3.839874	ที่จะ	-0.951311
-4.292171	ที่ดิน	-0.7156108
-3.839874	ที่นั่ง	-0.7343135
-3.894231	ที่นี่	-0.9008162
-4.225224	ที่ปรึกษา	-0.8448948
-4.292171	ที่พัก	-0.7778926
-4.371352	ที่พึ่งพิง	-0.6364295
-4.371352	ที่รัก	-0.6364295
-3.538843	ที่สุด	-1.016257
-4.02893	ที่แล้ว	-0.7154443
-3.565172	ที่ไหน	-1.148718
-4.371352	ทึบ	-0.6965995
-4.11608	ทึมๆ	-0.8917021
-2.90597	ทุก	-1.184901
-4.371352	ทุกคน	-0.6982454
-4.167233	ทุกวัน	-0.5903691
-4.292171	ทุกวันศุกร์	-0.7156108
-3.866202	ทุกเวลา	-0.776115
-4.292171	ทุบ	-0.7781291
-3.257409	ทุ่ม	-0.7690423
-4.371352	ทู	-0.6364295
-4.225224	ทูฟาสต์	-0.8450722
-4.225224	ทูสลีบ	-0.8411351
-4.225224	ทูเดย์	-0.8448653
-4.371352	ท่องเที่ยว	-0.6950071
-4.371352	ท่อแก้ว	-0.6364295
-4.468263	ท่า	-0.6020452
-4.11608	ท่าทาง	-0.6971229
-4.371352	ท่าน	-0.6980678
-3.956379	ท้องอืด	-0.8450463
-4.11608	ท้องเฟ้อ	-0.6329905
-4.292171	ท้องเสีย	-0.7779332
-3.748103	ท้า	-1.322142
-3.322134	ธนาคาร	-0.8480343
-4.371352	ธรณีประตู	-0.6959938
-4.371352	ธรรมชาติ	-0.6987963
-4.11608	ธรรมดา	-0.8917021
-4.371352	ธาตุ	-0.6989515
-4.371352	ธิดา	-0.6987446
-4.371352	ธุรกิจ	-0.6988629
-3.956379	ธุระ	-0.7772139
-4.371352	น.ส.	-0.6989515
-3.551809	นก	-0.9443008
-4.11608	นนทบุรี	-0.8917021
-3.690111	นม	-0.9341462
-4.371352	นราธิวาส	-0.6987483
-3.839874	นวด	-0.9535143
-3.526254	นอก	-1.244725
-3.672382	นอกจาก	-0.7608941
-4.11608	นอกจากนั้น	-0.6980493
-3.380126	นอกจากนี้	-0.8898419
-4.371352	นอกชาน	-0.6950817
-4.225224	นอกเวลา	-0.8397126
-2.897136	นอน	-1.123961
-4.225224	นอนได้	-0.8446213
-2.604939	นะ	-1.926097
-4.11608	นัก	-0.8917021
-4.371352	นักปราชญ์	-0.6989515
-4.371352	นักวิชาการ	-0.6891755
-4.11608	นักศึกษา	-0.944448
-4.225224	นักเรียน	-0.8412097
-3.655349	นักแสดงนำ	-1.411793
-2.667202	นัด	-0.8415508
-3.924194	นับ	-0.8743329
-3.956379	นับถือ	-0.8442921
-4.371352	นับวัน	-0.6965995
-3.053289	นั่ง	-0.8809729
-3.021104	นั้น	-0.8559833
-4.468263	นั้ั้น	-0.6020452
-3.839874	นา	-0.7380284
-4.11608	นางนวลแกลบ	-0.9541501
-2.623164	นาที	-1.144834
-3.270982	นาน	-1.058417
-4.11608	นานา	-0.954091
-4.371352	นาปรัง	-0.6364295
-3.748103	นาม	-0.6950928
-3.502121	นาย	-0.7823997
-3.490539	นาฬิกา	-0.9481024
-2.812644	นำ	-1.132668
-3.956379	นำเสนอ	-0.6974455
-4.11608	นำเอา	-0.6988296
-4.371352	นิกเกิล	-0.6364295
-4.11608	นิตยา	-0.9542093
-4.225224	นิติ	-0.8348953
-3.748103	นิยม	-0.8794454
-4.371352	นิลาพาร์วาทาลูเยนส์	-0.6953834
-4.11608	นิแวเต๊ะ	-0.9542093
-3.12584	นี่	-1.19017
-2.098583	นี้	-1.079526
-4.371352	นี้่ิ	-0.6982048
-3.092599	นึง	-1.152169
-4.371352	นุ่ง	-0.698922
-3.956379	นโยบาย	-0.6980714
-3.257409	น่า	-1.06251
-3.322134	น่าดู	-1.21434
-4.070323	น้อง	-0.7387307
-3.389081	น้อย	-1.040892
-4.11608	น้อยลง	-0.8917021
-2.798481	น้ำ	-0.8551337
-4.292171	น้ำข้น	-0.7156108
-4.02893	น้ำจิ้ม	-1.04002
-3.593201	น้ำตาล	-0.7670407
-4.371352	น้ำท่า	-0.6976975
-4.468263	น้ำปลา	-0.6014464
-4.11608	น้ำหนัก	-0.6964881
-3.593201	น้ำเงิน	-1.414581
-4.02893	น้ำเปล่า	-0.774762
-3.748103	น้ำแข็ง	-0.7083498
-4.292171	น้ำใส	-0.7156108
-4.371352	บกพร่อง	-0.6891755
-4.225224	บท	-0.8411687
-4.371352	บทความ	-0.6954951
-4.11608	บทบาท	-0.6890206
-3.748103	บทเรียน	-0.7106555
-2.885631	บน	-0.8226403
-3.623164	บรรจุ	-0.739516
-4.371352	บรรณารักษ์	-0.6949475
-4.371352	บรรทัด	-0.6987483
-3.708595	บริการ	-0.7297186
-4.371352	บริหาร	-0.6985561
-3.956379	บริเวณ	-0.8352847
-4.11608	บริโภค	-0.8917021
-4.225224	บรูซ	-0.8450722
-4.225224	บลายบิด	-0.8423672
-4.225224	บลีช	-0.8450722
-4.070323	บลู	-0.6778008
-4.371352	บล็อก	-0.6989515
-3.41711	บล๊อค	-0.919261
-4.371352	บล๊อคโมเสด	-0.6950817
-3.956379	บล๊อคไดอะแกรม	-0.7822503
-3.748103	บวก	-1.318893
-3.337929	บอก	-0.9283292
-4.468263	บอม	-0.5395195
-3.956379	บอส	-0.7821863
-4.371352	บอแรกซ์	-0.6364295
-3.866202	บะหมี่	-0.9286277
-3.748103	บังคับ	-1.321702
-3.791569	บัญชี	-0.9892675
-4.371352	บัญญัติศัพท์	-0.6989368
-3.189509	บัตร	-0.8913879
-3.371352	บันทึก	-0.9597853
-4.11608	บันทึกภาพ	-0.9528144
-3.839874	บันได	-0.7970241
-3.991141	บัว	-0.8128099
-4.371352	บั้นเอว	-0.6364295
-3.284993	บาง	-0.8373426
-4.11608	บางครั้ง	-0.6987557
-4.371352	บางๆ	-0.6364295
-2.847606	บาท	-1.308483
-4.371352	บาน	-0.6364295
-4.371352	บานประตู	-0.6959938
-4.11608	บาป	-0.8917021
-4.225224	บิงซู	-0.8450722
-3.097195	บิชอป	-1.670526
-3.956379	บิดา	-1.113895
-4.11608	บิน	-0.6989331
-3.991141	บิล	-0.811018
-3.956379	บิวตี้	-1.113895
-3.32996	บี	-0.7299018
-4.225224	บีทีเอส	-0.8449096
-4.11608	บีบ	-0.9522396
-3.956379	บีสต์	-1.103741
-4.371352	บึ้งตึง	-0.6989368
-3.956379	บึ้ม	-0.6356823
-4.468263	บืชอป	-0.598734
-4.371352	บุคคล	-0.698885
-4.11608	บุคคลากร	-0.944448
-4.371352	บุคลากร	-0.6989072
-4.371352	บุคลิกภาพ	-0.6989515
-4.371352	บุตร	-0.6989515
-3.991141	บุฟเฟต์	-0.7976098
-4.371352	บุหงามงคล	-0.6364295
-4.11608	บูชา	-0.6354387
-4.371352	บ่งบอก	-0.6984932
-3.655349	บ่อย	-1.412243
-4.371352	บ่อยครั้ง	-0.6891755
-3.956379	บ่อยๆ	-0.7825363
-3.237813	บ่าย	-1.009861
-1.909254	บ้าง	-2.494215
-3.002136	บ้าน	-1.101647
-3.839874	บ้านเมือง	-0.7903278
-4.371352	บ้านเรือน	-0.6989072
-4.371352	ปกครอง	-0.6989072
-3.924194	ปกติ	-0.6612814
-3.538843	ปฎิทิน	-0.8841017
-3.956379	ปฏิบัติ	-0.8348311
-3.607924	ปฏิบัติการ	-0.9474778
-4.292171	ปฏิเสธ	-0.7156108
-4.11608	ปทุมธานี	-0.8917021
-4.11608	ปรก	-0.9534994
-4.371352	ปรมาณู	-0.6979901
-3.284993	ประกอบ	-1.10976
-3.502121	ประกอบด้วย	-0.7251171
-4.292171	ประกัน	-0.7781143
-3.748103	ประกันตัว	-1.321528
-3.839874	ประการ	-0.6234528
-4.371352	ประกาศ	-0.6364295
-4.11608	ประคบ	-0.9542093
-3.42687	ประจำ	-0.9786548
-4.371352	ประจำวัน	-0.6887673
-4.371352	ประจุ	-0.6988111
-3.672382	ประชาชน	-0.7620888
-4.292171	ประชาสัมพันธ์	-0.7765378
-3.11608	ประชุม	-0.7349891
-4.292171	ประดับ	-0.7742629
-3.201091	ประตู	-0.8137743
-4.292171	ประทับ	-0.7781291
-4.292171	ประท้วง	-0.7771047
-3.672382	ประธาน	-0.8913522
-4.371352	ประมง	-0.6989515
-4.371352	ประมวล	-0.6959938
-4.371352	ประมวลผล	-0.6980604
-3.407565	ประมาณ	-1.086215
-3.672382	ประมูล	-1.397004
-4.292171	ประยุทธ์	-0.7765489
-4.292171	ประวัติ	-0.7745796
-4.371352	ประสงค์	-0.6965995
-4.11608	ประสบ	-0.9541797
-4.371352	ประสบการณ์	-0.6953983
-4.371352	ประสาท	-0.698922
-4.371352	ประสานงาน	-0.6987446
-4.11608	ประสาร	-0.9542093
-4.371352	ประหยัด	-0.6982787
-3.447073	ประเทศ	-0.9834239
-3.956379	ประเทศที่พัฒนาแล้ว	-1.051403
-3.672382	ประเทศไทย	-0.7545656
-3.593201	ประเภท	-0.754362
-4.371352	ประเมิน	-0.6989515
-3.956379	ประเมินผล	-1.109921
-4.371352	ประโยคความเดียว	-0.6364295
-3.672382	ประโยชน์	-0.7514557
-3.839874	ปรับ	-0.9539729
-4.11608	ปรับปรุง	-0.6363357
-4.11608	ปรากฎ	-0.6968001
-3.672382	ปรากฏ	-0.8421963
-3.748103	ปริมาณ	-1.030566
-4.11608	ปริมาตร	-0.9541945
-4.11608	ปรุง	-0.697679
-4.371352	ปรุงยา	-0.6987742
-4.371352	ปรุงอาหาร	-0.6364295
-4.371352	ปลด	-0.6979234
-4.371352	ปลอดภัย	-0.6950817
-4.371352	ปลอม	-0.6964027
-4.225224	ปลั๊ก	-0.844673
-3.51402	ปลา	-0.924223
-4.371352	ปลาช่อน	-0.698053
-3.839874	ปลาย	-0.6984821
-3.292171	ปลาหมึก	-1.483609
-4.371352	ปลาไหล	-0.6988924
-2.845013	ปลุก	-0.9782454
-4.371352	ปลุกเร้า	-0.6989368
-3.748103	ปลูก	-0.7730685
-4.371352	ปล่อย	-0.6989368
-3.769292	ปล้น	-1.300339
-3.924194	ปวด	-0.8749762
-4.371352	ปวดท้อง	-0.6988
-4.371352	ปอด	-0.6989515
-3.322134	ปอนด์	-0.9920738
-3.924194	ปะ	-1.083588
-4.11608	ปักดำ	-0.9512663
-4.292171	ปัง	-0.773528
-3.468262	ปังย่า	-0.6396707
-4.225224	ปังเย็น	-0.8348953
-3.839874	ปัจจุบัน	-0.7875629
-3.839874	ปัญหา	-0.9540283
-4.292171	ปั่น	-0.7156108
-4.371352	ปั้น	-0.6953834
-4.468263	ปา	-0.5395195
-3.748103	ปาก	-0.8827
-4.371352	ปากกา	-0.6965995
-4.468263	ปาตี้	-0.6015426
-4.070323	ปานกลาง	-0.9374595
-4.225224	ปาร์ค	-0.8442402
-4.468263	ปาร์ตี้	-0.5395195
-3.655349	ปาล์ม	-0.9048348
-2.704834	ปิด	-0.9993442
-4.225224	ปิดเทอม	-0.8441662
-3.690111	ปิ้ง	-0.9258646
-3.398225	ปี	-0.7544498
-4.371352	ปีงบประมาณ	-0.6989515
-4.371352	ปึกแผ่น	-0.6989515
-3.866202	ปืน	-0.61388
-4.371352	ปุ๋ย	-0.6982269
-4.292171	ปู	-0.7778556
-4.371352	ปูม้า	-0.6989515
-3.81505	ป่าว	-1.192732
-3.447073	ป้องกัน	-0.7205028
-3.231473	ป้อน	-0.974725
-4.225224	ป้อม	-0.8450574
-4.225224	ป๊อปคอร์น	-0.8443624
-4.468263	ผงก	-0.6020157
-4.371352	ผนวก	-0.6982861
-3.526254	ผม	-0.8217945
-3.314447	ผล	-0.8246223
-4.11608	ผลงาน	-0.6918834
-4.371352	ผลผลิต	-0.6982861
-4.11608	ผลลัพธ์	-0.944448
-4.371352	ผลอไพล่เผล	-0.6989515
-3.27793	ผลิต	-0.9833286
-4.11608	ผลิตผล	-0.9535475
-4.371352	ผลิตภัณฑ์	-0.6979271
-4.11608	ผลึก	-0.632302
-4.11608	ผลเสีย	-0.953529
-3.956379	ผลไม้	-0.8418465
-4.371352	ผศ.	-0.6989515
-3.672382	ผสม	-0.7606897
-4.02893	ผัก	-0.7152993
-4.371352	ผักกาด	-0.6964733
-4.02893	ผักคะน้า	-0.7653201
-4.292171	ผักบุ้ง	-0.7776116
-2.819902	ผัด	-1.269686
-4.371352	ผัดซีอิ๊ว	-0.696451
-4.11608	ผิด	-0.95297
-4.371352	ผิดปกติ	-0.6953983
-3.956379	ผิดพลาด	-0.8411911
-4.11608	ผิว	-0.9506708
-4.371352	ผืน	-0.6989515
-4.371352	ผูก	-0.6989515
-3.354319	ผู้	-0.7708672
-4.371352	ผู้กระทำ	-0.6964027
-3.655349	ผู้กำกับ	-1.411793
-4.292171	ผู้จัดการ	-0.7156108
-3.839874	ผู้ชาย	-0.8909037
-4.225224	ผู้ช่วย	-0.8447766
-4.371352	ผู้ช่วยศาสตราจารย์	-0.6989515
-4.371352	ผู้น้อย	-0.6959938
-3.956379	ผู้ป่วย	-0.8450316
-4.371352	ผู้มีชื่อ	-0.6987963
-4.11608	ผู้วิจัย	-0.697516
-4.371352	ผู้สนับสนุน	-0.6959938
-4.02893	ผู้สูงอายุ	-0.9788522
-3.839874	ผู้หญิง	-1.167908
-4.371352	ผู้เกี่ยวข้อง	-0.6984304
-4.11608	ผู้เล่น	-0.6362375
-3.207	ผู้ใช้	-0.8669376
-3.839874	ผู้ใหญ่	-0.6910189
-4.371352	ผ่า	-0.6959938
-3.12584	ผ่าน	-0.679311
-3.7279	ผ้า	-0.7938251
-4.371352	ผ้านุ่ง	-0.6989515
-4.371352	ผ้าพาดไหล่	-0.6364295
-4.371352	ผ้าพิมพ์	-0.6364295
-4.371352	ผ้าเกี้ยว	-0.6964027
-4.371352	ผ้าเคียนพุง	-0.6959938
-4.371352	ผ้าเช็ดตัว	-0.6989515
-3.41711	ฝน	-0.9273313
-4.11608	ฝรั่ง	-0.8917021
-4.02893	ฝั่ง	-0.635868
-3.956379	ฝา	-0.8450463
-4.02893	ฝาก	-1.037821
-3.956379	ฝาด	-1.113622
-4.371352	ฝึก	-0.6989368
-3.956379	ฝึกสอน	-1.110967
-3.578961	ฝุ่น	-0.7663119
-4.11608	ฝ่าย	-0.944448
-3.839874	พ.ศ.	-0.8015621
-4.468263	พก	-0.5395195
-4.11608	พญาไท	-0.9542093
-4.371352	พนักงาน	-0.6891755
-3.41711	พบ	-0.9866888
-4.11608	พบว่า	-0.953751
-4.371352	พยายาม	-0.6964733
-4.225224	พร	-0.8431508
-4.225224	พรจากฟ้า	-0.8444105
-4.371352	พรวน	-0.6364295
-4.11608	พระธาตุ	-0.9537805
-4.11608	พระบรมธาตุ	-0.95297
-4.371352	พระบาทสมเด็จพระเจ้าอยู่หัว	-0.6364295
-4.11608	พระราชทาน	-0.9522396
-4.371352	พระราชประสงค์	-0.695484
-4.371352	พระราชอาณาจักร	-0.6364295
-4.371352	พระองค์	-0.6984193
-4.371352	พระเกียรติยศ	-0.6975419
-4.225224	พระเกี้ยว	-0.8411351
-3.839874	พระเยซู	-0.9537473
-3.894231	พริก	-0.7479571
-4.02893	พริกน้ำปลา	-0.7740393
-4.11608	พริกไทย	-0.6983379
-4.225224	พรีวิเลจ	-0.8441662
-4.225224	พรีเมี่ยม	-0.8444363
-4.371352	พรึง	-0.6364295
-4.11608	พรุ	-0.9534994
-3.502121	พรุ่ง	-1.27526
-2.637353	พรุ่งนี้	-0.965253
-3.623164	พร้อม	-0.8877996
-4.371352	พร้อมเพรียง	-0.6364295
-4.11608	พร้อมๆ	-0.9531256
-4.11608	พฤติกรรม	-0.9502199
-4.371352	พฤษภ	-0.6982861
-4.371352	พฤษภาคม	-0.698922
-4.02893	พฤหัส	-0.7743523
-3.322134	พล	-0.9920738
-3.839874	พลัง	-0.8013368
-3.956379	พลังงาน	-0.8433252
-4.371352	พลาสมา	-0.6989072
-4.02893	พลิก	-1.041278
-4.371352	พลุ่ง	-0.6988924
-4.371352	พลเมือง	-0.6987446
-4.371352	พล็อต	-0.6987742
-3.748103	พวก	-1.318744
-3.479258	พอ	-0.7835961
-3.956379	พอก	-0.8448542
-4.371352	พอส	-0.698508
-4.11608	พอสมควร	-0.8917021
-4.292171	พอแล้ว	-0.7156108
-4.11608	พะโล้	-0.6334632
-4.468263	พัก	-0.6000348
-3.002136	พัฒนา	-0.7617293
-4.371352	พัด	-0.6986448
-3.51402	พัน	-0.9254989
-4.371352	พันธุ์	-0.6989515
-4.11608	พับ	-0.6960198
-4.225224	พากย์	-0.8447914
-4.292171	พาณิชย์	-0.7765378
-4.371352	พาด	-0.6975567
-3.866202	พานาคอตต้า	-0.7122062
-4.371352	พายุ	-0.6988037
-4.225224	พารากราฟ	-0.8450722
-3.257409	พารากอน	-0.8257805
-3.956379	พาราโบลา	-0.8326547
-4.371352	พาหะ	-0.6364295
-4.225224	พิกัด	-0.8429949
-4.292171	พิการ	-0.7754204
-3.457539	พิจารณา	-0.8753971
-4.371352	พิธี	-0.6989515
-4.371352	พิบูลศิลป์	-0.6989515
-4.070323	พิม	-0.9997044
-3.551809	พิมพ์	-0.864463
-4.371352	พิมพ์ดีด	-0.6364295
-4.371352	พิษวิทยา	-0.6959938
-3.167233	พิเศษ	-0.9586606
-4.070323	พี	-0.60088
-4.11608	พีซีเอ็ม	-0.8917021
-4.468263	พี่	-0.6020231
-4.371352	พึบพับ	-0.6950071
-4.11608	พึ่งพา	-0.9541945
-4.371352	พืช	-0.6891755
-4.371352	พืชสมุนไพร	-0.6976382
-4.371352	พืชสวน	-0.6989515
-3.81505	พื้น	-0.7144821
-3.839874	พื้นฐาน	-1.226877
-4.371352	พื้นดิน	-0.6364295
-3.607924	พื้นที่	-0.8186084
-4.11608	พื้นเมือง	-0.9506559
-4.371352	พุทธศักราช	-0.6989515
-3.502121	พุธ	-0.6095232
-3.956379	พุ่ง	-1.113104
-3.623164	พูด	-0.8869832
-4.371352	พู่	-0.6988555
-4.11608	พ่น	-0.6962206
-4.11608	พ้อง	-0.697679
-3.991141	ฟรี	-0.8094422
-4.225224	ฟรุตตี้	-0.8445806
-4.11608	ฟร้องซ์	-0.8917021
-4.371352	ฟลิปฟล็อป	-0.6891755
-4.371352	ฟลูออเรสเซนซ์	-0.6989515
-4.02893	ฟอง	-0.9788522
-4.292171	ฟองนม	-0.7156108
-3.538843	ฟอส	-0.6243306
-4.371352	ฟอสฟอรัส	-0.6989515
-4.225224	ฟัง	-0.84505
-4.292171	ฟัน	-0.7779332
-4.225224	ฟันขาว	-0.8444142
-4.371352	ฟาก	-0.6988592
-4.371352	ฟากฟ้า	-0.6364295
-4.02893	ฟาร์ม	-0.9788522
-4.371352	ฟาร์มโคนม	-0.6989515
-4.02893	ฟิตเนส	-0.7651526
-4.225224	ฟิฟตี้	-0.8450722
-4.11608	ฟิลเตอร์	-0.8917021
-4.371352	ฟิล์ม	-0.6987446
-4.11608	ฟื้นฟู	-0.9536881
-4.02893	ฟ้า	-0.7770454
-4.371352	ภรรยา	-0.6987446
-4.371352	ภัย	-0.6982566
-3.083551	ภาค	-0.9487411
-4.371352	ภาคกลาง	-0.6984119
-4.11608	ภาคตัดขวาง	-0.9506708
-4.371352	ภาคผสมสัญญาณ	-0.6953834
-4.371352	ภาครัฐบาล	-0.6959938
-3.956379	ภาควิชา	-0.6968965
-4.11608	ภาคเหนือ	-0.9541354
-4.371352	ภาชนะ	-0.6988665
-3.672382	ภาพ	-0.8441663
-3.956379	ภาพตัดขวาง	-0.6851979
-4.11608	ภาพอักษร	-0.954006
-3.956379	ภายนอก	-0.7823656
-4.11608	ภายหลัง	-0.9502199
-3.672382	ภายใต้	-0.8433623
-3.21299	ภายใน	-0.7866765
-4.371352	ภารกิจ	-0.6891755
-3.468262	ภาษา	-1.145207
-4.371352	ภาษาศาสตร์	-0.6891755
-4.371352	ภาษาอังกฤษ	-0.6959938
-4.371352	ภาษาแอสเซมบลี	-0.6364295
-4.11608	ภาษาไทย	-0.6364082
-4.468263	ภู	-0.6014057
-4.11608	ภูมิประเทศ	-0.6988296
-4.371352	ภูมิภาค	-0.6984932
-4.371352	ภูษาทรง	-0.6964733
-4.371352	มน	-0.6988333
-4.371352	มนุษย์	-0.6364295
-3.839874	มม.	-0.951099
-4.225224	มรณะ	-0.8449835
-4.225224	มหาจักรีสิรินธร	-0.8434846
-4.11608	มหาวิทยาลัย	-0.6988739
-4.371352	มหาวิทยาลัยเกษตรศาสตร์	-0.6364295
-4.371352	มหาวิทยาลัยเชียงใหม่	-0.6364295
-4.371352	มหาอาณาจักร	-0.6989515
-4.225224	มหิต	-0.8348953
-4.02893	มอคค่า	-0.7145345
-3.924194	มอง	-0.7234084
-4.371352	มอน	-0.6364295
-4.371352	มอนเตอร์	-0.6364295
-4.371352	มอบหมาย	-0.6965995
-3.956379	มอสเฟสกำลัง	-1.113895
-4.11608	มอเตอร์	-0.9507565
-4.225224	มะม่วง	-0.8448985
-3.690111	มะรืน	-1.376736
-3.672382	มัก	-0.8324152
-4.371352	มักโรนี	-0.6978531
-4.371352	มังสวิรัติ	-0.697816
-3.12584	มัน	-1.006663
-4.225224	มันฝรั่ง	-0.8450168
-4.371352	มั่นคง	-0.6364295
-4.371352	มั่ว	-0.69846
-2.771469	มั้ย	-2.236313
-2.638959	มา	-0.8752971
-2.891346	มาก	-1.063584
-4.11608	มากกว่า	-0.6364082
-3.457539	มากขึ้น	-1.550243
-4.11608	มากมาย	-0.9540688
-4.292171	มากิ	-0.7772343
-4.371352	มาตรา	-0.6989072
-4.11608	มาตรเวลา	-0.9535253
-3.791569	มาบุญครอง	-0.8352129
-3.502121	มาม่า	-0.8453465
-3.956379	มารดา	-0.8436514
-4.371352	มาลาไทออน	-0.6989515
-4.292171	มาส	-0.7156108
-4.371352	มิ	-0.6969671
-4.371352	มิกเซอร์	-0.6975419
-3.791569	มิดเทอม	-0.9926053
-4.371352	มิตรภาพ	-0.6978531
-4.225224	มิติ	-0.8397126
-4.225224	มิยาบิ	-0.8449724
-4.292171	มิลลิลิตร	-0.7156108
-4.371352	มิลลิเมตร	-0.6982566
-1.63416	มี	-1.066504
-4.225224	มีนา	-0.5907555
-4.371352	มีโอกาส	-0.698508
-4.02893	มืด	-0.7778668
-4.11608	มือ	-0.9540504
-4.468263	มือถือ	-0.5993292
-4.371352	มื้อ	-0.6954951
-4.11608	มุง	-0.9528144
-4.11608	มุม	-0.6984748
-4.371352	มุ่ง	-0.6950071
-4.225224	มูฟวี่	-0.8415115
-4.371352	มูโนะ	-0.6988924
-3.407565	ม้า	-1.3649
-4.225224	ม้้ย	-0.7825575
-4.225224	ย	-0.8450722
-4.11608	ยก	-0.9542093
-4.225224	ยกคลาส	-0.8447359
-3.219064	ยกเลิก	-0.871448
-4.292171	ยอม	-0.7781291
-3.956379	ยอมรับ	-0.6923036
-4.225224	ยักษ์	-0.8442402
-2.682932	ยัง	-1.170877
-4.11608	ยังมี	-0.9542093
-3.207	ยังไง	-1.800782
-3.337929	ยา	-0.7976717
-3.479258	ยาก	-1.126785
-4.371352	ยาฆ่าแมลง	-0.6364295
-4.292171	ยางมะตูม	-0.7753312
-4.371352	ยาดอง	-0.6989515
-4.371352	ยานเล็ก	-0.6364295
-4.11608	ยาบรรจุเสร็จ	-0.8917021
-2.973412	ยาว	-1.011733
-4.11608	ยาวนาน	-0.9542093
-4.371352	ยาสมุนไพร	-0.6969671
-4.371352	ยาสังเคราะห์	-0.6959938
-4.11608	ยาเหน็บ	-0.9502796
-4.11608	ยาแผนปัจจุบัน	-0.6355883
-4.371352	ยาแผนโบราณ	-0.6891755
-4.225224	ยาโยอิ	-0.8423672
-4.292171	ยำ	-0.7775747
-3.7279	ยิง	-0.6507027
-4.225224	ยิน	-0.8444437
-3.956379	ยิ่ง	-0.8446805
-4.11608	ยิ่งขึ้น	-0.8917021
-4.11608	ยีนส์	-0.8917021
-3.502121	ยี่	-1.566892
-3.638959	ยี่สิบ	-0.8705537
-3.672382	ยึด	-1.112589
-4.11608	ยึดถือ	-0.9542093
-4.11608	ยืด	-0.944448
-4.371352	ยืนยัน	-0.6975974
-3.866202	ยืม	-1.203244
-4.11608	ยื่น	-0.9506708
-4.371352	ยุง	-0.6989368
-3.956379	ยุโรป	-0.782468
-3.672382	ยุ่งยาก	-0.9540321
-4.371352	ยุ้ง	-0.6989515
-3.81505	ยู	-0.8195877
-3.956379	ยูเอชเอฟ	-0.7825363
-3.655349	ย่อ	-0.7097701
-4.11608	ย่อม	-0.952414
-3.894231	ย่อย	-0.6891546
-4.02893	ย่าง	-0.7722195
-3.839874	ย่าน	-0.8014883
-3.551809	ย้อน	-1.22845
-3.894231	ย้าย	-0.9020285
-3.748103	รด	-1.321528
-3.51402	รดน้ำ	-0.988768
-3.337929	รถ	-0.8073201
-4.11608	รถแทรกเตอร์	-0.9537916
-4.468263	รบ	-0.5395195
-4.11608	รบกวน	-0.6949325
-4.11608	รม	-0.8917021
-4.371352	รวง	-0.6364295
-4.371352	รวงข้าว	-0.6987483
-3.672382	รวดเร็ว	-0.7809379
-3.578961	รวม	-0.7747694
-4.371352	รวมถึง	-0.6969671
-3.839874	รวมทั้ง	-0.7979042
-4.371352	รศ.	-0.6988481
-3.457539	รส	-0.7576753
-3.655349	รสชาติ	-1.411387
-4.371352	รสประธานยา	-0.6988185
-3.791569	รหัส	-0.8362281
-4.225224	รหัสวิชา	-0.8404748
-4.225224	รอ	-0.8448653
-4.468263	รองรับ	-0.6019122
-4.371352	รองศาสตราจารย์	-0.6989072
-3.924194	รองเท้า	-0.8102068
-4.468263	รอด	-0.5395195
-2.800809	รอบ	-0.8762422
-4.371352	รอย	-0.6989515
-4.11608	รอยทาง	-0.944448
-4.11608	รอยพับ	-0.9512663
-4.371352	รอยสลัก	-0.6989515
-4.371352	รอยเย็บ	-0.6364295
-4.468263	ระ	-0.6020452
-4.371352	ระงับ	-0.6987298
-3.201091	ระดับ	-0.9441491
-2.832276	ระบบ	-0.7773523
-4.371352	ระบบขับเคลื่อน	-0.6986559
-4.11608	ระบบออโธรอมบิด	-0.8917021
-4.11608	ระบาย	-0.9535512
-3.551809	ระยะ	-0.7871888
-4.371352	ระยะทาง	-0.6953983
-4.371352	ระวีวรรณ	-0.6989515
-3.284993	ระหว่าง	-0.7721859
-4.225224	ระเบิด	-0.5395024
-4.225224	รัก	-0.8450722
-2.980417	รักษา	-0.9831635
-4.371352	รังสี	-0.6982861
-4.371352	รังสีเอ็กซ์	-0.6989368
-4.371352	รัฐ	-0.695644
-3.748103	รัฐบาล	-1.319243
-4.371352	รัฐมนตรี	-0.6989515
-3.839874	รัฐมนตรีว่าการ	-0.9541761
-4.371352	รัฐวิสาหกิจ	-0.6959938
-3.101839	รับ	-0.7879043
-4.371352	รับประทาน	-0.6950817
-4.11608	รับส่ง	-0.9532626
-4.11608	รัว	-0.6363912
-4.371352	ราก	-0.6364295
-4.371352	รากนมสวรรค์	-0.6364295
-4.371352	รากเจตมูลเพลิง	-0.6989515
-4.371352	รากแคแตร	-0.6959938
-2.817469	ราคา	-1.150234
-3.956379	รางวัล	-0.8404487
-4.371352	ราชการ	-0.6989515
-4.11608	ราชบัณฑิตยสถาน	-0.6353874
-3.748103	ราดหน้า	-0.776675
-3.538843	ราย	-1.530969
-3.013417	รายการ	-1.221782
-3.551809	รายงาน	-0.8628354
-4.225224	รายชื่อ	-0.8450205
-3.565172	รายละเอียด	-1.213767
-3.490539	รายได้	-1.12374
-4.371352	ราศี	-0.6989515
-4.02893	ริม	-0.7778667
-4.371352	ริมฝีปาก	-0.698922
-4.11608	ริเวอร์	-0.6363912
-4.225224	รีบ	-0.8436292
-3.791569	รีวิว	-0.9955074
-3.708595	รึ	-0.9196351
-4.225224	รึยัง	-0.7825575
-4.225224	รุจิศรี	-0.8441403
-4.371352	รุนแรง	-0.6970227
-4.371352	รุ่งอรุณ	-0.6959938
-4.02893	รุ้ง	-0.7147611
-4.371352	รู	-0.698922
-4.371352	รูบิเดียม	-0.6364295
-2.803151	รูป	-1.12887
-4.11608	รูปร่าง	-0.69846
-3.672382	รูปแบบ	-0.7709808
-4.11608	รูเจาะ	-0.8917021
-3.655349	รู้	-0.772934
-3.839874	รู้จัก	-0.7983734
-3.956379	รู้สึก	-0.6952679
-3.956379	ร่วม	-0.8396491
-4.371352	ร่างกาย	-0.6976975
-3.81505	ร้อง	-0.9151276
-4.11608	ร้องเพลง	-0.9503542
-4.371352	ร้องไห้	-0.6364295
-3.436854	ร้อน	-0.9062101
-2.969952	ร้อย	-1.15452
-2.315974	ร้าน	-1.160006
-3.839874	ร้านค้า	-0.8882631
-4.11608	ร้านอาหาร	-0.9537916
-4.11608	ร้านแนะนำ	-0.8917021
-3.956379	ร้าย	-0.8437923
-4.11608	ฤชุพันธุ์	-0.9506559
-4.371352	ฤดู	-0.6989515
-4.371352	ฤดูหนาว	-0.6988592
-4.371352	ฤดูแล้ง	-0.6364295
-2.767126	ลง	-0.9616639
-4.225224	ลงทะเบียน	-0.8434846
-4.371352	ลงมา	-0.6988
-4.11608	ลงโทษ	-0.9518721
-2.897136	ลด	-1.083084
-4.11608	ลดทอน	-0.6947796
-3.956379	ลดลง	-0.8415897
-3.502121	ลบ	-1.049946
-4.11608	ลม	-0.6989331
-3.894231	ลวก	-0.6878294
-4.11608	ลวดทองแดง	-0.944448
-4.11608	ลอง	-0.6962949
-4.371352	ลองจิจูด	-0.6364295
-3.748103	ลอจิก	-0.8793557
-4.225224	ลอจิค	-0.8450722
-4.225224	ลอย	-0.8450722
-3.12584	ละ	-1.002623
-3.866202	ละลาย	-0.9293007
-4.292171	ละหมาด	-0.7754204
-3.956379	ละเมอ	-0.6363356
-4.11608	ละเลย	-0.9531256
-3.314447	ลักษณะ	-0.8429922
-4.371352	ลัดเลาะ	-0.6950071
-4.225224	ลั่น	-0.5391482
-3.140903	ลา	-1.632995
-4.371352	ลางาน	-0.6968223
-4.11608	ลาดเท	-0.9534032
-4.292171	ลาน	-0.7780921
-4.371352	ลาส	-0.698922
-4.02893	ลาเต้	-0.7145345
-4.292171	ลิฟท์	-0.7779591
-4.292171	ลิมิต	-0.7778889
-4.225224	ลิเนียร์	-0.8450722
-4.225224	ลิโด้	-0.8443624
-4.371352	ลิ้นทะเล	-0.6989515
-4.468263	ลีนุกซ์	-0.5993292
-3.791569	ลืม	-1.278133
-4.070323	ลุก	-0.6762838
-4.371352	ลุกลาม	-0.6987483
-3.956379	ลุง	-0.8352771
-4.371352	ลุ่ม	-0.6989515
-4.292171	ลุ้น	-0.7779185
-4.02893	ลูก	-0.9788522
-4.371352	ลูกกลอน	-0.6949475
-3.839874	ลูกค้า	-0.951311
-4.292171	ลูกชิ้นปลา	-0.7776116
-4.371352	ลูกปืน	-0.6988
-3.839874	ลูกผสม	-0.9443801
-4.371352	ลูกผู้ดี	-0.6987002
-4.371352	ลูกฟัก	-0.6989515
-3.894231	ลูกเต๋า	-0.6836562
-3.956379	ลูป	-0.7823656
-3.748103	ล็อกอิน	-1.04099
-4.371352	ล็อกเอาท์	-0.6364295
-3.51402	ล็อค	-0.8994624
-4.225224	ล็อบสเตอร์	-0.8444142
-4.371352	ล่ม	-0.6364295
-4.225224	ล่วง	-0.8438552
-4.070323	ล่า	-0.9994974
-3.526254	ล่าง	-0.7515229
-4.371352	ล่าม	-0.6989515
-3.490539	ล่าสุด	-1.058116
-4.11608	ล้ม	-0.9538767
-4.292171	ล้าง	-0.7781106
-3.894231	ล้าน	-0.9010907
-3.991141	วง	-0.8122147
-4.11608	วงขนานลองติจูด	-0.9506559
-3.140903	วงจร	-0.737446
-4.11608	วงจรขยายกำลัง	-0.8917021
-4.371352	วงจรขยายสัญญาณ	-0.6891755
-4.371352	วงจรผสมสัญญาณ	-0.6364295
-4.11608	วงจรรวม	-0.9537916
-4.11608	วงจรรีเลย์	-0.9542093
-4.11608	วงจรอิเล็กทรอนิกส์	-0.9533514
-4.11608	วงจรไดอะแกรม	-0.9506708
-4.371352	วงล้อ	-0.6989515
-4.371352	วงล้อเพลตัน	-0.6364295
-4.371352	วงศ์งามขำ	-0.6959938
-4.371352	วนศาสตร์	-0.6989515
-4.371352	วรนุช	-0.6989515
-3.380126	วอล	-0.9359982
-4.292171	วอล์ค	-0.7741883
-3.839874	วัชพืช	-0.7914712
-4.371352	วัฑฒนะพงศ์	-0.6364295
-4.371352	วัฒนธรรม	-0.6979271
-4.11608	วัด	-0.6947834
-4.371352	วัดขุนพรหม	-0.6988887
-3.748103	วัตถุ	-0.7768527
-3.748103	วัตถุดิบ	-1.317596
-4.371352	วัตถุประสงค์	-0.6953983
-2.298735	วัน	-1.297125
-3.490539	วันที่	-1.009655
-2.819902	วันนี้	-0.9160347
-4.292171	วันปีใหม่	-0.7727658
-4.371352	วันรุ่งขึ้น	-0.6364295
-4.02893	วันศุกร์	-0.7643906
-3.672382	วันหยุด	-0.9494141
-3.655349	วันเกิด	-1.411402
-4.371352	วันเสาร์	-0.6954951
-4.371352	วันไหน	-0.6935846
-4.11608	วัย	-0.9506708
-4.468263	วัยรุ่น	-0.5966746
-3.924194	วัว	-0.8124824
-3.956379	วัสดุ	-0.844318
-3.526254	วาง	-0.7147589
-3.956379	วางแผน	-0.6953573
-4.371352	วาด	-0.6982861
-4.11608	วาน	-0.9440398
-4.371352	วานซืน	-0.6964733
-3.748103	วาป	-1.318256
-4.371352	วิกรม	-0.6989515
-3.502121	วิจัย	-0.9300379
-2.667202	วิชา	-0.9649563
-3.839874	วิชาการ	-0.7967515
-3.120932	วิดีโอ	-0.9134925
-4.371352	วิทยาศาสตร์	-0.69846
-4.11608	วิทยาศาสตร์เทคโนโลยีและการพลังงาน	-0.9506559
-3.748103	วิทยุ	-0.6964956
-4.371352	วิทยุตามตัว	-0.6989072
-4.371352	วิทยุโทรทัศน์	-0.6979901
-2.946471	วิธี	-0.9462186
-3.607924	วิธีการ	-0.8146368
-3.748103	วิธีทำ	-0.8832155
-4.292171	วิธีี	-0.7756546
-3.839874	วิธีใช้	-0.7372023
-3.389081	วินาที	-1.618701
-4.371352	วินิจฉัย	-0.6959938
-4.468263	วินโดวส์	-0.5993292
-3.866202	วินโด้	-1.200232
-4.02893	วิป	-0.7153164
-4.02893	วิปครีม	-0.7776819
-4.11608	วิภา	-0.9542093
-4.225224	วิลลิส	-0.8444549
-4.371352	วิศวกรรมศาสตร์	-0.6989515
-3.244248	วิศวะ	-1.001235
-3.748103	วิเคราะห์	-0.7663383
-4.225224	วิเคราะห์ระบบ	-0.8348953
-3.156508	วิ่ง	-1.321236
-4.468263	วิ่่ง	-0.601598
-4.371352	วีซีโอ	-0.6989368
-3.956379	วีดิโอ	-1.104149
-2.973412	วีดีโอ	-1.249457
-4.371352	วีแอลเอสไอ	-0.6364295
-4.11608	วุฒิพงศ์	-0.9542093
-4.371352	วุฒิวะชาติกุล	-0.6364295
-4.371352	วุ้น	-0.6989515
-4.11608	วโรตม์สิกขดิตถ์	-0.9512663
-4.371352	ว่องไว	-0.6364295
-2.822349	ว่า	-0.7820912
-3.250778	ว่าง	-0.9964018
-4.371352	ศอก	-0.6953834
-4.371352	ศักดาไฟฟ้า	-0.6891755
-4.371352	ศักราช	-0.6988776
-3.839874	ศัตรู	-0.9533367
-4.371352	ศัพท์	-0.6970227
-4.371352	ศัพท์สัมพันธ์	-0.6988037
-4.225224	ศาลา	-0.8450722
-3.956379	ศาสนา	-0.8442329
-3.655349	ศิลปิน	-1.41035
-3.956379	ศิลาจารึก	-0.694552
-3.839874	ศึกษา	-0.6935247
-3.479258	ศุกร์	-0.7924528
-4.371352	ศุภเดช	-0.6364295
-3.167233	ศูนย์	-0.9193049
-4.371352	ศูนย์กลาง	-0.6989072
-4.371352	ศูนย์วิจัย	-0.6988629
-4.11608	ศูนย์สูตร	-0.9541945
-3.748103	ศูนย์ฯ	-0.8098974
-3.839874	ศูนย์เทคโนโลยีอิเล็กทรอนิกส์และคอมพิวเตอร์แห่งชาติ	-0.943654
-4.292171	สกาย	-0.7781291
-4.225224	สคิป	-0.8449835
-4.11608	สง่า	-0.9542093
-4.371352	สตรี	-0.6982861
-3.866202	สตอเบอร์รี่	-0.9181447
-4.225224	สตางค์	-0.8423672
-4.225224	สตาร์บัค	-0.841612
-3.502121	สตาร์วอร์	-0.8886343
-4.371352	สถานที่	-0.6959938
-4.292171	สถานะ	-0.7156108
-3.362752	สถานี	-0.9644792
-4.11608	สถาบันเทคโนโลยีพระจอมเกล้าลาดกระบัง	-0.8917021
-3.748103	สถิติ	-0.8837635
-4.225224	สน	-0.8450279
-4.371352	สนพระราชหฤทัย	-0.695484
-4.371352	สนับสนุน	-0.6969671
-4.11608	สนามไฟฟ้า	-0.8917021
-4.371352	สนิท	-0.6953834
-4.371352	สบาย	-0.6364295
-4.371352	สปริง	-0.6964027
-3.866202	สปาเก็ตตี้	-0.9293118
-3.607924	สภาพ	-0.8988771
-4.11608	สภาพแวดล้อม	-0.9539358
-4.371352	สภาวะ	-0.6989072
-3.839874	สมการ	-0.7917547
-4.11608	สมชัย	-0.9542093
-4.11608	สมบูรณ์	-0.6987668
-4.371352	สมภพ	-0.6989515
-4.11608	สมมติ	-0.9534587
-4.371352	สมรรถนะ	-0.6953983
-4.371352	สมอง	-0.6953983
-3.81505	สมัคร	-0.9768658
-3.956379	สมัย	-0.844577
-4.371352	สมาคม	-0.6979271
-3.672382	สมาชิก	-0.8330385
-4.225224	สมุด	-0.8450279
-4.11608	สมุทรปราการ	-0.8917021
-3.346047	สมุนไพร	-0.7712757
-4.371352	สมเกียรติ	-0.6989515
-4.371352	สม่ำเสมอ	-0.6364295
-4.070323	สยอง	-0.999963
-4.02893	สยาม	-0.7779739
-3.839874	สรรพคุณ	-0.9477563
-4.11608	สรรพศรี	-0.8917021
-3.791569	สระ	-1.278624
-3.81505	สรุป	-0.8134714
-3.27793	สร้าง	-0.8074843
-3.578961	สร้างขึ้น	-1.491247
-4.292171	สลัดบาร์	-0.7768788
-3.607924	สลับ	-0.8403061
-4.11608	สลับซับซ้อน	-0.8917021
-4.225224	สลาฟ	-0.8450611
-4.371352	สลึง	-0.6989515
-4.11608	สวม	-0.6966701
-4.070323	สวย	-0.6778051
-4.225224	สวีท	-0.8450722
-3.593201	สว่าง	-0.8516554
-4.468263	สอ	-0.5395195
-2.188938	สอง	-0.9558876
-4.292171	สองทุ่ม	-0.7781291
-4.371352	สอดคล้อง	-0.6975567
-3.354319	สอน	-0.9693924
-3.074687	สอบ	-0.9224115
-4.371352	สอบถาม	-0.6980604
-4.225224	สอบย่อย	-0.842579
-4.371352	สะกด	-0.69846
-4.11608	สะกดจิต	-0.9537879
-3.748103	สะดวก	-0.7119394
-4.225224	สะสาง	-0.8397126
-3.791569	สะอาด	-0.7368467
-4.167233	สัก	-0.6514396
-4.371352	สักการะ	-0.6989368
-4.371352	สังคมสารสนเทศ	-0.6364295
-4.070323	สังเกต	-0.7400338
-4.292171	สังเกตุ	-0.7780921
-4.11608	สังเขป	-0.9540762
-3.551809	สังเคราะห์	-1.167546
-3.161837	สัญญาณ	-0.8094561
-4.371352	สัญญาณเตือน	-0.6965995
-4.11608	สัญญาณเบสแบนด์	-0.8917021
-4.371352	สัญลักษณ์	-0.6953983
-4.11608	สัดส่วน	-0.6890659
-4.371352	สัตวแพทยศาสตร์	-0.6959938
-3.839874	สัตว์	-0.951218
-4.371352	สัตว์น้ำ	-0.6985672
-4.371352	สัตว์ปีก	-0.6891755
-4.371352	สัตว์เลี้ยง	-0.6985672
-3.593201	สับ	-0.8509428
-4.11608	สับตะไคร้	-0.8917021
-4.11608	สับสน	-0.9542093
-3.061722	สัปดาห์	-1.471907
-4.11608	สัมประสิทธิ์	-0.9502199
-4.371352	สัมพันธ์	-0.6987446
-3.264142	สั่ง	-0.8787007
-4.292171	สั่งงาน	-0.7776153
-4.371352	สั่งซื้อ	-0.6970227
-3.748103	สั้น	-0.8216947
-3.748103	สาขา	-0.8168477
-3.956379	สาธารณสุขมูลฐาน	-0.7707529
-4.371352	สาน	-0.6976975
-4.371352	สาบสาง	-0.6989515
-2.306895	สาม	-0.9682168
-3.956379	สามย่าน	-0.8422669
-2.778066	สามารถ	-0.7701479
-4.371352	สามี	-0.6975567
-3.638959	สาย	-0.7848317
-4.11608	สายตา	-0.6953797
-4.371352	สายสร้อย	-0.6988702
-3.839874	สายอากาศ	-0.7242301
-4.11608	สาร	-0.6989331
-3.839874	สารตัวนำยิ่งยวด	-0.7274975
-4.371352	สารนิเทศ	-0.6959938
-3.956379	สารเคมี	-0.8430617
-4.371352	สารเจือโบรอน	-0.6364295
-3.672382	สำคัญ	-0.6959798
-4.11608	สำนักงาน	-0.9541354
-4.11608	สำนักงานปลัดกระทรวงวิทยาศาสตร์เทคโนโลยีและการพลังงาน	-0.9542093
-4.371352	สำนักงานปลัดกระทรวงฯ	-0.6364295
-4.11608	สำมะโนประชากร	-0.9507565
-4.11608	สำรวจ	-0.9542093
-2.782521	สำหรับ	-0.8778945
-3.894231	สิ	-0.8392807
-4.468263	สิงหา	-0.5918573
-4.11608	สิทธิเลิศพิศาล	-0.8917021
-2.63416	สินค้า	-1.082201
-2.521319	สิบ	-1.108372
-4.02893	สิบเอ็ด	-0.569417
-3.526254	สิ่ง	-1.077682
-3.748103	สิ่งก่อสร้าง	-1.320913
-4.371352	สิ่งของ	-0.6989515
-4.11608	สิ่งแวดล้อม	-0.6952307
-4.02893	สิ้น	-1.041031
-3.956379	สิ้นเปลือง	-1.113851
-2.798481	สี	-1.224588
-2.433834	สี่	-0.9893554
-4.371352	สี่เหลี่ยม	-0.6982417
-3.839874	สืบค้น	-0.6939434
-4.371352	สื่อสาร	-0.6989515
-3.748103	สุก	-0.9787625
-4.371352	สุกี้	-0.6988702
-4.02893	สุกๆ	-1.040853
-4.292171	สุขภาพ	-0.7769973
-3.956379	สุขุม	-1.112671
-4.371352	สุชาติ	-0.6989515
-4.371352	สุญญากาศ	-0.6364295
-2.936784	สุด	-0.9831424
-3.894231	สุดท้าย	-0.7388459
-4.371352	สุนัข	-0.6976975
-3.791569	สุภาพ	-0.998657
-4.371352	สุรา	-0.6364295
-4.371352	สุรีย์	-0.6989515
-3.956379	สุ่ม	-0.7823101
-3.457539	สูง	-0.8854591
-4.371352	สูงสุด	-0.6364295
-3.551809	สูญเสีย	-0.7959402
-3.748103	สูตร	-1.320984
-4.11608	สู่	-0.6988111
-3.270982	สเต็ก	-0.8895198
-4.371352	สเปคตรัม	-0.6979901
-3.447073	สแควร์	-1.153534
-4.371352	สไลด์	-0.6364295
-2.930443	ส่ง	-0.9370132
-4.11608	ส่งเสริม	-0.9502199
-2.868925	ส่วน	-0.9488531
-4.371352	ส่วนความจำ	-0.6364295
-4.371352	ส่วนประกอบ	-0.695484
-3.655349	ส่วนผสม	-1.41035
-4.292171	ส่วนลด	-0.7754204
-4.11608	ส่วนหนึ่ง	-0.9538988
-3.839874	ส่วนใหญ่	-0.8889634
-4.02893	ส่าย	-1.041215
-3.956379	ส้ม	-1.113881
-4.225224	ส้มตำ	-0.8447618
-2.842436	หก	-1.134482
-4.292171	หญ้า	-0.7156108
-3.956379	หนอนกอ	-0.844207
-3.748103	หนัก	-0.9742723
-2.136835	หนัง	-1.483912
-3.32996	หนังสือ	-0.9251081
-3.593201	หนาว	-0.8295736
-4.292171	หนี	-0.7777263
-3.578961	หนี้	-0.776827
-2.11753	หนึ่ง	-1.08907
-4.371352	หนุ่มหนุ่ม	-0.6989515
-3.748103	หนู	-0.8746004
-4.11608	หนูขยะ	-0.9512663
-4.11608	หนูจิ๊ด	-0.9542093
-4.11608	หนูนา	-0.9542093
-4.11608	หนูพุกเล็ก	-0.9542093
-4.11608	หนูสวน	-0.9542093
-4.11608	หนูหริ่ง	-0.8917021
-4.371352	หน่วยความจำ	-0.6364295
-3.672382	หน่วยงาน	-0.9493728
-4.371352	หน่วยรังสีรักษา	-0.6950817
-2.576168	หน่อย	-1.955956
-2.543983	หน้า	-0.8780211
-3.551809	หน้าจอ	-0.8856928
-4.11608	หน้าจั่ว	-0.6889904
-3.839874	หน้าต่าง	-1.230164
-3.457539	หน้าที่	-0.7734834
-3.748103	หน้าบ้าน	-0.8206648
-4.11608	หน้าปัทม์	-0.8917021
-4.468263	หน้้า	-0.6020009
-3.538843	หมด	-0.7445193
-3.791569	หมอ	-0.6580524
-3.866202	หมา	-1.14158
-4.371352	หมายถึง	-0.6980345
-3.457539	หมายเลข	-0.9421903
-4.292171	หมี่กรอบ	-0.7748253
-4.371352	หมึก	-0.6887673
-3.479258	หมื่น	-1.133842
-4.11608	หมุน	-0.6978197
-3.195261	หมู	-0.7834023
-3.748103	หมูกระเทียม	-0.8186616
-3.607924	หมูสับ	-0.8339429
-4.11608	หมู่คณะ	-0.9506708
-4.02893	หมู่บ้าน	-0.9788522
-4.11608	หยด	-0.6989331
-4.11608	หยาบคาย	-0.9542093
-4.292171	หยิบ	-0.7745796
-3.292171	หยุด	-0.6936009
-2.533764	หรือ	-0.8838662
-4.371352	หลงลืม	-0.6364295
-4.371352	หลบหลีก	-0.6364295
-3.839874	หลวง	-0.9494738
-4.070323	หลอด	-0.7389716
-4.371352	หลอดไฟ	-0.6989515
-4.11608	หลอดไฟฟ้า	-0.944448
-4.371352	หลอม	-0.6364295
-3.672382	หลัก	-0.7663783
-4.11608	หลักการ	-0.6950891
-3.956379	หลักฐาน	-0.6978752
-4.11608	หลักเกณฑ์	-0.944448
-2.99844	หลัง	-0.8610574
-4.371352	หลังจากนั้น	-0.6989515
-4.292171	หลังบ้าน	-0.7156108
-4.225224	หลับ	-0.8448616
-4.371352	หลัวฮู่	-0.6364295
-3.398225	หลาย	-0.8250425
-4.11608	หลายๆ	-0.6982048
-4.371352	หวัง	-0.6987594
-3.130803	หวาน	-0.8586649
-4.468263	หวาย	-0.6014057
-4.371352	หวี	-0.6985191
-3.578961	หอ	-1.200567
-4.225224	หอกลาง	-0.8443624
-4.371352	หอบ	-0.6989515
-4.371352	หอย	-0.6988444
-4.02893	หอยแครง	-0.7755765
-4.371352	หอสมุดกลาง	-0.6988333
-4.11608	หะยีวามิง	-0.8917021
-4.11608	หักพัง	-0.954091
-3.7279	หัน	-0.6505374
-3.991141	หัว	-0.6061719
-3.956379	หัวข้อ	-0.8248653
-3.956379	หัวบันทึก	-0.8413178
-4.02893	หัวหอม	-0.7150943
-3.839874	หัวอ่าน	-0.94767
-4.371352	หัวเทียน	-0.6988259
-4.371352	หั่น	-0.6987594
-3.167233	หา	-0.8725971
-3.956379	หาก	-0.6862376
-3.748103	หาง	-0.6987594
-3.655349	หาย	-0.773834
-4.371352	หายใจ	-0.6989072
-4.371352	หาร	-0.6986559
-4.371352	หาเลี้ยง	-0.6364295
-4.292171	หิน	-0.7156108
-4.371352	หินโสโครก	-0.6989515
-4.02893	หิว	-1.040701
-4.02893	หีบ	-0.9788522
-4.371352	หืด	-0.6989515
-3.894231	หุง	-0.7522773
-4.11608	หู	-0.6364082
-4.371352	ห่อหุ้ม	-0.6983934
-4.02893	ห่าง	-0.777959
-3.040939	ห้อง	-1.09413
-4.02893	ห้องครัว	-0.71462
-4.02893	ห้องนอน	-0.7132969
-3.839874	ห้องน้ำ	-0.7993844
-4.225224	ห้องพัก	-0.8447766
-4.225224	ห้องสมุด	-0.8443624
-4.371352	ห้องสมุดเอยูเอ	-0.6988776
-2.332335	ห้า	-1.025041
-4.769292	อ	-0.3004793
-4.11608	องค์	-0.9541391
-4.371352	องค์ประกอบ	-0.6953983
-3.81505	องศา	-1.192732
-4.225224	อด	-0.8450722
-3.690111	อติวงศ์	-0.762554
-3.956379	อธิบาย	-0.844577
-4.11608	อนึ่ง	-0.9541501
-3.956379	อนุกรม	-0.8403853
-4.11608	อนุกรมวิธาน	-0.9539284
-4.371352	อนุกรรมการ	-0.6979271
-4.11608	อนุเคราะห์	-0.6933638
-3.7279	อบ	-1.050805
-4.371352	อบรม	-0.6969671
-4.11608	อม	-0.9541797
-4.371352	อมาตยกุล	-0.6364295
-2.570635	อยาก	-1.278052
-2.430836	อยู่	-1.099944
-3.672382	อย่า	-0.9519464
-2.973412	อย่าง	-0.8855968
-4.371352	อย่างคุ้มค่า	-0.6989515
-4.371352	อย่างต่ำ	-0.6950817
-3.956379	อย่างน้อย	-1.111796
-4.11608	อย่างยิ่ง	-0.6317806
-4.371352	อย่างสูง	-0.6364295
-4.371352	อย่างแท้จริง	-0.6364295
-4.11608	อย่างใด	-0.8917021
-3.436854	อย่างไร	-1.273656
-3.839874	อย่างไรก็ตาม	-0.9504399
-3.337929	อร่อย	-1.087052
-4.371352	อร่ามเหลือง	-0.6364295
-4.292171	อวด	-0.7778298
-4.371352	อวัยวะ	-0.6891755
-4.371352	อวัยวะขับถ่าย	-0.6364295
-4.11608	อวัยวะเพศ	-0.9506708
-2.714297	ออก	-1.093536
-4.11608	ออกมา	-0.6352249
-4.11608	ออกรวง	-0.9538286
-4.371352	ออกอากาศ	-0.6969671
-3.231473	ออกแบบ	-0.9699004
-3.956379	ออกไป	-0.7825022
-4.070323	ออน	-0.6778051
-4.225224	ออสการ์	-0.8443624
-4.371352	ออสเตรเลีย	-0.6364295
-4.292171	ออเดอร์	-0.7156108
-4.292171	ออเรนจิน่า	-0.7754204
-3.264142	อะ	-1.157579
-4.371352	อะตอม	-0.6364295
-4.371352	อะโซคริน	-0.6989515
-1.975153	อะไร	-1.439418
-3.956379	อะไรบ้าง	-1.051403
-3.578961	อะไรวอล	-0.7627414
-3.479258	อักษร	-0.7757911
-4.371352	อักษรศาสตร์	-0.6983157
-4.371352	อักเสบ	-0.6989515
-3.839874	อังกฤษ	-0.7382634
-3.708595	อังคาร	-0.5973448
-3.551809	อัตรา	-0.9536771
-4.11608	อัตราส่วน	-0.9542093
-4.11608	อัตโนมัติ	-0.8917021
-3.708595	อัน	-0.9037708
-2.333926	อันดับ	-1.761455
-3.655349	อันเดอร์วอเตอร์เวิล์ด	-0.8557746
-3.866202	อัปเดต	-1.198735
-3.380126	อัพ	-0.8442329
-4.371352	อัพโหลด	-0.698508
-4.371352	อัมพาต	-0.6975419
-4.225224	อัลกอริทึม	-0.8450279
-2.91196	อา	-1.258118
-3.257409	อาการ	-0.9044236
-3.839874	อากาศ	-0.8003525
-3.956379	อาคาร	-0.8450463
-3.380126	อาจ	-0.7956855
-4.371352	อาจจะ	-0.6971415
-3.130803	อาจารย์	-0.9406664
-3.207	อาทิตย์	-1.041819
-3.769292	อาบ	-1.017517
-4.292171	อาบน้ำ	-0.5439646
-3.748103	อาม	-0.9785321
-4.371352	อาย	-0.6989515
-3.623164	อายุ	-0.8032743
-4.292171	อาราบิก้า	-0.7156108
-4.371352	อาร์	-0.6988739
-4.11608	อาละวาด	-0.8917021
-3.638959	อาวุธ	-1.079443
-4.11608	อาศัย	-0.6989035
-2.546576	อาหาร	-0.9658266
-4.292171	อาหารตะวันตก	-0.7769973
-4.292171	อาหารตะวันออก	-0.7769973
-3.866202	อาหารบูด	-0.8627337
-3.866202	อาหารเสีย	-0.8627337
-4.292171	อาหารไทย	-0.7769973
-3.956379	อาารย์	-1.113855
-4.11608	อาเจียน	-0.6953499
-4.371352	อาเบอร์ดีนพรูวิงเกรานดส์	-0.6364295
-4.371352	อิท	-0.6989368
-4.371352	อินพุต	-0.6364295
-4.371352	อินพุท	-0.6989515
-4.225224	อินเซปชั่น	-0.8412097
-4.11608	อินเตอร์เฟอโรมิเตอร์	-0.8917021
-4.371352	อิมเมจ	-0.698508
-4.11608	อิเล็กตรอน	-0.9541945
-3.607924	อิเล็กทรอนิกส์	-0.8244408
-4.371352	อิเล็คโทรนิคส์	-0.6989072
-3.866202	อี	-0.5963079
-2.471532	อีก	-1.125192
-3.956379	อีกครั้ง	-1.051403
-3.748103	อีกด้วย	-1.259679
-4.11608	อีกทั้ง	-0.6956924
-4.11608	อีนิแอ็ก	-0.8917021
-4.371352	อีเมล	-0.6978938
-4.371352	อีเมล์	-0.6978938
-4.371352	อึดอัด	-0.6989515
-3.578961	อื่น	-0.7773176
-3.502121	อื่นๆ	-0.8357933
-3.894231	อุณหภูมิ	-0.7463048
-4.11608	อุดม	-0.9542093
-4.371352	อุดอู้	-0.6973565
-3.748103	อุตสาหกรรม	-0.8219551
-3.156508	อุปกรณ์	-0.8785781
-4.371352	อุปมาน	-0.6364295
-4.11608	อุปโภค	-0.9542093
-4.02893	อุ้ม	-0.7776486
-4.371352	อเนกประสงค์	-0.6364295
-3.956379	อเมซอน	-0.8327269
-4.02893	อเมริกาโน่	-0.7145345
-3.250778	อ่าน	-1.141893
-4.11608	อ่านเปรื่อง	-0.8917021
-4.371352	อ่าว	-0.6989515
-3.924194	อ้วน	-0.8726611
-4.292171	อ้อม	-0.7779554
-3.956379	อ้อย	-0.840486
-3.866202	อ้างอิง	-1.203203
-4.225224	ฮันนี่มูน	-0.8450722
-3.956379	ฮาจิบัง	-0.8412544
-4.371352	ฮาร์ดดิสต์	-0.6891755
-4.11608	ฮาร์ดแวร์	-0.9542093
-4.292171	ฮิจิริ	-0.7772343
-4.468263	ฮิต	-0.5966746
-4.468263	ฮิว	-0.6014057
-4.11608	ฮิสทีเรีย	-0.8917021
-4.371352	ฮึดฮัด	-0.6364295
-3.839874	ฯลฯ	-0.8916808
-4.371352	ะต้อง	-0.6887673
-4.371352	เกณฑ์	-0.6949475
-2.596106	เกม	-1.099495
-4.371352	เกมส์	-0.6978531
-4.371352	เกย	-0.6989515
-4.11608	เกรง	-0.9535882
-4.11608	เกรงกลัว	-0.953529
-3.791569	เกรด	-0.9989867
-4.468263	เกราะ	-0.5395195
-4.371352	เกรียงชัย	-0.6989515
-4.371352	เกร็งตัว	-0.6965995
-4.371352	เกลี้ยกล่อม	-0.6989368
-3.690111	เกลือ	-0.8739871
-4.371352	เกล็ด	-0.6989515
-4.371352	เกวียน	-0.698508
-4.371352	เกศ	-0.6988037
-4.371352	เกษตร	-0.6953834
-3.956379	เกษตรกรรม	-0.8322592
-4.371352	เกษตรศาสตร์	-0.6989515
-4.02893	เกาหลี	-0.770768
-3.956379	เกาะ	-0.6947646
-3.956379	เกาเหลา	-0.8331068
-3.11608	เกิด	-0.844681
-4.371352	เกิดขึ้น	-0.6364295
-4.02893	เกิน	-0.7725713
-3.502121	เกี่ยว	-1.277318
-3.956379	เกี่ยวกับ	-0.8450463
-3.748103	เกี่ยวข้อง	-0.7763078
-4.02893	เกี้ยว	-0.7773601
-4.11608	เกือบ	-0.9537029
-2.987537	เก็บ	-1.004987
-4.11608	เก่ง	-0.9541169
-4.11608	เก่า	-0.6963469
-3.306894	เก้า	-0.8919522
-4.292171	เก๊าท์	-0.7779332
-4.225224	เขต	-0.8429096
-4.468263	เขม	-0.6014057
-3.314447	เขา	-0.7776114
-3.7279	เขียน	-0.791671
-4.225224	เขียนโปรแกรม	-0.8348953
-3.479258	เขียว	-1.238118
-4.11608	เขื่อน	-0.698741
-4.11608	เข็ม	-0.9518721
-2.803151	เข้า	-0.9879879
-4.292171	เข้าฉาย	-0.7727658
-4.371352	เข้าด้วยกัน	-0.6364295
-3.839874	เข้ามา	-0.9514412
-4.371352	เข้าร่วม	-0.698715
-4.11608	เข้าออก	-0.9522952
-4.371352	เข้าเฝ้า	-0.6364295
-3.672382	เข้าใจ	-0.7726992
-4.371352	เข้าใจผิด	-0.6978531
-4.371352	เข้าไป	-0.6987372
-3.42687	เค	-1.287791
-4.11608	เคย	-0.6988555
-3.839874	เครดิต	-0.7962169
-3.839874	เครน	-0.8889634
-3.956379	เครป	-0.8449576
-4.292171	เครือ	-0.773528
-3.748103	เครือข่าย	-0.8209769
-4.371352	เครือข่ายคอมพิวเตอร์	-0.6988629
-2.908954	เครื่อง	-0.9802467
-4.11608	เครื่องกลึง	-0.9541797
-3.956379	เครื่องกัด	-1.113895
-4.371352	เครื่องคอมพิวเตอร์	-0.6989368
-4.225224	เครื่องคิดเลข	-0.8444142
-4.371352	เครื่องซักผ้า	-0.6364295
-3.956379	เครื่องต้นแบบ	-0.8440071
-4.371352	เครื่องบิน	-0.6364295
-4.02893	เครื่องปรุง	-0.7739833
-3.502121	เครื่องพิมพ์	-0.9277536
-4.11608	เครื่องมือ	-0.6985746
-4.371352	เครื่องยา	-0.6364295
-4.11608	เครื่องรับวิทยุ	-0.6954653
-4.371352	เครื่องวัด	-0.6982861
-4.11608	เครื่องสปัตเตอริง	-0.9532626
-4.371352	เครื่องส่ง	-0.6965995
-4.371352	เครื่องส่งวิทยุ	-0.6965995
-4.371352	เครื่องฮีเลียมนีออนเลเซอร์	-0.6979901
-4.371352	เครื่องเล่นวิดีโอ	-0.6979901
-4.371352	เครื่องเสียง	-0.6988185
-4.371352	เครื่องแบบ	-0.6989368
-3.839874	เครื่องใช้	-0.9442856
-3.956379	เครื่องไมโครคอมพิวเตอร์	-0.7824382
-4.225224	เคร่ง	-0.8423672
-3.578961	เคลียร์	-0.9285241
-3.748103	เคลือบ	-0.8830078
-3.380126	เคลื่อนที่	-0.9408363
-4.371352	เคลื่อนไหว	-0.6364295
-4.371352	เคล็ด	-0.6989515
-4.292171	เคล็ดลับ	-0.7756546
-4.292171	เคียว	-0.7156108
-4.11608	เคี่ยว	-0.9522396
-4.371352	เคเบิล	-0.6364295
-4.225224	เคเอฟซี	-0.8425307
-3.81505	เค็ม	-0.9749072
-3.655349	เค้ก	-0.8477883
-3.468262	เค้าเตอร์	-0.6396707
-4.11608	เงา	-0.9506708
-2.695574	เงิน	-1.161034
-4.371352	เงินทอง	-0.695484
-4.225224	เงียบ	-0.8412097
-4.371352	เงียบๆ	-0.6973565
-4.371352	เงื่องหงอย	-0.6989515
-4.371352	เจน	-0.69846
-3.956379	เจฟเฟอร์	-0.8325102
-3.839874	เจริญ	-0.9511883
-3.457539	เจาะ	-0.9534885
-3.593201	เจียว	-0.6973367
-2.983963	เจ็ด	-0.959577
-4.225224	เจ็นเอ็ด	-0.8441625
-3.839874	เจ็บป่วย	-0.7390151
-4.11608	เจ็บไข้	-0.9506708
-4.292171	เจ้า	-0.7745796
-3.607924	เจ้าของ	-0.9492317
-4.371352	เจ้าชู้	-0.6989515
-3.578961	เจ้าหน้าที่	-0.8274427
-3.578961	เจ๊	-0.9287869
-4.371352	เฉ	-0.6979715
-3.551809	เฉพาะ	-0.8612695
-3.748103	เฉลี่ย	-0.777837
-4.225224	เชดส์	-0.8450722
-3.866202	เชอร์รี่	-0.9181447
-4.11608	เชิง	-0.6989331
-4.11608	เชิร์ต	-0.9496193
-4.371352	เชื่อถือ	-0.698922
-3.690111	เชื่อม	-0.7662681
-3.956379	เชื่อมต่อ	-0.8440404
-4.371352	เชื้อเพลิงยูเรเนียม	-0.6364295
-3.292171	เช็ค	-0.9591424
-3.032896	เช่น	-0.7568976
-3.956379	เช่นกัน	-1.051403
-4.292171	เช่า	-0.7754204
-3.244248	เช้า	-0.8031551
-4.225224	เซงเซียมอี๊	-0.8441403
-4.371352	เซนติเมตร	-0.6986707
-4.292171	เซนเตอร์	-0.7741883
-4.371352	เซลลูล่าร์	-0.6983305
-3.748103	เซลล์	-1.030638
-4.225224	เซอเคิล	-0.8441403
-4.225224	เซเว่น	-0.842579
-3.748103	เซ็ต	-1.32195
-3.956379	เซ็นทรัลเวิลด์	-0.8341914
-4.371352	เซ็นเซอร์	-0.6987631
-4.292171	เดบิต	-0.7768788
-4.11608	เดรน	-0.9506708
-3.578961	เดอะ	-0.9292933
-2.817469	เดิน	-1.123008
-4.11608	เดินทาง	-0.9542093
-3.380126	เดิม	-1.164319
-4.371352	เดิมๆ	-0.6985672
-3.623164	เดียว	-0.8875995
-3.839874	เดียวกัน	-0.6318366
-4.371352	เดียวกับ	-0.6989368
-3.079096	เดือน	-1.240344
-4.371352	เดือย	-0.6989515
-3.346047	เด็ก	-0.9820599
-3.207	เด็ด	-1.271276
-4.11608	เตชะดำรงสิน	-0.8917021
-4.371352	เตตราไซคลีน	-0.6988
-3.389081	เตรียม	-0.9403576
-4.371352	เตรียมตัว	-0.6965995
-3.866202	เตาถ่าน	-0.7115953
-4.371352	เตาเอพิแทกซี	-0.6364295
-4.02893	เตาแก๊ส	-0.7741623
-3.337929	เติม	-1.084923
-4.371352	เตียวตระกูล	-0.6364295
-3.130803	เตือน	-0.7154962
-3.565172	เต็ม	-0.7859057
-3.748103	เต๋อ	-0.9785321
-3.638959	เถอะ	-1.080514
-4.292171	เทค	-0.7780737
-4.11608	เทคนิค	-0.9507565
-3.748103	เทคโนโลยี	-0.8824885
-4.225224	เทพ	-0.8450722
-4.11608	เทพกาเบรียล	-0.9537547
-4.292171	เทมปุระด้ง	-0.7776116
-3.32996	เทอม	-1.271085
-3.839874	เทา	-0.8899282
-4.292171	เทิร์น	-0.7156108
-4.371352	เทียบ	-0.6985191
-4.11608	เทียบเท่า	-0.9528292
-3.130803	เที่ยง	-1.051788
-4.371352	เที่ยว	-0.6989515
-2.850214	เท่า	-1.379192
-3.791569	เท่ากับ	-0.9972728
-3.41711	เท่านั้น	-1.590672
-3.195261	เท่าไร	-1.344356
-2.684716	เท่าไหร่	-2.022281
-3.956379	เท่าๆ	-1.112826
-4.371352	เธอ	-0.6987557
-4.225224	เนย	-0.8423672
-4.292171	เนอะ	-0.7156108
-3.956379	เนี่ย	-1.051403
-4.11608	เนื่อง	-0.953244
-4.11608	เนื่องจาก	-0.6963692
-3.502121	เนื้อ	-0.913193
-4.02893	เนื้อปลา	-0.7150943
-4.371352	เนื้อสาร	-0.6989515
-3.748103	เนื้อหมู	-0.7002234
-4.11608	เนื้อหา	-0.9535142
-4.11608	เนื้อเยื่อ	-0.6963618
-3.748103	เนื้อไก่	-0.7002234
-4.468263	เน็ต	-0.5966746
-4.371352	เบงกอล	-0.6364295
-4.371352	เบรก	-0.6988924
-4.371352	เบรค	-0.6364295
-4.11608	เบลอ	-0.9502796
-3.991141	เบอร์	-0.8127619
-4.02893	เบอร์เกอร์	-0.774669
-4.468263	เบา	-0.5395195
-4.292171	เบาหวาน	-0.7779332
-4.070323	เบาๆ	-0.9374595
-4.468263	เบิด	-0.5395195
-3.097195	เบี้ย	-1.087501
-4.292171	เบื่อ	-0.7156108
-3.956379	เบื้องต้น	-0.8418131
-4.371352	เบ็ดเสร็จ	-0.6364295
-4.371352	เปรมปราณีรัชต์	-0.6364295
-4.11608	เปรอะเปื้อน	-0.9503542
-4.11608	เปราะ	-0.8917021
-3.607924	เปรียบเทียบ	-0.8269085
-4.070323	เปรี้ยว	-0.7373083
-2.743986	เปลี่ยน	-1.130798
-4.371352	เปลี่ยนเป็น	-0.6989515
-3.839874	เปลี่ยนแปลง	-0.6943094
-4.371352	เปลือง	-0.6987742
-4.371352	เปล่ง	-0.6988739
-3.306894	เปล่า	-1.405169
-4.371352	เปล่าๆ	-0.6364295
-3.638959	เปอร์เซนต์	-1.077362
-4.225224	เปอร์เซ็นต์	-0.7825575
-4.371352	เปะปะ	-0.6950071
-2.488259	เปิด	-0.8968398
-4.371352	เปียโชอิเล็คตริก	-0.6891755
-4.371352	เปื้อนเปรอะ	-0.6989515
-2.084896	เป็น	-0.8696742
-3.839874	เป็นต้น	-1.167908
-4.11608	เป็นต้นมา	-0.954043
-4.371352	เป็นพิษ	-0.6989515
-4.371352	เป็นสุข	-0.6989515
-4.11608	เป็นหลัก	-0.8917021
-4.371352	เป็นไป	-0.698508
-4.292171	เป็ปซี่	-0.7778298
-4.371352	เป้าหมาย	-0.6989515
-3.51402	เผา	-1.101501
-4.371352	เผื่อ	-0.6965995
-3.708595	เผ็ด	-0.9173662
-4.371352	เผ็ดร้อน	-0.6985672
-3.322134	เพจ	-1.440321
-3.407565	เพชร	-0.9216447
-4.371352	เพทุบาย	-0.6364295
-3.101839	เพราะ	-0.7868029
-4.371352	เพราะฉะนั้น	-0.6949475
-3.956379	เพลง	-0.8394021
-3.956379	เพลิง	-0.6348782
-4.371352	เพลี้ยกระโดด	-0.6982787
-4.11608	เพอริคาร์พเลเยอร์	-0.9506559
-3.748103	เพาะเลี้ยง	-0.8216691
-2.500948	เพิ่ม	-0.9848209
-4.11608	เพิ่มเติม	-0.9538249
-3.839874	เพียง	-0.9536179
-4.371352	เพียงพอ	-0.6982529
-4.371352	เพียงแต่	-0.6979123
-2.688305	เพื่อ	-0.9372939
-2.767126	เพื่อน	-1.152002
-3.956379	เพ้อ	-0.7825192
-4.292171	เฟท	-0.7781291
-4.371352	เฟรม	-0.6988555
-3.839874	เฟส	-0.6854724
-4.371352	เฟื้อง	-0.6364295
-4.225224	เฟ้ย	-0.7825575
-4.371352	เฟ้อ	-0.6977345
-4.371352	เภสัชวัตถุ	-0.6980678
-4.371352	เภสัชวิทยา	-0.6989515
-4.371352	เมฆ	-0.6989072
-4.371352	เมตร	-0.6982566
-2.657022	เมนู	-1.009996
-4.070323	เมล็ด	-0.7401447
-4.371352	เมล็ดพืช	-0.6891755
-4.292171	เมล์	-0.7780515
-4.292171	เมษายน	-0.7727658
-4.292171	เมอร์ลิน	-0.7779185
-3.021104	เมื่อ	-0.7882804
-4.225224	เมื่อคืน	-0.8445473
-3.839874	เมื่อวาน	-0.6783384
-3.578961	เมื่อไร	-1.428821
-3.565172	เมื่อไหร่	-1.44261
-3.436854	เมเจอร์	-1.049503
-4.292171	เยน	-0.7156108
-3.231473	เยอะ	-1.023524
-4.468263	เยาะ	-0.6020452
-4.468263	เยี่ยม	-0.5395195
-3.130803	เย็น	-0.8523504
-4.468263	เย็นนี้	-0.6017976
-4.371352	เย็นๆ	-0.6364295
-4.468263	เย้ย	-0.5395195
-3.839874	เรดาร์	-0.9505629
-4.225224	เรตติ้ง	-0.8441995
-3.002136	เรา	-0.8516498
-3.292171	เริ่ม	-0.7964423
-3.380126	เรียก	-0.8415301
-4.371352	เรียกว่า	-0.6988924
-3.457539	เรียง	-1.033863
-2.681156	เรียน	-0.8948207
-4.292171	เรียนพิเศษ	-0.7765378
-3.151244	เรือ	-1.157284
-4.11608	เรือน	-0.8917021
-4.371352	เรือนครัว	-0.6950817
-4.371352	เรือนครัวไฟ	-0.6364295
-4.371352	เรือนนอน	-0.6959938
-2.612441	เรื่อง	-1.15369
-3.655349	เรื่องย่อ	-1.411793
-4.11608	เรื่อย	-0.8917021
-4.11608	เรื่อยๆ	-0.8917021
-4.371352	เร็คติไฟร์	-0.6953834
-3.362752	เร็ว	-0.7748892
-3.839874	เลขที่	-1.230153
-4.225224	เลคเชอร์	-0.8450131
-3.130803	เลย	-1.288788
-4.11608	เลอะเลือน	-0.9541391
-3.607924	เลิก	-1.174418
-4.292171	เลิฟ	-0.7781291
-4.11608	เลียนแบบ	-0.9540799
-4.11608	เลี้ยง	-0.6977531
-2.91196	เลือก	-1.042133
-3.839874	เลือด	-0.8916125
-2.882802	เลื่อน	-1.009247
-3.607924	เลเซอร์	-0.6745326
-4.225224	เลโก	-0.8450722
-3.389081	เล็ก	-0.8207827
-4.371352	เล็กน้อย	-0.6984932
-4.371352	เล็กๆน้อยๆ	-0.6950817
-4.468263	เล็ง	-0.5395195
-2.829773	เล่น	-0.857952
-3.791569	เล่ม	-0.992564
-4.371352	เว	-0.6364295
-3.956379	เวท	-0.782468
-4.371352	เวทมนตร์	-0.6364295
-3.956379	เวทมนต์	-1.051403
-2.798481	เวลา	-0.7740982
-3.672382	เวอร์	-1.113045
-4.371352	เวอร์ชั่น3	-0.6959938
-4.225224	เวิคช็อป	-0.8443624
-4.11608	เวิร์ดโปรเซสเซอร์	-0.8917021
-4.02893	เวียดนาม	-0.770768
-4.292171	เวเวอร์	-0.7779185
-4.11608	เว็บไซต์	-0.8917021
-4.225224	เศรษฐศาสตร์	-0.8348953
-3.457539	เศษ	-0.9523916
-3.956379	เสนอ	-0.696878
-4.371352	เสมหะ	-0.6364295
-4.11608	เสมอ	-0.8917021
-4.292171	เสริมสวย	-0.773528
-3.769292	เสร็จ	-0.8624255
-4.371352	เสร็จเรียบร้อย	-0.6986633
-4.292171	เสร็็จ	-0.7156108
-4.371352	เสวยราชย์	-0.6973565
-4.11608	เสา	-0.6969522
-3.565172	เสาร์	-0.6468018
-3.457539	เสีย	-0.7707117
-3.29947	เสียง	-0.8042808
-4.371352	เสียงพูด	-0.6982269
-4.371352	เสียชีวิต	-0.6950071
-4.371352	เสียดาย	-0.6364295
-4.371352	เสียเวลา	-0.695484
-4.225224	เสือ	-0.8450316
-4.371352	เสือทะเล	-0.6989515
-4.371352	เสื่อม	-0.6987815
-3.380126	เสื้อ	-0.889915
-4.371352	เสื้อกระบอก	-0.6988887
-4.371352	เสื้อครุย	-0.6989515
-3.457539	เสื้อผ้า	-0.9673717
-4.11608	เสื้อยืด	-0.9534032
-3.81505	เส้น	-0.9139785
-3.956379	เส้นกราฟ	-0.6971043
-4.371352	เส้นตรง	-0.6975419
-4.11608	เส้นผ่าศูนย์กลาง	-0.9541649
-3.956379	เส้นลวดตัวนำ	-0.771226
-3.866202	เส้นเล็ก	-0.9284316
-4.292171	เส้นใหญ่	-0.7156108
-4.468263	เหงา	-0.6018272
-4.371352	เหง้า	-0.6989368
-4.371352	เหง้าว่านน้ำ	-0.6989515
-4.371352	เหตุ	-0.6969671
-4.11608	เหตุผล	-0.9512663
-3.407565	เหมาะ	-1.370303
-4.11608	เหมาะสม	-0.6974196
-4.292171	เหมือง	-0.7156108
-3.42687	เหมือน	-0.7984173
-3.29947	เหมือนกัน	-1.302692
-4.371352	เหมือนว่า	-0.6989515
-4.371352	เหม็น	-0.6989515
-4.11608	เหยียบย่ำ	-0.8917021
-4.11608	เหยื่อ	-0.9506708
-3.956379	เหรอ	-0.7823912
-3.894231	เหรียญ	-0.690736
-4.371352	เหลว	-0.6982824
-3.322134	เหลือ	-0.9332662
-3.479258	เหลือง	-1.238349
-4.371352	เหลือทิ้ง	-0.6970227
-3.956379	เหล็ก	-0.694552
-4.371352	เหล่า	-0.6989515
-3.839874	เหล่านี้	-0.6209447
-4.371352	เหียอี	-0.6989515
-4.371352	เหือดแห้ง	-0.6950071
-4.292171	เห็ด	-0.7754204
-3.207	เห็น	-0.8119379
-4.11608	เห็นควร	-0.9541945
-4.371352	เห็นว่า	-0.6989515
-3.322134	เอ	-0.8879006
-3.607924	เอกชน	-0.8254756
-3.623164	เอกพล	-0.8223234
-4.11608	เอกสาร	-0.6985783
-4.371352	เอกสารอ้างอิง	-0.6364295
-3.479258	เอง	-0.8003783
-3.866202	เอช	-0.6721936
-3.250778	เอซ	-1.171188
-3.502121	เอด	-0.9343986
-4.371352	เอดิชั่น	-0.6364295
-4.292171	เอทีเอม	-0.777863
-4.225224	เอน	-0.8445473
-3.407565	เอฟ	-0.8056259
-4.225224	เอมอาที	-0.8449096
-2.675871	เอส	-1.492076
-4.02893	เอสเปสโซ่	-0.7145345
-4.11608	เออออ	-0.9502796
-4.11608	เอะอะ	-0.9542093
-2.618536	เอา	-0.7921787
-4.371352	เอาชนะ	-0.6979123
-4.11608	เอาเอง	-0.8917021
-4.371352	เอื้อพันธ์วิริยะกุล	-0.6364295
-4.371352	เอเก็น	-0.6988259
-4.225224	เอเอสอาร์	-0.8441921
-3.894231	เอ็กซ์	-0.8396997
-3.839874	เอ็ด	-0.9419815
-4.11608	เอ็ดแว็ก	-0.9440398
-3.593201	เอ็ม	-0.8376632
-4.225224	เอ็มเค	-0.8423672
-3.672382	เอ้าท์	-0.8900867
-4.371352	เอ้าท์พุท	-0.6985524
-3.502121	เอ้าลาส	-0.6547746
-4.371352	เฮิรทซ์	-0.6364295
-4.371352	แกง	-0.6988259
-3.672382	แกน	-0.9541429
-4.371352	แกนทรี	-0.6364295
-4.292171	แกรน	-0.7781143
-4.292171	แกรนด์	-0.7781291
-4.11608	แกว่ง	-0.9536844
-3.956379	แก่	-1.109921
-4.11608	แก่จัด	-0.9541797
-3.894231	แก้	-0.7521403
-3.130803	แก้ว	-0.9992288
-3.7279	แก้ไข	-0.7099891
-4.371352	แขน	-0.6887673
-4.11608	แข็ง	-0.8917021
-4.371352	แคนเซิล	-0.6980345
-4.11608	แคระแกร็น	-0.8917021
-4.371352	แคร่	-0.6985857
-3.237813	แคลอรี่	-0.9548782
-4.11608	แคลเซียม	-0.6976197
-4.371352	แค่ไหน	-0.6364295
-4.371352	แง่	-0.6949475
-3.389081	แจ็ค	-0.9501628
-4.11608	แจ็คเก็ต	-0.8917021
-3.551809	แจ้ง	-1.518193
-4.11608	แจ๊กเก็ต	-0.9531256
-4.11608	แชนแนล	-0.9536881
-3.866202	แชร์	-1.201601
-4.371352	แช่	-0.6975419
-4.468263	แซก	-0.5395195
-3.337929	แดง	-0.991535
-4.371352	แดด	-0.6959938
-4.11608	แตกต่าง	-0.6976271
-4.02893	แตงกวา	-0.7150943
-3.322134	แตงโม	-0.9920738
-4.11608	แตงไทย	-0.8917021
-4.371352	แตะ	-0.698922
-3.017244	แต่	-0.8453372
-3.672382	แต่ละ	-0.8443106
-3.748103	แต้ม	-1.321687
-3.490539	แถบ	-0.8590988
-3.839874	แถบแม่เหล็ก	-0.7383747
-4.225224	แถม	-0.8417721
-2.969952	แถว	-1.068046
-3.956379	แทน	-0.6362289
-4.11608	แทรกเตอร์	-0.9542093
-4.292171	แท็กซี่	-0.7765378
-4.468263	แท็บ	-0.5395195
-4.371352	แท่ง	-0.6989515
-4.468263	แนน	-0.5395195
-3.29947	แนว	-1.015178
-3.956379	แนวดิ่ง	-0.8420586
-4.371352	แนวตั้ง	-0.698508
-3.839874	แนวทาง	-0.7883558
-4.371352	แนวนอน	-0.6975419
-4.11608	แนวราบ	-0.9542093
-3.956379	แนวแกน	-0.7784128
-4.371352	แนวโพลาไรช์	-0.6891755
-2.924194	แนะนำ	-1.116685
-4.468263	แนะนำไหม	-0.5395195
-4.468263	แน่	-0.5922655
-4.02893	แบคแพ็ค	-0.9788522
-3.607924	แบน	-1.172419
-2.647076	แบบ	-0.8091529
-4.292171	แบบนี้	-0.7766824
-4.225224	แบ็ทแมน	-0.8446361
-3.839874	แบ่ง	-0.9532034
-4.11608	แป	-0.6988924
-2.894231	แปด	-1.015939
-4.225224	แปป	-0.844747
-4.371352	แปร	-0.6988629
-4.371352	แปรปรวน	-0.6364295
-4.371352	แปรสภาพ	-0.6364295
-4.371352	แปรเปลี่ยน	-0.6988222
-3.956379	แปล	-0.8446509
-4.371352	แปลกๆ	-0.6973565
-4.11608	แปลง	-0.9522396
-4.371352	แปลว่า	-0.6989515
-4.371352	แปะ	-0.6987889
-4.11608	แป้น	-0.9540984
-3.956379	แผน	-0.8447729
-3.655349	แผนที่	-0.9697153
-4.11608	แผนภาพ	-0.9531996
-3.380126	แผล	-0.8816376
-3.956379	แผ่น	-0.6988111
-4.371352	แผ่นดิน	-0.6986633
-4.371352	แผ่นวงจร	-0.6989515
-4.11608	แผ่นวงจรพิมพ์	-0.9532626
-3.708595	แพง	-0.8531117
-4.02893	แพทย์	-0.7155894
-4.371352	แพร่	-0.698885
-3.839874	แพร่กระจาย	-0.7973786
-4.371352	แพร่หลาย	-0.6986079
-4.468263	แพลนท์	-0.6020452
-4.292171	แพ้	-0.7156108
-4.292171	แฟต	-0.7156108
-4.468263	แฟน	-0.5966746
-4.225224	แฟลช	-0.7825575
-4.11608	แฟ้ม	-0.8917021
-4.371352	แมกนีเซียม	-0.6989515
-4.468263	แมค	-0.5993292
-4.11608	แมงป่อง	-0.8917021
-4.11608	แมพ	-0.9535549
-3.748103	แมลง	-0.7150515
-4.371352	แมว	-0.6971415
-3.41711	แม่เหล็ก	-0.8262681
-4.11608	แม้	-0.9518721
-4.371352	แม้ว่า	-0.6984341
-4.371352	แม้แต่	-0.698922
-4.371352	แยก	-0.6986892
-4.11608	แยกสลาย	-0.9541206
-4.371352	แย็ค	-0.6953834
-4.371352	แย่ง	-0.6989515
-2.980417	แรก	-0.9941679
-4.11608	แรงดันไฟฟ้า	-0.944448
-4.371352	แร่ธาตุ	-0.6988924
-4.371352	แล	-0.6989368
-4.292171	แลก	-0.777275
-4.292171	แลคโตส	-0.7781069
-3.436854	แลนด์	-0.9519421
-3.578961	แลนด์มาร์ค	-1.140071
-2.165607	และ	-0.8282161
-3.791569	แล็บ	-0.8446694
-2.51402	แล้ว	-0.9899228
-4.468263	แล้้ว	-0.6019787
-4.292171	แว่น	-0.7742629
-3.655349	แสง	-0.6976848
-2.620073	แสดง	-0.949181
-4.371352	แสดงผล	-0.6950817
-4.11608	แสดงออก	-0.9531996
-4.11608	แสตท	-0.9532626
-4.292171	แสน	-0.7775339
-4.371352	แสบๆ	-0.6989515
-4.371352	แสวงหา	-0.698922
-4.292171	แหก	-0.7779961
-3.436854	แหม่ม	-0.9946065
-4.11608	แหลก	-0.9537694
-4.371352	แหลม	-0.6989035
-4.468263	แหละ	-0.5395195
-4.371352	แหล่ง	-0.6989515
-4.371352	แหล่งน้ำ	-0.6989515
-4.371352	แหวกว่าย	-0.6989515
-3.672382	แห่ง	-0.8312423
-3.638959	แห้ง	-0.8082941
-4.468263	แอคชั่น	-0.5993292
-4.292171	แอด	-0.7780921
-4.371352	แอดเดรส	-0.6953983
-3.956379	แอนด์	-1.113829
-4.371352	แอฟริกา	-0.6988037
-4.225224	แอม	-0.8450722
-4.225224	แอมปาร์ค	-0.8434846
-3.389081	แอร์	-0.8755024
-3.894231	แอล	-0.8287448
-4.225224	แอลจิบ้า	-0.8412097
-4.225224	แอ็คชั่น	-0.8440366
-3.672382	แฮรี่พอตเตอร์	-1.112897
-3.866202	โกง	-1.201389
-4.11608	โกยสุโข	-0.8917021
-2.597566	โกวาจี	-0.923204
-4.11608	โขลก	-0.9522396
-3.956379	โค	-0.8450021
-3.839874	โคนม	-1.230386
-3.231473	โครงการ	-0.9579394
-4.371352	โครงการวิจัย	-0.6988481
-3.29947	โครงสร้าง	-1.095258
-4.371352	โคลน	-0.6364295
-4.371352	โค้ง	-0.6986263
-3.894231	โฆษณา	-0.8400159
-3.672382	โจมตี	-0.7003967
-4.225224	โจ๊ก	-0.84505
-4.02893	โฉนด	-0.9788522
-4.371352	โชคลาง	-0.6959938
-4.292171	โชตะ	-0.7156108
-3.578961	โซน	-1.199474
-4.225224	โซฟา	-0.8443624
-4.371352	โซเดียม	-0.6989515
-4.371352	โซ่ตรวน	-0.6364295
-4.11608	โดกาปอง	-0.6343171
-3.956379	โดด	-0.7779776
-4.225224	โดน	-0.8444105
-2.775856	โดย	-0.883459
-4.371352	โดยมาก	-0.6988776
-4.371352	โดยสังเขป	-0.6980382
-4.11608	โดยส่วนรวม	-0.8917021
-3.839874	โดยเฉพาะ	-0.6981381
-3.956379	โต	-0.8442699
-4.371352	โต้ตอบ	-0.6978531
-3.167233	โต๊ะ	-0.8972939
-4.371352	โต๊ะกินข้าว	-0.6989515
-4.11608	โต๊ะงาน	-0.9507565
-4.225224	โทร	-0.8449392
-4.371352	โทรคมนาคม	-0.6987963
-3.839874	โทรทัศน์	-0.6316167
-4.371352	โทรพิมพ์	-0.6989072
-4.292171	โทรศัพท์	-0.7742629
-3.839874	โบราณ	-0.7236248
-3.866202	โบว์ลิ่ง	-0.7667482
-3.655349	โบ๊ท	-0.9048348
-3.27793	โปรด	-1.26117
-4.02893	โปรเจค	-0.7750224
-4.371352	โปรเจคชัน	-0.6953983
-4.11608	โปรเซส	-0.9542093
-3.237813	โปรแกรม	-0.8404158
-3.502121	โปรโมชัน	-0.821965
-3.565172	โปรโมชั่น	-0.87032
-4.371352	โป๊ะ	-0.6953834
-4.371352	โผล่	-0.6981307
-2.6005	โพธิ์ดำ	-1.806555
-2.690111	โพธิ์แดง	-1.717708
-4.371352	โพรง	-0.6364295
-4.371352	โพล้เพล้	-0.6364295
-2.850214	โพสต์	-1.729971
-4.371352	โพแทสเซียม	-0.6989368
-4.11608	โฟตอน	-0.8917021
-3.111281	โฟธ	-0.8316233
-4.225224	โฟร์	-0.8441811
-4.371352	โฟลว์ชาร์ต	-0.6949475
-4.371352	โฟโตทรานซิสเตอร์	-0.6964027
-4.371352	โฟโตสเฟียร์	-0.6988592
-2.335522	โมง	-1.278854
-4.371352	โยธิน	-0.6989515
-3.502121	โรค	-0.768602
-4.292171	โรคไต	-0.7779332
-2.936784	โรง	-1.241915
-4.225224	โรงหนัง	-0.8449392
-4.225224	โรงอาหาร	-0.8443624
-4.02893	โรงแรม	-0.9788522
-4.225224	โรตี	-0.84505
-3.748103	โรนัน	-0.9785321
-4.292171	โรบัสต้า	-0.7768788
-4.225224	โรแมนติก	-0.8440366
-3.956379	โลก	-0.8443957
-4.292171	โลลิ	-0.7156108
-3.839874	โลหะ	-0.8011963
-3.956379	โลแกน	-0.8405197
-3.551809	โหมด	-1.066478
-3.690111	โหลด	-1.094432
-3.447073	โอ	-0.9584736
-4.11608	โอกาส	-0.944448
-4.225224	โอว	-0.8440219
-3.748103	โอเวอร์	-0.9786729
-4.225224	โอโตยะ	-0.8423672
-4.371352	โฮมเพจ	-0.6364295
-4.371352	โฮล	-0.6987889
-4.11608	โฮลสไตน์ฟรีเชียน	-0.9528292
-3.225224	ใกล้	-0.9672124
-4.11608	ใกล้เคียง	-0.6351393
-2.675871	ใคร	-1.219868
-3.791569	ใจ	-0.7724329
-3.207	ใช่	-0.9848998
-4.225224	ใช่ไหม	-0.7825575
-2.229589	ใช้	-0.9008957
-4.11608	ใช้งาน	-0.9528292
-3.956379	ใด	-0.7823058
-4.371352	ใดๆ	-0.6982417
-3.924194	ใต้	-0.8748913
-4.371352	ใต้ถุน	-0.6984156
-2.097194	ใน	-0.9830014
-4.11608	ในกรณีที่	-0.9541797
-3.219064	ใบ	-1.033836
-4.11608	ใบตอง	-0.9542093
-4.11608	ใบไม้แห้ง	-0.9542093
-2.963112	ใส่	-0.827594
-3.407565	ใหญ่	-0.852947
-3.219064	ใหม่	-0.8986447
-4.371352	ใหม่ๆ	-0.6982861
-2.337125	ให้	-0.9217927
-4.371352	ให้คุณ	-0.6364295
-4.371352	ให้บริการ	-0.695484
-4.371352	ให้โทษ	-0.6989368
-2.991141	ไก่	-0.8244256
-4.371352	ไขราหน้าจั่ว	-0.6364295
-2.900061	ไข่	-1.123256
-3.578961	ไข่ดาว	-0.8597083
-4.292171	ไข่ตุ๋น	-0.776204
-3.866202	ไข่ต้ม	-0.7747248
-4.02893	ไข่ยางมะตูม	-0.7753536
-3.748103	ไข่ลวก	-0.7101117
-3.322134	ไข่เค็ม	-0.7709628
-3.578961	ไข่เจียว	-0.7756522
-4.292171	ไข่่ตุ๋น	-0.7156108
-2.943218	ไง	-1.466612
-4.371352	ไซ	-0.6989368
-3.457539	ไซส์	-0.9529513
-4.371352	ได	-0.6989515
-4.371352	ไดร์ฟเวอร์	-0.6988481
-3.839874	ไดอะแกรม	-1.226877
-3.956379	ไดเพล็กเซอร์	-0.7796729
-2.049961	ได้	-0.9496979
-4.11608	ได้ฉาก	-0.9528292
-4.11608	ได้ผล	-0.9507565
-4.225224	ได้มั้ย	-0.7825575
-3.502121	ได้รับ	-0.9926354
-3.41711	ได้แก่	-0.9139948
-4.225224	ได้ไหม	-0.8432695
-4.292171	ไต	-0.7156108
-3.322134	ไตเติ้ล	-0.9920738
-4.11608	ไถ	-0.9528144
-3.151244	ไทย	-0.7943839
-4.292171	ไทยพาณิชย์	-0.7780071
-4.11608	ไทยสาร	-0.9503542
-4.371352	ไนโตรเจน	-0.6989515
-2.041751	ไป	-0.9402618
-4.225224	ไผ่	-0.8450537
-4.225224	ไผ่ทอง	-0.8445806
-4.11608	ไพเราะ	-0.9536844
-3.009624	ไฟ	-0.8867543
-4.225224	ไฟนอล	-0.8447322
-3.436854	ไฟฟ้า	-0.7757344
-4.11608	ไมครอน	-0.8917021
-4.371352	ไมโครคอนโทรเลอร	-0.6989515
-4.371352	ไมโครคอนโทรเลอร์	-0.6989515
-3.748103	ไมโครคอมพิวเตอร์	-0.7112807
-4.371352	ไมโครซอฟท์	-0.6989515
-3.578961	ไมโครเวฟ	-1.138695
-4.371352	ไมโครโพรเซสเซอร์	-0.6989072
-2.376595	ไม่	-0.9713083
-4.225224	ไม่ว่าง	-0.8447359
-4.02893	ไม่สุก	-1.038067
-4.292171	ไม่ใช่	-0.7156108
-4.371352	ไม่ได้	-0.6989368
-4.02893	ไม้	-0.7778075
-4.11608	ไม้กางเขน	-0.9529107
-4.371352	ไม้ไผ่	-0.6989515
-3.167233	ไร	-1.356429
-4.225224	ไรท์ติ้ง	-0.8448283
-4.468263	ไลน์	-0.6004465
-4.292171	ไลฟ์	-0.7156108
-4.371352	ไล่	-0.6988
-4.371352	ไวท์	-0.6989515
-4.292171	ไวฟุ	-0.7745796
-4.225224	ไวไฟ	-0.8430951
-3.270982	ไว้	-0.8709381
-4.225224	ไส้	-0.842579
-4.292171	ไส้กรอง	-0.7754204
-4.371352	ไส้เดือนฝอย	-0.6982861
-2.045426	ไหน	-1.346585
-2.202855	ไหม	-2.327431
-4.371352	ไหม้	-0.6364295
-3.083551	ไหร่	-1.62143
-4.11608	ไหล	-0.9539173
-3.956379	ไห้	-0.8410196
-3.593201	ไอ	-0.9109562
-3.956379	ไอซี	-0.8449725
-3.672382	ไอติม	-0.8448469
-4.292171	ไอที	-0.773528
-4.225224	ไอรอนแมน	-0.8348953
-4.225224	ไอเดีย	-0.8425307
-3.207	ไอเทม	-1.211417
-4.11608	ไอเท็ม	-0.8917021
-3.956379	ไอเอฟ	-0.7798189
-4.225224	ไอแม็กซ์	-0.8432695
-4.371352	ไอโอดีน	-0.6364295
-4.371352	ไฮโดรเจน	-0.6953834
-4.371352	้ว่า	-0.6987742
-4.371352	์เบอร์	-0.6989515
-3.956379	๑	-0.8419507
-4.11608	๑๙	-0.9542093
-4.371352	๒	-0.6964733
-4.371352	๓	-0.6988592
-4.11608	๔	-0.6963246
-4.371352	๕๖	-0.6364295
-4.371352	๕๗	-0.6989515
-4.11608	๖	-0.6973194
-4.371352	๖.๑	-0.6949475
-4.371352	๗	-0.6989515

\2-grams:
-0.05115252	0.65 มม.	-0.69897
-1.079181	1 </s>
-1.380211	1 ความ	-0.6935071
-1.380211	1 คืน	-0.6334684
-1.380211	1 จะ	-0.6940627
-1.380211	1 บาน	0
-1.380211	1 ราชบัณฑิตยสถาน	-0.4771212
-1.380211	1 วิเคราะห์	-0.6197888
-1.380211	1 ศอก	0
-1.079181	1 ส่วน	-0.9338014
-1.380211	1 หั่น	0
-1.079181	1 อนุกรมวิธาน	0
-1.380211	1 ออกแบบ	-0.6754889
-1.380211	1 เกศ	0
-1.380211	1 เกษตรศาสตร์	0
-1.079181	1 แก้ว	-0.6886848
-1.380211	1 และ	-0.6970838
-0.09691001	1,000 ล้าน	-0.5740313
-0.7596679	1.2 </s>
-0.2825466	1.2 บล๊อค	-0.7259117
-0.7596679	1.2 เมื่อ	-0.6856061
-0.7596679	1.3 กระบืองาน	0
-0.4586379	1.3 บล๊อค	-0.8785218
-0.4586379	1.3 มม.	-0.69897
-0.09691001	10 ข้อสรุป	0
-0.05115252	10400 ตาราง	-0.6368221
-0.09691001	11 บล๊อค	-0.6627578
-0.09691001	1180 </s>
-0.39794	13 นาย	-0.6555043
-0.39794	13 ปี	-0.6655462
-0.09691001	14 นาย	-0.6555043
-0.39794	16 ตัว	-0.4720417
-0.39794	16 เท่า	-0.6886904
-1.09691	2 </s>
-1.39794	2 กังฆา	0
-1.39794	2 การ	-0.6975307
-1.39794	2 ขั้น	-0.5963076
-1.09691	2 ชื่อ	-0.907562
-1.39794	2 ตัวอย่าง	-0.6751671
-1.39794	2 นั้น	-0.6551384
-1.09691	2 นี้	-0.5613222
-1.39794	2 ประการ	-0.60206
-1.39794	2 สัปดาห์	-0.6642079
-1.39794	2 เธอ	0
-1.09691	2 เหตุผล	0
-1.39794	2 แนวแกน	-0.552842
-1.09691	2 โครงการ	-0.7867514
-1.39794	2 ใน	-0.6947576
-1.39794	2 ได้แก่	-0.6232493
-0.05115252	2.1.4 โต๊ะ	-0.9138138
-0.05115252	2.1.5 ระบบ	-0.9364228
-0.4771213	2.2 การ	-0.9455345
-0.7781513	2.2 ต้นแบบ	-0.4771212
-0.7781513	2.2 พิจารณา	-0.6594614
-0.7781513	2.2 อุตสาหกรรม	-0.6159958
-0.544068	2.5 </s>
-0.243038	2.5 บล๊อค	-0.7867514
-0.09691001	2.6 บล๊อค	-0.5314789
-0.05115252	20 ดีบี	0
-0.09691001	23 แสดง	-0.6817679
-0.09691001	25 มิลลิเมตร	0
-0.05115252	2516 เป็นต้นมา	0
-0.09691001	2517 </s>
-0.09691001	2531 2533	0
-0.09691001	2532 เป็น	-0.695726
-0.09691001	2533 นั้น	-0.60206
-1.30103	3 </s>
-1.30103	3 กฉา	0
-1.30103	3 ขนาด	-0.6722357
-1	3 ชีวประวัติ	-0.5862657
-1	3 เครื่องกัด	0.1597008
-1.30103	3 เครื่องไมโครคอมพิวเตอร์	-0.552842
-1.30103	3 เส้นกราฟ	-0.5642715
-1	3 แกน	-0.8016323
-1	3 แบบ	-0.9427753
-1.30103	3 แสดง	-0.6933113
-1	3 โครงการ	-0.7867514
-1.30103	3 โฟลว์ชาร์ต	0
-0.05115252	3.1 และ	-0.9504619
-0.09691001	3.1ไทย เอดิชั่น	0
-0.05115252	3.2 แล้ว	-0.6685293
-0.09691001	3.3 การ	-0.6960867
-0.05115252	36 ตัว	-0.7273142
-1.18327	4 กรา	0
-0.5812098	4 การ	-1.223204
-1.18327	4 ด้าน	-0.6684807
-1.18327	4 ประการ	-0.60206
-1.18327	4 ภาพ	-0.6320232
-1.18327	4 เฟส	-0.60206
-0.8822398	4 โครงการ	-0.905256
-1.18327	4 โครงสร้าง	-0.6704814
-1.18327	4 โต๊ะ	-0.6792259
-0.09691001	4.1.1 ข้อมูล	-0.6926758
-0.05115252	4.3 ติดตาม	-0.8415382
-0.05115252	4.3.1 ส่วน	-0.9123504
-0.05115252	45 องศา	0.30103
-1.217484	5 </s>
-1.217484	5 กฤปาน	0
-1.217484	5 การ	-0.6975307
-1.217484	5 คู่มือ	0
-0.916454	5 งบประมาณ	-0.8415382
-1.217484	5 ตัวตรวจจับ	0
-0.916454	5 ทั้งหมด	-0.7723989
-1.217484	5 สี	-0.669165
-0.916454	5 โครงการ	-0.7867514
-0.916454	5 ได้	-0.9511678
-0.845098	50 เซนติเมตร	0
-0.845098	50 เฮิรทซ์	0
-0.544068	50 โต๊ะ	-0.9138138
-0.544068	50 ไมครอน	0
-0.544068	6 ของ	-0.9510045
-0.845098	6 ตัว	-0.4720417
-0.544068	6 เครื่อง	-0.7671559
-0.845098	6 เอกสารอ้างอิง	0
-0.09691001	6-1 การ	-0.6975307
-0.4586379	7 ชั้น	-0.9053091
-0.4586379	7 นาย	-0.8624721
-0.7596679	7 แห่ง	-0.6320232
-0.05115252	70 ความ	-0.9262138
-0.09691001	8 </s>
-0.09691001	8096 </s>
-0.09691001	9 รส	-0.6603406
-0.09691001	90 องศา	0.5563025
-0.09691001	900 เมตร	0
-2.711227	<s> 1	-0.5698753
-3.614317	<s> 1.2	-0.3786348
-3.137196	<s> 1.3	-0.5247629
-3.614317	<s> 13	-0.4771212
-3.614317	<s> 14	0
-2.769219	<s> 2	-0.6768763
-3.313287	<s> 2.1.4	0
-3.313287	<s> 2.1.5	0
-2.915347	<s> 2.2	0
-3.137196	<s> 3	-0.774517
-3.614317	<s> 3.3	0
-3.137196	<s> 4	-0.7499643
-3.614317	<s> 4.1.1	0
-3.313287	<s> 4.3	0
-3.313287	<s> 4.3.1	0
-3.012257	<s> 5	-0.6810584
-3.137196	<s> 6	-0.60206
-3.313287	<s> 7	-0.7686059
-3.313287	<s> 70	0
-2.603593	<s> กด	-0.3373025
-3.137196	<s> กระ	0
-3.313287	<s> กระบวนการ	-0.5862657
-3.137196	<s> กระแส	-0.7715207
-2.854649	<s> กระโดด	0
-3.614317	<s> กราฟ	-0.669515
-2.769219	<s> กลับ	-0.69682
-3.614317	<s> กลไก	-0.4771212
-3.614317	<s> กล่าวคือ	-0.552842
-3.438226	<s> กล้วย	-0.6802878
-2.672309	<s> กะเพรา	-0.9754318
-3.614317	<s> กับ	-0.6949764
-3.517407	<s> กับข้าว	0
-2.252589	<s> การ	-0.7471164
-3.216377	<s> กาแฟ	-0.6481918
-3.313287	<s> กำลังส่ง	0
-2.894158	<s> กิน	-0.7830749
-3.102434	<s> กี่	-0.7017332
-3.517407	<s> กุ้ง	-0.738034
-2.915347	<s> กู้	0
-2.711227	<s> ก็	-0.4598083
-3.216377	<s> ก่อน	-0.6847295
-3.313287	<s> ก๊าซ	-0.5963076
-3.137196	<s> ก๋วยเตี๋ยว	-0.7231037
-3.614317	<s> ขณะที่	-0.4771212
-3.313287	<s> ขณะนี้	0
-3.040286	<s> ขนมหวาน	0
-3.313287	<s> ขนาด	-0.9275082
-3.614317	<s> ขยาย	-0.6555043
-1.380687	<s> ขอ	-0.09809984
-3.040286	<s> ของ	-0.9179787
-3.517407	<s> ขอบคุณ	0
-3.517407	<s> ขอโทษ	0
-2.836166	<s> ขั้น	-0.3297724
-2.915347	<s> ขั้นตอน	-1.009908
-2.517407	<s> ขาย	-0.6551066
-3.517407	<s> ขี้เกียจ	0.06694679
-3.313287	<s> ขึ้น	-0.677519
-3.040286	<s> ขุด	0
-2.603593	<s> ขโมย	-0.62629
-3.313287	<s> ข้อกำหนด	0
-3.438226	<s> ข้อสอบ	-0.6560418
-3.614317	<s> ข้าพเจ้า	0
-3.174984	<s> ข้าม	-0.7781513
-2.371279	<s> ข้าว	-1.118277
-3.216377	<s> ข้าวผัด	-0.6833649
-3.614317	<s> คง	-0.4771212
-2.961105	<s> คณะ	-0.5118833
-3.313287	<s> คณะกรรมการ	-0.7168816
-3.216377	<s> คน	-0.767128
-3.614317	<s> ครั้นแล้ว	0
-2.672309	<s> คริส	-0.1591528
-3.438226	<s> ครีมเมอรี่	0
-3.614317	<s> คลื่นไส้	0
-3.102434	<s> ควร	-0.6333176
-3.313287	<s> ความ	-0.9376432
-2.739256	<s> ความคิดเห็น	-1.210535
-3.313287	<s> ความจริง	-0.69897
-3.614317	<s> ความถี่	-0.6615883
-2.417037	<s> ควีน	-0.906343
-3.739256	<s> คั่ว	-0.5118834
-3.614317	<s> คั้งค่า	0
-3.262135	<s> คาปูชิโน่	0
-2.915347	<s> คำนวณ	-1.088136
-3.614317	<s> คำเชื่อม	0
-3.313287	<s> คำแนะนำ	0.2762064
-2.417037	<s> คิง	-0.9191768
-3.216377	<s> คิด	-0.6661775
-3.517407	<s> คิดส์ซาเนีย	0
-3.517407	<s> คิว	0.30103
-2.818437	<s> คืน	-0.8293039
-2.915347	<s> คือ	-0.7453586
-2.961105	<s> คุย	-1.043225
-2.006862	<s> คู่	0
-2.873954	<s> ค่า	-0.7510676
-2.614317	<s> ค้นหา	-0.755783
-3.438226	<s> ฆ่า	0
-3.517407	<s> งง	0
-2.873954	<s> งาน	-0.7546527
-3.517407	<s> ง่วง	-0.509306
-3.012257	<s> จง	-0.2934768
-3.040286	<s> จดหมาย	-0.9879115
-3.313287	<s> จน	-0.6368221
-3.614317	<s> จนถึง	-0.4771212
-2.854649	<s> จอง	-0.3467875
-3.517407	<s> จอด	0.5642715
-2.476014	<s> จะ	-0.6943092
-3.614317	<s> จัด	-0.6603406
-3.438226	<s> จัดการ	-0.4130037
-2.753979	<s> จับ	-0.9910451
-3.739256	<s> จััดการ	0
-3.216377	<s> จั่ว	0
-2.836166	<s> จาก	-0.8113196
-3.012257	<s> จากนั้น	0
-2.739256	<s> จาม	-0.750999
-3.614317	<s> จำพวก	0
-3.614317	<s> จำเป็น	-0.5463598
-2.383868	<s> จึง	-0.5698752
-3.216377	<s> จุด	-0.6969915
-3.614317	<s> จุฬาลงกรณ์มหาวิทยาลัย	0
-3.040286	<s> จ่าย	-0.4964265
-3.137196	<s> ฉะนั้น	0
-1.933076	<s> ฉัน	-0.9266192
-3.614317	<s> ชนินทร์	0
-3.313287	<s> ชอบ	-0.8221252
-2.753979	<s> ชั้น	-0.5120659
-3.517407	<s> ชาร์จ	-0.5672979
-3.313287	<s> ชาวนา	0
-3.739256	<s> ชำระ	0
-3.614317	<s> ชื่อ	-0.6762566
-3.614317	<s> ชุด	-0.6197888
-3.517407	<s> ช็อกโกแลต	-0.6268836
-2.818437	<s> ช่วง	0.07638833
-3.517407	<s> ช่วงนี้	-0.544068
-2.873954	<s> ช่วย	-0.91243
-2.182953	<s> ซึ่ง	-0.4057302
-2.313287	<s> ซื้อ	-0.1521476
-3.517407	<s> ซุเปอร์มาร์เก็ต	0
-3.137196	<s> ดร.	-0.6748363
-3.614317	<s> ดรัม	-0.1674911
-3.313287	<s> ดังนั้น	0
-3.614317	<s> ดัน	0
-3.216377	<s> ดับ	-0.8073095
-3.517407	<s> ดับเบิ้ล	0
-3.040286	<s> ดาว	-1.135765
-3.438226	<s> ดี	-0.2138798
-2.073362	<s> ดู	-0.9523166
-3.216377	<s> ดูด	-0.3813408
-3.137196	<s> ด้วย	-0.8200357
-3.614317	<s> ด้วยเหตุที่	0
-3.517407	<s> ตก	-0.7090703
-3.517407	<s> ตกลง	0
-3.614317	<s> ตย.	0
-3.517407	<s> ตรวจสอบ	-0.69897
-3.438226	<s> ตลาด	-0.3679768
-1.975828	<s> ตอง	0
-2.836166	<s> ตอน	-0.706623
-2.603593	<s> ตอนนี้	-0.3765418
-3.517407	<s> ตัด	-0.7112045
-3.313287	<s> ตัวอย่าง	-0.905256
-3.614317	<s> ตัวอักษร	-0.6603406
-3.614317	<s> ตัวเอ็นโค้คเดอร์	0
-2.508807	<s> ตั้ง	-0.7029361
-3.012257	<s> ตั้งค่า	0
-3.614317	<s> ตาม	-0.6868211
-3.137196	<s> ตาราง	-0.7965229
-3.313287	<s> ติดต่อ	-0.5118834
-3.739256	<s> ตี	-0.5827549
-3.137196	<s> ตึก	-0.5026754
-2.438226	<s> ตื่น	-0.4462486
-2.739256	<s> ตู้	-0.9499454
-2.915347	<s> ตู้เย็น	-0.6267335
-3.517407	<s> ตู้เย็็น	0
-2.961105	<s> ต่อ	-0.8958256
-2.915347	<s> ต่อมา	0.1346986
-3.517407	<s> ต่อไป	-0.3767507
-3.614317	<s> ต้นแบบ	-0.4771212
-3.216377	<s> ต้นไม้	-0.6320232
-2.725015	<s> ต้ม	-0.5906716
-2.614317	<s> ต้มยำ	-0.6318071
-3.262135	<s> ต้มยำกุ้งน้ำข้น	-0.5118833
-2.937624	<s> ต้อง	-0.6770409
-2.818437	<s> ถอน	-0.7995494
-3.517407	<s> ถัด	0.544068
-3.614317	<s> ถาม	0
-3.517407	<s> ถูกต้อง	-0.6812412
-2.500374	<s> ถ้า	-0.5465929
-3.313287	<s> ทรง	-0.5228788
-2.818437	<s> ทวง	0
-3.517407	<s> ทวน	0
-3.216377	<s> ทอด	-0.5672979
-2.961105	<s> ทอย	0
-3.614317	<s> ทับทิม	0
-3.313287	<s> ทั้งนี้	0
-3.517407	<s> ทั้งหมด	-0.763625
-2.801404	<s> ทาง	-0.9468448
-2.212056	<s> ทำ	-0.6383929
-3.313287	<s> ทำมุม	0
-2.614317	<s> ทำลาย	-0.859109
-2.769219	<s> ทำให้	-0.6199715
-2.785013	<s> ทิ้ง	-0.4881167
-2.151919	<s> ที่	-1.063366
-3.070249	<s> ที่นี่	0
-3.614317	<s> ทุก	-0.5042735
-3.517407	<s> ทุบ	0
-3.438226	<s> ทูฟาสต์	0
-3.614317	<s> ท่าทาง	-0.4771212
-3.517407	<s> ท้องเสีย	0
-2.915347	<s> ท้า	0
-2.818437	<s> ธนาคาร	-0.4343691
-3.614317	<s> น.ส.	0
-3.012257	<s> นก	-0.6989701
-2.915347	<s> นอกจาก	-0.2699957
-3.313287	<s> นอกจากนั้น	0
-2.535136	<s> นอกจากนี้	0
-2.672309	<s> นอน	-0.8880586
-3.438226	<s> นักเรียน	0
-2.390302	<s> นัด	-0.7770775
-3.262135	<s> นับ	-0.60206
-3.517407	<s> นั่ง	-0.7593477
-3.313287	<s> นา	-0.7168816
-3.012257	<s> นาย	-0.7459667
-3.614317	<s> นาฬิกา	-0.6543878
-2.410197	<s> นำ	-1.175095
-3.614317	<s> นิยม	-0.5133334
-3.517407	<s> น้อง	-0.5149098
-3.313287	<s> บน	-0.9338014
-3.739256	<s> บรรจุ	-0.5606673
-3.438226	<s> บรูซ	0
-3.438226	<s> บลีช	0
-3.614317	<s> บล๊อคไดอะแกรม	-0.552842
-2.603593	<s> บอก	-0.5282737
-2.915347	<s> บังคับ	0
-3.438226	<s> บัตร	-0.8129134
-3.517407	<s> บันทึก	-0.7367586
-3.614317	<s> บันได	-0.4616091
-3.438226	<s> บัว	-0.5762527
-3.313287	<s> บาง	-0.9015362
-3.313287	<s> บางครั้ง	0
-2.438226	<s> บิชอป	0.1853321
-3.438226	<s> บิวตี้	0.2688453
-3.137196	<s> บึ้ม	0
-3.739256	<s> บืชอป	0
-3.614317	<s> บุคลิกภาพ	0
-3.614317	<s> บ่อยครั้ง	0
-3.070249	<s> บ่าย	-0.6195507
-3.517407	<s> บ้าน	-0.7416344
-3.313287	<s> ปกติ	-0.39794
-3.517407	<s> ปฏิเสธ	0
-3.313287	<s> ปรก	0
-3.313287	<s> ประกอบ	-0.754113
-3.614317	<s> ประกอบด้วย	-0.6565661
-3.517407	<s> ประกัน	0
-2.915347	<s> ประกันตัว	0
-3.614317	<s> ประการ	-0.60206
-3.614317	<s> ประชาชน	-0.634512
-3.517407	<s> ประชาสัมพันธ์	0
-2.894158	<s> ประชุม	-0.5563025
-3.216377	<s> ประตู	-0.7231037
-3.517407	<s> ประทับ	0
-3.517407	<s> ประท้วง	0
-2.836166	<s> ประมูล	0
-3.313287	<s> ประเภท	-0.8415382
-3.137196	<s> ปรับ	-0.6368221
-3.614317	<s> ปลาย	-0.60206
-2.614317	<s> ปลาหมึก	-0.6056052
-2.468189	<s> ปลุก	-0.6644056
-2.937624	<s> ปล้น	0
-3.102434	<s> ปวด	0
-2.672309	<s> ปอนด์	-0.1591528
-3.438226	<s> ปังเย็น	0
-3.614317	<s> ปัจจุบัน	-0.4616091
-3.517407	<s> ปั่น	0
-3.739256	<s> ปา	0
-3.614317	<s> ปาก	-0.5133334
-2.102434	<s> ปิด	-0.5924762
-2.961105	<s> ปี	-0.8239086
-3.137196	<s> ป้องกัน	-0.5769755
-3.739256	<s> ผงก	0
-3.313287	<s> ผล	-0.640978
-3.313287	<s> ผลลัพธ์	0
-3.614317	<s> ผศ.	0
-3.517407	<s> ผักคะน้า	-0.544068
-3.313287	<s> ผัด	-0.6061053
-3.614317	<s> ผัดซีอิ๊ว	0
-3.614317	<s> ผูก	0
-3.614317	<s> ผู้	-0.669515
-3.438226	<s> ผู้ช่วย	0
-3.614317	<s> ผู้ป่วย	-0.552842
-3.614317	<s> ผู้วิจัย	-0.4771212
-3.137196	<s> ผู้ใช้	-0.6663827
-3.614317	<s> ผู้ใหญ่	-0.60206
-3.216377	<s> ผ่าน	-0.7346855
-3.614317	<s> ผ้า	-0.6232493
-3.614317	<s> ฝา	-0.552842
-3.313287	<s> พบว่า	0
-3.438226	<s> พรจากฟ้า	0
-3.313287	<s> พระราชทาน	0
-3.614317	<s> พระองค์	0
-2.711227	<s> พรุ่ง	0.04830468
-2.040286	<s> พรุ่งนี้	-0.6992643
-3.739256	<s> พร้อม	-0.5578563
-2.672309	<s> พล	-0.1591528
-3.517407	<s> พลิก	0.2632414
-3.137196	<s> พวก	0.208276
-3.070249	<s> พอ	-0.5914767
-3.614317	<s> พอส	0
-3.517407	<s> พอแล้ว	0
-3.216377	<s> พานาคอตต้า	-0.4259688
-3.438226	<s> พาราโบลา	-0.60206
-3.614317	<s> พิบูลศิลป์	0
-3.262135	<s> พิม	0
-3.040286	<s> พิเศษ	-1.121933
-3.262135	<s> พื้น	-0.4973246
-3.438226	<s> พุธ	-0.5399121
-2.937624	<s> พูด	-0.4531209
-3.517407	<s> ฟิตเนส	-0.544068
-3.614317	<s> ภาพตัดขวาง	-0.5642715
-3.313287	<s> ภายหลัง	0
-3.313287	<s> มหาวิทยาลัย	0
-3.216377	<s> มอคค่า	0
-3.137196	<s> มะรืน	0.2662679
-3.137196	<s> มัก	-0.60206
-3.438226	<s> มัน	-0.8167644
-3.614317	<s> มั่ว	0
-2.648175	<s> มา	-0.7712025
-3.438226	<s> มิดเทอม	-0.6901961
-1.390951	<s> มี	-0.8337145
-3.517407	<s> มืด	-0.544068
-3.614317	<s> มื้อ	0
-2.894158	<s> ม้า	0.31037
-2.410197	<s> ยกเลิก	-0.1357967
-3.517407	<s> ยอม	0
-3.313287	<s> ยัง	-0.6619489
-3.614317	<s> ยา	-0.5668527
-3.614317	<s> ยาดอง	0
-3.614317	<s> ยาว	-0.6859075
-2.894158	<s> ยิง	0
-2.915347	<s> ยึด	-0.6853972
-3.614317	<s> ยืนยัน	0
-3.040286	<s> ยืม	0
-3.102434	<s> ย่อ	-0.3817166
-3.614317	<s> ย่าน	-0.5963076
-2.711227	<s> ย้อน	0
-3.438226	<s> ย้าย	-0.640978
-3.040286	<s> รด	0.1180993
-2.739256	<s> รดน้ำ	0.05958563
-3.517407	<s> รถ	-0.7410094
-3.614317	<s> รวม	-0.6478175
-3.614317	<s> รวมถึง	0
-3.012257	<s> รวมทั้ง	0
-3.614317	<s> รศ.	0
-3.614317	<s> ระงับ	0
-3.012257	<s> ระบบ	-0.7041764
-3.614317	<s> ระบบขับเคลื่อน	0
-3.137196	<s> ระยะ	-0.6802878
-3.614317	<s> ระวีวรรณ	0
-2.836166	<s> ระหว่าง	-0.6690068
-3.614317	<s> รัฐ	0
-2.818437	<s> รับ	-0.8568895
-3.040286	<s> ราคา	-0.3663497
-3.614317	<s> ราชบัณฑิตยสถาน	-0.4771212
-3.614317	<s> รายการ	-0.6841209
-3.313287	<s> รายละเอียด	-0.4357285
-2.468189	<s> รูป	-1.114625
-3.216377	<s> ร้อน	-0.5039935
-2.167159	<s> ร้าน	-0.7765242
-3.614317	<s> ฤดูหนาว	0
-3.102434	<s> ลง	-0.7004218
-2.238653	<s> ลด	-0.6953128
-2.836166	<s> ลบ	-0.3679767
-3.614317	<s> ลอง	-0.4771212
-3.517407	<s> ละลาย	-0.3928004
-3.313287	<s> ลักษณะ	-0.5762527
-3.438226	<s> ลั่น	0
-3.438226	<s> ลา	-0.5540523
-3.517407	<s> ลาน	0
-3.216377	<s> ลาเต้	0
-3.262135	<s> ลุก	0
-3.438226	<s> ลุง	-0.60206
-2.915347	<s> ล็อกอิน	0
-3.614317	<s> ล็อกเอาท์	0
-2.739256	<s> ล็อค	-0.3273589
-3.517407	<s> ล้าง	0
-3.614317	<s> วงจร	-0.6815959
-3.614317	<s> วัชพืช	-0.5963076
-2.01772	<s> วัน	-0.794525
-3.739256	<s> วันที่	-0.5690597
-2.347145	<s> วันนี้	-0.6876383
-3.438226	<s> วันศุกร์	-0.544068
-2.818437	<s> วันเกิด	0
-2.961105	<s> วาง	-0.4973245
-2.915347	<s> วาป	0
-2.359045	<s> วิชา	-0.6294981
-3.313287	<s> วิดีโอ	-0.6619864
-2.341316	<s> วิธี	-0.7653216
-3.137196	<s> วิธีการ	-0.6488034
-3.517407	<s> วิธีี	0
-3.313287	<s> วิภา	0
-2.307892	<s> วิ่ง	0
-3.739256	<s> วิ่่ง	0
-3.313287	<s> วุฒิพงศ์	0
-3.137196	<s> ว่า	-1.044493
-3.313287	<s> ศิลาจารึก	-0.3679768
-3.517407	<s> ศูนย์	-0.7527467
-3.614317	<s> ศูนย์วิจัย	0
-3.614317	<s> ศูนย์ฯ	-0.6159958
-3.313287	<s> ศูนย์เทคโนโลยีอิเล็กทรอนิกส์และคอมพิวเตอร์แห่งชาติ	-0.69897
-3.517407	<s> สกาย	0
-3.438226	<s> สคิป	0
-3.517407	<s> สตอเบอร์รี่	-0.6268836
-3.137196	<s> สตาร์วอร์	-0.594042
-3.517407	<s> สถานี	-0.7375334
-3.313287	<s> สถาบันเทคโนโลยีพระจอมเกล้าลาดกระบัง	0
-3.012257	<s> สภาพ	-0.9294189
-3.313287	<s> สมการ	-0.7168816
-3.137196	<s> สรรพคุณ	-0.6368221
-3.517407	<s> สรุป	-0.6532125
-2.985928	<s> สร้าง	-0.6741464
-3.313287	<s> สลับ	-0.39794
-3.438226	<s> สวย	0.1383027
-2.915347	<s> สอง	-0.6356012
-2.915347	<s> สอน	-1.134546
-3.438226	<s> สอบ	-0.7370905
-3.614317	<s> สะกด	0
-3.313287	<s> สัญญาณ	-0.639656
-3.614317	<s> สัตว์ปีก	0
-3.517407	<s> สับ	-0.7067953
-2.329886	<s> สัปดาห์	-0.6209567
-3.040286	<s> สั่ง	-0.8279613
-3.517407	<s> สั่งงาน	0
-3.040286	<s> สาม	-0.6068894
-3.313287	<s> สามารถ	-0.9054855
-3.614317	<s> สายสร้อย	0
-3.614317	<s> สายอากาศ	-0.5963076
-2.572924	<s> สำหรับ	-0.6964078
-3.313287	<s> สินค้า	-0.9036493
-2.894158	<s> สิบ	-0.6536614
-2.739256	<s> สี่	-0.5245458
-3.614317	<s> สุชาติ	0
-3.438226	<s> สุภาพ	-0.447158
-3.614317	<s> สุรีย์	0
-3.313287	<s> สุ่ม	-0.5862657
-3.313287	<s> สูญเสีย	-0.8515801
-2.636594	<s> ส่ง	-1.177967
-2.614317	<s> ส่วน	-0.771162
-3.614317	<s> ส่วนประกอบ	0
-3.313287	<s> ส่วนหนึ่ง	0
-3.438226	<s> ส้มตำ	0
-3.614317	<s> หก	-0.6336377
-1.589011	<s> หนัง	-1.636959
-3.517407	<s> หนาว	-0.7090703
-2.961105	<s> หนึ่ง	-0.5605986
-3.614317	<s> หนุ่มหนุ่ม	0
-3.137196	<s> หนู	-0.5247629
-3.216377	<s> หน้า	-1.02959
-3.614317	<s> หน้าจั่ว	-0.4771212
-3.438226	<s> หมู	-0.8136896
-3.216377	<s> หมูกระเทียม	-0.5303668
-3.517407	<s> หยิบ	0
-2.636594	<s> หยุด	-0.3855307
-2.660074	<s> หรือ	-0.7465345
-3.614317	<s> หลัก	-0.552842
-3.614317	<s> หลักการ	-0.4771212
-3.262135	<s> หลัง	-0.6916707
-3.614317	<s> หลังจากนั้น	0
-2.915347	<s> หวาน	-0.6487122
-3.517407	<s> หอยแครง	-0.544068
-3.040286	<s> หัน	-0.1249387
-3.517407	<s> หัวหอม	-0.544068
-2.818437	<s> หา	-0.9908364
-3.614317	<s> หาก	-0.5642715
-3.517407	<s> หิว	0.2632414
-3.216377	<s> หุง	-0.3928005
-2.582909	<s> ห้อง	-0.8354149
-3.517407	<s> ห้องครัว	-0.544068
-3.438226	<s> ห้องพัก	0
-2.648175	<s> ห้า	-0.6887391
-3.614317	<s> องค์ประกอบ	0
-3.313287	<s> อนึ่ง	0
-3.040286	<s> อบ	-0.7454821
-1.919712	<s> อยาก	-0.5284677
-3.262135	<s> อยู่	-0.7103326
-2.836166	<s> อย่า	0
-3.438226	<s> อย่าง	-0.5828968
-3.137196	<s> อย่างไรก็ตาม	0.1091445
-3.313287	<s> อวัยวะเพศ	0
-3.262135	<s> ออก	-0.6948053
-2.937624	<s> อะไร	-1.013308
-3.438226	<s> อะไรวอล	-0.763428
-3.614317	<s> อัตรา	-0.5898255
-3.216377	<s> อัน	-0.819544
-2.563164	<s> อันดับ	-1.298589
-2.818437	<s> อันเดอร์วอเตอร์เวิล์ด	0
-2.769219	<s> อัพ	-0.2092596
-3.614317	<s> อาการ	-0.6744962
-3.614317	<s> อาจ	-0.667371
-2.769219	<s> อาจารย์	-0.6716212
-2.508807	<s> อาทิตย์	-0.7249059
-3.517407	<s> อาบ	-0.4559319
-2.572924	<s> อาหาร	-1.233596
-3.517407	<s> อาหารบูด	-0.6268836
-3.517407	<s> อาหารเสีย	-0.6268836
-3.739256	<s> อี	-0.5314789
-2.046115	<s> อีก	-0.6682309
-3.313287	<s> อีกทั้ง	0
-3.216377	<s> อุ้ม	0
-3.438226	<s> อเมซอน	-0.60206
-3.216377	<s> อเมริกาโน่	0
-3.040286	<s> อ่าน	-1.099385
-3.614317	<s> เกณฑ์	0
-2.095803	<s> เกม	-0.6881847
-2.961105	<s> เกรด	0
-3.614317	<s> เกรียงชัย	0
-3.137196	<s> เกาเหลา	0
-3.313287	<s> เกิด	-0.6638564
-3.517407	<s> เกี่ยว	-0.7168816
-3.012257	<s> เก็บ	-0.7450589
-3.216377	<s> เก้า	-0.5630358
-3.517407	<s> เก๊าท์	0
-3.137196	<s> เขา	-0.6853972
-3.102434	<s> เข้า	-0.8034771
-3.137196	<s> เครป	0
-3.012257	<s> เครื่อง	-0.4393326
-3.313287	<s> เครื่องต้นแบบ	-0.5862657
-3.614317	<s> เครื่องรับวิทยุ	-0.4771212
-3.614317	<s> เครื่องแบบ	0
-2.873954	<s> เคลียร์	-0.4685211
-3.313287	<s> เคลือบ	-0.7686059
-3.517407	<s> เคล็ดลับ	0
-3.614317	<s> เจน	0
-3.438226	<s> เจฟเฟอร์	-0.60206
-3.012257	<s> เจ็ด	-0.5915945
-3.517407	<s> เจ้าของ	-0.7017629
-3.216377	<s> เจ้าหน้าที่	-0.6320232
-3.614317	<s> เฉลี่ย	-0.6197888
-3.517407	<s> เชอร์รี่	-0.6268836
-2.625313	<s> เช็ค	-0.4036922
-2.769219	<s> เช่น	-0.6479845
-3.313287	<s> เช้า	-0.9059378
-3.438226	<s> เซงเซียมอี๊	0
