
\data\
ngram 1=6
ngram 2=5

\1-grams:
-0.69897	</s>
-99	<s>	-99
-0.69897	bye	-99
-0.69897	good	-99
-0.69897	hello	-99
-0.69897	world	-99

\2-grams:
0	<s> good
0	bye hello
0	good bye
0	hello world
0	world </s>

\end\
