
\data\
ngram 1=1408
ngram 2=2812
ngram 3=0

\1-grams:
-0.4769154	</s>
-99	<s>	0.1758853
-3.32418	กด	-0.1248358
-3.32418	กรอบ	-0.1248358
-3.32418	กระ	-0.1248358
-3.32418	กระจาย	-0.1248358
-3.32418	กระถาง	-0.1248358
-3.32418	กระทะ	-0.1248358
-3.32418	กระสุน	-0.1248358
-3.32418	กระเทียม	-0.1248358
-3.32418	กระเป๋า	-0.1248358
-3.32418	กระแส	-0.1248358
-3.32418	กระโดด	-0.1248358
-3.32418	กรุงศรี	-0.1248358
-3.32418	กรุงเทพ	-0.1248358
-3.32418	กรุงไทย	-0.1248358
-3.32418	กล	-0.1248358
-3.32418	กลม	-0.1248358
-3.32418	กลับ	-0.1248358
-3.32418	กลาง	-0.1248358
-3.32418	กลางวัน	-0.1248358
-3.32418	กล่องขายของ	-0.1248358
-3.32418	กล้วย	-0.1248358
-3.32418	กล้าม	-0.1248358
-3.32418	กว่า	-0.1248358
-3.32418	กสิกร	-0.1248358
-3.32418	กะเพรา	-0.1248358
-3.32418	กัญชา	-0.1248358
-3.32418	กัน	-0.1248358
-3.32418	กับ	-0.1248358
-3.32418	กับข้าว	-0.1248358
-3.32418	กางเกง	-0.1248358
-3.32418	กางเกงยีน	-0.1248358
-3.32418	การ	-0.1248358
-3.32418	การบ้าน	-0.1248358
-3.32418	การเชื่อมต่อ	-0.1248358
-3.32418	การ์ด	-0.1248358
-3.32418	กาแฟ	-0.1248358
-3.32418	กำกับ	-0.1248358
-3.32418	กำลัง	-0.1248358
-3.32418	กิจกรรม	-0.1248358
-3.32418	กิน	-0.1248358
-3.32418	กินข้าว	-0.1248358
-3.32418	กิโลแคลอรี่	-0.1248358
-3.32418	กิ๊ก	-0.1248358
-3.32418	กีฬา	-0.1248358
-3.32418	กี่	-0.1248358
-3.32418	กี่คน	-0.1248358
-3.32418	กี่โมง	-0.1248358
-3.32418	กุมภา	-0.1248358
-3.32418	กุ้ง	-0.1248358
-3.32418	กุ้งสับ	-0.1248358
-3.32418	กู้	-0.1248358
-3.32418	ก็	-0.1248358
-3.32418	ก็อท	-0.1248358
-3.32418	ก็ได้	-0.1248358
-3.32418	ก่อน	-0.1248358
-3.32418	ก่อนหน้า	-0.1248358
-3.32418	ก๋วยเตี๋ยว	-0.1248358
-3.32418	ขนม	-0.1248358
-3.32418	ขนมหวาน	-0.1248358
-3.32418	ขนาด	-0.1248358
-3.32418	ขยะ	-0.1248358
-3.32418	ขยาย	-0.1248358
-3.32418	ขวด	-0.1248358
-3.32418	ขวัญ	-0.1248358
-3.32418	ขวา	-0.1248358
-3.32418	ขวาน	-0.1248358
-3.32418	ขอ	-0.1248358
-3.32418	ของ	-0.1248358
-3.32418	ของขวัญ	-0.1248358
-3.32418	ของหวาน	-0.1248358
-3.32418	ขอบ	-0.1248358
-3.32418	ขอบคุณ	-0.1248358
-3.32418	ขอโทษ	-0.1248358
-3.32418	ขั้น	-0.1248358
-3.32418	ขั้นตอน	-0.1248358
-3.32418	ขา	-0.1248358
-3.32418	ขาย	-0.1248358
-3.32418	ขาว	-0.1248358
-3.32418	ขี้เกียจ	-0.1248358
-3.32418	ขึ้น	-0.1248358
-3.32418	ขึ้วา	-0.1248358
-3.32418	ขุด	-0.1248358
-3.32418	ขโมย	-0.1248358
-3.32418	ข่ายงาน	-0.1248358
-3.32418	ข่าว	-0.1248358
-3.32418	ข้อ	-0.1248358
-3.32418	ข้อมูล	-0.1248358
-3.32418	ข้อสอบ	-0.1248358
-3.32418	ข้าง	-0.1248358
-3.32418	ข้าพเจ้า	-0.1248358
-3.32418	ข้าม	-0.1248358
-3.32418	ข้าว	-0.1248358
-3.32418	ข้าวกะเพรา	-0.1248358
-3.32418	ข้าวผัด	-0.1248358
-3.32418	ข้าวมัน	-0.1248358
-3.32418	ข้าวมันไก่	-0.1248358
-3.32418	ข้าวหลามตัด	-0.1248358
-3.32418	ข้าวเปล่า	-0.1248358
-3.32418	ข้าวเปล่่า	-0.1248358
-3.32418	ข้าวเหนียว	-0.1248358
-3.32418	ข้าวโพด	-0.1248358
-3.32418	ข้าวไข่ดาว	-0.1248358
-3.32418	คณะ	-0.1248358
-3.32418	คน	-0.1248358
-3.32418	คนป่วย	-0.1248358
-3.32418	คนแก่	-0.1248358
-3.32418	คนไม่สบาย	-0.1248358
-3.32418	ครับ	-0.1248358
-3.32418	ครั้ง	-0.1248358
-3.32418	คราว	-0.1248358
-3.32418	คริส	-0.1248358
-3.32418	ครีมเมอรี่	-0.1248358
-3.32418	ครึ่ง	-0.1248358
-3.32418	คลุก	-0.1248358
-3.32418	คล้าย	-0.1248358
-3.32418	ควร	-0.1248358
-3.32418	ควัน	-0.1248358
-3.32418	ความ	-0.1248358
-3.32418	ความคิดเห็น	-0.1248358
-3.32418	ความยาว	-0.1248358
-3.32418	ความรู้สึก	-0.1248358
-3.32418	ความสัมพันธ์	-0.1248358
-3.32418	ความเร็ว	-0.1248358
-3.32418	ความแรง	-0.1248358
-3.32418	ควีน	-0.1248358
-3.32418	คอ	-0.1248358
-3.32418	คอมพิวเตอร์	-0.1248358
-3.32418	คะ	-0.1248358
-3.32418	คะน้า	-0.1248358
-3.32418	คะแนน	-0.1248358
-3.32418	คัตสึด้ง	-0.1248358
-3.32418	คัทสึด้ง	-0.1248358
-3.32418	คั่ว	-0.1248358
-3.32418	คั้งค่า	-0.1248358
-3.32418	คาปูชิโน่	-0.1248358
-3.32418	คาโบนาร่า	-0.1248358
-3.32418	คำนวณ	-0.1248358
-3.32418	คำแนะนำ	-0.1248358
-3.32418	คิง	-0.1248358
-3.32418	คิด	-0.1248358
-3.32418	คิดส์ซาเนีย	-0.1248358
-3.32418	คิล	-0.1248358
-3.32418	คิว	-0.1248358
-3.32418	คิวบิด	-0.1248358
-3.32418	คิสึเนะอุด้ง	-0.1248358
-3.32418	คืน	-0.1248358
-3.32418	คือ	-0.1248358
-3.32418	คุก	-0.1248358
-3.32418	คุกกี้	-0.1248358
-3.32418	คุณภาพ	-0.1248358
-3.32418	คุมสอบ	-0.1248358
-3.32418	คุย	-0.1248358
-3.32418	คู่	-0.1248358
-3.32418	ค่อย	-0.1248358
-3.32418	ค่ะ	-0.1248358
-3.32418	ค่า	-0.1248358
-3.32418	ค่าย	-0.1248358
-3.32418	ค่ำ	-0.1248358
-3.32418	ค้นหา	-0.1248358
-3.32418	ค้อน	-0.1248358
-3.32418	ฆ่า	-0.1248358
-3.32418	งง	-0.1248358
-3.32418	งด	-0.1248358
-3.32418	งบ	-0.1248358
-3.32418	งบประมาณ	-0.1248358
-3.32418	งาน	-0.1248358
-3.32418	งีบ	-0.1248358
-3.32418	ง่วง	-0.1248358
-3.32418	ง่าย	-0.1248358
-3.32418	จง	-0.1248358
-3.32418	จดหมาย	-0.1248358
-3.32418	จน	-0.1248358
-3.32418	จบ	-0.1248358
-3.32418	จอ	-0.1248358
-3.32418	จอง	-0.1248358
-3.32418	จอด	-0.1248358
-3.32418	จอบ	-0.1248358
-3.32418	จะ	-0.1248358
-3.32418	จัง	-0.1248358
-3.32418	จัด	-0.1248358
-3.32418	จัดการ	-0.1248358
-3.32418	จันทร์	-0.1248358
-3.32418	จับ	-0.1248358
-3.32418	จััดการ	-0.1248358
-3.32418	จั่ว	-0.1248358
-3.32418	จั้ม	-0.1248358
-3.32418	จั้มฟอส	-0.1248358
-3.32418	จั๊ม	-0.1248358
-3.32418	จาก	-0.1248358
-3.32418	จากนี้	-0.1248358
-3.32418	จาน	-0.1248358
-3.32418	จาม	-0.1248358
-3.32418	จำ	-0.1248358
-3.32418	จำนวน	-0.1248358
-3.32418	จี	-0.1248358
-3.32418	จีน	-0.1248358
-3.32418	จุด	-0.1248358
-3.32418	จุล	-0.1248358
-3.32418	จุฬา	-0.1248358
-3.32418	จ่าย	-0.1248358
-3.32418	ฉัน	-0.1248358
-3.32418	ฉาย	-0.1248358
-3.32418	ชวน	-0.1248358
-3.32418	ชวาล	-0.1248358
-3.32418	ชอบ	-0.1248358
-3.32418	ชั่ว	-0.1248358
-3.32418	ชั่วโมง	-0.1248358
-3.32418	ชั้น	-0.1248358
-3.32418	ชานม	-0.1248358
-3.32418	ชาบู	-0.1248358
-3.32418	ชาม	-0.1248358
-3.32418	ชาร์จ	-0.1248358
-3.32418	ชาเขียว	-0.1248358
-3.32418	ชำระ	-0.1248358
-3.32418	ชิ้น	-0.1248358
-3.32418	ชีวิต	-0.1248358
-3.32418	ชีส	-0.1248358
-3.32418	ชื่อ	-0.1248358
-3.32418	ชุด	-0.1248358
-3.32418	ช็อกโกแลต	-0.1248358
-3.32418	ช็อคโกแลต	-0.1248358
-3.32418	ช็อต	-0.1248358
-3.32418	ช่วง	-0.1248358
-3.32418	ช่วงนี้	-0.1248358
-3.32418	ช่วย	-0.1248358
-3.32418	ช่อง	-0.1248358
-3.32418	ช้อนชา	-0.1248358
-3.32418	ช้อนโต๊ะ	-0.1248358
-3.32418	ช้า	-0.1248358
-3.32418	ซอบิงโก	-0.1248358
-3.32418	ซอลบิง	-0.1248358
-3.32418	ซอส	-0.1248358
-3.32418	ซัก	-0.1248358
-3.32418	ซาวด์แทรก	-0.1248358
-3.32418	ซิก	-0.1248358
-3.32418	ซินนามอน	-0.1248358
-3.32418	ซี	-0.1248358
-3.32418	ซีท	-0.1248358
-3.32418	ซีรีย์	-0.1248358
-3.32418	ซีอิ๊ว	-0.1248358
-3.32418	ซื้อ	-0.1248358
-3.32418	ซุเปอร์มาร์เก็ต	-0.1248358
-3.32418	ซ้าย	-0.1248358
-3.32418	ซ้ำ	-0.1248358
-3.32418	ญี่ปุ่น	-0.1248358
-3.32418	ฐานข้อมูล	-0.1248358
-3.32418	ดนตรี	-0.1248358
-3.32418	ดราก้อน	-0.1248358
-3.32418	ดรีม	-0.1248358
-3.32418	ดวง	-0.1248358
-3.32418	ดวล	-0.1248358
-3.32418	ดอกจิก	-0.1248358
-3.32418	ดับ	-0.1248358
-3.32418	ดับเบิ้ล	-0.1248358
-3.32418	ดาว	-0.1248358
-3.32418	ดำ	-0.1248358
-3.32418	ดิจิตอล	-0.1248358
-3.32418	ดิน	-0.1248358
-3.32418	ดี	-0.1248358
-3.32418	ดีแทค	-0.1248358
-3.32418	ดึก	-0.1248358
-3.32418	ดื่ม	-0.1248358
-3.32418	ดู	-0.1248358
-3.32418	ดูด	-0.1248358
-3.32418	ดููด	-0.1248358
-3.32418	ด้วย	-0.1248358
-3.32418	ด้าน	-0.1248358
-3.32418	ตก	-0.1248358
-3.32418	ตกลง	-0.1248358
-3.32418	ตรง	-0.1248358
-3.32418	ตรงไหน	-0.1248358
-3.32418	ตรวจสอบ	-0.1248358
-3.32418	ตรา	-0.1248358
-3.32418	ตลาด	-0.1248358
-3.32418	ตอง	-0.1248358
-3.32418	ตอน	-0.1248358
-3.32418	ตอนนี้	-0.1248358
-3.32418	ตอนเที่ยง	-0.1248358
-3.32418	ตอนเรียน	-0.1248358
-3.32418	ตอบ	-0.1248358
-3.32418	ตะกร้า	-0.1248358
-3.32418	ตะไคร้	-0.1248358
-3.32418	ตังค์	-0.1248358
-3.32418	ตัด	-0.1248358
-3.32418	ตับ	-0.1248358
-3.32418	ตัว	-0.1248358
-3.32418	ตัวอย่าง	-0.1248358
-3.32418	ตัวเอง	-0.1248358
-3.32418	ตั้ง	-0.1248358
-3.32418	ตั้งค่า	-0.1248358
-3.32418	ตั้งแต่	-0.1248358
-3.32418	ตั๋ว	-0.1248358
-3.32418	ตา	-0.1248358
-3.32418	ตาม	-0.1248358
-3.32418	ตาย	-0.1248358
-3.32418	ตาราง	-0.1248358
-3.32418	ตาล	-0.1248358
-3.32418	ตำ	-0.1248358
-3.32418	ติด	-0.1248358
-3.32418	ติดตาม	-0.1248358
-3.32418	ติดต่อ	-0.1248358
-3.32418	ติว	-0.1248358
-3.32418	ติวสอบ	-0.1248358
-3.32418	ติวโตเรียล	-0.1248358
-3.32418	ตี	-0.1248358
-3.32418	ตีห้า	-0.1248358
-3.32418	ตึก	-0.1248358
-3.32418	ตึกร้อยปี	-0.1248358
-3.32418	ตื่น	-0.1248358
-3.32418	ตู้	-0.1248358
-3.32418	ตู้เย็น	-0.1248358
-3.32418	ตู้เย็็น	-0.1248358
-3.32418	ต่อ	-0.1248358
-3.32418	ต่อไป	-0.1248358
-3.32418	ต่ำ	-0.1248358
-3.32418	ต่ำกว่า	-0.1248358
-3.32418	ต้น	-0.1248358
-3.32418	ต้นไม้	-0.1248358
-3.32418	ต้ม	-0.1248358
-3.32418	ต้มยำ	-0.1248358
-3.32418	ต้มยำกุ้งน้ำข้น	-0.1248358
-3.32418	ต้อง	-0.1248358
-3.32418	ถอน	-0.1248358
-3.32418	ถอย	-0.1248358
-3.32418	ถัด	-0.1248358
-3.32418	ถั่ว	-0.1248358
-3.32418	ถั่วงอก	-0.1248358
-3.32418	ถาม	-0.1248358
-3.32418	ถึง	-0.1248358
-3.32418	ถุง	-0.1248358
-3.32418	ถูก	-0.1248358
-3.32418	ถูกต้อง	-0.1248358
-3.32418	ถูกใจ	-0.1248358
-3.32418	ถ่ายรูป	-0.1248358
-3.32418	ถ้วยตวง	-0.1248358
-3.32418	ถ้า	-0.1248358
-3.32418	ทน	-0.1248358
-3.32418	ทรานสคริปต์	-0.1248358
-3.32418	ทรี	-0.1248358
-3.32418	ทวง	-0.1248358
-3.32418	ทวน	-0.1248358
-3.32418	ทหารไทย	-0.1248358
-3.32418	ทอง	-0.1248358
-3.32418	ทองดี	-0.1248358
-3.32418	ทอด	-0.1248358
-3.32418	ทอป	-0.1248358
-3.32418	ทอย	-0.1248358
-3.32418	ทะเล	-0.1248358
-3.32418	ทักษิณ	-0.1248358
-3.32418	ทัน	-0.1248358
-3.32418	ทัศนศึกษา	-0.1248358
-3.32418	ทั้ง	-0.1248358
-3.32418	ทั้งวัน	-0.1248358
-3.32418	ทั้งหมด	-0.1248358
-3.32418	ทาง	-0.1248358
-3.32418	ทำ	-0.1248358
-3.32418	ทำงาน	-0.1248358
-3.32418	ทำนาย	-0.1248358
-3.32418	ทำยังไง	-0.1248358
-3.32418	ทำลาย	-0.1248358
-3.32418	ทิ้ง	-0.1248358
-3.32418	ที	-0.1248358
-3.32418	ทีม	-0.1248358
-3.32418	ทีวี	-0.1248358
-3.32418	ที่	-0.1248358
-3.32418	ที่ดิน	-0.1248358
-3.32418	ที่นั่ง	-0.1248358
-3.32418	ที่นี่	-0.1248358
-3.32418	ที่ปรึกษา	-0.1248358
-3.32418	ที่พัก	-0.1248358
-3.32418	ที่สุด	-0.1248358
-3.32418	ที่แล้ว	-0.1248358
-3.32418	ที่ไหน	-0.1248358
-3.32418	ทุก	-0.1248358
-3.32418	ทุกวัน	-0.1248358
-3.32418	ทุกวันศุกร์	-0.1248358
-3.32418	ทุกเวลา	-0.1248358
-3.32418	ทุบ	-0.1248358
-3.32418	ทุ่ม	-0.1248358
-3.32418	ทู	-0.1248358
-3.32418	ทูฟาสต์	-0.1248358
-3.32418	ทูสลีบ	-0.1248358
-3.32418	ทูเดย์	-0.1248358
-3.32418	ท่า	-0.1248358
-3.32418	ท้องเสีย	-0.1248358
-3.32418	ท้า	-0.1248358
-3.32418	ธนาคาร	-0.1248358
-3.32418	ธรรมดา	-0.1248358
-3.32418	ธุระ	-0.1248358
-3.32418	นนทบุรี	-0.1248358
-3.32418	นม	-0.1248358
-3.32418	นอก	-0.1248358
-3.32418	นอกเวลา	-0.1248358
-3.32418	นอน	-0.1248358
-3.32418	นอนได้	-0.1248358
-3.32418	นะ	-0.1248358
-3.32418	นักเรียน	-0.1248358
-3.32418	นักแสดงนำ	-0.1248358
-3.32418	นัด	-0.1248358
-3.32418	นับ	-0.1248358
-3.32418	นั่ง	-0.1248358
-3.32418	นั้น	-0.1248358
-3.32418	นั้ั้น	-0.1248358
-3.32418	นาที	-0.1248358
-3.32418	นาน	-0.1248358
-3.32418	นาม	-0.1248358
-3.32418	นาย	-0.1248358
-3.32418	นาฬิกา	-0.1248358
-3.32418	นำ	-0.1248358
-3.32418	นิติ	-0.1248358
-3.32418	นี่	-0.1248358
-3.32418	นี้	-0.1248358
-3.32418	นี้่ิ	-0.1248358
-3.32418	นึง	-0.1248358
-3.32418	น่า	-0.1248358
-3.32418	น่าดู	-0.1248358
-3.32418	น้อง	-0.1248358
-3.32418	น้อย	-0.1248358
-3.32418	น้ำ	-0.1248358
-3.32418	น้ำข้น	-0.1248358
-3.32418	น้ำจิ้ม	-0.1248358
-3.32418	น้ำตาล	-0.1248358
-3.32418	น้ำปลา	-0.1248358
-3.32418	น้ำเงิน	-0.1248358
-3.32418	น้ำเปล่า	-0.1248358
-3.32418	น้ำแข็ง	-0.1248358
-3.32418	น้ำใส	-0.1248358
-3.32418	บท	-0.1248358
-3.32418	บน	-0.1248358
-3.32418	บรรจุ	-0.1248358
-3.32418	บริการ	-0.1248358
-3.32418	บรูซ	-0.1248358
-3.32418	บลายบิด	-0.1248358
-3.32418	บลีช	-0.1248358
-3.32418	บลู	-0.1248358
-3.32418	บวก	-0.1248358
-3.32418	บอก	-0.1248358
-3.32418	บอม	-0.1248358
-3.32418	บอส	-0.1248358
-3.32418	บะหมี่	-0.1248358
-3.32418	บังคับ	-0.1248358
-3.32418	บัญชี	-0.1248358
-3.32418	บัตร	-0.1248358
-3.32418	บันทึก	-0.1248358
-3.32418	บัว	-0.1248358
-3.32418	บาท	-0.1248358
-3.32418	บิงซู	-0.1248358
-3.32418	บิชอป	-0.1248358
-3.32418	บิล	-0.1248358
-3.32418	บิวตี้	-0.1248358
-3.32418	บี	-0.1248358
-3.32418	บีทีเอส	-0.1248358
-3.32418	บีสต์	-0.1248358
-3.32418	บึ้ม	-0.1248358
-3.32418	บืชอป	-0.1248358
-3.32418	บุฟเฟต์	-0.1248358
-3.32418	บ่อย	-0.1248358
-3.32418	บ่าย	-0.1248358
-3.32418	บ้าง	-0.1248358
-3.32418	บ้าน	-0.1248358
-3.32418	ปกติ	-0.1248358
-3.32418	ปฎิทิน	-0.1248358
-3.32418	ปฏิเสธ	-0.1248358
-3.32418	ปทุมธานี	-0.1248358
-3.32418	ประกอบ	-0.1248358
-3.32418	ประกัน	-0.1248358
-3.32418	ประกันตัว	-0.1248358
-3.32418	ประจำ	-0.1248358
-3.32418	ประชาสัมพันธ์	-0.1248358
-3.32418	ประชุม	-0.1248358
-3.32418	ประดับ	-0.1248358
-3.32418	ประตู	-0.1248358
-3.32418	ประทับ	-0.1248358
-3.32418	ประท้วง	-0.1248358
-3.32418	ประมาณ	-0.1248358
-3.32418	ประมูล	-0.1248358
-3.32418	ประยุทธ์	-0.1248358
-3.32418	ประวัติ	-0.1248358
-3.32418	ประสงค์	-0.1248358
-3.32418	ประเทศ	-0.1248358
-3.32418	ประเภท	-0.1248358
-3.32418	ปรับ	-0.1248358
-3.32418	ปริมาณ	-0.1248358
-3.32418	ปลั๊ก	-0.1248358
-3.32418	ปลา	-0.1248358
-3.32418	ปลาหมึก	-0.1248358
-3.32418	ปลุก	-0.1248358
-3.32418	ปล้น	-0.1248358
-3.32418	ปวด	-0.1248358
-3.32418	ปอนด์	-0.1248358
-3.32418	ปะ	-0.1248358
-3.32418	ปัง	-0.1248358
-3.32418	ปังย่า	-0.1248358
-3.32418	ปังเย็น	-0.1248358
-3.32418	ปั่น	-0.1248358
-3.32418	ปา	-0.1248358
-3.32418	ปาตี้	-0.1248358
-3.32418	ปานกลาง	-0.1248358
-3.32418	ปาร์ค	-0.1248358
-3.32418	ปาร์ตี้	-0.1248358
-3.32418	ปาล์ม	-0.1248358
-3.32418	ปิด	-0.1248358
-3.32418	ปิดเทอม	-0.1248358
-3.32418	ปิ้ง	-0.1248358
-3.32418	ปี	-0.1248358
-3.32418	ปืน	-0.1248358
-3.32418	ปู	-0.1248358
-3.32418	ป่าว	-0.1248358
-3.32418	ป้องกัน	-0.1248358
-3.32418	ป้อม	-0.1248358
-3.32418	ป๊อปคอร์น	-0.1248358
-3.32418	ผงก	-0.1248358
-3.32418	ผม	-0.1248358
-3.32418	ผลิต	-0.1248358
-3.32418	ผลไม้	-0.1248358
-3.32418	ผัก	-0.1248358
-3.32418	ผักกาด	-0.1248358
-3.32418	ผักคะน้า	-0.1248358
-3.32418	ผักบุ้ง	-0.1248358
-3.32418	ผัด	-0.1248358
-3.32418	ผัดซีอิ๊ว	-0.1248358
-3.32418	ผู้	-0.1248358
-3.32418	ผู้กำกับ	-0.1248358
-3.32418	ผู้จัดการ	-0.1248358
-3.32418	ผู้ชาย	-0.1248358
-3.32418	ผู้ช่วย	-0.1248358
-3.32418	ผู้สูงอายุ	-0.1248358
-3.32418	ผู้หญิง	-0.1248358
-3.32418	ผู้เล่น	-0.1248358
-3.32418	ผู้ใหญ่	-0.1248358
-3.32418	ผ่าน	-0.1248358
-3.32418	ผ้า	-0.1248358
-3.32418	ฝั่ง	-0.1248358
-3.32418	ฝาก	-0.1248358
-3.32418	ฝุ่น	-0.1248358
-3.32418	พก	-0.1248358
-3.32418	พร	-0.1248358
-3.32418	พรจากฟ้า	-0.1248358
-3.32418	พระเกี้ยว	-0.1248358
-3.32418	พริก	-0.1248358
-3.32418	พริกน้ำปลา	-0.1248358
-3.32418	พริกไทย	-0.1248358
-3.32418	พรีวิเลจ	-0.1248358
-3.32418	พรีเมี่ยม	-0.1248358
-3.32418	พรุ่ง	-0.1248358
-3.32418	พรุ่งนี้	-0.1248358
-3.32418	พร้อม	-0.1248358
-3.32418	พฤหัส	-0.1248358
-3.32418	พล	-0.1248358
-3.32418	พลัง	-0.1248358
-3.32418	พลิก	-0.1248358
-3.32418	พอ	-0.1248358
-3.32418	พอส	-0.1248358
-3.32418	พอแล้ว	-0.1248358
-3.32418	พะโล้	-0.1248358
-3.32418	พัก	-0.1248358
-3.32418	พัน	-0.1248358
-3.32418	พากย์	-0.1248358
-3.32418	พาณิชย์	-0.1248358
-3.32418	พานาคอตต้า	-0.1248358
-3.32418	พารากราฟ	-0.1248358
-3.32418	พารากอน	-0.1248358
-3.32418	พาราโบลา	-0.1248358
-3.32418	พิกัด	-0.1248358
-3.32418	พิการ	-0.1248358
-3.32418	พิม	-0.1248358
-3.32418	พิเศษ	-0.1248358
-3.32418	พี	-0.1248358
-3.32418	พี่	-0.1248358
-3.32418	พื้น	-0.1248358
-3.32418	พุธ	-0.1248358
-3.32418	พูด	-0.1248358
-3.32418	ฟรี	-0.1248358
-3.32418	ฟรุตตี้	-0.1248358
-3.32418	ฟร้องซ์	-0.1248358
-3.32418	ฟอง	-0.1248358
-3.32418	ฟองนม	-0.1248358
-3.32418	ฟอส	-0.1248358
-3.32418	ฟัง	-0.1248358
-3.32418	ฟัน	-0.1248358
-3.32418	ฟันขาว	-0.1248358
-3.32418	ฟาร์ม	-0.1248358
-3.32418	ฟิตเนส	-0.1248358
-3.32418	ฟิฟตี้	-0.1248358
-3.32418	ฟิลเตอร์	-0.1248358
-3.32418	ฟ้า	-0.1248358
-3.32418	ภาค	-0.1248358
-3.32418	ภายใน	-0.1248358
-3.32418	ภาษา	-0.1248358
-3.32418	ภู	-0.1248358
-3.32418	มรณะ	-0.1248358
-3.32418	มหาจักรีสิรินธร	-0.1248358
-3.32418	มหิต	-0.1248358
-3.32418	มอคค่า	-0.1248358
-3.32418	มอง	-0.1248358
-3.32418	มอน	-0.1248358
-3.32418	มอนเตอร์	-0.1248358
-3.32418	มะม่วง	-0.1248358
-3.32418	มะรืน	-0.1248358
-3.32418	มักโรนี	-0.1248358
-3.32418	มังสวิรัติ	-0.1248358
-3.32418	มัน	-0.1248358
-3.32418	มันฝรั่ง	-0.1248358
-3.32418	มั่ว	-0.1248358
-3.32418	มั้ย	-0.1248358
-3.32418	มา	-0.1248358
-3.32418	มาก	-0.1248358
-3.32418	มากิ	-0.1248358
-3.32418	มาบุญครอง	-0.1248358
-3.32418	มาม่า	-0.1248358
-3.32418	มาส	-0.1248358
-3.32418	มิดเทอม	-0.1248358
-3.32418	มิตรภาพ	-0.1248358
-3.32418	มิติ	-0.1248358
-3.32418	มิยาบิ	-0.1248358
-3.32418	มิลลิลิตร	-0.1248358
-3.32418	มี	-0.1248358
-3.32418	มีนา	-0.1248358
-3.32418	มืด	-0.1248358
-3.32418	มือถือ	-0.1248358
-3.32418	มื้อ	-0.1248358
-3.32418	มูฟวี่	-0.1248358
-3.32418	ม้า	-0.1248358
-3.32418	ม้้ย	-0.1248358
-3.32418	ย	-0.1248358
-3.32418	ยกคลาส	-0.1248358
-3.32418	ยกเลิก	-0.1248358
-3.32418	ยอม	-0.1248358
-3.32418	ยักษ์	-0.1248358
-3.32418	ยัง	-0.1248358
-3.32418	ยังไง	-0.1248358
-3.32418	ยา	-0.1248358
-3.32418	ยาก	-0.1248358
-3.32418	ยางมะตูม	-0.1248358
-3.32418	ยาว	-0.1248358
-3.32418	ยาโยอิ	-0.1248358
-3.32418	ยำ	-0.1248358
-3.32418	ยิง	-0.1248358
-3.32418	ยิน	-0.1248358
-3.32418	ยีนส์	-0.1248358
-3.32418	ยี่	-0.1248358
-3.32418	ยี่สิบ	-0.1248358
-3.32418	ยึด	-0.1248358
-3.32418	ยืด	-0.1248358
-3.32418	ยืนยัน	-0.1248358
-3.32418	ยืม	-0.1248358
-3.32418	ยู	-0.1248358
-3.32418	ย่อ	-0.1248358
-3.32418	ย่อย	-0.1248358
-3.32418	ย่าง	-0.1248358
-3.32418	ย้อน	-0.1248358
-3.32418	ย้าย	-0.1248358
-3.32418	รด	-0.1248358
-3.32418	รดน้ำ	-0.1248358
-3.32418	รถ	-0.1248358
-3.32418	รบ	-0.1248358
-3.32418	รวม	-0.1248358
-3.32418	รส	-0.1248358
-3.32418	รสชาติ	-0.1248358
-3.32418	รหัส	-0.1248358
-3.32418	รหัสวิชา	-0.1248358
-3.32418	รอ	-0.1248358
-3.32418	รองรับ	-0.1248358
-3.32418	รองเท้า	-0.1248358
-3.32418	รอด	-0.1248358
-3.32418	รอบ	-0.1248358
-3.32418	ระ	-0.1248358
-3.32418	ระดับ	-0.1248358
-3.32418	ระหว่าง	-0.1248358
-3.32418	ระเบิด	-0.1248358
-3.32418	รัก	-0.1248358
-3.32418	รักษา	-0.1248358
-3.32418	รับ	-0.1248358
-3.32418	รัว	-0.1248358
-3.32418	ราคา	-0.1248358
-3.32418	รางวัล	-0.1248358
-3.32418	ราดหน้า	-0.1248358
-3.32418	ราย	-0.1248358
-3.32418	รายการ	-0.1248358
-3.32418	รายงาน	-0.1248358
-3.32418	รายชื่อ	-0.1248358
-3.32418	รายละเอียด	-0.1248358
-3.32418	รายได้	-0.1248358
-3.32418	ริม	-0.1248358
-3.32418	ริเวอร์	-0.1248358
-3.32418	รีบ	-0.1248358
-3.32418	รีวิว	-0.1248358
-3.32418	รึ	-0.1248358
-3.32418	รึยัง	-0.1248358
-3.32418	รุจิศรี	-0.1248358
-3.32418	รุ้ง	-0.1248358
-3.32418	รูป	-0.1248358
-3.32418	รู้	-0.1248358
-3.32418	ร้อง	-0.1248358
-3.32418	ร้อน	-0.1248358
-3.32418	ร้อย	-0.1248358
-3.32418	ร้าน	-0.1248358
-3.32418	ร้านค้า	-0.1248358
-3.32418	ร้านแนะนำ	-0.1248358
-3.32418	ลง	-0.1248358
-3.32418	ลงทะเบียน	-0.1248358
-3.32418	ลด	-0.1248358
-3.32418	ลบ	-0.1248358
-3.32418	ลวก	-0.1248358
-3.32418	ลอง	-0.1248358
-3.32418	ลอจิค	-0.1248358
-3.32418	ลอย	-0.1248358
-3.32418	ละ	-0.1248358
-3.32418	ละลาย	-0.1248358
-3.32418	ละหมาด	-0.1248358
-3.32418	ลั่น	-0.1248358
-3.32418	ลา	-0.1248358
-3.32418	ลางาน	-0.1248358
-3.32418	ลาน	-0.1248358
-3.32418	ลาส	-0.1248358
-3.32418	ลาเต้	-0.1248358
-3.32418	ลิฟท์	-0.1248358
-3.32418	ลิมิต	-0.1248358
-3.32418	ลิเนียร์	-0.1248358
-3.32418	ลิโด้	-0.1248358
-3.32418	ลีนุกซ์	-0.1248358
-3.32418	ลืม	-0.1248358
-3.32418	ลุก	-0.1248358
-3.32418	ลุง	-0.1248358
-3.32418	ลุ้น	-0.1248358
-3.32418	ลูก	-0.1248358
-3.32418	ลูกชิ้นปลา	-0.1248358
-3.32418	ลูกเต๋า	-0.1248358
-3.32418	ลูป	-0.1248358
-3.32418	ล็อกอิน	-0.1248358
-3.32418	ล็อกเอาท์	-0.1248358
-3.32418	ล็อค	-0.1248358
-3.32418	ล็อบสเตอร์	-0.1248358
-3.32418	ล่วง	-0.1248358
-3.32418	ล่า	-0.1248358
-3.32418	ล่าง	-0.1248358
-3.32418	ล่าสุด	-0.1248358
-3.32418	ล้าง	-0.1248358
-3.32418	ล้าน	-0.1248358
-3.32418	วง	-0.1248358
-3.32418	วอล	-0.1248358
-3.32418	วอล์ค	-0.1248358
-3.32418	วัตถุดิบ	-0.1248358
-3.32418	วัน	-0.1248358
-3.32418	วันที่	-0.1248358
-3.32418	วันนี้	-0.1248358
-3.32418	วันปีใหม่	-0.1248358
-3.32418	วันศุกร์	-0.1248358
-3.32418	วันหยุด	-0.1248358
-3.32418	วันเกิด	-0.1248358
-3.32418	วันเสาร์	-0.1248358
-3.32418	วันไหน	-0.1248358
-3.32418	วัยรุ่น	-0.1248358
-3.32418	วัว	-0.1248358
-3.32418	วาง	-0.1248358
-3.32418	วาน	-0.1248358
-3.32418	วานซืน	-0.1248358
-3.32418	วาป	-0.1248358
-3.32418	วิชา	-0.1248358
-3.32418	วิดีโอ	-0.1248358
-3.32418	วิธี	-0.1248358
-3.32418	วิธีทำ	-0.1248358
-3.32418	วิธีี	-0.1248358
-3.32418	วินาที	-0.1248358
-3.32418	วินโดวส์	-0.1248358
-3.32418	วินโด้	-0.1248358
-3.32418	วิป	-0.1248358
-3.32418	วิปครีม	-0.1248358
-3.32418	วิลลิส	-0.1248358
-3.32418	วิศวะ	-0.1248358
-3.32418	วิเคราะห์ระบบ	-0.1248358
-3.32418	วิ่ง	-0.1248358
-3.32418	วิ่่ง	-0.1248358
-3.32418	วีดิโอ	-0.1248358
-3.32418	วีดีโอ	-0.1248358
-3.32418	ว่า	-0.1248358
-3.32418	ว่าง	-0.1248358
-3.32418	ศาลา	-0.1248358
-3.32418	ศิลปิน	-0.1248358
-3.32418	ศุกร์	-0.1248358
-3.32418	ศูนย์	-0.1248358
-3.32418	สกาย	-0.1248358
-3.32418	สคิป	-0.1248358
-3.32418	สตอเบอร์รี่	-0.1248358
-3.32418	สตางค์	-0.1248358
-3.32418	สตาร์บัค	-0.1248358
-3.32418	สตาร์วอร์	-0.1248358
-3.32418	สถานะ	-0.1248358
-3.32418	สถานี	-0.1248358
-3.32418	สน	-0.1248358
-3.32418	สปาเก็ตตี้	-0.1248358
-3.32418	สภาพ	-0.1248358
-3.32418	สมัคร	-0.1248358
-3.32418	สมาชิก	-0.1248358
-3.32418	สมุด	-0.1248358
-3.32418	สมุทรปราการ	-0.1248358
-3.32418	สยอง	-0.1248358
-3.32418	สยาม	-0.1248358
-3.32418	สระ	-0.1248358
-3.32418	สรุป	-0.1248358
-3.32418	สร้าง	-0.1248358
-3.32418	สร้างขึ้น	-0.1248358
-3.32418	สลัดบาร์	-0.1248358
-3.32418	สลับ	-0.1248358
-3.32418	สลาฟ	-0.1248358
-3.32418	สวย	-0.1248358
-3.32418	สวีท	-0.1248358
-3.32418	สว่าง	-0.1248358
-3.32418	สอ	-0.1248358
-3.32418	สอง	-0.1248358
-3.32418	สองทุ่ม	-0.1248358
-3.32418	สอน	-0.1248358
-3.32418	สอบ	-0.1248358
-3.32418	สอบย่อย	-0.1248358
-3.32418	สะกด	-0.1248358
-3.32418	สะสาง	-0.1248358
-3.32418	สะอาด	-0.1248358
-3.32418	สัก	-0.1248358
-3.32418	สังเกต	-0.1248358
-3.32418	สังเกตุ	-0.1248358
-3.32418	สับ	-0.1248358
-3.32418	สับตะไคร้	-0.1248358
-3.32418	สัปดาห์	-0.1248358
-3.32418	สั่ง	-0.1248358
-3.32418	สั่งงาน	-0.1248358
-3.32418	สั้น	-0.1248358
-3.32418	สาขา	-0.1248358
-3.32418	สาม	-0.1248358
-3.32418	สามย่าน	-0.1248358
-3.32418	สามารถ	-0.1248358
-3.32418	สาย	-0.1248358
-3.32418	สำหรับ	-0.1248358
-3.32418	สิ	-0.1248358
-3.32418	สิงหา	-0.1248358
-3.32418	สินค้า	-0.1248358
-3.32418	สิบ	-0.1248358
-3.32418	สิบเอ็ด	-0.1248358
-3.32418	สิ่ง	-0.1248358
-3.32418	สิ่งก่อสร้าง	-0.1248358
-3.32418	สิ้น	-0.1248358
-3.32418	สี	-0.1248358
-3.32418	สี่	-0.1248358
-3.32418	สุก	-0.1248358
-3.32418	สุกี้	-0.1248358
-3.32418	สุกๆ	-0.1248358
-3.32418	สุขภาพ	-0.1248358
-3.32418	สุด	-0.1248358
-3.32418	สุดท้าย	-0.1248358
-3.32418	สุภาพ	-0.1248358
-3.32418	สุ่ม	-0.1248358
-3.32418	สูง	-0.1248358
-3.32418	สูตร	-0.1248358
-3.32418	สเต็ก	-0.1248358
-3.32418	สแควร์	-0.1248358
-3.32418	ส่ง	-0.1248358
-3.32418	ส่วน	-0.1248358
-3.32418	ส่วนผสม	-0.1248358
-3.32418	ส่วนลด	-0.1248358
-3.32418	ส่าย	-0.1248358
-3.32418	ส้ม	-0.1248358
-3.32418	ส้มตำ	-0.1248358
-3.32418	หก	-0.1248358
-3.32418	หญ้า	-0.1248358
-3.32418	หนัง	-0.1248358
-3.32418	หนังสือ	-0.1248358
-3.32418	หนาว	-0.1248358
-3.32418	หนี	-0.1248358
-3.32418	หนี้	-0.1248358
-3.32418	หนึ่ง	-0.1248358
-3.32418	หน่อย	-0.1248358
-3.32418	หน้า	-0.1248358
-3.32418	หน้าจอ	-0.1248358
-3.32418	หน้าต่าง	-0.1248358
-3.32418	หน้าบ้าน	-0.1248358
-3.32418	หน้้า	-0.1248358
-3.32418	หมด	-0.1248358
-3.32418	หมอ	-0.1248358
-3.32418	หมา	-0.1248358
-3.32418	หมายเลข	-0.1248358
-3.32418	หมี่กรอบ	-0.1248358
-3.32418	หมื่น	-0.1248358
-3.32418	หมู	-0.1248358
-3.32418	หมูกระเทียม	-0.1248358
-3.32418	หมูสับ	-0.1248358
-3.32418	หมู่บ้าน	-0.1248358
-3.32418	หยิบ	-0.1248358
-3.32418	หยุด	-0.1248358
-3.32418	หรือ	-0.1248358
-3.32418	หลบหลีก	-0.1248358
-3.32418	หลอด	-0.1248358
-3.32418	หลัง	-0.1248358
-3.32418	หลังบ้าน	-0.1248358
-3.32418	หลับ	-0.1248358
-3.32418	หลาย	-0.1248358
-3.32418	หวาน	-0.1248358
-3.32418	หวาย	-0.1248358
-3.32418	หอ	-0.1248358
-3.32418	หอกลาง	-0.1248358
-3.32418	หอย	-0.1248358
-3.32418	หอยแครง	-0.1248358
-3.32418	หัน	-0.1248358
-3.32418	หัว	-0.1248358
-3.32418	หัวหอม	-0.1248358
-3.32418	หา	-0.1248358
-3.32418	หาย	-0.1248358
-3.32418	หิน	-0.1248358
-3.32418	หิว	-0.1248358
-3.32418	หีบ	-0.1248358
-3.32418	หุง	-0.1248358
-3.32418	ห่าง	-0.1248358
-3.32418	ห้อง	-0.1248358
-3.32418	ห้องครัว	-0.1248358
-3.32418	ห้องนอน	-0.1248358
-3.32418	ห้องน้ำ	-0.1248358
-3.32418	ห้องพัก	-0.1248358
-3.32418	ห้องสมุด	-0.1248358
-3.32418	ห้า	-0.1248358
-3.32418	อ	-0.1248358
-3.32418	องศา	-0.1248358
-3.32418	อด	-0.1248358
-3.32418	อติวงศ์	-0.1248358
-3.32418	อบ	-0.1248358
-3.32418	อยาก	-0.1248358
-3.32418	อยู่	-0.1248358
-3.32418	อย่า	-0.1248358
-3.32418	อย่าง	-0.1248358
-3.32418	อย่างน้อย	-0.1248358
-3.32418	อย่างไร	-0.1248358
-3.32418	อร่อย	-0.1248358
-3.32418	อวด	-0.1248358
-3.32418	ออก	-0.1248358
-3.32418	ออน	-0.1248358
-3.32418	ออสการ์	-0.1248358
-3.32418	ออเดอร์	-0.1248358
-3.32418	ออเรนจิน่า	-0.1248358
-3.32418	อะ	-0.1248358
-3.32418	อะไร	-0.1248358
-3.32418	อะไรบ้าง	-0.1248358
-3.32418	อะไรวอล	-0.1248358
-3.32418	อักษร	-0.1248358
-3.32418	อังกฤษ	-0.1248358
-3.32418	อังคาร	-0.1248358
-3.32418	อัน	-0.1248358
-3.32418	อันดับ	-0.1248358
-3.32418	อันเดอร์วอเตอร์เวิล์ด	-0.1248358
-3.32418	อัปเดต	-0.1248358
-3.32418	อัพ	-0.1248358
-3.32418	อัพโหลด	-0.1248358
-3.32418	อัลกอริทึม	-0.1248358
-3.32418	อา	-0.1248358
-3.32418	อาจารย์	-0.1248358
-3.32418	อาทิตย์	-0.1248358
-3.32418	อาบ	-0.1248358
-3.32418	อาบน้ำ	-0.1248358
-3.32418	อาม	-0.1248358
-3.32418	อาย	-0.1248358
-3.32418	อายุ	-0.1248358
-3.32418	อาราบิก้า	-0.1248358
-3.32418	อาร์	-0.1248358
-3.32418	อาวุธ	-0.1248358
-3.32418	อาหาร	-0.1248358
-3.32418	อาหารตะวันตก	-0.1248358
-3.32418	อาหารตะวันออก	-0.1248358
-3.32418	อาหารบูด	-0.1248358
-3.32418	อาหารเสีย	-0.1248358
-3.32418	อาหารไทย	-0.1248358
-3.32418	อาารย์	-0.1248358
-3.32418	อิท	-0.1248358
-3.32418	อินเซปชั่น	-0.1248358
-3.32418	อี	-0.1248358
-3.32418	อีก	-0.1248358
-3.32418	อีเมล	-0.1248358
-3.32418	อีเมล์	-0.1248358
-3.32418	อื่น	-0.1248358
-3.32418	อุณหภูมิ	-0.1248358
-3.32418	อุปกรณ์	-0.1248358
-3.32418	อุ้ม	-0.1248358
-3.32418	อเมซอน	-0.1248358
-3.32418	อเมริกาโน่	-0.1248358
-3.32418	อ่าน	-0.1248358
-3.32418	อ้วน	-0.1248358
-3.32418	อ้อม	-0.1248358
-3.32418	อ้อย	-0.1248358
-3.32418	อ้างอิง	-0.1248358
-3.32418	ฮันนี่มูน	-0.1248358
-3.32418	ฮาจิบัง	-0.1248358
-3.32418	ฮิจิริ	-0.1248358
-3.32418	ฮิต	-0.1248358
-3.32418	ฮิว	-0.1248358
-3.32418	เกม	-0.1248358
-3.32418	เกมส์	-0.1248358
-3.32418	เกรด	-0.1248358
-3.32418	เกราะ	-0.1248358
-3.32418	เกลือ	-0.1248358
-3.32418	เกาหลี	-0.1248358
-3.32418	เกาเหลา	-0.1248358
-3.32418	เกิด	-0.1248358
-3.32418	เกิน	-0.1248358
-3.32418	เกี่ยว	-0.1248358
-3.32418	เกี้ยว	-0.1248358
-3.32418	เก็บ	-0.1248358
-3.32418	เก้า	-0.1248358
-3.32418	เก๊าท์	-0.1248358
-3.32418	เขต	-0.1248358
-3.32418	เขม	-0.1248358
-3.32418	เขียน	-0.1248358
-3.32418	เขียนโปรแกรม	-0.1248358
-3.32418	เขียว	-0.1248358
-3.32418	เข้า	-0.1248358
-3.32418	เข้าฉาย	-0.1248358
-3.32418	เข้าใจ	-0.1248358
-3.32418	เค	-0.1248358
-3.32418	เครดิต	-0.1248358
-3.32418	เครป	-0.1248358
-3.32418	เครือ	-0.1248358
-3.32418	เครื่อง	-0.1248358
-3.32418	เครื่องคิดเลข	-0.1248358
-3.32418	เครื่องปรุง	-0.1248358
-3.32418	เคร่ง	-0.1248358
-3.32418	เคลียร์	-0.1248358
-3.32418	เคล็ดลับ	-0.1248358
-3.32418	เคียว	-0.1248358
-3.32418	เคเอฟซี	-0.1248358
-3.32418	เค็ม	-0.1248358
-3.32418	เค้ก	-0.1248358
-3.32418	เค้าเตอร์	-0.1248358
-3.32418	เงิน	-0.1248358
-3.32418	เงียบ	-0.1248358
-3.32418	เจน	-0.1248358
-3.32418	เจฟเฟอร์	-0.1248358
-3.32418	เจียว	-0.1248358
-3.32418	เจ็ด	-0.1248358
-3.32418	เจ็นเอ็ด	-0.1248358
-3.32418	เจ้า	-0.1248358
-3.32418	เจ้าของ	-0.1248358
-3.32418	เจ้าหน้าที่	-0.1248358
-3.32418	เจ๊	-0.1248358
-3.32418	เฉพาะ	-0.1248358
-3.32418	เฉลี่ย	-0.1248358
-3.32418	เชดส์	-0.1248358
-3.32418	เชอร์รี่	-0.1248358
-3.32418	เชิร์ต	-0.1248358
-3.32418	เชื่อม	-0.1248358
-3.32418	เช็ค	-0.1248358
-3.32418	เช่า	-0.1248358
-3.32418	เช้า	-0.1248358
-3.32418	เซงเซียมอี๊	-0.1248358
-3.32418	เซนเตอร์	-0.1248358
-3.32418	เซลล์	-0.1248358
-3.32418	เซอเคิล	-0.1248358
-3.32418	เซเว่น	-0.1248358
-3.32418	เซ็ต	-0.1248358
-3.32418	เซ็นทรัลเวิลด์	-0.1248358
-3.32418	เดบิต	-0.1248358
-3.32418	เดอะ	-0.1248358
-3.32418	เดิน	-0.1248358
-3.32418	เดิม	-0.1248358
-3.32418	เดียว	-0.1248358
-3.32418	เดือน	-0.1248358
-3.32418	เด็ก	-0.1248358
-3.32418	เด็ด	-0.1248358
-3.32418	เตรียม	-0.1248358
-3.32418	เตาถ่าน	-0.1248358
-3.32418	เตาแก๊ส	-0.1248358
-3.32418	เติม	-0.1248358
-3.32418	เตือน	-0.1248358
-3.32418	เต็ม	-0.1248358
-3.32418	เต๋อ	-0.1248358
-3.32418	เถอะ	-0.1248358
-3.32418	เทค	-0.1248358
-3.32418	เทพ	-0.1248358
-3.32418	เทมปุระด้ง	-0.1248358
-3.32418	เทอม	-0.1248358
-3.32418	เทา	-0.1248358
-3.32418	เทิร์น	-0.1248358
-3.32418	เที่ยง	-0.1248358
-3.32418	เท่า	-0.1248358
-3.32418	เท่ากับ	-0.1248358
-3.32418	เท่านั้น	-0.1248358
-3.32418	เท่าไร	-0.1248358
-3.32418	เท่าไหร่	-0.1248358
-3.32418	เนย	-0.1248358
-3.32418	เนอะ	-0.1248358
-3.32418	เนี่ย	-0.1248358
-3.32418	เนื้อ	-0.1248358
-3.32418	เนื้อปลา	-0.1248358
-3.32418	เนื้อหมู	-0.1248358
-3.32418	เนื้อไก่	-0.1248358
-3.32418	เน็ต	-0.1248358
-3.32418	เบอร์	-0.1248358
-3.32418	เบอร์เกอร์	-0.1248358
-3.32418	เบา	-0.1248358
-3.32418	เบาหวาน	-0.1248358
-3.32418	เบาๆ	-0.1248358
-3.32418	เบิด	-0.1248358
-3.32418	เบี้ย	-0.1248358
-3.32418	เบื่อ	-0.1248358
-3.32418	เปรียบเทียบ	-0.1248358
-3.32418	เปรี้ยว	-0.1248358
-3.32418	เปลี่ยน	-0.1248358
-3.32418	เปล่า	-0.1248358
-3.32418	เปอร์เซนต์	-0.1248358
-3.32418	เปอร์เซ็นต์	-0.1248358
-3.32418	เปิด	-0.1248358
-3.32418	เป็น	-0.1248358
-3.32418	เป็ปซี่	-0.1248358
-3.32418	เผา	-0.1248358
-3.32418	เผื่อ	-0.1248358
-3.32418	เผ็ด	-0.1248358
-3.32418	เพจ	-0.1248358
-3.32418	เพชร	-0.1248358
-3.32418	เพลง	-0.1248358
-3.32418	เพลิง	-0.1248358
-3.32418	เพิ่ม	-0.1248358
-3.32418	เพื่อน	-0.1248358
-3.32418	เฟท	-0.1248358
-3.32418	เฟ้ย	-0.1248358
-3.32418	เมนู	-0.1248358
-3.32418	เมล็ด	-0.1248358
-3.32418	เมล์	-0.1248358
-3.32418	เมษายน	-0.1248358
-3.32418	เมอร์ลิน	-0.1248358
-3.32418	เมื่อ	-0.1248358
-3.32418	เมื่อคืน	-0.1248358
-3.32418	เมื่อวาน	-0.1248358
-3.32418	เมื่อไร	-0.1248358
-3.32418	เมื่อไหร่	-0.1248358
-3.32418	เมเจอร์	-0.1248358
-3.32418	เยน	-0.1248358
-3.32418	เยอะ	-0.1248358
-3.32418	เยาะ	-0.1248358
-3.32418	เยี่ยม	-0.1248358
-3.32418	เย็น	-0.1248358
-3.32418	เย็นนี้	-0.1248358
-3.32418	เย้ย	-0.1248358
-3.32418	เรตติ้ง	-0.1248358
-3.32418	เรา	-0.1248358
-3.32418	เริ่ม	-0.1248358
-3.32418	เรียก	-0.1248358
-3.32418	เรียง	-0.1248358
-3.32418	เรียน	-0.1248358
-3.32418	เรียนพิเศษ	-0.1248358
-3.32418	เรือ	-0.1248358
-3.32418	เรื่อง	-0.1248358
-3.32418	เรื่องย่อ	-0.1248358
-3.32418	เร็ว	-0.1248358
-3.32418	เลคเชอร์	-0.1248358
-3.32418	เลย	-0.1248358
-3.32418	เลิก	-0.1248358
-3.32418	เลิฟ	-0.1248358
-3.32418	เลี้ยง	-0.1248358
-3.32418	เลือก	-0.1248358
-3.32418	เลือด	-0.1248358
-3.32418	เลื่อน	-0.1248358
-3.32418	เลโก	-0.1248358
-3.32418	เล็ก	-0.1248358
-3.32418	เล็ง	-0.1248358
-3.32418	เล่น	-0.1248358
-3.32418	เล่ม	-0.1248358
-3.32418	เว	-0.1248358
-3.32418	เวท	-0.1248358
-3.32418	เวทมนตร์	-0.1248358
-3.32418	เวทมนต์	-0.1248358
-3.32418	เวลา	-0.1248358
-3.32418	เวอร์	-0.1248358
-3.32418	เวิคช็อป	-0.1248358
-3.32418	เวียดนาม	-0.1248358
-3.32418	เวเวอร์	-0.1248358
-3.32418	เว็บไซต์	-0.1248358
-3.32418	เศรษฐศาสตร์	-0.1248358
-3.32418	เสนอ	-0.1248358
-3.32418	เสริมสวย	-0.1248358
-3.32418	เสร็จ	-0.1248358
-3.32418	เสร็็จ	-0.1248358
-3.32418	เสาร์	-0.1248358
-3.32418	เสียง	-0.1248358
-3.32418	เสือ	-0.1248358
-3.32418	เสื้อ	-0.1248358
-3.32418	เสื้อผ้า	-0.1248358
-3.32418	เสื้อยืด	-0.1248358
-3.32418	เส้น	-0.1248358
-3.32418	เส้นเล็ก	-0.1248358
-3.32418	เส้นใหญ่	-0.1248358
-3.32418	เหงา	-0.1248358
-3.32418	เหมาะ	-0.1248358
-3.32418	เหมือง	-0.1248358
-3.32418	เหมือน	-0.1248358
-3.32418	เหมือนกัน	-0.1248358
-3.32418	เหรอ	-0.1248358
-3.32418	เหรียญ	-0.1248358
-3.32418	เหลือ	-0.1248358
-3.32418	เหลือง	-0.1248358
-3.32418	เห็ด	-0.1248358
-3.32418	เห็น	-0.1248358
-3.32418	เอ	-0.1248358
-3.32418	เอกพล	-0.1248358
-3.32418	เอง	-0.1248358
-3.32418	เอช	-0.1248358
-3.32418	เอซ	-0.1248358
-3.32418	เอด	-0.1248358
-3.32418	เอทีเอม	-0.1248358
-3.32418	เอน	-0.1248358
-3.32418	เอฟ	-0.1248358
-3.32418	เอมอาที	-0.1248358
-3.32418	เอส	-0.1248358
-3.32418	เอสเปสโซ่	-0.1248358
-3.32418	เอา	-0.1248358
-3.32418	เอเอสอาร์	-0.1248358
-3.32418	เอ็กซ์	-0.1248358
-3.32418	เอ็ด	-0.1248358
-3.32418	เอ็ม	-0.1248358
-3.32418	เอ็มเค	-0.1248358
-3.32418	เอ้าท์	-0.1248358
-3.32418	เอ้าลาส	-0.1248358
-3.32418	แกง	-0.1248358
-3.32418	แกรน	-0.1248358
-3.32418	แกรนด์	-0.1248358
-3.32418	แก้	-0.1248358
-3.32418	แก้ว	-0.1248358
-3.32418	แก้ไข	-0.1248358
-3.32418	แคนเซิล	-0.1248358
-3.32418	แคลอรี่	-0.1248358
-3.32418	แค่ไหน	-0.1248358
-3.32418	แจ็ค	-0.1248358
-3.32418	แจ็คเก็ต	-0.1248358
-3.32418	แจ้ง	-0.1248358
-3.32418	แจ๊กเก็ต	-0.1248358
-3.32418	แชร์	-0.1248358
-3.32418	แซก	-0.1248358
-3.32418	แดง	-0.1248358
-3.32418	แตงกวา	-0.1248358
-3.32418	แตงโม	-0.1248358
-3.32418	แตงไทย	-0.1248358
-3.32418	แตะ	-0.1248358
-3.32418	แต่	-0.1248358
-3.32418	แต้ม	-0.1248358
-3.32418	แถบ	-0.1248358
-3.32418	แถม	-0.1248358
-3.32418	แถว	-0.1248358
-3.32418	แท็กซี่	-0.1248358
-3.32418	แท็บ	-0.1248358
-3.32418	แนน	-0.1248358
-3.32418	แนว	-0.1248358
-3.32418	แนะนำ	-0.1248358
-3.32418	แนะนำไหม	-0.1248358
-3.32418	แน่	-0.1248358
-3.32418	แบคแพ็ค	-0.1248358
-3.32418	แบน	-0.1248358
-3.32418	แบบ	-0.1248358
-3.32418	แบบนี้	-0.1248358
-3.32418	แบ็ทแมน	-0.1248358
-3.32418	แปด	-0.1248358
-3.32418	แปป	-0.1248358
-3.32418	แผนที่	-0.1248358
-3.32418	แพง	-0.1248358
-3.32418	แพทย์	-0.1248358
-3.32418	แพลนท์	-0.1248358
-3.32418	แพ้	-0.1248358
-3.32418	แฟต	-0.1248358
-3.32418	แฟน	-0.1248358
-3.32418	แฟลช	-0.1248358
-3.32418	แมค	-0.1248358
-3.32418	แมพ	-0.1248358
-3.32418	แย่ง	-0.1248358
-3.32418	แรก	-0.1248358
-3.32418	แลก	-0.1248358
-3.32418	แลคโตส	-0.1248358
-3.32418	แลนด์	-0.1248358
-3.32418	แลนด์มาร์ค	-0.1248358
-3.32418	และ	-0.1248358
-3.32418	แล็บ	-0.1248358
-3.32418	แล้ว	-0.1248358
-3.32418	แล้้ว	-0.1248358
-3.32418	แว่น	-0.1248358
-3.32418	แสง	-0.1248358
-3.32418	แสดง	-0.1248358
-3.32418	แสตท	-0.1248358
-3.32418	แสน	-0.1248358
-3.32418	แหก	-0.1248358
-3.32418	แหม่ม	-0.1248358
-3.32418	แหละ	-0.1248358
-3.32418	แห้ง	-0.1248358
-3.32418	แอคชั่น	-0.1248358
-3.32418	แอด	-0.1248358
-3.32418	แอนด์	-0.1248358
-3.32418	แอม	-0.1248358
-3.32418	แอมปาร์ค	-0.1248358
-3.32418	แอร์	-0.1248358
-3.32418	แอล	-0.1248358
-3.32418	แอลจิบ้า	-0.1248358
-3.32418	แอ็คชั่น	-0.1248358
-3.32418	แฮรี่พอตเตอร์	-0.1248358
-3.32418	โกง	-0.1248358
-3.32418	โกวาจี	-0.1248358
-3.32418	โครงสร้าง	-0.1248358
-3.32418	โฆษณา	-0.1248358
-3.32418	โจมตี	-0.1248358
-3.32418	โจ๊ก	-0.1248358
-3.32418	โฉนด	-0.1248358
-3.32418	โชตะ	-0.1248358
-3.32418	โซน	-0.1248358
-3.32418	โซฟา	-0.1248358
-3.32418	โดกาปอง	-0.1248358
-3.32418	โดด	-0.1248358
-3.32418	โดน	-0.1248358
-3.32418	โต๊ะ	-0.1248358
-3.32418	โทร	-0.1248358
-3.32418	โทรศัพท์	-0.1248358
-3.32418	โบว์ลิ่ง	-0.1248358
-3.32418	โบ๊ท	-0.1248358
-3.32418	โปรด	-0.1248358
-3.32418	โปรเจค	-0.1248358
-3.32418	โปรแกรม	-0.1248358
-3.32418	โปรโมชัน	-0.1248358
-3.32418	โปรโมชั่น	-0.1248358
-3.32418	โพธิ์ดำ	-0.1248358
-3.32418	โพธิ์แดง	-0.1248358
-3.32418	โพสต์	-0.1248358
-3.32418	โฟธ	-0.1248358
-3.32418	โฟร์	-0.1248358
-3.32418	โมง	-0.1248358
-3.32418	โรคไต	-0.1248358
-3.32418	โรง	-0.1248358
-3.32418	โรงหนัง	-0.1248358
-3.32418	โรงอาหาร	-0.1248358
-3.32418	โรงแรม	-0.1248358
-3.32418	โรตี	-0.1248358
-3.32418	โรนัน	-0.1248358
-3.32418	โรบัสต้า	-0.1248358
-3.32418	โรแมนติก	-0.1248358
-3.32418	โลลิ	-0.1248358
-3.32418	โลแกน	-0.1248358
-3.32418	โหมด	-0.1248358
-3.32418	โหลด	-0.1248358
-3.32418	โอ	-0.1248358
-3.32418	โอว	-0.1248358
-3.32418	โอเวอร์	-0.1248358
-3.32418	โอโตยะ	-0.1248358
-3.32418	โฮมเพจ	-0.1248358
-3.32418	ใกล้	-0.1248358
-3.32418	ใคร	-0.1248358
-3.32418	ใจ	-0.1248358
-3.32418	ใช่	-0.1248358
-3.32418	ใช่ไหม	-0.1248358
-3.32418	ใช้	-0.1248358
-3.32418	ใต้	-0.1248358
-3.32418	ใน	-0.1248358
-3.32418	ใบ	-0.1248358
-3.32418	ใส่	-0.1248358
-3.32418	ใหญ่	-0.1248358
-3.32418	ใหม่	-0.1248358
-3.32418	ให้	-0.1248358
-3.32418	ไก่	-0.1248358
-3.32418	ไข่	-0.1248358
-3.32418	ไข่ดาว	-0.1248358
-3.32418	ไข่ตุ๋น	-0.1248358
-3.32418	ไข่ต้ม	-0.1248358
-3.32418	ไข่ยางมะตูม	-0.1248358
-3.32418	ไข่ลวก	-0.1248358
-3.32418	ไข่เค็ม	-0.1248358
-3.32418	ไข่เจียว	-0.1248358
-3.32418	ไข่่ตุ๋น	-0.1248358
-3.32418	ไง	-0.1248358
-3.32418	ไซส์	-0.1248358
-3.32418	ได้	-0.1248358
-3.32418	ได้มั้ย	-0.1248358
-3.32418	ได้ไหม	-0.1248358
-3.32418	ไต	-0.1248358
-3.32418	ไตเติ้ล	-0.1248358
-3.32418	ไทย	-0.1248358
-3.32418	ไทยพาณิชย์	-0.1248358
-3.32418	ไป	-0.1248358
-3.32418	ไผ่	-0.1248358
-3.32418	ไผ่ทอง	-0.1248358
-3.32418	ไฟ	-0.1248358
-3.32418	ไฟนอล	-0.1248358
-3.32418	ไฟฟ้า	-0.1248358
-3.32418	ไมโครเวฟ	-0.1248358
-3.32418	ไม่	-0.1248358
-3.32418	ไม่ว่าง	-0.1248358
-3.32418	ไม่สุก	-0.1248358
-3.32418	ไม่ใช่	-0.1248358
-3.32418	ไม้	-0.1248358
-3.32418	ไร	-0.1248358
-3.32418	ไรท์ติ้ง	-0.1248358
-3.32418	ไลน์	-0.1248358
-3.32418	ไลฟ์	-0.1248358
-3.32418	ไวท์	-0.1248358
-3.32418	ไวฟุ	-0.1248358
-3.32418	ไวไฟ	-0.1248358
-3.32418	ไว้	-0.1248358
-3.32418	ไส้	-0.1248358
-3.32418	ไส้กรอง	-0.1248358
-3.32418	ไหน	-0.1248358
-3.32418	ไหม	-0.1248358
-3.32418	ไหม้	-0.1248358
-3.32418	ไหร่	-0.1248358
-3.32418	ไห้	-0.1248358
-3.32418	ไอ	-0.1248358
-3.32418	ไอติม	-0.1248358
-3.32418	ไอที	-0.1248358
-3.32418	ไอรอนแมน	-0.1248358
-3.32418	ไอเดีย	-0.1248358
-3.32418	ไอเทม	-0.1248358
-3.32418	ไอเท็ม	-0.1248358
-3.32418	ไอแม็กซ์	-0.1248358

\2-grams:
-3.449015	<s> กด
-3.449015	<s> กรอบ
-3.449015	<s> กระ
-3.449015	<s> กระจาย
-3.449015	<s> กระถาง
-3.449015	<s> กระทะ
-3.449015	<s> กระสุน
-3.449015	<s> กระเทียม
-3.449015	<s> กระเป๋า
-3.449015	<s> กระแส
-3.449015	<s> กระโดด
-3.449015	<s> กรุงศรี
-3.449015	<s> กรุงเทพ
-3.449015	<s> กรุงไทย
-3.449015	<s> กล
-3.449015	<s> กลม
-3.449015	<s> กลับ
-3.449015	<s> กลาง
-3.449015	<s> กลางวัน
-3.449015	<s> กล่องขายของ
-3.449015	<s> กล้วย
-3.449015	<s> กล้าม
-3.449015	<s> กว่า
-3.449015	<s> กสิกร
-3.449015	<s> กะเพรา
-3.449015	<s> กัญชา
-3.449015	<s> กัน
-3.449015	<s> กับ
-3.449015	<s> กับข้าว
-3.449015	<s> กางเกง
-3.449015	<s> กางเกงยีน
-3.449015	<s> การ
-3.449015	<s> การบ้าน
-3.449015	<s> การเชื่อมต่อ
-3.449015	<s> การ์ด
-3.449015	<s> กาแฟ
-3.449015	<s> กำกับ
-3.449015	<s> กำลัง
-3.449015	<s> กิจกรรม
-3.449015	<s> กิน
-3.449015	<s> กินข้าว
-3.449015	<s> กิโลแคลอรี่
-3.449015	<s> กิ๊ก
-3.449015	<s> กีฬา
-3.449015	<s> กี่
-3.449015	<s> กี่คน
-3.449015	<s> กี่โมง
-3.449015	<s> กุมภา
-3.449015	<s> กุ้ง
-3.449015	<s> กุ้งสับ
-3.449015	<s> กู้
-3.449015	<s> ก็
-3.449015	<s> ก็อท
-3.449015	<s> ก็ได้
-3.449015	<s> ก่อน
-3.449015	<s> ก่อนหน้า
-3.449015	<s> ก๋วยเตี๋ยว
-3.449015	<s> ขนม
-3.449015	<s> ขนมหวาน
-3.449015	<s> ขนาด
-3.449015	<s> ขยะ
-3.449015	<s> ขยาย
-3.449015	<s> ขวด
-3.449015	<s> ขวัญ
-3.449015	<s> ขวา
-3.449015	<s> ขวาน
-3.449015	<s> ขอ
-3.449015	<s> ของ
-3.449015	<s> ของขวัญ
-3.449015	<s> ของหวาน
-3.449015	<s> ขอบ
-3.449015	<s> ขอบคุณ
-3.449015	<s> ขอโทษ
-3.449015	<s> ขั้น
-3.449015	<s> ขั้นตอน
-3.449015	<s> ขา
-3.449015	<s> ขาย
-3.449015	<s> ขาว
-3.449015	<s> ขี้เกียจ
-3.449015	<s> ขึ้น
-3.449015	<s> ขึ้วา
-3.449015	<s> ขุด
-3.449015	<s> ขโมย
-3.449015	<s> ข่ายงาน
-3.449015	<s> ข่าว
-3.449015	<s> ข้อ
-3.449015	<s> ข้อมูล
-3.449015	<s> ข้อสอบ
-3.449015	<s> ข้าง
-3.449015	<s> ข้าพเจ้า
-3.449015	<s> ข้าม
-3.449015	<s> ข้าว
-3.449015	<s> ข้าวกะเพรา
-3.449015	<s> ข้าวผัด
-3.449015	<s> ข้าวมัน
-3.449015	<s> ข้าวมันไก่
-3.449015	<s> ข้าวหลามตัด
-3.449015	<s> ข้าวเปล่า
-3.449015	<s> ข้าวเปล่่า
-3.449015	<s> ข้าวเหนียว
-3.449015	<s> ข้าวโพด
-3.449015	<s> ข้าวไข่ดาว
-3.449015	<s> คณะ
-3.449015	<s> คน
-3.449015	<s> คนป่วย
-3.449015	<s> คนแก่
-3.449015	<s> คนไม่สบาย
-3.449015	<s> ครับ
-3.449015	<s> ครั้ง
-3.449015	<s> คราว
-3.449015	<s> คริส
-3.449015	<s> ครีมเมอรี่
-3.449015	<s> ครึ่ง
-3.449015	<s> คลุก
-3.449015	<s> คล้าย
-3.449015	<s> ควร
-3.449015	<s> ควัน
-3.449015	<s> ความ
-3.449015	<s> ความคิดเห็น
-3.449015	<s> ความยาว
-3.449015	<s> ความรู้สึก
-3.449015	<s> ความสัมพันธ์
-3.449015	<s> ความเร็ว
-3.449015	<s> ความแรง
-3.449015	<s> ควีน
-3.449015	<s> คอ
-3.449015	<s> คอมพิวเตอร์
-3.449015	<s> คะ
-3.449015	<s> คะน้า
-3.449015	<s> คะแนน
-3.449015	<s> คัตสึด้ง
-3.449015	<s> คัทสึด้ง
-3.449015	<s> คั่ว
-3.449015	<s> คั้งค่า
-3.449015	<s> คาปูชิโน่
-3.449015	<s> คาโบนาร่า
-3.449015	<s> คำนวณ
-3.449015	<s> คำแนะนำ
-3.449015	<s> คิง
-3.449015	<s> คิด
-3.449015	<s> คิดส์ซาเนีย
-3.449015	<s> คิล
-3.449015	<s> คิว
-3.449015	<s> คิวบิด
-3.449015	<s> คิสึเนะอุด้ง
-3.449015	<s> คืน
-3.449015	<s> คือ
-3.449015	<s> คุก
-3.449015	<s> คุกกี้
-3.449015	<s> คุณภาพ
-3.449015	<s> คุมสอบ
-3.449015	<s> คุย
-3.449015	<s> คู่
-3.449015	<s> ค่อย
-3.449015	<s> ค่ะ
-3.449015	<s> ค่า
-3.449015	<s> ค่าย
-3.449015	<s> ค่ำ
-3.449015	<s> ค้นหา
-3.449015	<s> ค้อน
-3.449015	<s> ฆ่า
-3.449015	<s> งง
-3.449015	<s> งด
-3.449015	<s> งบ
-3.449015	<s> งบประมาณ
-3.449015	<s> งาน
-3.449015	<s> งีบ
-3.449015	<s> ง่วง
-3.449015	<s> ง่าย
-3.449015	<s> จง
-3.449015	<s> จดหมาย
-3.449015	<s> จน
-3.449015	<s> จบ
-3.449015	<s> จอ
-3.449015	<s> จอง
-3.449015	<s> จอด
-3.449015	<s> จอบ
-3.449015	<s> จะ
-3.449015	<s> จัง
-3.449015	<s> จัด
-3.449015	<s> จัดการ
-3.449015	<s> จันทร์
-3.449015	<s> จับ
-3.449015	<s> จััดการ
-3.449015	<s> จั่ว
-3.449015	<s> จั้ม
-3.449015	<s> จั้มฟอส
-3.449015	<s> จั๊ม
-3.449015	<s> จาก
-3.449015	<s> จากนี้
-3.449015	<s> จาน
-3.449015	<s> จาม
-3.449015	<s> จำ
-3.449015	<s> จำนวน
-3.449015	<s> จี
-3.449015	<s> จีน
-3.449015	<s> จุด
-3.449015	<s> จุล
-3.449015	<s> จุฬา
-3.449015	<s> จ่าย
-3.449015	<s> ฉัน
-3.449015	<s> ฉาย
-3.449015	<s> ชวน
-3.449015	<s> ชวาล
-3.449015	<s> ชอบ
-3.449015	<s> ชั่ว
-3.449015	<s> ชั่วโมง
-3.449015	<s> ชั้น
-3.449015	<s> ชานม
-3.449015	<s> ชาบู
-3.449015	<s> ชาม
-3.449015	<s> ชาร์จ
-3.449015	<s> ชาเขียว
-3.449015	<s> ชำระ
-3.449015	<s> ชิ้น
-3.449015	<s> ชีวิต
-3.449015	<s> ชีส
-3.449015	<s> ชื่อ
-3.449015	<s> ชุด
-3.449015	<s> ช็อกโกแลต
-3.449015	<s> ช็อคโกแลต
-3.449015	<s> ช็อต
-3.449015	<s> ช่วง
-3.449015	<s> ช่วงนี้
-3.449015	<s> ช่วย
-3.449015	<s> ช่อง
-3.449015	<s> ช้อนชา
-3.449015	<s> ช้อนโต๊ะ
-3.449015	<s> ช้า
-3.449015	<s> ซอบิงโก
-3.449015	<s> ซอลบิง
-3.449015	<s> ซอส
-3.449015	<s> ซัก
-3.449015	<s> ซาวด์แทรก
-3.449015	<s> ซิก
-3.449015	<s> ซินนามอน
-3.449015	<s> ซี
-3.449015	<s> ซีท
-3.449015	<s> ซีรีย์
-3.449015	<s> ซีอิ๊ว
-3.449015	<s> ซื้อ
-3.449015	<s> ซุเปอร์มาร์เก็ต
-3.449015	<s> ซ้าย
-3.449015	<s> ซ้ำ
-3.449015	<s> ญี่ปุ่น
-3.449015	<s> ฐานข้อมูล
-3.449015	<s> ดนตรี
-3.449015	<s> ดราก้อน
-3.449015	<s> ดรีม
-3.449015	<s> ดวง
-3.449015	<s> ดวล
-3.449015	<s> ดอกจิก
-3.449015	<s> ดับ
-3.449015	<s> ดับเบิ้ล
-3.449015	<s> ดาว
-3.449015	<s> ดำ
-3.449015	<s> ดิจิตอล
-3.449015	<s> ดิน
-3.449015	<s> ดี
-3.449015	<s> ดีแทค
-3.449015	<s> ดึก
-3.449015	<s> ดื่ม
-3.449015	<s> ดู
-3.449015	<s> ดูด
-3.449015	<s> ดููด
-3.449015	<s> ด้วย
-3.449015	<s> ด้าน
-3.449015	<s> ตก
-3.449015	<s> ตกลง
-3.449015	<s> ตรง
-3.449015	<s> ตรงไหน
-3.449015	<s> ตรวจสอบ
-3.449015	<s> ตรา
-3.449015	<s> ตลาด
-3.449015	<s> ตอง
-3.449015	<s> ตอน
-3.449015	<s> ตอนนี้
-3.449015	<s> ตอนเที่ยง
-3.449015	<s> ตอนเรียน
-3.449015	<s> ตอบ
-3.449015	<s> ตะกร้า
-3.449015	<s> ตะไคร้
-3.449015	<s> ตังค์
-3.449015	<s> ตัด
-3.449015	<s> ตับ
-3.449015	<s> ตัว
-3.449015	<s> ตัวอย่าง
-3.449015	<s> ตัวเอง
-3.449015	<s> ตั้ง
-3.449015	<s> ตั้งค่า
-3.449015	<s> ตั้งแต่
-3.449015	<s> ตั๋ว
-3.449015	<s> ตา
-3.449015	<s> ตาม
-3.449015	<s> ตาย
-3.449015	<s> ตาราง
-3.449015	<s> ตาล
-3.449015	<s> ตำ
-3.449015	<s> ติด
-3.449015	<s> ติดตาม
-3.449015	<s> ติดต่อ
-3.449015	<s> ติว
-3.449015	<s> ติวสอบ
-3.449015	<s> ติวโตเรียล
-3.449015	<s> ตี
-3.449015	<s> ตีห้า
-3.449015	<s> ตึก
-3.449015	<s> ตึกร้อยปี
-3.449015	<s> ตื่น
-3.449015	<s> ตู้
-3.449015	<s> ตู้เย็น
-3.449015	<s> ตู้เย็็น
-3.449015	<s> ต่อ
-3.449015	<s> ต่อไป
-3.449015	<s> ต่ำ
-3.449015	<s> ต่ำกว่า
-3.449015	<s> ต้น
-3.449015	<s> ต้นไม้
-3.449015	<s> ต้ม
-3.449015	<s> ต้มยำ
-3.449015	<s> ต้มยำกุ้งน้ำข้น
-3.449015	<s> ต้อง
-3.449015	<s> ถอน
-3.449015	<s> ถอย
-3.449015	<s> ถัด
-3.449015	<s> ถั่ว
-3.449015	<s> ถั่วงอก
-3.449015	<s> ถาม
-3.449015	<s> ถึง
-3.449015	<s> ถุง
-3.449015	<s> ถูก
-3.449015	<s> ถูกต้อง
-3.449015	<s> ถูกใจ
-3.449015	<s> ถ่ายรูป
-3.449015	<s> ถ้วยตวง
-3.449015	<s> ถ้า
-3.449015	<s> ทน
-3.449015	<s> ทรานสคริปต์
-3.449015	<s> ทรี
-3.449015	<s> ทวง
-3.449015	<s> ทวน
-3.449015	<s> ทหารไทย
-3.449015	<s> ทอง
-3.449015	<s> ทองดี
-3.449015	<s> ทอด
-3.449015	<s> ทอป
-3.449015	<s> ทอย
-3.449015	<s> ทะเล
-3.449015	<s> ทักษิณ
-3.449015	<s> ทัน
-3.449015	<s> ทัศนศึกษา
-3.449015	<s> ทั้ง
-3.449015	<s> ทั้งวัน
-3.449015	<s> ทั้งหมด
-3.449015	<s> ทาง
-3.449015	<s> ทำ
-3.449015	<s> ทำงาน
-3.449015	<s> ทำนาย
-3.449015	<s> ทำยังไง
-3.449015	<s> ทำลาย
-3.449015	<s> ทิ้ง
-3.449015	<s> ที
-3.449015	<s> ทีม
-3.449015	<s> ทีวี
-3.449015	<s> ที่
-3.449015	<s> ที่ดิน
-3.449015	<s> ที่นั่ง
-3.449015	<s> ที่นี่
-3.449015	<s> ที่ปรึกษา
-3.449015	<s> ที่พัก
-3.449015	<s> ที่สุด
-3.449015	<s> ที่แล้ว
-3.449015	<s> ที่ไหน
-3.449015	<s> ทุก
-3.449015	<s> ทุกวัน
-3.449015	<s> ทุกวันศุกร์
-3.449015	<s> ทุกเวลา
-3.449015	<s> ทุบ
-3.449015	<s> ทุ่ม
-3.449015	<s> ทู
-3.449015	<s> ทูฟาสต์
-3.449015	<s> ทูสลีบ
-3.449015	<s> ทูเดย์
-3.449015	<s> ท่า
-3.449015	<s> ท้องเสีย
-3.449015	<s> ท้า
-3.449015	<s> ธนาคาร
-3.449015	<s> ธรรมดา
-3.449015	<s> ธุระ
-3.449015	<s> นนทบุรี
-3.449015	<s> นม
-3.449015	<s> นอก
-3.449015	<s> นอกเวลา
-3.449015	<s> นอน
-3.449015	<s> นอนได้
-3.449015	<s> นะ
-3.449015	<s> นักเรียน
-3.449015	<s> นักแสดงนำ
-3.449015	<s> นัด
-3.449015	<s> นับ
-3.449015	<s> นั่ง
-3.449015	<s> นั้น
-3.449015	<s> นั้ั้น
-3.449015	<s> นาที
-3.449015	<s> นาน
-3.449015	<s> นาม
-3.449015	<s> นาย
-3.449015	<s> นาฬิกา
-3.449015	<s> นำ
-3.449015	<s> นิติ
-3.449015	<s> นี่
-3.449015	<s> นี้
-3.449015	<s> นี้่ิ
-3.449015	<s> นึง
-3.449015	<s> น่า
-3.449015	<s> น่าดู
-3.449015	<s> น้อง
-3.449015	<s> น้อย
-3.449015	<s> น้ำ
-3.449015	<s> น้ำข้น
-3.449015	<s> น้ำจิ้ม
-3.449015	<s> น้ำตาล
-3.449015	<s> น้ำปลา
-3.449015	<s> น้ำเงิน
-3.449015	<s> น้ำเปล่า
-3.449015	<s> น้ำแข็ง
-3.449015	<s> น้ำใส
-3.449015	<s> บท
-3.449015	<s> บน
-3.449015	<s> บรรจุ
-3.449015	<s> บริการ
-3.449015	<s> บรูซ
-3.449015	<s> บลายบิด
-3.449015	<s> บลีช
-3.449015	<s> บลู
-3.449015	<s> บวก
-3.449015	<s> บอก
-3.449015	<s> บอม
-3.449015	<s> บอส
-3.449015	<s> บะหมี่
-3.449015	<s> บังคับ
-3.449015	<s> บัญชี
-3.449015	<s> บัตร
-3.449015	<s> บันทึก
-3.449015	<s> บัว
-3.449015	<s> บาท
-3.449015	<s> บิงซู
-3.449015	<s> บิชอป
-3.449015	<s> บิล
-3.449015	<s> บิวตี้
-3.449015	<s> บี
-3.449015	<s> บีทีเอส
-3.449015	<s> บีสต์
-3.449015	<s> บึ้ม
-3.449015	<s> บืชอป
-3.449015	<s> บุฟเฟต์
-3.449015	<s> บ่อย
-3.449015	<s> บ่าย
-3.449015	<s> บ้าง
-3.449015	<s> บ้าน
-3.449015	<s> ปกติ
-3.449015	<s> ปฎิทิน
-3.449015	<s> ปฏิเสธ
-3.449015	<s> ปทุมธานี
-3.449015	<s> ประกอบ
-3.449015	<s> ประกัน
-3.449015	<s> ประกันตัว
-3.449015	<s> ประจำ
-3.449015	<s> ประชาสัมพันธ์
-3.449015	<s> ประชุม
-3.449015	<s> ประดับ
-3.449015	<s> ประตู
-3.449015	<s> ประทับ
-3.449015	<s> ประท้วง
-3.449015	<s> ประมาณ
-3.449015	<s> ประมูล
-3.449015	<s> ประยุทธ์
-3.449015	<s> ประวัติ
-3.449015	<s> ประสงค์
-3.449015	<s> ประเทศ
-3.449015	<s> ประเภท
-3.449015	<s> ปรับ
-3.449015	<s> ปริมาณ
-3.449015	<s> ปลั๊ก
-3.449015	<s> ปลา
-3.449015	<s> ปลาหมึก
-3.449015	<s> ปลุก
-3.449015	<s> ปล้น
-3.449015	<s> ปวด
-3.449015	<s> ปอนด์
-3.449015	<s> ปะ
-3.449015	<s> ปัง
-3.449015	<s> ปังย่า
-3.449015	<s> ปังเย็น
-3.449015	<s> ปั่น
-3.449015	<s> ปา
-3.449015	<s> ปาตี้
-3.449015	<s> ปานกลาง
-3.449015	<s> ปาร์ค
-3.449015	<s> ปาร์ตี้
-3.449015	<s> ปาล์ม
-3.449015	<s> ปิด
-3.449015	<s> ปิดเทอม
-3.449015	<s> ปิ้ง
-3.449015	<s> ปี
-3.449015	<s> ปืน
-3.449015	<s> ปู
-3.449015	<s> ป่าว
-3.449015	<s> ป้องกัน
-3.449015	<s> ป้อม
-3.449015	<s> ป๊อปคอร์น
-3.449015	<s> ผงก
-3.449015	<s> ผม
-3.449015	<s> ผลิต
-3.449015	<s> ผลไม้
-3.449015	<s> ผัก
-3.449015	<s> ผักกาด
-3.449015	<s> ผักคะน้า
-3.449015	<s> ผักบุ้ง
-3.449015	<s> ผัด
-3.449015	<s> ผัดซีอิ๊ว
-3.449015	<s> ผู้
-3.449015	<s> ผู้กำกับ
-3.449015	<s> ผู้จัดการ
-3.449015	<s> ผู้ชาย
-3.449015	<s> ผู้ช่วย
-3.449015	<s> ผู้สูงอายุ
-3.449015	<s> ผู้หญิง
-3.449015	<s> ผู้เล่น
-3.449015	<s> ผู้ใหญ่
-3.449015	<s> ผ่าน
-3.449015	<s> ผ้า
-3.449015	<s> ฝั่ง
-3.449015	<s> ฝาก
-3.449015	<s> ฝุ่น
-3.449015	<s> พก
-3.449015	<s> พร
-3.449015	<s> พรจากฟ้า
-3.449015	<s> พระเกี้ยว
-3.449015	<s> พริก
-3.449015	<s> พริกน้ำปลา
-3.449015	<s> พริกไทย
-3.449015	<s> พรีวิเลจ
-3.449015	<s> พรีเมี่ยม
-3.449015	<s> พรุ่ง
-3.449015	<s> พรุ่งนี้
-3.449015	<s> พร้อม
-3.449015	<s> พฤหัส
-3.449015	<s> พล
-3.449015	<s> พลัง
-3.449015	<s> พลิก
-3.449015	<s> พอ
-3.449015	<s> พอส
-3.449015	<s> พอแล้ว
-3.449015	<s> พะโล้
-3.449015	<s> พัก
-3.449015	<s> พัน
-3.449015	<s> พากย์
-3.449015	<s> พาณิชย์
-3.449015	<s> พานาคอตต้า
-3.449015	<s> พารากราฟ
-3.449015	<s> พารากอน
-3.449015	<s> พาราโบลา
-3.449015	<s> พิกัด
-3.449015	<s> พิการ
-3.449015	<s> พิม
-3.449015	<s> พิเศษ
-3.449015	<s> พี
-3.449015	<s> พี่
-3.449015	<s> พื้น
-3.449015	<s> พุธ
-3.449015	<s> พูด
-3.449015	<s> ฟรี
-3.449015	<s> ฟรุตตี้
-3.449015	<s> ฟร้องซ์
-3.449015	<s> ฟอง
-3.449015	<s> ฟองนม
-3.449015	<s> ฟอส
-3.449015	<s> ฟัง
-3.449015	<s> ฟัน
-3.449015	<s> ฟันขาว
-3.449015	<s> ฟาร์ม
-3.449015	<s> ฟิตเนส
-3.449015	<s> ฟิฟตี้
-3.449015	<s> ฟิลเตอร์
-3.449015	<s> ฟ้า
-3.449015	<s> ภาค
-3.449015	<s> ภายใน
-3.449015	<s> ภาษา
-3.449015	<s> ภู
-3.449015	<s> มรณะ
-3.449015	<s> มหาจักรีสิรินธร
-3.449015	<s> มหิต
-3.449015	<s> มอคค่า
-3.449015	<s> มอง
-3.449015	<s> มอน
-3.449015	<s> มอนเตอร์
-3.449015	<s> มะม่วง
-3.449015	<s> มะรืน
-3.449015	<s> มักโรนี
-3.449015	<s> มังสวิรัติ
-3.449015	<s> มัน
-3.449015	<s> มันฝรั่ง
-3.449015	<s> มั่ว
-3.449015	<s> มั้ย
-3.449015	<s> มา
-3.449015	<s> มาก
-3.449015	<s> มากิ
-3.449015	<s> มาบุญครอง
-3.449015	<s> มาม่า
-3.449015	<s> มาส
-3.449015	<s> มิดเทอม
-3.449015	<s> มิตรภาพ
-3.449015	<s> มิติ
-3.449015	<s> มิยาบิ
-3.449015	<s> มิลลิลิตร
-3.449015	<s> มี
-3.449015	<s> มีนา
-3.449015	<s> มืด
-3.449015	<s> มือถือ
-3.449015	<s> มื้อ
-3.449015	<s> มูฟวี่
-3.449015	<s> ม้า
-3.449015	<s> ม้้ย
-3.449015	<s> ย
-3.449015	<s> ยกคลาส
-3.449015	<s> ยกเลิก
-3.449015	<s> ยอม
-3.449015	<s> ยักษ์
-3.449015	<s> ยัง
-3.449015	<s> ยังไง
-3.449015	<s> ยา
-3.449015	<s> ยาก
-3.449015	<s> ยางมะตูม
-3.449015	<s> ยาว
-3.449015	<s> ยาโยอิ
-3.449015	<s> ยำ
-3.449015	<s> ยิง
-3.449015	<s> ยิน
-3.449015	<s> ยีนส์
-3.449015	<s> ยี่
-3.449015	<s> ยี่สิบ
-3.449015	<s> ยึด
-3.449015	<s> ยืด
-3.449015	<s> ยืนยัน
-3.449015	<s> ยืม
-3.449015	<s> ยู
-3.449015	<s> ย่อ
-3.449015	<s> ย่อย
-3.449015	<s> ย่าง
-3.449015	<s> ย้อน
-3.449015	<s> ย้าย
-3.449015	<s> รด
-3.449015	<s> รดน้ำ
-3.449015	<s> รถ
-3.449015	<s> รบ
-3.449015	<s> รวม
-3.449015	<s> รส
-3.449015	<s> รสชาติ
-3.449015	<s> รหัส
-3.449015	<s> รหัสวิชา
-3.449015	<s> รอ
-3.449015	<s> รองรับ
-3.449015	<s> รองเท้า
-3.449015	<s> รอด
-3.449015	<s> รอบ
-3.449015	<s> ระ
-3.449015	<s> ระดับ
-3.449015	<s> ระหว่าง
-3.449015	<s> ระเบิด
-3.449015	<s> รัก
-3.449015	<s> รักษา
-3.449015	<s> รับ
-3.449015	<s> รัว
-3.449015	<s> ราคา
-3.449015	<s> รางวัล
-3.449015	<s> ราดหน้า
-3.449015	<s> ราย
-3.449015	<s> รายการ
-3.449015	<s> รายงาน
-3.449015	<s> รายชื่อ
-3.449015	<s> รายละเอียด
-3.449015	<s> รายได้
-3.449015	<s> ริม
-3.449015	<s> ริเวอร์
-3.449015	<s> รีบ
-3.449015	<s> รีวิว
-3.449015	<s> รึ
-3.449015	<s> รึยัง
-3.449015	<s> รุจิศรี
-3.449015	<s> รุ้ง
-3.449015	<s> รูป
-3.449015	<s> รู้
-3.449015	<s> ร้อง
-3.449015	<s> ร้อน
-3.449015	<s> ร้อย
-3.449015	<s> ร้าน
-3.449015	<s> ร้านค้า
-3.449015	<s> ร้านแนะนำ
-3.449015	<s> ลง
-3.449015	<s> ลงทะเบียน
-3.449015	<s> ลด
-3.449015	<s> ลบ
-3.449015	<s> ลวก
-3.449015	<s> ลอง
-3.449015	<s> ลอจิค
-3.449015	<s> ลอย
-3.449015	<s> ละ
-3.449015	<s> ละลาย
-3.449015	<s> ละหมาด
-3.449015	<s> ลั่น
-3.449015	<s> ลา
-3.449015	<s> ลางาน
-3.449015	<s> ลาน
-3.449015	<s> ลาส
-3.449015	<s> ลาเต้
-3.449015	<s> ลิฟท์
-3.449015	<s> ลิมิต
-3.449015	<s> ลิเนียร์
-3.449015	<s> ลิโด้
-3.449015	<s> ลีนุกซ์
-3.449015	<s> ลืม
-3.449015	<s> ลุก
-3.449015	<s> ลุง
-3.449015	<s> ลุ้น
-3.449015	<s> ลูก
-3.449015	<s> ลูกชิ้นปลา
-3.449015	<s> ลูกเต๋า
-3.449015	<s> ลูป
-3.449015	<s> ล็อกอิน
-3.449015	<s> ล็อกเอาท์
-3.449015	<s> ล็อค
-3.449015	<s> ล็อบสเตอร์
-3.449015	<s> ล่วง
-3.449015	<s> ล่า
-3.449015	<s> ล่าง
-3.449015	<s> ล่าสุด
-3.449015	<s> ล้าง
-3.449015	<s> ล้าน
-3.449015	<s> วง
-3.449015	<s> วอล
-3.449015	<s> วอล์ค
-3.449015	<s> วัตถุดิบ
-3.449015	<s> วัน
-3.449015	<s> วันที่
-3.449015	<s> วันนี้
-3.449015	<s> วันปีใหม่
-3.449015	<s> วันศุกร์
-3.449015	<s> วันหยุด
-3.449015	<s> วันเกิด
-3.449015	<s> วันเสาร์
-3.449015	<s> วันไหน
-3.449015	<s> วัยรุ่น
-3.449015	<s> วัว
-3.449015	<s> วาง
-3.449015	<s> วาน
-3.449015	<s> วานซืน
-3.449015	<s> วาป
-3.449015	<s> วิชา
-3.449015	<s> วิดีโอ
-3.449015	<s> วิธี
-3.449015	<s> วิธีทำ
-3.449015	<s> วิธีี
-3.449015	<s> วินาที
-3.449015	<s> วินโดวส์
-3.449015	<s> วินโด้
-3.449015	<s> วิป
-3.449015	<s> วิปครีม
-3.449015	<s> วิลลิส
-3.449015	<s> วิศวะ
-3.449015	<s> วิเคราะห์ระบบ
-3.449015	<s> วิ่ง
-3.449015	<s> วิ่่ง
-3.449015	<s> วีดิโอ
-3.449015	<s> วีดีโอ
-3.449015	<s> ว่า
-3.449015	<s> ว่าง
-3.449015	<s> ศาลา
-3.449015	<s> ศิลปิน
-3.449015	<s> ศุกร์
-3.449015	<s> ศูนย์
-3.449015	<s> สกาย
-3.449015	<s> สคิป
-3.449015	<s> สตอเบอร์รี่
-3.449015	<s> สตางค์
-3.449015	<s> สตาร์บัค
-3.449015	<s> สตาร์วอร์
-3.449015	<s> สถานะ
-3.449015	<s> สถานี
-3.449015	<s> สน
-3.449015	<s> สปาเก็ตตี้
-3.449015	<s> สภาพ
-3.449015	<s> สมัคร
-3.449015	<s> สมาชิก
-3.449015	<s> สมุด
-3.449015	<s> สมุทรปราการ
-3.449015	<s> สยอง
-3.449015	<s> สยาม
-3.449015	<s> สระ
-3.449015	<s> สรุป
-3.449015	<s> สร้าง
-3.449015	<s> สร้างขึ้น
-3.449015	<s> สลัดบาร์
-3.449015	<s> สลับ
-3.449015	<s> สลาฟ
-3.449015	<s> สวย
-3.449015	<s> สวีท
-3.449015	<s> สว่าง
-3.449015	<s> สอ
-3.449015	<s> สอง
-3.449015	<s> สองทุ่ม
-3.449015	<s> สอน
-3.449015	<s> สอบ
-3.449015	<s> สอบย่อย
-3.449015	<s> สะกด
-3.449015	<s> สะสาง
-3.449015	<s> สะอาด
-3.449015	<s> สัก
-3.449015	<s> สังเกต
-3.449015	<s> สังเกตุ
-3.449015	<s> สับ
-3.449015	<s> สับตะไคร้
-3.449015	<s> สัปดาห์
-3.449015	<s> สั่ง
-3.449015	<s> สั่งงาน
-3.449015	<s> สั้น
-3.449015	<s> สาขา
-3.449015	<s> สาม
-3.449015	<s> สามย่าน
-3.449015	<s> สามารถ
-3.449015	<s> สาย
-3.449015	<s> สำหรับ
-3.449015	<s> สิ
-3.449015	<s> สิงหา
-3.449015	<s> สินค้า
-3.449015	<s> สิบ
-3.449015	<s> สิบเอ็ด
-3.449015	<s> สิ่ง
-3.449015	<s> สิ่งก่อสร้าง
-3.449015	<s> สิ้น
-3.449015	<s> สี
-3.449015	<s> สี่
-3.449015	<s> สุก
-3.449015	<s> สุกี้
-3.449015	<s> สุกๆ
-3.449015	<s> สุขภาพ
-3.449015	<s> สุด
-3.449015	<s> สุดท้าย
-3.449015	<s> สุภาพ
-3.449015	<s> สุ่ม
-3.449015	<s> สูง
-3.449015	<s> สูตร
-3.449015	<s> สเต็ก
-3.449015	<s> สแควร์
-3.449015	<s> ส่ง
-3.449015	<s> ส่วน
-3.449015	<s> ส่วนผสม
-3.449015	<s> ส่วนลด
-3.449015	<s> ส่าย
-3.449015	<s> ส้ม
-3.449015	<s> ส้มตำ
-3.449015	<s> หก
-3.449015	<s> หญ้า
-3.449015	<s> หนัง
-3.449015	<s> หนังสือ
-3.449015	<s> หนาว
-3.449015	<s> หนี
-3.449015	<s> หนี้
-3.449015	<s> หนึ่ง
-3.449015	<s> หน่อย
-3.449015	<s> หน้า
-3.449015	<s> หน้าจอ
-3.449015	<s> หน้าต่าง
-3.449015	<s> หน้าบ้าน
-3.449015	<s> หน้้า
-3.449015	<s> หมด
-3.449015	<s> หมอ
-3.449015	<s> หมา
-3.449015	<s> หมายเลข
-3.449015	<s> หมี่กรอบ
-3.449015	<s> หมื่น
-3.449015	<s> หมู
-3.449015	<s> หมูกระเทียม
-3.449015	<s> หมูสับ
-3.449015	<s> หมู่บ้าน
-3.449015	<s> หยิบ
-3.449015	<s> หยุด
-3.449015	<s> หรือ
-3.449015	<s> หลบหลีก
-3.449015	<s> หลอด
-3.449015	<s> หลัง
-3.449015	<s> หลังบ้าน
-3.449015	<s> หลับ
-3.449015	<s> หลาย
-3.449015	<s> หวาน
-3.449015	<s> หวาย
-3.449015	<s> หอ
-3.449015	<s> หอกลาง
-3.449015	<s> หอย
-3.449015	<s> หอยแครง
-3.449015	<s> หัน
-3.449015	<s> หัว
-3.449015	<s> หัวหอม
-3.449015	<s> หา
-3.449015	<s> หาย
-3.449015	<s> หิน
-3.449015	<s> หิว
-3.449015	<s> หีบ
-3.449015	<s> หุง
-3.449015	<s> ห่าง
-3.449015	<s> ห้อง
-3.449015	<s> ห้องครัว
-3.449015	<s> ห้องนอน
-3.449015	<s> ห้องน้ำ
-3.449015	<s> ห้องพัก
-3.449015	<s> ห้องสมุด
-3.449015	<s> ห้า
-3.449015	<s> อ
-3.449015	<s> องศา
-3.449015	<s> อด
-3.449015	<s> อติวงศ์
-3.449015	<s> อบ
-3.449015	<s> อยาก
-3.449015	<s> อยู่
-3.449015	<s> อย่า
-3.449015	<s> อย่าง
-3.449015	<s> อย่างน้อย
-3.449015	<s> อย่างไร
-3.449015	<s> อร่อย
-3.449015	<s> อวด
-3.449015	<s> ออก
-3.449015	<s> ออน
-3.449015	<s> ออสการ์
-3.449015	<s> ออเดอร์
-3.449015	<s> ออเรนจิน่า
-3.449015	<s> อะ
-3.449015	<s> อะไร
-3.449015	<s> อะไรบ้าง
-3.449015	<s> อะไรวอล
-3.449015	<s> อักษร
-3.449015	<s> อังกฤษ
-3.449015	<s> อังคาร
-3.449015	<s> อัน
-3.449015	<s> อันดับ
-3.449015	<s> อันเดอร์วอเตอร์เวิล์ด
-3.449015	<s> อัปเดต
-3.449015	<s> อัพ
-3.449015	<s> อัพโหลด
-3.449015	<s> อัลกอริทึม
-3.449015	<s> อา
-3.449015	<s> อาจารย์
-3.449015	<s> อาทิตย์
-3.449015	<s> อาบ
-3.449015	<s> อาบน้ำ
-3.449015	<s> อาม
-3.449015	<s> อาย
-3.449015	<s> อายุ
-3.449015	<s> อาราบิก้า
-3.449015	<s> อาร์
-3.449015	<s> อาวุธ
-3.449015	<s> อาหาร
-3.449015	<s> อาหารตะวันตก
-3.449015	<s> อาหารตะวันออก
-3.449015	<s> อาหารบูด
-3.449015	<s> อาหารเสีย
-3.449015	<s> อาหารไทย
-3.449015	<s> อาารย์
-3.449015	<s> อิท
-3.449015	<s> อินเซปชั่น
-3.449015	<s> อี
-3.449015	<s> อีก
-3.449015	<s> อีเมล
-3.449015	<s> อีเมล์
-3.449015	<s> อื่น
-3.449015	<s> อุณหภูมิ
-3.449015	<s> อุปกรณ์
-3.449015	<s> อุ้ม
-3.449015	<s> อเมซอน
-3.449015	<s> อเมริกาโน่
-3.449015	<s> อ่าน
-3.449015	<s> อ้วน
-3.449015	<s> อ้อม
-3.449015	<s> อ้อย
-3.449015	<s> อ้างอิง
-3.449015	<s> ฮันนี่มูน
-3.449015	<s> ฮาจิบัง
-3.449015	<s> ฮิจิริ
-3.449015	<s> ฮิต
-3.449015	<s> ฮิว
-3.449015	<s> เกม
-3.449015	<s> เกมส์
-3.449015	<s> เกรด
-3.449015	<s> เกราะ
-3.449015	<s> เกลือ
-3.449015	<s> เกาหลี
-3.449015	<s> เกาเหลา
-3.449015	<s> เกิด
-3.449015	<s> เกิน
-3.449015	<s> เกี่ยว
-3.449015	<s> เกี้ยว
-3.449015	<s> เก็บ
-3.449015	<s> เก้า
-3.449015	<s> เก๊าท์
-3.449015	<s> เขต
-3.449015	<s> เขม
-3.449015	<s> เขียน
-3.449015	<s> เขียนโปรแกรม
-3.449015	<s> เขียว
-3.449015	<s> เข้า
-3.449015	<s> เข้าฉาย
-3.449015	<s> เข้าใจ
-3.449015	<s> เค
-3.449015	<s> เครดิต
-3.449015	<s> เครป
-3.449015	<s> เครือ
-3.449015	<s> เครื่อง
-3.449015	<s> เครื่องคิดเลข
-3.449015	<s> เครื่องปรุง
-3.449015	<s> เคร่ง
-3.449015	<s> เคลียร์
-3.449015	<s> เคล็ดลับ
-3.449015	<s> เคียว
-3.449015	<s> เคเอฟซี
-3.449015	<s> เค็ม
-3.449015	<s> เค้ก
-3.449015	<s> เค้าเตอร์
-3.449015	<s> เงิน
-3.449015	<s> เงียบ
-3.449015	<s> เจน
-3.449015	<s> เจฟเฟอร์
-3.449015	<s> เจียว
-3.449015	<s> เจ็ด
-3.449015	<s> เจ็นเอ็ด
-3.449015	<s> เจ้า
-3.449015	<s> เจ้าของ
-3.449015	<s> เจ้าหน้าที่
-3.449015	<s> เจ๊
-3.449015	<s> เฉพาะ
-3.449015	<s> เฉลี่ย
-3.449015	<s> เชดส์
-3.449015	<s> เชอร์รี่
-3.449015	<s> เชิร์ต
-3.449015	<s> เชื่อม
-3.449015	<s> เช็ค
-3.449015	<s> เช่า
-3.449015	<s> เช้า
-3.449015	<s> เซงเซียมอี๊
-3.449015	<s> เซนเตอร์
-3.449015	<s> เซลล์
-3.449015	<s> เซอเคิล
-3.449015	<s> เซเว่น
-3.449015	<s> เซ็ต
-3.449015	<s> เซ็นทรัลเวิลด์
-3.449015	<s> เดบิต
-3.449015	<s> เดอะ
-3.449015	<s> เดิน
-3.449015	<s> เดิม
-3.449015	<s> เดียว
-3.449015	<s> เดือน
-3.449015	<s> เด็ก
-3.449015	<s> เด็ด
-3.449015	<s> เตรียม
-3.449015	<s> เตาถ่าน
-3.449015	<s> เตาแก๊ส
-3.449015	<s> เติม
-3.449015	<s> เตือน
-3.449015	<s> เต็ม
-3.449015	<s> เต๋อ
-3.449015	<s> เถอะ
-3.449015	<s> เทค
-3.449015	<s> เทพ
-3.449015	<s> เทมปุระด้ง
-3.449015	<s> เทอม
-3.449015	<s> เทา
-3.449015	<s> เทิร์น
-3.449015	<s> เที่ยง
-3.449015	<s> เท่า
-3.449015	<s> เท่ากับ
-3.449015	<s> เท่านั้น
-3.449015	<s> เท่าไร
-3.449015	<s> เท่าไหร่
-3.449015	<s> เนย
-3.449015	<s> เนอะ
-3.449015	<s> เนี่ย
-3.449015	<s> เนื้อ
-3.449015	<s> เนื้อปลา
-3.449015	<s> เนื้อหมู
-3.449015	<s> เนื้อไก่
-3.449015	<s> เน็ต
-3.449015	<s> เบอร์
-3.449015	<s> เบอร์เกอร์
-3.449015	<s> เบา
-3.449015	<s> เบาหวาน
-3.449015	<s> เบาๆ
-3.449015	<s> เบิด
-3.449015	<s> เบี้ย
-3.449015	<s> เบื่อ
-3.449015	<s> เปรียบเทียบ
-3.449015	<s> เปรี้ยว
-3.449015	<s> เปลี่ยน
-3.449015	<s> เปล่า
-3.449015	<s> เปอร์เซนต์
-3.449015	<s> เปอร์เซ็นต์
-3.449015	<s> เปิด
-3.449015	<s> เป็น
-3.449015	<s> เป็ปซี่
-3.449015	<s> เผา
-3.449015	<s> เผื่อ
-3.449015	<s> เผ็ด
-3.449015	<s> เพจ
-3.449015	<s> เพชร
-3.449015	<s> เพลง
-3.449015	<s> เพลิง
-3.449015	<s> เพิ่ม
-3.449015	<s> เพื่อน
-3.449015	<s> เฟท
-3.449015	<s> เฟ้ย
-3.449015	<s> เมนู
-3.449015	<s> เมล็ด
-3.449015	<s> เมล์
-3.449015	<s> เมษายน
-3.449015	<s> เมอร์ลิน
-3.449015	<s> เมื่อ
-3.449015	<s> เมื่อคืน
-3.449015	<s> เมื่อวาน
-3.449015	<s> เมื่อไร
-3.449015	<s> เมื่อไหร่
-3.449015	<s> เมเจอร์
-3.449015	<s> เยน
-3.449015	<s> เยอะ
-3.449015	<s> เยาะ
-3.449015	<s> เยี่ยม
-3.449015	<s> เย็น
-3.449015	<s> เย็นนี้
-3.449015	<s> เย้ย
-3.449015	<s> เรตติ้ง
-3.449015	<s> เรา
-3.449015	<s> เริ่ม
-3.449015	<s> เรียก
-3.449015	<s> เรียง
-3.449015	<s> เรียน
-3.449015	<s> เรียนพิเศษ
-3.449015	<s> เรือ
-3.449015	<s> เรื่อง
-3.449015	<s> เรื่องย่อ
-3.449015	<s> เร็ว
-3.449015	<s> เลคเชอร์
-3.449015	<s> เลย
-3.449015	<s> เลิก
-3.449015	<s> เลิฟ
-3.449015	<s> เลี้ยง
-3.449015	<s> เลือก
-3.449015	<s> เลือด
-3.449015	<s> เลื่อน
-3.449015	<s> เลโก
-3.449015	<s> เล็ก
-3.449015	<s> เล็ง
-3.449015	<s> เล่น
-3.449015	<s> เล่ม
-3.449015	<s> เว
-3.449015	<s> เวท
-3.449015	<s> เวทมนตร์
-3.449015	<s> เวทมนต์
-3.449015	<s> เวลา
-3.449015	<s> เวอร์
-3.449015	<s> เวิคช็อป
-3.449015	<s> เวียดนาม
-3.449015	<s> เวเวอร์
-3.449015	<s> เว็บไซต์
-3.449015	<s> เศรษฐศาสตร์
-3.449015	<s> เสนอ
-3.449015	<s> เสริมสวย
-3.449015	<s> เสร็จ
-3.449015	<s> เสร็็จ
-3.449015	<s> เสาร์
-3.449015	<s> เสียง
-3.449015	<s> เสือ
-3.449015	<s> เสื้อ
-3.449015	<s> เสื้อผ้า
-3.449015	<s> เสื้อยืด
-3.449015	<s> เส้น
-3.449015	<s> เส้นเล็ก
-3.449015	<s> เส้นใหญ่
-3.449015	<s> เหงา
-3.449015	<s> เหมาะ
-3.449015	<s> เหมือง
-3.449015	<s> เหมือน
-3.449015	<s> เหมือนกัน
-3.449015	<s> เหรอ
-3.449015	<s> เหรียญ
-3.449015	<s> เหลือ
-3.449015	<s> เหลือง
-3.449015	<s> เห็ด
-3.449015	<s> เห็น
-3.449015	<s> เอ
-3.449015	<s> เอกพล
-3.449015	<s> เอง
-3.449015	<s> เอช
-3.449015	<s> เอซ
-3.449015	<s> เอด
-3.449015	<s> เอทีเอม
-3.449015	<s> เอน
-3.449015	<s> เอฟ
-3.449015	<s> เอมอาที
-3.449015	<s> เอส
-3.449015	<s> เอสเปสโซ่
-3.449015	<s> เอา
-3.449015	<s> เอเอสอาร์
-3.449015	<s> เอ็กซ์
-3.449015	<s> เอ็ด
-3.449015	<s> เอ็ม
-3.449015	<s> เอ็มเค
-3.449015	<s> เอ้าท์
-3.449015	<s> เอ้าลาส
-3.449015	<s> แกง
-3.449015	<s> แกรน
-3.449015	<s> แกรนด์
-3.449015	<s> แก้
-3.449015	<s> แก้ว
-3.449015	<s> แก้ไข
-3.449015	<s> แคนเซิล
-3.449015	<s> แคลอรี่
-3.449015	<s> แค่ไหน
-3.449015	<s> แจ็ค
-3.449015	<s> แจ็คเก็ต
-3.449015	<s> แจ้ง
-3.449015	<s> แจ๊กเก็ต
-3.449015	<s> แชร์
-3.449015	<s> แซก
-3.449015	<s> แดง
-3.449015	<s> แตงกวา
-3.449015	<s> แตงโม
-3.449015	<s> แตงไทย
-3.449015	<s> แตะ
-3.449015	<s> แต่
-3.449015	<s> แต้ม
-3.449015	<s> แถบ
-3.449015	<s> แถม
-3.449015	<s> แถว
-3.449015	<s> แท็กซี่
-3.449015	<s> แท็บ
-3.449015	<s> แนน
-3.449015	<s> แนว
-3.449015	<s> แนะนำ
-3.449015	<s> แนะนำไหม
-3.449015	<s> แน่
-3.449015	<s> แบคแพ็ค
-3.449015	<s> แบน
-3.449015	<s> แบบ
-3.449015	<s> แบบนี้
-3.449015	<s> แบ็ทแมน
-3.449015	<s> แปด
-3.449015	<s> แปป
-3.449015	<s> แผนที่
-3.449015	<s> แพง
-3.449015	<s> แพทย์
-3.449015	<s> แพลนท์
-3.449015	<s> แพ้
-3.449015	<s> แฟต
-3.449015	<s> แฟน
-3.449015	<s> แฟลช
-3.449015	<s> แมค
-3.449015	<s> แมพ
-3.449015	<s> แย่ง
-3.449015	<s> แรก
-3.449015	<s> แลก
-3.449015	<s> แลคโตส
-3.449015	<s> แลนด์
-3.449015	<s> แลนด์มาร์ค
-3.449015	<s> และ
-3.449015	<s> แล็บ
-3.449015	<s> แล้ว
-3.449015	<s> แล้้ว
-3.449015	<s> แว่น
-3.449015	<s> แสง
-3.449015	<s> แสดง
-3.449015	<s> แสตท
-3.449015	<s> แสน
-3.449015	<s> แหก
-3.449015	<s> แหม่ม
-3.449015	<s> แหละ
-3.449015	<s> แห้ง
-3.449015	<s> แอคชั่น
-3.449015	<s> แอด
-3.449015	<s> แอนด์
-3.449015	<s> แอม
-3.449015	<s> แอมปาร์ค
-3.449015	<s> แอร์
-3.449015	<s> แอล
-3.449015	<s> แอลจิบ้า
-3.449015	<s> แอ็คชั่น
-3.449015	<s> แฮรี่พอตเตอร์
-3.449015	<s> โกง
-3.449015	<s> โกวาจี
-3.449015	<s> โครงสร้าง
-3.449015	<s> โฆษณา
-3.449015	<s> โจมตี
-3.449015	<s> โจ๊ก
-3.449015	<s> โฉนด
-3.449015	<s> โชตะ
-3.449015	<s> โซน
-3.449015	<s> โซฟา
-3.449015	<s> โดกาปอง
-3.449015	<s> โดด
-3.449015	<s> โดน
-3.449015	<s> โต๊ะ
-3.449015	<s> โทร
-3.449015	<s> โทรศัพท์
-3.449015	<s> โบว์ลิ่ง
-3.449015	<s> โบ๊ท
-3.449015	<s> โปรด
-3.449015	<s> โปรเจค
-3.449015	<s> โปรแกรม
-3.449015	<s> โปรโมชัน
-3.449015	<s> โปรโมชั่น
-3.449015	<s> โพธิ์ดำ
-3.449015	<s> โพธิ์แดง
-3.449015	<s> โพสต์
-3.449015	<s> โฟธ
-3.449015	<s> โฟร์
-3.449015	<s> โมง
-3.449015	<s> โรคไต
-3.449015	<s> โรง
-3.449015	<s> โรงหนัง
-3.449015	<s> โรงอาหาร
-3.449015	<s> โรงแรม
-3.449015	<s> โรตี
-3.449015	<s> โรนัน
-3.449015	<s> โรบัสต้า
-3.449015	<s> โรแมนติก
-3.449015	<s> โลลิ
-3.449015	<s> โลแกน
-3.449015	<s> โหมด
-3.449015	<s> โหลด
-3.449015	<s> โอ
-3.449015	<s> โอว
-3.449015	<s> โอเวอร์
-3.449015	<s> โอโตยะ
-3.449015	<s> โฮมเพจ
-3.449015	<s> ใกล้
-3.449015	<s> ใคร
-3.449015	<s> ใจ
-3.449015	<s> ใช่
-3.449015	<s> ใช่ไหม
-3.449015	<s> ใช้
-3.449015	<s> ใต้
-3.449015	<s> ใน
-3.449015	<s> ใบ
-3.449015	<s> ใส่
-3.449015	<s> ใหญ่
-3.449015	<s> ใหม่
-3.449015	<s> ให้
-3.449015	<s> ไก่
-3.449015	<s> ไข่
-3.449015	<s> ไข่ดาว
-3.449015	<s> ไข่ตุ๋น
-3.449015	<s> ไข่ต้ม
-3.449015	<s> ไข่ยางมะตูม
-3.449015	<s> ไข่ลวก
-3.449015	<s> ไข่เค็ม
-3.449015	<s> ไข่เจียว
-3.449015	<s> ไข่่ตุ๋น
-3.449015	<s> ไง
-3.449015	<s> ไซส์
-3.449015	<s> ได้
-3.449015	<s> ได้มั้ย
-3.449015	<s> ได้ไหม
-3.449015	<s> ไต
-3.449015	<s> ไตเติ้ล
-3.449015	<s> ไทย
-3.449015	<s> ไทยพาณิชย์
-3.449015	<s> ไป
-3.449015	<s> ไผ่
-3.449015	<s> ไผ่ทอง
-3.449015	<s> ไฟ
-3.449015	<s> ไฟนอล
-3.449015	<s> ไฟฟ้า
-3.449015	<s> ไมโครเวฟ
-3.449015	<s> ไม่
-3.449015	<s> ไม่ว่าง
-3.449015	<s> ไม่สุก
-3.449015	<s> ไม่ใช่
-3.449015	<s> ไม้
-3.449015	<s> ไร
-3.449015	<s> ไรท์ติ้ง
-3.449015	<s> ไลน์
-3.449015	<s> ไลฟ์
-3.449015	<s> ไวท์
-3.449015	<s> ไวฟุ
-3.449015	<s> ไวไฟ
-3.449015	<s> ไว้
-3.449015	<s> ไส้
-3.449015	<s> ไส้กรอง
-3.449015	<s> ไหน
-3.449015	<s> ไหม
-3.449015	<s> ไหม้
-3.449015	<s> ไหร่
-3.449015	<s> ไห้
-3.449015	<s> ไอ
-3.449015	<s> ไอติม
-3.449015	<s> ไอที
-3.449015	<s> ไอรอนแมน
-3.449015	<s> ไอเดีย
-3.449015	<s> ไอเทม
-3.449015	<s> ไอเท็ม
-3.449015	<s> ไอแม็กซ์
-0.30103	กด </s>
-0.30103	กรอบ </s>
-0.30103	กระ </s>
-0.30103	กระจาย </s>
-0.30103	กระถาง </s>
-0.30103	กระทะ </s>
-0.30103	กระสุน </s>
-0.30103	กระเทียม </s>
-0.30103	กระเป๋า </s>
-0.30103	กระแส </s>
-0.30103	กระโดด </s>
-0.30103	กรุงศรี </s>
-0.30103	กรุงเทพ </s>
-0.30103	กรุงไทย </s>
-0.30103	กล </s>
-0.30103	กลม </s>
-0.30103	กลับ </s>
-0.30103	กลาง </s>
-0.30103	กลางวัน </s>
-0.30103	กล่องขายของ </s>
-0.30103	กล้วย </s>
-0.30103	กล้าม </s>
-0.30103	กว่า </s>
-0.30103	กสิกร </s>
-0.30103	กะเพรา </s>
-0.30103	กัญชา </s>
-0.30103	กัน </s>
-0.30103	กับ </s>
-0.30103	กับข้าว </s>
-0.30103	กางเกง </s>
-0.30103	กางเกงยีน </s>
-0.30103	การ </s>
-0.30103	การบ้าน </s>
-0.30103	การเชื่อมต่อ </s>
-0.30103	การ์ด </s>
-0.30103	กาแฟ </s>
-0.30103	กำกับ </s>
-0.30103	กำลัง </s>
-0.30103	กิจกรรม </s>
-0.30103	กิน </s>
-0.30103	กินข้าว </s>
-0.30103	กิโลแคลอรี่ </s>
-0.30103	กิ๊ก </s>
-0.30103	กีฬา </s>
-0.30103	กี่ </s>
-0.30103	กี่คน </s>
-0.30103	กี่โมง </s>
-0.30103	กุมภา </s>
-0.30103	กุ้ง </s>
-0.30103	กุ้งสับ </s>
-0.30103	กู้ </s>
-0.30103	ก็ </s>
-0.30103	ก็อท </s>
-0.30103	ก็ได้ </s>
-0.30103	ก่อน </s>
-0.30103	ก่อนหน้า </s>
-0.30103	ก๋วยเตี๋ยว </s>
-0.30103	ขนม </s>
-0.30103	ขนมหวาน </s>
-0.30103	ขนาด </s>
-0.30103	ขยะ </s>
-0.30103	ขยาย </s>
-0.30103	ขวด </s>
-0.30103	ขวัญ </s>
-0.30103	ขวา </s>
-0.30103	ขวาน </s>
-0.30103	ขอ </s>
-0.30103	ของ </s>
-0.30103	ของขวัญ </s>
-0.30103	ของหวาน </s>
-0.30103	ขอบ </s>
-0.30103	ขอบคุณ </s>
-0.30103	ขอโทษ </s>
-0.30103	ขั้น </s>
-0.30103	ขั้นตอน </s>
-0.30103	ขา </s>
-0.30103	ขาย </s>
-0.30103	ขาว </s>
-0.30103	ขี้เกียจ </s>
-0.30103	ขึ้น </s>
-0.30103	ขึ้วา </s>
-0.30103	ขุด </s>
-0.30103	ขโมย </s>
-0.30103	ข่ายงาน </s>
-0.30103	ข่าว </s>
-0.30103	ข้อ </s>
-0.30103	ข้อมูล </s>
-0.30103	ข้อสอบ </s>
-0.30103	ข้าง </s>
-0.30103	ข้าพเจ้า </s>
-0.30103	ข้าม </s>
-0.30103	ข้าว </s>
-0.30103	ข้าวกะเพรา </s>
-0.30103	ข้าวผัด </s>
-0.30103	ข้าวมัน </s>
-0.30103	ข้าวมันไก่ </s>
-0.30103	ข้าวหลามตัด </s>
-0.30103	ข้าวเปล่า </s>
-0.30103	ข้าวเปล่่า </s>
-0.30103	ข้าวเหนียว </s>
-0.30103	ข้าวโพด </s>
-0.30103	ข้าวไข่ดาว </s>
-0.30103	คณะ </s>
-0.30103	คน </s>
-0.30103	คนป่วย </s>
-0.30103	คนแก่ </s>
-0.30103	คนไม่สบาย </s>
-0.30103	ครับ </s>
-0.30103	ครั้ง </s>
-0.30103	คราว </s>
-0.30103	คริส </s>
-0.30103	ครีมเมอรี่ </s>
-0.30103	ครึ่ง </s>
-0.30103	คลุก </s>
-0.30103	คล้าย </s>
-0.30103	ควร </s>
-0.30103	ควัน </s>
-0.30103	ความ </s>
-0.30103	ความคิดเห็น </s>
-0.30103	ความยาว </s>
-0.30103	ความรู้สึก </s>
-0.30103	ความสัมพันธ์ </s>
-0.30103	ความเร็ว </s>
-0.30103	ความแรง </s>
-0.30103	ควีน </s>
-0.30103	คอ </s>
-0.30103	คอมพิวเตอร์ </s>
-0.30103	คะ </s>
-0.30103	คะน้า </s>
-0.30103	คะแนน </s>
-0.30103	คัตสึด้ง </s>
-0.30103	คัทสึด้ง </s>
-0.30103	คั่ว </s>
-0.30103	คั้งค่า </s>
-0.30103	คาปูชิโน่ </s>
-0.30103	คาโบนาร่า </s>
-0.30103	คำนวณ </s>
-0.30103	คำแนะนำ </s>
-0.30103	คิง </s>
-0.30103	คิด </s>
-0.30103	คิดส์ซาเนีย </s>
-0.30103	คิล </s>
-0.30103	คิว </s>
-0.30103	คิวบิด </s>
-0.30103	คิสึเนะอุด้ง </s>
-0.30103	คืน </s>
-0.30103	คือ </s>
-0.30103	คุก </s>
-0.30103	คุกกี้ </s>
-0.30103	คุณภาพ </s>
-0.30103	คุมสอบ </s>
-0.30103	คุย </s>
-0.30103	คู่ </s>
-0.30103	ค่อย </s>
-0.30103	ค่ะ </s>
-0.30103	ค่า </s>
-0.30103	ค่าย </s>
-0.30103	ค่ำ </s>
-0.30103	ค้นหา </s>
-0.30103	ค้อน </s>
-0.30103	ฆ่า </s>
-0.30103	งง </s>
-0.30103	งด </s>
-0.30103	งบ </s>
-0.30103	งบประมาณ </s>
-0.30103	งาน </s>
-0.30103	งีบ </s>
-0.30103	ง่วง </s>
-0.30103	ง่าย </s>
-0.30103	จง </s>
-0.30103	จดหมาย </s>
-0.30103	จน </s>
-0.30103	จบ </s>
-0.30103	จอ </s>
-0.30103	จอง </s>
-0.30103	จอด </s>
-0.30103	จอบ </s>
-0.30103	จะ </s>
-0.30103	จัง </s>
-0.30103	จัด </s>
-0.30103	จัดการ </s>
-0.30103	จันทร์ </s>
-0.30103	จับ </s>
-0.30103	จััดการ </s>
-0.30103	จั่ว </s>
-0.30103	จั้ม </s>
-0.30103	จั้มฟอส </s>
-0.30103	จั๊ม </s>
-0.30103	จาก </s>
-0.30103	จากนี้ </s>
-0.30103	จาน </s>
-0.30103	จาม </s>
-0.30103	จำ </s>
-0.30103	จำนวน </s>
-0.30103	จี </s>
-0.30103	จีน </s>
-0.30103	จุด </s>
-0.30103	จุล </s>
-0.30103	จุฬา </s>
-0.30103	จ่าย </s>
-0.30103	ฉัน </s>
-0.30103	ฉาย </s>
-0.30103	ชวน </s>
-0.30103	ชวาล </s>
-0.30103	ชอบ </s>
-0.30103	ชั่ว </s>
-0.30103	ชั่วโมง </s>
-0.30103	ชั้น </s>
-0.30103	ชานม </s>
-0.30103	ชาบู </s>
-0.30103	ชาม </s>
-0.30103	ชาร์จ </s>
-0.30103	ชาเขียว </s>
-0.30103	ชำระ </s>
-0.30103	ชิ้น </s>
-0.30103	ชีวิต </s>
-0.30103	ชีส </s>
-0.30103	ชื่อ </s>
-0.30103	ชุด </s>
-0.30103	ช็อกโกแลต </s>
-0.30103	ช็อคโกแลต </s>
-0.30103	ช็อต </s>
-0.30103	ช่วง </s>
-0.30103	ช่วงนี้ </s>
-0.30103	ช่วย </s>
-0.30103	ช่อง </s>
-0.30103	ช้อนชา </s>
-0.30103	ช้อนโต๊ะ </s>
-0.30103	ช้า </s>
-0.30103	ซอบิงโก </s>
-0.30103	ซอลบิง </s>
-0.30103	ซอส </s>
-0.30103	ซัก </s>
-0.30103	ซาวด์แทรก </s>
-0.30103	ซิก </s>
-0.30103	ซินนามอน </s>
-0.30103	ซี </s>
-0.30103	ซีท </s>
-0.30103	ซีรีย์ </s>
-0.30103	ซีอิ๊ว </s>
-0.30103	ซื้อ </s>
-0.30103	ซุเปอร์มาร์เก็ต </s>
-0.30103	ซ้าย </s>
-0.30103	ซ้ำ </s>
-0.30103	ญี่ปุ่น </s>
-0.30103	ฐานข้อมูล </s>
-0.30103	ดนตรี </s>
-0.30103	ดราก้อน </s>
-0.30103	ดรีม </s>
-0.30103	ดวง </s>
-0.30103	ดวล </s>
-0.30103	ดอกจิก </s>
-0.30103	ดับ </s>
-0.30103	ดับเบิ้ล </s>
-0.30103	ดาว </s>
-0.30103	ดำ </s>
-0.30103	ดิจิตอล </s>
-0.30103	ดิน </s>
-0.30103	ดี </s>
-0.30103	ดีแทค </s>
-0.30103	ดึก </s>
-0.30103	ดื่ม </s>
-0.30103	ดู </s>
-0.30103	ดูด </s>
-0.30103	ดููด </s>
-0.30103	ด้วย </s>
-0.30103	ด้าน </s>
-0.30103	ตก </s>
-0.30103	ตกลง </s>
-0.30103	ตรง </s>
-0.30103	ตรงไหน </s>
-0.30103	ตรวจสอบ </s>
-0.30103	ตรา </s>
-0.30103	ตลาด </s>
-0.30103	ตอง </s>
-0.30103	ตอน </s>
-0.30103	ตอนนี้ </s>
-0.30103	ตอนเที่ยง </s>
-0.30103	ตอนเรียน </s>
-0.30103	ตอบ </s>
-0.30103	ตะกร้า </s>
-0.30103	ตะไคร้ </s>
-0.30103	ตังค์ </s>
-0.30103	ตัด </s>
-0.30103	ตับ </s>
-0.30103	ตัว </s>
-0.30103	ตัวอย่าง </s>
-0.30103	ตัวเอง </s>
-0.30103	ตั้ง </s>
-0.30103	ตั้งค่า </s>
-0.30103	ตั้งแต่ </s>
-0.30103	ตั๋ว </s>
-0.30103	ตา </s>
-0.30103	ตาม </s>
-0.30103	ตาย </s>
-0.30103	ตาราง </s>
-0.30103	ตาล </s>
-0.30103	ตำ </s>
-0.30103	ติด </s>
-0.30103	ติดตาม </s>
-0.30103	ติดต่อ </s>
-0.30103	ติว </s>
-0.30103	ติวสอบ </s>
-0.30103	ติวโตเรียล </s>
-0.30103	ตี </s>
-0.30103	ตีห้า </s>
-0.30103	ตึก </s>
-0.30103	ตึกร้อยปี </s>
-0.30103	ตื่น </s>
-0.30103	ตู้ </s>
-0.30103	ตู้เย็น </s>
-0.30103	ตู้เย็็น </s>
-0.30103	ต่อ </s>
-0.30103	ต่อไป </s>
-0.30103	ต่ำ </s>
-0.30103	ต่ำกว่า </s>
-0.30103	ต้น </s>
-0.30103	ต้นไม้ </s>
-0.30103	ต้ม </s>
-0.30103	ต้มยำ </s>
-0.30103	ต้มยำกุ้งน้ำข้น </s>
-0.30103	ต้อง </s>
-0.30103	ถอน </s>
-0.30103	ถอย </s>
-0.30103	ถัด </s>
-0.30103	ถั่ว </s>
-0.30103	ถั่วงอก </s>
-0.30103	ถาม </s>
-0.30103	ถึง </s>
-0.30103	ถุง </s>
-0.30103	ถูก </s>
-0.30103	ถูกต้อง </s>
-0.30103	ถูกใจ </s>
-0.30103	ถ่ายรูป </s>
-0.30103	ถ้วยตวง </s>
-0.30103	ถ้า </s>
-0.30103	ทน </s>
-0.30103	ทรานสคริปต์ </s>
-0.30103	ทรี </s>
-0.30103	ทวง </s>
-0.30103	ทวน </s>
-0.30103	ทหารไทย </s>
-0.30103	ทอง </s>
-0.30103	ทองดี </s>
-0.30103	ทอด </s>
-0.30103	ทอป </s>
-0.30103	ทอย </s>
-0.30103	ทะเล </s>
-0.30103	ทักษิณ </s>
-0.30103	ทัน </s>
-0.30103	ทัศนศึกษา </s>
-0.30103	ทั้ง </s>
-0.30103	ทั้งวัน </s>
-0.30103	ทั้งหมด </s>
-0.30103	ทาง </s>
-0.30103	ทำ </s>
-0.30103	ทำงาน </s>
-0.30103	ทำนาย </s>
-0.30103	ทำยังไง </s>
-0.30103	ทำลาย </s>
-0.30103	ทิ้ง </s>
-0.30103	ที </s>
-0.30103	ทีม </s>
-0.30103	ทีวี </s>
-0.30103	ที่ </s>
-0.30103	ที่ดิน </s>
-0.30103	ที่นั่ง </s>
-0.30103	ที่นี่ </s>
-0.30103	ที่ปรึกษา </s>
-0.30103	ที่พัก </s>
-0.30103	ที่สุด </s>
-0.30103	ที่แล้ว </s>
-0.30103	ที่ไหน </s>
-0.30103	ทุก </s>
-0.30103	ทุกวัน </s>
-0.30103	ทุกวันศุกร์ </s>
-0.30103	ทุกเวลา </s>
-0.30103	ทุบ </s>
-0.30103	ทุ่ม </s>
-0.30103	ทู </s>
-0.30103	ทูฟาสต์ </s>
-0.30103	ทูสลีบ </s>
-0.30103	ทูเดย์ </s>
-0.30103	ท่า </s>
-0.30103	ท้องเสีย </s>
-0.30103	ท้า </s>
-0.30103	ธนาคาร </s>
-0.30103	ธรรมดา </s>
-0.30103	ธุระ </s>
-0.30103	นนทบุรี </s>
-0.30103	นม </s>
-0.30103	นอก </s>
-0.30103	นอกเวลา </s>
-0.30103	นอน </s>
-0.30103	นอนได้ </s>
-0.30103	นะ </s>
-0.30103	นักเรียน </s>
-0.30103	นักแสดงนำ </s>
-0.30103	นัด </s>
-0.30103	นับ </s>
-0.30103	นั่ง </s>
-0.30103	นั้น </s>
-0.30103	นั้ั้น </s>
-0.30103	นาที </s>
-0.30103	นาน </s>
-0.30103	นาม </s>
-0.30103	นาย </s>
-0.30103	นาฬิกา </s>
-0.30103	นำ </s>
-0.30103	นิติ </s>
-0.30103	นี่ </s>
-0.30103	นี้ </s>
-0.30103	นี้่ิ </s>
-0.30103	นึง </s>
-0.30103	น่า </s>
-0.30103	น่าดู </s>
-0.30103	น้อง </s>
-0.30103	น้อย </s>
-0.30103	น้ำ </s>
-0.30103	น้ำข้น </s>
-0.30103	น้ำจิ้ม </s>
-0.30103	น้ำตาล </s>
-0.30103	น้ำปลา </s>
-0.30103	น้ำเงิน </s>
-0.30103	น้ำเปล่า </s>
-0.30103	น้ำแข็ง </s>
-0.30103	น้ำใส </s>
-0.30103	บท </s>
-0.30103	บน </s>
-0.30103	บรรจุ </s>
-0.30103	บริการ </s>
-0.30103	บรูซ </s>
-0.30103	บลายบิด </s>
-0.30103	บลีช </s>
-0.30103	บลู </s>
-0.30103	บวก </s>
-0.30103	บอก </s>
-0.30103	บอม </s>
-0.30103	บอส </s>
-0.30103	บะหมี่ </s>
-0.30103	บังคับ </s>
-0.30103	บัญชี </s>
-0.30103	บัตร </s>
-0.30103	บันทึก </s>
-0.30103	บัว </s>
-0.30103	บาท </s>
-0.30103	บิงซู </s>
-0.30103	บิชอป </s>
-0.30103	บิล </s>
-0.30103	บิวตี้ </s>
-0.30103	บี </s>
-0.30103	บีทีเอส </s>
-0.30103	บีสต์ </s>
-0.30103	บึ้ม </s>
-0.30103	บืชอป </s>
-0.30103	บุฟเฟต์ </s>
-0.30103	บ่อย </s>
-0.30103	บ่าย </s>
-0.30103	บ้าง </s>
-0.30103	บ้าน </s>
-0.30103	ปกติ </s>
-0.30103	ปฎิทิน </s>
-0.30103	ปฏิเสธ </s>
-0.30103	ปทุมธานี </s>
-0.30103	ประกอบ </s>
-0.30103	ประกัน </s>
-0.30103	ประกันตัว </s>
-0.30103	ประจำ </s>
-0.30103	ประชาสัมพันธ์ </s>
-0.30103	ประชุม </s>
-0.30103	ประดับ </s>
-0.30103	ประตู </s>
-0.30103	ประทับ </s>
-0.30103	ประท้วง </s>
-0.30103	ประมาณ </s>
-0.30103	ประมูล </s>
-0.30103	ประยุทธ์ </s>
-0.30103	ประวัติ </s>
-0.30103	ประสงค์ </s>
-0.30103	ประเทศ </s>
-0.30103	ประเภท </s>
-0.30103	ปรับ </s>
-0.30103	ปริมาณ </s>
-0.30103	ปลั๊ก </s>
-0.30103	ปลา </s>
-0.30103	ปลาหมึก </s>
-0.30103	ปลุก </s>
-0.30103	ปล้น </s>
-0.30103	ปวด </s>
-0.30103	ปอนด์ </s>
-0.30103	ปะ </s>
-0.30103	ปัง </s>
-0.30103	ปังย่า </s>
-0.30103	ปังเย็น </s>
-0.30103	ปั่น </s>
-0.30103	ปา </s>
-0.30103	ปาตี้ </s>
-0.30103	ปานกลาง </s>
-0.30103	ปาร์ค </s>
-0.30103	ปาร์ตี้ </s>
-0.30103	ปาล์ม </s>
-0.30103	ปิด </s>
-0.30103	ปิดเทอม </s>
-0.30103	ปิ้ง </s>
-0.30103	ปี </s>
-0.30103	ปืน </s>
-0.30103	ปู </s>
-0.30103	ป่าว </s>
-0.30103	ป้องกัน </s>
-0.30103	ป้อม </s>
-0.30103	ป๊อปคอร์น </s>
-0.30103	ผงก </s>
-0.30103	ผม </s>
-0.30103	ผลิต </s>
-0.30103	ผลไม้ </s>
-0.30103	ผัก </s>
-0.30103	ผักกาด </s>
-0.30103	ผักคะน้า </s>
-0.30103	ผักบุ้ง </s>
-0.30103	ผัด </s>
-0.30103	ผัดซีอิ๊ว </s>
-0.30103	ผู้ </s>
-0.30103	ผู้กำกับ </s>
-0.30103	ผู้จัดการ </s>
-0.30103	ผู้ชาย </s>
-0.30103	ผู้ช่วย </s>
-0.30103	ผู้สูงอายุ </s>
-0.30103	ผู้หญิง </s>
-0.30103	ผู้เล่น </s>
-0.30103	ผู้ใหญ่ </s>
-0.30103	ผ่าน </s>
-0.30103	ผ้า </s>
-0.30103	ฝั่ง </s>
-0.30103	ฝาก </s>
-0.30103	ฝุ่น </s>
-0.30103	พก </s>
-0.30103	พร </s>
-0.30103	พรจากฟ้า </s>
-0.30103	พระเกี้ยว </s>
-0.30103	พริก </s>
-0.30103	พริกน้ำปลา </s>
-0.30103	พริกไทย </s>
-0.30103	พรีวิเลจ </s>
-0.30103	พรีเมี่ยม </s>
-0.30103	พรุ่ง </s>
-0.30103	พรุ่งนี้ </s>
-0.30103	พร้อม </s>
-0.30103	พฤหัส </s>
-0.30103	พล </s>
-0.30103	พลัง </s>
-0.30103	พลิก </s>
-0.30103	พอ </s>
-0.30103	พอส </s>
-0.30103	พอแล้ว </s>
-0.30103	พะโล้ </s>
-0.30103	พัก </s>
-0.30103	พัน </s>
-0.30103	พากย์ </s>
-0.30103	พาณิชย์ </s>
-0.30103	พานาคอตต้า </s>
-0.30103	พารากราฟ </s>
-0.30103	พารากอน </s>
-0.30103	พาราโบลา </s>
-0.30103	พิกัด </s>
-0.30103	พิการ </s>
-0.30103	พิม </s>
-0.30103	พิเศษ </s>
-0.30103	พี </s>
-0.30103	พี่ </s>
-0.30103	พื้น </s>
-0.30103	พุธ </s>
-0.30103	พูด </s>
-0.30103	ฟรี </s>
-0.30103	ฟรุตตี้ </s>
-0.30103	ฟร้องซ์ </s>
-0.30103	ฟอง </s>
-0.30103	ฟองนม </s>
-0.30103	ฟอส </s>
-0.30103	ฟัง </s>
-0.30103	ฟัน </s>
-0.30103	ฟันขาว </s>
-0.30103	ฟาร์ม </s>
-0.30103	ฟิตเนส </s>
-0.30103	ฟิฟตี้ </s>
-0.30103	ฟิลเตอร์ </s>
-0.30103	ฟ้า </s>
-0.30103	ภาค </s>
-0.30103	ภายใน </s>
-0.30103	ภาษา </s>
-0.30103	ภู </s>
-0.30103	มรณะ </s>
-0.30103	มหาจักรีสิรินธร </s>
-0.30103	มหิต </s>
-0.30103	มอคค่า </s>
-0.30103	มอง </s>
-0.30103	มอน </s>
-0.30103	มอนเตอร์ </s>
-0.30103	มะม่วง </s>
-0.30103	มะรืน </s>
-0.30103	มักโรนี </s>
-0.30103	มังสวิรัติ </s>
-0.30103	มัน </s>
-0.30103	มันฝรั่ง </s>
-0.30103	มั่ว </s>
-0.30103	มั้ย </s>
-0.30103	มา </s>
-0.30103	มาก </s>
-0.30103	มากิ </s>
-0.30103	มาบุญครอง </s>
-0.30103	มาม่า </s>
-0.30103	มาส </s>
-0.30103	มิดเทอม </s>
-0.30103	มิตรภาพ </s>
-0.30103	มิติ </s>
-0.30103	มิยาบิ </s>
-0.30103	มิลลิลิตร </s>
-0.30103	มี </s>
-0.30103	มีนา </s>
-0.30103	มืด </s>
-0.30103	มือถือ </s>
-0.30103	มื้อ </s>
-0.30103	มูฟวี่ </s>
-0.30103	ม้า </s>
-0.30103	ม้้ย </s>
-0.30103	ย </s>
-0.30103	ยกคลาส </s>
-0.30103	ยกเลิก </s>
-0.30103	ยอม </s>
-0.30103	ยักษ์ </s>
-0.30103	ยัง </s>
-0.30103	ยังไง </s>
-0.30103	ยา </s>
-0.30103	ยาก </s>
-0.30103	ยางมะตูม </s>
-0.30103	ยาว </s>
-0.30103	ยาโยอิ </s>
-0.30103	ยำ </s>
-0.30103	ยิง </s>
-0.30103	ยิน </s>
-0.30103	ยีนส์ </s>
-0.30103	ยี่ </s>
-0.30103	ยี่สิบ </s>
-0.30103	ยึด </s>
-0.30103	ยืด </s>
-0.30103	ยืนยัน </s>
-0.30103	ยืม </s>
-0.30103	ยู </s>
-0.30103	ย่อ </s>
-0.30103	ย่อย </s>
-0.30103	ย่าง </s>
-0.30103	ย้อน </s>
-0.30103	ย้าย </s>
-0.30103	รด </s>
-0.30103	รดน้ำ </s>
-0.30103	รถ </s>
-0.30103	รบ </s>
-0.30103	รวม </s>
-0.30103	รส </s>
-0.30103	รสชาติ </s>
-0.30103	รหัส </s>
-0.30103	รหัสวิชา </s>
-0.30103	รอ </s>
-0.30103	รองรับ </s>
-0.30103	รองเท้า </s>
-0.30103	รอด </s>
-0.30103	รอบ </s>
-0.30103	ระ </s>
-0.30103	ระดับ </s>
-0.30103	ระหว่าง </s>
-0.30103	ระเบิด </s>
-0.30103	รัก </s>
-0.30103	รักษา </s>
-0.30103	รับ </s>
-0.30103	รัว </s>
-0.30103	ราคา </s>
-0.30103	รางวัล </s>
-0.30103	ราดหน้า </s>
-0.30103	ราย </s>
-0.30103	รายการ </s>
-0.30103	รายงาน </s>
-0.30103	รายชื่อ </s>
-0.30103	รายละเอียด </s>
-0.30103	รายได้ </s>
-0.30103	ริม </s>
-0.30103	ริเวอร์ </s>
-0.30103	รีบ </s>
-0.30103	รีวิว </s>
-0.30103	รึ </s>
-0.30103	รึยัง </s>
-0.30103	รุจิศรี </s>
-0.30103	รุ้ง </s>
-0.30103	รูป </s>
-0.30103	รู้ </s>
-0.30103	ร้อง </s>
-0.30103	ร้อน </s>
-0.30103	ร้อย </s>
-0.30103	ร้าน </s>
-0.30103	ร้านค้า </s>
-0.30103	ร้านแนะนำ </s>
-0.30103	ลง </s>
-0.30103	ลงทะเบียน </s>
-0.30103	ลด </s>
-0.30103	ลบ </s>
-0.30103	ลวก </s>
-0.30103	ลอง </s>
-0.30103	ลอจิค </s>
-0.30103	ลอย </s>
-0.30103	ละ </s>
-0.30103	ละลาย </s>
-0.30103	ละหมาด </s>
-0.30103	ลั่น </s>
-0.30103	ลา </s>
-0.30103	ลางาน </s>
-0.30103	ลาน </s>
-0.30103	ลาส </s>
-0.30103	ลาเต้ </s>
-0.30103	ลิฟท์ </s>
-0.30103	ลิมิต </s>
-0.30103	ลิเนียร์ </s>
-0.30103	ลิโด้ </s>
-0.30103	ลีนุกซ์ </s>
-0.30103	ลืม </s>
-0.30103	ลุก </s>
-0.30103	ลุง </s>
-0.30103	ลุ้น </s>
-0.30103	ลูก </s>
-0.30103	ลูกชิ้นปลา </s>
-0.30103	ลูกเต๋า </s>
-0.30103	ลูป </s>
-0.30103	ล็อกอิน </s>
-0.30103	ล็อกเอาท์ </s>
-0.30103	ล็อค </s>
-0.30103	ล็อบสเตอร์ </s>
-0.30103	ล่วง </s>
-0.30103	ล่า </s>
-0.30103	ล่าง </s>
-0.30103	ล่าสุด </s>
-0.30103	ล้าง </s>
-0.30103	ล้าน </s>
-0.30103	วง </s>
-0.30103	วอล </s>
-0.30103	วอล์ค </s>
-0.30103	วัตถุดิบ </s>
-0.30103	วัน </s>
-0.30103	วันที่ </s>
-0.30103	วันนี้ </s>
-0.30103	วันปีใหม่ </s>
-0.30103	วันศุกร์ </s>
-0.30103	วันหยุด </s>
-0.30103	วันเกิด </s>
-0.30103	วันเสาร์ </s>
-0.30103	วันไหน </s>
-0.30103	วัยรุ่น </s>
-0.30103	วัว </s>
-0.30103	วาง </s>
-0.30103	วาน </s>
-0.30103	วานซืน </s>
-0.30103	วาป </s>
-0.30103	วิชา </s>
-0.30103	วิดีโอ </s>
-0.30103	วิธี </s>
-0.30103	วิธีทำ </s>
-0.30103	วิธีี </s>
-0.30103	วินาที </s>
-0.30103	วินโดวส์ </s>
-0.30103	วินโด้ </s>
-0.30103	วิป </s>
-0.30103	วิปครีม </s>
-0.30103	วิลลิส </s>
-0.30103	วิศวะ </s>
-0.30103	วิเคราะห์ระบบ </s>
-0.30103	วิ่ง </s>
-0.30103	วิ่่ง </s>
-0.30103	วีดิโอ </s>
-0.30103	วีดีโอ </s>
-0.30103	ว่า </s>
-0.30103	ว่าง </s>
-0.30103	ศาลา </s>
-0.30103	ศิลปิน </s>
-0.30103	ศุกร์ </s>
-0.30103	ศูนย์ </s>
-0.30103	สกาย </s>
-0.30103	สคิป </s>
-0.30103	สตอเบอร์รี่ </s>
-0.30103	สตางค์ </s>
-0.30103	สตาร์บัค </s>
-0.30103	สตาร์วอร์ </s>
-0.30103	สถานะ </s>
-0.30103	สถานี </s>
-0.30103	สน </s>
-0.30103	สปาเก็ตตี้ </s>
-0.30103	สภาพ </s>
-0.30103	สมัคร </s>
-0.30103	สมาชิก </s>
-0.30103	สมุด </s>
-0.30103	สมุทรปราการ </s>
-0.30103	สยอง </s>
-0.30103	สยาม </s>
-0.30103	สระ </s>
-0.30103	สรุป </s>
-0.30103	สร้าง </s>
-0.30103	สร้างขึ้น </s>
-0.30103	สลัดบาร์ </s>
-0.30103	สลับ </s>
-0.30103	สลาฟ </s>
-0.30103	สวย </s>
-0.30103	สวีท </s>
-0.30103	สว่าง </s>
-0.30103	สอ </s>
-0.30103	สอง </s>
-0.30103	สองทุ่ม </s>
-0.30103	สอน </s>
-0.30103	สอบ </s>
-0.30103	สอบย่อย </s>
-0.30103	สะกด </s>
-0.30103	สะสาง </s>
-0.30103	สะอาด </s>
-0.30103	สัก </s>
-0.30103	สังเกต </s>
-0.30103	สังเกตุ </s>
-0.30103	สับ </s>
-0.30103	สับตะไคร้ </s>
-0.30103	สัปดาห์ </s>
-0.30103	สั่ง </s>
-0.30103	สั่งงาน </s>
-0.30103	สั้น </s>
-0.30103	สาขา </s>
-0.30103	สาม </s>
-0.30103	สามย่าน </s>
-0.30103	สามารถ </s>
-0.30103	สาย </s>
-0.30103	สำหรับ </s>
-0.30103	สิ </s>
-0.30103	สิงหา </s>
-0.30103	สินค้า </s>
-0.30103	สิบ </s>
-0.30103	สิบเอ็ด </s>
-0.30103	สิ่ง </s>
-0.30103	สิ่งก่อสร้าง </s>
-0.30103	สิ้น </s>
-0.30103	สี </s>
-0.30103	สี่ </s>
-0.30103	สุก </s>
-0.30103	สุกี้ </s>
-0.30103	สุกๆ </s>
-0.30103	สุขภาพ </s>
-0.30103	สุด </s>
-0.30103	สุดท้าย </s>
-0.30103	สุภาพ </s>
-0.30103	สุ่ม </s>
-0.30103	สูง </s>
-0.30103	สูตร </s>
-0.30103	สเต็ก </s>
-0.30103	สแควร์ </s>
-0.30103	ส่ง </s>
-0.30103	ส่วน </s>
-0.30103	ส่วนผสม </s>
-0.30103	ส่วนลด </s>
-0.30103	ส่าย </s>
-0.30103	ส้ม </s>
-0.30103	ส้มตำ </s>
-0.30103	หก </s>
-0.30103	หญ้า </s>
-0.30103	หนัง </s>
-0.30103	หนังสือ </s>
-0.30103	หนาว </s>
-0.30103	หนี </s>
-0.30103	หนี้ </s>
-0.30103	หนึ่ง </s>
-0.30103	หน่อย </s>
-0.30103	หน้า </s>
-0.30103	หน้าจอ </s>
-0.30103	หน้าต่าง </s>
-0.30103	หน้าบ้าน </s>
-0.30103	หน้้า </s>
-0.30103	หมด </s>
-0.30103	หมอ </s>
-0.30103	หมา </s>
-0.30103	หมายเลข </s>
-0.30103	หมี่กรอบ </s>
-0.30103	หมื่น </s>
-0.30103	หมู </s>
-0.30103	หมูกระเทียม </s>
-0.30103	หมูสับ </s>
-0.30103	หมู่บ้าน </s>
-0.30103	หยิบ </s>
-0.30103	หยุด </s>
-0.30103	หรือ </s>
-0.30103	หลบหลีก </s>
-0.30103	หลอด </s>
-0.30103	หลัง </s>
-0.30103	หลังบ้าน </s>
-0.30103	หลับ </s>
-0.30103	หลาย </s>
-0.30103	หวาน </s>
-0.30103	หวาย </s>
-0.30103	หอ </s>
-0.30103	หอกลาง </s>
-0.30103	หอย </s>
-0.30103	หอยแครง </s>
-0.30103	หัน </s>
-0.30103	หัว </s>
-0.30103	หัวหอม </s>
-0.30103	หา </s>
-0.30103	หาย </s>
-0.30103	หิน </s>
-0.30103	หิว </s>
-0.30103	หีบ </s>
-0.30103	หุง </s>
-0.30103	ห่าง </s>
-0.30103	ห้อง </s>
-0.30103	ห้องครัว </s>
-0.30103	ห้องนอน </s>
-0.30103	ห้องน้ำ </s>
-0.30103	ห้องพัก </s>
-0.30103	ห้องสมุด </s>
-0.30103	ห้า </s>
-0.30103	อ </s>
-0.30103	องศา </s>
-0.30103	อด </s>
-0.30103	อติวงศ์ </s>
-0.30103	อบ </s>
-0.30103	อยาก </s>
-0.30103	อยู่ </s>
-0.30103	อย่า </s>
-0.30103	อย่าง </s>
-0.30103	อย่างน้อย </s>
-0.30103	อย่างไร </s>
-0.30103	อร่อย </s>
-0.30103	อวด </s>
-0.30103	ออก </s>
-0.30103	ออน </s>
-0.30103	ออสการ์ </s>
-0.30103	ออเดอร์ </s>
-0.30103	ออเรนจิน่า </s>
-0.30103	อะ </s>
-0.30103	อะไร </s>
-0.30103	อะไรบ้าง </s>
-0.30103	อะไรวอล </s>
-0.30103	อักษร </s>
-0.30103	อังกฤษ </s>
-0.30103	อังคาร </s>
-0.30103	อัน </s>
-0.30103	อันดับ </s>
-0.30103	อันเดอร์วอเตอร์เวิล์ด </s>
-0.30103	อัปเดต </s>
-0.30103	อัพ </s>
-0.30103	อัพโหลด </s>
-0.30103	อัลกอริทึม </s>
-0.30103	อา </s>
-0.30103	อาจารย์ </s>
-0.30103	อาทิตย์ </s>
-0.30103	อาบ </s>
-0.30103	อาบน้ำ </s>
-0.30103	อาม </s>
-0.30103	อาย </s>
-0.30103	อายุ </s>
-0.30103	อาราบิก้า </s>
-0.30103	อาร์ </s>
-0.30103	อาวุธ </s>
-0.30103	อาหาร </s>
-0.30103	อาหารตะวันตก </s>
-0.30103	อาหารตะวันออก </s>
-0.30103	อาหารบูด </s>
-0.30103	อาหารเสีย </s>
-0.30103	อาหารไทย </s>
-0.30103	อาารย์ </s>
-0.30103	อิท </s>
-0.30103	อินเซปชั่น </s>
-0.30103	อี </s>
-0.30103	อีก </s>
-0.30103	อีเมล </s>
-0.30103	อีเมล์ </s>
-0.30103	อื่น </s>
-0.30103	อุณหภูมิ </s>
-0.30103	อุปกรณ์ </s>
-0.30103	อุ้ม </s>
-0.30103	อเมซอน </s>
-0.30103	อเมริกาโน่ </s>
-0.30103	อ่าน </s>
-0.30103	อ้วน </s>
-0.30103	อ้อม </s>
-0.30103	อ้อย </s>
-0.30103	อ้างอิง </s>
-0.30103	ฮันนี่มูน </s>
-0.30103	ฮาจิบัง </s>
-0.30103	ฮิจิริ </s>
-0.30103	ฮิต </s>
-0.30103	ฮิว </s>
-0.30103	เกม </s>
-0.30103	เกมส์ </s>
-0.30103	เกรด </s>
-0.30103	เกราะ </s>
-0.30103	เกลือ </s>
-0.30103	เกาหลี </s>
-0.30103	เกาเหลา </s>
-0.30103	เกิด </s>
-0.30103	เกิน </s>
-0.30103	เกี่ยว </s>
-0.30103	เกี้ยว </s>
-0.30103	เก็บ </s>
-0.30103	เก้า </s>
-0.30103	เก๊าท์ </s>
-0.30103	เขต </s>
-0.30103	เขม </s>
-0.30103	เขียน </s>
-0.30103	เขียนโปรแกรม </s>
-0.30103	เขียว </s>
-0.30103	เข้า </s>
-0.30103	เข้าฉาย </s>
-0.30103	เข้าใจ </s>
-0.30103	เค </s>
-0.30103	เครดิต </s>
-0.30103	เครป </s>
-0.30103	เครือ </s>
-0.30103	เครื่อง </s>
-0.30103	เครื่องคิดเลข </s>
-0.30103	เครื่องปรุง </s>
-0.30103	เคร่ง </s>
-0.30103	เคลียร์ </s>
-0.30103	เคล็ดลับ </s>
-0.30103	เคียว </s>
-0.30103	เคเอฟซี </s>
-0.30103	เค็ม </s>
-0.30103	เค้ก </s>
-0.30103	เค้าเตอร์ </s>
-0.30103	เงิน </s>
-0.30103	เงียบ </s>
-0.30103	เจน </s>
-0.30103	เจฟเฟอร์ </s>
-0.30103	เจียว </s>
-0.30103	เจ็ด </s>
-0.30103	เจ็นเอ็ด </s>
-0.30103	เจ้า </s>
-0.30103	เจ้าของ </s>
-0.30103	เจ้าหน้าที่ </s>
-0.30103	เจ๊ </s>
-0.30103	เฉพาะ </s>
-0.30103	เฉลี่ย </s>
-0.30103	เชดส์ </s>
-0.30103	เชอร์รี่ </s>
-0.30103	เชิร์ต </s>
-0.30103	เชื่อม </s>
-0.30103	เช็ค </s>
-0.30103	เช่า </s>
-0.30103	เช้า </s>
-0.30103	เซงเซียมอี๊ </s>
-0.30103	เซนเตอร์ </s>
-0.30103	เซลล์ </s>
-0.30103	เซอเคิล </s>
-0.30103	เซเว่น </s>
-0.30103	เซ็ต </s>
-0.30103	เซ็นทรัลเวิลด์ </s>
-0.30103	เดบิต </s>
-0.30103	เดอะ </s>
-0.30103	เดิน </s>
-0.30103	เดิม </s>
-0.30103	เดียว </s>
-0.30103	เดือน </s>
-0.30103	เด็ก </s>
-0.30103	เด็ด </s>
-0.30103	เตรียม </s>
-0.30103	เตาถ่าน </s>
-0.30103	เตาแก๊ส </s>
-0.30103	เติม </s>
-0.30103	เตือน </s>
-0.30103	เต็ม </s>
-0.30103	เต๋อ </s>
-0.30103	เถอะ </s>
-0.30103	เทค </s>
-0.30103	เทพ </s>
-0.30103	เทมปุระด้ง </s>
-0.30103	เทอม </s>
-0.30103	เทา </s>
-0.30103	เทิร์น </s>
-0.30103	เที่ยง </s>
-0.30103	เท่า </s>
-0.30103	เท่ากับ </s>
-0.30103	เท่านั้น </s>
-0.30103	เท่าไร </s>
-0.30103	เท่าไหร่ </s>
-0.30103	เนย </s>
-0.30103	เนอะ </s>
-0.30103	เนี่ย </s>
-0.30103	เนื้อ </s>
-0.30103	เนื้อปลา </s>
-0.30103	เนื้อหมู </s>
-0.30103	เนื้อไก่ </s>
-0.30103	เน็ต </s>
-0.30103	เบอร์ </s>
-0.30103	เบอร์เกอร์ </s>
-0.30103	เบา </s>
-0.30103	เบาหวาน </s>
-0.30103	เบาๆ </s>
-0.30103	เบิด </s>
-0.30103	เบี้ย </s>
-0.30103	เบื่อ </s>
-0.30103	เปรียบเทียบ </s>
-0.30103	เปรี้ยว </s>
-0.30103	เปลี่ยน </s>
-0.30103	เปล่า </s>
-0.30103	เปอร์เซนต์ </s>
-0.30103	เปอร์เซ็นต์ </s>
-0.30103	เปิด </s>
-0.30103	เป็น </s>
-0.30103	เป็ปซี่ </s>
-0.30103	เผา </s>
-0.30103	เผื่อ </s>
-0.30103	เผ็ด </s>
-0.30103	เพจ </s>
-0.30103	เพชร </s>
-0.30103	เพลง </s>
-0.30103	เพลิง </s>
-0.30103	เพิ่ม </s>
-0.30103	เพื่อน </s>
-0.30103	เฟท </s>
-0.30103	เฟ้ย </s>
-0.30103	เมนู </s>
-0.30103	เมล็ด </s>
-0.30103	เมล์ </s>
-0.30103	เมษายน </s>
-0.30103	เมอร์ลิน </s>
-0.30103	เมื่อ </s>
-0.30103	เมื่อคืน </s>
-0.30103	เมื่อวาน </s>
-0.30103	เมื่อไร </s>
-0.30103	เมื่อไหร่ </s>
-0.30103	เมเจอร์ </s>
-0.30103	เยน </s>
-0.30103	เยอะ </s>
-0.30103	เยาะ </s>
-0.30103	เยี่ยม </s>
-0.30103	เย็น </s>
-0.30103	เย็นนี้ </s>
-0.30103	เย้ย </s>
-0.30103	เรตติ้ง </s>
-0.30103	เรา </s>
-0.30103	เริ่ม </s>
-0.30103	เรียก </s>
-0.30103	เรียง </s>
-0.30103	เรียน </s>
-0.30103	เรียนพิเศษ </s>
-0.30103	เรือ </s>
-0.30103	เรื่อง </s>
-0.30103	เรื่องย่อ </s>
-0.30103	เร็ว </s>
-0.30103	เลคเชอร์ </s>
-0.30103	เลย </s>
-0.30103	เลิก </s>
-0.30103	เลิฟ </s>
-0.30103	เลี้ยง </s>
-0.30103	เลือก </s>
-0.30103	เลือด </s>
-0.30103	เลื่อน </s>
-0.30103	เลโก </s>
-0.30103	เล็ก </s>
-0.30103	เล็ง </s>
-0.30103	เล่น </s>
-0.30103	เล่ม </s>
-0.30103	เว </s>
-0.30103	เวท </s>
-0.30103	เวทมนตร์ </s>
-0.30103	เวทมนต์ </s>
-0.30103	เวลา </s>
-0.30103	เวอร์ </s>
-0.30103	เวิคช็อป </s>
-0.30103	เวียดนาม </s>
-0.30103	เวเวอร์ </s>
-0.30103	เว็บไซต์ </s>
-0.30103	เศรษฐศาสตร์ </s>
-0.30103	เสนอ </s>
-0.30103	เสริมสวย </s>
-0.30103	เสร็จ </s>
-0.30103	เสร็็จ </s>
-0.30103	เสาร์ </s>
-0.30103	เสียง </s>
-0.30103	เสือ </s>
-0.30103	เสื้อ </s>
-0.30103	เสื้อผ้า </s>
-0.30103	เสื้อยืด </s>
-0.30103	เส้น </s>
-0.30103	เส้นเล็ก </s>
-0.30103	เส้นใหญ่ </s>
-0.30103	เหงา </s>
-0.30103	เหมาะ </s>
-0.30103	เหมือง </s>
-0.30103	เหมือน </s>
-0.30103	เหมือนกัน </s>
-0.30103	เหรอ </s>
-0.30103	เหรียญ </s>
-0.30103	เหลือ </s>
-0.30103	เหลือง </s>
-0.30103	เห็ด </s>
-0.30103	เห็น </s>
-0.30103	เอ </s>
-0.30103	เอกพล </s>
-0.30103	เอง </s>
-0.30103	เอช </s>
-0.30103	เอซ </s>
-0.30103	เอด </s>
-0.30103	เอทีเอม </s>
-0.30103	เอน </s>
-0.30103	เอฟ </s>
-0.30103	เอมอาที </s>
-0.30103	เอส </s>
-0.30103	เอสเปสโซ่ </s>
-0.30103	เอา </s>
-0.30103	เอเอสอาร์ </s>
-0.30103	เอ็กซ์ </s>
-0.30103	เอ็ด </s>
-0.30103	เอ็ม </s>
-0.30103	เอ็มเค </s>
-0.30103	เอ้าท์ </s>
-0.30103	เอ้าลาส </s>
-0.30103	แกง </s>
-0.30103	แกรน </s>
-0.30103	แกรนด์ </s>
-0.30103	แก้ </s>
-0.30103	แก้ว </s>
-0.30103	แก้ไข </s>
-0.30103	แคนเซิล </s>
-0.30103	แคลอรี่ </s>
-0.30103	แค่ไหน </s>
-0.30103	แจ็ค </s>
-0.30103	แจ็คเก็ต </s>
-0.30103	แจ้ง </s>
-0.30103	แจ๊กเก็ต </s>
-0.30103	แชร์ </s>
-0.30103	แซก </s>
-0.30103	แดง </s>
-0.30103	แตงกวา </s>
-0.30103	แตงโม </s>
-0.30103	แตงไทย </s>
-0.30103	แตะ </s>
-0.30103	แต่ </s>
-0.30103	แต้ม </s>
-0.30103	แถบ </s>
-0.30103	แถม </s>
-0.30103	แถว </s>
-0.30103	แท็กซี่ </s>
-0.30103	แท็บ </s>
-0.30103	แนน </s>
-0.30103	แนว </s>
-0.30103	แนะนำ </s>
-0.30103	แนะนำไหม </s>
-0.30103	แน่ </s>
-0.30103	แบคแพ็ค </s>
-0.30103	แบน </s>
-0.30103	แบบ </s>
-0.30103	แบบนี้ </s>
-0.30103	แบ็ทแมน </s>
-0.30103	แปด </s>
-0.30103	แปป </s>
-0.30103	แผนที่ </s>
-0.30103	แพง </s>
-0.30103	แพทย์ </s>
-0.30103	แพลนท์ </s>
-0.30103	แพ้ </s>
-0.30103	แฟต </s>
-0.30103	แฟน </s>
-0.30103	แฟลช </s>
-0.30103	แมค </s>
-0.30103	แมพ </s>
-0.30103	แย่ง </s>
-0.30103	แรก </s>
-0.30103	แลก </s>
-0.30103	แลคโตส </s>
-0.30103	แลนด์ </s>
-0.30103	แลนด์มาร์ค </s>
-0.30103	และ </s>
-0.30103	แล็บ </s>
-0.30103	แล้ว </s>
-0.30103	แล้้ว </s>
-0.30103	แว่น </s>
-0.30103	แสง </s>
-0.30103	แสดง </s>
-0.30103	แสตท </s>
-0.30103	แสน </s>
-0.30103	แหก </s>
-0.30103	แหม่ม </s>
-0.30103	แหละ </s>
-0.30103	แห้ง </s>
-0.30103	แอคชั่น </s>
-0.30103	แอด </s>
-0.30103	แอนด์ </s>
-0.30103	แอม </s>
-0.30103	แอมปาร์ค </s>
-0.30103	แอร์ </s>
-0.30103	แอล </s>
-0.30103	แอลจิบ้า </s>
-0.30103	แอ็คชั่น </s>
-0.30103	แฮรี่พอตเตอร์ </s>
-0.30103	โกง </s>
-0.30103	โกวาจี </s>
-0.30103	โครงสร้าง </s>
-0.30103	โฆษณา </s>
-0.30103	โจมตี </s>
-0.30103	โจ๊ก </s>
-0.30103	โฉนด </s>
-0.30103	โชตะ </s>
-0.30103	โซน </s>
-0.30103	โซฟา </s>
-0.30103	โดกาปอง </s>
-0.30103	โดด </s>
-0.30103	โดน </s>
-0.30103	โต๊ะ </s>
-0.30103	โทร </s>
-0.30103	โทรศัพท์ </s>
-0.30103	โบว์ลิ่ง </s>
-0.30103	โบ๊ท </s>
-0.30103	โปรด </s>
-0.30103	โปรเจค </s>
-0.30103	โปรแกรม </s>
-0.30103	โปรโมชัน </s>
-0.30103	โปรโมชั่น </s>
-0.30103	โพธิ์ดำ </s>
-0.30103	โพธิ์แดง </s>
-0.30103	โพสต์ </s>
-0.30103	โฟธ </s>
-0.30103	โฟร์ </s>
-0.30103	โมง </s>
-0.30103	โรคไต </s>
-0.30103	โรง </s>
-0.30103	โรงหนัง </s>
-0.30103	โรงอาหาร </s>
-0.30103	โรงแรม </s>
-0.30103	โรตี </s>
-0.30103	โรนัน </s>
-0.30103	โรบัสต้า </s>
-0.30103	โรแมนติก </s>
-0.30103	โลลิ </s>
-0.30103	โลแกน </s>
-0.30103	โหมด </s>
-0.30103	โหลด </s>
-0.30103	โอ </s>
-0.30103	โอว </s>
-0.30103	โอเวอร์ </s>
-0.30103	โอโตยะ </s>
-0.30103	โฮมเพจ </s>
-0.30103	ใกล้ </s>
-0.30103	ใคร </s>
-0.30103	ใจ </s>
-0.30103	ใช่ </s>
-0.30103	ใช่ไหม </s>
-0.30103	ใช้ </s>
-0.30103	ใต้ </s>
-0.30103	ใน </s>
-0.30103	ใบ </s>
-0.30103	ใส่ </s>
-0.30103	ใหญ่ </s>
-0.30103	ใหม่ </s>
-0.30103	ให้ </s>
-0.30103	ไก่ </s>
-0.30103	ไข่ </s>
-0.30103	ไข่ดาว </s>
-0.30103	ไข่ตุ๋น </s>
-0.30103	ไข่ต้ม </s>
-0.30103	ไข่ยางมะตูม </s>
-0.30103	ไข่ลวก </s>
-0.30103	ไข่เค็ม </s>
-0.30103	ไข่เจียว </s>
-0.30103	ไข่่ตุ๋น </s>
-0.30103	ไง </s>
-0.30103	ไซส์ </s>
-0.30103	ได้ </s>
-0.30103	ได้มั้ย </s>
-0.30103	ได้ไหม </s>
-0.30103	ไต </s>
-0.30103	ไตเติ้ล </s>
-0.30103	ไทย </s>
-0.30103	ไทยพาณิชย์ </s>
-0.30103	ไป </s>
-0.30103	ไผ่ </s>
-0.30103	ไผ่ทอง </s>
-0.30103	ไฟ </s>
-0.30103	ไฟนอล </s>
-0.30103	ไฟฟ้า </s>
-0.30103	ไมโครเวฟ </s>
-0.30103	ไม่ </s>
-0.30103	ไม่ว่าง </s>
-0.30103	ไม่สุก </s>
-0.30103	ไม่ใช่ </s>
-0.30103	ไม้ </s>
-0.30103	ไร </s>
-0.30103	ไรท์ติ้ง </s>
-0.30103	ไลน์ </s>
-0.30103	ไลฟ์ </s>
-0.30103	ไวท์ </s>
-0.30103	ไวฟุ </s>
-0.30103	ไวไฟ </s>
-0.30103	ไว้ </s>
-0.30103	ไส้ </s>
-0.30103	ไส้กรอง </s>
-0.30103	ไหน </s>
-0.30103	ไหม </s>
-0.30103	ไหม้ </s>
-0.30103	ไหร่ </s>
-0.30103	ไห้ </s>
-0.30103	ไอ </s>
-0.30103	ไอติม </s>
-0.30103	ไอที </s>
-0.30103	ไอรอนแมน </s>
-0.30103	ไอเดีย </s>
-0.30103	ไอเทม </s>
-0.30103	ไอเท็ม </s>
-0.30103	ไอแม็กซ์ </s>

\3-grams:

\end\
